<?xml version="1.0"?>
<opencv_storage>
<my_svm type_id="opencv-ml-svm">
  <svm_type>C_SVC</svm_type>
  <kernel><type>RBF</type>
    <gamma>5.0625000000000009e-001</gamma></kernel>
  <C>3.1250000000000000e+002</C>
  <term_criteria><epsilon>1.1920928955078125e-007</epsilon>
    <iterations>1000</iterations></term_criteria>
  <var_all>125</var_all>
  <var_count>125</var_count>
  <class_count>11</class_count>
  <class_labels type_id="opencv-matrix">
    <rows>1</rows>
    <cols>11</cols>
    <dt>i</dt>
    <data>
      1 2 3 4 5 6 7 8 20 27 30</data></class_labels>
  <sv_total>99</sv_total>
  <support_vectors>
    <_>
      0. 0. 2.73333341e-001 0. 0. 6.66666683e-003 0. 0. 6.66666683e-003
      0. 0. 0. 0. 2.66666673e-002 6.00000024e-002 0. 6.66666683e-003 0.
      0. 0. 0. 0. 6.66666683e-003 0. 0. 0. 0. 0. 0. 0. 0. 0. 0.
      1.33333337e-002 0. 0. 0. 0. 0. 0. 6.66666683e-003 0. 0.
      6.66666683e-003 0. 0. 0. 0. 0. 0. 0. 0. 0. 0. 0. 0.
      3.99999991e-002 0. 0. 0. 1.99999996e-002 0. 0. 0. 0.
      1.33333337e-002 3.33333351e-002 0. 6.66666683e-003 0. 0. 0. 0.
      2.00000003e-001 0. 0. 1.99999996e-002 0. 0. 2.66666673e-002 0. 0.
      0. 1.33333337e-002 0. 0. 0. 3.99999991e-002 0. 0. 0.
      6.66666683e-003 0. 0. 0. 0. 0. 0. 0. 0. 0. 0. 0. 0.
      3.33333351e-002 0. 6.66666683e-003 0. 0. 0. 0. 0. 6.66666683e-003
      0. 1.00000001e-001 0. 1.33333337e-002 0. 0. 6.66666683e-003 0. 0.
      0. 0. 0.</_>
    <_>
      0. 0. 2.14285716e-001 6.49350649e-003 0. 2.59740259e-002 0. 0. 0.
      0. 0. 0. 6.49350649e-003 6.49350649e-003 1.94805190e-002 0.
      6.49350649e-003 0. 6.49350649e-003 0. 0. 0. 0. 0. 0. 0. 0. 0. 0.
      0. 0. 0. 0. 6.49350649e-003 0. 1.29870130e-002 0. 0.
      6.49350649e-003 0. 0. 0. 0. 0. 0. 0. 0. 0. 6.49350649e-003 0. 0.
      0. 0. 0. 0. 0. 3.89610380e-002 0. 6.49350649e-003 0.
      6.49350649e-003 0. 0. 0. 0. 6.49350649e-003 3.89610380e-002 0. 0.
      0. 0. 0. 0. 3.05194795e-001 0. 0. 1.94805190e-002 0. 0.
      3.24675329e-002 0. 0. 6.49350649e-003 1.29870130e-002 0. 0. 0.
      1.29870130e-002 0. 0. 0. 0. 0. 0. 0. 0. 0. 6.49350649e-003 0. 0.
      0. 0. 0. 0. 2.59740259e-002 0. 1.29870130e-002 0. 0. 0. 0. 0.
      6.49350649e-003 0. 1.10389613e-001 0. 1.29870130e-002 0. 0.
      6.49350649e-003 0. 0. 6.49350649e-003 0. 0.</_>
    <_>
      0. 0. 1.32352948e-001 0. 0. 0. 0. 0. 0. 2.45098043e-002 0.
      4.90196096e-003 4.90196096e-003 5.39215691e-002 9.80392192e-003 0.
      9.80392192e-003 0. 9.80392192e-003 0. 4.90196096e-003
      9.80392192e-003 0. 0. 0. 4.90196096e-003 0. 0. 0. 0. 0. 0. 0.
      1.47058833e-002 0. 0. 0. 0. 9.80392192e-003 0. 9.80392192e-003 0.
      0. 4.90196096e-003 0. 0. 0. 4.90196096e-003 4.90196096e-003 0.
      9.80392192e-003 0. 9.80392192e-003 0. 4.90196096e-003
      4.90196096e-003 0. 4.90196096e-003 0. 0. 1.96078438e-002 0.
      4.90196096e-003 0. 0. 4.41176482e-002 5.39215691e-002
      1.47058833e-002 9.80392192e-003 0. 0. 0. 0. 1.47058830e-001 0. 0.
      8.82352963e-002 0. 0. 0. 0. 9.80392192e-003 4.90196096e-003
      2.45098043e-002 0. 4.90196096e-003 0. 0. 0. 0. 0. 4.90196096e-003
      0. 0. 0. 0. 0. 0. 0. 0. 4.90196096e-003 4.90196096e-003 0. 0. 0.
      4.90196096e-003 2.45098043e-002 0. 0. 0. 0. 0. 1.47058833e-002 0.
      1.27450988e-001 0. 4.90196096e-003 0. 0. 1.47058833e-002 0.
      4.90196096e-003 9.80392192e-003 0. 0.</_>
    <_>
      0. 0. 2.46305421e-001 0. 4.92610829e-003 4.92610829e-003 0. 0. 0.
      9.85221658e-003 0. 4.92610829e-003 4.92610829e-003 4.92610829e-003
      9.85221658e-003 0. 1.47783253e-002 0. 0. 0. 0. 0. 0. 0. 0. 0. 0.
      0. 0. 0. 9.85221658e-003 0. 0. 2.46305410e-002 4.92610829e-003 0.
      0. 0. 0. 4.92610829e-003 0. 0. 0. 4.92610829e-003 0. 0.
      9.85221658e-003 0. 9.85221658e-003 0. 1.47783253e-002 0.
      9.85221658e-003 0. 0. 4.92610829e-003 0. 0. 0. 0. 1.97044332e-002
      0. 4.92610829e-003 0. 9.85221658e-003 9.85221658e-003
      3.44827585e-002 9.85221658e-003 4.92610829e-003 0. 9.85221658e-003
      0. 0. 1.03448272e-001 0. 0. 1.23152710e-001 0. 0. 4.92610829e-003
      0. 9.85221658e-003 0. 4.92610829e-003 0. 4.92610829e-003 0.
      2.95566507e-002 0. 0. 0. 0. 0. 0. 0. 0. 0. 0. 0. 4.92610829e-003
      1.97044332e-002 0. 0. 0. 4.92610829e-003 4.92610829e-003
      9.85221658e-003 0. 0. 0. 0. 0. 0. 0. 8.86699483e-002 0. 0. 0. 0.
      4.92610829e-003 0. 9.85221658e-003 6.40394092e-002 0. 0.</_>
    <_>
      0. 0. 2.34375000e-001 0. 1.04166670e-002 5.20833349e-003 0.
      5.20833349e-003 5.20833349e-003 5.20833349e-003 0. 0. 0.
      4.16666679e-002 1.56250000e-002 0. 5.20833349e-003 0. 0. 0. 0. 0.
      5.20833349e-003 0. 5.20833349e-003 0. 0. 0. 0. 0. 0. 0. 0.
      1.56250000e-002 0. 5.20833349e-003 0. 0. 0. 0. 1.04166670e-002 0.
      0. 0. 0. 0. 0. 5.20833349e-003 0. 0. 0. 0. 0. 0. 0. 0.
      1.56250000e-002 0. 0. 0. 2.08333340e-002 0. 0. 0. 0.
      5.20833349e-003 3.12500000e-002 0. 0. 0. 0. 0. 0. 6.25000000e-002
      0. 0. 7.29166716e-002 0. 0. 0. 0. 1.04166670e-002 0.
      1.56250000e-002 0. 0. 0. 7.29166716e-002 0. 0. 0. 0. 0. 0. 0. 0.
      0. 0. 0. 0. 0. 0. 0. 0. 1.04166670e-002 0. 5.20833349e-003 0. 0.
      0. 0. 0. 5.20833349e-003 0. 2.29166672e-001 0. 5.20833349e-003 0.
      0. 0. 5.20833349e-003 0. 5.72916679e-002 0. 0.</_>
    <_>
      0. 0. 3.10126603e-001 0. 0. 3.16455700e-002 0. 0. 0. 0. 0. 0.
      6.32911408e-003 0. 1.26582282e-002 0. 0. 0. 0. 0. 0. 0. 0. 0. 0.
      0. 0. 0. 0. 0. 0. 0. 0. 1.89873427e-002 0. 0. 0. 0. 0. 0.
      6.32911408e-003 0. 0. 0. 0. 0. 0. 0. 0. 0. 0. 0. 0. 0. 0. 0.
      6.32911408e-003 0. 0. 0. 1.89873427e-002 0. 0. 0. 0. 0.
      1.26582282e-002 0. 0. 0. 0. 0. 0. 3.22784811e-001 0. 0.
      3.16455700e-002 0. 0. 1.26582282e-002 0. 1.26582282e-002 0.
      1.89873427e-002 0. 0. 0. 6.32911399e-002 0. 0. 0. 0. 0. 0. 0. 0.
      0. 0. 0. 0. 0. 1.26582282e-002 0. 0. 1.89873427e-002 0.
      6.32911408e-003 0. 0. 0. 0. 0. 0. 0. 6.96202517e-002 0. 0. 0. 0.
      0. 0. 0. 0. 0. 6.32911408e-003</_>
    <_>
      6.21118024e-003 0. 3.29192549e-001 0. 6.21118024e-003
      1.86335407e-002 0. 0. 0. 0. 0. 0. 1.86335407e-002 2.48447210e-002
      1.24223605e-002 0. 1.24223605e-002 0. 0. 0. 0. 0. 0. 0. 0. 0. 0.
      0. 0. 0. 0. 0. 0. 4.96894419e-002 0. 0. 0. 0. 0. 0.
      1.24223605e-002 0. 0. 0. 0. 0. 0. 0. 0. 0. 0. 0. 6.21118024e-003
      0. 0. 0. 5.59006222e-002 0. 0. 0. 4.34782617e-002 0. 0. 0. 0.
      1.86335407e-002 1.24223605e-002 0. 0. 0. 0. 0. 0. 1.92546591e-001
      0. 0. 4.34782617e-002 0. 0. 0. 0. 0. 0. 6.21118024e-003 0. 0. 0.
      0. 0. 0. 0. 0. 0. 0. 0. 0. 0. 0. 0. 6.21118024e-003 0. 0. 0. 0.
      4.96894419e-002 0. 0. 0. 0. 0. 0. 0. 0. 0. 4.96894419e-002 0.
      6.21118024e-003 0. 0. 0. 0. 6.21118024e-003 1.24223605e-002 0. 0.</_>
    <_>
      3.42465751e-003 3.42465751e-003 1.71232875e-002 2.05479451e-002 0.
      0. 0. 3.42465751e-003 5.47945201e-002 5.47945201e-002 0.
      3.42465751e-003 1.36986300e-002 3.42465751e-003 0. 0.
      3.42465751e-003 1.02739725e-002 0. 0. 0. 0. 0. 0. 0. 0. 0. 0. 0.
      3.42465751e-003 0. 0. 0. 1.36986300e-002 0. 3.08219176e-002 0. 0.
      1.36986300e-002 0. 0. 1.71232875e-002 3.42465751e-003
      4.79452051e-002 0. 0. 6.84931502e-003 0. 0. 0. 3.42465751e-003
      6.84931502e-003 3.76712307e-002 0. 0. 3.42465751e-003
      2.05479451e-002 0. 6.84931502e-003 0. 0. 3.42465751e-003
      6.84931502e-003 0. 0. 2.73972601e-002 2.39726026e-002
      3.42465751e-003 6.84931502e-003 3.42465751e-003 0. 0. 0.
      1.02739725e-002 0. 0. 1.36986300e-002 0. 3.42465751e-002
      5.13698608e-002 0. 0. 3.42465751e-003 1.71232875e-002 0. 0. 0.
      3.42465751e-003 0. 1.02739725e-002 3.42465751e-003 4.10958901e-002
      3.42465751e-003 0. 0. 0. 0. 0. 3.42465751e-002 0. 3.42465751e-003
      1.71232875e-002 0. 0. 2.05479451e-002 3.42465751e-003
      6.84931502e-003 6.84931502e-003 2.39726026e-002 0. 3.42465751e-003
      6.84931502e-003 0. 8.90410990e-002 2.05479451e-002 6.84931502e-003
      1.36986300e-002 0. 3.42465751e-003 1.02739725e-002 0.
      3.42465751e-002 2.05479451e-002 0. 0.</_>
    <_>
      0. 0. 5.18518500e-002 4.07407396e-002 3.70370364e-003
      3.70370364e-003 0. 0. 1.48148146e-002 5.18518500e-002 0.
      1.11111104e-002 4.44444418e-002 1.11111104e-002 3.70370364e-003 0.
      0. 1.11111104e-002 3.70370364e-003 0. 3.70370364e-003
      3.70370364e-003 0. 0. 0. 0. 0. 0. 0. 0. 0. 0. 3.70370364e-003
      2.22222209e-002 0. 1.85185187e-002 0. 0. 1.48148146e-002 0.
      3.70370364e-003 7.40740728e-003 3.70370364e-003 2.59259250e-002 0.
      0. 0. 0. 0. 0. 0. 0. 1.48148146e-002 0. 0. 7.40740728e-003
      1.48148146e-002 0. 0. 0. 7.40740728e-003 0. 3.70370364e-003
      3.70370364e-003 0. 2.59259250e-002 1.48148146e-002 3.70370364e-003
      7.40740728e-003 0. 0. 0. 0. 0. 0. 3.70370364e-003 2.59259250e-002
      0. 4.44444418e-002 5.55555560e-002 0. 0. 0. 0. 0. 7.40740728e-003
      0. 7.40740728e-003 0. 1.11111104e-002 0. 1.85185187e-002 0. 0. 0.
      0. 0. 0. 6.29629642e-002 0. 3.70370364e-003 2.22222209e-002
      3.70370364e-003 0. 1.85185187e-002 7.40740728e-003 0.
      1.48148146e-002 1.85185187e-002 3.70370364e-003 0. 0. 0.
      2.22222209e-002 2.59259250e-002 1.11111104e-002 1.11111104e-002 0.
      3.70370364e-003 4.44444418e-002 7.40740728e-003 5.92592582e-002
      2.22222209e-002 0. 0.</_>
    <_>
      0. 3.24675324e-003 6.16883114e-002 1.94805190e-002 0. 0.
      3.24675324e-003 0. 6.81818202e-002 4.22077924e-002 0. 0.
      5.19480519e-002 9.74025950e-003 3.24675324e-003 0. 3.24675324e-003
      1.29870130e-002 3.24675324e-003 0. 0. 0. 3.24675324e-003 0. 0.
      3.24675324e-003 0. 3.24675324e-003 3.24675324e-003 0.
      6.49350649e-003 3.24675324e-003 0. 1.29870130e-002 9.74025950e-003
      1.62337665e-002 0. 0. 9.74025950e-003 0. 0. 9.74025950e-003 0.
      6.81818202e-002 0. 0. 6.49350649e-003 0. 1.94805190e-002 0. 0. 0.
      1.94805190e-002 0. 9.74025950e-003 1.29870130e-002 1.29870130e-002
      0. 9.74025950e-003 0. 0. 0. 0. 9.74025950e-003 3.24675324e-003
      2.59740259e-002 1.62337665e-002 3.24675324e-003 6.49350649e-003 0.
      0. 0. 0. 0. 0. 0. 9.74025950e-003 3.24675324e-003 3.89610380e-002
      4.22077924e-002 0. 3.24675324e-003 0. 9.74025950e-003 0.
      6.49350649e-003 0. 1.29870130e-002 0. 3.24675324e-003 0.
      1.62337665e-002 0. 0. 3.24675324e-003 0. 0. 0. 1.94805190e-002 0.
      0. 3.57142873e-002 0. 0. 1.62337665e-002 9.74025950e-003 0.
      3.24675324e-003 1.62337665e-002 0. 0. 0. 0. 9.74025950e-003
      2.27272734e-002 6.49350649e-003 1.29870130e-002 0. 3.24675324e-003
      5.19480519e-002 3.24675324e-003 4.87012975e-002 3.24675324e-003 0.
      0.</_>
    <_>
      0. 1.14503819e-002 6.87022880e-002 7.63358781e-003 0. 0. 0. 0.
      2.29007639e-002 5.34351133e-002 0. 1.14503819e-002 1.90839693e-002
      3.81679391e-003 7.63358781e-003 0. 0. 7.63358781e-003
      7.63358781e-003 0. 3.81679391e-003 3.81679391e-003 3.81679391e-003
      3.81679391e-003 0. 0. 3.81679391e-003 3.81679391e-003 0. 0. 0.
      3.81679391e-003 0. 3.81679391e-003 0. 3.43511440e-002 0. 0.
      4.96183224e-002 0. 3.81679391e-003 1.90839693e-002 3.81679391e-003
      5.34351133e-002 0. 0. 1.14503819e-002 0. 0. 3.81679391e-003 0.
      3.81679391e-003 3.05343512e-002 0. 0. 1.14503819e-002
      1.14503819e-002 0. 0. 0. 0. 7.63358781e-003 1.52671756e-002
      3.81679391e-003 0. 4.19847332e-002 1.90839693e-002 3.81679391e-003
      2.29007639e-002 0. 0. 0. 0. 0. 0. 0. 7.63358781e-003
      3.81679391e-003 3.05343512e-002 3.43511440e-002 7.63358781e-003 0.
      0. 0. 0. 0. 0. 1.14503819e-002 0. 1.14503819e-002 3.81679391e-003
      2.29007639e-002 3.81679391e-003 0. 0. 0. 0. 0. 1.52671756e-002 0.
      0. 3.43511440e-002 0. 0. 2.29007639e-002 0. 0. 0. 1.90839693e-002
      0. 3.81679391e-003 0. 3.81679391e-003 3.05343512e-002
      1.52671756e-002 0. 3.05343512e-002 0. 3.81679391e-003
      2.67175566e-002 0. 3.43511440e-002 1.90839693e-002 0. 0.</_>
    <_>
      3.26797389e-003 0. 7.51634017e-002 1.30718956e-002 0. 0. 0. 0.
      1.96078438e-002 2.94117648e-002 0. 6.53594779e-003 4.24836613e-002
      0. 3.26797389e-003 0. 6.53594779e-003 0. 1.30718956e-002 0.
      6.53594779e-003 1.63398702e-002 0. 0. 0. 0. 3.26797389e-003 0. 0.
      6.53594779e-003 0. 0. 0. 1.30718956e-002 0. 3.92156877e-002
      3.26797389e-003 0. 2.61437912e-002 0. 0. 9.80392192e-003 0.
      3.92156877e-002 0. 0. 0. 0. 6.53594779e-003 3.26797389e-003
      6.53594779e-003 0. 6.53594779e-003 0. 6.53594779e-003
      6.53594779e-003 3.26797389e-003 0. 1.30718956e-002 0. 0. 0.
      9.80392192e-003 0. 0. 1.63398702e-002 2.28758175e-002 0. 0. 0. 0.
      0. 0. 0. 0. 0. 1.30718956e-002 0. 2.28758175e-002 3.26797403e-002
      0. 3.26797389e-003 0. 0. 0. 9.80392192e-003 0. 0. 0.
      2.61437912e-002 0. 2.28758175e-002 0. 0. 0. 3.26797389e-003 0. 0.
      3.92156877e-002 0. 0. 2.61437912e-002 0. 0. 1.30718956e-002 0.
      6.53594779e-003 2.61437912e-002 1.96078438e-002 0. 6.53594779e-003
      0. 0. 1.63398702e-002 7.51634017e-002 9.80392192e-003
      1.63398702e-002 0. 0. 3.92156877e-002 9.80392192e-003
      7.18954280e-002 1.30718956e-002 0. 0.</_>
    <_>
      0. 0. 3.50194536e-002 2.33463030e-002 0. 0. 0. 3.89105058e-003
      2.33463030e-002 7.78210089e-002 0. 7.78210117e-003 5.05836569e-002
      7.78210117e-003 3.89105058e-003 0. 3.89105058e-003 1.16731515e-002
      7.78210117e-003 0. 7.78210117e-003 0. 3.89105058e-003 0. 0. 0. 0.
      0. 0. 0. 0. 3.89105058e-003 0. 1.55642023e-002 0. 3.89105044e-002
      0. 0. 3.50194536e-002 0. 0. 1.16731515e-002 0. 6.22568093e-002 0.
      0. 0. 0. 0. 0. 0. 0. 1.16731515e-002 0. 0. 3.89105058e-003
      2.72373538e-002 0. 0. 0. 0. 0. 1.55642023e-002 0. 0.
      1.16731515e-002 5.05836569e-002 0. 1.16731515e-002 0. 0.
      3.89105058e-003 0. 3.89105058e-003 0. 0. 7.78210117e-003
      7.78210117e-003 3.89105044e-002 3.50194536e-002 0. 1.55642023e-002
      3.89105058e-003 7.78210117e-003 0. 0. 0. 1.55642023e-002 0.
      7.78210117e-003 0. 1.16731515e-002 3.89105058e-003 0. 0. 0. 0. 0.
      1.94552522e-002 0. 0. 1.16731515e-002 0. 0. 6.22568093e-002 0.
      3.89105058e-003 7.78210117e-003 1.55642023e-002 0. 3.89105058e-003
      0. 0. 3.11284047e-002 1.94552522e-002 3.89105058e-003
      7.78210117e-003 0. 3.89105058e-003 3.50194536e-002 0.
      2.33463030e-002 1.94552522e-002 0. 0.</_>
    <_>
      1.07142860e-002 0. 4.28571440e-002 2.14285720e-002 7.14285718e-003
      0. 0. 0. 1.78571437e-002 3.57142873e-002 0. 1.78571437e-002
      3.21428590e-002 1.07142860e-002 7.14285718e-003 0. 0.
      3.57142859e-003 1.78571437e-002 0. 0. 1.07142860e-002 0. 0. 0. 0.
      0. 0. 0. 3.57142859e-003 0. 3.57142859e-003 0. 3.57142859e-003 0.
      2.50000004e-002 3.57142859e-003 0. 1.42857144e-002 3.57142859e-003
      0. 7.14285718e-003 0. 3.57142873e-002 0. 0. 0. 0. 0. 0.
      3.57142859e-003 3.57142859e-003 3.57142873e-002 0. 0.
      7.14285718e-003 7.14285718e-003 0. 3.57142859e-003 0.
      3.57142859e-003 0. 2.85714287e-002 3.57142859e-003 0.
      2.50000004e-002 1.07142860e-002 7.14285718e-003 7.14285718e-003 0.
      0. 0. 0. 3.57142859e-003 0. 0. 1.78571437e-002 0. 1.07142860e-002
      6.42857179e-002 0. 0. 7.14285718e-003 0. 0. 1.42857144e-002 0.
      1.42857144e-002 0. 7.14285718e-003 0. 1.78571437e-002 0. 0. 0.
      3.57142859e-003 0. 0. 3.57142873e-002 0. 0. 5.00000007e-002 0. 0.
      3.57142859e-003 7.14285718e-003 0. 1.42857144e-002 1.42857144e-002
      3.57142859e-003 0. 0. 0. 8.92857164e-002 3.21428590e-002
      7.14285718e-003 1.42857144e-002 0. 3.57142859e-003 2.50000004e-002
      7.14285718e-003 2.85714287e-002 2.14285720e-002 0. 0.</_>
    <_>
      0. 0. 4.93827164e-002 2.77777780e-002 0. 0. 0. 0. 2.46913582e-002
      3.39506194e-002 0. 1.23456791e-002 3.08641978e-002 6.17283955e-003
      1.23456791e-002 3.08641978e-003 0. 1.23456791e-002 9.25925933e-003
      0. 0. 3.08641978e-003 0. 0. 0. 6.17283955e-003 0. 0.
      3.08641978e-003 0. 0. 0. 0. 2.16049384e-002 0. 3.08641978e-002 0.
      0. 2.77777780e-002 0. 6.17283955e-003 6.17283955e-003 0.
      4.32098769e-002 0. 0. 0. 0. 6.17283955e-003 0. 0. 0.
      9.25925933e-003 0. 0. 6.17283955e-003 1.23456791e-002 0. 0. 0.
      3.08641978e-003 0. 3.08641978e-003 0. 3.08641978e-003
      4.93827164e-002 2.46913582e-002 0. 2.16049384e-002 0. 0. 0. 0.
      1.54320989e-002 0. 0. 2.46913582e-002 0. 2.16049384e-002
      5.55555560e-002 0. 6.17283955e-003 3.08641978e-003 9.25925933e-003
      0. 3.08641978e-003 0. 1.85185187e-002 3.08641978e-003
      2.77777780e-002 0. 2.77777780e-002 0. 0. 0. 0. 0. 0.
      2.16049384e-002 0. 0. 2.77777780e-002 0. 0. 6.17283955e-003
      3.08641978e-003 6.17283955e-003 9.25925933e-003 2.46913582e-002 0.
      3.08641978e-003 0. 3.08641978e-003 2.77777780e-002 9.25925933e-003
      3.08641978e-003 2.16049384e-002 0. 0. 6.17283955e-002
      3.08641978e-003 3.39506194e-002 9.25925933e-003 0. 0.</_>
    <_>
      9.67741944e-003 3.22580640e-003 2.90322583e-002 1.61290318e-002 0.
      0. 6.45161280e-003 0. 1.93548389e-002 7.09677413e-002 0.
      1.29032256e-002 3.22580636e-002 6.45161280e-003 3.22580640e-003 0.
      3.22580640e-003 3.22580636e-002 6.45161280e-003 0. 3.22580640e-003
      0. 0. 0. 0. 0. 0. 0. 0. 3.22580640e-003 0. 6.45161280e-003
      6.45161280e-003 9.67741944e-003 0. 1.93548389e-002 0. 0.
      2.58064512e-002 6.45161280e-003 0. 9.67741944e-003 6.45161280e-003
      4.83870953e-002 0. 0. 0. 3.22580640e-003 6.45161280e-003 0.
      3.22580640e-003 0. 1.29032256e-002 0. 6.45161280e-003
      9.67741944e-003 6.45161280e-003 0. 3.22580640e-003 0.
      6.45161280e-003 0. 0. 9.67741944e-003 0. 1.61290318e-002
      5.48387095e-002 3.22580640e-003 2.25806441e-002 3.22580640e-003 0.
      0. 0. 0. 0. 0. 1.29032256e-002 0. 3.22580636e-002 2.25806441e-002
      0. 6.45161280e-003 6.45161280e-003 3.22580640e-003 3.22580640e-003
      3.22580640e-003 0. 1.93548389e-002 0. 1.29032256e-002 0.
      3.87096778e-002 3.22580640e-003 0. 0. 0. 0. 0. 9.67741944e-003 0.
      0. 4.19354849e-002 0. 0. 2.25806441e-002 3.22580640e-003
      6.45161280e-003 6.45161280e-003 1.93548389e-002 3.22580640e-003
      6.45161280e-003 0. 0. 1.61290318e-002 1.93548389e-002
      3.22580640e-003 1.93548389e-002 0. 3.22580640e-003 5.48387095e-002
      6.45161280e-003 1.93548389e-002 9.67741944e-003 0. 0.</_>
    <_>
      0. 5.03355730e-003 3.85906026e-002 1.34228189e-002 5.03355730e-003
      1.67785236e-003 3.35570471e-003 1.84563752e-002 0. 5.03355730e-003
      1.34228189e-002 0. 1.67785231e-002 1.67785236e-003 1.67785236e-003
      1.00671146e-002 1.67785236e-003 0. 1.00671146e-002 6.71140943e-003
      4.02684584e-002 0. 4.86577190e-002 1.67785231e-002 1.67785236e-003
      1.67785236e-003 0. 0. 1.67785236e-003 1.67785236e-003
      1.00671146e-002 3.18791941e-002 1.67785236e-003 8.38926155e-003
      8.38926155e-003 2.01342292e-002 8.38926155e-003 2.51677856e-002
      1.67785236e-003 2.18120813e-002 6.71140943e-003 3.35570471e-003
      1.67785236e-003 0. 1.00671146e-002 3.35570471e-003 5.03355730e-003
      0. 1.51006710e-002 1.67785236e-003 1.34228189e-002 5.03355730e-003
      0. 8.38926155e-003 6.71140943e-003 1.17449667e-002 0.
      1.00671146e-002 1.67785236e-003 1.67785236e-003 3.35570471e-003
      3.35570471e-003 1.00671146e-002 1.67785236e-003 2.68456377e-002
      8.38926155e-003 8.38926155e-003 1.34228189e-002 5.03355730e-003
      5.03355730e-003 1.17449667e-002 1.67785236e-003 1.17449667e-002
      1.67785236e-003 1.34228189e-002 2.68456377e-002 5.03355730e-003
      4.36241627e-002 3.35570471e-003 1.34228189e-002 1.00671146e-002
      5.03355730e-003 1.00671146e-002 3.35570471e-003 1.00671146e-002
      1.00671146e-002 3.35570471e-003 3.35570471e-003 5.03355730e-003
      3.35570471e-003 0. 2.18120813e-002 3.35570462e-002 0.
      1.00671146e-002 8.38926155e-003 1.34228189e-002 0. 0.
      5.03355730e-003 3.35570471e-003 8.38926155e-003 1.67785236e-003
      5.03355730e-003 3.35570471e-003 1.51006710e-002 3.35570471e-003
      8.38926155e-003 0. 0. 3.35570471e-003 0. 2.85234898e-002 0.
      3.35570471e-003 0. 3.35570471e-003 5.03355730e-003 6.71140943e-003
      0. 6.71140943e-003 1.67785236e-003 5.03355730e-003 0.
      5.03355730e-003</_>
    <_>
      0. 4.27350448e-003 6.41025696e-003 1.06837610e-002 2.13675224e-003
      0. 6.41025696e-003 4.27350448e-003 0. 6.41025696e-003
      4.27350448e-003 2.13675220e-002 2.77777798e-002 2.13675224e-003 0.
      2.13675224e-003 0. 4.27350448e-003 6.41025696e-003 2.13675224e-003
      2.35042740e-002 4.27350448e-003 5.12820557e-002 8.54700897e-003
      4.27350448e-003 2.13675224e-003 0. 2.13675224e-003 4.27350448e-003
      4.27350448e-003 8.54700897e-003 3.20512839e-002 2.13675224e-003
      4.27350448e-003 2.13675224e-003 1.92307699e-002 6.41025696e-003
      4.27350448e-003 0. 1.70940179e-002 4.27350448e-003 1.28205139e-002
      6.41025696e-003 2.13675224e-003 1.28205139e-002 1.49572659e-002 0.
      1.70940179e-002 2.77777798e-002 2.13675224e-003 1.49572659e-002 0.
      0. 2.77777798e-002 1.49572659e-002 0. 0. 8.54700897e-003
      4.27350448e-003 1.28205139e-002 0. 4.27350448e-003 4.27350448e-003
      0. 1.28205139e-002 1.06837610e-002 4.27350448e-003 2.56410278e-002
      4.27350448e-003 1.70940179e-002 0. 2.13675224e-003 2.56410278e-002
      0. 4.27350448e-003 2.13675224e-003 0. 7.05128238e-002 0.
      1.06837610e-002 8.54700897e-003 1.49572659e-002 1.28205139e-002 0.
      6.41025696e-003 6.41025696e-003 0. 4.27350448e-003 8.54700897e-003
      6.41025696e-003 0. 2.99145319e-002 3.84615399e-002 2.13675224e-003
      6.41025696e-003 2.13675224e-003 8.54700897e-003 0. 0. 0. 0.
      1.92307699e-002 2.35042740e-002 1.49572659e-002 4.27350448e-003
      1.06837610e-002 6.41025696e-003 0. 0. 2.13675224e-003
      2.13675224e-003 0. 3.41880359e-002 0. 2.13675224e-003
      2.13675224e-003 4.27350448e-003 0. 4.27350448e-003 0.
      6.41025696e-003 0. 2.13675224e-003 0. 1.06837610e-002</_>
    <_>
      0. 2.94550811e-003 2.79823262e-002 1.62002947e-002 2.94550811e-003
      0. 5.89101622e-003 1.62002947e-002 2.94550811e-003 4.41826228e-003
      4.41826228e-003 2.94550811e-003 5.89101622e-003 5.89101622e-003 0.
      1.03092780e-002 0. 0. 1.76730491e-002 2.94550811e-003
      2.35640649e-002 7.36377016e-003 2.94550806e-002 1.47275403e-002
      4.41826228e-003 1.47275405e-003 1.47275405e-003 4.41826228e-003
      5.89101622e-003 2.94550811e-003 8.83652456e-003 4.12371121e-002
      5.89101622e-003 2.94550811e-003 2.94550811e-003 1.62002947e-002
      1.47275403e-002 4.41826228e-003 2.94550811e-003 2.79823262e-002 0.
      2.94550811e-003 5.89101622e-003 1.47275405e-003 2.94550811e-003
      1.47275405e-003 2.94550811e-003 1.47275403e-002 2.20913105e-002 0.
      1.76730491e-002 1.47275405e-003 0. 2.50368193e-002 1.03092780e-002
      1.17820324e-002 0. 5.89101622e-003 1.47275405e-003 4.41826228e-003
      1.47275405e-003 1.47275405e-003 7.36377016e-003 4.41826228e-003
      1.76730491e-002 1.32547868e-002 1.03092780e-002 1.76730491e-002
      4.41826228e-003 1.03092780e-002 1.32547868e-002 4.41826228e-003
      4.41826228e-003 1.47275405e-003 4.41826228e-003 2.06185561e-002
      1.32547868e-002 6.62739351e-002 7.36377016e-003 8.83652456e-003
      4.41826228e-003 5.89101622e-003 8.83652456e-003 1.47275405e-003
      1.17820324e-002 7.36377016e-003 0. 1.47275405e-003 2.94550811e-003
      5.89101622e-003 2.94550811e-003 5.89101622e-003 4.71281298e-002 0.
      7.36377016e-003 1.47275405e-003 1.32547868e-002 0. 1.47275405e-003
      5.89101622e-003 5.89101622e-003 1.47275403e-002 1.03092780e-002
      5.89101622e-003 2.94550811e-003 1.17820324e-002 8.83652456e-003
      5.89101622e-003 1.47275405e-003 1.47275405e-003 5.89101622e-003
      1.47275405e-003 7.36377016e-003 2.94550811e-003 1.03092780e-002 0.
      0. 5.89101622e-003 1.76730491e-002 0. 7.36377016e-003 0.
      7.36377016e-003 1.47275405e-003 8.83652456e-003</_>
    <_>
      0. 0. 1.90930795e-002 7.15990458e-003 9.54653975e-003 0.
      4.77326987e-003 2.38663494e-003 0. 1.19331749e-002 1.67064443e-002
      1.19331749e-002 3.57995257e-002 0. 0. 7.15990458e-003 0. 0.
      2.38663498e-002 2.38663494e-003 9.54653975e-003 1.67064443e-002
      4.53460626e-002 7.15990458e-003 4.77326987e-003 1.19331749e-002 0.
      1.19331749e-002 1.19331749e-002 2.38663494e-003 2.86396183e-002
      1.90930795e-002 4.77326987e-003 1.90930795e-002 0. 2.38663494e-003
      7.15990458e-003 4.77326987e-003 0. 1.43198092e-002 0.
      4.77326987e-003 0. 0. 1.43198092e-002 2.38663494e-003
      4.77326987e-003 1.90930795e-002 3.57995257e-002 4.77326987e-003
      1.67064443e-002 4.77326987e-003 0. 0. 1.67064443e-002
      2.38663494e-003 0. 2.38663494e-003 2.38663494e-003 0.
      2.38663494e-003 9.54653975e-003 7.15990458e-003 4.77326987e-003
      7.15990458e-003 0. 3.34128886e-002 1.67064443e-002 0.
      7.15990458e-003 1.90930795e-002 9.54653975e-003 9.54653975e-003 0.
      3.10262535e-002 2.38663498e-002 0. 4.77326997e-002 0.
      2.38663494e-003 1.90930795e-002 1.19331749e-002 7.15990458e-003 0.
      2.38663494e-003 0. 2.38663494e-003 0. 4.77326987e-003
      2.38663494e-003 0. 2.62529850e-002 2.14797147e-002 0.
      1.43198092e-002 2.38663494e-003 0. 0. 0. 0. 7.15990458e-003
      3.10262535e-002 2.86396183e-002 0. 0. 1.90930795e-002
      4.77326987e-003 2.38663494e-003 0. 0. 4.77326987e-003 0.
      4.77326987e-003 0. 0. 1.43198092e-002 0. 9.54653975e-003
      2.38663494e-003 0. 4.77326987e-003 2.38663494e-003 4.77326987e-003
      2.38663494e-003 4.77326987e-003</_>
    <_>
      0. 0. 3.66300368e-003 2.19780225e-002 3.66300368e-003 0.
      1.09890113e-002 7.32600736e-003 0. 1.09890113e-002 1.09890113e-002
      3.66300368e-003 1.46520147e-002 1.09890113e-002 1.46520147e-002
      3.66300368e-003 0. 0. 2.93040294e-002 7.32600736e-003
      1.83150191e-002 7.32600736e-003 1.09890113e-002 7.32600736e-003
      3.66300368e-003 0. 0. 1.46520147e-002 3.66300368e-003 0.
      1.09890113e-002 3.66300368e-003 3.66300368e-003 1.46520147e-002 0.
      3.29670347e-002 0. 1.46520147e-002 0. 1.83150191e-002 0.
      1.09890113e-002 0. 0. 7.32600736e-003 1.09890113e-002 0. 0.
      1.09890113e-002 0. 3.66300368e-003 1.46520147e-002 0.
      1.09890113e-002 3.66300368e-003 3.66300368e-003 0. 1.09890113e-002
      0. 0. 0. 0. 0. 0. 3.29670347e-002 2.19780225e-002 1.46520147e-002
      0. 3.66300368e-003 3.66300368e-003 5.49450554e-002 1.46520147e-002
      0. 3.66300368e-003 2.19780225e-002 2.56410260e-002 1.83150191e-002
      4.02930416e-002 0. 2.19780225e-002 0. 7.32600736e-003
      7.32600736e-003 0. 7.32600736e-003 7.32600736e-003 0.
      3.66300368e-003 0. 4.02930416e-002 3.66300368e-003 5.49450554e-002
      1.09890113e-002 0. 3.66300368e-003 7.32600736e-003 0.
      3.66300368e-003 0. 0. 0. 7.32600736e-003 3.66300368e-003
      7.32600736e-003 1.46520147e-002 7.32600736e-003 1.09890113e-002
      7.32600736e-003 0. 3.66300368e-003 0. 7.32600736e-003 0.
      7.32600736e-003 2.19780225e-002 2.19780225e-002 3.66300368e-003
      7.32600736e-003 0. 0. 3.66300368e-003 0. 3.66300368e-003 0.
      1.83150191e-002</_>
    <_>
      0. 1.88679248e-003 3.20754722e-002 4.52830195e-002 5.66037744e-003
      0. 1.32075474e-002 5.66037744e-003 5.66037744e-003 5.66037744e-003
      9.43396240e-003 5.66037744e-003 2.64150947e-002 5.66037744e-003
      1.88679248e-003 7.54716992e-003 1.88679248e-003 1.88679248e-003
      2.45283023e-002 1.88679248e-003 4.15094346e-002 1.50943398e-002
      2.45283023e-002 5.66037744e-003 1.88679248e-003 3.77358496e-003
      1.88679248e-003 1.88679248e-003 0. 0. 5.66037744e-003
      2.45283023e-002 7.54716992e-003 7.54716992e-003 7.54716992e-003
      1.50943398e-002 7.54716992e-003 5.66037744e-003 0. 5.66037744e-003
      1.88679248e-003 0. 9.43396240e-003 0. 1.13207549e-002
      5.66037744e-003 1.88679248e-003 7.54716992e-003 7.54716992e-003 0.
      1.50943398e-002 3.77358496e-003 3.77358496e-003 3.58490571e-002
      1.32075474e-002 1.13207549e-002 0. 0. 0. 5.66037744e-003 0.
      3.77358496e-003 1.88679248e-003 1.88679248e-003 1.13207549e-002
      9.43396240e-003 1.13207549e-002 3.39622647e-002 3.77358496e-003
      5.66037744e-003 1.50943398e-002 9.43396240e-003 3.77358496e-003
      3.77358496e-003 9.43396240e-003 1.50943398e-002 9.43396240e-003
      5.28301895e-002 0. 3.77358496e-003 5.66037744e-003 1.88679248e-003
      1.50943398e-002 0. 7.54716992e-003 1.88679248e-003 7.54716992e-003
      1.88679248e-003 1.32075474e-002 9.43396240e-003 0. 5.66037744e-003
      2.83018872e-002 0. 7.54716992e-003 5.66037744e-003 7.54716992e-003
      1.88679248e-003 0. 5.66037744e-003 7.54716992e-003 7.54716992e-003
      2.64150947e-002 3.77358496e-003 3.77358496e-003 1.32075474e-002
      5.66037744e-003 7.54716992e-003 0. 1.88679248e-003 9.43396240e-003
      0. 3.77358496e-003 1.69811323e-002 1.50943398e-002 5.66037744e-003
      0. 5.66037744e-003 3.77358496e-003 0. 1.88679248e-003
      1.88679248e-003 5.66037744e-003 0. 1.88679248e-003</_>
    <_>
      0. 0. 2.84810141e-002 5.37974685e-002 0. 0. 0. 0. 0.
      3.79746854e-002 0. 1.26582282e-002 4.11392413e-002 6.32911408e-003
      3.16455704e-003 9.49367136e-003 3.16455704e-003 0. 7.27848113e-002
      3.16455704e-003 2.21518986e-002 5.69620281e-002 9.49367136e-003
      1.58227850e-002 3.16455704e-003 6.32911408e-003 3.16455704e-003 0.
      1.89873427e-002 0. 9.49367136e-003 2.21518986e-002 0.
      1.26582282e-002 0. 9.49367136e-003 3.16455704e-003 9.49367136e-003
      0. 3.16455704e-003 0. 9.49367136e-003 0. 0. 3.16455704e-003 0. 0.
      9.49367136e-003 3.48101258e-002 3.16455704e-003 1.58227850e-002 0.
      0. 1.26582282e-002 0. 0. 0. 1.26582282e-002 3.16455704e-003 0. 0.
      3.16455704e-003 0. 0. 9.49367136e-003 9.49367136e-003
      1.58227850e-002 3.16455704e-003 3.16455704e-003 6.32911408e-003 0.
      3.16455704e-003 3.16455704e-003 3.16455704e-003 9.49367136e-003
      2.84810141e-002 3.16455704e-003 4.74683568e-002 0. 9.49367136e-003
      0. 2.21518986e-002 9.49367136e-003 0. 6.32911408e-003
      1.58227850e-002 0. 0. 0. 6.32911408e-003 0. 1.89873427e-002
      1.89873427e-002 0. 9.49367136e-003 1.58227850e-002 0. 0. 0.
      6.32911408e-003 0. 2.53164563e-002 6.32911408e-003 3.16455704e-003
      6.32911408e-003 9.49367136e-003 1.58227850e-002 1.58227850e-002 0.
      0. 0. 0. 0. 0. 3.16455704e-003 6.32911408e-003 3.16455704e-003
      1.89873427e-002 0. 0. 9.49367136e-003 0. 6.32911408e-003 0. 0.</_>
    <_>
      0. 2.75482098e-003 8.26446339e-003 6.33608848e-002 5.50964195e-003
      0. 8.26446339e-003 1.10192839e-002 0. 2.20385678e-002 0.
      1.37741044e-002 2.75482098e-003 1.10192839e-002 2.75482098e-003
      5.50964195e-003 0. 0. 6.06060624e-002 8.26446339e-003
      1.65289268e-002 1.10192839e-002 2.20385678e-002 2.47933883e-002 0.
      0. 0. 1.10192839e-002 1.10192839e-002 2.75482098e-003
      5.50964195e-003 2.20385678e-002 0. 0. 2.75482098e-003
      1.65289268e-002 5.50964195e-003 2.75482098e-003 0. 8.26446339e-003
      2.75482098e-003 5.50964195e-003 0. 0. 0. 1.10192839e-002 0.
      2.75482098e-003 1.92837473e-002 0. 3.03030312e-002 2.75482098e-003
      0. 8.26446339e-003 1.37741044e-002 5.50964195e-003 0.
      8.26446339e-003 5.50964195e-003 2.75482098e-003 0. 0. 0. 0.
      2.75482098e-003 1.10192839e-002 2.75482098e-003 2.20385678e-002 0.
      2.75482098e-003 8.26446339e-003 0. 1.10192839e-002 0.
      2.75482098e-003 4.68319580e-002 3.03030312e-002 2.75482088e-002
      2.75482098e-003 1.37741044e-002 0. 8.26446339e-003 8.26446339e-003
      0. 1.10192839e-002 5.50964195e-003 0. 0. 5.50964195e-003
      1.10192839e-002 2.75482098e-003 1.65289268e-002 3.58126722e-002 0.
      1.37741044e-002 2.75482098e-003 2.75482098e-003 0. 0.
      2.75482098e-003 2.75482098e-003 1.65289268e-002 1.92837473e-002
      2.75482098e-003 0. 3.58126722e-002 1.65289268e-002 5.50964195e-003
      0. 2.75482098e-003 2.75482098e-003 2.75482098e-003 8.26446339e-003
      2.75482098e-003 1.92837473e-002 8.26446339e-003 5.50964195e-003
      5.50964195e-003 0. 0. 1.92837473e-002 0. 0. 0. 5.50964195e-003</_>
    <_>
      0. 2.73224036e-003 2.73224036e-003 2.73224041e-002 5.46448072e-003
      0. 2.73224036e-003 1.36612020e-002 2.73224036e-003 5.46448072e-003
      8.19672085e-003 8.19672085e-003 3.82513665e-002 0. 5.46448072e-003
      1.63934417e-002 0. 0. 3.55191231e-002 2.45901626e-002
      1.91256832e-002 0. 8.19672085e-003 5.46448072e-003 1.09289614e-002
      0. 5.46448072e-003 1.09289614e-002 1.09289614e-002 2.73224036e-003
      8.19672085e-003 1.63934417e-002 0. 0. 0. 1.09289614e-002
      2.73224036e-003 8.19672085e-003 0. 5.46448072e-003 0.
      5.46448072e-003 0. 0. 1.09289614e-002 1.36612020e-002
      2.73224036e-003 1.63934417e-002 3.00546438e-002 0. 2.73224036e-003
      2.73224036e-003 2.73224036e-003 8.19672085e-003 0. 1.09289614e-002
      0. 1.36612020e-002 0. 2.73224036e-003 0. 0. 1.91256832e-002 0.
      2.73224036e-003 1.63934417e-002 2.73224036e-003 5.46448072e-003 0.
      5.46448072e-003 3.82513665e-002 2.73224036e-003 3.00546438e-002 0.
      1.09289614e-002 2.73224041e-002 2.73224041e-002 3.00546438e-002 0.
      1.91256832e-002 2.73224036e-003 2.18579229e-002 1.09289614e-002 0.
      2.73224036e-003 1.63934417e-002 5.46448072e-003 0. 0.
      1.63934417e-002 0. 3.55191231e-002 1.36612020e-002 0.
      2.73224036e-003 1.91256832e-002 0. 0. 2.73224036e-003
      1.09289614e-002 2.73224036e-003 1.91256832e-002 2.73224036e-003 0.
      0. 1.91256832e-002 1.09289614e-002 1.09289614e-002 2.73224036e-003
      0. 0. 5.46448072e-003 2.73224036e-003 0. 8.19672085e-003
      5.46448072e-003 1.36612020e-002 5.46448072e-003 2.73224036e-003 0.
      1.09289614e-002 1.91256832e-002 0. 0. 1.09289614e-002</_>
    <_>
      0. 0. 3.18021215e-002 2.47349832e-002 3.53356893e-003 0.
      3.53356893e-003 7.06713786e-003 0. 2.47349832e-002 3.53356893e-003
      1.41342757e-002 3.53356898e-002 7.06713786e-003 0. 3.53356893e-003
      0. 0. 4.59363945e-002 7.06713786e-003 3.88692580e-002
      1.06007066e-002 3.18021215e-002 1.06007066e-002 0. 7.06713786e-003
      0. 0. 7.06713786e-003 0. 2.47349832e-002 2.12014131e-002 0.
      7.06713786e-003 0. 2.82685515e-002 3.53356893e-003 3.18021215e-002
      3.53356893e-003 1.41342757e-002 0. 3.53356893e-003 0. 0.
      1.76678449e-002 7.06713786e-003 0. 0. 8.12720880e-002
      3.53356893e-003 1.41342757e-002 0. 0. 3.53356893e-003
      7.06713786e-003 7.06713786e-003 0. 3.53356893e-003 7.06713786e-003
      0. 3.53356893e-003 0. 3.53356893e-003 0. 7.06713786e-003
      7.06713786e-003 1.41342757e-002 3.53356893e-003 3.53356893e-003
      7.06713786e-003 1.41342757e-002 0. 3.53356893e-003 3.53356893e-003
      3.53356893e-003 7.06713786e-003 2.12014131e-002 3.88692580e-002 0.
      2.12014131e-002 3.53356893e-003 0. 3.53356893e-003 0.
      3.53356893e-003 7.06713786e-003 0. 7.06713786e-003 0.
      1.06007066e-002 0. 1.41342757e-002 3.18021215e-002 0. 0.
      3.53356893e-003 0. 0. 3.53356893e-003 7.06713786e-003
      3.53356893e-003 3.18021215e-002 1.06007066e-002 0. 7.06713786e-003
      3.53356893e-003 0. 0. 0. 0. 3.53356893e-003 0. 1.76678449e-002 0.
      2.12014131e-002 7.06713786e-003 1.06007066e-002 3.53356893e-003 0.
      0. 0. 0. 1.06007066e-002 0. 3.53356893e-003</_>
    <_>
      0. 0. 2.41379306e-001 8.62068962e-003 0. 0. 0. 0. 0.
      1.72413792e-002 0. 0. 4.31034490e-002 8.62068962e-003
      2.58620679e-002 0. 0. 0. 2.58620679e-002 0. 8.62068962e-003
      1.72413792e-002 0. 0. 0. 0. 0. 0. 0. 0. 8.62068962e-003 0. 0.
      6.03448264e-002 0. 3.44827585e-002 0. 0. 0. 0. 0. 0. 0. 0. 0. 0.
      0. 0. 2.58620679e-002 0. 0. 0. 0. 0. 0. 0. 8.62068962e-003 0.
      8.62068962e-003 0. 0. 0. 0. 0. 0. 2.58620679e-002 1.72413792e-002
      0. 0. 0. 0. 0. 0. 6.89655170e-002 0. 6.89655170e-002
      1.12068966e-001 0. 0. 0. 0. 0. 0. 0. 0. 1.72413792e-002 0. 0. 0.
      8.62068962e-003 0. 1.72413792e-002 0. 0. 8.62068962e-003 0. 0. 0.
      0. 0. 0. 0. 0. 0. 8.62068962e-003 0. 0. 0. 0. 0. 0. 0. 0. 0.
      6.89655170e-002 0. 8.62068962e-003 8.62068962e-003 0. 0. 0. 0.
      1.72413792e-002 0. 0.</_>
    <_>
      0. 0. 3.19327742e-001 8.40336177e-003 0. 0. 0. 0. 0.
      8.40336177e-003 0. 0. 1.68067235e-002 1.68067235e-002
      5.04201725e-002 0. 0. 0. 1.68067235e-002 0. 0. 3.36134471e-002 0.
      0. 0. 0. 0. 0. 0. 0. 3.36134471e-002 0. 0. 5.04201725e-002 0.
      8.40336177e-003 0. 1.68067235e-002 0. 0. 0. 0. 0. 0. 0.
      1.68067235e-002 0. 0. 8.40336177e-003 0. 0. 0. 0. 0. 0. 0.
      8.40336177e-003 0. 8.40336177e-003 0. 0. 0. 0. 0. 0.
      1.68067235e-002 1.68067235e-002 0. 0. 0. 0. 0. 2.52100863e-002
      1.00840345e-001 0. 1.68067235e-002 8.40336177e-003 0. 0.
      8.40336177e-003 0. 0. 0. 0. 0. 1.68067235e-002 0. 2.52100863e-002
      0. 0. 0. 8.40336177e-003 0. 0. 0. 0. 0. 0. 0. 0. 0.
      8.40336177e-003 0. 0. 0. 0. 0. 0. 0. 0. 0. 0. 0. 0.
      8.40336159e-002 0. 8.40336177e-003 0. 0. 0. 0. 8.40336177e-003
      2.52100863e-002 0. 0.</_>
    <_>
      0. 0. 2.94117659e-001 0. 0. 0. 0. 0. 0. 1.47058824e-002 0.
      7.35294120e-003 2.20588241e-002 7.35294120e-003 2.20588241e-002 0.
      0. 7.35294120e-003 7.35294120e-003 0. 7.35294120e-003 0. 0. 0. 0.
      0. 0. 7.35294120e-003 7.35294120e-003 0. 2.20588241e-002 0. 0.
      2.94117648e-002 0. 2.94117648e-002 0. 2.20588241e-002 0. 0. 0. 0.
      0. 0. 1.47058824e-002 2.20588241e-002 0. 0. 1.47058824e-002 0. 0.
      0. 0. 0. 0. 0. 7.35294120e-003 0. 0. 0. 0. 0. 0. 0. 0.
      2.94117648e-002 1.47058824e-002 0. 0. 0. 0. 0. 7.35294120e-003
      7.35294148e-002 0. 7.35294120e-003 3.67647074e-002 0. 0.
      2.20588241e-002 0. 0. 0. 0. 0. 0. 0. 2.94117648e-002 0.
      2.20588241e-002 0. 2.20588241e-002 0. 0. 0. 0. 0. 0. 0. 0. 0.
      7.35294120e-003 0. 0. 1.47058824e-002 0. 0. 7.35294120e-003 0. 0.
      0. 0. 0. 0. 8.82352963e-002 7.35294120e-003 0. 7.35294120e-003 0.
      7.35294120e-003 0. 0. 2.94117648e-002 0. 0.</_>
    <_>
      0. 0. 1.76470593e-001 9.80392192e-003 0. 0. 0. 0. 0.
      9.80392192e-003 1.96078438e-002 0. 3.92156877e-002 2.94117667e-002
      2.94117667e-002 0. 0. 0. 1.96078438e-002 0. 0. 9.80392192e-003 0.
      0. 0. 0. 0. 0. 0. 0. 1.96078438e-002 0. 0. 1.96078438e-002 0.
      1.96078438e-002 0. 9.80392192e-003 0. 0. 0. 0. 0. 0. 0. 0. 0. 0.
      9.80392192e-003 0. 0. 0. 0. 0. 0. 0. 2.94117667e-002 0.
      9.80392192e-003 0. 0. 0. 0. 0. 0. 2.94117667e-002 9.80392192e-003
      0. 0. 0. 1.96078438e-002 0. 0. 1.47058830e-001 9.80392192e-003
      1.96078438e-002 3.92156877e-002 0. 0. 2.94117667e-002 0. 0. 0. 0.
      0. 0. 0. 1.96078438e-002 0. 0. 0. 1.96078438e-002 0. 0. 0. 0. 0.
      0. 0. 0. 0. 1.96078438e-002 0. 0. 5.88235334e-002 0. 0. 0. 0. 0.
      0. 0. 0. 0. 4.90196086e-002 1.96078438e-002 9.80392192e-003
      1.96078438e-002 0. 0. 0. 0. 1.96078438e-002 0. 0.</_>
    <_>
      0. 0. 2.01550394e-001 2.32558139e-002 0. 0. 0. 7.75193796e-003 0.
      7.75193796e-003 0. 1.55038759e-002 7.75193796e-003 4.65116277e-002
      3.87596898e-002 0. 0. 0. 1.55038759e-002 0. 7.75193796e-003
      7.75193796e-003 0. 0. 0. 0. 0. 0. 0. 0. 0. 0. 0. 3.10077518e-002
      0. 3.10077518e-002 0. 0. 0. 0. 0. 0. 0. 0. 0. 0. 0. 0.
      1.55038759e-002 0. 7.75193796e-003 0. 0. 0. 0. 0. 2.32558139e-002
      7.75193796e-003 0. 0. 0. 0. 0. 0. 0. 1.55038759e-002
      2.32558139e-002 0. 0. 0. 7.75193796e-003 0. 0. 5.42635657e-002
      7.75193796e-003 1.55038759e-002 4.65116277e-002 7.75193796e-003 0.
      5.42635657e-002 0. 0. 7.75193796e-003 0. 0. 0. 0. 1.55038759e-002
      0. 0. 0. 1.55038759e-002 7.75193796e-003 0. 0. 0. 0. 0. 0. 0. 0.
      3.87596898e-002 0. 0. 5.42635657e-002 7.75193796e-003 0. 0. 0. 0.
      0. 0. 0. 0. 6.20155036e-002 7.75193796e-003 3.10077518e-002
      7.75193796e-003 0. 0. 0. 0. 1.55038759e-002 0. 0.</_>
    <_>
      0. 0. 1.60493821e-001 2.46913582e-002 0. 0. 0. 0. 0. 0.
      1.23456791e-002 0. 2.46913582e-002 4.93827164e-002 0. 0. 0. 0. 0.
      0. 1.23456791e-002 1.23456791e-002 0. 0. 0. 0. 0. 0.
      1.23456791e-002 0. 1.23456791e-002 0. 0. 7.40740746e-002 0.
      2.46913582e-002 0. 0. 0. 0. 0. 0. 0. 0. 0. 0. 0. 0.
      2.46913582e-002 0. 0. 0. 0. 0. 0. 0. 1.23456791e-002 0. 0. 0. 0.
      0. 0. 0. 0. 4.93827164e-002 4.93827164e-002 0. 1.23456791e-002 0.
      1.23456791e-002 0. 1.23456791e-002 6.17283955e-002 1.23456791e-002
      6.17283955e-002 3.70370373e-002 0. 0. 2.46913582e-002 0. 0. 0. 0.
      0. 0. 0. 0. 0. 1.23456791e-002 0. 1.23456791e-002 0. 0. 0. 0. 0.
      0. 0. 0. 0. 0. 0. 0. 1.23456791e-002 0. 0. 0. 0. 0. 0. 0. 0. 0.
      1.23456791e-001 1.23456791e-002 1.23456791e-002 2.46913582e-002 0.
      0. 0. 0. 0. 0. 0.</_>
    <_>
      0. 0. 1.82692319e-001 0. 0. 0. 0. 0. 0. 2.88461559e-002 0. 0.
      3.84615399e-002 1.92307699e-002 0. 0. 0. 0. 1.92307699e-002 0.
      1.92307699e-002 0. 0. 0. 0. 0. 0. 0. 1.92307699e-002 0. 0.
      9.61538497e-003 0. 7.69230798e-002 0. 3.84615399e-002 0.
      4.80769239e-002 9.61538497e-003 0. 0. 0. 0. 0. 0. 0. 0. 0.
      1.92307699e-002 0. 0. 0. 0. 0. 0. 0. 0. 0. 0. 0. 0. 0. 0. 0. 0.
      4.80769239e-002 6.73076957e-002 0. 0. 0. 0. 0. 0. 1.92307699e-002
      0. 1.92307699e-002 3.84615399e-002 0. 0. 3.84615399e-002 0. 0. 0.
      9.61538497e-003 0. 0. 0. 0. 0. 9.61538497e-003 0. 2.88461559e-002
      0. 0. 0. 9.61538497e-003 0. 0. 0. 0. 0. 2.88461559e-002 0. 0.
      9.61538497e-003 0. 9.61538497e-003 0. 0. 0. 0. 0. 0. 0.
      7.69230798e-002 0. 3.84615399e-002 9.61538497e-003 0. 0. 0. 0.
      9.61538497e-003 0. 0.</_>
    <_>
      0. 0. 1.76470593e-001 2.35294122e-002 0. 0. 0. 0. 0.
      2.35294122e-002 0. 0. 2.35294122e-002 3.52941193e-002
      4.70588244e-002 0. 0. 0. 1.17647061e-002 0. 0. 1.17647061e-002 0.
      0. 0. 1.17647061e-002 0. 0. 0. 0. 5.88235296e-002 0. 0.
      5.88235296e-002 0. 0. 0. 1.17647061e-002 0. 0. 0. 0. 0. 0.
      2.35294122e-002 0. 0. 0. 3.52941193e-002 0. 0. 0. 0. 0. 0. 0.
      1.17647061e-002 0. 0. 0. 0. 0. 0. 0. 0. 1.17647061e-002
      3.52941193e-002 0. 0. 0. 0. 0. 0. 9.41176489e-002 2.35294122e-002
      0. 0. 0. 0. 5.88235296e-002 0. 0. 0. 0. 0. 0. 0. 0. 0. 0. 0. 0. 0.
      0. 0. 0. 0. 0. 0. 0. 0. 2.35294122e-002 0. 0. 2.35294122e-002 0.
      0. 0. 0. 0. 0. 0. 0. 0. 1.05882354e-001 1.17647061e-002 0.
      1.17647061e-002 0. 0. 0. 0. 3.52941193e-002 0. 0.</_>
    <_>
      0. 0. 2.63513505e-001 6.75675692e-003 0. 0. 0. 0. 0.
      2.02702712e-002 0. 0. 3.37837860e-002 2.70270277e-002
      2.02702712e-002 0. 0. 0. 1.35135138e-002 0. 0. 1.35135138e-002 0.
      0. 0. 0. 0. 0. 0. 0. 2.02702712e-002 0. 0. 7.43243247e-002 0.
      1.35135138e-002 0. 1.35135138e-002 0. 0. 0. 0. 0. 0. 0. 0. 0. 0.
      3.37837860e-002 0. 0. 0. 0. 0. 0. 6.75675692e-003 2.02702712e-002
      0. 0. 0. 0. 0. 0. 0. 0. 2.70270277e-002 3.37837860e-002 0.
      6.75675692e-003 0. 0. 0. 0. 1.35135144e-001 0. 0. 2.70270277e-002
      0. 0. 6.75675692e-003 0. 0. 0. 0. 0. 6.75675692e-003 0. 0. 0.
      6.75675692e-003 0. 1.35135138e-002 0. 0. 0. 0. 0. 0. 0. 0. 0.
      6.75675692e-003 0. 0. 1.35135138e-002 0. 0. 0. 0. 0. 0. 0. 0. 0.
      6.08108118e-002 2.02702712e-002 2.02702712e-002 1.35135138e-002 0.
      0. 0. 0. 2.02702712e-002 0. 0.</_>
    <_>
      1.46341464e-002 2.43902430e-002 3.90243903e-002 9.75609757e-003 0.
      0. 0. 0. 0. 9.75609757e-003 9.75609757e-003 9.75609757e-003
      4.87804879e-003 0. 0. 0. 4.87804879e-003 4.87804879e-003
      1.46341464e-002 2.92682927e-002 4.87804879e-003 9.75609757e-003
      4.87804879e-003 9.75609757e-003 4.87804879e-003 0. 4.87804879e-003
      1.46341464e-002 4.87804879e-003 0. 2.43902430e-002 0.
      4.87804879e-003 0. 4.87804879e-003 3.90243903e-002 0.
      1.95121951e-002 9.75609757e-003 0. 1.46341464e-002 1.46341464e-002
      1.95121951e-002 0. 1.46341464e-002 4.87804879e-003 4.87804879e-003
      9.75609757e-003 4.39024381e-002 4.87804879e-003 1.95121951e-002 0.
      0. 4.87804879e-003 0. 9.75609757e-003 0. 4.87804879e-003 0. 0.
      4.87804879e-003 1.95121951e-002 0. 0. 9.75609757e-003
      9.75609757e-003 0. 0. 0. 0. 9.75609757e-003 2.43902430e-002
      1.95121951e-002 0. 1.46341464e-002 1.46341464e-002 0.
      4.87804879e-003 0. 4.87804879e-003 0. 4.87804879e-003 0.
      1.46341464e-002 4.87804879e-003 9.75609757e-003 0. 9.75609757e-003
      1.95121951e-002 9.75609757e-003 4.87804879e-003 5.85365854e-002 0.
      9.75609757e-003 2.92682927e-002 0. 0. 9.75609757e-003 0.
      1.95121951e-002 1.46341464e-002 3.90243903e-002 0. 0. 0.
      4.87804879e-003 4.87804879e-003 0. 0. 1.46341464e-002 0. 0. 0. 0.
      0. 9.75609757e-003 0. 9.75609757e-003 9.75609757e-003 0.
      4.87804879e-003 0. 1.95121951e-002 0. 1.95121951e-002</_>
    <_>
      9.74025950e-003 0. 6.49350649e-003 1.62337665e-002 0.
      3.24675324e-003 0. 0. 0. 1.29870130e-002 4.22077924e-002
      6.49350649e-003 6.49350649e-003 3.24675324e-003 3.24675324e-003
      6.49350649e-003 1.94805190e-002 3.24675324e-003 6.49350649e-003
      1.94805190e-002 0. 2.27272734e-002 9.74025950e-003 9.74025950e-003
      0. 6.49350649e-003 0. 2.92207785e-002 9.74025950e-003 0.
      2.59740259e-002 0. 9.74025950e-003 3.24675324e-003 6.49350649e-003
      1.29870130e-002 0. 6.49350649e-003 0. 6.49350649e-003
      2.27272734e-002 1.62337665e-002 6.49350649e-003 0. 1.29870130e-002
      1.94805190e-002 3.24675324e-003 6.49350649e-003 1.29870130e-002 0.
      6.49350649e-003 6.49350649e-003 0. 3.24675324e-003 0. 0. 0. 0.
      3.24675324e-003 0. 3.24675324e-003 6.49350649e-003 1.94805190e-002
      0. 0. 1.29870130e-002 1.62337665e-002 0. 0. 3.24675324e-003
      2.27272734e-002 1.62337665e-002 4.54545468e-002 1.29870130e-002
      1.62337665e-002 2.92207785e-002 3.24675324e-003 6.49350649e-003 0.
      1.29870130e-002 3.24675324e-003 3.24675324e-003 0. 9.74025950e-003
      3.24675324e-003 0. 3.24675324e-003 0. 1.62337665e-002
      3.24675329e-002 0. 3.24675329e-002 0. 9.74025950e-003
      9.74025950e-003 0. 3.24675324e-003 1.29870130e-002 3.24675324e-003
      3.24675324e-003 2.59740259e-002 4.22077924e-002 6.49350649e-003 0.
      1.29870130e-002 6.49350649e-003 2.59740259e-002 3.24675324e-003 0.
      6.49350649e-003 3.24675324e-003 0. 0. 0. 3.24675324e-003
      1.62337665e-002 3.24675324e-003 6.49350649e-003 0. 0. 0.
      3.24675324e-003 6.49350649e-003 3.24675324e-003 6.49350649e-003</_>
    <_>
      7.96812773e-003 0. 7.96812773e-003 1.99203193e-002 0. 0.
      7.96812773e-003 3.98406386e-003 0. 1.99203193e-002 3.98406386e-002
      1.99203193e-002 1.59362555e-002 3.98406386e-003 7.96812773e-003 0.
      1.19521916e-002 0. 1.99203193e-002 1.19521916e-002 0.
      7.96812773e-003 0. 7.96812773e-003 1.19521916e-002 0. 0. 0.
      1.99203193e-002 7.96812773e-003 2.39043832e-002 0. 0. 0. 0.
      1.19521916e-002 0. 3.98406386e-003 0. 1.99203193e-002
      3.98406386e-003 2.39043832e-002 1.19521916e-002 0. 2.39043832e-002
      3.98406386e-002 7.96812773e-003 0. 1.59362555e-002 3.98406386e-003
      3.98406386e-003 0. 3.98406386e-003 3.98406386e-003 0. 0.
      3.98406386e-003 0. 3.18725109e-002 0. 0. 0. 3.98406386e-003 0. 0.
      1.59362555e-002 1.59362555e-002 0. 0. 0. 1.19521916e-002 0.
      2.78884470e-002 0. 1.59362555e-002 3.98406386e-003 7.96812773e-003
      0. 3.98406386e-003 1.59362555e-002 0. 0. 3.98406386e-003
      1.99203193e-002 0. 1.19521916e-002 3.98406386e-003 7.96812773e-003
      1.59362555e-002 2.78884470e-002 0. 3.58565748e-002 7.96812773e-003
      1.19521916e-002 3.58565748e-002 3.98406386e-003 3.98406386e-003
      7.96812773e-003 0. 7.96812773e-003 1.19521916e-002 3.98406386e-002
      0. 3.98406386e-003 1.99203193e-002 1.19521916e-002 3.98406386e-003
      0. 0. 7.96812773e-003 0. 0. 0. 0. 0. 1.19521916e-002
      1.19521916e-002 1.59362555e-002 0. 3.98406386e-003 7.96812773e-003
      0. 1.99203193e-002 0. 3.98406386e-003</_>
    <_>
      4.31034481e-003 0. 1.29310340e-002 1.29310340e-002 0. 0. 0. 0.
      4.31034481e-003 1.72413792e-002 3.87931019e-002 1.29310340e-002
      1.72413792e-002 0. 0. 0. 4.31034481e-003 4.31034481e-003
      1.72413792e-002 8.62068962e-003 0. 1.29310340e-002 0.
      8.62068962e-003 4.31034481e-003 0. 0. 1.72413792e-002
      1.72413792e-002 0. 2.15517245e-002 0. 1.29310340e-002
      1.29310340e-002 0. 8.62068962e-003 0. 1.29310340e-002
      8.62068962e-003 0. 8.62068962e-003 1.72413792e-002 0. 0.
      1.29310340e-002 3.44827585e-002 0. 8.62068962e-003 2.15517245e-002
      0. 0. 4.31034481e-003 4.31034481e-003 0. 0. 0. 0. 0. 0.
      4.31034481e-003 1.72413792e-002 7.75862038e-002 0. 1.29310340e-002
      0. 1.29310340e-002 1.29310340e-002 0. 0. 0. 5.60344830e-002 0.
      3.01724132e-002 0. 8.62068962e-003 1.29310340e-002 4.31034481e-003
      0. 4.31034481e-003 2.58620679e-002 4.31034481e-003 0. 0.
      4.31034481e-003 0. 8.62068962e-003 1.29310340e-002 8.62068962e-003
      8.62068962e-003 2.15517245e-002 4.31034481e-003 2.15517245e-002 0.
      8.62068962e-003 1.29310340e-002 0. 0. 0. 0. 0. 1.29310340e-002
      1.29310340e-002 0. 0. 1.29310340e-002 0. 0. 0. 0. 0. 0.
      9.05172378e-002 0. 0. 0. 1.29310340e-002 4.31034481e-003
      1.29310340e-002 0. 0. 0. 4.31034481e-003 2.58620679e-002 0.
      8.62068962e-003</_>
    <_>
      0. 3.90625000e-003 3.90625000e-003 2.34375000e-002 0.
      3.90625000e-003 3.90625000e-003 3.90625000e-003 0. 7.81250000e-003
      7.81250000e-003 1.56250000e-002 0. 0. 3.90625000e-003
      3.90625000e-003 3.90625000e-003 7.81250000e-003 3.12500000e-002
      3.51562500e-002 7.81250000e-003 3.12500000e-002 0. 0.
      1.17187500e-002 3.90625000e-003 7.81250000e-003 1.17187500e-002
      1.17187500e-002 3.90625000e-003 1.56250000e-002 0. 0.
      3.90625000e-003 3.90625000e-003 3.12500000e-002 3.90625000e-003
      3.90625000e-003 3.90625000e-003 3.90625000e-003 1.56250000e-002
      1.56250000e-002 3.90625000e-003 0. 0. 0. 3.90625000e-003
      7.81250000e-003 1.95312500e-002 0. 1.95312500e-002 0. 0. 0.
      7.81250000e-003 1.56250000e-002 0. 0. 3.90625000e-003
      1.56250000e-002 1.17187500e-002 2.34375000e-002 7.81250000e-003
      1.17187500e-002 3.90625000e-003 0. 0. 0. 3.90625000e-003
      3.90625000e-003 2.34375000e-002 1.17187500e-002 1.17187500e-002 0.
      1.17187500e-002 0. 0. 0. 0. 1.17187500e-002 1.95312500e-002
      3.90625000e-003 0. 1.95312500e-002 1.17187500e-002 1.17187500e-002
      0. 1.17187500e-002 1.17187500e-002 1.17187500e-002 0.
      3.51562500e-002 3.90625000e-003 3.90625000e-003 1.56250000e-002
      3.90625000e-003 7.81250000e-003 0. 0. 1.17187500e-002
      7.81250000e-003 5.46875000e-002 0. 0. 1.17187500e-002
      3.90625000e-003 1.56250000e-002 0. 0. 1.56250000e-002
      3.90625000e-003 0. 1.17187500e-002 7.81250000e-003 0.
      1.17187500e-002 1.17187500e-002 1.95312500e-002 3.90625000e-003 0.
      3.90625000e-003 0. 1.95312500e-002 0. 2.73437500e-002</_>
    <_>
      1.63934417e-002 0. 4.09836043e-003 3.68852429e-002 0. 0. 0.
      4.09836043e-003 0. 3.27868834e-002 4.09836024e-002 3.27868834e-002
      3.68852429e-002 0. 1.22950813e-002 4.09836043e-003 0. 0.
      8.19672085e-003 4.09836043e-003 4.09836043e-003 4.09836043e-003 0.
      0. 0. 0. 0. 0. 1.63934417e-002 0. 2.04918012e-002 0.
      4.09836043e-003 4.09836043e-003 0. 1.63934417e-002 0.
      4.09836043e-003 0. 4.09836043e-003 0. 4.09836043e-003
      2.04918012e-002 0. 1.22950813e-002 5.73770478e-002 0. 0.
      2.04918012e-002 4.09836043e-003 4.09836043e-003 0. 0. 0. 0.
      2.04918012e-002 1.22950813e-002 0. 1.22950813e-002 0.
      4.09836043e-003 0. 0. 0. 0. 1.63934417e-002 0. 0. 0. 0.
      2.04918012e-002 0. 2.86885239e-002 0. 2.45901626e-002
      2.04918012e-002 2.45901626e-002 0. 4.09836043e-003 1.63934417e-002
      0. 4.09836043e-003 0. 1.22950813e-002 0. 1.22950813e-002 0.
      4.09836043e-003 1.22950813e-002 1.63934417e-002 0. 4.09836024e-002
      0. 4.09836043e-003 2.45901626e-002 0. 4.09836043e-003
      8.19672085e-003 0. 4.09836043e-003 3.68852429e-002 5.32786846e-002
      4.09836043e-003 0. 3.27868834e-002 0. 0. 8.19672085e-003 0.
      4.09836043e-003 8.19672085e-003 4.09836043e-003 0. 4.09836043e-003
      8.19672085e-003 4.09836043e-003 4.09836043e-003 1.22950813e-002 0.
      0. 4.09836043e-003 0. 1.63934417e-002 0. 8.19672085e-003</_>
    <_>
      1.08401086e-002 1.35501362e-002 0. 1.62601620e-002 0.
      2.71002715e-003 1.62601620e-002 2.71002715e-003 2.71002715e-003
      2.16802172e-002 2.16802172e-002 5.42005431e-003 1.08401086e-002
      2.71002715e-003 5.42005431e-003 2.71002715e-003 8.13008100e-003
      2.71002715e-003 2.43902449e-002 2.16802172e-002 2.71002715e-003
      2.16802172e-002 0. 0. 8.13008100e-003 0. 0. 1.08401086e-002 0. 0.
      1.89701896e-002 0. 5.42005431e-003 2.71002715e-003 2.71002715e-003
      1.35501362e-002 8.13008100e-003 1.08401086e-002 0. 1.89701896e-002
      1.35501362e-002 8.13008100e-003 1.35501362e-002 2.71002715e-003
      8.13008100e-003 2.71002725e-002 0. 1.35501362e-002 1.62601620e-002
      5.42005431e-003 1.35501362e-002 0. 0. 1.08401086e-002
      8.13008100e-003 2.71002715e-003 0. 5.42005431e-003 5.42005431e-003
      2.71002715e-003 2.71002715e-003 1.08401086e-002 2.71002715e-003
      5.42005431e-003 5.42005431e-003 1.08401086e-002 5.42005431e-003 0.
      1.08401086e-002 8.13008100e-003 5.14905155e-002 2.71002715e-003
      8.13008100e-003 2.71002715e-003 8.13008100e-003 1.62601620e-002
      1.35501362e-002 2.71002715e-003 5.42005431e-003 1.35501362e-002
      8.13008100e-003 2.71002715e-003 0. 1.08401086e-002 1.08401086e-002
      2.71002715e-003 2.71002715e-003 5.42005431e-003 1.62601620e-002
      5.42005431e-003 0. 1.62601620e-002 5.42005431e-003 2.71002715e-003
      2.16802172e-002 1.35501362e-002 2.71002715e-003 5.42005431e-003 0.
      1.08401086e-002 1.08401086e-002 2.98102982e-002 8.13008100e-003
      8.13008100e-003 5.42005431e-003 5.42005431e-003 1.08401086e-002
      5.42005431e-003 2.71002715e-003 5.42005431e-003 2.71002715e-003
      5.42005431e-003 8.13008100e-003 5.42005431e-003 1.62601620e-002
      1.08401086e-002 8.13008100e-003 8.13008100e-003 5.42005431e-003 0.
      1.35501362e-002 2.71002715e-003 8.13008100e-003 0. 8.13008100e-003</_>
    <_>
      2.45700241e-003 2.21130215e-002 2.45700236e-002 1.71990171e-002
      2.45700241e-003 2.45700241e-003 2.70270258e-002 2.45700241e-003 0.
      1.22850118e-002 1.47420149e-002 1.47420149e-002 4.91400482e-003 0.
      2.45700241e-003 7.37100746e-003 9.82800964e-003 7.37100746e-003
      9.82800964e-003 7.37100746e-003 2.45700241e-003 1.71990171e-002
      2.45700241e-003 1.22850118e-002 9.82800964e-003 0. 0.
      4.91400482e-003 1.22850118e-002 2.45700241e-003 1.71990171e-002 0.
      1.71990171e-002 0. 7.37100746e-003 7.37100746e-003 2.45700241e-003
      7.37100746e-003 1.47420149e-002 1.22850118e-002 1.22850118e-002
      4.91400482e-003 2.45700241e-003 0. 4.91400482e-003 1.47420149e-002
      2.45700241e-003 9.82800964e-003 1.22850118e-002 0. 1.22850118e-002
      0. 4.91400482e-003 4.91400482e-003 0. 4.91400482e-003
      9.82800964e-003 2.45700241e-003 2.45700241e-003 1.22850118e-002
      9.82800964e-003 8.84520859e-002 2.45700241e-003 2.45700241e-003 0.
      1.47420149e-002 1.71990171e-002 4.91400482e-003 2.45700241e-003
      4.91400482e-003 3.93120386e-002 1.71990171e-002 7.37100746e-003
      2.45700241e-003 1.22850118e-002 1.22850118e-002 1.47420149e-002
      4.91400482e-003 0. 1.22850118e-002 0. 7.37100746e-003 0.
      2.45700241e-003 0. 4.91400482e-003 4.91400482e-003 2.45700241e-003
      1.22850118e-002 4.91400482e-003 2.45700241e-003 2.21130215e-002
      2.45700241e-003 7.37100746e-003 1.47420149e-002 7.37100746e-003
      2.45700241e-003 0. 0. 2.45700241e-003 1.22850118e-002
      3.93120386e-002 2.45700241e-003 4.91400482e-003 7.37100746e-003
      2.45700241e-003 1.47420149e-002 7.37100746e-003 0. 0.
      9.82800964e-003 1.22850118e-002 0. 0. 0. 1.22850118e-002 0.
      7.37100746e-003 4.91400482e-003 0. 2.45700241e-003 2.45700241e-003
      4.91400482e-003 0. 2.21130215e-002</_>
    <_>
      0. 3.67647060e-003 0. 2.20588241e-002 3.67647060e-003 0.
      3.30882370e-002 7.35294120e-003 0. 1.47058824e-002 2.20588241e-002
      1.47058824e-002 1.10294120e-002 0. 3.67647060e-003 3.67647060e-003
      3.67647060e-003 1.47058824e-002 1.47058824e-002 2.20588241e-002 0.
      1.83823537e-002 3.67647060e-003 1.47058824e-002 1.47058824e-002
      3.67647060e-003 0. 1.83823537e-002 0. 0. 2.20588241e-002 0.
      3.67647060e-003 3.67647060e-003 1.10294120e-002 7.35294120e-003 0.
      1.83823537e-002 7.35294120e-003 7.35294120e-003 1.83823537e-002
      3.67647060e-003 1.47058824e-002 0. 2.20588241e-002 4.41176482e-002
      3.67647060e-003 1.47058824e-002 1.47058824e-002 3.67647060e-003
      7.35294120e-003 0. 0. 0. 3.67647060e-003 0. 3.67647060e-003 0.
      1.10294120e-002 3.67647060e-003 2.20588241e-002 4.77941185e-002
      3.67647060e-003 7.35294120e-003 0. 3.67647060e-003 3.67647060e-003
      0. 7.35294120e-003 7.35294120e-003 3.67647074e-002 0.
      3.67647074e-002 3.67647060e-003 7.35294120e-003 2.20588241e-002
      3.67647060e-003 0. 0. 7.35294120e-003 7.35294120e-003 0. 0.
      1.47058824e-002 0. 1.10294120e-002 3.67647060e-003 0.
      7.35294120e-003 1.10294120e-002 0. 1.83823537e-002 7.35294120e-003
      0. 7.35294120e-003 0. 1.10294120e-002 1.83823537e-002 0. 0.
      1.47058824e-002 1.83823537e-002 0. 7.35294120e-003 1.47058824e-002
      3.67647060e-003 1.10294120e-002 0. 0. 3.67647060e-003 0.
      7.35294120e-003 0. 3.67647060e-003 7.35294120e-003 3.67647060e-003
      7.35294120e-003 1.10294120e-002 3.67647060e-003 0. 3.67647060e-003
      3.67647060e-003 1.10294120e-002 0. 7.35294120e-003</_>
    <_>
      3.51562500e-002 3.90625000e-003 3.90625000e-003 7.81250000e-003 0.
      0. 3.90625000e-003 3.90625000e-003 0. 1.56250000e-002
      4.29687500e-002 1.17187500e-002 2.73437500e-002 0. 0. 0.
      7.81250000e-003 3.90625000e-003 2.34375000e-002 1.17187500e-002
      1.17187500e-002 4.68750000e-002 0. 3.90625000e-003 1.95312500e-002
      3.90625000e-003 0. 7.81250000e-003 0. 0. 1.56250000e-002 0. 0. 0.
      3.90625000e-003 7.81250000e-003 0. 7.81250000e-003 0.
      1.17187500e-002 1.17187500e-002 0. 7.81250000e-003 3.90625000e-003
      1.95312500e-002 4.68750000e-002 3.90625000e-003 1.95312500e-002
      7.81250000e-003 0. 3.90625000e-003 3.90625000e-003 0.
      3.90625000e-003 0. 7.81250000e-003 7.81250000e-003 0.
      3.90625000e-003 0. 3.90625000e-003 0. 3.90625000e-003 0. 0.
      3.51562500e-002 3.90625000e-003 3.90625000e-003 0. 7.81250000e-003
      6.25000000e-002 0. 1.95312500e-002 0. 7.81250000e-003
      2.73437500e-002 0. 3.90625000e-003 0. 3.90625000e-003 0.
      7.81250000e-003 0. 7.81250000e-003 0. 1.56250000e-002 0.
      7.81250000e-003 3.90625000e-003 7.81250000e-003 0. 2.73437500e-002
      3.90625000e-003 7.81250000e-003 2.73437500e-002 7.81250000e-003
      7.81250000e-003 7.81250000e-003 0. 3.90625000e-003 1.56250000e-002
      5.46875000e-002 0. 3.90625000e-003 3.90625000e-003 7.81250000e-003
      1.17187500e-002 0. 0. 7.81250000e-003 0. 0. 0. 0. 0.
      2.34375000e-002 0. 2.34375000e-002 0. 3.90625000e-003
      3.90625000e-003 0. 1.17187500e-002 0. 3.90625000e-003</_>
    <_>
      7.60456268e-003 0. 1.40684411e-001 1.90114062e-002 0. 0. 0.
      3.80228134e-003 3.80228125e-002 3.04182507e-002 0. 0.
      5.32319397e-002 1.14068445e-002 0. 0. 0. 0. 0. 0. 7.60456268e-003
      0. 0. 0. 0. 0. 0. 3.80228134e-003 0. 0. 0. 0. 0. 4.56273779e-002
      0. 4.56273779e-002 0. 0. 3.80228134e-003 0. 7.60456268e-003
      1.14068445e-002 7.60456268e-003 3.80228125e-002 0. 0. 0. 0. 0. 0.
      0. 0. 3.80228134e-003 0. 0. 7.60456268e-003 0. 0. 7.60456268e-003
      3.80228134e-003 0. 0. 7.60456268e-003 0. 0. 4.56273779e-002
      3.04182507e-002 7.60456268e-003 3.80228134e-003 0. 0. 0. 0.
      3.42205316e-002 0. 0. 4.18250933e-002 0. 1.14068445e-002
      3.42205316e-002 0. 1.14068445e-002 0. 7.60456268e-003 0. 0. 0. 0.
      0. 0. 0. 1.14068445e-002 0. 0. 3.80228134e-003 3.80228134e-003 0.
      0. 7.60456268e-003 0. 3.80228134e-003 1.52091254e-002 0. 0.
      3.80228134e-003 0. 1.14068445e-002 0. 3.42205316e-002 0. 0. 0.
      3.80228134e-003 3.42205316e-002 7.60456249e-002 0. 1.52091254e-002
      0. 0. 1.90114062e-002 0. 7.60456268e-003 1.52091254e-002 0. 0.</_>
    <_>
      4.13223123e-003 0. 1.73553705e-001 8.26446246e-003 4.13223123e-003
      0. 0. 0. 1.65289249e-002 1.23966932e-002 0. 4.13223123e-003
      4.54545431e-002 1.65289249e-002 1.23966932e-002 0. 4.13223123e-003
      0. 0. 0. 0. 0. 0. 0. 0. 0. 0. 0. 0. 0. 0. 0. 0. 4.95867729e-002 0.
      2.06611566e-002 0. 0. 8.26446246e-003 0. 1.23966932e-002 0.
      4.13223123e-003 4.95867729e-002 0. 0. 0. 4.13223123e-003 0. 0.
      4.13223123e-003 0. 0. 0. 0. 0. 4.13223123e-003 0. 0. 0. 0. 0. 0.
      0. 0. 4.95867729e-002 6.61156997e-002 8.26446246e-003
      4.13223123e-003 0. 0. 0. 0. 2.47933865e-002 0. 0. 1.15702473e-001
      0. 4.13223123e-003 2.06611566e-002 0. 0. 0. 4.13223123e-003 0. 0.
      0. 0. 0. 4.13223123e-003 4.13223123e-003 2.89256182e-002 0. 0.
      4.13223123e-003 0. 0. 0. 2.47933865e-002 0. 4.13223123e-003
      8.26446246e-003 0. 0. 4.13223123e-003 0. 0. 0. 1.65289249e-002 0.
      4.13223123e-003 0. 0. 2.06611566e-002 6.19834699e-002 0.
      1.65289249e-002 0. 0. 1.65289249e-002 0. 2.06611566e-002
      4.13223123e-003 0. 0.</_>
    <_>
      9.30232555e-003 0. 1.02325581e-001 1.39534883e-002 0. 0. 0. 0.
      9.30232555e-003 9.30232555e-003 0. 4.65116277e-003 8.83720964e-002
      2.32558139e-002 9.30232555e-003 4.65116277e-003 0. 9.30232555e-003
      0. 0. 9.30232555e-003 0. 4.65116277e-003 0. 0. 0. 0. 0. 0. 0. 0.
      4.65116277e-003 0. 9.30232555e-003 0. 3.25581394e-002
      4.65116277e-003 0. 4.65116277e-003 0. 4.65116277e-003 0.
      9.30232555e-003 1.86046511e-002 0. 0. 0. 4.65116277e-003 0. 0. 0.
      1.86046511e-002 4.65116277e-003 0. 0. 4.65116277e-003
      9.30232555e-003 4.65116277e-003 0. 0. 4.65116277e-003
      9.30232555e-003 1.86046511e-002 0. 0. 1.39534883e-002
      4.18604650e-002 0. 0. 0. 0. 4.65116277e-003 0. 2.32558139e-002
      4.65116277e-003 0. 1.86046511e-002 0. 2.79069766e-002
      6.51162788e-002 0. 0. 4.65116277e-003 4.65116277e-003 0.
      4.65116277e-003 0. 2.32558139e-002 0. 2.32558139e-002 0.
      1.86046511e-002 0. 9.30232555e-003 0. 0. 4.65116277e-003 0.
      4.65116277e-003 0. 4.65116277e-003 9.30232555e-003 0. 0. 0. 0. 0.
      0. 0. 0. 9.30232555e-003 0. 4.65116277e-003 8.37209299e-002
      7.90697634e-002 0. 9.30232555e-003 0. 4.65116277e-003
      1.86046511e-002 0. 0. 9.30232555e-003 4.65116277e-003 0.</_>
    <_>
      1.02564106e-002 0. 1.38461545e-001 0. 0. 2.56410260e-002 0. 0.
      4.10256423e-002 1.02564106e-002 0. 0. 7.69230798e-002 0. 0. 0.
      5.12820529e-003 0. 0. 0. 0. 0. 0. 0. 0. 0. 0. 1.02564106e-002 0.
      0. 0. 0. 0. 3.58974375e-002 0. 3.07692327e-002 0. 0. 0. 0.
      5.12820529e-003 5.12820529e-003 0. 1.02564106e-002 0. 0. 0.
      5.12820529e-003 0. 0. 5.12820529e-003 5.12820529e-003
      1.53846163e-002 0. 0. 0. 0. 0. 0. 0. 1.53846163e-002 0. 0. 0.
      5.12820529e-003 2.05128212e-002 5.64102568e-002 0. 2.05128212e-002
      0. 0. 0. 0. 0. 0. 0. 7.17948750e-002 0. 5.12820529e-003
      3.58974375e-002 0. 5.12820529e-003 1.02564106e-002 1.02564106e-002
      0. 0. 0. 0. 0. 2.56410260e-002 0. 5.12820529e-003 0. 0. 0. 0. 0.
      0. 0. 0. 5.12820529e-003 3.07692327e-002 0. 0. 5.12820529e-003 0.
      5.12820529e-003 0. 1.53846163e-002 0. 1.02564106e-002 0.
      5.12820529e-003 6.15384653e-002 1.12820514e-001 0. 1.02564106e-002
      0. 0. 0. 0. 0. 1.53846163e-002 0. 0.</_>
    <_>
      0. 0. 1.11111112e-001 1.77777782e-002 4.44444455e-003 0. 0. 0.
      1.77777782e-002 5.33333346e-002 0. 1.33333337e-002 3.99999991e-002
      1.33333337e-002 0. 0. 0. 2.66666673e-002 0. 0. 4.44444455e-003 0.
      4.44444455e-003 0. 0. 0. 4.44444455e-003 0. 0. 0. 0. 0. 0.
      2.22222228e-002 0. 3.55555564e-002 0. 0. 1.33333337e-002 0. 0. 0.
      4.44444455e-003 1.77777782e-002 0. 0. 0. 1.33333337e-002
      4.44444455e-003 0. 0. 0. 4.44444455e-003 0. 0. 0. 0. 0. 0. 0.
      1.33333337e-002 0. 0. 0. 8.88888910e-003 2.22222228e-002
      5.33333346e-002 0. 0. 0. 0. 0. 0. 1.77777782e-002 0. 0.
      7.11111128e-002 0. 2.22222228e-002 5.77777773e-002 0.
      8.88888910e-003 0. 1.33333337e-002 0. 0. 0. 4.44444455e-003
      4.44444455e-003 8.88888910e-003 0. 8.88888910e-003 4.44444455e-003
      0. 0. 4.44444455e-003 8.88888910e-003 0. 1.33333337e-002
      4.44444455e-003 8.88888910e-003 1.77777782e-002 0. 4.44444455e-003
      8.88888910e-003 4.44444455e-003 0. 0. 3.11111119e-002 0. 0. 0. 0.
      3.55555564e-002 6.22222237e-002 0. 0. 0. 0. 2.66666673e-002 0. 0.
      1.77777782e-002 0. 4.44444455e-003</_>
    <_>
      6.06060587e-003 0. 1.21212117e-001 2.42424235e-002 6.06060587e-003
      1.21212117e-002 0. 0. 2.42424235e-002 2.42424235e-002 0.
      1.21212117e-002 5.45454547e-002 1.21212117e-002 0. 6.06060587e-003
      3.03030293e-002 0. 0. 0. 1.81818176e-002 0. 6.06060587e-003 0. 0.
      0. 0. 0. 0. 0. 0. 1.21212117e-002 0. 3.03030293e-002 0.
      6.66666627e-002 0. 0. 0. 0. 1.21212117e-002 0. 1.21212117e-002
      2.42424235e-002 0. 0. 0. 6.06060587e-003 0. 0. 0. 0.
      6.06060587e-003 0. 0. 0. 0. 0. 0. 0. 0. 0. 0. 0. 6.06060587e-003
      1.09090909e-001 1.21212117e-002 0. 6.06060587e-003 0. 0. 0. 0.
      1.21212117e-002 0. 0. 4.24242392e-002 6.06060587e-003
      6.06060587e-003 6.66666627e-002 0. 1.21212117e-002 0. 0. 0. 0. 0.
      0. 1.21212117e-002 2.42424235e-002 0. 6.06060587e-003 0. 0. 0. 0.
      0. 0. 1.21212117e-002 0. 0. 6.06060587e-003 0. 0. 6.06060587e-003
      6.06060587e-003 6.06060587e-003 0. 0. 0. 0. 0. 6.06060587e-003
      1.81818176e-002 3.63636352e-002 0. 6.06060587e-003 6.06060587e-003
      1.21212117e-002 1.21212117e-002 0. 6.06060587e-003 1.21212117e-002
      0. 0.</_>
    <_>
      3.58422939e-003 0. 1.54121861e-001 3.58422939e-003 3.58422939e-003
      7.16845877e-003 0. 0. 1.43369175e-002 1.07526882e-002 0.
      3.58422939e-003 7.16845877e-003 2.86738351e-002 3.58422939e-003 0.
      3.58422939e-003 0. 0. 0. 0. 0. 3.58422939e-003 3.58422939e-003 0.
      0. 3.58422939e-003 0. 0. 0. 0. 1.43369175e-002 0. 2.50896066e-002
      0. 2.15053763e-002 3.58422939e-003 0. 7.16845877e-003 0.
      7.16845877e-003 7.16845877e-003 0. 1.07526882e-002 0. 0. 0. 0. 0.
      0. 3.58422939e-003 0. 3.58422939e-003 0. 0. 3.58422939e-003
      7.16845877e-003 3.58422939e-003 0. 0. 1.07526882e-002
      7.16845877e-003 0. 0. 0. 2.50896066e-002 6.81003556e-002
      3.58422939e-003 7.16845877e-003 0. 0. 0. 0. 2.50896066e-002 0. 0.
      9.31899622e-002 7.16845877e-003 3.58422939e-003 1.79211460e-002 0.
      1.43369175e-002 3.58422939e-003 3.58422939e-003 0. 0. 0.
      1.79211460e-002 0. 1.79211460e-002 3.58422939e-003 4.30107526e-002
      7.16845877e-003 3.58422939e-003 0. 0. 0. 0. 1.79211460e-002
      7.16845877e-003 7.16845877e-003 3.58422939e-003 0. 0.
      3.58422939e-003 0. 1.43369175e-002 0. 3.58422939e-003
      3.58422939e-003 3.58422939e-003 0. 3.58422939e-003 1.07526882e-002
      8.60215053e-002 3.58422939e-003 1.79211460e-002 0. 3.58422939e-003
      3.22580636e-002 0. 7.16845877e-003 1.43369175e-002 0. 0.</_>
    <_>
      1.14942528e-002 0. 1.17816091e-001 0. 1.14942528e-002 0.
      2.87356321e-003 2.87356321e-003 0. 4.59770113e-002 0. 0.
      1.72413792e-002 5.74712642e-003 2.87356321e-003 8.62068962e-003
      5.74712642e-003 0. 0. 0. 8.62068962e-003 0. 5.74712642e-003
      5.74712642e-003 0. 0. 0. 8.62068962e-003 0. 0. 0. 1.14942528e-002
      2.87356321e-003 3.16091962e-002 0. 1.14942528e-002 2.87356321e-003
      0. 2.87356321e-003 0. 1.14942528e-002 2.87356321e-003
      2.87356321e-003 1.43678160e-002 0. 0. 2.87356321e-003 0. 0. 0.
      5.74712642e-003 1.14942528e-002 0. 0. 2.87356321e-003 0.
      2.87356321e-003 0. 0. 0. 0. 0. 2.87356321e-003 0. 2.87356321e-003
      4.31034490e-002 4.02298868e-002 2.29885057e-002 2.87356321e-003 0.
      0. 5.74712642e-003 0. 2.58620679e-002 0. 0. 2.01149434e-002
      2.87356321e-003 1.43678160e-002 4.59770113e-002 8.62068962e-003
      1.72413792e-002 2.29885057e-002 5.74712642e-003 8.62068962e-003 0.
      2.87356321e-003 1.72413792e-002 2.87356321e-003 2.87356321e-003 0.
      1.43678160e-002 2.87356321e-003 2.01149434e-002 0. 0.
      1.14942528e-002 0. 2.87356321e-003 3.16091962e-002 1.43678160e-002
      1.43678160e-002 2.87356321e-003 8.62068962e-003 5.74712642e-003
      8.62068962e-003 1.43678160e-002 0. 8.62068962e-003 2.87356321e-003
      5.74712642e-003 0. 1.43678160e-002 0. 5.45977019e-002 0.
      1.72413792e-002 0. 5.74712642e-003 5.74712642e-003 2.87356321e-003
      0. 2.58620679e-002 0. 2.87356321e-003</_>
    <_>
      1.34529155e-002 0. 1.34529158e-001 1.79372206e-002 4.48430516e-003
      0. 4.48430516e-003 0. 2.69058309e-002 1.79372206e-002 0. 0.
      3.58744413e-002 4.48430516e-003 4.48430516e-003 0. 0.
      4.48430516e-003 0. 0. 0. 0. 0. 0. 0. 0. 0. 4.48430516e-003 0. 0.
      0. 8.96861032e-003 0. 1.34529155e-002 0. 2.24215258e-002
      4.48430516e-003 0. 1.34529155e-002 0. 3.13901380e-002 0. 0.
      4.48430516e-002 0. 0. 0. 4.48430516e-003 0. 0. 0. 0. 0. 0. 0.
      4.48430516e-003 0. 0. 0. 0. 8.96861032e-003 0. 4.48430516e-003 0.
      8.96861032e-003 4.48430516e-002 8.52017999e-002 8.96861032e-003
      8.96861032e-003 0. 0. 0. 0. 4.48430516e-003 0. 0. 5.82959652e-002
      0. 1.79372206e-002 4.03587446e-002 0. 8.96861032e-003
      8.96861032e-003 4.48430516e-003 0. 0. 0. 0. 4.48430516e-003
      1.79372206e-002 4.48430516e-003 2.69058309e-002 4.48430516e-003 0.
      0. 0. 0. 0. 1.79372206e-002 0. 1.34529155e-002 1.79372206e-002 0.
      0. 4.48430516e-003 0. 8.96861032e-003 0. 2.24215258e-002
      4.48430516e-003 0. 0. 0. 4.48430516e-003 2.24215258e-002
      4.48430516e-003 5.38116619e-002 0. 0. 1.79372206e-002 0. 0.
      1.34529155e-002 0. 0.</_>
    <_>
      8.03212821e-003 0. 1.28514051e-001 0. 4.01606411e-003 0. 0. 0.
      3.21285129e-002 2.40963846e-002 0. 0. 4.41767052e-002
      2.00803205e-002 4.01606411e-003 0. 0. 0. 0. 0. 1.20481923e-002 0.
      0. 0. 0. 0. 0. 0. 0. 0. 0. 4.01606411e-003 0. 2.40963846e-002 0.
      4.41767052e-002 0. 0. 0. 0. 0. 0. 4.01606411e-003 2.81124488e-002
      0. 0. 0. 0. 0. 0. 0. 0. 2.00803205e-002 0. 0. 0. 0. 0. 0. 0.
      8.03212821e-003 0. 0. 0. 4.01606411e-003 4.41767052e-002
      1.00401603e-001 4.01606411e-003 0. 0. 0. 0. 0. 2.81124488e-002 0.
      0. 8.83534104e-002 0. 0. 4.01606411e-002 0. 4.01606411e-003 0. 0.
      0. 0. 0. 0. 0. 8.03212821e-003 4.01606411e-003 1.20481923e-002 0.
      0. 0. 0. 0. 0. 2.40963846e-002 4.01606411e-003 1.20481923e-002
      8.03212821e-003 0. 0. 1.20481923e-002 0. 0. 0. 1.20481923e-002 0.
      0. 0. 0. 1.60642564e-002 1.16465859e-001 4.01606411e-003
      4.01606411e-003 0. 0. 2.40963846e-002 0. 4.01606411e-003
      1.20481923e-002 0. 0.</_>
    <_>
      1.82926822e-002 6.09756075e-003 0. 4.26829234e-002 0. 0.
      6.09756075e-003 0. 0. 3.65853645e-002 4.26829234e-002
      1.21951215e-002 4.26829234e-002 6.09756075e-003 0. 0. 0. 0.
      1.82926822e-002 6.09756075e-003 0. 0. 0. 0. 1.82926822e-002 0. 0.
      0. 0. 0. 1.21951215e-002 0. 0. 0. 0. 3.65853645e-002
      1.82926822e-002 1.82926822e-002 0. 0. 6.09756075e-003 0.
      1.82926822e-002 0. 3.65853645e-002 1.21951215e-002 1.82926822e-002
      0. 1.21951215e-002 0. 6.09756075e-003 0. 0. 0. 6.09756075e-003 0.
      0. 0. 0. 0. 1.21951215e-002 0. 0. 0. 0. 4.26829234e-002
      1.82926822e-002 0. 0. 0. 4.26829234e-002 0. 1.82926822e-002 0.
      3.65853645e-002 4.26829234e-002 6.09756075e-003 0. 0.
      4.87804860e-002 0. 0. 0. 6.09756075e-003 0. 6.09756075e-003 0. 0.
      0. 4.87804860e-002 0. 3.65853645e-002 6.09756075e-003
      6.09756075e-003 1.21951215e-002 0. 1.21951215e-002 1.82926822e-002
      0. 0. 0. 3.04878037e-002 0. 0. 6.09756075e-003 0. 6.09756075e-003
      0. 0. 1.82926822e-002 0. 0. 0. 0. 0. 3.04878037e-002
      1.82926822e-002 0. 0. 0. 6.09756075e-003 0. 6.09756075e-003 0. 0.</_>
    <_>
      2.41935477e-002 4.03225794e-003 2.82258056e-002 1.20967738e-002 0.
      4.03225794e-003 4.03225794e-003 0. 0. 5.64516112e-002
      2.01612897e-002 1.61290318e-002 3.62903215e-002 4.03225794e-003
      4.03225794e-003 8.06451589e-003 8.06451589e-003 0. 3.62903215e-002
      1.61290318e-002 0. 2.41935477e-002 0. 4.03225794e-003
      4.03225794e-003 4.03225794e-003 4.03225794e-003 0. 0. 0.
      2.41935477e-002 4.03225794e-003 0. 2.41935477e-002 0.
      1.20967738e-002 4.03225794e-003 4.03225794e-003 0. 4.03225794e-003
      0. 1.20967738e-002 4.03225794e-003 0. 4.03225794e-003
      2.82258056e-002 1.61290318e-002 0. 3.22580636e-002 0. 0. 0. 0. 0.
      0. 1.20967738e-002 1.20967738e-002 0. 4.03225794e-003 0.
      8.06451589e-003 0. 0. 0. 0. 0. 2.82258056e-002 0. 0. 0.
      4.03225794e-003 0. 2.82258056e-002 2.01612897e-002 2.01612897e-002
      4.43548374e-002 4.03225794e-003 4.03225794e-003 0. 2.82258056e-002
      0. 4.03225794e-003 0. 4.03225794e-003 0. 1.61290318e-002 0.
      1.20967738e-002 0. 1.20967738e-002 0. 1.61290318e-002 0. 0.
      4.03225794e-003 0. 0. 4.83870953e-002 0. 0. 4.03225794e-003
      2.82258056e-002 4.03225794e-003 4.03225794e-003 1.20967738e-002
      4.03225794e-003 1.20967738e-002 4.03225794e-003 0. 8.06451589e-003
      4.03225794e-003 4.03225794e-003 0. 0. 5.24193533e-002
      4.03225794e-003 1.20967738e-002 0. 0. 0. 0. 0. 8.06451589e-003
      4.03225794e-003 0.</_>
    <_>
      4.90196096e-003 9.80392192e-003 3.43137272e-002 4.90196086e-002 0.
      0. 4.90196096e-003 9.80392192e-003 0. 3.43137272e-002
      1.96078438e-002 2.94117667e-002 4.90196086e-002 0. 4.90196096e-003
      4.90196096e-003 0. 0. 2.45098043e-002 0. 9.80392192e-003
      2.94117667e-002 4.90196096e-003 4.90196096e-003 9.80392192e-003 0.
      0. 0. 0. 9.80392192e-003 4.90196096e-003 4.90196096e-003 0.
      1.47058833e-002 0. 6.86274543e-002 0. 1.47058833e-002 0.
      4.90196096e-003 0. 9.80392192e-003 4.90196096e-003 0.
      9.80392192e-003 2.45098043e-002 0. 4.90196096e-003 1.47058833e-002
      0. 0. 0. 0. 0. 0. 1.96078438e-002 4.90196096e-003 0.
      9.80392192e-003 0. 9.80392192e-003 0. 0. 0. 4.90196096e-003
      2.94117667e-002 1.47058833e-002 4.90196096e-003 0. 0.
      3.92156877e-002 0. 5.39215691e-002 0. 9.80392192e-003
      2.94117667e-002 0. 4.90196096e-003 0. 1.47058833e-002 0. 0.
      9.80392192e-003 2.94117667e-002 0. 4.90196096e-003 0.
      4.90196096e-003 0. 2.45098043e-002 4.90196096e-003 9.80392192e-003
      0. 0. 0. 0. 4.90196096e-003 1.47058833e-002 0. 4.90196096e-003
      4.90196096e-003 9.80392192e-003 0. 0. 4.90196096e-003
      9.80392192e-003 9.80392192e-003 9.80392192e-003 0. 0. 0. 0. 0. 0.
      0. 4.90196096e-003 9.80392192e-003 9.80392192e-003 0. 0.
      4.90196096e-003 0. 9.80392192e-003 9.80392192e-003 9.80392192e-003</_>
    <_>
      9.43396240e-003 0. 3.30188684e-002 9.43396240e-003 0. 0. 0.
      4.71698120e-003 0. 4.24528308e-002 3.77358496e-002 9.43396240e-003
      1.41509436e-002 9.43396240e-003 4.71698120e-003 0. 4.71698120e-003
      0. 1.88679248e-002 0. 9.43396240e-003 4.71698120e-003 0. 0. 0. 0.
      1.41509436e-002 4.71698120e-003 1.41509436e-002 0. 3.30188684e-002
      0. 0. 9.43396240e-003 0. 3.30188684e-002 1.88679248e-002
      1.88679248e-002 0. 4.71698120e-003 4.71698120e-003 2.35849060e-002
      1.41509436e-002 0. 3.77358496e-002 1.88679248e-002 9.43396240e-003
      0. 2.83018872e-002 4.71698120e-003 4.71698120e-003 0. 0. 0. 0.
      4.71698120e-003 4.71698120e-003 0. 0. 0. 9.43396240e-003 0. 0. 0.
      0. 1.88679248e-002 9.43396240e-003 0. 0. 4.71698120e-003
      5.18867932e-002 0. 3.77358496e-002 0. 2.83018872e-002
      1.41509436e-002 1.88679248e-002 0. 0. 4.24528308e-002 0.
      4.71698120e-003 0. 9.43396240e-003 0. 0. 0. 4.71698120e-003 0.
      2.35849060e-002 4.71698120e-003 3.30188684e-002 4.71698120e-003 0.
      4.71698120e-003 0. 4.71698120e-003 2.35849060e-002 0. 0. 0.
      3.30188684e-002 0. 0. 0. 0. 9.43396240e-003 9.43396240e-003 0.
      2.35849060e-002 0. 0. 0. 0. 9.43396240e-003 9.43396240e-003
      1.88679248e-002 4.71698120e-003 0. 0. 0. 0. 9.43396240e-003 0. 0.</_>
    <_>
      2.02020202e-002 0. 0. 3.53535339e-002 0. 0. 1.01010101e-002 0. 0.
      3.03030312e-002 2.52525248e-002 2.52525248e-002 5.55555560e-002 0.
      5.05050505e-003 0. 0. 0. 3.03030312e-002 1.51515156e-002
      5.05050505e-003 2.02020202e-002 0. 0. 1.01010101e-002
      1.01010101e-002 0. 0. 1.01010101e-002 0. 2.52525248e-002
      5.05050505e-003 0. 5.05050505e-003 0. 3.03030312e-002
      1.01010101e-002 2.52525248e-002 0. 1.51515156e-002 5.05050505e-003
      1.51515156e-002 0. 0. 0. 1.01010101e-002 0. 0. 3.03030312e-002 0.
      0. 0. 0. 5.05050505e-003 0. 5.05050505e-003 5.05050505e-003 0. 0.
      0. 5.05050505e-003 0. 0. 0. 0. 1.01010101e-002 5.05050505e-003 0.
      0. 5.05050505e-003 2.02020202e-002 0. 3.03030312e-002
      5.05050505e-003 4.04040404e-002 3.03030312e-002 0. 5.05050505e-003
      0. 2.52525248e-002 0. 1.01010101e-002 0. 5.05050505e-003 0.
      2.02020202e-002 0. 1.01010101e-002 0. 4.54545468e-002 0.
      2.02020202e-002 0. 0. 5.05050505e-003 0. 1.01010101e-002
      2.02020202e-002 0. 5.05050505e-003 0. 2.52525248e-002
      1.01010101e-002 0. 5.05050505e-003 3.03030312e-002 5.05050505e-003
      0. 0. 2.52525248e-002 0. 1.01010101e-002 0. 0. 1.01010101e-002
      1.01010101e-002 2.02020202e-002 5.05050505e-003 0. 0.
      5.05050505e-003 0. 5.05050505e-003 0. 0.</_>
    <_>
      2.38095243e-002 5.95238106e-003 1.19047621e-002 5.95238106e-003
      5.95238106e-003 0. 0. 0. 0. 2.38095243e-002 3.57142873e-002 0.
      2.38095243e-002 0. 1.19047621e-002 1.19047621e-002 0. 0.
      1.19047621e-002 1.19047621e-002 1.19047621e-002 0. 0.
      5.95238106e-003 1.78571437e-002 2.38095243e-002 5.95238106e-003 0.
      5.95238106e-003 0. 7.14285746e-002 1.19047621e-002 0.
      1.19047621e-002 0. 3.57142873e-002 0. 1.19047621e-002 0.
      5.95238106e-003 5.95238106e-003 1.19047621e-002 1.19047621e-002 0.
      4.16666679e-002 1.78571437e-002 1.19047621e-002 0. 7.73809552e-002
      0. 5.95238106e-003 0. 0. 0. 0. 5.95238106e-003 1.78571437e-002 0.
      0. 0. 0. 0. 0. 0. 0. 5.95238106e-003 5.95238106e-003 0. 0.
      5.95238106e-003 1.78571437e-002 0. 0. 0. 5.95238106e-003
      5.35714291e-002 5.95238106e-003 1.19047621e-002 5.95238106e-003
      1.78571437e-002 0. 0. 0. 2.38095243e-002 0. 5.95238106e-003 0. 0.
      2.38095243e-002 2.97619049e-002 5.95238106e-003 4.16666679e-002
      1.19047621e-002 0. 5.95238106e-003 0. 0. 0. 0. 0. 5.95238106e-003
      2.38095243e-002 5.95238106e-003 0. 5.95238106e-003 5.95238106e-003
      1.19047621e-002 0. 0. 5.95238106e-003 0. 0. 5.95238106e-003 0.
      1.19047621e-002 5.95238106e-003 0. 1.19047621e-002 0. 0. 0. 0. 0.
      0. 0.</_>
    <_>
      4.78468882e-003 4.78468882e-003 7.17703328e-002 3.34928222e-002 0.
      4.78468882e-003 1.91387553e-002 1.91387553e-002 0. 2.87081338e-002
      9.56937764e-003 4.78468882e-003 1.91387553e-002 4.78468882e-003
      4.78468882e-003 4.78468882e-003 4.78468882e-003 0. 1.91387553e-002
      2.39234436e-002 0. 0. 4.78468882e-003 0. 9.56937764e-003
      4.78468882e-003 4.78468882e-003 9.56937764e-003 0. 0.
      1.43540669e-002 9.56937764e-003 0. 0. 0. 3.34928222e-002 0.
      9.56937764e-003 0. 4.78468882e-003 0. 0. 0. 0. 2.87081338e-002
      1.43540669e-002 9.56937764e-003 0. 1.91387553e-002 0. 0.
      4.78468882e-003 0. 4.78468882e-003 0. 0. 1.91387553e-002 0.
      9.56937764e-003 4.78468882e-003 9.56937764e-003 4.78468882e-003
      1.91387553e-002 0. 4.78468882e-003 1.43540669e-002 2.39234436e-002
      0. 0. 0. 5.74162677e-002 9.56937764e-003 3.82775106e-002 0. 0.
      2.39234436e-002 4.78468882e-003 4.78468882e-003 0. 1.91387553e-002
      0. 4.78468882e-003 0. 9.56937764e-003 9.56937764e-003 0. 0.
      1.43540669e-002 9.56937764e-003 1.91387553e-002 0. 2.39234436e-002
      9.56937764e-003 4.78468882e-003 0. 4.78468882e-003 0. 0. 0.
      3.34928222e-002 0. 0. 9.56937764e-003 0. 0. 2.39234436e-002 0.
      1.43540669e-002 0. 9.56937764e-003 1.43540669e-002 0. 0. 0. 0.
      4.78468882e-003 4.78468882e-003 4.78468882e-003 0. 0.
      9.56937764e-003 0. 2.39234436e-002 0. 0.</_>
    <_>
      5.15463902e-003 5.15463902e-003 3.09278332e-002 4.12371121e-002 0.
      0. 0. 0. 0. 6.18556663e-002 1.03092780e-002 2.06185561e-002
      2.57731955e-002 0. 0. 0. 0. 0. 7.21649453e-002 5.15463902e-003
      5.15463902e-003 1.54639166e-002 5.15463902e-003 5.15463902e-003
      1.54639166e-002 5.15463902e-003 0. 0. 1.03092780e-002
      1.54639166e-002 0. 0. 5.15463902e-003 1.03092780e-002 0.
      2.57731955e-002 0. 1.03092780e-002 0. 1.03092780e-002 0.
      3.60824727e-002 1.54639166e-002 0. 1.54639166e-002 2.06185561e-002
      1.03092780e-002 0. 1.54639166e-002 0. 0. 0. 0. 0. 0.
      5.15463902e-003 0. 0. 5.15463902e-003 0. 5.15463902e-003 0. 0. 0.
      0. 1.03092780e-002 5.15463902e-003 0. 0. 0. 1.03092780e-002 0.
      1.18556701e-001 5.15463902e-003 2.06185561e-002 4.12371121e-002 0.
      5.15463902e-003 0. 1.54639166e-002 0. 0. 0. 2.06185561e-002 0.
      1.03092780e-002 0. 0. 0. 1.54639166e-002 0. 2.06185561e-002
      5.15463902e-003 5.15463902e-003 0. 0. 1.03092780e-002
      1.03092780e-002 0. 0. 0. 2.06185561e-002 0. 0. 1.03092780e-002
      1.03092780e-002 5.15463902e-003 5.15463902e-003 0. 5.15463902e-003
      0. 5.15463902e-003 0. 0. 0. 0. 1.54639166e-002 5.15463902e-003
      5.15463902e-003 0. 1.54639166e-002 0. 5.15463902e-003
      5.15463902e-003 1.03092780e-002</_>
    <_>
      0. 0. 3.00751887e-002 1.50375944e-002 0. 0. 0. 7.51879718e-003 0.
      3.00751887e-002 7.51879718e-003 0. 0. 0. 2.25563906e-002 0. 0. 0.
      6.01503775e-002 7.51879718e-003 0. 7.51879718e-003 0.
      1.50375944e-002 1.50375944e-002 7.51879718e-003 0. 0. 0. 0.
      2.25563906e-002 0. 0. 2.25563906e-002 0. 3.00751887e-002 0.
      3.00751887e-002 0. 0. 7.51879718e-003 3.00751887e-002
      1.50375944e-002 0. 3.00751887e-002 3.75939868e-002 7.51879718e-003
      0. 2.25563906e-002 0. 0. 0. 0. 0. 0. 0. 2.25563906e-002 0. 0. 0.
      1.50375944e-002 0. 0. 0. 0. 3.00751887e-002 7.51879718e-003 0. 0.
      0. 2.25563906e-002 0. 3.00751887e-002 0. 2.25563906e-002
      7.51879718e-003 7.51879718e-003 0. 0. 6.01503775e-002 0. 0.
      7.51879718e-003 7.51879718e-003 0. 7.51879718e-003 0.
      1.50375944e-002 1.50375944e-002 7.51879718e-003 0. 3.75939868e-002
      0. 0. 2.25563906e-002 0. 0. 7.51879718e-003 0. 0. 7.51879718e-003
      1.50375944e-002 0. 0. 1.50375944e-002 1.50375944e-002
      7.51879718e-003 2.25563906e-002 0. 2.25563906e-002 0. 0. 0. 0. 0.
      1.50375944e-002 1.50375944e-002 7.51879718e-003 0. 0. 0. 0.
      2.25563906e-002 0. 0.</_>
    <_>
      0. 2.85714287e-002 2.22222228e-002 3.17460322e-003 0. 0.
      2.22222228e-002 3.17460322e-003 1.26984129e-002 4.76190485e-002
      3.17460322e-003 6.34920644e-003 1.26984129e-002 9.52380989e-003
      6.34920644e-003 0. 0. 2.85714287e-002 1.26984129e-002 0. 0.
      6.34920644e-003 0. 3.17460322e-003 3.17460322e-003 0.
      2.85714287e-002 2.53968257e-002 0. 0. 0. 0. 3.17460322e-003
      3.17460322e-003 3.17460336e-002 9.52380989e-003 6.34920644e-003 0.
      1.26984129e-002 6.34920644e-003 6.34920644e-003 6.98412731e-002
      6.34920644e-003 1.26984129e-002 0. 6.34920644e-003 3.17460322e-003
      2.22222228e-002 0. 2.53968257e-002 0. 9.52380989e-003 0.
      9.52380989e-003 6.34920644e-003 2.85714287e-002 0. 3.17460322e-003
      3.17460322e-003 9.52380989e-003 9.52380989e-003 0. 0.
      6.34920644e-003 0. 3.17460322e-003 3.17460322e-003 0.
      5.39682545e-002 3.17460322e-003 3.17460322e-003 9.52380989e-003
      9.52380989e-003 0. 0. 1.26984129e-002 0. 0. 2.85714287e-002
      2.85714287e-002 3.17460322e-003 9.52380989e-003 3.17460322e-003 0.
      9.52380989e-003 3.17460322e-003 3.17460322e-003 6.34920644e-003 0.
      3.17460322e-003 2.53968257e-002 1.58730168e-002 3.17460322e-003 0.
      3.17460322e-003 6.34920644e-003 3.17460322e-003 0. 3.17460322e-003
      6.34920644e-003 0. 0. 0. 0. 3.17460322e-003 3.17460322e-003
      3.17460322e-003 3.17460322e-003 3.17460322e-003 6.34920644e-003
      6.34920644e-003 9.52380989e-003 3.17460322e-003 0. 6.34920644e-003
      1.26984129e-002 6.34920644e-003 0. 2.22222228e-002 1.90476198e-002
      3.17460322e-003 3.17460322e-003 3.17460322e-003 2.22222228e-002 0.</_>
    <_>
      3.20512825e-003 3.52564119e-002 3.20512825e-003 6.41025649e-003 0.
      3.20512825e-003 1.28205130e-002 0. 0. 5.44871800e-002
      6.41025649e-003 9.61538497e-003 1.28205130e-002 0. 3.20512825e-003
      0. 0. 3.20512839e-002 3.20512825e-003 0. 0. 0. 0. 0. 0. 0.
      2.56410260e-002 9.61538497e-003 6.41025649e-003 6.41025649e-003 0.
      0. 1.92307699e-002 1.60256419e-002 2.88461540e-002 1.60256419e-002
      1.60256419e-002 3.20512825e-003 6.41025649e-003 6.41025649e-003
      3.20512825e-003 4.16666679e-002 0. 9.61538497e-003 6.41025649e-003
      6.41025649e-003 6.41025649e-003 6.41025649e-003 6.41025649e-003
      5.12820520e-002 3.20512825e-003 9.61538497e-003 9.61538497e-003 0.
      0. 2.88461540e-002 0. 3.20512825e-003 9.61538497e-003
      1.28205130e-002 0. 6.41025649e-003 0. 6.41025649e-003
      9.61538497e-003 3.20512825e-003 6.41025649e-003 0. 3.84615399e-002
      9.61538497e-003 9.61538497e-003 9.61538497e-003 1.92307699e-002 0.
      0. 6.41025649e-003 0. 6.41025649e-003 1.28205130e-002
      1.28205130e-002 9.61538497e-003 1.28205130e-002 3.20512825e-003
      9.61538497e-003 6.41025649e-003 6.41025649e-003 3.20512825e-003
      6.41025649e-003 0. 0. 6.41025649e-003 6.41025649e-003
      6.41025649e-003 6.41025649e-003 3.20512825e-003 0. 0. 0.
      9.61538497e-003 3.20512825e-003 0. 3.20512825e-003 0. 0.
      2.24358980e-002 0. 6.41025649e-003 0. 0. 0. 2.56410260e-002
      3.20512825e-003 3.20512825e-003 6.41025649e-003 6.41025649e-003 0.
      3.20512825e-003 6.41025649e-003 3.84615399e-002 9.61538497e-003 0.
      1.28205130e-002 1.60256419e-002 1.92307699e-002 0.</_>
    <_>
      4.34782589e-003 8.69565178e-003 0. 5.21739125e-002 0. 0.
      3.47826071e-002 0. 1.73913036e-002 4.78260852e-002 1.30434781e-002
      0. 1.30434781e-002 4.34782589e-003 8.69565178e-003 4.34782589e-003
      0. 0. 8.69565178e-003 0. 4.34782589e-003 0. 4.34782589e-003
      1.73913036e-002 4.34782589e-003 0. 3.91304344e-002 0. 0. 0. 0. 0.
      0. 0. 8.69565178e-003 8.69565178e-003 2.60869563e-002 0.
      4.34782589e-003 0. 0. 5.65217361e-002 4.34782589e-003
      2.60869563e-002 0. 4.34782589e-003 0. 8.69565178e-003 0.
      8.26086923e-002 4.34782589e-003 0. 1.30434781e-002 0. 0.
      4.34782589e-003 0. 0. 0. 0. 1.73913036e-002 0. 8.69565178e-003 0.
      0. 4.34782589e-003 0. 8.69565178e-003 3.04347817e-002
      4.34782589e-003 8.69565178e-003 0. 4.34782589e-003 0. 0. 0. 0.
      4.34782589e-003 0. 1.73913036e-002 4.34782589e-003 0. 0. 0.
      4.34782589e-003 0. 4.34782589e-003 0. 0. 4.34782589e-003
      4.34782589e-003 8.69565178e-003 4.34782589e-003 4.34782589e-003 0.
      4.34782589e-003 4.34782589e-003 0. 0. 8.69565178e-003 0.
      2.60869563e-002 0. 0. 1.73913036e-002 0. 4.34782589e-003 0.
      4.34782589e-003 4.34782589e-003 8.69565159e-002 4.34782589e-003 0.
      1.30434781e-002 4.34782589e-003 1.30434781e-002 4.34782589e-003
      4.34782589e-003 2.60869563e-002 0. 4.34782589e-003 2.60869563e-002
      4.34782589e-003 4.78260852e-002 0.</_>
    <_>
      0. 6.85358196e-002 3.11526470e-003 9.34579410e-003 3.11526470e-003
      0. 5.91900274e-002 3.11526470e-003 1.24610588e-002 4.04984429e-002
      9.34579410e-003 9.34579410e-003 9.34579410e-003 0. 3.11526470e-003
      0. 0. 2.49221176e-002 0. 3.11526470e-003 3.11526470e-003 0. 0.
      1.24610588e-002 6.23052940e-003 0. 2.49221176e-002 1.55763235e-002
      6.23052940e-003 3.11526470e-003 3.11526470e-003 0. 0. 0.
      3.11526470e-003 1.24610588e-002 1.55763235e-002 6.23052940e-003
      6.23052940e-003 3.11526470e-003 0. 4.04984429e-002 0.
      2.80373823e-002 0. 3.11526470e-003 0. 6.23052940e-003
      6.23052940e-003 3.73831764e-002 1.86915882e-002 0. 3.11526470e-003
      3.11526470e-003 0. 1.55763235e-002 0. 6.23052940e-003
      9.34579410e-003 6.23052940e-003 0. 1.24610588e-002 0.
      6.23052940e-003 0. 1.55763235e-002 1.24610588e-002 6.23052940e-003
      3.42679098e-002 6.23052940e-003 2.18068529e-002 3.11526470e-003 0.
      0. 0. 6.23052940e-003 0. 3.11526470e-003 9.34579410e-003
      1.24610588e-002 1.86915882e-002 6.23052940e-003 3.11526470e-003
      1.24610588e-002 6.23052940e-003 9.34579410e-003 0. 0. 0. 0.
      3.11526470e-003 6.23052940e-003 0. 9.34579410e-003 6.23052940e-003
      6.23052940e-003 3.11526470e-003 0. 6.23052940e-003 0.
      3.11526470e-003 6.23052940e-003 0. 9.34579410e-003 3.11526470e-003
      9.34579410e-003 9.34579410e-003 6.23052940e-003 3.11526470e-003 0.
      2.49221176e-002 1.55763235e-002 3.11526470e-003 0. 3.11526470e-003
      6.23052940e-003 0. 0. 2.49221176e-002 1.86915882e-002
      3.11526470e-003 1.55763235e-002 3.11526470e-003 1.86915882e-002
      3.11526470e-003</_>
    <_>
      0. 3.76569033e-002 1.67364012e-002 4.18410031e-003 0. 0.
      8.36820062e-003 0. 1.25523005e-002 3.76569033e-002 3.34728025e-002
      8.36820062e-003 0. 4.18410031e-003 4.18410031e-003 0. 0.
      4.18410031e-003 4.18410031e-003 0. 8.36820062e-003 0. 0.
      4.18410031e-003 1.25523005e-002 0. 3.76569033e-002 8.36820062e-003
      4.18410031e-003 0. 0. 0. 0. 0. 3.76569033e-002 2.92887017e-002
      2.09205020e-002 4.18410031e-003 0. 0. 0. 5.85774034e-002
      4.18410031e-003 1.25523005e-002 0. 0. 0. 1.25523005e-002
      1.25523005e-002 5.85774034e-002 8.36820062e-003 4.18410031e-003
      8.36820062e-003 0. 4.18410031e-003 1.67364012e-002 0. 0.
      1.67364012e-002 8.36820062e-003 0. 0. 0. 0. 0. 1.25523005e-002
      1.25523005e-002 4.18410031e-003 5.02092019e-002 0. 4.18410040e-002
      8.36820062e-003 0. 0. 0. 1.25523005e-002 4.18410031e-003 0. 0.
      2.51046009e-002 4.18410031e-003 4.18410031e-003 8.36820062e-003
      8.36820062e-003 8.36820062e-003 0. 0. 4.18410031e-003 0.
      4.18410031e-003 8.36820062e-003 4.18410031e-003 0. 0.
      4.18410031e-003 8.36820062e-003 4.18410031e-003 0. 4.18410031e-003
      8.36820062e-003 0. 8.36820062e-003 0. 0. 2.09205020e-002 0.
      1.25523005e-002 4.18410031e-003 0. 8.36820062e-003 2.09205020e-002
      0. 4.18410031e-003 0. 0. 1.25523005e-002 4.18410031e-003
      8.36820062e-003 1.25523005e-002 4.18410031e-003 0. 8.36820062e-003
      1.25523005e-002 3.34728025e-002 0.</_>
    <_>
      0. 4.23280410e-002 4.23280410e-002 1.05820103e-002 0. 0.
      5.29100513e-003 0. 5.29100513e-003 5.29100522e-002 0.
      1.58730149e-002 0. 0. 1.05820103e-002 0. 0. 1.05820103e-002
      1.58730149e-002 0. 0. 5.29100513e-003 5.29100513e-003 0. 0. 0.
      3.70370373e-002 0. 0. 0. 1.58730149e-002 5.29100513e-003
      5.29100513e-003 0. 3.70370373e-002 0. 2.11640205e-002
      1.05820103e-002 5.29100513e-003 0. 0. 4.76190448e-002
      1.05820103e-002 5.29100513e-003 5.29100513e-003 1.05820103e-002
      1.05820103e-002 5.29100513e-003 5.29100513e-003 3.17460299e-002 0.
      0. 1.58730149e-002 5.29100513e-003 0. 3.17460299e-002 0. 0.
      1.05820103e-002 0. 0. 5.29100513e-003 0. 0. 0. 0. 1.05820103e-002
      0. 3.17460299e-002 5.29100513e-003 5.82010560e-002 5.29100513e-003
      1.58730149e-002 0. 5.29100513e-003 2.11640205e-002 5.29100513e-003
      0. 0. 1.05820103e-002 5.29100513e-003 0. 0. 5.29100513e-003 0. 0.
      0. 0. 0. 5.29100513e-003 2.64550261e-002 1.58730149e-002 0. 0. 0.
      0. 1.05820103e-002 1.05820103e-002 0. 5.29100513e-003 0. 0. 0.
      5.29100513e-003 1.05820103e-002 0. 0. 0. 0. 0. 1.58730149e-002
      5.29100513e-003 0. 5.29100513e-003 0. 1.05820103e-002
      5.29100513e-003 1.05820103e-002 3.17460299e-002 1.05820103e-002
      1.05820103e-002 1.58730149e-002 0. 4.76190448e-002 0.</_>
    <_>
      5.10204071e-003 3.06122452e-002 0. 5.10204071e-003 0. 0.
      5.10204071e-003 0. 5.10204071e-003 7.14285672e-002 5.10204071e-003
      1.02040814e-002 0. 5.10204071e-003 1.02040814e-002 5.10204071e-003
      5.10204071e-003 0. 1.02040814e-002 0. 0. 0. 5.10204071e-003
      5.10204071e-003 0. 0. 6.63265288e-002 5.10204071e-003 0. 0.
      1.02040814e-002 0. 1.02040814e-002 0. 5.10204071e-003
      2.04081628e-002 3.57142836e-002 0. 0. 5.10204071e-003 0.
      5.61224483e-002 5.10204071e-003 1.02040814e-002 5.10204071e-003 0.
      1.53061226e-002 0. 1.53061226e-002 5.61224483e-002 1.53061226e-002
      1.02040814e-002 2.04081628e-002 0. 0. 1.53061226e-002 0. 0.
      5.10204071e-003 0. 1.02040814e-002 0. 1.02040814e-002 0. 0.
      5.10204071e-003 5.10204071e-003 1.02040814e-002 2.04081628e-002 0.
      0. 0. 0. 0. 0. 5.10204071e-003 5.10204071e-003 0. 1.53061226e-002
      5.10204071e-003 5.10204071e-003 5.10204071e-003 5.10204071e-003 0.
      5.10204071e-003 1.02040814e-002 0. 5.10204071e-003 5.10204071e-003
      0. 0. 1.53061226e-002 0. 5.10204071e-003 0. 1.02040814e-002
      1.02040814e-002 0. 0. 1.02040814e-002 0. 2.55102031e-002 0. 0.
      2.55102031e-002 0. 0. 0. 0. 0. 6.12244904e-002 0. 5.10204071e-003
      5.10204071e-003 2.04081628e-002 5.10204071e-003 5.10204071e-003
      5.10204071e-003 1.53061226e-002 0. 1.02040814e-002 0.
      5.10204071e-003 5.61224483e-002 0.</_>
    <_>
      4.40528616e-003 3.52422893e-002 8.81057233e-003 1.32158585e-002 0.
      0. 1.32158585e-002 4.40528616e-003 4.40528616e-003 5.72687201e-002
      0. 0. 8.81057233e-003 8.81057233e-003 4.40528616e-003 0. 0.
      1.76211447e-002 3.08370031e-002 0. 0. 0. 0. 0. 0. 0.
      3.08370031e-002 4.40528616e-003 4.40528616e-003 0. 0. 0. 0.
      8.81057233e-003 1.76211447e-002 8.81057233e-003 1.76211447e-002
      8.81057233e-003 1.32158585e-002 4.40528616e-003 1.76211447e-002
      6.16740063e-002 0. 8.81057233e-003 1.32158585e-002 0.
      4.40528616e-003 4.40528616e-003 1.32158585e-002 6.60792887e-002
      4.40528616e-003 0. 8.81057233e-003 4.40528616e-003 8.81057233e-003
      2.64317170e-002 0. 4.40528616e-003 0. 4.40528616e-003 0.
      4.40528616e-003 4.40528616e-003 0. 4.40528616e-003 1.32158585e-002
      2.20264308e-002 4.40528616e-003 6.60792887e-002 0. 0.
      4.40528616e-003 0. 0. 0. 4.40528616e-003 0. 4.40528616e-003
      1.76211447e-002 1.76211447e-002 8.81057233e-003 4.40528616e-003
      4.40528616e-003 4.40528616e-003 8.81057233e-003 0. 0.
      8.81057233e-003 4.40528616e-003 4.40528616e-003 0. 1.32158585e-002
      0. 0. 0. 0. 4.40528616e-003 0. 4.40528616e-003 0. 0.
      2.20264308e-002 0. 0. 0. 0. 0. 0. 4.40528616e-003 0.
      8.81057233e-003 4.40528616e-003 8.81057233e-003 0. 4.40528616e-003
      4.40528616e-003 4.40528616e-003 4.40528616e-003 1.76211447e-002
      4.40528616e-003 0. 2.64317170e-002 2.64317170e-002 3.96475755e-002
      0.</_>
    <_>
      2.32018554e-003 0. 1.53132245e-001 0. 2.32018554e-003
      5.10440804e-002 0. 0. 5.10440804e-002 6.96055684e-003 0. 0.
      1.16009274e-002 1.85614843e-002 4.64037107e-003 0. 2.78422274e-002
      0. 0. 0. 0. 0. 0. 0. 0. 0. 0. 0. 0. 0. 0. 0. 0. 3.24825980e-002 0.
      6.96055684e-003 0. 0. 6.96055684e-003 0. 0. 0. 2.32018554e-003
      3.94431539e-002 0. 0. 0. 6.96055684e-003 0. 0. 0. 2.32018554e-003
      3.94431539e-002 0. 1.16009274e-002 0. 1.62412990e-002 0. 0. 0.
      9.28074215e-003 0. 2.32018554e-003 2.32018554e-003 0.
      1.85614843e-002 6.96055684e-003 2.32018554e-003 0. 0. 0. 0. 0.
      3.01624127e-002 0. 0. 3.24825980e-002 0. 1.16009274e-002
      4.64037107e-003 0. 4.64037107e-003 0. 0. 0. 0. 0. 3.01624127e-002
      0. 2.32018554e-003 0. 0. 0. 0. 0. 0. 0. 0. 5.56844547e-002 0.
      4.64037107e-003 6.96055684e-003 0. 0. 1.16009274e-002 0.
      6.96055684e-003 0. 6.96055666e-002 0. 0. 0. 0. 1.39211137e-002
      9.74477902e-002 0. 1.39211137e-002 0. 2.32018554e-003
      1.39211137e-002 0. 2.55220402e-002 2.55220402e-002 0. 0.</_>
    <_>
      4.06504050e-003 0. 2.15447143e-001 0. 0. 2.03252025e-002 0. 0.
      2.84552835e-002 0. 0. 0. 0. 1.21951215e-002 1.62601620e-002 0.
      1.62601620e-002 0. 0. 0. 0. 0. 0. 0. 0. 0. 0. 0. 0. 0. 0. 0. 0.
      2.43902430e-002 0. 1.21951215e-002 0. 0. 1.62601620e-002 0. 0. 0.
      4.06504050e-003 1.21951215e-002 0. 0. 4.06504050e-003
      4.06504050e-003 0. 0. 0. 4.06504050e-003 4.06504050e-003 0. 0. 0.
      1.21951215e-002 4.06504050e-003 0. 0. 4.06504050e-003 0.
      1.62601620e-002 4.06504050e-003 0. 2.84552835e-002 4.06504050e-002
      8.13008100e-003 0. 0. 0. 0. 0. 2.35772341e-001 0. 0.
      2.84552835e-002 0. 4.06504050e-003 0. 0. 0. 0. 1.21951215e-002 0.
      0. 0. 1.62601620e-002 0. 0. 0. 0. 0. 0. 0. 0. 0. 0.
      2.43902430e-002 0. 0. 0. 0. 0. 1.21951215e-002 0. 0. 0.
      2.03252025e-002 0. 0. 0. 0. 4.47154455e-002 4.06504050e-002 0.
      4.06504050e-003 0. 0. 2.84552835e-002 0. 8.13008100e-003
      4.06504050e-003 0. 0.</_>
    <_>
      6.89655170e-003 0. 2.10344821e-001 0. 0. 2.41379309e-002 0. 0.
      1.72413792e-002 3.44827585e-003 0. 0. 6.89655170e-003
      1.37931034e-002 6.89655170e-003 0. 3.44827585e-003 1.37931034e-002
      0. 0. 0. 0. 0. 0. 0. 0. 0. 0. 0. 0. 0. 3.44827585e-003 0.
      6.89655170e-003 3.44827585e-003 0. 0. 0. 3.10344826e-002 0.
      2.41379309e-002 0. 0. 1.72413792e-002 0. 0. 0. 6.89655170e-003 0.
      0. 3.44827585e-003 0. 6.89655170e-003 0. 0. 0. 1.37931034e-002 0.
      0. 0. 3.44827585e-003 3.44827585e-003 0. 6.89655170e-003 0.
      3.44827585e-002 1.37931034e-002 0. 3.44827585e-003 0. 0. 0. 0.
      3.44827585e-002 0. 0. 8.96551758e-002 1.03448275e-002
      1.03448275e-002 3.44827585e-003 0. 3.44827585e-003 0.
      1.72413792e-002 0. 0. 0. 3.10344826e-002 0. 3.44827585e-003 0. 0.
      0. 0. 0. 0. 0. 0. 2.06896551e-002 0. 0. 0. 0. 0. 3.44827585e-002
      0. 3.44827585e-003 0. 3.79310325e-002 0. 0. 0. 0. 0.
      1.06896549e-001 0. 1.72413792e-002 0. 6.89655170e-003
      5.17241359e-002 0. 2.06896551e-002 6.89655170e-003 0. 0.</_>
    <_>
      0. 0. 2.33812958e-001 0. 0. 5.03597148e-002 0. 0. 2.15827338e-002
      0. 0. 0. 0. 3.59712238e-003 7.19424477e-003 0. 5.75539581e-002
      3.59712238e-003 0. 0. 0. 0. 0. 0. 0. 0. 0. 0. 0. 0. 0. 0. 0.
      3.59712243e-002 0. 0. 0. 0. 0. 0. 1.79856122e-002 0. 0.
      1.07913669e-002 0. 0. 0. 0. 0. 0. 3.59712238e-003 3.59712238e-003
