<?xml version="1.0"?>
<opencv_storage>
<my_svm type_id="opencv-ml-svm">
  <svm_type>C_SVC</svm_type>
  <kernel><type>LINEAR</type></kernel>
  <C>1.</C>
  <term_criteria><epsilon>2.2204460492503131e-016</epsilon>
    <iterations>100</iterations></term_criteria>
  <var_all>256</var_all>
  <var_count>256</var_count>
  <class_count>8</class_count>
  <class_labels type_id="opencv-matrix">
    <rows>1</rows>
    <cols>8</cols>
    <dt>i</dt>
    <data>
      1 2 3 4 5 6 7 8</data></class_labels>
  <sv_total>28</sv_total>
  <support_vectors>
    <_>
      3.72209698e-002 7.18101114e-002 -7.47638196e-002 8.69560754e-004
      9.48712230e-003 8.44986811e-002 2.89461929e-002 1.75140724e-001
      8.15972835e-002 -8.72152857e-003 -6.62056543e-003 1.99427772e-002
      3.86114269e-002 2.23127194e-002 1.84972584e-002 -2.84546521e-002
      1.26864556e-002 -4.19909181e-003 -5.43718450e-002 3.55676040e-002
      3.83724459e-002 7.84407705e-002 3.47083099e-002 1.34555623e-002
      1.92364212e-002 3.16456482e-002 5.20320535e-002 3.32447365e-002
      3.52636538e-002 8.34665224e-002 4.04110849e-002 1.51805028e-001
      1.66623220e-002 3.26382229e-004 -5.90175129e-002 2.21924130e-002
      -1.24331564e-002 -1.50023447e-002 2.34145764e-003 -5.15779220e-002
      -8.80977139e-002 8.33582953e-002 1.89976729e-002 2.00888626e-002
      -7.22856894e-002 7.07237050e-003 8.03728588e-003 -1.24453977e-002
      2.98158992e-002 5.45618422e-002 1.01078555e-001 4.33237664e-002
      2.32164678e-003 8.51926859e-003 3.22189741e-002 8.31762925e-002
      -1.06773816e-001 2.71673948e-002 8.73813257e-002 8.05803481e-003
      2.10701171e-002 -3.00836489e-002 -1.17761813e-001 4.19057421e-002
      -1.77217349e-002 1.65378302e-002 -3.82712007e-001 2.73264553e-002
      -1.01877628e-002 2.56250687e-002 -3.19668241e-002 7.80171342e-003
      -1.43638745e-001 7.07921386e-002 -1.29000679e-001 -1.52374640e-001
      1.64733548e-002 4.33456488e-002 -5.09917066e-002 2.63167284e-002
      -1.05297394e-001 9.68756154e-002 -5.73183037e-003 2.19680350e-002
      1.70331616e-002 5.36079668e-002 4.44444455e-003 1.16197402e-002
      1.63119696e-002 2.89109629e-002 -6.60393061e-003 -9.13163349e-002
      5.93612418e-002 2.50808410e-002 -3.17408964e-002 -4.82068211e-002
      -5.59008718e-002 7.06644449e-003 1.92554425e-002 -3.99052873e-002
      -1.57074258e-001 -1.66146308e-002 3.56115773e-002 -4.16315859e-004
      1.22611681e-002 5.55963367e-002 3.49632762e-002 5.10381311e-002
      -6.31143227e-002 -3.80452462e-002 4.56562303e-002 3.05543952e-002
      2.83328779e-002 9.22942609e-002 -6.47197012e-003 2.66072154e-002
      2.90583204e-002 -2.78047293e-001 2.47336030e-001 -3.17099094e-002
      1.57263707e-002 4.04959098e-002 5.16608581e-002 2.36912966e-002
      4.76855598e-002 1.61190983e-002 3.93419638e-002 -3.23049491e-004
      -1.11724317e-001 1.95091113e-001 4.11170572e-002 -6.21232033e-001
      2.04885621e-002 -7.16928065e-001 3.51691581e-002 -8.48736800e-003
      5.45442402e-002 3.78124565e-002 2.14870423e-002 7.20108375e-002
      -7.53194233e-003 -6.17583189e-003 7.92821310e-003 -1.39986828e-001
      4.28836457e-002 3.64135318e-002 3.88333900e-003 2.82394737e-002
      1.15958638e-002 1.92807447e-002 1.11725908e-002 1.63991079e-002
      -1.09740319e-002 1.34233609e-001 2.08721142e-002 6.41620904e-003
      4.76156883e-002 4.09312733e-002 2.41527930e-002 2.01661177e-002
      2.08469592e-002 1.84891149e-002 8.90792999e-003 2.83210911e-003
      -6.11564033e-002 4.20721583e-002 8.86056479e-003 2.01051906e-002
      3.75055298e-002 -2.53656227e-003 3.81353348e-002 -8.92973617e-002
      2.38252543e-002 2.17940006e-002 1.68165430e-001 -2.90547013e-002
      7.17897415e-002 1.80465803e-002 4.10461612e-002 -8.17824854e-004
      3.40767913e-002 1.19811213e-002 2.83041485e-002 1.29528614e-002
      2.68675592e-002 9.58290324e-003 -2.56623179e-001 1.53662134e-002
      5.22975139e-002 5.65740615e-002 1.78576447e-002 4.58593778e-002
      2.03375258e-002 2.00739708e-002 -2.23737452e-002 6.72386866e-003
      -6.15798384e-002 -3.66545981e-004 -1.34237204e-002
      -1.99772008e-002 -2.05041990e-002 2.58315839e-002 4.36087027e-002
      -8.61674361e-003 9.20638070e-003 6.74912110e-002 5.65306246e-002
      1.94732733e-002 4.44325209e-002 1.39143399e-003 -4.03798893e-002
      1.73903760e-002 2.18718313e-002 2.50235274e-002 7.25908428e-002
      3.11483108e-002 -2.61369068e-003 3.11211683e-002 8.55738297e-003
      4.85421121e-002 3.44523415e-002 9.08548757e-003 3.20245773e-002
      2.58005168e-002 -3.32188373e-003 8.66019130e-002 2.15961616e-002
      2.36837752e-002 4.83277626e-002 -4.58700629e-003 -4.29601828e-003
      6.67004567e-003 3.11199985e-002 -4.34570108e-003 3.51826251e-002
      -3.43293790e-003 -6.49083972e-001 2.49055512e-002 4.17183563e-002
      -1.66862831e-002 2.99000684e-002 2.72667855e-002 3.79999094e-002
      9.96465385e-002 1.06836744e-002 -6.39686128e-003 1.67859867e-002
      6.01325035e-002 -4.25320491e-002 3.80447991e-002 3.75887752e-002
      -8.15566927e-002 1.99726466e-002 -8.90554845e-001 -8.17611665e-002
      1.53251905e-002</_>
    <_>
      -3.87930498e-002 5.86435869e-002 4.35092160e-003 -5.76855913e-002
      -4.11600154e-003 5.23596965e-002 1.99428871e-002 2.95911394e-002
      5.55550382e-002 -7.27253184e-002 -4.67503741e-002 -6.77693635e-003
      -2.27137282e-002 6.66605756e-002 1.83564634e-003 -3.78763191e-002
      1.17098413e-001 1.41548621e-003 -6.90704361e-002 -2.46265274e-003
      3.66339684e-002 7.96553716e-002 4.82162414e-003 -4.32182522e-003
      1.64416172e-002 -3.15221632e-003 7.31125623e-002 1.81150679e-002
      2.62783673e-002 4.92025800e-002 1.37707135e-002 2.51860648e-001
      2.43551731e-002 -2.10275780e-002 1.86254047e-002 -1.67213380e-004
      2.83282399e-002 -3.87413125e-003 -2.83185393e-002 -5.52101173e-002
      -4.71844897e-003 3.04726586e-002 3.56423482e-003 -5.18786125e-002
      -2.67040223e-001 -1.09169438e-001 -1.32313035e-002
      -1.29420608e-001 -2.99196877e-002 4.39117812e-002 9.20362622e-002
      -3.55481394e-002 -3.07750944e-002 5.63195627e-003 1.71970967e-002
      6.33762702e-002 1.53131500e-001 -1.79530866e-002 8.31640959e-002
      1.77040976e-002 5.35001745e-004 2.88038813e-002 1.54593334e-001
      3.02325934e-003 -3.44916321e-002 3.18732932e-002 -1.83112919e-001
      1.57186612e-002 -1.18320815e-001 2.96712425e-002 1.71801599e-003
      -2.46150536e-003 -7.66198430e-003 4.88509089e-002 -2.97831893e-002
      -2.44736820e-002 1.21370470e-002 3.25593501e-002 4.30851150e-003
      2.76113991e-002 6.15161657e-003 1.06982127e-001 -1.28020063e-001
      -1.67713668e-002 4.30315454e-003 3.94937173e-002 -6.04689009e-002
      8.23435001e-003 -3.07393353e-003 3.51445489e-002 -2.56523341e-002
      7.93542340e-002 3.30869332e-002 -1.27756940e-002 -1.90670833e-001
      4.86984812e-002 1.30951749e-002 -9.65665430e-002 1.19918827e-002
      2.24147346e-002 -4.22821343e-002 -4.80953008e-002 6.09350577e-003
      1.61632095e-002 2.29579639e-002 2.63797790e-002 3.40674631e-002
      6.23088107e-002 -1.28368750e-001 1.19641088e-002 -2.32159533e-002
      2.12175921e-002 -6.82814121e-002 -2.64605181e-003 -1.25800550e-001
      -1.27533991e-002 -3.91240269e-002 -3.02841574e-001 1.54196814e-001
      -8.79738014e-003 -3.42798140e-003 2.94361524e-002 7.01399595e-002
      4.02386636e-002 -1.34994183e-002 1.13925850e-002 3.60633433e-002
      -1.60706453e-002 -1.03643537e-001 1.96920127e-001 -4.45472933e-002
      1.44664034e-001 -1.18548819e-003 2.93324701e-002 -2.39995494e-003
      -2.59963069e-002 6.03878200e-002 6.90733315e-003 -4.20811325e-002
      5.01781106e-002 -1.57538000e-002 -2.69247573e-002 -1.95193682e-002
      -1.38323918e-001 4.90225367e-002 2.56280974e-002 1.24253705e-002
      7.67424610e-003 1.20156445e-002 4.18446120e-003 -2.80605387e-002
      -5.38580818e-003 1.40361805e-002 8.09145570e-002 -5.31850010e-003
      -1.76422037e-002 5.79955913e-002 2.77854744e-002 3.09385397e-002
      -3.05021554e-002 -1.64581668e-002 -4.29247059e-002 2.90660025e-003
      1.92646638e-001 -4.43426557e-002 1.13110207e-002 3.80524285e-002
      7.50610745e-003 -2.21876726e-002 -1.99323803e-001 -2.68345000e-003
      2.53777113e-002 -1.71571113e-002 2.16061156e-002 5.43629527e-002
      2.30090320e-002 6.20484464e-002 3.12548596e-004 5.75299896e-002
      2.83887181e-002 6.98312446e-002 -8.47384632e-002 -3.55311111e-002
      2.45108921e-002 1.07604275e-002 -5.02543747e-002 -3.01425636e-001
      -4.29652864e-004 -5.51210577e-003 3.22905630e-002 -1.49484500e-002
      5.31913154e-002 3.02195479e-003 1.49190333e-002 5.09489700e-003
      -2.40118299e-002 7.58292973e-002 1.11194141e-002 -3.97548154e-002
      -1.15468418e-002 -5.55944331e-002 3.24809924e-002 3.12549286e-002
      -9.91940424e-002 -2.14814264e-002 4.54774946e-002 2.03203857e-002
      4.58280277e-003 -2.38642711e-002 -6.10758364e-003 -2.02099737e-002
      1.68694612e-002 -2.27401219e-003 3.10123023e-002 8.57378319e-002
      -9.30079143e-004 -2.09899656e-002 -1.94002856e-002
      -1.79702435e-002 2.66635772e-002 -8.63187760e-003 6.22883765e-003
      2.83985753e-002 -2.26103999e-002 -8.42837021e-002 1.14221975e-001
      -2.28765383e-002 1.48844635e-002 2.50001736e-002 -4.16244706e-003
      -5.11252210e-002 -2.90250517e-002 -4.78839874e-003
      -6.02905378e-002 3.63705941e-002 -7.86104351e-002 -4.26654667e-001
      2.58489382e-002 2.60240547e-002 -5.81424087e-002 -7.28383735e-002
      7.18306378e-003 5.31071946e-002 5.29364012e-002 -6.86409418e-003
      3.83267067e-002 3.73965278e-002 3.14651616e-002 4.03152518e-002
      5.80328796e-003 1.22887501e-002 -1.07358240e-001 3.39964814e-002
      3.08800608e-001 9.71624441e-003 -6.01692908e-002</_>
    <_>
      -6.48038313e-002 6.70592561e-002 -5.60007505e-002 -2.95992851e-001
      1.15997922e-002 3.50646675e-002 3.16455238e-003 1.09801166e-001
      -1.15976185e-001 -2.37175468e-002 -7.23418407e-003 2.65352018e-002
      -1.83077946e-001 5.98211661e-002 2.26949044e-002 -2.15943195e-002
      4.43828441e-002 -1.37258926e-003 -3.34791839e-003 2.11325660e-002
      1.01477969e-002 8.00427571e-002 1.10031199e-002 -3.42832506e-002
      6.93333149e-003 2.85150334e-002 5.28620258e-002 2.50644851e-002
      2.07041372e-002 4.11958471e-002 2.75508054e-002 3.40693623e-001
      -2.62793526e-002 -3.27281766e-002 -8.84804577e-002 1.96017399e-002
      3.19419336e-003 -9.76092592e-002 1.02137215e-003 -2.11867169e-002
      9.98480897e-003 -1.67471566e-003 -6.42945198e-003 3.41028385e-002
      -1.62946939e-001 4.40391852e-003 7.99211580e-003 1.54230008e-002
      3.22248191e-002 6.07526302e-002 3.13808545e-002 5.11725023e-002
      -1.75490440e-003 -7.41272653e-003 2.61115935e-002 7.90008977e-002
      9.11585540e-002 1.99928675e-002 2.69203894e-002 1.09361056e-002
      6.17785612e-003 -2.16203975e-003 1.08540557e-001 1.86566524e-002
      -1.57603845e-002 1.29234670e-002 -3.56394470e-001 9.50584561e-003
      -2.88251918e-002 -1.21190753e-002 6.96696788e-002 3.84446606e-002
      2.03725062e-002 3.27495076e-002 -1.22822396e-001 1.23317502e-002
      -1.35236559e-002 3.95975634e-002 -1.01469710e-001 -2.63665244e-002
      3.91023941e-002 -4.11481522e-002 9.08207428e-003 2.49015633e-002
      2.37778258e-002 4.13980894e-003 -2.72893789e-003 2.39006039e-002
      1.82059146e-002 3.32092121e-002 -3.24609354e-002 -2.02037673e-002
      4.34842110e-002 -3.55792232e-002 1.34006264e-002 2.47753970e-002
      -2.32273936e-002 -8.32256489e-003 -2.59044413e-002 2.57136896e-002
      5.98401465e-002 -3.68007622e-003 2.19585374e-002 1.76619776e-002
      1.41311493e-002 2.54611690e-002 3.51008214e-002 6.58799037e-002
      -1.01099601e-002 8.43847916e-002 3.90990190e-002 2.37654764e-002
      3.07630114e-002 -2.51105824e-003 -5.55555569e-003 -4.84881736e-003
      -9.59055051e-002 -1.30039752e-001 1.67299286e-001 -1.06777474e-002
      -1.40523091e-002 4.86476272e-002 -1.91501416e-002 -4.09598416e-003
      1.71997938e-002 2.07827110e-002 9.21760276e-002 1.32604083e-002
      -2.69156277e-001 1.13249503e-001 3.85846421e-002 -4.02228348e-003
      3.56053934e-005 -8.78807902e-002 -1.63853765e-002 -1.61511786e-002
      -7.24987686e-002 2.29466148e-002 1.00837182e-002 2.07794458e-002
      1.31737646e-002 -9.03090183e-003 1.87314861e-002 -8.61115828e-002
      4.59496006e-002 -6.62960019e-003 -9.88164730e-003 3.28796124e-003
      -9.19611007e-002 5.61098196e-003 8.71418696e-003 -2.00307090e-003
      2.34776326e-002 1.23229913e-001 1.66260614e-003 -5.63557222e-002
      1.28986384e-003 4.05034199e-002 3.90841663e-002 2.97859199e-002
      2.30974946e-002 2.00895257e-002 2.51992866e-002 1.62485212e-001
      -3.90328839e-002 5.45626367e-003 4.36335895e-003 1.86250750e-002
      2.56072171e-002 4.44444455e-003 5.35341538e-002 1.06836688e-002
      3.18108350e-002 2.62211617e-002 8.64350945e-002 3.14069688e-002
      -4.12314028e-001 7.95462914e-003 3.12906429e-002 1.28395148e-002
      8.36723372e-002 -4.94285017e-001 -2.78058201e-002 -2.49750521e-002
      -4.58493792e-002 3.58876865e-003 -1.81631267e-001 2.34512500e-002
      4.01688106e-002 2.64222622e-002 -3.26580107e-002 2.27972046e-002
      1.51870865e-002 1.62715614e-002 -4.08142246e-002 -1.53017892e-002
      -1.02486849e-001 8.26294161e-003 -1.96567267e-001 1.44608319e-002
      -1.53111182e-002 2.13056747e-002 2.74791159e-002 -3.55321518e-003
      3.41814454e-003 3.17135602e-002 3.96131910e-002 -1.38383741e-002
      2.39222702e-002 8.88888910e-003 -3.43865305e-002 1.28921717e-002
      -3.65569480e-002 4.28968705e-002 5.89874648e-002 2.19884124e-002
      -3.79972206e-003 -7.60038011e-003 -7.57684745e-003 4.21692804e-002
      1.66056603e-002 -4.58243024e-003 -2.37157736e-002 9.95759293e-003
      1.25197517e-002 9.97275189e-002 2.61308290e-002 3.32132801e-002
      1.49694867e-002 1.44760720e-002 -7.82057457e-003 -3.87124880e-003
      4.70895618e-002 3.74811999e-002 1.88574940e-002 -4.94939648e-003
      1.05058528e-001 1.82290059e-002 1.79659445e-002 -9.44203138e-003
      3.16826962e-002 -1.79039277e-002 -3.17447782e-002 8.84382725e-002
      4.31930879e-003 2.74752732e-004 9.33770742e-003 3.75330485e-002
      -1.60479173e-003 7.87037984e-003 2.22121868e-002 -4.38219547e-001
      -2.18775105e-002 2.49481276e-001 -1.19356394e-001 -8.30837265e-002</_>
    <_>
      9.88008082e-002 6.80673867e-002 -3.08134314e-003 -1.86354607e-001
      3.27284914e-003 3.81967016e-002 1.03356298e-002 -1.33951113e-001
      -7.40786502e-003 -2.20754147e-002 7.72698410e-003 1.35376547e-002
      -6.93533942e-002 -7.42838681e-002 -2.28244327e-002
      -9.61656868e-003 4.44036908e-002 4.17899340e-003 -1.93111412e-003
      1.51739065e-002 -3.54828611e-002 3.42290811e-002 2.91327462e-002
      -4.31316858e-003 1.77197047e-002 -3.83675820e-003 7.55866244e-002
      1.98935643e-002 2.84238178e-002 4.17008400e-002 2.03404985e-002
      1.73239604e-001 2.19141524e-002 -8.71995371e-003 -2.38477793e-002
      5.76431770e-003 2.15094741e-002 1.10429861e-002 -2.25030612e-002
      -4.00392301e-002 -1.55445398e-003 -1.30428776e-001
      -2.13685315e-002 2.81367376e-002 3.88052389e-002 -5.72191775e-002
      -2.47603822e-002 -6.87750503e-002 -2.53438912e-002
      -1.55452387e-002 -1.14114694e-001 2.39013210e-002 -1.05541083e-003
      -6.57701679e-003 3.15984637e-002 6.18717074e-002 -1.77283242e-001
      4.90315892e-002 -2.61748414e-002 -7.62022426e-003 1.58408321e-002
      -5.08445166e-002 1.55532300e-001 2.17327103e-002 2.21033860e-002
      -7.74372276e-003 -4.22617882e-001 -2.16513523e-003
      -3.50291282e-002 2.81485487e-002 -4.94072139e-002 1.17464690e-002
      5.01617556e-003 2.49177516e-002 -1.92394946e-002 1.73669904e-002
      1.88127700e-002 2.93708593e-002 1.55087141e-003 -1.28224134e-001
      3.59020159e-002 -5.81225231e-002 -7.23161697e-002 -2.41886944e-001
      3.37114767e-003 2.55681071e-002 -2.51382403e-002 1.11190900e-002
      5.57845682e-002 1.10809021e-002 5.01486845e-003 1.09186918e-001
      -5.50906081e-003 1.75335724e-002 -3.84877273e-003 1.28486827e-001
      -7.65534639e-002 1.43377986e-002 -7.38856010e-003 2.77572107e-002
      6.76921234e-002 -1.69797875e-002 -8.59253202e-003 1.42251616e-002
      1.99540500e-002 4.08557057e-003 5.65401241e-002 -2.67442297e-002
      -7.48767182e-002 5.98497801e-002 -7.39186769e-004 2.61840317e-002
      9.60453600e-003 -6.08235188e-002 -2.34196335e-001 7.46698212e-003
      -2.11402982e-001 1.94363505e-001 -3.27792428e-002 7.45804794e-003
      1.96494535e-002 5.67887863e-003 6.33040741e-002 1.99782159e-002
      3.04047335e-002 1.23643898e-003 -2.42837276e-002 8.33691470e-003
      -1.98961957e-003 -1.96576752e-002 2.07128841e-002 2.23293081e-001
      -6.38648216e-003 8.90614241e-002 1.09240944e-002 -1.27770538e-002
      -1.71364518e-003 3.06698903e-002 2.49616075e-002 4.31649648e-002
      1.13326842e-002 2.70198705e-003 -1.66260004e-002 -2.14631200e-001
      1.55743882e-002 1.39162131e-002 -4.95986640e-003 1.66096259e-002
      6.10254630e-002 -1.17268190e-002 -4.64710873e-004 -1.15457270e-003
      2.91698165e-002 1.36824679e-002 2.08721142e-002 1.73079986e-002
      2.44768299e-002 2.31340937e-002 4.82231081e-002 -2.57205851e-002
      1.94023945e-003 7.14658946e-003 3.82558629e-003 2.19748225e-002
      -4.68832180e-002 3.86396721e-002 5.37979603e-003 1.92041397e-002
      3.24793644e-002 -1.25425920e-001 2.16204263e-002 -8.29115044e-003
      2.05166619e-002 1.36416815e-002 -1.57363340e-001 -9.98399220e-003
      6.77212626e-002 2.55842004e-002 3.31968926e-002 -3.73125374e-002
      -6.41876012e-002 -6.99521974e-002 -1.96083449e-002
      -6.03511650e-003 8.97812098e-003 5.39310835e-003 4.24568318e-002
      1.07681230e-002 1.78745538e-002 5.04658036e-002 -1.42116565e-002
      5.73227592e-002 4.49985173e-003 5.17297676e-003 -3.74544077e-002
      -1.32648638e-002 -3.58193517e-002 1.32572446e-002 -3.04015819e-002
      8.08840059e-003 4.62600216e-003 1.56941591e-004 2.81875990e-002
      -2.66706079e-001 4.78683226e-003 -6.96739648e-004 3.91516574e-002
      1.19663076e-002 3.88563946e-002 2.59958114e-003 -3.69755439e-002
      9.46331676e-003 -7.05252308e-003 3.78526710e-002 8.36225450e-002
      1.29084261e-002 -7.03263422e-003 9.82240401e-003 2.02901941e-002
      3.65600809e-002 2.88620517e-002 -7.89802819e-002 2.01572645e-002
      -2.72669159e-002 -1.07362750e-003 9.80494022e-002 1.43931545e-002
      2.48037055e-002 3.96130309e-002 -1.82968825e-002 -3.12334485e-002
      1.40209100e-003 5.22843450e-002 2.09578723e-002 4.94672917e-002
      3.40953330e-003 2.37317458e-001 -1.19617558e-003 2.43832599e-002
      9.28027276e-003 1.67937912e-002 3.37904133e-003 -2.50852369e-002
      7.92867690e-002 -2.88551897e-002 3.45309228e-002 -3.52337654e-003
      4.52568009e-002 -3.18328105e-002 -8.68168380e-003 3.97133641e-003
      6.15818389e-002 1.50166191e-002 -1.31322503e-001 2.08957121e-002
      -3.00289951e-002</_>
    <_>
      -1.17691383e-002 5.38809113e-002 -4.35205474e-002 -9.14482921e-002
      -1.81048065e-002 4.56982739e-002 -4.99115791e-003 1.00840956e-001
      7.62596130e-002 -5.71573824e-002 -4.72621247e-002 -2.91189607e-002
      1.57553367e-002 5.04454710e-002 -1.98183786e-002 -6.49097115e-002
      8.97909701e-002 -4.74900007e-002 1.79312937e-002 -7.02684298e-002
      -6.06593024e-003 4.78748679e-002 1.10448766e-002 -3.55697609e-002
      -3.00766621e-003 2.32865363e-002 -5.30070486e-003 -1.32492520e-002
      -9.33859218e-003 -5.98655920e-003 -8.38678926e-002 2.88708657e-001
      3.40999220e-003 -4.66983989e-002 2.06687953e-003 -3.40818763e-002
      -5.94226178e-003 -1.51848570e-002 -1.85166355e-002
      -7.25026131e-002 -1.25129276e-003 1.38261896e-002 6.35981280e-003
      5.50947618e-004 -3.03092115e-002 -6.56267628e-002 -4.74132132e-003
      -5.49520366e-002 -5.75615354e-002 2.43187565e-002 7.36578107e-002
      2.44444739e-002 -5.99743463e-002 -1.48292445e-002 5.51362336e-003
      5.81519306e-002 3.16006184e-001 2.56083161e-002 5.10704927e-002
      3.73195820e-002 -3.01266126e-002 -1.60207450e-002 1.08126476e-002
      -6.59091026e-002 -3.56051028e-002 -3.16592157e-002
      -5.34906030e-001 -3.48227024e-002 -2.84192692e-002
      -1.39974337e-003 -2.09620930e-002 -1.14633748e-002
      -1.00694597e-002 5.40188290e-002 -3.58835757e-002 -1.81678869e-003
      -2.03284677e-002 2.35711280e-002 -3.52193490e-002 -4.17647092e-003
      1.89790782e-002 3.22779752e-002 -4.01721783e-002 -8.52660276e-003
      -1.60305691e-003 -2.60469671e-002 -2.67949216e-002
      -3.03581753e-003 -1.80026088e-002 -1.71481837e-002
      -3.33300792e-002 1.08447805e-001 3.10661290e-002 -2.28711031e-002
      -7.57864257e-003 7.01854527e-002 -6.29512295e-002 -1.45020681e-002
      -7.33901933e-003 1.66933853e-002 7.48544815e-004 -5.36660627e-002
      3.99837904e-002 -3.91983427e-002 -3.88597175e-002 -1.82773508e-002
      -3.48942680e-003 3.94041240e-002 -1.03047244e-001 7.88446292e-002
      2.49923076e-002 -3.24427262e-002 8.39775614e-003 3.68602090e-002
      -1.28288895e-001 -3.37494351e-002 -9.21927467e-002 1.94085062e-001
      1.70220539e-001 -2.51592752e-002 -3.04967258e-002 2.17166427e-003
      5.30842412e-003 -5.78693766e-003 -9.81146190e-003 6.09632675e-003
      5.79937324e-002 -6.86576590e-004 -1.37766883e-001 1.67831972e-001
      2.98525281e-002 2.11435705e-001 -2.17102859e-002 2.81510707e-002
      -7.34038372e-003 6.67276047e-003 6.18657880e-002 4.31306753e-003
      3.14630158e-002 -3.18680867e-003 -1.33374780e-002 -2.11239215e-002
      -7.63588920e-002 -1.07787006e-001 1.62682105e-002 -2.20370404e-002
      -3.36719044e-002 -1.82434302e-002 -6.27833381e-002
      -3.95356491e-002 -2.34034657e-002 -3.07693202e-002 1.11376308e-002
      9.85308439e-002 7.09414948e-003 -3.21726948e-002 2.75812093e-002
      -2.45010741e-002 1.64231062e-002 -7.93674588e-002 -1.41962748e-002
      1.42592108e-002 -1.53164174e-002 1.70077860e-001 3.39571759e-002
      -1.00097936e-002 -1.42624434e-002 -2.40991521e-003 2.22199853e-003
      -8.71043801e-002 -1.87218282e-002 3.22709531e-002 2.95461975e-002
      -1.68231409e-002 1.15537345e-001 -6.23911172e-002 -7.91094899e-002
      -5.34661375e-002 1.98563226e-002 -1.38037652e-003 1.35963291e-001
      -2.03243103e-002 2.90880166e-003 -1.82006806e-002 -1.36161195e-002
      -4.50612269e-002 -6.02332018e-002 1.74701121e-002 -4.25315090e-003
      1.50356935e-002 -3.16473916e-002 4.37834002e-002 -2.15620943e-003
      -3.38635929e-002 -3.80793475e-002 1.17169693e-003 -7.58086964e-002
      -1.93682574e-002 -9.17936563e-002 -1.91708617e-002
      -1.40744317e-002 2.87745483e-002 -2.48906063e-003 -8.68085921e-002
      -2.44275518e-002 1.09038269e-002 3.79638770e-003 -8.22636113e-002
      1.33186858e-002 -1.99981742e-002 -3.14695314e-002 -3.23835090e-002
      -7.12758899e-002 5.01339212e-002 4.71778363e-002 -2.78826226e-002
      -1.02615030e-002 -1.05696749e-002 -3.11052166e-002
      -3.05051934e-002 5.95008433e-002 -3.20144407e-002 -6.41471054e-003
      1.98423062e-002 -1.45310746e-003 1.67653412e-001 2.81429738e-002
      -1.75189506e-002 2.04913858e-002 -2.19770670e-002 -5.48967533e-003
      -3.43272462e-002 -6.85455650e-003 -9.60422121e-003
      -6.16870867e-003 4.15169261e-003 2.99382508e-001 2.19341530e-003
      -2.58573354e-003 -1.58448312e-002 2.72605531e-002 -5.90514997e-003
      -2.80074105e-002 3.37665007e-002 -1.66423246e-002 3.59262675e-002
      -3.47033329e-003 -4.71087079e-003 6.62907772e-003 2.61722580e-002
      -4.84013483e-002 -3.24846655e-002 1.78323165e-002 6.98846519e-001
      -1.66230686e-002 -7.94212595e-002</_>
    <_>
      -5.11833429e-002 4.64517176e-002 4.69540060e-002 6.94813440e-003
      -6.77279681e-002 -2.33642459e-002 -5.48145995e-002 5.00243194e-002
      5.54399155e-002 -6.93599656e-002 1.18628293e-002 -2.08330732e-002
      1.14358980e-002 3.01124975e-002 -1.23734549e-001 -8.19848478e-002
      1.00419894e-001 -5.30570485e-002 4.47809277e-003 -5.15138432e-002
      -2.50597280e-002 4.65352684e-002 -6.60067871e-002 -3.19115296e-002
      -3.94942909e-002 1.04962923e-002 -2.26900935e-001 -1.66956205e-002
      -3.48866992e-002 2.94841565e-002 -8.90289061e-003 3.35800529e-001
      -3.80876288e-002 -5.84114157e-002 1.03753284e-002 -2.93905772e-002
      -5.69766462e-002 2.38805320e-002 -6.10709898e-002 -8.99206498e-004
      -1.51550910e-002 -2.38389568e-003 -6.78310841e-002 1.94133073e-002
      8.30066726e-002 -8.05094987e-002 -8.18216354e-002 -1.26502633e-001
      -1.76759996e-002 5.90608455e-002 5.77994920e-002 -1.65885035e-002
      1.21817859e-002 -5.16682230e-002 5.21704275e-003 -3.39924209e-002
      4.29803491e-001 1.56006813e-002 4.51029353e-002 -5.11770509e-002
      -2.68969908e-002 5.66439517e-002 5.31466603e-002 -2.85445414e-002
      1.89685896e-002 2.67547858e-003 -1.89186007e-001 -5.27961478e-002
      -5.74399121e-002 1.48133738e-002 5.07782400e-002 -5.03865778e-002
      -2.20762324e-002 5.48566598e-003 6.55817613e-002 -1.12019256e-001
      1.12809697e-002 -6.24656770e-003 7.09410384e-002 -8.49349946e-002
      -8.37890357e-002 2.68728603e-002 -5.55030517e-002 3.23003605e-002
      -4.46806289e-002 1.06257293e-002 -1.15775026e-001 -6.47227764e-002
      -5.72769940e-002 -4.66921479e-002 -7.49381706e-002 1.24488384e-001
      4.44147922e-002 -2.17832383e-002 7.90663250e-003 1.23542771e-001
      -8.19792156e-004 -1.55518539e-002 -2.13972870e-002
      -9.03642550e-002 7.06276745e-002 -2.57050879e-002 2.82107480e-002
      -1.74691916e-001 -3.09392363e-002 6.14165561e-003 2.10888758e-002
      4.29664738e-002 -7.80450925e-002 8.12603980e-002 -4.87979278e-002
      -3.56171690e-002 3.64731848e-002 -3.00139487e-002 -2.09373727e-001
      -3.25967111e-002 5.80317248e-003 3.87610167e-001 2.05789313e-001
      1.74118355e-002 -3.29742543e-002 -4.70596589e-002 2.43379995e-002
      -3.54857743e-002 -4.98644784e-002 -1.06050186e-002 7.97728077e-003
      -8.36559534e-002 1.39059061e-002 2.24438801e-001 1.25010125e-002
      5.52137271e-002 -2.44480874e-002 1.09910391e-001 -5.11353947e-002
      1.21445814e-002 3.74390781e-002 -4.39828858e-002 1.87168829e-002
      -5.63856959e-003 -3.85090038e-002 -2.15044431e-002
      -5.39451540e-002 -7.35110044e-002 -3.57897654e-002
      -1.53097659e-002 -2.96910685e-002 -5.45929596e-002 1.44684203e-002
      -5.30554727e-002 -6.08624145e-002 -2.42518373e-002 1.83818173e-002
      3.29523422e-002 1.19179646e-002 -6.61400519e-003 2.20288672e-002
      -2.39243675e-002 1.23754293e-002 2.84513589e-002 -5.64980656e-002
      -1.59007236e-002 -5.14273085e-002 1.98706016e-001 7.57877007e-002
      -6.58939034e-002 -3.73730510e-002 -4.22179140e-002
      -3.69439833e-002 -2.59787232e-001 -1.98184066e-002 5.11674099e-002
      2.08295956e-002 -8.25722590e-002 9.60850567e-002 3.08449399e-002
      -1.05416821e-003 -5.04787415e-002 2.75795981e-002 2.04849113e-002
      3.45939025e-002 1.14714280e-001 -4.42859158e-003 -1.79307535e-002
      7.66394893e-003 -7.61236921e-002 6.02577440e-002 1.00939227e-002
      -3.26126963e-002 -5.90845384e-003 8.41500121e-004 2.68646888e-002
      -4.99488153e-002 -6.73779026e-002 -1.35848727e-002
      -1.81489550e-002 1.35561123e-001 -2.26852428e-002 1.03733070e-001
      -6.59425184e-003 9.47262067e-003 3.27135716e-003 8.95251799e-003
      -2.85233166e-002 -1.24618355e-002 -3.92726064e-002 1.77064314e-002
      -5.93995340e-002 -1.46212718e-002 6.14163652e-003 -9.97341350e-002
      -1.10648656e-002 -5.11406288e-002 5.19112609e-002 3.32747623e-002
      -4.06628102e-002 5.54701220e-003 -1.81010708e-001 -1.15751168e-002
      -1.72892120e-002 1.29869804e-002 -8.43582824e-002 2.21253484e-002
      -5.97461350e-002 -5.21296682e-003 1.95921764e-001 3.09930537e-002
      -6.62368210e-003 -1.99568644e-003 -5.39130867e-002
      -3.46280187e-002 -3.25147696e-002 -6.36120513e-002 1.03310999e-002
      -5.71281835e-002 -4.72540855e-002 6.28778517e-001 7.07955193e-003
      5.26663661e-003 1.32371448e-002 2.22185627e-002 -4.14522812e-002
      1.72695182e-002 1.29074063e-002 -4.78469133e-002 4.55266749e-003
      1.05747739e-002 1.32673793e-002 3.43838669e-002 -2.60418355e-002
      -1.32779097e-002 1.21166073e-001 1.15859006e-002 7.21878409e-001
      4.75770049e-002 -4.38268445e-002</_>
    <_>
      9.30463225e-002 6.73138201e-002 6.27163798e-002 -7.21741542e-002
      -9.23196003e-002 6.49252534e-002 -5.40597644e-003 1.69005692e-001
      9.16007236e-002 -2.26482768e-002 8.37753527e-003 -1.28189623e-001
      5.62045388e-002 2.43280474e-002 -2.64761853e-004 -1.33949593e-002
      1.08354144e-001 -1.15469120e-001 -2.43019103e-003 -5.77977113e-002
      4.96003777e-002 6.55998364e-002 -1.32520255e-002 2.11733915e-002
      -4.57262062e-003 -1.00300439e-001 7.16546625e-002 -1.63504884e-001
      1.85285900e-002 4.62243557e-002 -1.94718882e-001 3.14735293e-001
      2.61141341e-002 -2.46857246e-003 1.35319419e-002 -2.27456272e-001
      3.83472666e-002 7.09837750e-002 -1.22652255e-001 -3.36582353e-003
      -1.20636905e-002 5.74587472e-002 1.04031153e-002 -1.24453247e-001
      4.38052081e-002 -6.86927214e-002 1.46904290e-002 -1.85225699e-002
      -6.36992678e-002 4.35361452e-002 1.12284757e-001 2.82996949e-002
      1.56914163e-002 -5.94272949e-002 -3.03916782e-001 8.36440772e-002
      4.76914197e-001 4.60428037e-002 8.42595771e-002 -1.00509161e-002
      -2.42384866e-001 3.16771008e-002 1.71549141e-001 -9.94557068e-002
      8.77593877e-004 2.34933998e-002 -7.70916715e-002 4.81581199e-004
      -4.39992622e-002 -3.41883767e-003 7.18807355e-002 1.20749744e-002
      2.16862224e-002 1.71758309e-002 7.93733299e-002 1.22271422e-002
      4.61693574e-003 3.53914015e-002 5.82583472e-002 4.53409925e-002
      4.84586321e-002 1.19315013e-001 -7.09156767e-002 -2.45317817e-002
      1.70185510e-002 2.78108772e-002 -5.10649383e-002 -7.72075057e-002
      1.18398611e-002 2.95037422e-002 -2.84506362e-002 1.42204061e-001
      1.24653112e-002 -8.20292830e-002 -4.21118923e-002 1.53971985e-001
      -2.27897130e-002 5.66569483e-003 -7.75060728e-002 -1.41151175e-001
      1.88318044e-002 -1.49396062e-002 7.16109201e-003 1.41355824e-002
      -5.16230762e-002 1.64469723e-002 2.47971602e-002 4.17663902e-002
      -2.12600604e-002 -2.77105093e-001 -6.88355193e-002 3.15177627e-002
      -3.28580849e-002 8.25004205e-002 -6.88870400e-002 -1.82746768e-001
      -4.62637022e-002 -1.39995754e-001 2.35530779e-001 2.96252351e-002
      2.05672123e-002 3.15939300e-002 7.54223242e-002 1.41419321e-002
      6.04507700e-003 -8.61328677e-004 3.33687030e-002 -4.07774374e-002
      -4.61483359e-001 2.05262363e-001 -2.40134243e-002 2.72062629e-001
      -1.46006033e-001 1.31902963e-001 2.87153777e-002 -1.48537859e-001
      9.38589200e-002 -2.94548366e-003 -3.27368617e-001 4.69346344e-002
      6.49703713e-003 1.89830586e-002 -5.32603525e-002 -4.88371998e-002
      3.70601863e-002 1.89461652e-002 4.93247621e-003 -4.79891151e-003
      6.67386204e-002 -2.05488857e-002 -1.09853568e-002 -2.97920648e-002
      3.95226665e-002 1.67542949e-001 1.38953701e-002 -1.40883029e-001
      4.70215976e-002 1.45331668e-002 1.49899460e-002 -7.02877715e-002
      -8.50317180e-002 -5.89844733e-002 -8.56855959e-002 2.14041829e-001
      9.47714001e-002 5.75572113e-003 -9.80938878e-003 -3.06105148e-002
      6.59858761e-003 -1.76484473e-002 1.07693765e-002 5.54585718e-002
      -1.62537903e-001 -4.87282611e-002 1.46768972e-001 5.56557775e-002
      5.87692931e-002 -1.40519768e-001 4.11302522e-002 1.48769338e-002
      1.64729148e-001 1.03934733e-002 -1.00759454e-002 3.80525254e-002
      -4.05265465e-002 -3.45407836e-002 -1.44189149e-001 2.64004543e-002
      6.03131484e-003 -5.26245544e-003 -7.77365789e-002 5.44887930e-002
      -2.73420606e-002 -3.49020176e-002 -6.94944113e-002
      -1.20496050e-001 2.89353468e-002 6.07336918e-003 -5.94649687e-002
      4.89204656e-003 1.03554875e-002 5.11181876e-002 -2.81520542e-002
      -1.30102828e-001 -2.24121418e-002 5.01331501e-002 -1.27160758e-001
      2.55666580e-002 1.21731693e-002 5.23273367e-004 -7.34406756e-004
      -1.25571731e-002 -1.45891368e-001 4.67571542e-002 8.32109079e-002
      -7.02715665e-002 5.42273745e-004 7.31996633e-003 3.34487781e-002
      5.46850357e-003 2.32919790e-002 -3.69530395e-002 5.28013930e-002
      -1.42176300e-002 -1.09238461e-001 1.67687297e-001 2.94054486e-002
      -1.55395400e-002 3.05664726e-002 6.97164843e-003 -1.09604597e-001
      -3.46152298e-002 2.66688727e-002 1.73316412e-002 4.58831526e-002
      -1.42943710e-001 -3.46652210e-001 -8.70909635e-003 2.08028443e-002
      -1.64254140e-002 -2.93454528e-001 1.25399102e-002 5.39392084e-002
      8.08473974e-002 3.44874384e-003 5.29853925e-002 2.01436915e-002
      -5.30843660e-002 5.51948100e-002 6.12276141e-004 7.70407123e-003
      -4.41893823e-002 3.51927318e-002 8.50266695e-001 5.57900108e-002
      -3.81736159e-002</_>
    <_>
      -7.60140195e-002 -1.31665254e-002 7.91147351e-002 -5.85551523e-002
      -1.36031238e-002 -3.21389847e-002 -9.00330488e-003
      -1.45549595e-001 -2.60422397e-002 -6.40037954e-002
      -4.01298068e-002 -2.67197136e-002 -6.13251552e-002 4.43478599e-002
      -1.66616123e-002 -9.42166802e-003 1.04411960e-001 5.61457826e-003
      -1.46985911e-002 -3.80302556e-002 -1.73847587e-003 1.21460273e-003
      -2.98866853e-002 -1.77773871e-002 -2.79480289e-003
      -3.47978622e-002 2.10805088e-002 -1.51296696e-002 -8.98528658e-003
      -3.42639424e-002 -2.66403724e-002 1.00055628e-001 7.69285299e-003
      -2.13539600e-002 7.76429176e-002 -2.23596264e-002 4.07613963e-002
      1.11282133e-002 -3.06599978e-002 -3.63219623e-003 8.33792612e-002
      -5.28856404e-002 -1.54334372e-002 -7.19674751e-002
      -1.94754526e-001 -1.16241813e-001 -2.12685894e-002
      -1.16975211e-001 -5.97355887e-002 -1.06500639e-002
      -9.04229563e-003 -7.88719058e-002 -3.30967419e-002
      -2.88731209e-003 -1.50218755e-002 -1.98000241e-002 2.59905308e-001
      -4.51204814e-002 -4.21723211e-003 9.64606367e-003 -2.05351152e-002
      5.88875301e-002 2.72355139e-001 -3.88824828e-002 -1.67698972e-002
      1.53354630e-002 1.99599087e-001 -1.16077941e-002 -1.08133048e-001
      4.04617283e-003 3.36848386e-002 -1.02632195e-002 1.35976762e-001
      -2.19412334e-002 9.92174968e-002 1.27900958e-001 -4.33630776e-003
      -1.07862987e-002 5.53002171e-002 1.29466993e-003 1.11449011e-001
      1.01065142e-002 -1.22288235e-001 -3.87394018e-002 -1.27300071e-002
      -1.41142486e-002 -6.49133474e-002 -3.38539062e-003
      -1.93859022e-002 6.23358693e-003 -1.90484039e-002 1.70670569e-001
      -2.62743067e-002 -3.78565341e-002 -1.58929944e-001 9.69052985e-002
      6.89960495e-002 -1.03632994e-001 -7.26356031e-003 6.23200200e-002
      1.14792116e-001 -3.14806700e-002 -2.95180716e-002 1.65795237e-002
      1.06967958e-002 -2.92165577e-002 -8.95812758e-004 1.12706786e-002
      -6.52544200e-002 5.00093549e-002 -6.88721836e-002 -9.33680404e-003
      -9.66142863e-002 -9.49403122e-002 -1.19328573e-001
      -3.93606164e-002 -6.81823492e-002 -2.47942880e-002
      -9.31392163e-002 2.29125284e-002 -1.91543512e-002 -1.10597555e-002
      1.84791032e-002 1.65473651e-002 -6.11849762e-002 -4.72651422e-003
      -3.27862334e-003 -1.57475956e-002 8.08078144e-003 1.82902208e-003
      -8.56643468e-002 7.65896082e-001 -2.16740500e-002 7.46260524e-001
      -3.75691131e-002 -1.75089389e-002 5.84357977e-003 -3.09051219e-002
      -6.35681748e-002 -2.18327288e-002 -8.22185818e-003
      -2.07489245e-002 -2.74475813e-002 1.66290929e-003 6.13889331e-003
      -1.07854363e-002 8.54203105e-003 -2.05652267e-002 4.19781078e-004
      -1.50962826e-002 -3.92331295e-002 -2.17849165e-002 2.50102133e-002
      -5.33190556e-002 -2.61906143e-002 -2.40584128e-002 1.03799049e-002
      -1.31457997e-002 6.78574573e-003 -5.06682731e-002 -3.73051278e-002
      -6.14138208e-002 -6.00132952e-003 1.89814523e-001 1.68137476e-002
      -3.07611376e-002 2.91918628e-002 -1.25990836e-002 -5.96932024e-002
      -1.96787253e-001 -4.08187844e-002 1.14675067e-001 -4.09823656e-002
      -1.87885598e-004 -1.13802478e-001 5.20637333e-002 -9.74129699e-003
      -1.77340321e-002 1.64838284e-002 2.92065442e-002 3.57544497e-002
      -9.67195779e-002 -6.38352633e-002 1.15580298e-002 -1.61071308e-002
      -5.98372817e-002 -4.48024683e-002 -1.57958660e-002
      -5.78096174e-002 -2.42834985e-002 -3.28060947e-002 7.33193848e-003
      -1.73155703e-002 -5.15493704e-003 2.74686422e-002 -3.07356976e-002
      1.37409136e-001 1.14859603e-002 -2.63310950e-002 8.43035989e-003
      -3.50902341e-002 6.64940942e-003 -1.23537732e-002 -9.05772969e-002
      -3.06878071e-002 -2.20137201e-002 -3.62102389e-002
      -1.48904715e-002 -6.82967901e-002 -7.49901775e-003 2.01699175e-002
      -5.20914793e-004 -2.41458453e-002 5.98877575e-003 1.31469890e-002
      -3.20783891e-002 -1.83762759e-002 -5.05214520e-002
      -2.65276283e-002 -2.18785368e-002 -4.30842191e-002
      -2.85664969e-003 -3.62600037e-003 -4.84109148e-002
      -8.09618160e-002 2.76200566e-002 -4.44727018e-002 -8.79931264e-003
      -2.33275890e-002 4.24559112e-004 -4.68292050e-002 -3.56950983e-002
      -3.59083973e-002 -5.59448376e-002 1.18797005e-003 -7.51774982e-002
      2.22429276e-001 9.43386229e-004 -1.56943016e-002 -4.14561257e-002
      -1.02738440e-001 -2.00837217e-002 1.51072852e-002 -4.67101336e-002
      -1.75477695e-002 4.47235666e-002 2.06105430e-002 -2.86673401e-002
      8.28473046e-002 -3.22415121e-002 -2.53000259e-002 -2.58015487e-002
      1.40238339e-002 1.19935548e+000 9.14774165e-002 -7.54944831e-002</_>
    <_>
      -1.02024801e-001 -4.75085853e-003 1.87630672e-002 -2.96862423e-001
      2.11266940e-003 -4.94340137e-002 -2.57816408e-002 -6.53395578e-002
      -1.97573468e-001 -1.49960173e-002 -6.13618642e-004 6.59242412e-003
      -2.21689373e-001 3.75084467e-002 4.19764593e-003 6.86033256e-003
      3.16963904e-002 2.82650255e-003 5.10239266e-002 -1.44350389e-002
      -2.82246470e-002 1.60199008e-003 -2.37051882e-002 -4.77388129e-002
      -1.23030888e-002 -3.13061429e-003 8.29971163e-004 -8.18025228e-003
      -1.45595158e-002 -4.22706753e-002 -1.28602814e-002 1.88888580e-001
      -4.29416746e-002 -3.30545567e-002 -2.94629447e-002
      -2.59067351e-003 1.56273507e-002 -8.26069191e-002 -1.32008537e-003
      3.03912070e-002 9.80825201e-002 -8.50330144e-002 -2.54271235e-002
      1.40139777e-002 -9.06612575e-002 -2.66845198e-003 -4.51700762e-005
      2.78683975e-002 2.40891939e-003 6.19078800e-003 -6.96977079e-002
      7.84873683e-003 -4.07655118e-003 -1.59319956e-002 -6.10737922e-003
      -4.17539291e-003 1.97932363e-001 -7.17452588e-003 -6.04609363e-002
      2.87807104e-003 -1.48922615e-002 2.79216077e-002 2.26302370e-001
      -2.32490897e-002 1.96135114e-003 -3.61436279e-003 2.63175275e-002
      -1.78206097e-002 -1.86374281e-002 -3.77441458e-002 1.01636499e-001
      3.06429472e-002 1.64011255e-001 -3.80426347e-002 6.17828732e-003
      1.64706394e-001 -2.99970116e-002 -3.74808628e-003 -5.04780076e-002
      -5.26832528e-002 1.44399792e-001 -1.38023764e-001 1.48139047e-002
      2.93352851e-003 6.74466323e-003 -4.94681560e-002 -7.17338268e-003
      1.22808637e-002 1.89394504e-003 4.29824786e-003 -2.58570071e-002
      7.11125657e-002 -1.58770308e-002 -6.06600605e-002 4.51415256e-002
      7.29822144e-002 3.26734781e-002 -1.53890094e-002 -4.51598838e-002
      6.56189770e-002 2.16914400e-001 1.29345544e-002 -1.36530399e-002
      1.80782937e-002 1.86998071e-003 -3.01351678e-002 1.37543189e-004
      1.48417717e-002 5.30043654e-002 1.22430041e-001 -6.55720942e-003
      -6.78891875e-003 2.43013306e-003 -9.48053151e-002 9.16414196e-004
      -3.14560346e-002 -1.24963820e-001 1.48007542e-001 -8.00367370e-002
      2.10321620e-002 -2.97786798e-002 8.15171935e-003 -7.08109960e-002
      -2.77872812e-002 -3.04857660e-002 4.66361223e-003 5.28340638e-002
      1.35834580e-002 -1.57431975e-001 -8.18416029e-002 -2.53241463e-003
      6.17209733e-001 -2.04529576e-002 6.29047275e-001 -5.15545309e-002
      -7.66381156e-003 -1.27043009e-001 -1.48658389e-002
      -1.14033241e-002 -5.12313917e-002 2.07057074e-002 -2.85506994e-003
      1.08032729e-002 5.38752489e-002 3.06595629e-003 -4.30431329e-002
      -1.37649858e-002 -2.49515120e-002 -1.03556968e-001
      -1.36697618e-002 -2.45840428e-003 -1.84021778e-002 3.44516635e-002
      -1.10036954e-002 -1.92095079e-002 -6.27719313e-002
      -4.63258214e-002 -4.27854597e-004 1.49313733e-002 9.61980224e-003
      2.25053402e-003 1.60041149e-003 1.62913557e-002 1.59653097e-001
      2.21235193e-002 -3.66158932e-002 -4.49720584e-003 -1.48011593e-003
      -1.18983136e-002 6.98100682e-003 1.53988181e-002 9.99810323e-002
      7.98557978e-003 4.42716200e-003 -8.17303360e-002 6.04616702e-002
      -4.84103769e-001 -1.00919502e-002 -9.75552015e-003 1.36573389e-002
      4.95955497e-002 -5.06266117e-001 -5.61099686e-002 -3.79279144e-002
      -7.27169365e-002 -5.99413505e-003 7.49919042e-002 8.08503851e-003
      -1.21287014e-002 -3.01517993e-002 -5.05156554e-002
      -2.30621714e-002 -5.15043829e-003 -3.80240893e-003
      -1.84404794e-002 -2.20256578e-002 -4.09070104e-002 8.62948783e-003
      -1.83143541e-001 3.44380327e-002 5.19307982e-003 -4.52590920e-003
      -1.61295868e-002 5.06352913e-003 -5.78823593e-003 -3.57776545e-002
      -1.69174336e-002 -3.33116502e-002 -2.05102507e-002 7.49745499e-003
      5.99335972e-003 -4.49820329e-003 -5.84287830e-002 1.78733431e-002
      -1.36033762e-002 -9.15989839e-003 -1.18603138e-003
      -3.87215465e-002 -1.61342304e-002 -6.37283176e-003
      -1.78466812e-002 -1.36679178e-002 -5.57403490e-002
      -1.58429239e-002 1.58416349e-002 1.31256040e-002 4.53466689e-003
      9.52950586e-003 -3.33582759e-002 1.90630779e-002 -3.52455629e-003
      -1.05412947e-002 1.59695651e-002 4.18269001e-002 -1.63251292e-002
      -1.51645893e-003 7.54142463e-001 -6.67654630e-003 -2.37524118e-002
      7.24425027e-003 1.78262964e-003 -4.51707132e-002 -6.97446913e-002
      -1.12082632e-002 -6.36436557e-003 6.67161401e-003 -7.44827837e-003
      -2.25994550e-002 4.09272611e-002 -3.01744193e-002 -1.53765902e-002
      -3.56662840e-001 -4.18501571e-002 1.14003611e+000 -3.75952236e-002
      -9.84089151e-002</_>
    <_>
      6.15798384e-002 -3.74272233e-003 7.16824755e-002 -1.87224165e-001
      -6.21427316e-003 -4.63019796e-002 -1.86105631e-002
      -3.09091836e-001 -8.90051425e-002 -1.33538852e-002 1.43475495e-002
      -6.40512351e-003 -1.07964821e-001 -9.65965837e-002
      -4.13216911e-002 1.88380834e-002 3.17172334e-002 8.37808568e-003
      5.24407327e-002 -2.03936975e-002 -7.38553107e-002 -4.42116857e-002
      -5.57556236e-003 -1.77687313e-002 -1.51671481e-003
      -3.54824066e-002 2.35545710e-002 -1.33511722e-002 -6.83983508e-003
      -4.17656824e-002 -2.00705864e-002 2.14345772e-002 5.25183044e-003
      -9.04633570e-003 3.51697318e-002 -1.64280962e-002 3.39426287e-002
      2.60453317e-002 -2.48445179e-002 1.15386937e-002 8.65432546e-002
      -2.13787079e-001 -4.03662026e-002 8.04787502e-003 1.11090928e-001
      -6.42915443e-002 -3.27976681e-002 -5.63296527e-002
      -5.51597886e-002 -7.01070800e-002 -2.15193257e-001
      -1.94224454e-002 -3.37705761e-003 -1.50962854e-002
      -6.20508683e-004 -2.13045832e-002 -7.05094337e-002 2.18641963e-002
      -1.13556169e-001 -1.56782586e-002 -5.22928499e-003
      -2.07608677e-002 2.73294121e-001 -2.01730337e-002 3.98251228e-002
      -2.42815521e-002 -3.99058685e-002 -2.94915922e-002
      -2.48413645e-002 2.52347859e-003 -1.74403898e-002 3.94475553e-003
      1.48654923e-001 -4.58743908e-002 1.09761193e-001 1.69741631e-001
      2.33941572e-003 -1.39747886e-002 5.25425747e-002 -1.54540867e-001
      1.41199410e-001 -1.54998139e-001 -6.65843338e-002 -2.63854980e-001
      -1.36620142e-002 -2.80398577e-002 -2.95826849e-002
      -5.00650727e-004 3.94726023e-002 -1.78300608e-002 1.16187995e-002
      2.00503245e-001 -6.48702979e-002 -7.54726771e-003 2.78921239e-002
      1.76693648e-001 -2.06525903e-002 7.27135409e-003 -2.66440026e-002
      6.76624998e-002 2.24766374e-001 -3.65155865e-004 -4.42041084e-002
      1.46414777e-002 7.69288233e-003 -5.15107661e-002 2.15768460e-002
      -7.77823627e-002 -1.17623918e-002 9.78950262e-002 -4.63954173e-002
      -4.37036483e-003 -1.87283419e-002 -1.53117776e-001
      -2.27724373e-001 -1.91402342e-002 -2.40461305e-001 4.72410798e-001
      -2.80115277e-001 3.91679555e-002 3.92308366e-003 -3.48170288e-002
      1.16432160e-002 -3.71308113e-003 -1.72808245e-002 -1.48826595e-002
      -6.36256933e-002 8.65996443e-003 1.09734699e-001 -2.14748785e-001
      -2.04041712e-002 8.44525099e-001 -2.68750452e-002 8.05989504e-001
      -2.42450610e-002 -4.28968575e-003 -5.62578849e-002
      -7.14256521e-003 3.47456546e-003 -2.88458727e-002 1.88646261e-002
      8.87781940e-003 -2.45542116e-002 -7.46443719e-002 -2.73092575e-002
      -2.24973187e-002 -8.84320494e-003 -1.16298469e-002 4.94295992e-002
      -3.10075618e-002 -1.16373021e-002 -1.75536796e-002 4.01438512e-002
      -1.20551139e-001 0. 1.08917896e-002 -2.31388565e-002
      -1.77971814e-002 2.40703132e-002 -4.58867028e-002 -1.89067200e-002
      -1.13425246e-002 -5.08234324e-003 1.91427134e-002 1.42731853e-002
      -3.43248714e-003 -3.48076900e-003 -9.01051215e-004
      -5.02616819e-003 -1.22889355e-001 -1.65149085e-002 8.10062066e-002
      -3.30859376e-003 -8.15231912e-003 -3.25528771e-001 1.90707091e-002
      -4.06848360e-003 7.53761968e-003 -7.84926862e-003 -3.64947133e-002
      -9.82643962e-002 -8.19333196e-002 -4.79124933e-002
      -1.89879779e-002 -1.78894363e-002 -4.18979535e-003 2.99079984e-001
      -4.59808996e-003 -3.44229564e-002 -6.10825885e-003
      -3.20692994e-002 1.14633823e-002 -1.58376731e-002 -1.49009936e-002
      -1.50806615e-002 -1.99887324e-002 2.57604867e-002 1.36237908e-002
      -1.69778615e-002 2.80656032e-002 2.51302011e-002 -2.56746430e-002
      -1.54211028e-002 -2.58089334e-001 -4.41954797e-003
      -6.81879520e-002 -1.73789654e-002 -7.50696659e-003
      -5.57612535e-003 1.20814715e-003 3.40434816e-003 -7.92705920e-003
      -2.89243553e-002 1.28291436e-002 1.10317022e-002 -1.82398856e-002
      -4.41894354e-003 -2.12987643e-002 1.17328111e-002 -1.19820321e-002
      -5.59028983e-003 -8.80657732e-002 -1.18673118e-002
      -5.30674346e-002 2.24825623e-003 1.14474893e-002 -7.20300758e-003
      1.11992960e-003 -8.71473178e-003 -1.37098767e-002 -2.69374289e-002
      -5.26795490e-003 2.11643483e-002 2.53035743e-002 1.42846666e-002
      6.84247119e-003 8.86401415e-001 -2.61017270e-002 -1.73350964e-002
      2.59665549e-002 -1.31062763e-002 -2.38877442e-002 -6.30851462e-002
      -2.03597695e-002 -3.95388640e-002 4.09277827e-002 -2.03093626e-002
      -1.48757016e-002 1.06992424e-002 -4.67264839e-002 -3.36174406e-002
      1.43138528e-001 -4.95602842e-003 7.59232342e-001 1.02656879e-001
      -4.53541875e-002</_>
    <_>
      -4.89901118e-002 -1.79292019e-002 3.12432703e-002 -9.23178494e-002
      -2.75919288e-002 -3.88004072e-002 -3.39373499e-002
      -7.42997751e-002 -5.33766858e-003 -4.84358557e-002
      -4.06415574e-002 -4.90617380e-002 -2.28560884e-002 2.81327516e-002
      -3.83156352e-002 -3.64550576e-002 7.71045163e-002 -4.32909094e-002
      7.23031387e-002 -1.05836034e-001 -4.44383733e-002 -3.05658989e-002
      -2.36634314e-002 -4.90253232e-002 -2.22440865e-002
      -8.35911091e-003 -5.73327616e-002 -4.64939885e-002
      -4.46022451e-002 -8.94530863e-002 -1.24278978e-001 1.36903614e-001
      -1.32523291e-002 -4.70247790e-002 6.10843897e-002 -5.62742874e-002
      6.49089459e-003 -1.82511867e-004 -2.08580922e-002 -2.09246874e-002
      8.68464187e-002 -6.95321113e-002 -1.26378592e-002 -1.95379145e-002
      4.19764780e-002 -7.26991296e-002 -1.27786063e-002 -4.25066389e-002
      -8.73774365e-002 -3.02430876e-002 -2.74207518e-002
      -1.88792925e-002 -6.22959919e-002 -2.33485121e-002
      -2.67053489e-002 -2.50243600e-002 4.22780007e-001 -1.55907753e-003
      -3.63108329e-002 2.92615481e-002 -5.11967279e-002 1.40629029e-002
      1.28574461e-001 -1.07814841e-001 -1.78833697e-002 -4.81970459e-002
      -1.52194008e-001 -6.21491596e-002 -1.82315074e-002
      -2.70248130e-002 1.10047311e-002 -1.92650892e-002 1.33569285e-001
      -1.67733114e-002 9.31171104e-002 1.50557846e-001 -3.68018225e-002
      -1.97745208e-002 1.57723576e-002 -3.04931998e-002 1.24276474e-001
      -6.45976365e-002 -3.44403461e-002 -3.04946378e-002
      -1.86362192e-002 -7.96549320e-002 -3.12393643e-002
      -1.46555575e-002 -3.43145765e-002 -4.60591465e-002
      -2.67261490e-002 1.99764132e-001 -2.82951109e-002 -4.79519442e-002
      2.41622552e-002 1.18392274e-001 -7.05035497e-003 -2.15685125e-002
      -2.65944619e-002 5.65986745e-002 1.57822803e-001 -3.70514318e-002
      4.37221304e-003 -3.87820266e-002 -5.11208884e-002 -7.38736838e-002
      -3.84527035e-002 -1.16340080e-002 -3.99329215e-002 1.16889872e-001
      -2.06639208e-002 -6.29971176e-002 -1.99351199e-002
      -5.54340482e-002 -1.21816933e-001 -6.03566505e-002
      -1.21251062e-001 4.72132355e-001 -7.71154910e-002 6.55063521e-003
      -4.62230965e-002 -3.83242443e-002 -4.63524349e-002
      -2.94782352e-002 -5.74970208e-002 -1.00227725e-002 1.86517667e-002
      -3.63527099e-004 -2.60425676e-002 -2.72591300e-002
      -1.12645281e-002 8.32667708e-001 -4.21988480e-002 7.45079160e-001
      -4.25095409e-002 1.51601285e-002 7.32154725e-003 -3.34993862e-002
      9.97597352e-003 -7.51976520e-002 -5.80553524e-003 -1.49480887e-002
      -8.42870995e-002 3.21998224e-002 -2.66154334e-002 -5.84505722e-002
      -3.75552438e-002 -4.64829020e-002 -7.43791983e-002
      -5.88163920e-002 -3.45760584e-002 -4.71684262e-002 2.21116617e-002
      -3.57027687e-002 -1.37779638e-002 -3.85889038e-002
      -2.00344771e-002 -6.54323474e-002 -7.72968773e-003
      -9.95335728e-002 -3.50432359e-002 -4.22990322e-003
      -2.42243465e-002 1.67245746e-001 9.51135755e-002 -5.20819537e-002
      -2.31230073e-002 -2.25151069e-002 -3.52835320e-002
      -8.45678151e-002 -5.68571649e-002 1.21568315e-001 5.72094321e-003
      -3.86171415e-002 -5.26280850e-002 -3.33364159e-002
      -1.50899231e-001 -7.15127140e-002 -2.11898386e-002
      -5.62551664e-004 1.01886496e-001 -3.23054306e-002 -2.53953468e-002
      -3.11535411e-002 -4.04836796e-002 -5.46441302e-002 1.96389958e-001
      2.10389867e-003 -5.65506630e-002 -4.15383689e-002 -4.95050363e-002
      -2.07597762e-003 -2.24937350e-002 -5.39375655e-002
      -1.57056041e-002 -5.55217173e-003 -1.42288581e-002
      -1.90017112e-002 -7.83699378e-002 8.06339318e-004 6.42976677e-003
      2.94296443e-003 -4.60977629e-002 -7.81918466e-002 -3.36339325e-002
      -5.65873869e-002 -5.27342372e-002 -1.01736888e-001
      -3.11138369e-002 -2.13896092e-002 8.91036168e-003 -4.97738868e-002
      -9.31477249e-002 2.51103938e-002 -2.54130065e-002 -5.90309352e-002
      -7.64781237e-003 -4.16908413e-002 -3.96625996e-002
      -7.90473074e-002 2.50485018e-002 -4.10999283e-002 -3.84392850e-002
      -5.95820975e-003 1.86877628e-003 8.10514912e-002 6.54681167e-003
      -4.12027277e-002 -2.78363749e-002 -1.73900612e-002
      -1.19365728e-003 -4.09972928e-002 -3.79745550e-002
      -5.25852013e-003 -4.13513333e-002 7.58463051e-003 9.48466420e-001
      -2.27121357e-002 -4.43040915e-002 8.41450994e-004 -2.63951486e-003
      -3.31719369e-002 -6.60073236e-002 -6.58800378e-002
      -2.73259990e-002 4.23231274e-002 -2.02563182e-002 -6.48433715e-002
      4.91611287e-002 -1.18725412e-002 -8.59901235e-002 4.90720272e-002
      -2.14033038e-003 1.58940136e+000 6.51381016e-002 -9.47464481e-002</_>
    <_>
      -8.84043127e-002 -2.53583919e-002 1.21717818e-001 6.07857388e-003
      -7.72150904e-002 -1.07862927e-001 -8.37607905e-002
      -1.25116408e-001 -2.61573642e-002 -6.06384352e-002 1.84833948e-002
      -4.07758504e-002 -2.71755271e-002 7.79977953e-003 -1.42231807e-001
      -5.35301976e-002 8.77334401e-002 -4.88579571e-002 5.88499382e-002
      -8.70814472e-002 -6.34321719e-002 -3.19054984e-002
      -1.00715093e-001 -4.53670919e-002 -5.87307103e-002
      -2.11493559e-002 -2.78932989e-001 -4.99403588e-002
      -7.01503530e-002 -5.39823659e-002 -4.93139774e-002 1.83995500e-001
      -5.47499508e-002 -5.87377995e-002 6.93928376e-002 -5.15829921e-002
      -4.45434898e-002 3.88828777e-002 -6.34124503e-002 5.06787151e-002
      7.29426220e-002 -8.57421905e-002 -8.68287608e-002 -6.75556134e-004
      1.55292362e-001 -8.75818729e-002 -8.98589194e-002 -1.14057243e-001
      -4.74918969e-002 4.49900376e-003 -4.32790667e-002 -5.99122681e-002
      9.86013934e-003 -6.01874888e-002 -2.70019304e-002 -1.17168710e-001
      5.36577344e-001 -1.15667125e-002 -4.22783941e-002 -5.92350848e-002
      -4.79671098e-002 8.67275968e-002 1.70908466e-001 -7.04502836e-002
      3.66903245e-002 -1.38623519e-002 1.93526000e-001 -8.01226050e-002
      -4.72521521e-002 -1.08116958e-002 8.27450603e-002 -5.81882894e-002
      1.21562511e-001 -6.53064772e-002 1.94582447e-001 4.03553806e-002
      -5.19238459e-003 -4.95922156e-002 1.21932738e-001 -1.11251727e-001
      2.15083603e-002 -7.00027570e-002 -4.97712195e-002 1.03323245e-002
      -6.17137924e-002 -4.29822356e-002 -1.20219469e-001
      -7.63425156e-002 -7.35889599e-002 -7.56031126e-002
      -6.83342442e-002 2.15804726e-001 -1.49464495e-002 -4.68640774e-002
      3.96475308e-002 1.71749592e-001 5.50810806e-002 -2.26182975e-002
      -4.06527296e-002 -5.04589640e-002 2.27701917e-001 -9.09045711e-003
      -7.40082934e-003 -1.74275592e-001 -4.32004035e-002
      -4.94546816e-002 -1.38744004e-002 -8.07165727e-003
      -1.49307679e-002 1.19305648e-001 -9.44541544e-002 -6.61715642e-002
      8.14030785e-003 -1.22308210e-001 -2.02901751e-001 -5.92039265e-002
      -2.32551489e-002 6.65657461e-001 -4.15467136e-002 4.91217449e-002
      -4.87006232e-002 -8.75555649e-002 -2.73228567e-002
      -5.91770709e-002 -9.75500345e-002 -2.67241169e-002
      -3.13646831e-002 -8.33329037e-002 1.25630215e-001 2.93477029e-002
      -2.86160428e-002 6.76445782e-001 -4.49366495e-002 8.26838493e-001
      -8.63045529e-002 2.06319485e-002 -1.71051603e-002 -8.17953423e-002
      -2.77016009e-003 -7.76494071e-002 -3.09770592e-002
      -1.53286112e-002 -6.18733689e-002 6.64758235e-002 -7.86734149e-002
      -5.17232977e-002 -3.35744098e-002 -8.28324333e-002 2.87255645e-003
      -7.23362118e-002 -7.20350072e-002 -4.06509452e-002 2.93558501e-002
      -1.01281263e-001 -8.95414967e-003 -1.30302142e-002
      -2.55868193e-002 -6.48556426e-002 -1.17773646e-002 8.28524213e-003
      -7.73450285e-002 -3.43898386e-002 -6.03352413e-002 1.95873916e-001
      1.36944100e-001 -1.07966058e-001 -4.62336168e-002 -6.23231046e-002
      -7.44495168e-002 -2.57250696e-001 -5.79537414e-002 1.40464768e-001
      -2.99565867e-003 -1.04366258e-001 -7.20803738e-002 5.98996431e-002
      -7.28439093e-002 -6.85253218e-002 -1.34665640e-002 2.13027354e-002
      5.17108710e-004 1.02733158e-001 -3.27327400e-002 -3.08836140e-002
      -1.92036107e-002 -8.57065991e-002 3.16880912e-001 -5.27228974e-003
      -8.49102065e-002 -6.24825135e-002 -1.70161445e-002
      -1.89946871e-002 -7.02863410e-002 -8.74518752e-002 8.78887251e-003
      -2.48728245e-002 1.97140962e-001 -2.23186966e-002 1.17156796e-001
      1.33829499e-002 2.99768187e-002 -2.25602258e-002 -3.46561857e-002
      -1.99065730e-002 -2.16682162e-002 -1.06763817e-001
      -3.88241932e-002 -7.88728073e-002 -5.90537935e-002 4.75020241e-003
      -5.93542494e-002 -2.84552407e-002 -7.30124637e-002 2.68877335e-002
      -3.93160768e-002 -7.18111247e-002 8.16070288e-003 -2.12131873e-001
      -2.01325007e-002 -6.58313259e-002 -2.14653611e-002
      -9.34437737e-002 -9.89922695e-003 -8.55466500e-002
      -1.89108297e-003 1.09319843e-001 9.39689204e-003 -3.03074587e-002
      -5.03234491e-002 -4.93260808e-002 -3.03320009e-002
      -3.91848162e-002 -9.47320536e-002 1.46768019e-002 -9.23108086e-002
      -4.38211486e-002 1.27786243e+000 -1.78260002e-002 -3.64517197e-002
      2.99234279e-002 -7.68150529e-003 -6.87190667e-002 -2.07303930e-002
      -8.67391303e-002 -5.85305877e-002 1.09495288e-002 -6.21121190e-003
      -4.68651243e-002 7.69159198e-002 -6.40866384e-002 -5.08666858e-002
      2.02722758e-001 -8.38674698e-003 1.61243331e+000 1.29338175e-001
      -5.91520332e-002</_>
    <_>
      5.58253527e-002 -4.49629035e-003 1.37480199e-001 -7.30437115e-002
      -1.01806723e-001 -1.95734315e-002 -3.43521684e-002
      -6.13503670e-003 1.00034466e-002 -1.39267482e-002 1.49981007e-002
      -1.48132414e-001 1.75931137e-002 2.01532897e-003 -1.87620204e-002
      1.50596928e-002 9.56676900e-002 -1.11270025e-001 5.19416556e-002
      -9.33653191e-002 1.12279328e-002 -1.28409294e-002 -4.79603335e-002
      7.71782966e-003 -2.38090418e-002 -1.31946087e-001 1.96226090e-002
      -1.96749613e-001 -1.67350639e-002 -3.72421704e-002
      -2.35129982e-001 1.62930265e-001 9.45181400e-003 -2.79495446e-003
      7.25494549e-002 -2.49648690e-001 5.07804230e-002 8.59861150e-002
      -1.24993712e-001 4.82120998e-002 7.60340169e-002 -2.58995499e-002
      -8.59455764e-003 -1.44542113e-001 1.16090901e-001 -7.57650882e-002
      6.65314309e-003 -6.07717223e-003 -9.35151652e-002 -1.10256970e-002
      1.12061976e-002 -1.50240706e-002 1.33697698e-002 -6.79465681e-002
      -3.36135775e-001 4.67789127e-004 5.83688021e-001 1.88754089e-002
      -3.12174577e-003 -1.81089509e-002 -2.63454974e-001 6.17607497e-002
      2.89310962e-001 -1.41361445e-001 1.85993295e-002 6.95556961e-003
      3.05620342e-001 -2.68448740e-002 -3.38114984e-002 -2.90439073e-002
      1.03847556e-001 4.27326094e-003 1.65324971e-001 -5.36163114e-002
      2.08374023e-001 1.64601788e-001 -1.18564190e-002 -7.95424823e-003
      1.09250054e-001 1.90242622e-002 1.53756037e-001 2.24393960e-002
      -6.51838481e-002 -4.64998186e-002 -1.46114035e-005
      -2.57970877e-002 -5.55093810e-002 -8.88272449e-002
      -4.47210716e-003 5.92779252e-004 -2.18467042e-002 2.33520389e-001
      -4.68959287e-002 -1.07110120e-001 -1.03709949e-002 2.02178806e-001
      3.31111588e-002 -1.40074978e-003 -9.67615172e-002 -1.01245888e-001
      1.75906062e-001 1.67502440e-003 -2.84504853e-002 1.45518985e-002
      -6.38842434e-002 -3.91493626e-002 -1.01661170e-002
      -9.27174091e-003 4.18542624e-002 -2.39059851e-001 -1.14491753e-001
      9.63366125e-004 -6.11909591e-002 -9.79384035e-003 -6.24150671e-002
      -2.09353983e-001 -7.53220245e-002 1.38051540e-001 -1.18052494e-002
      6.13351427e-002 4.84084059e-003 -8.90197791e-003 2.37614699e-002
      -9.54936538e-003 -4.16404828e-002 -1.69804282e-002
      -5.97326364e-003 -4.04543877e-002 -3.49759042e-001 1.01712607e-002
      -6.51304796e-002 8.93294632e-001 -1.66494593e-001 8.48831058e-001
      -6.45377813e-003 -1.40050501e-001 3.93146798e-002 -4.07579392e-002
      -3.48855644e-001 -2.50762068e-002 1.40289795e-002 2.51588896e-002
      -6.11885674e-002 9.11496356e-002 -5.82345761e-003 -1.74673684e-002
      1.04913733e-003 -3.30383852e-002 5.51427603e-002 -3.98296304e-002
      -2.21579485e-002 -4.61911708e-002 5.04966974e-002 3.33093330e-002
      -6.97674416e-003 -1.47299245e-001 -5.94088924e-004
      -2.63981074e-002 -9.16284788e-003 -9.04538929e-002
      -1.05878681e-001 -7.74735883e-002 -9.45935249e-002 2.11209714e-001
      1.55927807e-001 -3.63164358e-002 -1.86699536e-002 -5.07157072e-002
      -3.09069436e-002 -1.51118850e-002 -2.73659602e-002 1.44755930e-001
      -1.86363161e-001 -7.05222636e-002 -2.13964619e-002 8.47104788e-002
      -1.30204502e-002 -1.58566356e-001 8.40881839e-005 1.56947579e-002
      1.30652368e-001 -1.58764771e-003 -3.83800939e-002 2.50996649e-002
      -6.73941076e-002 -4.41236869e-002 1.12434015e-001 1.10342419e-002
      -4.62661982e-002 -6.18365146e-002 -9.55942199e-002 8.62941612e-003
      -4.76795845e-002 -5.49759902e-002 -4.71206680e-002
      -1.27219915e-001 9.05151814e-002 6.43991539e-003 -4.60412502e-002
      2.48692483e-002 3.08596846e-002 2.52866056e-002 -7.17607588e-002
      -1.21486083e-001 -3.16185206e-002 -1.73580628e-002
      -1.83691382e-001 6.09338284e-003 -3.22593525e-002 -8.68160627e-004
      3.96454856e-002 -2.99475491e-002 -1.67763203e-001 2.17336286e-002
      1.06200688e-002 -1.01419874e-001 3.15596443e-003 -2.38012001e-002
      2.48913970e-002 -4.30736095e-002 -1.11603625e-002 -4.60385270e-002
      2.07768194e-002 -4.00181450e-002 -1.05916582e-001 8.10853764e-002
      7.80928601e-003 -3.92233171e-002 -1.77612901e-002 1.15586547e-002
      -1.05308577e-001 -4.12852764e-002 -4.45112493e-003 2.16773432e-002
      1.07005304e-002 -1.39510781e-001 3.02431732e-001 -3.36146466e-002
      -2.09155120e-002 2.60867528e-004 -3.23354602e-001 -1.47268763e-002
      1.59392972e-002 -1.87991410e-002 -7.23493053e-003 5.93822524e-002
      3.35770473e-003 -1.13216870e-001 9.77268592e-002 -3.74325216e-002
      -2.98847053e-002 3.73673066e-002 1.52200852e-002 1.74082160e+000
      1.37551174e-001 -5.34988046e-002</_>
    <_>
      -2.60107797e-002 8.41566734e-003 -6.03516698e-002 -2.38307267e-001
      1.57157928e-002 -1.72950290e-002 -1.67783350e-002 8.02100301e-002
      -1.71531230e-001 4.90077734e-002 3.95161882e-002 3.33121382e-002
      -1.60364226e-001 -6.83941226e-003 2.08592564e-002 1.62820015e-002
      -7.27155656e-002 -2.78807548e-003 6.57225177e-002 2.35952176e-002
      -2.64861714e-002 3.87387350e-004 6.18149620e-003 -2.99614277e-002
      -9.50828660e-003 3.16672474e-002 -2.02505384e-002 6.94941683e-003
      -5.57422964e-003 -8.00673477e-003 1.37800919e-002 8.88329595e-002
      -5.06345257e-002 -1.17005976e-002 -1.07105859e-001 1.97689533e-002
      -2.51340475e-002 -9.37351286e-002 2.93399114e-002 3.40234041e-002
      1.47032579e-002 -3.21473740e-002 -9.99368727e-003 8.59814510e-002
      1.04093269e-001 1.13573357e-001 2.12234184e-002 1.44843608e-001
      6.21445067e-002 1.68408509e-002 -6.06554113e-002 8.67206454e-002
      2.90201902e-002 -1.30446833e-002 8.91449675e-003 1.56246312e-002
      -6.19729534e-002 3.79459560e-002 -5.62437065e-002 -6.76799193e-003
      5.64285461e-003 -3.09659205e-002 -4.60527726e-002 1.56333931e-002
      1.87312495e-002 -1.89498253e-002 -1.73281550e-001 -6.21281657e-003
      8.94956216e-002 -4.17903177e-002 6.79516643e-002 4.09061648e-002
      2.80344896e-002 -1.61014013e-002 -9.30392072e-002 3.68054323e-002
      -2.56607030e-002 7.03821285e-003 -1.05778225e-001 -5.39779216e-002
      3.29507776e-002 -1.48130283e-001 1.37102142e-001 4.16729301e-002
      1.94746703e-002 -3.53539065e-002 5.77399619e-002 1.56662539e-002
      2.12798472e-002 -1.93533883e-003 -6.80860225e-003 -9.95580032e-002
      1.03972759e-002 -2.28035282e-002 2.04071462e-001 -2.39230841e-002
      -3.63225676e-002 8.82439837e-002 -3.78963239e-002 3.29895644e-003
      1.02122277e-001 4.44152243e-002 1.58650316e-002 1.49876904e-003
      -8.82681459e-003 -9.18609789e-004 1.03335595e-003 3.57109308e-003
      1.18258789e-001 7.24206865e-002 6.23149723e-002 2.54788529e-003
      9.90444198e-002 1.34993577e-004 1.20244987e-001 7.90458173e-003
      -5.67814745e-002 1.72801837e-001 1.31024802e-002 -1.88036729e-003
      -1.06243277e-002 1.92114748e-002 -8.92901048e-002 -4.43346463e-002
      3.06992121e-002 9.39012691e-003 5.61126880e-002 2.93310527e-002
      -1.65512756e-001 -8.36706311e-002 8.31319317e-002 -1.48686305e-001
      1.22109358e-003 -1.17213257e-001 -1.39854206e-002 9.84512828e-003
      -1.32886589e-001 1.60392821e-002 5.21648526e-002 -2.93986648e-002
      2.89275646e-002 1.78938545e-002 3.82508561e-002 5.22123389e-002
      -3.07293702e-003 -3.22576985e-002 -2.23070160e-002
      -4.38628532e-003 -1.03976749e-001 1.42652052e-003 3.67747247e-002
      3.38273728e-003 9.44145210e-003 4.23153602e-002 6.98110601e-003
      -3.87135185e-002 -5.67057282e-002 1.27179455e-002 8.14562757e-003
      6.02880754e-002 3.95556614e-002 6.30142316e-002 2.22926866e-002
      -3.01614311e-002 5.30977082e-003 -5.85475750e-003 -3.36890668e-002
      1.11189671e-002 4.77948897e-002 2.03768253e-001 5.62176034e-002
      -1.46940416e-002 4.89679463e-002 4.61504748e-003 3.20721455e-002
      8.39793775e-003 -4.74362463e-001 7.64208101e-003 -2.62393486e-002
      -1.55492043e-002 1.38410991e-002 -4.09546554e-001 7.72529189e-003
      -4.94859442e-002 -5.66098057e-002 5.38431443e-002 1.19794369e-001
      2.38809045e-002 4.56809178e-002 -5.86830173e-003 -1.77095607e-002
      -3.03941090e-002 1.21651320e-002 1.35252834e-003 -4.59091216e-002
      8.71004071e-003 -1.78316146e-001 -2.85647251e-003 -1.56812444e-001
      2.60076746e-002 4.02833149e-002 -1.11753186e-002 -3.77581385e-003
      9.56408307e-002 2.48995721e-002 -1.37639344e-002 1.92928035e-002
      -1.84211768e-002 4.77865413e-002 1.49964727e-002 -1.41765578e-002
      -3.97728849e-003 -3.42829376e-002 1.18845664e-002 -2.67503653e-002
      2.29184926e-002 1.71902440e-002 1.17999064e-002 1.03933970e-002
      1.55057050e-002 2.52375379e-002 -1.08112684e-002 -5.21143489e-002
      3.25679928e-002 9.68034491e-002 -1.44944526e-002 4.90073673e-002
      1.83288176e-002 -1.00306869e-002 1.86385196e-002 4.33046483e-002
      2.51538027e-002 5.18779643e-002 9.77717414e-002 -1.75131001e-002
      7.36610442e-002 5.31713188e-001 -7.61993229e-003 -8.05811025e-003
      4.87003773e-002 1.04521073e-001 -2.50869915e-002 -8.48519728e-002
      3.55018713e-002 1.11834034e-002 -3.80519517e-002 -2.80588213e-002
      6.06788602e-003 -4.19200435e-002 2.06709257e-003 9.92343575e-003
      -3.30861300e-001 -5.58739901e-002 -5.93193211e-002
      -1.29072636e-001 -2.29144357e-002</_>
    <_>
      1.37593865e-001 9.42380354e-003 -7.43226474e-003 -1.28669009e-001
      7.38885067e-003 -1.41629949e-002 -9.60725825e-003 -1.63542256e-001
      -6.29629046e-002 5.06499074e-002 5.44773564e-002 2.03145910e-002
      -4.66396622e-002 -1.40944436e-001 -2.46600788e-002 2.82597523e-002
      -7.26947263e-002 2.76350742e-003 6.71393201e-002 1.76365599e-002
      -7.21168295e-002 -4.54262868e-002 2.43111216e-002 8.65652692e-006
      1.27808808e-003 -6.84541883e-004 2.47406261e-003 1.77849666e-003
      2.14545103e-003 -7.50174187e-003 6.56978600e-003 -7.86210522e-002
      -2.44102208e-003 1.23076243e-002 -4.24731858e-002 5.93153108e-003
      -6.81876671e-003 1.49171175e-002 5.81547897e-003 1.51708899e-002
      3.16399476e-003 -1.60901442e-001 -2.49327663e-002 8.00153464e-002
      3.05845439e-001 5.19502610e-002 -1.15290787e-002 6.06455579e-002
      4.57579782e-003 -5.94570190e-002 -2.06150949e-001 5.94494604e-002
      2.97196843e-002 -1.22089731e-002 1.44013669e-002 -1.50456000e-003
      -3.30414742e-001 6.69846758e-002 -1.09338932e-001 -2.53243223e-002
      1.53058302e-002 -7.96483979e-002 9.38976649e-004 1.87094510e-002
      5.65950200e-002 -3.96170169e-002 -2.39504948e-001 -1.78837981e-002
      8.32916871e-002 -1.52269402e-003 -5.11252284e-002 1.42079741e-002
      1.26781603e-002 -2.39331573e-002 1.05436957e-002 4.18406725e-002
      6.67572347e-003 -3.18848970e-003 -2.75764032e-003 -1.55835539e-001
      2.97503993e-002 -1.65104657e-001 5.57038970e-002 -2.25115567e-001
      -9.32007097e-004 -1.39256101e-002 3.53306606e-002 2.88474001e-003
      5.88585027e-002 -2.40636487e-002 3.06672044e-002 2.98326798e-002
      -3.85959931e-002 3.03092673e-002 1.86822057e-001 7.97883496e-002
      -8.96486342e-002 1.10904343e-001 -1.93804428e-002 5.34247700e-003
      1.09974258e-001 3.11155133e-002 -1.46860378e-002 -1.93804712e-003
      -3.00391344e-003 -2.22942084e-002 2.24726573e-002 -8.90530422e-002
      5.34920320e-002 4.78856713e-002 2.24767663e-002 4.96643921e-003
      7.78859481e-002 -5.81774637e-002 -1.08395793e-001 2.02203821e-002
      -1.72278956e-001 4.97205079e-001 -1.86976045e-001 1.62554272e-002
      2.30774358e-002 -2.37572752e-002 -6.83588767e-003 -2.02604458e-002
      4.39041518e-002 -1.01561453e-002 -6.03470691e-002 2.44075600e-002
      1.01653911e-001 -2.16577798e-001 6.52601793e-002 7.86290616e-002
      -5.20099420e-003 5.97289577e-002 1.33240493e-002 1.32192541e-002
      -6.21014647e-002 2.37625577e-002 6.70427382e-002 -7.01314490e-003
      2.70864852e-002 2.96267439e-002 2.89336918e-003 -7.63072819e-002
      -3.34481522e-002 -1.17118843e-002 -1.73852369e-002 8.93537980e-003
      4.90098149e-002 -1.59112811e-002 2.75958274e-002 4.23123548e-003
      1.51336370e-002 -6.72320873e-002 2.61906143e-002 3.49502042e-002
      -3.35187614e-002 -4.65138070e-003 1.72845665e-002 4.78156935e-003
      1.83984060e-002 5.00712954e-002 9.18986043e-004 -1.70671821e-001
      -2.54056207e-003 2.73286514e-002 -3.26726325e-002 1.16980318e-002
      5.46670333e-002 7.38978907e-002 2.43038759e-002 -3.36688608e-002
      3.76737714e-002 -7.96443317e-003 -2.11726293e-001 -3.29930261e-002
      5.67281339e-003 2.52716504e-002 -2.43330970e-002 -6.57012537e-002
      -1.34018838e-001 1.47862583e-002 1.59227662e-002 -3.05460077e-002
      -1.78230600e-003 5.56474850e-002 3.43882471e-001 1.11977756e-002
      2.33866610e-002 1.81752387e-002 7.36793969e-004 4.13144380e-003
      1.47789717e-003 -9.74605605e-003 -4.25493047e-002 1.07469661e-002
      -1.11648649e-001 2.13783002e-003 9.35323350e-003 1.96352433e-002
      6.02204353e-002 -3.23240496e-002 -3.06732953e-003 -1.67512044e-001
      2.62682587e-002 -4.61742319e-002 1.88312717e-002 7.38350488e-003
      6.27206713e-002 8.70716479e-003 -1.67655703e-002 -7.40614440e-003
      -4.77851089e-003 6.84036734e-003 -2.11528689e-003 1.38385054e-002
      1.39573328e-002 2.92226896e-002 3.82604375e-002 9.89650469e-003
      3.74939293e-002 -8.52091238e-002 -8.24131072e-003 -4.65651695e-003
      8.32100734e-002 -1.61725674e-002 3.72696929e-002 9.91924200e-003
      1.46128563e-002 -1.41344359e-002 1.98917743e-002 3.04271430e-002
      5.70727438e-002 8.12484100e-002 1.30966967e-002 8.20199698e-002
      6.63972139e-001 -2.70451121e-002 -1.64079375e-003 6.74226806e-002
      8.96321684e-002 -3.80402268e-003 -7.81924352e-002 2.63503641e-002
      -2.19910964e-002 -3.79578490e-003 -4.09199074e-002 1.37916394e-002
      -7.21480623e-002 -1.44849718e-002 -8.31741374e-003 1.68940082e-001
      -1.89798623e-002 -4.40123111e-001 1.11794677e-002 3.01402956e-002</_>
    <_>
      2.70239115e-002 -4.76267561e-003 -4.78714667e-002 -3.37626971e-002
      -1.39888050e-002 -6.66142441e-003 -2.49340460e-002 7.12498128e-002
      2.07045712e-002 1.55679379e-002 -5.11749648e-004 -2.23420244e-002
      3.84690650e-002 -1.62151083e-002 -2.16540247e-002 -2.70333886e-002
      -2.73074415e-002 -4.89054881e-002 8.70017260e-002 -6.78057745e-002
      -4.26998995e-002 -3.17805037e-002 6.22325251e-003 -3.12479343e-002
      -1.94492843e-002 2.64387522e-002 -7.84132704e-002 -3.13643217e-002
      -3.56169604e-002 -5.51891401e-002 -9.76386070e-002 3.68479863e-002
      -2.09451821e-002 -2.56708208e-002 -1.65585261e-002
      -3.39146629e-002 -3.42705026e-002 -1.13107255e-002 9.80190374e-003
      -1.72924921e-002 3.46715609e-003 -1.66464690e-002 2.79557751e-003
      5.24295606e-002 2.36731008e-001 4.35426757e-002 8.48998223e-003
      7.44685754e-002 -2.76418477e-002 -1.95930228e-002 -1.83784552e-002
      5.99926114e-002 -2.91992500e-002 -2.04612017e-002 -1.16834734e-002
      -5.22433594e-003 1.62874684e-001 4.35614027e-002 -3.20936032e-002
      1.96154863e-002 -3.06616127e-002 -4.48246263e-002 -1.43780679e-001
      -6.89323619e-002 -1.11347111e-003 -6.35325089e-002
      -3.51793081e-001 -5.05413674e-002 8.99015442e-002 -3.10709849e-002
      -2.26801094e-002 -9.00186971e-003 -2.40747491e-003 5.16792107e-003
      -6.10038638e-003 2.26568934e-002 -3.24655138e-002 -8.98822118e-003
      -3.95278595e-002 -3.17878686e-002 1.28274607e-002 -7.47041553e-002
      8.78478885e-002 8.24476406e-003 -5.90621168e-003 -6.55406862e-002
      3.36739793e-002 -1.12701673e-002 -1.49286753e-002 -5.22927344e-002
      -7.67774507e-003 2.90935673e-002 -2.02080468e-003 -1.00954100e-002
      1.83092192e-001 2.14869697e-002 -7.60463998e-002 8.20644796e-002
      -1.93309020e-002 -5.72134834e-003 4.30306792e-002 -5.57076465e-003
      3.38902846e-002 -5.53615503e-002 -6.18176833e-002 -4.46571298e-002
      -3.75568904e-002 -2.29046866e-002 2.53215022e-002 6.68805167e-002
      4.82082628e-002 -5.36603183e-002 7.66791627e-002 3.95062603e-002
      -2.48835678e-003 -2.09960360e-002 -5.30687161e-002 4.96926636e-001
      1.60237253e-002 -1.63618941e-002 -2.70687435e-002 -2.72644889e-002
      -6.48315400e-002 -4.60256003e-002 3.68795684e-003 -5.29625826e-003
      2.19303891e-002 1.53840678e-002 -3.41233499e-002 -2.90881526e-002
      7.43998215e-002 6.67716712e-002 -2.05247980e-002 -1.18139852e-003
      -4.94042877e-003 3.26690674e-002 1.47796737e-003 -2.59426562e-003
      7.35441446e-002 -5.33649176e-002 2.41632271e-003 5.80083579e-003
      -5.68395182e-002 3.05369142e-002 -3.27543281e-002 -4.76651378e-002
      -4.60972749e-002 -2.59176753e-002 -7.47989789e-002
      -4.37201113e-002 4.65707202e-003 -2.53835116e-002 -2.89855059e-003
      1.76162869e-002 1.24126496e-002 -1.45304902e-002 -3.04143820e-002
      -5.22865467e-002 -1.45154335e-002 -4.88653034e-002 2.26189243e-003
      5.71839176e-002 -1.82230175e-002 -2.25687791e-002 7.82998279e-002
      -2.13208143e-002 -5.23148701e-002 -9.91602242e-003 2.44096704e-002
      1.12219431e-001 -1.60383768e-002 6.89324271e-003 4.67033088e-002
      -3.84292565e-002 6.11743927e-002 -8.54001492e-002 -1.41157940e-001
      -5.37786856e-002 -3.76736671e-002 -2.97690947e-002 6.61320463e-002
      6.44141510e-002 3.84399146e-002 -4.27115709e-002 -2.43765470e-002
      5.19314967e-003 2.41192430e-001 1.78997647e-002 1.25895487e-003
      -1.72548704e-002 -1.66989416e-002 -9.40791611e-003
      -5.17816423e-003 -4.87826280e-002 -4.31742445e-002 2.51835268e-002
      -1.51637986e-001 -3.04876715e-002 -5.20388447e-002
      -7.62402080e-003 4.15199995e-002 -3.70644475e-003 -3.37439887e-002
      1.23854540e-002 -2.94612534e-003 -3.45736668e-002 -1.65239982e-002
      -8.68464112e-002 3.71829569e-002 -1.38905915e-002 -1.12595567e-002
      -4.92529720e-002 -6.90018758e-002 1.91216189e-002 -3.85599956e-002
      -2.69525424e-002 1.07284635e-002 8.83061066e-003 -1.31349713e-002
      -5.71687706e-002 6.81327209e-002 -3.82432789e-002 -3.48132849e-002
      4.24527079e-002 8.28305930e-002 5.34314364e-002 5.10195121e-002
      -3.24034132e-002 -4.50878730e-003 -1.78146213e-002 4.56355475e-002
      -5.30219544e-003 -2.06615729e-003 5.06863184e-002 -4.25393023e-002
      8.27621296e-002 7.26037145e-001 -2.36555226e-002 -2.86097880e-002
      4.22975793e-002 1.00098930e-001 -1.30882142e-002 -8.11146051e-002
      -1.91699006e-002 -9.77823138e-003 -2.40043830e-003
      -4.08668630e-002 -3.61760333e-002 -3.36861722e-002 2.03689709e-002
      -6.06901012e-002 7.48735741e-002 -1.61641650e-002 3.90045911e-001
      -2.63393130e-002 -1.92519650e-002</_>
    <_>
      -1.23902913e-002 -1.21918665e-002 4.26030830e-002 6.46337271e-002
      -6.36119694e-002 -7.57239461e-002 -7.47574866e-002 2.04331800e-002
      -1.15124974e-004 3.36535834e-003 5.86132035e-002 -1.40561359e-002
      3.41496281e-002 -3.65480818e-002 -1.25570193e-001 -4.41085324e-002
      -1.66785158e-002 -5.44725358e-002 7.35485256e-002 -4.90511879e-002
      -6.16936944e-002 -3.31201032e-002 -7.08284080e-002
      -2.75897048e-002 -5.59359081e-002 1.36485081e-002 -3.00013512e-001
      -3.48106883e-002 -6.11650683e-002 -1.97184253e-002
      -2.26736050e-002 8.39398652e-002 -6.24428019e-002 -3.73838395e-002
      -8.25007632e-003 -2.92233638e-002 -8.53048861e-002 2.77546626e-002
      -3.27524506e-002 5.43109141e-002 -1.04366420e-002 -3.28565538e-002
      -7.13953227e-002 7.12919161e-002 3.50046873e-001 2.86599379e-002
      -6.85903355e-002 2.91797169e-003 1.22436890e-002 1.51490672e-002
      -3.42367701e-002 1.89596359e-002 4.29568812e-002 -5.73001802e-002
      -1.19800540e-002 -9.73686874e-002 2.76672006e-001 3.35537679e-002
      -3.80611606e-002 -6.88811466e-002 -2.74319928e-002 2.78400686e-002
      -1.01446666e-001 -3.15678008e-002 5.34602217e-002 -2.91978139e-002
      -6.07308187e-003 -6.85148090e-002 6.08808994e-002 -1.48578687e-002
      4.90602255e-002 -4.79250737e-002 -1.44142481e-002 -4.33652438e-002
      9.53649506e-002 -8.75455737e-002 -8.56076833e-004 -3.88059169e-002
      6.66325241e-002 -1.12546392e-001 -8.99406523e-002 -8.01092684e-002
      7.25170150e-002 4.90717255e-002 -4.89837825e-002 -2.88679879e-002
      -5.53061254e-002 -7.29571208e-002 -5.42030595e-002
      -8.18367004e-002 -4.92858402e-002 4.51341495e-002 1.13278572e-002
      -9.00754333e-003 1.98577464e-001 7.48442933e-002 -1.39149670e-002
      8.10146928e-002 -3.33891697e-002 -1.12778984e-001 1.12909801e-001
      2.23902110e-002 2.21172422e-002 -1.90855116e-001 -5.38971983e-002
      -2.02381220e-002 -1.29785873e-002 -1.93423368e-002 5.03236540e-002
      6.92962930e-002 -2.55819745e-002 -5.68347611e-002 1.04754597e-001
      -2.73678973e-002 -8.35731775e-002 -1.98433101e-002 4.49272022e-002
      6.90451741e-001 5.15925065e-002 2.62092166e-002 -2.95462739e-002
      -7.64958113e-002 -4.58019599e-002 -7.57244378e-002
      -3.63650583e-002 -2.19976027e-002 -2.80860607e-002
      -6.75853118e-002 1.17549442e-001 2.75186803e-002 5.70483059e-002
      -8.94502997e-002 -2.32625995e-002 8.05779248e-002 -4.87354398e-002
      3.81408893e-002 -2.29487401e-002 -5.08902185e-002 6.07980154e-002
      -5.58166802e-002 -2.27552019e-002 5.42031415e-003 -3.44257876e-002
      6.48129135e-002 -8.48123059e-002 -4.09378633e-002 -4.21164408e-002
      -6.22672066e-002 2.45277537e-003 -5.72399311e-002 -3.28018777e-002
      -1.88660305e-002 4.34563728e-003 -4.79622111e-002 1.72364637e-002
      1.10281985e-002 -3.59667242e-002 -5.17098419e-002 -1.85631104e-002
      5.89535162e-002 -4.00399007e-002 2.70239823e-002 -5.43339103e-002
      6.05938351e-003 1.20130353e-001 -7.72049204e-002 -7.54254833e-002
      -4.97240238e-002 -1.47563126e-002 -6.04634359e-002
      -1.71349570e-002 2.57897004e-002 3.79867069e-002 -1.04178376e-001
      4.17221002e-002 7.83590786e-003 -6.31026179e-002 -5.07912897e-002
      -2.99503934e-002 -7.90380780e-003 -3.52373421e-002 1.99452743e-001
      3.11025213e-002 -4.24416438e-002 -3.09647853e-003 -2.58693192e-002
      3.61683369e-001 1.05235763e-002 -2.71005891e-002 -3.81990150e-002
      1.57899503e-002 -2.63266265e-002 -5.29707707e-002 -8.22969377e-002
      -1.86797697e-002 5.86287491e-003 5.97318336e-002 -3.38046551e-002
      1.43487886e-001 4.95258952e-003 6.50670528e-002 -2.92096362e-002
      -2.23024115e-002 7.06707239e-002 9.01959185e-003 -8.47501010e-002
      -2.61395471e-003 -6.39823377e-002 9.24300030e-003 1.22492202e-002
      -7.95241669e-002 -2.79343259e-002 -4.88666147e-002 2.08989568e-002
      -5.24630696e-002 -3.97327319e-002 2.65369788e-002 -1.61610425e-001
      6.39512762e-003 -4.39527892e-002 2.16188580e-002 -9.05871242e-002
      -6.27322635e-003 -3.71357352e-002 7.90707320e-002 8.16997886e-002
      5.38695939e-002 -2.15081461e-002 -2.69958600e-002 -4.97506410e-002
      1.64972022e-002 -3.48971994e-003 -5.88236563e-002 7.06216395e-002
      -9.34987739e-002 3.13563533e-002 1.05543315e+000 -1.87693853e-002
      -2.07574181e-002 7.13795573e-002 9.50569361e-002 -4.86353450e-002
      -3.58376764e-002 -4.00289968e-002 -4.09828201e-002
      -3.37740369e-002 -2.68217549e-002 -1.81977823e-002
      -5.93138486e-003 -3.18451226e-002 -2.55666599e-002 2.28524312e-001
      -2.24105809e-002 4.13077831e-001 3.78607623e-002 1.63424462e-002</_>
    <_>
      1.31839380e-001 8.67023505e-003 5.83654605e-002 -1.44885611e-002
      -8.82036015e-002 1.25655523e-002 -2.53488645e-002 1.39414549e-001
      3.60456854e-002 5.00770435e-002 5.51279075e-002 -1.21412694e-001
      7.89182708e-002 -4.23325300e-002 -2.10040808e-003 2.44813617e-002
      -8.74427054e-003 -1.16884604e-001 6.66402429e-002 -5.53350598e-002
      1.29664084e-002 -1.40555324e-002 -1.80736501e-002 2.54952163e-002
      -2.10142378e-002 -9.71482173e-002 -1.45789934e-003
      -1.81619942e-001 -7.74977729e-003 -2.97822710e-003
      -2.08489597e-001 6.28746301e-002 1.75896077e-003 1.85590051e-002
      -5.09346323e-003 -2.27289051e-001 1.00190276e-002 7.48579055e-002
      -9.43337157e-002 5.18442951e-002 -7.34524149e-003 2.69860886e-002
      6.83888001e-003 -7.25746304e-002 3.10845435e-001 4.04767208e-002
      2.79217325e-002 1.10898040e-001 -3.37795764e-002 -3.75633012e-004
      2.02484932e-002 6.38478324e-002 4.64665107e-002 -6.50592521e-002
      -3.21113884e-001 2.02678125e-002 3.23782682e-001 6.39958903e-002
      1.09548611e-003 -2.77550146e-002 -2.42919862e-001 2.87322002e-003
      1.69558115e-002 -1.02478966e-001 3.53692286e-002 -8.37989338e-003
      1.06021248e-001 -1.52370809e-002 7.43215531e-002 -3.30900811e-002
      7.01627135e-002 1.45364795e-002 2.93482058e-002 -3.16750780e-002
      1.09156519e-001 3.67008261e-002 -7.52011128e-003 2.83205090e-003
      5.39498366e-002 1.77295916e-002 4.23070155e-002 1.23328818e-002
      5.71043901e-002 -7.76041532e-003 1.27153955e-002 -1.16828401e-002
      9.40396264e-003 -8.54418501e-002 1.49137955e-002 -5.64080756e-003
      -2.79830070e-003 6.28498197e-002 -2.06216220e-002 -6.92535862e-002
      1.48558944e-001 1.05273500e-001 -3.58848870e-002 1.02232240e-001
      -8.94979537e-002 -1.63565904e-001 6.11139350e-002 3.31556946e-002
      1.06758624e-003 -2.02762615e-003 -7.45810419e-002 -9.93280578e-003
      -9.27030388e-003 -2.05424204e-002 1.07108682e-001 -2.89069206e-001
      -4.56195697e-002 1.03001706e-002 3.54233272e-002 8.51464719e-002
      5.69135062e-002 -1.69993371e-001 -7.13967206e-003 1.62845820e-001
      8.13339651e-002 3.84226143e-002 2.39951927e-002 2.15777732e-003
      5.28236665e-003 -2.60967296e-002 1.95444953e-002 -1.22539131e-002
      -2.69464008e-003 -2.47067921e-002 -3.57839823e-001 8.34223907e-003
      2.05338690e-002 1.27398595e-001 -1.44820541e-001 1.02570489e-001
      3.11153326e-002 -1.22541554e-001 3.34711000e-002 -9.85281635e-003
      -2.85287470e-001 -3.24347825e-003 2.22508367e-002 4.59078141e-002
      -3.37409861e-002 8.94867256e-002 -1.19623505e-002 -6.68193260e-003
      -7.49289338e-003 -1.24731576e-002 5.47229759e-002 -2.47333478e-002
      1.70751810e-002 -2.44062562e-002 2.54864860e-002 8.66283923e-002
      1.92138702e-002 -1.23240829e-001 -1.09739937e-002 -1.32523077e-002
      -1.59485936e-002 -3.97856198e-002 -6.85735494e-002
      -1.60597675e-002 -8.85921940e-002 2.13951897e-002 1.39114052e-001
      -5.55529958e-003 -4.78618145e-002 -3.81166227e-002 2.87862606e-002
      1.81675360e-001 1.34528261e-002 3.00808605e-002 -1.45380795e-001
      -7.03343749e-002 9.24060121e-002 3.26467454e-002 -3.27915349e-003
      -1.40832320e-001 -1.63997412e-002 -1.35117853e-002 9.48979110e-002
      9.51319337e-002 2.54551675e-002 1.35416351e-002 -5.12869731e-002
      1.57135911e-002 1.57236487e-001 2.68301070e-002 1.15434211e-002
      -3.75530198e-002 -6.27881289e-002 1.29747787e-003 -3.03640161e-002
      -4.98210527e-002 -7.45893121e-002 -9.64842141e-002
      -4.68939468e-002 -5.04604541e-003 -1.97101533e-002 1.64388884e-002
      6.59499168e-002 1.86371971e-002 -5.94069846e-002 -3.09087839e-002
      -9.30714887e-004 4.65565687e-003 -1.47481143e-001 2.09838543e-002
      3.60374413e-002 6.63085701e-003 1.94755662e-002 -2.94266343e-002
      -1.43617362e-001 1.57448519e-002 -2.52692099e-003 -6.93414882e-002
      2.15322413e-002 2.67202519e-002 5.14190234e-002 -2.11950727e-002
      3.19238566e-002 -4.31818776e-002 2.44028196e-002 8.39276984e-003
      -2.49547642e-002 5.34653217e-002 5.22819869e-002 -3.04240026e-002
      5.56629850e-003 1.11340955e-002 -5.84793761e-002 -5.59017994e-003
      3.14572714e-002 7.76221827e-002 9.51256044e-003 -6.43332750e-002
      8.00024718e-002 -3.45580354e-002 -5.22121042e-003 4.17169966e-002
      -2.20616162e-001 5.35684545e-003 8.32011923e-004 2.79109944e-002
      1.03128385e-002 1.46586858e-002 -1.72528382e-002 -8.45495313e-002
      1.48795564e-002 -5.19101135e-003 -4.58467891e-003 6.31688535e-002
      1.19625102e-003 5.41466057e-001 4.60737646e-002 2.19956767e-002</_>
    <_>
      1.63604647e-001 1.00813620e-003 5.29194064e-002 1.09638251e-001
      -8.32694210e-003 3.13203293e-003 7.17107672e-003 -2.43752286e-001
      1.08568318e-001 1.64213264e-003 1.49611682e-002 -1.29975472e-002
      1.13724560e-001 -1.34105027e-001 -4.55193371e-002 1.19777508e-002
      2.08439305e-005 5.55158313e-003 1.41680427e-003 -5.95865957e-003
      -4.56306599e-002 -4.58136760e-002 1.81296263e-002 2.99700834e-002
      1.07863741e-002 -3.23517919e-002 2.27246005e-002 -5.17091993e-003
      7.71968067e-003 5.04992902e-004 -7.21030589e-003 -1.67454004e-001
      4.81935032e-002 2.40082219e-002 6.46326765e-002 -1.38374222e-002
      1.83152799e-002 1.08652249e-001 -2.35244334e-002 -1.88525133e-002
      -1.15392627e-002 -1.28754064e-001 -1.49390791e-002
      -5.96610270e-003 2.01752186e-001 -6.16230965e-002 -3.27524990e-002
      -8.41980502e-002 -5.75687066e-002 -7.62978718e-002
      -1.45495549e-001 -2.72711813e-002 6.99493568e-004 8.35709739e-004
      5.48687065e-003 -1.71291903e-002 -2.68441796e-001 2.90387217e-002
      -5.30952290e-002 -1.85563304e-002 9.66297649e-003 -4.86824773e-002
      4.69917506e-002 3.07605648e-003 3.78637686e-002 -2.06671897e-002
      -6.62233979e-002 -1.16709806e-002 -6.20393595e-003 4.02676240e-002
      -1.19076893e-001 -2.66981907e-002 -1.53563302e-002
      -7.83175603e-003 1.03582904e-001 5.03524020e-003 3.23364250e-002
      -1.02267023e-002 1.03020579e-001 -1.01857610e-001 -3.20037734e-003
      -1.69743709e-002 -8.13982412e-002 -2.66788512e-001
      -2.04066783e-002 2.14282982e-002 -2.24093031e-002 -1.27815148e-002
      3.75786573e-002 -2.21283101e-002 3.74758057e-002 1.29390687e-001
      -4.89932708e-002 5.31127937e-002 -1.72493998e-002 1.03711434e-001
      -5.33260703e-002 2.26603635e-002 1.85158812e-002 2.04352080e-003
      7.85197876e-003 -1.32997101e-002 -3.05510703e-002 -3.43681616e-003
      5.82290161e-003 -2.13755984e-002 2.14393027e-002 -9.26241353e-002
      -6.47667572e-002 -2.45350115e-002 -3.98382060e-002 2.41855392e-003
      -2.11584754e-002 -5.83124608e-002 -2.28640780e-001 1.23157995e-002
      -1.15497477e-001 3.24403256e-001 -2.00078532e-001 1.81357954e-002
      3.37017626e-002 -4.29687500e-002 8.24542120e-002 2.40742005e-002
      1.32049406e-002 -1.95462722e-002 -1.16459757e-001 -4.92349360e-003
      2.67166674e-001 -1.32907182e-001 -1.78717580e-002 2.27315366e-001
      -6.42208755e-003 1.76942214e-001 2.73094699e-002 3.37412558e-003
      7.07851201e-002 7.72327418e-003 1.48778893e-002 2.23855190e-002
      -1.84108038e-003 1.17328893e-002 -3.53574865e-002 -1.28519624e-001
      -3.03752124e-002 2.05458142e-002 4.92178090e-003 1.33216651e-002
      1.52986571e-001 -1.73378009e-002 -9.17889737e-003 8.48498195e-004
      5.69218444e-003 -1.09547444e-001 1.92095079e-002 7.36637190e-002
      2.31869668e-002 -1.73693262e-002 9.13893990e-003 -5.55065051e-002
      -2.11572554e-002 -1.29429363e-002 -2.13737004e-002
      -1.40510380e-001 -7.85033312e-003 3.31834070e-002 1.01643684e-003
      5.79064712e-004 6.87214592e-003 -1.29870355e-001 -3.19137275e-002
      -1.89748202e-002 -1.12941731e-002 -1.25794811e-002
      -2.43798435e-001 -4.13909629e-002 4.80035275e-001 1.76295694e-002
      1.90625177e-003 -5.01520522e-002 -1.47859946e-001 4.24332827e-001
      8.19747522e-003 1.89399347e-002 5.48275001e-002 1.80433970e-003
      2.24088103e-001 -1.26831280e-002 -2.22942568e-002 2.40435414e-002
      1.84463542e-002 3.45255546e-002 -1.06872348e-002 -1.10985842e-002
      3.35981743e-003 2.03692564e-003 6.66674972e-002 4.99430252e-003
      1.66165680e-001 -6.37243129e-003 1.99371204e-002 -2.11487338e-002
      7.08484324e-004 -2.63152868e-001 1.36868795e-003 -3.24102975e-002
      -4.61532502e-004 2.58046817e-002 1.49341263e-002 -6.28930796e-003
      -2.58901180e-003 -3.42885545e-003 2.95044258e-002 -5.04419953e-003
      2.46350784e-002 -9.07998718e-003 -3.23291216e-003 1.74227841e-002
      2.78670415e-002 -5.60920034e-003 1.22563904e-002 -7.43978545e-002
      4.38730381e-002 -3.72245088e-002 -1.35933794e-002 -1.67811499e-003
      -1.17376745e-002 -8.40957649e-003 2.46435441e-002 -3.27729546e-002
      -2.34128740e-002 5.27333980e-003 5.19478275e-003 -1.65233277e-002
      3.06097977e-002 8.35893024e-003 1.32258922e-001 -1.94251798e-002
      6.41731638e-003 1.87223051e-002 -1.48889059e-002 2.12829690e-002
      6.65954128e-003 -9.15150624e-003 -3.31744999e-002 3.42561677e-002
      -1.28610842e-002 7.72375287e-003 -3.02280169e-002 -1.65520646e-002
      -1.82408504e-002 4.99801368e-001 3.68941277e-002 -3.80803794e-001
      1.40252098e-001 5.30547313e-002</_>
    <_>
      5.30346930e-002 -1.31783430e-002 1.24802031e-002 2.04544574e-001
      -2.97045987e-002 1.06336046e-002 -8.15571006e-003 -8.96021631e-003
      1.92235798e-001 -3.34398374e-002 -4.00279388e-002 -5.56541607e-002
      1.98833287e-001 -9.37569514e-003 -4.25132811e-002 -4.33153883e-002
      4.54081260e-002 -4.61174138e-002 2.12792121e-002 -9.14009959e-002
      -1.62137263e-002 -3.21678892e-002 4.17565461e-005 -1.28650712e-003
      -9.94099770e-003 -5.22849662e-003 -5.81627302e-002
      -3.83137390e-002 -3.00427303e-002 -4.71824072e-002
      -1.11418694e-001 -5.19849695e-002 2.96893436e-002 -1.39702223e-002
      9.05473381e-002 -5.36836162e-002 -9.13645513e-003 8.24244022e-002
      -1.95380077e-002 -5.13158925e-002 -1.12361014e-002 1.55009050e-002
      1.27892643e-002 -3.35518941e-002 1.32637739e-001 -7.00306818e-002
      -1.27334371e-002 -7.03750402e-002 -8.97863507e-002
      -3.64338756e-002 4.22769561e-002 -2.67280284e-002 -5.82194403e-002
      -7.41651747e-003 -2.05979701e-002 -2.08489671e-002 2.24847630e-001
      5.61544858e-003 2.41501015e-002 2.63834782e-002 -3.63044664e-002
      -1.38587058e-002 -9.77279097e-002 -8.45657513e-002
      -1.98447201e-002 -4.45826836e-002 -1.78511530e-001
      -4.43285480e-002 4.05921834e-004 1.07193310e-002 -9.06317681e-002
      -4.99080345e-002 -3.04419640e-002 2.12693214e-002 8.69388208e-002
      -1.41485389e-002 -6.80481177e-003 -1.60264336e-002 6.62503615e-002
      2.21900530e-002 -2.01233160e-002 7.34261274e-002 -4.92542535e-002
      -3.34281661e-002 -2.53808815e-002 -3.01867761e-002
      -2.40659826e-002 -2.69364212e-002 -3.62085216e-002
      -5.03573939e-002 -8.69143289e-004 1.28651574e-001 -1.24180811e-002
      1.27081182e-002 -2.09792685e-002 4.54100557e-002 -3.97238359e-002
      -6.17950270e-003 1.85654219e-002 -9.02030431e-003 -5.90916015e-002
      -4.99859862e-002 1.80252530e-002 -5.68603203e-002 -5.29908687e-002
      -4.37385179e-002 -3.85902487e-002 -2.64757797e-002
      -9.29372832e-002 -5.54016605e-003 -1.41067104e-002
      -5.62082008e-002 -2.23652534e-002 3.93712670e-002 -1.22733347e-001
      -2.89006196e-002 3.71275796e-003 3.24124813e-001 2.92124529e-003
      -1.44815268e-002 -1.64444167e-002 -4.64759618e-002 2.44585648e-002
      -1.69095362e-003 -2.70112548e-002 -1.46863852e-002
      -3.41822989e-002 -1.39469849e-002 1.31389409e-001 5.45824766e-002
      -8.73211399e-003 2.15457976e-001 -2.17458904e-002 1.16031863e-001
      9.04499181e-003 2.28239410e-002 1.34364545e-001 -1.86335482e-002
      2.13792976e-002 -2.39662547e-002 -2.65112426e-002 -1.20930187e-002
      -9.50903744e-002 -2.16754247e-002 -2.96813902e-002
      -1.54074403e-002 -2.37902589e-002 -2.15313919e-002 2.91777682e-002
      -4.51466292e-002 -3.21176536e-002 -2.87662484e-002
      -1.23400027e-002 -2.46990733e-002 5.43154357e-003 2.41830274e-002
      2.62913462e-002 -6.50044903e-002 -2.26610601e-002 -1.09153375e-001
      -3.72937694e-002 -5.83031494e-003 -4.05157022e-002 7.59265106e-003
      7.29900599e-002 -1.54660568e-002 -1.86258033e-002 -2.10349895e-002
      -2.33852193e-002 -9.15488228e-002 -7.22559839e-002 2.15872843e-002
      -2.26463610e-003 -4.30443026e-002 2.91022472e-002 -9.37980860e-002
      3.33204538e-001 -6.14207685e-002 -1.14343185e-002 -1.42198913e-002
      5.22909462e-002 4.73960698e-001 3.07146236e-002 6.77437149e-003
      3.22332568e-002 -4.86499965e-002 1.21398062e-001 -5.98113937e-003
      -4.44219634e-002 -1.13865677e-002 1.01061934e-003 2.09861938e-002
      -1.73432957e-002 -5.01351543e-002 2.73487600e-003 1.64734870e-002
      2.66781524e-002 -2.76311990e-002 1.04773603e-001 -3.36316936e-002
      1.23668695e-003 7.46887363e-003 -2.99681760e-002 -8.32553729e-002
      -2.78456975e-002 -2.08097324e-002 -3.58168036e-002
      -6.84252381e-002 -1.06035853e-002 -2.88870633e-002 2.91700126e-003
      -4.52756807e-002 -3.47189382e-002 7.23705208e-003 -1.18096313e-002
      -4.98710349e-002 -6.46178098e-003 -2.96929502e-003
      -2.35283691e-002 -7.26744756e-002 4.28951830e-002 -2.74320114e-002
      1.73010621e-002 9.88471415e-003 -1.39728589e-002 6.79258853e-002
      2.01214477e-003 -5.07322326e-002 5.52190002e-003 -3.64531390e-002
      2.33089901e-003 -3.04559972e-002 -5.39441183e-002 -4.70854193e-002
      -2.50262022e-002 9.10108909e-003 1.94323972e-001 -1.60355903e-002
      -2.05516778e-002 -6.40279939e-003 -4.42214450e-003 1.19987773e-002
      3.73736676e-003 -5.46717718e-002 -2.09616348e-002 3.56515162e-002
      -1.28080407e-002 -4.22439203e-002 8.23386945e-003 1.83018781e-002
      -7.06135333e-002 4.05734867e-001 3.97098288e-002 4.49365228e-001
      1.02733321e-001 3.66247003e-003</_>
    <_>
      1.36204893e-002 -2.06075348e-002 1.02954753e-001 3.02940995e-001
      -7.93277621e-002 -5.84289171e-002 -5.79791516e-002
      -5.97768500e-002 1.71416104e-001 -4.56424169e-002 1.90970134e-002
      -4.73682731e-002 1.94513842e-001 -2.97086686e-002 -1.46429449e-001
      -6.03905320e-002 5.60370535e-002 -5.16844615e-002 7.82601070e-003
      -7.26464093e-002 -3.52075249e-002 -3.35074887e-002
      -7.70099089e-002 2.37172237e-003 -4.64276224e-002 -1.80187412e-002
      -2.79762954e-001 -4.17601056e-002 -5.55908382e-002
      -1.17116896e-002 -3.64536978e-002 -4.89309151e-003
      -1.18082771e-002 -2.56832428e-002 9.88557860e-002 -4.89923172e-002
      -6.01708405e-002 1.21489793e-001 -6.20923638e-002 2.02875100e-002
      -2.51398999e-002 -7.09180022e-004 -6.14016354e-002
      -1.46895330e-002 2.45953619e-001 -8.49134177e-002 -8.98137540e-002
      -1.41925633e-001 -4.99008186e-002 -1.69178448e-003 2.64186393e-002
      -6.77610040e-002 1.39366901e-002 -4.42554951e-002 -2.08945498e-002
      -1.12993315e-001 3.38644952e-001 -4.39218665e-003 1.81825440e-002
      -6.21131547e-002 -3.30748484e-002 5.88059910e-002 -5.53938970e-002
      -4.72011939e-002 3.47289741e-002 -1.02479886e-002 1.67208478e-001
      -6.23019934e-002 -2.86147222e-002 2.69324481e-002 -1.88914388e-002
      -8.88312384e-002 -4.24487367e-002 -2.72638425e-002 1.88404158e-001
      -1.24351010e-001 2.48046257e-002 -4.58441302e-002 1.72410741e-001
      -5.85684702e-002 -1.22891434e-001 6.80210143e-002 -6.45851269e-002
      7.39879627e-003 -6.84584528e-002 6.48592040e-003 -1.13046087e-001
      -8.86233822e-002 -7.54829049e-002 -7.99013600e-002
      -4.24772389e-002 1.44692153e-001 9.30581009e-004 1.37959840e-002
      -5.49399434e-003 9.87673774e-002 2.24076007e-002 -7.22928811e-003
      4.50715469e-003 -1.16077945e-001 1.07875243e-002 -2.20250115e-002
      6.25221012e-003 -1.92353889e-001 -4.50703837e-002 -1.93195120e-002
      -1.40119437e-002 -2.29134280e-002 -6.79351315e-002
      -3.12439259e-003 -8.78969431e-002 -5.93826436e-002 5.71017526e-003
      -2.75028907e-002 -2.03818172e-001 -2.77478918e-002 1.01708673e-001
      5.17649889e-001 3.84900235e-002 2.80895829e-002 -1.89219452e-002
      -9.57072899e-002 4.34881411e-002 -3.13897878e-002 -6.70642704e-002
      -3.13877314e-002 -8.41987506e-002 -9.69163626e-002 2.83062190e-001
      1.11189306e-001 -2.60836296e-002 5.92360124e-002 -2.44836919e-002
      1.97791189e-001 -3.47500183e-002 2.82957610e-002 1.09937847e-001
      -6.69295043e-002 8.63316376e-003 -2.64180154e-002 -5.16827665e-002
      -1.24735413e-002 -7.26766437e-002 1.26005746e-002 -8.17393661e-002
      -8.68016575e-003 -1.98094212e-002 -5.78809194e-002 1.06429525e-001
      -5.86664528e-002 -6.95765987e-002 -2.22487673e-002
      -5.09581482e-003 -9.02775675e-002 1.02553582e-002 4.97417189e-002
      2.07390022e-002 -6.44277856e-002 -2.67087370e-002 -1.33456010e-003
      -7.95955583e-002 -3.59902494e-002 -7.66265988e-002 3.62208150e-002
      1.14820585e-001 -7.13501647e-002 -4.17364128e-002 -6.08429909e-002
      -6.25512004e-002 -2.64231682e-001 -7.33525604e-002 4.04837430e-002
      -1.09812384e-002 -1.08793423e-001 9.64995567e-003 -5.62029192e-004
      4.11259860e-001 -5.84333688e-002 -3.71104386e-003 7.64539652e-003
      -4.90784384e-002 6.08999312e-001 2.33772285e-002 7.04429811e-003
      5.35133258e-002 -7.97124654e-002 2.41889015e-001 -1.33573283e-002
      -7.27815032e-002 -3.23307142e-002 3.34995091e-002 4.06748336e-003
      -6.51359037e-002 -8.36494640e-002 2.72293519e-002 -2.84716580e-003
      2.38047972e-001 -3.09481844e-002 3.00300330e-001 -2.10550837e-002
      2.47837380e-002 -1.80343166e-002 -1.85265969e-002 -2.49701012e-002
      -1.58799794e-002 -7.09861666e-002 -2.19067577e-002
      -4.55611572e-002 -3.85435410e-002 -2.74725282e-003
      -6.53476045e-002 -2.39570383e-002 -1.45836789e-002 9.01439041e-003
      -2.57127024e-002 -6.26512244e-002 9.34673473e-003 -1.73410326e-001
      -3.99826933e-003 -5.94584942e-002 -3.61868087e-003
      -7.97758549e-002 4.58411239e-002 -6.97037280e-002 -1.77327190e-002
      9.61942449e-002 4.86222561e-003 -3.98369655e-002 -1.69651732e-002
      -6.83891624e-002 -2.68074442e-002 -2.86435224e-002
      -1.10701621e-001 -2.71501001e-002 -7.59856775e-002
      -4.23046909e-002 5.23719966e-001 -1.11494530e-002 -1.26993079e-002
      2.26791762e-002 -9.46413446e-003 -2.35483535e-002 4.90142964e-002
      -7.55308643e-002 -5.21662235e-002 4.27791476e-003 1.23706693e-003
      -2.42656693e-002 3.59886587e-002 -3.39122154e-002 -3.54900956e-002
      5.59385598e-001 3.34634110e-002 4.72397149e-001 1.66933402e-001
      3.92568819e-002</_>
    <_>
      1.57850161e-001 2.54568178e-004 1.18717134e-001 2.23818704e-001
      -1.03919394e-001 2.98605803e-002 -8.57052859e-003 5.92045225e-002
      2.07576916e-001 1.06926903e-003 1.56117193e-002 -1.54724836e-001
      2.39282489e-001 -3.54931168e-002 -2.29596663e-002 8.19936022e-003
      6.39712960e-002 -1.14096530e-001 9.17727361e-004 -7.89302737e-002
