<?xml version="1.0"?>
<opencv_storage>
<my_svm type_id="opencv-ml-svm">
  <svm_type>C_SVC</svm_type>
  <kernel><type>RBF</type>
    <gamma>5.0625000000000009e-001</gamma></kernel>
  <C>3.1250000000000000e+002</C>
  <term_criteria><epsilon>1.1920928955078125e-007</epsilon>
    <iterations>1000</iterations></term_criteria>
  <var_all>400</var_all>
  <var_count>400</var_count>
  <class_count>32</class_count>
  <class_labels type_id="opencv-matrix">
    <rows>1</rows>
    <cols>32</cols>
    <dt>i</dt>
    <data>
      1 2 3 4 5 6 7 8 9 10 11 12 13 14 15 16 17 18 19 20 21 22 23 24 25
      26 27 28 29 30 31 32</data></class_labels>
  <sv_total>1238</sv_total>
  <support_vectors>
    <_>
      0. 0. 0. 2.96296291e-002 0. 0. 7.40740728e-003 0. 0. 0.
      1.48148146e-002 2.22222209e-002 0. 1.48148146e-002 0. 0.
      5.18518500e-002 1.48148146e-002 0. 7.40740728e-003 7.40740728e-003
      0. 0. 7.40740746e-002 0. 0. 0. 0. 0. 0. 0. 0. 0. 0. 0.
      4.44444418e-002 0. 0. 0. 7.40740728e-003 0. 0. 0. 0.
      7.40740728e-003 0. 0. 0. 0. 0. 1.48148146e-002 0. 0. 0. 0. 0. 0.
      0. 0. 0. 0. 0. 0. 0. 0. 7.40740728e-003 0. 0. 0. 0. 0. 0. 0. 0. 0.
      1.48148146e-002 0. 7.40740728e-003 0. 0. 0. 0. 0. 0. 0.
      1.48148146e-002 0. 7.40740728e-003 0. 0. 0. 0. 0. 0. 0. 0. 0. 0.
      0. 0. 0. 0. 0. 0. 0. 7.40740728e-003 0. 0. 0. 0. 0. 0. 0. 0. 0. 0.
      0. 0. 6.66666627e-002 0. 0. 0. 0. 0. 0. 2.22222209e-002 0. 0. 0.
      0. 0. 0. 0. 3.70370373e-002 0. 0. 0. 0. 0. 0. 2.22222209e-002 0.
      1.48148146e-002 2.22222209e-002 0. 0. 0. 0. 0. 0. 0. 0. 0. 0. 0.
      0. 0. 0. 0. 0. 0. 7.40740728e-003 0. 0. 0. 0. 0. 0. 0. 0. 0. 0. 0.
      1.48148146e-002 0. 0. 0. 0. 0. 0. 0. 0. 0. 3.70370373e-002
      4.44444418e-002 0. 0. 0. 0. 0. 0. 0. 0. 7.40740728e-003 0. 0. 0.
      0. 0. 0. 0. 0. 0. 0. 0. 0. 0. 0. 0. 0. 7.40740728e-003 0. 0. 0. 0.
      0. 0. 7.40740728e-003 0. 7.40740728e-003 2.22222209e-002
      1.48148146e-002 0. 0. 0. 0. 0. 0. 0. 0. 0. 0. 0. 0. 0. 0. 0. 0. 0.
      0. 0. 0. 7.40740728e-003 7.40740728e-003 0. 0. 0. 0. 0. 0. 0. 0.
      7.40740728e-003 0. 0. 0. 0. 0. 0. 0. 0. 0. 0. 0. 0. 0. 0.
      2.22222209e-002 0. 0. 0. 0. 0. 0. 0. 0. 0. 0. 0. 0. 0. 0. 0. 0. 0.
      0. 0. 0. 7.40740728e-003 0. 2.22222209e-002 0. 0. 0. 0. 0. 0. 0.
      0. 0. 0. 0. 0. 0. 0. 0. 0. 0. 0. 0. 0. 0. 0. 3.70370373e-002 0. 0.
      0. 0. 0. 0. 0. 0. 7.40740728e-003 0. 0. 0. 0. 0. 1.48148146e-002
      0. 0. 0. 0. 0. 7.40740728e-003 0. 0. 0. 0. 2.22222209e-002 0. 0.
      0. 0. 0. 0. 0. 0. 0. 0. 0. 0. 7.40740728e-003 0. 0. 0. 0. 0. 0. 0.
      0. 0. 0. 0. 0. 0. 0. 0. 0. 0. 0. 0. 0. 5.92592582e-002 0.
      7.40740728e-003 0. 0. 0. 0. 0. 0. 7.40740728e-003 0. 0. 0.
      7.40740728e-003 0. 0. 0. 0. 0. 0. 0. 0. 0. 0. 0. 0.
      1.48148146e-002</_>
    <_>
      0. 0. 0. 5.45454547e-002 0. 0. 1.81818176e-002 0. 0. 0.
      6.36363626e-002 0. 0. 0. 0. 0. 9.09090880e-003 0. 0. 0.
      1.81818176e-002 0. 0. 9.09090862e-002 0. 0. 0. 0. 0. 0. 0. 0. 0.
      0. 0. 6.36363626e-002 0. 0. 0. 0. 0. 0. 0. 0. 0. 0. 0. 0. 0. 0. 0.
      0. 0. 0. 0. 0. 0. 0. 0. 0. 0. 0. 0. 0. 0. 3.63636352e-002 0. 0. 0.
      0. 9.09090880e-003 0. 0. 0. 0. 1.81818176e-002 0. 1.81818176e-002
      0. 0. 0. 0. 0. 0. 0. 2.72727273e-002 0. 3.63636352e-002 0. 0. 0.
      0. 0. 0. 9.09090880e-003 0. 0. 0. 0. 0. 0. 0. 0. 0. 0. 0. 0. 0. 0.
      0. 0. 0. 0. 0. 0. 0. 0. 0. 9.09090880e-003 0. 0. 0. 0. 0. 0.
      3.63636352e-002 0. 0. 9.09090880e-003 0. 0. 0. 0. 0. 0. 0. 0. 0.
      0. 0. 3.63636352e-002 0. 0. 0. 0. 0. 0. 0. 0. 0. 0. 0. 0. 0. 0.
      1.81818176e-002 0. 0. 0. 0. 0. 0. 0. 0. 0. 0. 0. 0. 0. 0. 0. 0. 0.
      9.09090880e-003 0. 0. 0. 0. 9.09090880e-003 0. 0. 0. 0.
      4.54545431e-002 2.72727273e-002 0. 0. 0. 0. 0. 0. 0. 0.
      9.09090880e-003 0. 0. 0. 0. 0. 0. 0. 0. 0. 0. 0. 0. 0. 0. 0. 0. 0.
      0. 0. 0. 0. 0. 0. 2.72727273e-002 0. 0. 4.54545431e-002
      1.81818176e-002 0. 0. 0. 0. 0. 0. 0. 0. 0. 0. 0. 0.
      2.72727273e-002 0. 0. 0. 0. 0. 0. 0. 0. 1.81818176e-002
      9.09090880e-003 0. 0. 0. 0. 0. 0. 0. 0. 0. 0. 0. 0. 0. 0. 0. 0. 0.
      0. 0. 0. 0. 0. 0. 0. 0. 0. 0. 0. 0. 0. 0. 0. 0. 0. 0. 0. 0. 0. 0.
      0. 0. 0. 0. 0. 0. 2.72727273e-002 0. 0. 0. 9.09090880e-003 0. 0.
      0. 9.09090880e-003 0. 9.09090880e-003 0. 0. 0. 0. 0. 0. 0. 0. 0.
      0. 0. 0. 2.72727273e-002 0. 0. 0. 0. 0. 0. 0. 0. 0. 0. 0. 0. 0. 0.
      9.09090880e-003 0. 0. 0. 0. 0. 9.09090880e-003 0. 0. 0. 0.
      9.09090880e-003 0. 0. 0. 0. 0. 0. 0. 0. 0. 0. 0. 0. 0. 0. 0. 0. 0.
      0. 0. 0. 0. 0. 0. 0. 0. 0. 0. 0. 0. 0. 0. 0. 0. 3.63636352e-002 0.
      9.09090880e-003 0. 0. 0. 0. 0. 0. 1.81818176e-002 0. 0. 0. 0. 0.
      0. 0. 0. 0. 0. 0. 0. 0. 0. 0. 0. 0.</_>
    <_>
      0. 0. 0. 7.35294120e-003 0. 0. 2.20588241e-002 0. 0. 0.
      5.14705889e-002 0. 0. 1.47058824e-002 0. 0. 1.47058824e-002 0. 0.
      0. 2.20588241e-002 7.35294120e-003 0. 1.76470593e-001 0. 0. 0. 0.
      0. 0. 0. 0. 7.35294120e-003 0. 0. 6.61764741e-002 0. 0. 0. 0. 0.
      0. 0. 0. 0. 0. 0. 0. 0. 0. 1.47058824e-002 0. 0. 0. 0. 0. 0. 0. 0.
      0. 0. 0. 0. 0. 0. 1.47058824e-002 0. 0. 0. 0. 7.35294120e-003 0.
      0. 0. 0. 7.35294120e-003 0. 2.20588241e-002 0. 0. 0. 0. 0. 0. 0.
      2.20588241e-002 0. 7.35294120e-003 0. 0. 0. 0. 0. 0.
      7.35294120e-003 0. 0. 0. 0. 0. 0. 0. 0. 0. 0. 0. 0.
      7.35294120e-003 0. 0. 0. 0. 0. 0. 0. 0. 0. 0. 3.67647074e-002 0.
      0. 0. 0. 0. 0. 1.47058824e-002 0. 0. 0. 0. 0. 0. 0.
      2.94117648e-002 0. 0. 0. 0. 0. 0. 1.47058824e-002 0.
      7.35294120e-003 7.35294120e-003 0. 0. 0. 0. 0. 0. 0. 0. 0. 0. 0.
      0. 7.35294120e-003 0. 0. 0. 0. 0. 0. 0. 0. 0. 0. 0. 0. 0. 0. 0. 0.
      7.35294120e-003 0. 0. 0. 0. 0. 0. 0. 0. 0. 1.47058824e-002
      2.20588241e-002 0. 0. 0. 0. 0. 0. 0. 0. 7.35294120e-003 0. 0. 0.
      0. 0. 0. 0. 0. 0. 0. 0. 0. 0. 0. 7.35294120e-003 0. 0. 0. 0. 0. 0.
      7.35294120e-003 0. 1.47058824e-002 0. 0. 2.20588241e-002
      7.35294120e-003 0. 0. 0. 0. 0. 0. 0. 0. 0. 0. 0. 0. 0. 0. 0. 0. 0.
      0. 0. 0. 0. 7.35294120e-003 0. 0. 7.35294120e-003 0. 0. 0. 0. 0.
      0. 0. 0. 0. 0. 0. 0. 0. 0. 0. 0. 0. 0. 0. 0. 1.47058824e-002 0.
      7.35294120e-003 0. 0. 0. 0. 0. 0. 0. 0. 0. 0. 0. 0. 0. 0. 0. 0. 0.
      0. 0. 0. 5.14705889e-002 0. 0. 0. 7.35294120e-003 0. 0. 0. 0. 0.
      0. 0. 0. 0. 0. 0. 7.35294120e-003 0. 0. 0. 0. 7.35294120e-003 0.
      3.67647074e-002 0. 0. 0. 0. 0. 0. 0. 0. 0. 0. 0. 0. 0. 0.
      1.47058824e-002 0. 0. 0. 0. 0. 0. 0. 0. 0. 0. 7.35294120e-003 0.
      0. 0. 0. 0. 0. 0. 0. 0. 0. 0. 0. 0. 0. 0. 0. 1.47058824e-002 0. 0.
      0. 0. 0. 0. 0. 0. 0. 7.35294120e-003 0. 0. 0. 0. 0. 0.
      6.61764741e-002 0. 0. 0. 0. 0. 0. 0. 0. 7.35294120e-003 0. 0. 0.
      0. 0. 0. 0. 0. 0. 0. 0. 0. 0. 0. 0. 0. 7.35294120e-003</_>
    <_>
      0. 0. 0. 3.61445770e-002 0. 0. 1.20481923e-002 0. 0. 0.
      3.61445770e-002 1.20481923e-002 0. 1.20481923e-002 0. 0.
      1.20481923e-002 0. 0. 1.20481923e-002 8.43373463e-002 0. 0.
      6.02409616e-002 0. 0. 0. 0. 0. 0. 0. 0. 1.20481923e-002 0. 0.
      9.63855386e-002 0. 0. 0. 0. 0. 0. 0. 0. 3.61445770e-002 0. 0. 0.
      0. 0. 2.40963846e-002 0. 0. 0. 0. 0. 0. 0. 0. 0. 0. 0. 0. 0. 0.
      6.02409616e-002 0. 0. 0. 0. 0. 0. 0. 0. 0. 0. 0. 1.20481923e-002
      0. 0. 0. 0. 0. 0. 0. 3.61445770e-002 0. 0. 0. 0. 0. 0. 0. 0.
      2.40963846e-002 0. 0. 0. 0. 0. 0. 0. 0. 0. 0. 0. 0. 0. 0.
      1.20481923e-002 0. 0. 0. 0. 0. 0. 0. 0. 4.81927693e-002 0. 0. 0.
      0. 0. 0. 1.20481923e-002 0. 0. 0. 0. 0. 0. 0. 1.20481923e-002
      1.20481923e-002 0. 0. 0. 0. 0. 0. 0. 0. 0. 0. 0. 0. 0. 0. 0. 0. 0.
      0. 0. 0. 0. 0. 0. 0. 0. 0. 0. 0. 0. 0. 0. 0. 0. 0. 0. 0. 0. 0.
      1.20481923e-002 0. 0. 0. 0. 0. 0. 0. 0. 0. 0. 4.81927693e-002 0.
      0. 0. 0. 0. 0. 0. 0. 2.40963846e-002 0. 0. 0. 0. 0. 0. 0. 0. 0. 0.
      0. 0. 0. 0. 0. 0. 0. 0. 0. 0. 0. 0. 0. 0. 0. 1.20481923e-002
      2.40963846e-002 0. 0. 0. 0. 0. 0. 0. 0. 0. 0. 0. 0. 0. 0. 0. 0. 0.
      0. 0. 0. 0. 0. 0. 0. 0. 0. 0. 0. 0. 0. 0. 1.20481923e-002 0. 0. 0.
      0. 0. 0. 0. 0. 0. 0. 0. 0. 0. 0. 0. 0. 0. 0. 0. 0. 0. 0. 0. 0. 0.
      0. 0. 0. 0. 0. 0. 0. 0. 0. 0. 0. 0. 2.40963846e-002 0. 0. 0. 0. 0.
      0. 0. 0. 0. 0. 0. 0. 0. 0. 0. 0. 0. 0. 0. 0. 0. 0. 1.20481923e-002
      0. 0. 0. 0. 0. 0. 0. 0. 0. 0. 0. 0. 0. 0. 3.61445770e-002 0. 0. 0.
      0. 0. 0. 0. 0. 0. 0. 1.20481923e-002 0. 0. 0. 0. 0. 0. 0. 0. 0. 0.
      0. 0. 0. 0. 0. 0. 0. 0. 0. 0. 0. 0. 0. 2.40963846e-002 0. 0. 0. 0.
      0. 0. 0. 0. 0. 4.81927693e-002 0. 1.20481923e-002 0. 0. 0. 0. 0.
      0. 1.20481923e-002 0. 0. 0. 0. 0. 0. 0. 0. 0. 0. 0. 0. 0. 0. 0. 0.
      1.20481923e-002</_>
    <_>
      0. 0. 0. 0. 0. 0. 1.50375944e-002 0. 0. 0. 9.77443606e-002
      1.50375944e-002 0. 0. 0. 0. 0. 0. 0. 0. 3.75939868e-002 0. 0.
      3.00751887e-002 0. 0. 0. 0. 0. 0. 0. 0. 0. 0. 0. 7.51879737e-002
      0. 0. 0. 1.50375944e-002 0. 0. 0. 0. 0. 0. 0. 0. 0.
      7.51879718e-003 0. 0. 0. 0. 0. 0. 0. 0. 0. 0. 0. 0. 0. 0. 0.
      3.75939868e-002 0. 0. 0. 0. 0. 0. 0. 0. 0. 3.00751887e-002 0. 0.
      0. 0. 0. 0. 0. 0. 0. 7.51879718e-003 0. 0. 0. 0. 0. 0. 0. 0. 0. 0.
      0. 0. 0. 0. 0. 0. 0. 0. 0. 0. 0. 0. 0. 0. 0. 0. 0. 0. 0. 0. 0. 0.
      6.76691756e-002 0. 0. 0. 0. 0. 0. 7.51879718e-003 0. 0. 0. 0. 0.
      0. 0. 2.25563906e-002 1.50375944e-002 0. 0. 0. 0. 0. 0. 0.
      1.50375944e-002 0. 0. 0. 0. 0. 0. 0. 0. 0. 0. 0. 0.
      2.25563906e-002 0. 0. 0. 0. 0. 0. 0. 0. 0. 0. 0. 0. 0. 0. 0. 0. 0.
      0. 0. 0. 0. 0. 0. 0. 0. 0. 0. 2.25563906e-002 1.50375944e-002 0.
      7.51879718e-003 0. 0. 0. 0. 0. 0. 0. 0. 0. 0. 0. 0. 0. 0. 0.
      7.51879718e-003 0. 0. 0. 0. 0. 0. 0. 0. 0. 0. 0. 0. 0.
      7.51879718e-003 0. 0. 0. 7.51879718e-003 0. 0. 0. 0.
      1.50375944e-002 0. 0. 0. 0. 0. 0. 7.51879718e-003 0.
      7.51879718e-003 0. 0. 0. 0. 0. 0. 0. 0. 0. 0. 0. 0. 0. 0. 0. 0. 0.
      0. 0. 0. 0. 0. 0. 0. 0. 0. 0. 7.51879718e-003 0. 0. 0. 0.
      7.51879718e-003 0. 0. 0. 7.51879718e-003 0. 0. 0. 0. 0. 0. 0. 0.
      0. 0. 0. 0. 0. 0. 0. 0. 0. 0. 3.00751887e-002 0. 0. 0. 0. 0. 0. 0.
      0. 0. 0. 1.50375944e-002 0. 0. 0. 0. 0. 0. 0. 0. 0. 0. 0.
      1.50375944e-002 0. 0. 0. 0. 0. 0. 0. 0. 1.50375944e-002 0. 0. 0.
      0. 0. 2.25563906e-002 7.51879718e-003 0. 7.51879718e-003 0. 0.
      1.50375944e-002 0. 0. 0. 0. 7.51879718e-003 0. 0. 0. 0. 0. 0. 0.
      0. 0. 0. 0. 0. 0. 0. 0. 0. 6.01503775e-002 0. 0. 0. 0. 0. 0. 0. 0.
      0. 2.25563906e-002 0. 0. 0. 0. 0. 0. 7.51879737e-002 0.
      1.50375944e-002 0. 0. 0. 0. 0. 0. 2.25563906e-002 0.
      3.00751887e-002 0. 0. 0. 0. 0. 0. 0. 0. 0. 0. 0. 0. 0. 0. 0.</_>
    <_>
      0. 0. 0. 0. 0. 0. 7.14285672e-002 0. 0. 0. 4.08163257e-002
      1.02040814e-002 0. 0. 0. 0. 3.06122452e-002 0. 0. 0.
      3.06122452e-002 0. 0. 4.08163257e-002 0. 0. 0. 0. 0. 0. 0. 0. 0.
      0. 0. 4.08163257e-002 0. 0. 0. 0. 0. 0. 0. 0. 2.04081628e-002 0.
      0. 0. 0. 0. 1.02040814e-002 0. 0. 0. 0. 0. 0. 0. 0. 0. 0. 0. 0. 0.
      0. 1.02040814e-002 0. 0. 0. 0. 0. 0. 0. 0. 0. 1.02040814e-002 0.
      2.04081628e-002 0. 0. 0. 0. 0. 0. 0. 2.04081628e-002 0.
      3.06122452e-002 0. 0. 0. 0. 0. 0. 0. 0. 0. 0. 1.02040814e-002 0.
      1.02040814e-002 0. 0. 0. 0. 0. 0. 0. 0. 0. 0. 0. 0. 0. 0. 0. 0. 0.
      2.04081628e-002 0. 0. 0. 0. 0. 0. 1.02040814e-002 0. 0. 0. 0. 0.
      0. 0. 1.02040814e-002 2.04081628e-002 0. 0. 0. 0. 0. 0. 0.
      3.06122452e-002 0. 0. 0. 0. 0. 0. 0. 0. 0. 0. 0. 0.
      1.02040814e-002 0. 0. 0. 0. 0. 0. 0. 0. 0. 0. 0. 0. 0. 0. 0. 0. 0.
      1.02040814e-002 0. 0. 0. 0. 0. 0. 0. 0. 0. 0. 3.06122452e-002 0.
      1.02040814e-002 0. 0. 0. 0. 0. 0. 1.02040814e-002 0. 0. 0. 0. 0.
      0. 0. 0. 0. 0. 0. 0. 0. 0. 0. 0. 0. 3.06122452e-002 0. 0. 0. 0.
      1.02040814e-002 1.02040814e-002 0. 0. 2.04081628e-002
      1.02040814e-002 0. 0. 0. 1.02040814e-002 0. 0. 0. 0. 0. 0. 0. 0.
      1.02040814e-002 0. 0. 0. 0. 0. 0. 0. 0. 2.04081628e-002 0. 0. 0.
      0. 0. 0. 0. 0. 0. 0. 0. 0. 0. 0. 0. 0. 0. 0. 0. 0. 0. 0. 0. 0. 0.
      0. 0. 1.02040814e-002 0. 0. 0. 0. 0. 0. 0. 0. 0. 0. 0. 0. 0. 0. 0.
      0. 0. 0. 0. 0. 0. 0. 2.04081628e-002 0. 0. 0. 2.04081628e-002 0.
      0. 1.02040814e-002 0. 0. 0. 0. 0. 0. 1.02040814e-002 0. 0. 0. 0.
      2.04081628e-002 0. 0. 0. 0. 0. 0. 0. 0. 5.10204062e-002 0. 0. 0.
      0. 0. 1.02040814e-002 2.04081628e-002 0. 0. 0. 0. 2.04081628e-002
      0. 0. 0. 0. 2.04081628e-002 0. 0. 0. 0. 0. 0. 0. 0. 0. 0. 0. 0. 0.
      0. 0. 0. 3.06122452e-002 0. 0. 0. 1.02040814e-002 0. 0. 0. 0. 0.
      0. 0. 0. 0. 0. 0. 0. 1.02040814e-002 0. 0. 0. 0. 0. 0. 0. 0.
      1.02040814e-002 0. 1.02040814e-002 0. 0. 0. 0. 0. 0. 0. 0. 0. 0.
      0. 0. 0. 0. 2.04081628e-002</_>
    <_>
      0. 0. 0. 0. 0. 0. 1.83486231e-002 0. 0. 0. 1.83486231e-002 0. 0.
      1.83486231e-002 0. 0. 2.75229346e-002 0. 0. 0. 9.17431153e-003 0.
      0. 1.65137604e-001 0. 0. 0. 0. 0. 0. 0. 0. 0. 0. 0.
      5.50458692e-002 0. 0. 0. 0. 0. 0. 0. 0. 9.17431153e-003 0. 0. 0.
      0. 0. 9.17431153e-003 0. 0. 0. 0. 0. 0. 0. 0. 0. 0. 0. 0. 0. 0.
      5.50458692e-002 9.17431153e-003 0. 0. 0. 0. 0. 0. 0. 0.
      9.17431153e-003 0. 1.83486231e-002 0. 0. 0. 0. 0. 0. 0.
      5.50458692e-002 0. 4.58715558e-002 0. 0. 0. 0. 0. 0. 0.
      9.17431153e-003 0. 0. 0. 0. 0. 0. 0. 0. 0. 0. 0. 0. 0. 0. 0. 0. 0.
      0. 0. 0. 0. 0. 2.75229346e-002 0. 0. 0. 0. 0. 0. 3.66972461e-002
      0. 0. 0. 0. 0. 0. 0. 9.17431153e-003 0. 0. 0. 0. 0. 0.
      2.75229346e-002 0. 9.17431153e-003 1.83486231e-002 0. 0. 0. 0. 0.
      0. 0. 0. 0. 0. 0. 9.17431153e-003 0. 0. 0. 0. 0. 0. 0. 0. 0. 0. 0.
      0. 0. 0. 0. 0. 0. 0. 0. 0. 0. 0. 0. 0. 0. 0. 0. 0. 1.83486231e-002
      0. 0. 0. 0. 0. 0. 0. 0. 9.17431153e-003 0. 0. 0. 0. 0. 0. 0. 0. 0.
      0. 0. 0. 0. 0. 0. 0. 0. 0. 0. 0. 0. 0. 0. 2.75229346e-002 0.
      1.83486231e-002 2.75229346e-002 4.58715558e-002 0. 0. 0. 0. 0.
      9.17431153e-003 0. 0. 0. 0. 0. 0. 1.83486231e-002 0. 0. 0. 0. 0.
      0. 0. 0. 0. 0. 0. 0. 0. 0. 0. 0. 0. 0. 0. 0. 0. 0. 0. 0. 0. 0. 0.
      0. 0. 0. 0. 0. 9.17431153e-003 0. 0. 0. 0. 0. 0. 0. 0. 0. 0. 0. 0.
      0. 0. 0. 0. 0. 0. 0. 0. 9.17431153e-003 0. 1.83486231e-002 0. 0.
      0. 0. 0. 0. 0. 0. 0. 0. 0. 0. 0. 0. 0. 0. 0. 0. 0. 0. 0. 0.
      3.66972461e-002 0. 0. 0. 0. 0. 0. 0. 0. 0. 0. 0. 0. 0. 0. 0.
      9.17431153e-003 0. 0. 0. 0. 0. 0. 0. 0. 0. 0. 0. 0. 0. 0. 0. 0. 0.
      0. 0. 0. 0. 0. 0. 0. 0. 0. 0. 0. 0. 9.17431153e-003 0. 0. 0.
      9.17431153e-003 0. 0. 0. 0. 0. 0. 0. 0. 0. 9.17431153e-003 0. 0.
      0. 0. 0. 0. 0. 0. 4.58715558e-002 0. 0. 0. 0. 0. 0. 0. 0. 0. 0. 0.
      0. 0. 0. 0. 0. 0.</_>
    <_>
      0. 0. 0. 2.94117648e-002 0. 0. 0. 0. 0. 0. 2.94117648e-002 0. 0.
      1.47058824e-002 0. 0. 2.94117648e-002 0. 0. 1.47058824e-002 0. 0.
      0. 2.94117648e-002 0. 0. 0. 0. 0. 0. 0. 0. 0. 0. 0.
      8.82352963e-002 0. 0. 0. 0. 0. 0. 0. 0. 1.47058824e-002 0. 0. 0.
      0. 0. 0. 0. 0. 0. 0. 0. 0. 0. 0. 1.47058824e-002 0. 0. 0. 0. 0.
      1.47058824e-002 0. 0. 0. 0. 0. 0. 0. 0. 0. 0. 0. 1.47058824e-002
      0. 0. 0. 0. 0. 0. 0. 0. 0. 0. 0. 0. 0. 0. 0. 0. 0. 0. 0. 0. 0. 0.
      0. 0. 0. 0. 0. 0. 0. 0. 0. 0. 0. 0. 0. 0. 0. 0. 0. 0.
      2.94117648e-002 0. 0. 0. 0. 0. 0. 2.94117648e-002 0. 0.
      1.47058824e-002 0. 0. 0. 0. 0. 1.47058824e-002 0. 0. 0. 0. 0. 0.
      0. 0. 0. 0. 0. 0. 0. 0. 0. 0. 0. 0. 0. 0. 2.94117648e-002 0. 0. 0.
      0. 0. 0. 0. 0. 0. 0. 0. 0. 0. 0. 0. 0. 0. 0. 0. 0. 0. 0. 0. 0. 0.
      0. 0. 0. 1.47058824e-002 0. 0. 0. 0. 0. 0. 0. 0. 0. 0. 0. 0. 0. 0.
      0. 0. 0. 1.47058824e-002 0. 0. 0. 0. 0. 0. 0. 0. 0. 0. 0. 0. 0. 0.
      4.41176482e-002 0. 0. 5.88235296e-002 2.94117648e-002 0. 0. 0. 0.
      0. 0. 0. 0. 0. 0. 0. 0. 2.94117648e-002 0. 0. 0. 0. 0. 0. 0. 0.
      1.47058824e-002 0. 0. 0. 0. 0. 0. 0. 0. 1.47058824e-002 0. 0. 0.
      0. 0. 0. 0. 0. 0. 0. 0. 0. 0. 0. 0. 0. 0. 0. 0. 0. 0. 0. 0. 0. 0.
      0. 0. 0. 0. 0. 0. 0. 0. 0. 0. 0. 0. 2.94117648e-002 0. 0. 0. 0. 0.
      0. 0. 4.41176482e-002 0. 0. 0. 0. 0. 0. 0. 0. 0. 1.47058824e-002
      0. 0. 0. 0. 5.88235296e-002 0. 0. 0. 0. 0. 0. 0. 0. 0. 0. 0. 0. 0.
      0. 0. 2.94117648e-002 0. 1.47058824e-002 0. 0. 1.47058824e-002 0.
      0. 0. 0. 2.94117648e-002 0. 0. 0. 0. 0. 0. 0. 0. 0. 0. 0. 0. 0. 0.
      0. 0. 1.47058824e-002 0. 0. 0. 0. 0. 0. 1.47058824e-002 0. 0.
      2.94117648e-002 0. 0. 0. 0. 0. 0. 0. 0. 1.47058824e-002 0. 0. 0.
      0. 0. 0. 1.47058824e-002 0. 0. 0. 4.41176482e-002 0. 0. 0. 0. 0.
      0. 0. 0. 0. 0. 0. 0. 0.</_>
    <_>
      0. 0. 0. 9.90098994e-003 0. 0. 1.98019799e-002 0. 0. 0.
      3.96039598e-002 1.98019799e-002 0. 1.98019799e-002 0. 0.
      1.98019799e-002 0. 0. 0. 1.98019799e-002 1.98019799e-002 0.
      7.92079195e-002 0. 0. 0. 0. 0. 0. 0. 0. 0. 9.90098994e-003 0.
      6.93069324e-002 0. 0. 0. 0. 0. 2.97029689e-002 0. 0. 0. 0. 0. 0.
      0. 0. 9.90098994e-003 0. 0. 0. 0. 0. 0. 0. 0. 0. 0. 0. 0. 0. 0.
      1.98019799e-002 0. 0. 0. 0. 0. 0. 0. 0. 0. 5.94059378e-002 0.
      5.94059378e-002 0. 0. 0. 0. 0. 0. 0. 1.98019799e-002 0. 0. 0. 0.
      0. 0. 9.90098994e-003 0. 0. 9.90098994e-003 0. 0. 0. 0. 0. 0. 0.
      0. 0. 0. 0. 0. 0. 0. 0. 0. 0. 0. 0. 0. 0. 0. 8.91089067e-002 0. 0.
      0. 0. 0. 0. 9.90098994e-003 0. 0. 0. 0. 0. 0. 0. 0. 0. 0. 0. 0. 0.
      0. 9.90098994e-003 0. 9.90098994e-003 0. 0. 0. 0. 0. 0. 0. 0. 0.
      0. 0. 0. 0. 0. 0. 0. 0. 0. 0. 0. 0. 0. 0. 0. 0. 0. 0. 0. 0. 0.
      1.98019799e-002 0. 0. 0. 0. 0. 0. 0. 0. 0. 2.97029689e-002
      2.97029689e-002 0. 9.90098994e-003 0. 0. 0. 0. 0. 0. 0. 0. 0. 0.
      0. 0. 0. 0. 0. 0. 9.90098994e-003 0. 0. 0. 0. 0. 0. 0. 0. 0. 0. 0.
      0. 0. 9.90098994e-003 0. 0. 1.98019799e-002 0. 0. 0. 0. 0. 0. 0.
      0. 0. 0. 0. 0. 0. 1.98019799e-002 0. 0. 0. 0. 0. 0. 0. 0.
      2.97029689e-002 0. 0. 0. 0. 0. 0. 0. 0. 0. 0. 0. 0. 0. 0. 0. 0. 0.
      0. 0. 0. 0. 0. 0. 0. 0. 0. 0. 0. 0. 0. 0. 0. 0. 0. 0. 0. 0. 0. 0.
      0. 0. 0. 0. 0. 0. 0. 9.90098994e-003 0. 0. 0. 0. 0. 0. 0. 0. 0. 0.
      0. 0. 0. 0. 9.90098994e-003 9.90098994e-003 0. 0. 0. 0. 0. 0.
      9.90098994e-003 0. 0. 0. 0. 0. 0. 0. 0. 0. 0. 0. 0. 0. 0.
      9.90098994e-003 0. 0. 0. 0. 0. 0. 0. 0. 0. 0. 9.90098994e-003 0.
      0. 0. 0. 0. 0. 0. 0. 0. 0. 0. 0. 9.90098994e-003 0. 0. 0. 0. 0. 0.
      0. 0. 0. 0. 0. 0. 0. 9.90098994e-003 0. 0. 0. 0. 0. 0.
      1.98019799e-002 0. 2.97029689e-002 0. 0. 0. 0. 0. 0.
      1.98019799e-002 0. 0. 0. 0. 0. 0. 0. 0. 0. 0. 0. 0. 0. 0. 0. 0.
      9.90098994e-003</_>
    <_>
      0. 0. 0. 2.15053763e-002 0. 0. 0. 0. 0. 0. 5.37634417e-002
      1.07526882e-002 0. 0. 0. 0. 3.22580636e-002 0. 0. 0.
      5.37634417e-002 1.07526882e-002 0. 5.37634417e-002 0. 0. 0. 0. 0.
      0. 0. 0. 0. 0. 0. 6.45161271e-002 0. 0. 0. 0. 0. 0. 0. 0.
      1.07526882e-002 0. 0. 0. 0. 0. 1.07526882e-002 0. 0. 0. 0. 0. 0.
      0. 0. 0. 0. 0. 0. 0. 0. 2.15053763e-002 0. 0. 0. 0. 0. 0. 0.
      1.07526882e-002 0. 1.07526882e-002 0. 2.15053763e-002 0. 0. 0. 0.
      0. 0. 0. 4.30107526e-002 0. 0. 0. 0. 0. 0. 0. 0. 0. 0. 0. 0. 0. 0.
      0. 0. 0. 0. 0. 0. 0. 0. 0. 0. 0. 0. 0. 0. 0. 0. 0. 0.
      5.37634417e-002 0. 0. 0. 0. 0. 0. 1.07526882e-002 0. 0. 0. 0. 0.
      0. 0. 0. 0. 0. 0. 0. 0. 0. 0. 0. 2.15053763e-002 0. 0. 0. 0. 0. 0.
      0. 0. 0. 0. 0. 0. 0. 0. 0. 0. 0. 0. 0. 0. 0. 0. 0. 0. 0. 0. 0. 0.
      0. 0. 5.37634417e-002 0. 0. 0. 0. 0. 0. 0. 0. 0. 6.45161271e-002
      2.15053763e-002 0. 1.07526882e-002 0. 0. 0. 0. 0. 0.
      1.07526882e-002 0. 0. 0. 0. 0. 0. 0. 0. 0. 0. 0. 0. 0. 0. 0. 0. 0.
      0. 0. 0. 0. 0. 0. 3.22580636e-002 0. 0. 3.22580636e-002
      1.07526882e-002 0. 0. 0. 1.07526882e-002 0. 0. 0. 0. 0. 0. 0. 0.
      0. 0. 0. 0. 0. 0. 0. 0. 0. 0. 0. 0. 0. 0. 0. 0. 0. 0. 0. 0. 0. 0.
      0. 0. 0. 0. 0. 0. 0. 0. 0. 0. 0. 0. 0. 0. 0. 0. 0. 0. 0. 0. 0. 0.
      0. 0. 0. 0. 0. 0. 0. 0. 0. 0. 2.15053763e-002 0. 5.37634417e-002
      0. 0. 0. 1.07526882e-002 0. 0. 0. 0. 0. 0. 1.07526882e-002 0. 0.
      0. 0. 1.07526882e-002 0. 1.07526882e-002 0. 0. 0. 0.
      2.15053763e-002 0. 0. 0. 0. 0. 0. 0. 0. 0. 0. 0. 0. 0. 0.
      1.07526882e-002 1.07526882e-002 0. 0. 0. 0. 1.07526882e-002 0. 0.
      0. 0. 0. 0. 0. 0. 0. 0. 0. 0. 0. 0. 0. 0. 0. 0. 0. 0. 0.
      1.07526882e-002 0. 0. 0. 1.07526882e-002 0. 0. 2.15053763e-002 0.
      0. 0. 0. 0. 0. 0. 0. 0. 0. 0. 1.07526882e-002 0. 0. 0. 0. 0. 0.
      1.07526882e-002 0. 0. 0. 0. 0. 0. 0. 0. 0. 0. 0. 0. 0. 0. 0. 0. 0.</_>
    <_>
      0. 0. 0. 9.61538497e-003 0. 0. 4.80769239e-002 0. 0. 0.
      7.69230798e-002 0. 0. 0. 0. 0. 0. 0. 0. 0. 2.88461559e-002 0. 0.
      1.05769232e-001 0. 0. 0. 0. 0. 0. 0. 0. 0. 0. 0. 3.84615399e-002
      0. 0. 0. 0. 0. 0. 0. 0. 2.88461559e-002 0. 0. 0. 0.
      9.61538497e-003 9.61538497e-003 0. 0. 0. 0. 0. 0. 0. 0. 0. 0. 0.
      0. 9.61538497e-003 0. 0. 0. 0. 0. 0. 0. 0. 0. 0. 0.
      9.61538497e-003 0. 0. 0. 0. 0. 0. 0. 0. 0. 9.61538497e-003 0. 0.
      0. 0. 0. 0. 0. 0. 0. 0. 0. 0. 0. 0. 0. 0. 0. 0. 0. 0. 0. 0. 0. 0.
      0. 0. 0. 0. 0. 0. 0. 0. 7.69230798e-002 0. 0. 0. 0. 0. 0.
      1.92307699e-002 0. 0. 0. 0. 0. 0. 0. 1.92307699e-002
      1.92307699e-002 0. 0. 0. 0. 0. 0. 0. 1.92307699e-002 0. 0. 0. 0.
      0. 0. 0. 0. 0. 0. 0. 0. 0. 0. 0. 0. 0. 0. 0. 0. 0. 0. 0. 0. 0. 0.
      0. 0. 0. 0. 1.92307699e-002 0. 0. 0. 0. 0. 0. 0. 0. 0.
      6.73076957e-002 8.65384638e-002 0. 0. 0. 0. 0. 0. 0. 0. 0. 0. 0.
      0. 0. 0. 0. 0. 0. 0. 0. 0. 0. 0. 0. 0. 0. 0. 0. 0. 0. 0. 0. 0.
      9.61538497e-003 0. 0. 0. 2.88461559e-002 0. 0. 0. 9.61538497e-003
      0. 0. 0. 0. 0. 0. 0. 0. 0. 0. 0. 0. 0. 0. 0. 0. 0. 0. 0. 0. 0. 0.
      0. 0. 0. 0. 0. 0. 0. 0. 0. 0. 0. 0. 0. 0. 0. 0. 0. 0. 0. 0. 0. 0.
      0. 0. 0. 0. 0. 0. 0. 0. 0. 0. 0. 0. 0. 0. 0. 0. 0. 0. 0. 0.
      1.92307699e-002 0. 0. 0. 9.61538497e-003 0. 0. 0. 1.92307699e-002
      0. 0. 1.92307699e-002 0. 0. 0. 1.92307699e-002 2.88461559e-002 0.
      0. 0. 0. 0. 0. 9.61538497e-003 0. 0. 0. 0. 0. 0. 0. 0. 0. 0. 0. 0.
      0. 0. 1.92307699e-002 0. 0. 9.61538497e-003 0. 0. 9.61538497e-003
      0. 0. 0. 0. 9.61538497e-003 0. 0. 0. 0. 0. 0. 0. 0. 0. 0. 0. 0. 0.
      0. 0. 0. 0. 0. 0. 0. 0. 0. 0. 9.61538497e-003 0. 0. 0. 0. 0. 0. 0.
      0. 0. 3.84615399e-002 0. 0. 0. 0. 0. 0. 9.61538497e-003 0.
      9.61538497e-003 0. 0. 0. 0. 0. 0. 0. 0. 0. 0. 0. 0. 0. 0. 0. 0. 0.</_>
    <_>
      0. 0. 0. 9.52380989e-003 0. 0. 1.90476198e-002 0. 0. 0.
      1.90476198e-002 9.52380989e-003 0. 9.52380989e-003 0. 0.
      9.52380989e-003 0. 0. 9.52380989e-003 2.85714306e-002 0. 0.
      1.23809531e-001 0. 0. 0. 0. 0. 0. 0. 0. 0. 0. 0. 7.61904791e-002
      0. 0. 0. 0. 0. 0. 0. 0. 0. 0. 0. 0. 0. 0. 0. 0. 0. 0. 0. 0. 0. 0.
      0. 0. 0. 0. 0. 0. 0. 1.90476198e-002 0. 0. 0. 0. 0. 0. 0. 0. 0.
      9.52380989e-003 0. 2.85714306e-002 0. 0. 0. 0. 0. 0. 0. 0. 0. 0.
      0. 0. 0. 0. 0. 0. 0. 0. 0. 0. 0. 0. 0. 0. 0. 0. 0. 0. 0. 0. 0. 0.
      0. 0. 0. 0. 0. 0. 0. 0. 4.76190485e-002 0. 0. 0. 0. 0. 0. 0. 0. 0.
      0. 0. 0. 0. 0. 1.90476198e-002 3.80952395e-002 0. 0. 0. 0. 0. 0.
      0. 0. 0. 9.52380989e-003 0. 0. 0. 0. 0. 0. 0. 0. 0. 0. 0. 0. 0. 0.
      0. 0. 0. 0. 0. 0. 0. 0. 0. 0. 0. 0. 0. 0. 0. 0. 0. 0. 0. 0. 0. 0.
      0. 0. 1.90476198e-002 5.71428612e-002 0. 0. 0. 0. 0. 0. 0. 0. 0.
      0. 0. 0. 0. 0. 0. 0. 0. 0. 0. 0. 0. 0. 0. 0. 0. 0. 0. 0. 0. 0. 0.
      0. 0. 0. 1.90476198e-002 1.90476198e-002 1.90476198e-002 0. 0. 0.
      9.52380989e-003 0. 0. 0. 0. 0. 0. 0. 0. 9.52380989e-003 0. 0. 0.
      0. 0. 0. 0. 0. 0. 0. 0. 0. 0. 0. 0. 0. 0. 0. 0. 0. 0. 0. 0. 0. 0.
      0. 0. 0. 0. 0. 0. 0. 1.90476198e-002 0. 9.52380989e-003 0. 0. 0.
      0. 0. 0. 0. 0. 0. 0. 0. 0. 0. 0. 0. 0. 0. 0. 0. 0. 6.66666701e-002
      0. 0. 0. 0. 0. 0. 0. 0. 0. 0. 1.90476198e-002 0. 0. 0. 0.
      9.52380989e-003 0. 0. 0. 0. 0. 0. 3.80952395e-002 0. 0. 0. 0. 0.
      0. 0. 0. 4.76190485e-002 0. 0. 0. 0. 0. 0. 1.90476198e-002 0. 0.
      0. 0. 2.85714306e-002 0. 0. 0. 0. 0. 0. 0. 0. 0. 0. 0. 0. 0. 0. 0.
      0. 0. 0. 0. 0. 0. 3.80952395e-002 0. 0. 0. 0. 0. 0. 0. 0. 0. 0. 0.
      0. 0. 0. 0. 0. 2.85714306e-002 0. 0. 0. 0. 0. 0. 0. 0.
      2.85714306e-002 0. 9.52380989e-003 0. 0. 0. 0. 0. 0. 0. 0. 0. 0.
      0. 0. 0. 0. 0.</_>
    <_>
      0. 0. 0. 0. 0. 0. 1.75438598e-002 0. 0. 0. 1.75438598e-002
      4.38596494e-002 0. 8.77192989e-003 0. 0. 8.77192989e-003 0. 0. 0.
      0. 0. 0. 1.22807018e-001 0. 0. 0. 0. 0. 0. 0. 0. 0. 0. 0.
      1.22807018e-001 0. 0. 0. 0. 0. 8.77192989e-003 0. 0.
      1.75438598e-002 0. 0. 0. 0. 0. 1.75438598e-002 0. 0. 0. 0. 0. 0.
      0. 0. 0. 0. 0. 0. 0. 0. 2.63157897e-002 0. 0. 0. 0. 0. 0. 0. 0. 0.
      8.77192989e-003 0. 8.77192989e-003 0. 0. 0. 0. 0. 0. 0.
      8.77192989e-003 0. 8.77192989e-003 0. 0. 0. 0. 0. 0. 0. 0. 0. 0.
      0. 0. 0. 0. 0. 0. 0. 0. 0. 0. 0. 0. 0. 0. 0. 0. 0. 0. 0. 0.
      5.26315793e-002 0. 0. 0. 0. 0. 0. 1.75438598e-002 0. 0.
      8.77192989e-003 0. 0. 0. 0. 3.50877196e-002 0. 0. 0. 0. 0. 0. 0.
      0. 8.77192989e-003 0. 0. 0. 0. 0. 0. 0. 0. 0. 0. 0. 0. 0. 0. 0. 0.
      0. 0. 0. 0. 0. 0. 0. 0. 0. 0. 0. 0. 0. 0. 3.50877196e-002 0. 0. 0.
      0. 0. 0. 0. 0. 0. 2.63157897e-002 1.75438598e-002 0.
      1.75438598e-002 0. 0. 0. 0. 0. 0. 8.77192989e-003 0. 0. 0. 0. 0.
      0. 0. 0. 0. 0. 0. 0. 0. 0. 0. 0. 0. 0. 0. 0. 0. 0. 0. 0. 0.
      3.50877196e-002 1.75438598e-002 8.77192989e-003 0. 0. 0.
      1.75438598e-002 0. 0. 8.77192989e-003 0. 0. 0. 0. 0.
      8.77192989e-003 0. 0. 0. 0. 0. 0. 0. 0. 3.50877196e-002 0. 0. 0.
      0. 0. 0. 0. 0. 8.77192989e-003 0. 0. 0. 0. 0. 0. 0. 0. 0. 0. 0. 0.
      0. 0. 8.77192989e-003 0. 0. 0. 0. 0. 0. 0. 0. 0. 0. 0. 0. 0. 0. 0.
      0. 0. 0. 0. 0. 0. 0. 1.75438598e-002 0. 0. 0. 0. 0. 0. 0.
      8.77192989e-003 0. 0. 0. 0. 0. 0. 0. 0. 0. 0. 0. 0. 0. 0.
      3.50877196e-002 0. 0. 0. 0. 0. 0. 0. 0. 1.75438598e-002 0. 0. 0.
      0. 0. 2.63157897e-002 8.77192989e-003 0. 0. 0. 0. 0. 0. 0. 0. 0.
      0. 0. 0. 0. 0. 0. 0. 0. 0. 0. 0. 0. 0. 0. 0. 0. 0. 8.77192989e-003
      0. 0. 8.77192989e-003 0. 0. 0. 0. 0. 0. 8.77192989e-003 0. 0. 0.
      0. 0. 0. 3.50877196e-002 0. 0. 0. 0. 0. 0. 0. 0. 0. 0. 0. 0. 0. 0.
      0. 0. 0. 0. 0. 0. 0. 0. 0. 0. 0. 0.</_>
    <_>
      0. 0. 0. 1.36054419e-002 0. 0. 0. 0. 0. 0. 4.76190448e-002
      6.80272095e-003 0. 3.40136066e-002 0. 0. 2.72108838e-002 0. 0. 0.
      0. 0. 6.80272095e-003 1.02040812e-001 0. 0. 0. 0. 0. 0. 0. 0. 0.
      0. 0. 5.44217676e-002 0. 0. 0. 0. 0. 0. 0. 0. 0. 0. 0. 0. 0. 0.
      1.36054419e-002 0. 0. 0. 0. 0. 0. 0. 0. 0. 0. 0. 0. 0. 0.
      2.04081628e-002 0. 0. 0. 0. 0. 0. 0. 0. 0. 2.72108838e-002 0. 0.
      0. 0. 0. 0. 0. 0. 0. 4.08163257e-002 0. 3.40136066e-002 0. 0. 0.
      0. 0. 0. 0. 0. 0. 0. 0. 0. 6.80272095e-003 0. 0. 0. 0. 0. 0. 0. 0.
      0. 0. 0. 0. 0. 0. 0. 0. 0. 6.80272132e-002 0. 0. 0. 0. 0. 0.
      6.80272095e-003 0. 0. 0. 0. 0. 0. 0. 1.36054419e-002 0. 0. 0. 0.
      0. 0. 1.36054419e-002 0. 6.80272095e-003 6.80272095e-003 0. 0. 0.
      0. 0. 0. 0. 0. 0. 0. 0. 0. 0. 0. 0. 0. 0. 0. 0. 0. 0. 0. 0. 0. 0.
      0. 0. 0. 0. 1.36054419e-002 0. 0. 0. 0. 0. 0. 0. 0. 0.
      1.36054419e-002 2.72108838e-002 0. 2.04081628e-002 0. 0. 0. 0. 0.
      0. 2.72108838e-002 0. 0. 0. 0. 0. 0. 0. 0. 0. 0. 0. 0. 0. 0. 0. 0.
      0. 2.04081628e-002 0. 0. 0. 0. 0. 0. 0. 0. 0. 6.80272095e-003 0.
      0. 0. 0. 0. 0. 0. 0. 0. 0. 0. 0. 6.80272095e-003 0. 0. 0. 0. 0.
      6.80272095e-003 0. 0. 0. 0. 0. 0. 0. 0. 0. 0. 6.80272095e-003 0.
      0. 0. 0. 0. 0. 0. 0. 0. 0. 0. 0. 0. 0. 0. 2.04081628e-002 0.
      6.80272095e-003 0. 0. 0. 0. 0. 0. 0. 0. 0. 0. 0. 0. 0. 0. 0. 0. 0.
      0. 0. 0. 2.04081628e-002 0. 0. 0. 0. 0. 0. 0. 0. 0.
      6.80272095e-003 0. 0. 0. 0. 0. 0. 0. 0. 0. 0. 0. 0.
      2.72108838e-002 0. 0. 0. 0. 0. 0. 0. 0. 1.36054419e-002 0. 0. 0.
      0. 0. 2.72108838e-002 0. 0. 0. 0. 0. 0. 0. 0. 6.80272095e-003 0.
      6.80272095e-003 0. 0. 0. 0. 6.80272095e-003 0. 0. 0. 0. 0. 0. 0.
      0. 0. 0. 0. 1.36054419e-002 0. 0. 0. 0. 0. 0. 6.80272095e-003 0.
      0. 2.04081628e-002 0. 0. 0. 0. 0. 0. 2.04081628e-002 0.
      6.80272095e-003 0. 0. 0. 0. 0. 0. 5.44217676e-002 0.
      2.04081628e-002 0. 0. 0. 0. 0. 0. 0. 0. 0. 0. 6.80272095e-003 0.
      0. 0. 6.80272095e-003</_>
    <_>
      0. 0. 0. 3.52941193e-002 0. 0. 0. 0. 0. 0. 9.41176489e-002
      2.35294122e-002 0. 2.35294122e-002 0. 0. 1.17647061e-002 0. 0. 0.
      1.17647061e-002 0. 0. 4.70588244e-002 0. 0. 0. 0. 0. 0. 0. 0. 0.
      0. 0. 1.17647061e-002 0. 0. 0. 0. 0. 1.17647061e-002 0. 0.
      1.17647061e-002 0. 0. 0. 0. 0. 0. 0. 0. 0. 0. 0. 0. 0. 0. 0. 0. 0.
      0. 0. 0. 1.17647061e-002 0. 0. 0. 0. 0. 0. 0. 0. 0.
      1.17647061e-002 0. 0. 0. 0. 0. 0. 0. 0. 0. 3.52941193e-002 0. 0.
      0. 0. 0. 0. 0. 0. 0. 0. 0. 0. 0. 0. 1.17647061e-002 0. 0. 0. 0. 0.
      0. 0. 0. 0. 0. 0. 0. 0. 0. 0. 0. 0. 2.35294122e-002 0. 0. 0. 0. 0.
      0. 1.17647061e-002 0. 0. 0. 0. 0. 0. 0. 2.35294122e-002 0. 0. 0.
      0. 0. 0. 0. 0. 4.70588244e-002 1.17647061e-002 0. 0. 0. 0. 0. 0.
      0. 1.17647061e-002 0. 0. 0. 2.35294122e-002 0. 0. 0. 0. 0. 0. 0.
      0. 0. 0. 0. 0. 0. 0. 0. 0. 0. 1.17647061e-002 0. 0. 0. 0. 0. 0. 0.
      0. 0. 4.70588244e-002 7.05882385e-002 0. 0. 0. 0. 0. 0. 0. 0.
      1.17647061e-002 0. 0. 0. 0. 0. 0. 0. 0. 0. 0. 0. 0. 0. 0. 0. 0. 0.
      0. 0. 0. 0. 0. 1.17647061e-002 0. 0. 0. 0. 1.17647061e-002 0. 0.
      0. 1.17647061e-002 0. 0. 0. 0. 0. 0. 1.17647061e-002 0.
      3.52941193e-002 0. 0. 0. 0. 0. 0. 0. 0. 1.17647061e-002 0. 0. 0.
      0. 0. 0. 0. 0. 0. 0. 0. 0. 0. 0. 0. 0. 0. 0. 0. 0. 0. 0. 0. 0. 0.
      0. 0. 0. 0. 0. 0. 0. 0. 0. 0. 0. 0. 0. 0. 0. 0. 0. 0. 0. 0. 0. 0.
      0. 0. 0. 1.17647061e-002 0. 0. 0. 0. 0. 0. 1.17647061e-002 0. 0.
      0. 0. 0. 0. 0. 0. 0. 0. 0. 1.17647061e-002 0. 0. 0. 0. 0. 0. 0. 0.
      1.17647061e-002 0. 0. 0. 0. 0. 4.70588244e-002 2.35294122e-002 0.
      1.17647061e-002 0. 0. 0. 0. 0. 0. 0. 2.35294122e-002 0. 0. 0. 0.
      0. 0. 0. 0. 0. 0. 0. 0. 0. 0. 0. 0. 2.35294122e-002 0. 0. 0.
      2.35294122e-002 0. 0. 0. 0. 0. 0. 0. 0. 0. 0. 0. 0.
      3.52941193e-002 0. 0. 0. 0. 0. 0. 0. 0. 1.17647061e-002 0.
      1.17647061e-002 0. 0. 0. 0. 0. 0. 0. 0. 0. 0. 0. 0. 0. 0. 0.</_>
    <_>
      0. 0. 0. 0. 0. 0. 4.08163257e-002 0. 0. 0. 4.08163257e-002 0. 0.
      0. 0. 0. 0. 0. 0. 2.04081628e-002 0. 0. 0. 1.02040812e-001 0. 0.
      0. 0. 0. 0. 0. 0. 0. 2.04081628e-002 0. 4.08163257e-002 0. 0. 0.
      0. 0. 0. 0. 0. 0. 0. 0. 0. 0. 0. 0. 0. 0. 0. 0. 0. 0. 0. 0. 0. 0.
      0. 0. 0. 0. 2.04081628e-002 0. 0. 0. 0. 0. 0. 0. 0. 0. 0. 0.
      2.04081628e-002 0. 0. 0. 0. 0. 0. 0. 0. 0. 2.04081628e-002 0. 0.
      0. 0. 0. 0. 0. 0. 0. 0. 0. 0. 2.04081628e-002 0. 0. 0. 0. 0. 0. 0.
      0. 0. 0. 0. 0. 0. 0. 0. 0. 0. 4.08163257e-002 0. 0. 0. 0. 0. 0. 0.
      0. 0. 0. 0. 0. 0. 0. 0. 0. 0. 0. 0. 0. 0. 0. 0. 2.04081628e-002 0.
      0. 0. 0. 0. 0. 0. 0. 0. 0. 0. 0. 2.04081628e-002 0. 0. 0. 0. 0. 0.
      0. 0. 0. 0. 0. 0. 0. 0. 0. 0. 0. 2.04081628e-002 0. 0. 0. 0. 0. 0.
      0. 0. 0. 2.04081628e-002 6.12244904e-002 0. 0. 0. 0. 0. 0. 0. 0.
      0. 0. 0. 0. 0. 0. 0. 0. 0. 0. 0. 0. 0. 0. 0. 0. 0. 0. 0. 0. 0. 0.
      0. 2.04081628e-002 0. 0. 2.04081628e-002 2.04081628e-002 0. 0. 0.
      0. 4.08163257e-002 0. 0. 0. 0. 0. 0. 0. 0. 0. 0. 0. 0. 0. 0. 0. 0.
      0. 2.04081628e-002 0. 0. 0. 0. 0. 0. 0. 0. 0. 0. 0. 0. 0. 0. 0. 0.
      0. 0. 0. 0. 0. 0. 0. 0. 0. 0. 0. 0. 0. 0. 0. 0. 0. 0. 0. 0. 0. 0.
      0. 0. 0. 0. 0. 0. 0. 0. 2.04081628e-002 0. 0. 0. 0. 0. 0. 0. 0. 0.
      0. 2.04081628e-002 0. 0. 0. 0. 0. 0. 0. 0. 0. 0. 0. 0. 0. 0. 0. 0.
      0. 0. 0. 0. 0. 0. 0. 0. 0. 0. 2.04081628e-002 2.04081628e-002 0.
      2.04081628e-002 0. 0. 0. 0. 0. 0. 0. 6.12244904e-002 0. 0. 0. 0.
      0. 0. 0. 0. 0. 0. 0. 0. 2.04081628e-002 0. 0. 0. 0. 0. 0. 0. 0. 0.
      0. 2.04081628e-002 0. 0. 6.12244904e-002 0. 0. 0. 0. 0. 0.
      2.04081628e-002 0. 2.04081628e-002 0. 0. 0. 0. 0. 0. 0. 0. 0. 0.
      4.08163257e-002 0. 0. 0. 0. 0. 0. 0. 0. 0. 0. 0. 0. 0.</_>
    <_>
      0. 0. 0. 1.01010101e-002 0. 0. 1.01010101e-002 0. 0. 0.
      5.05050495e-002 1.01010101e-002 0. 0. 0. 0. 3.03030312e-002 0. 0.
      0. 2.02020202e-002 0. 0. 1.01010101e-002 0. 0. 0. 0. 0. 0. 0. 0.
      0. 0. 0. 1.01010099e-001 0. 0. 0. 0. 0. 0. 0. 0. 0. 0. 0. 0. 0.
      1.01010101e-002 3.03030312e-002 0. 0. 0. 0. 0. 0. 0. 0. 0. 0. 0.
      0. 0. 0. 4.04040404e-002 0. 0. 0. 0. 0. 0. 0. 0. 0.
      5.05050495e-002 0. 4.04040404e-002 0. 0. 0. 0. 0. 0. 0. 0. 0. 0.
      0. 0. 0. 0. 0. 0. 1.01010101e-002 0. 0. 0. 0. 0. 0. 0. 0. 0. 0. 0.
      0. 0. 0. 0. 0. 0. 0. 0. 0. 0. 0. 0. 6.06060624e-002 0. 0. 0. 0. 0.
      0. 1.01010101e-002 0. 0. 0. 0. 0. 0. 0. 3.03030312e-002
      1.01010101e-002 0. 0. 0. 0. 0. 0. 0. 1.01010101e-002 0. 0. 0. 0.
      0. 0. 0. 0. 0. 0. 0. 0. 0. 0. 0. 0. 0. 0. 0. 0. 0. 0. 0. 0. 0. 0.
      0. 0. 0. 0. 1.01010101e-002 0. 0. 0. 0. 0. 0. 0. 0. 0.
      5.05050495e-002 2.02020202e-002 0. 0. 0. 0. 0. 0. 0. 0. 0. 0. 0.
      0. 0. 0. 0. 0. 0. 0. 0. 0. 0. 0. 0. 0. 0. 0. 1.01010101e-002 0. 0.
      0. 0. 0. 1.01010101e-002 0. 0. 3.03030312e-002 0. 0. 0. 0.
      3.03030312e-002 0. 0. 0. 0. 0. 0. 0. 0. 2.02020202e-002 0. 0. 0.
      0. 0. 0. 0. 0. 1.01010101e-002 0. 0. 0. 0. 0. 0. 0. 0. 0. 0. 0. 0.
      0. 0. 0. 0. 0. 0. 0. 0. 0. 0. 0. 0. 0. 1.01010101e-002 0. 0. 0. 0.
      0. 0. 0. 0. 0. 0. 0. 0. 0. 0. 0. 0. 0. 0. 0. 0. 2.02020202e-002 0.
      0. 0. 0. 0. 0. 0. 0. 0. 0. 0. 0. 0. 0. 0. 0. 0. 0. 0. 0. 0. 0. 0.
      0. 0. 0. 0. 0. 0. 0. 0. 2.02020202e-002 0. 0. 0. 0. 0.
      3.03030312e-002 0. 0. 0. 0. 0. 1.01010101e-002 0. 0. 0. 0. 0. 0.
      0. 0. 0. 0. 0. 0. 0. 0. 0. 0. 0. 0. 0. 0. 0. 4.04040404e-002 0. 0.
      0. 0. 0. 0. 0. 0. 0. 0. 0. 0. 0. 0. 0. 0. 6.06060624e-002 0.
      2.02020202e-002 0. 0. 0. 0. 0. 0. 4.04040404e-002 0.
      1.01010101e-002 0. 0. 0. 0. 0. 0. 0. 0. 0. 0. 0. 0. 0. 0. 0.</_>
    <_>
      0. 0. 0. 5.88235296e-002 0. 1.47058824e-002 4.41176482e-002 0. 0.
      0. 7.35294148e-002 0. 0. 0. 0. 0. 0. 0. 0. 1.47058824e-002 0. 0.
      0. 4.41176482e-002 0. 0. 0. 0. 0. 0. 0. 0. 0. 0. 0.
      2.94117648e-002 0. 0. 0. 0. 0. 0. 0. 0. 0. 0. 0. 0. 0. 0.
      1.47058824e-002 0. 0. 0. 0. 0. 0. 0. 0. 0. 0. 0. 0. 0. 0. 0. 0. 0.
      0. 0. 0. 0. 0. 0. 0. 2.94117648e-002 0. 0. 0. 0. 0. 0. 0. 0. 0.
      2.94117648e-002 0. 2.94117648e-002 0. 0. 0. 0. 0. 0. 0. 0. 0. 0.
      0. 0. 0. 0. 0. 0. 1.47058824e-002 0. 0. 0. 0. 0. 0. 0. 0. 0. 0. 0.
      0. 0. 4.41176482e-002 1.47058824e-002 0. 0. 0. 0. 0.
      1.47058824e-002 0. 0. 0. 0. 0. 0. 0. 2.94117648e-002
      1.47058824e-002 0. 0. 0. 0. 0. 0. 0. 0. 2.94117648e-002 0. 0. 0.
      0. 0. 0. 0. 0. 0. 0. 0. 0. 0. 0. 0. 0. 0. 0. 0. 0. 0. 0. 0. 0. 0.
      0. 0. 0. 0. 0. 0. 0. 0. 0. 0. 0. 0. 0. 0. 2.94117648e-002
      1.47058824e-002 0. 0. 0. 0. 0. 0. 0. 0. 2.94117648e-002 0. 0. 0.
      0. 0. 0. 0. 0. 0. 0. 0. 0. 0. 0. 0. 0. 0. 0. 0. 0. 0. 0. 0.
      1.47058824e-002 0. 0. 1.47058824e-002 4.41176482e-002 0. 0. 0. 0.
      0. 0. 0. 0. 0. 0. 0. 0. 2.94117648e-002 0. 0. 0. 0. 0. 0. 0. 0.
      4.41176482e-002 0. 0. 0. 0. 0. 0. 0. 0. 0. 0. 0. 0. 0. 0. 0. 0. 0.
      0. 0. 0. 0. 0. 0. 1.47058824e-002 0. 0. 0. 0. 0. 0. 0. 0. 0. 0. 0.
      0. 0. 0. 0. 0. 0. 0. 0. 0. 0. 0. 0. 0. 0. 0. 0. 0. 0. 0. 0. 0. 0.
      0. 0. 0. 0. 0. 0. 0. 0. 0. 0. 0. 0. 1.47058824e-002 0. 0. 0. 0. 0.
      0. 0. 0. 1.47058824e-002 0. 0. 0. 0. 0. 0. 0. 0. 0. 0. 0. 0. 0. 0.
      0. 0. 0. 0. 0. 0. 0. 0. 0. 0. 0. 0. 0. 0. 0. 0. 0. 0. 0.
      1.47058824e-002 0. 0. 0. 0. 0. 0. 2.94117648e-002 0. 0.
      2.94117648e-002 0. 0. 0. 0. 0. 0. 2.94117648e-002 0.
      1.47058824e-002 0. 0. 0. 0. 0. 0. 1.47058824e-002 0. 0. 0.
      1.47058824e-002 0. 0. 0. 1.47058824e-002 0. 0. 0. 0. 0. 0. 0. 0.
      2.94117648e-002</_>
    <_>
      0. 0. 0. 0. 0. 0. 2.29885057e-002 0. 0. 0. 0. 0. 0.
      2.29885057e-002 0. 0. 1.14942528e-002 0. 0. 2.29885057e-002
      1.14942528e-002 0. 0. 1.03448272e-001 0. 0. 0. 0. 0. 0. 0. 0. 0.
      0. 0. 5.74712642e-002 0. 0. 0. 0. 0. 1.14942528e-002 0. 0. 0. 0.
      0. 0. 0. 0. 0. 0. 0. 0. 0. 0. 0. 0. 0. 0. 0. 0. 0. 0. 0. 0.
      1.14942528e-002 0. 0. 0. 2.29885057e-002 0. 0. 0. 0.
      5.74712642e-002 0. 1.14942528e-002 0. 0. 0. 0. 0. 0. 0.
      2.29885057e-002 0. 1.14942528e-002 0. 0. 0. 0. 0. 0.
      1.14942528e-002 0. 0. 0. 0. 0. 0. 0. 0. 0. 0. 0. 0. 0. 0. 0. 0. 0.
      0. 0. 0. 0. 0. 0. 0. 0. 0. 0. 0. 0. 0. 1.14942528e-002 0. 0. 0. 0.
      0. 0. 0. 4.59770113e-002 1.14942528e-002 0. 0. 0. 0. 0.
      2.29885057e-002 0. 0. 3.44827585e-002 0. 0. 0. 0. 0. 0. 0. 0. 0.
      0. 0. 0. 0. 0. 0. 0. 0. 0. 0. 0. 0. 0. 0. 0. 0. 0. 0. 0. 0.
      3.44827585e-002 0. 0. 0. 0. 0. 0. 0. 0. 0. 0. 1.14942528e-002 0.
      1.14942528e-002 0. 0. 0. 0. 0. 0. 1.14942528e-002 0. 0. 0. 0. 0.
      0. 0. 0. 0. 0. 0. 0. 0. 0. 0. 0. 0. 0. 0. 0. 0. 0. 0.
      1.14942528e-002 0. 3.44827585e-002 0. 0. 0. 0. 0. 0. 0. 0. 0. 0.
      0. 0. 0. 0. 1.14942528e-002 0. 0. 0. 0. 0. 0. 0. 0.
      1.14942528e-002 0. 0. 0. 0. 0. 0. 0. 0. 1.14942528e-002 0. 0. 0.
      0. 0. 0. 0. 0. 0. 0. 0. 0. 0. 0. 0. 0. 0. 0. 0. 0. 0. 0. 0. 0. 0.
      0. 0. 0. 0. 0. 0. 0. 0. 0. 0. 0. 0. 2.29885057e-002 0. 0. 0. 0. 0.
      0. 0. 0. 0. 0. 0. 0. 0. 0. 0. 1.14942528e-002 0. 0. 0. 0. 0. 0.
      1.14942528e-002 0. 0. 0. 0. 0. 0. 0. 0. 0. 0. 0. 0. 0. 0.
      2.29885057e-002 1.14942528e-002 0. 0. 0. 0. 0. 0. 0. 0. 0. 0. 0.
      0. 0. 0. 0. 0. 0. 0. 0. 0. 0. 0. 3.44827585e-002 0. 0. 0.
      2.29885057e-002 0. 0. 0. 0. 0. 0. 2.29885057e-002 0. 0.
      2.29885057e-002 0. 0. 0. 0. 0. 0. 3.44827585e-002 0.
      1.14942528e-002 0. 0. 0. 0. 1.14942528e-002 0. 5.74712642e-002 0.
      0. 0. 0. 0. 0. 0. 0. 0. 0. 0. 0. 0. 0. 0. 0. 1.14942528e-002</_>
    <_>
      0. 0. 0. 1.26582282e-002 0. 0. 3.79746854e-002 0. 0. 0.
      1.26582282e-002 0. 0. 1.26582282e-002 0. 0. 0. 0. 0. 0.
      3.79746854e-002 0. 0. 1.26582280e-001 0. 0. 0. 0. 0. 0. 0. 0. 0.
      0. 0. 6.32911399e-002 0. 0. 0. 1.26582282e-002 0. 1.26582282e-002
      0. 0. 1.26582282e-002 0. 0. 0. 0. 0. 2.53164563e-002 0. 0. 0. 0.
      0. 0. 0. 0. 0. 0. 0. 0. 0. 0. 0. 0. 0. 0. 0. 0. 0. 0. 0. 0.
      3.79746854e-002 0. 1.26582282e-002 0. 0. 0. 0. 0. 0. 0. 0. 0. 0.
      0. 0. 0. 0. 0. 0. 0. 0. 0. 0. 0. 0. 0. 0. 0. 0. 0. 0. 0. 0. 0. 0.
      0. 0. 0. 0. 0. 0. 0. 0. 1.26582282e-002 0. 0. 0. 0. 0. 0.
      2.53164563e-002 0. 0. 0. 0. 0. 0. 0. 1.26582282e-002
      3.79746854e-002 0. 0. 0. 0. 0. 0. 0. 2.53164563e-002 0.
      1.26582282e-002 0. 0. 0. 0. 0. 0. 1.26582282e-002 0. 0. 0.
      1.26582282e-002 0. 0. 0. 0. 0. 0. 0. 0. 0. 0. 0. 0. 0. 0. 0. 0. 0.
      1.26582282e-002 0. 0. 0. 0. 0. 0. 0. 0. 0. 7.59493709e-002
      6.32911399e-002 0. 1.26582282e-002 0. 0. 0. 0. 0. 0. 0. 0. 0. 0.
      0. 0. 0. 0. 0. 0. 0. 0. 0. 0. 0. 0. 0. 0. 0. 0. 0. 0. 0. 0. 0. 0.
      1.26582282e-002 0. 1.26582282e-002 0. 0. 0. 0. 0. 0. 0. 0. 0. 0.
      0. 0. 0. 0. 0. 0. 0. 0. 0. 0. 0. 2.53164563e-002 0. 0. 0. 0. 0. 0.
      0. 0. 1.26582282e-002 0. 0. 0. 0. 0. 0. 0. 0. 0. 0. 0. 0. 0. 0. 0.
      0. 1.26582282e-002 0. 0. 0. 0. 0. 0. 0. 0. 0. 0. 0. 0. 0. 0. 0. 0.
      0. 0. 0. 0. 2.53164563e-002 0. 0. 0. 1.26582282e-002 0. 0. 0. 0.
      0. 0. 0. 0. 0. 0. 0. 0. 0. 1.26582282e-002 0. 0. 0. 0. 0. 0. 0. 0.
      0. 0. 0. 0. 0. 1.26582282e-002 0. 0. 0. 0. 0. 0. 0. 0. 0. 0. 0.
      1.26582282e-002 0. 0. 0. 0. 0. 0. 0. 0. 0. 0. 0. 0. 0. 0. 0. 0. 0.
      1.26582282e-002 0. 0. 0. 2.53164563e-002 0. 0. 0. 0. 0. 0. 0. 0.
      0. 1.26582282e-002 0. 0. 0. 0. 0. 0. 0. 0. 0. 0. 0. 0. 0. 0. 0.
      6.32911399e-002 0. 0. 0. 0. 0. 0. 0. 0. 0. 0. 0. 0. 0. 0. 0. 0. 0.</_>
    <_>
      0. 0. 0. 1.07526882e-002 0. 1.07526882e-002 1.07526882e-002 0. 0.
      0. 3.22580636e-002 1.07526882e-002 0. 2.15053763e-002 0. 0.
      5.37634417e-002 1.07526882e-002 0. 1.07526882e-002 0. 0. 0.
      5.37634417e-002 0. 0. 0. 0. 0. 0. 0. 0. 0. 0. 0. 1.07526882e-002
      0. 0. 0. 0. 0. 2.15053763e-002 0. 0. 0. 0. 0. 0. 0. 0.
      2.15053763e-002 0. 0. 0. 0. 0. 0. 0. 0. 0. 0. 0. 0. 0. 0.
      1.07526882e-002 0. 0. 0. 0. 0. 0. 0. 0. 0. 2.15053763e-002 0. 0.
      0. 0. 0. 0. 0. 0. 0. 3.22580636e-002 0. 3.22580636e-002 0. 0. 0.
      0. 0. 0. 4.30107526e-002 0. 0. 0. 0. 0. 0. 0. 0. 0. 0. 0. 0. 0. 0.
      0. 0. 0. 0. 0. 0. 0. 0. 0. 6.45161271e-002 0. 0. 0. 0. 0. 0. 0. 0.
      0. 0. 0. 0. 0. 0. 2.15053763e-002 2.15053763e-002 0. 0. 0. 0. 0.
      1.07526882e-002 0. 0. 0. 0. 0. 0. 0. 0. 0. 0. 0. 0. 0. 0. 0. 0. 0.
      0. 0. 0. 1.07526882e-002 0. 0. 0. 0. 0. 0. 0. 0. 0. 0. 0.
      1.07526882e-002 0. 0. 0. 0. 0. 0. 0. 0. 0. 7.52688199e-002
      1.07526882e-002 1.07526882e-002 1.07526882e-002 0. 0. 0. 0. 0. 0.
      3.22580636e-002 0. 0. 0. 0. 0. 0. 0. 0. 0. 0. 0. 0. 0. 0. 0. 0. 0.
      0. 0. 0. 0. 0. 0. 2.15053763e-002 0. 0. 2.15053763e-002
      1.07526882e-002 0. 0. 0. 0. 0. 0. 0. 0. 0. 0. 0. 0.
      1.07526882e-002 0. 0. 0. 0. 1.07526882e-002 0. 0. 0. 0. 0. 0. 0.
      0. 0. 0. 0. 0. 2.15053763e-002 0. 0. 0. 0. 0. 0. 0. 0. 0. 0. 0. 0.
      0. 0. 0. 0. 0. 0. 0. 0. 0. 0. 0. 0. 0. 0. 0. 0. 0. 0. 0. 0. 0. 0.
      0. 0. 0. 1.07526882e-002 0. 0. 0. 0. 0. 0. 0. 0. 0. 0. 0. 0. 0. 0.
      0. 1.07526882e-002 0. 0. 0. 0. 0. 0. 1.07526882e-002 0. 0. 0. 0.
      0. 0. 0. 0. 0. 0. 0. 0. 0. 0. 5.37634417e-002 0. 0. 0. 0. 0. 0. 0.
      0. 0. 0. 0. 0. 0. 0. 0. 0. 0. 0. 0. 0. 0. 0. 0. 0. 0. 0. 0.
      2.15053763e-002 0. 0. 0. 0. 0. 0. 1.07526882e-002 0. 0.
      3.22580636e-002 0. 0. 0. 0. 0. 0. 2.15053763e-002 0.
      2.15053763e-002 0. 0. 0. 0. 0. 0. 0. 0. 0. 0. 1.07526882e-002 0.
      0. 0. 0. 0. 0. 0. 0. 0. 0. 0. 0. 0.</_>
    <_>
      0. 0. 0. 3.29670347e-002 0. 0. 2.19780225e-002 0. 0. 0.
      2.19780225e-002 3.29670347e-002 0. 1.09890113e-002 0. 0.
      2.19780225e-002 0. 0. 0. 1.09890113e-002 0. 0. 6.59340695e-002 0.
      0. 0. 0. 0. 0. 0. 0. 0. 0. 0. 0. 0. 0. 0. 0. 0. 0. 0. 0. 0. 0. 0.
      0. 0. 0. 2.19780225e-002 0. 0. 0. 0. 0. 0. 0. 0. 0. 0. 0. 0. 0. 0.
      3.29670347e-002 0. 0. 0. 0. 0. 0. 0. 0. 0. 2.19780225e-002 0.
      3.29670347e-002 0. 0. 0. 0. 0. 0. 0. 4.39560451e-002 0.
      2.19780225e-002 0. 0. 0. 0. 0. 0. 1.09890113e-002 0. 0. 0. 0. 0.
      0. 0. 0. 0. 0. 0. 0. 0. 0. 0. 0. 0. 0. 0. 0. 0. 0. 0.
      1.09890113e-002 0. 0. 0. 0. 0. 0. 1.09890113e-002 0. 0. 0. 0. 0.
      0. 0. 3.29670347e-002 1.09890113e-002 0. 0. 0. 0. 0.
      3.29670347e-002 0. 2.19780225e-002 0. 0. 0. 0. 0. 0. 0. 0. 0. 0.
      0. 0. 0. 0. 0. 0. 0. 0. 0. 0. 0. 0. 0. 0. 0. 0. 0. 0. 0. 0.
      1.09890113e-002 0. 0. 0. 0. 0. 0. 0. 0. 0. 0. 1.09890113e-002 0.
      0. 0. 0. 0. 0. 0. 0. 3.29670347e-002 0. 0. 0. 0. 0. 0. 0. 0. 0. 0.
      0. 0. 0. 0. 0. 0. 0. 0. 0. 0. 0. 0. 0. 1.09890113e-002 0.
      1.09890113e-002 0. 5.49450554e-002 0. 0. 0. 0. 0. 1.09890113e-002
      0. 0. 0. 0. 0. 0. 0. 0. 0. 0. 0. 0. 0. 0. 0. 1.09890113e-002 0. 0.
      0. 0. 0. 0. 0. 0. 0. 0. 0. 0. 0. 0. 0. 0. 0. 0. 0. 0. 0. 0. 0.
      2.19780225e-002 0. 1.09890113e-002 0. 0. 0. 0. 0. 0. 0. 0. 0. 0.
      0. 0. 0. 0. 0. 0. 0. 0. 1.09890113e-002 0. 1.09890113e-002 0. 0.
      0. 0. 0. 0. 0. 0. 0. 1.09890113e-002 0. 0. 0. 0. 0. 0. 0. 0. 0. 0.
      0. 0. 2.19780225e-002 0. 0. 0. 0. 0. 0. 0. 0. 0. 0. 0. 0. 0. 0.
      2.19780225e-002 0. 0. 0. 0. 0. 0. 0. 1.09890113e-002 0. 0. 0. 0.
      0. 0. 0. 0. 0. 0. 0. 0. 0. 0. 0. 0. 0. 0. 0. 0. 0. 0.
      1.09890113e-002 0. 0. 0. 1.09890113e-002 0. 0. 1.09890113e-002 0.
      0. 0. 0. 0. 0. 6.59340695e-002 0. 5.49450554e-002 0. 0. 0. 0. 0.
      0. 3.29670347e-002 0. 0. 0. 0. 0. 0. 0. 0. 0. 0. 0. 0. 0. 0. 0. 0.
      1.09890113e-002</_>
    <_>
      0. 0. 0. 1.66666675e-002 0. 0. 0. 0. 0. 0. 1.66666675e-002 0. 0.
      1.66666675e-002 0. 0. 0. 0. 0. 0. 3.33333351e-002 0. 0.
      5.00000045e-002 0. 0. 0. 0. 0. 0. 0. 0. 0. 0. 0. 1.66666675e-002
      0. 0. 0. 0. 0. 0. 0. 0. 0. 0. 0. 0. 0. 0. 1.66666675e-002 0. 0. 0.
      0. 0. 0. 0. 0. 0. 0. 0. 0. 0. 0. 6.66666701e-002 0. 0. 0. 0. 0. 0.
      0. 0. 0. 0. 0. 1.66666675e-002 0. 0. 0. 0. 0. 0. 0. 0. 0. 0. 0. 0.
      0. 0. 0. 0. 0. 0. 0. 0. 0. 0. 0. 0. 0. 0. 0. 0. 0. 0. 0. 0. 0. 0.
      0. 0. 0. 0. 0. 0. 3.33333351e-002 0. 0. 0. 1.66666675e-002 0. 0.
      0. 0. 0. 0. 0. 0. 0. 0. 0. 0. 0. 0. 0. 0. 0. 6.66666701e-002 0.
      8.33333358e-002 0. 0. 0. 0. 0. 0. 0. 0. 0. 0. 0. 0. 0. 0. 0. 0. 0.
      0. 0. 0. 0. 0. 0. 0. 0. 0. 0. 0. 0. 0. 3.33333351e-002 0. 0. 0. 0.
      0. 0. 0. 0. 0. 1.66666675e-002 5.00000045e-002 0. 3.33333351e-002
      0. 0. 0. 0. 0. 0. 0. 0. 0. 0. 0. 0. 0. 0. 0. 0. 0. 0. 0. 0. 0. 0.
      0. 0. 0. 0. 0. 0. 0. 0. 1.66666675e-002 0. 0. 5.00000045e-002
      1.66666675e-002 0. 0. 0. 0. 0. 0. 0. 0. 0. 0. 0. 0.
      3.33333351e-002 0. 0. 0. 0. 0. 0. 0. 0. 0. 0. 0. 0. 0. 0. 0. 0. 0.
      0. 0. 0. 0. 0. 0. 0. 0. 0. 0. 0. 0. 0. 0. 0. 1.66666675e-002 0. 0.
      0. 0. 0. 0. 0. 0. 0. 0. 0. 0. 0. 0. 0. 0. 0. 0. 0. 0. 0. 0.
      5.00000045e-002 0. 0. 0. 0. 0. 0. 0. 1.66666675e-002 0. 0.
      1.66666675e-002 0. 0. 0. 0. 0. 0. 0. 0. 0. 0. 0. 0. 0. 0. 0. 0. 0.
      0. 0. 0. 1.66666675e-002 0. 0. 0. 0. 0. 1.66666675e-002 0. 0. 0.
      0. 0. 0. 0. 0. 0. 0. 0. 0. 0. 0. 0. 0. 0. 0. 0. 0. 0. 0. 0.
      3.33333351e-002 0. 0. 0. 0. 0. 0. 0. 0. 0. 0. 0. 0. 0. 0. 0. 0. 0.
      0. 0. 0. 1.66666675e-002 0. 0. 0. 0. 0. 0. 0. 0. 1.00000009e-001
      0. 0. 0. 0. 0. 0. 0. 0. 0. 0. 0. 0. 0. 0. 0. 0. 1.66666675e-002</_>
    <_>
      0. 0. 0. 1.05263162e-002 0. 0. 3.15789506e-002 0. 0. 0.
      2.10526325e-002 1.05263162e-002 0. 0. 0. 0. 1.05263162e-002 0. 0.
      0. 1.05263162e-002 0. 0. 6.31579012e-002 0. 0. 0. 0. 0. 0. 0. 0.
      0. 1.05263162e-002 0. 1.05263162e-002 0. 0. 0. 0. 0. 0. 0. 0. 0.
      0. 0. 0. 0. 0. 1.05263162e-002 0. 1.05263162e-002 0. 0. 0. 0. 0.
      0. 0. 0. 0. 0. 0. 0. 0. 0. 0. 0. 0. 0. 0. 0. 0. 0. 1.05263162e-002
      0. 1.05263162e-002 0. 0. 0. 0. 0. 0. 0. 1.05263162e-002 0.
      2.10526325e-002 0. 0. 0. 0. 0. 0. 1.05263162e-002 0. 0. 0. 0. 0.
      0. 0. 0. 0. 0. 0. 0. 0. 0. 0. 0. 0. 0. 0. 0. 0. 0. 0.
      5.26315793e-002 0. 0. 0. 0. 0. 0. 1.05263162e-002 0. 0. 0. 0. 0.
      0. 0. 4.21052650e-002 4.21052650e-002 0. 0. 0. 0. 0.
      5.26315793e-002 0. 3.15789506e-002 2.10526325e-002 0. 0. 0. 0. 0.
      0. 0. 0. 0. 0. 0. 0. 0. 0. 0. 0. 0. 1.05263162e-002 0. 0. 0. 0. 0.
      0. 0. 0. 0. 0. 0. 1.05263162e-002 0. 0. 0. 0. 0. 0. 0. 0. 0.
      7.36842155e-002 2.10526325e-002 1.05263162e-002 1.05263162e-002 0.
      0. 0. 0. 0. 0. 1.05263162e-002 0. 0. 0. 0. 0. 0. 0. 0. 0. 0.
      1.05263162e-002 0. 0. 0. 0. 0. 0. 2.10526325e-002 0. 0. 0. 0. 0.
      1.05263162e-002 0. 0. 1.05263162e-002 0. 0. 0. 0. 0. 0. 0. 0. 0.
      0. 0. 0. 0. 0. 0. 0. 0. 0. 0. 0. 0. 0. 2.10526325e-002 0. 0. 0. 0.
      0. 0. 0. 0. 0. 2.10526325e-002 0. 0. 0. 0. 0. 0. 0. 0. 0. 0. 0. 0.
      0. 0. 0. 0. 0. 4.21052650e-002 0. 1.05263162e-002 0. 0. 0. 0. 0.
      0. 0. 0. 0. 0. 0. 0. 0. 0. 0. 0. 1.05263162e-002 0. 0. 0. 0. 0. 0.
      0. 0. 0. 0. 0. 0. 0. 0. 0. 3.15789506e-002 0. 0. 0. 0. 0. 0. 0. 0.
      0. 0. 0. 0. 0. 0. 0. 0. 0. 0. 0. 0. 0. 2.10526325e-002 0. 0. 0. 0.
      0. 0. 0. 0. 0. 0. 3.15789506e-002 0. 0. 0. 0. 0. 0. 0.
      1.05263162e-002 0. 0. 0. 0. 0. 0. 0. 0. 1.05263162e-002 0. 0.
      1.05263162e-002 0. 0. 0. 1.05263162e-002 0. 0. 0. 0. 0. 0. 0. 0.
      0. 2.10526325e-002 0. 1.05263162e-002 0. 0. 0. 0. 0.
      1.05263162e-002 1.05263162e-002 0. 0. 0. 0. 0. 0. 0. 0. 0. 0. 0.
      0. 0. 0. 0. 0. 0.</_>
    <_>
      0. 0. 0. 0. 0. 0. 1.21951215e-002 0. 0. 0. 0. 1.21951215e-002 0.
      0. 0. 0. 0. 0. 0. 0. 1.21951215e-002 0. 0. 9.75609720e-002 0. 0.
      0. 0. 0. 0. 0. 0. 0. 0. 0. 0. 0. 0. 0. 0. 0. 0. 0. 0. 0. 0. 0. 0.
      0. 1.21951215e-002 0. 0. 0. 0. 0. 0. 0. 0. 0. 0. 0. 0. 0. 0. 0.
      3.65853645e-002 0. 0. 0. 0. 0. 0. 0. 0. 0. 2.43902430e-002 0. 0.
      0. 0. 0. 0. 0. 0. 0. 0. 0. 1.21951215e-002 0. 0. 0. 0. 0. 0.
      1.21951215e-002 2.43902430e-002 0. 0. 0. 0. 0. 0. 0. 0. 0. 0. 0.
      0. 0. 0. 0. 0. 0. 0. 0. 0. 0. 0. 3.65853645e-002 0. 0. 0. 0. 0. 0.
      2.43902430e-002 0. 0. 0. 0. 0. 0. 0. 3.65853645e-002
      1.21951215e-002 0. 0. 0. 0. 0. 2.43902430e-002 0. 2.43902430e-002
      0. 1.21951215e-002 0. 0. 0. 0. 0. 0. 0. 0. 0. 0. 0. 0. 0. 0. 0. 0.
      0. 0. 0. 0. 0. 0. 0. 0. 0. 0. 0. 0. 1.21951215e-002 0. 0. 0. 0. 0.
      0. 0. 0. 0. 1.21951215e-002 0. 0. 0. 0. 0. 0. 0. 0. 0.
      2.43902430e-002 0. 0. 0. 0. 0. 0. 0. 0. 0. 0. 0. 0. 0. 0. 0. 0. 0.
      0. 0. 0. 0. 0. 2.43902430e-002 0. 0. 2.43902430e-002 0.
      1.21951215e-002 0. 0. 0. 0. 0. 0. 0. 0. 0. 0. 0. 0.
      2.43902430e-002 0. 0. 0. 0. 0. 0. 0. 0. 4.87804860e-002 0. 0. 0.
      0. 0. 0. 0. 0. 0. 0. 0. 0. 0. 0. 0. 0. 0. 0. 0. 0. 0. 0. 0. 0. 0.
      1.21951215e-002 0. 0. 0. 0. 0. 0. 0. 0. 0. 0. 0. 0. 0. 0. 0. 0. 0.
      0. 0. 0. 4.87804860e-002 0. 0. 0. 0. 0. 0. 0. 2.43902430e-002 0.
      0. 0. 0. 0. 0. 0. 1.21951215e-002 0. 0. 0. 0. 0. 0.
      1.21951215e-002 0. 0. 0. 0. 0. 0. 0. 0. 4.87804860e-002 0. 0. 0.
      0. 0. 3.65853645e-002 1.21951215e-002 0. 0. 0. 0. 0. 0. 0. 0. 0.
      0. 0. 0. 0. 0. 0. 0. 0. 0. 0. 0. 1.21951215e-002 0.
      1.21951215e-002 0. 0. 0. 4.87804860e-002 0. 0. 0. 0. 0. 0. 0. 0.
      0. 1.21951215e-002 0. 0. 0. 0. 0. 0. 2.43902430e-002 0. 0. 0. 0.
      0. 0. 0. 0. 4.87804860e-002 0. 1.21951215e-002 0. 0. 0. 0. 0. 0.
      0. 0. 0. 0. 0. 0. 0. 0. 1.21951215e-002</_>
    <_>
      0. 0. 0. 2.94117667e-002 0. 0. 0. 0. 0. 0. 3.92156877e-002
      2.94117667e-002 0. 0. 0. 0. 1.96078438e-002 0. 0. 0.
      9.80392192e-003 9.80392192e-003 0. 1.27450988e-001 0. 0. 0. 0. 0.
      0. 0. 0. 0. 0. 0. 2.94117667e-002 0. 0. 0. 9.80392192e-003 0. 0.
      0. 0. 0. 0. 0. 0. 0. 0. 0. 0. 0. 0. 0. 0. 0. 0. 0. 0. 0. 0. 0. 0.
      0. 0. 0. 0. 0. 0. 9.80392192e-003 0. 0. 0. 0. 1.96078438e-002 0.
      9.80392192e-003 0. 0. 0. 0. 0. 0. 0. 2.94117667e-002 0.
      2.94117667e-002 0. 0. 0. 0. 0. 0. 0. 9.80392192e-003 0. 0. 0. 0.
      0. 0. 0. 0. 0. 0. 0. 0. 0. 0. 0. 0. 0. 0. 0. 0. 0. 0.
      6.86274543e-002 0. 0. 0. 0. 0. 0. 1.96078438e-002 0. 0. 0. 0. 0.
      0. 0. 1.96078438e-002 9.80392192e-003 0. 0. 0. 0. 0. 0. 0.
      9.80392192e-003 0. 9.80392192e-003 0. 0. 0. 0. 0. 0. 0. 0. 0. 0.
      0. 0. 0. 0. 0. 0. 0. 0. 0. 0. 0. 0. 0. 0. 0. 0. 0. 0.
      9.80392192e-003 0. 0. 0. 0. 0. 0. 0. 0. 0. 2.94117667e-002
      9.80392192e-003 0. 0. 0. 0. 0. 0. 0. 0. 3.92156877e-002 0. 0. 0.
      0. 0. 0. 0. 0. 0. 9.80392192e-003 0. 0. 0. 0. 0. 0. 0.
      1.96078438e-002 0. 0. 0. 0. 9.80392192e-003 2.94117667e-002 0.
      9.80392192e-003 1.96078438e-002 1.96078438e-002 0. 0. 0. 0. 0. 0.
      0. 0. 0. 0. 0. 0. 0. 0. 0. 0. 0. 1.96078438e-002 0. 0. 0. 0. 0. 0.
      0. 0. 0. 0. 0. 0. 0. 0. 0. 0. 0. 0. 0. 0. 0. 0. 0. 0. 0. 0. 0.
      9.80392192e-003 0. 9.80392192e-003 0. 0. 0. 0. 0. 0. 0. 0. 0. 0.
      0. 0. 0. 0. 0. 0. 0. 0. 9.80392192e-003 0. 2.94117667e-002 0. 0.
      0. 9.80392192e-003 0. 0. 0. 0. 0. 0. 0. 0. 0. 0. 0. 0. 0.
      9.80392192e-003 0. 0. 0. 0. 0. 0. 0. 0. 0. 0. 0. 0. 0.
      3.92156877e-002 0. 0. 0. 0. 0. 1.96078438e-002 0. 0. 0. 0. 0. 0.
      0. 0. 0. 0. 0. 0. 0. 0. 0. 9.80392192e-003 0. 0. 0. 0. 0. 0. 0. 0.
      0. 0. 0. 2.94117667e-002 0. 0. 0. 0. 0. 0. 9.80392192e-003 0. 0.
      0. 0. 0. 0. 0. 0. 9.80392192e-003 0. 0. 0. 0. 0. 0. 0. 0. 0. 0. 0.
      0. 0. 0. 0. 0. 0. 9.80392192e-003 0. 0. 0. 0. 0. 0. 0. 0.
      1.96078438e-002</_>
    <_>
      0. 0. 0. 3.12500000e-002 0. 0. 0. 0. 0. 0. 5.20833358e-002 0. 0.
      0. 0. 0. 0. 0. 1.04166670e-002 0. 1.04166670e-002 0. 0.
      9.37500000e-002 0. 0. 0. 0. 0. 0. 0. 0. 0. 3.12500000e-002 0.
      1.25000000e-001 0. 0. 0. 0. 0. 0. 0. 0. 0. 0. 0. 0. 0. 0.
      1.04166670e-002 0. 0. 0. 0. 0. 0. 0. 0. 0. 0. 0. 0. 0. 0.
      5.20833358e-002 0. 0. 0. 0. 0. 0. 0. 0. 0. 0. 0. 1.04166670e-002
      0. 0. 0. 0. 0. 0. 0. 1.04166670e-002 0. 1.04166670e-002 0. 0. 0.
      0. 0. 0. 0. 0. 0. 0. 0. 0. 0. 0. 0. 0. 0. 0. 0. 0. 0. 0. 0. 0. 0.
      0. 0. 0. 0. 0. 5.20833358e-002 0. 0. 0. 0. 0. 0. 2.08333340e-002
      0. 0. 1.04166670e-002 0. 0. 0. 0. 2.08333340e-002 0. 0. 0. 0. 0.
      0. 0. 0. 0. 1.04166670e-002 0. 0. 0. 0. 0. 0. 0. 0. 0. 0. 0. 0. 0.
      0. 0. 0. 0. 0. 0. 0. 0. 0. 0. 0. 0. 0. 0. 0. 0. 1.04166670e-002 0.
      0. 0. 0. 0. 0. 0. 0. 0. 0. 0. 0. 0. 0. 0. 0. 0. 0. 0.
      1.04166670e-002 0. 0. 0. 0. 0. 0. 0. 0. 0. 0. 0. 0. 0. 0. 0. 0. 0.
      0. 0. 0. 0. 0. 0. 0. 0. 1.04166670e-002 0. 3.12500000e-002 0. 0.
      0. 0. 0. 1.04166670e-002 0. 0. 0. 0. 0. 0. 0. 0. 0. 0. 0. 0. 0. 0.
      0. 1.04166670e-002 0. 0. 0. 0. 0. 0. 0. 0. 0. 0. 0. 0. 0. 0. 0. 0.
      0. 0. 0. 0. 0. 0. 0. 3.12500000e-002 0. 0. 0. 0. 0. 0. 0. 0. 0. 0.
      0. 0. 0. 0. 0. 0. 0. 0. 0. 0. 0. 0. 3.12500000e-002 0. 0. 0. 0. 0.
      0. 0. 2.08333340e-002 0. 0. 1.04166670e-002 0. 0. 0. 0.
      1.04166670e-002 0. 0. 0. 0. 0. 0. 3.12500000e-002 0. 0. 0. 0. 0.
      0. 0. 0. 1.04166670e-002 0. 0. 0. 0. 0. 2.08333340e-002 0. 0. 0.
      0. 0. 1.04166670e-002 0. 0. 0. 0. 3.12500000e-002 0. 0. 0. 0. 0.
      0. 0. 0. 0. 0. 0. 0. 0. 0. 0. 0. 1.04166670e-002 0. 0.
      1.04166670e-002 0. 0. 0. 3.12500000e-002 0. 0. 1.04166670e-002 0.
      0. 0. 0. 0. 0. 3.12500000e-002 0. 1.04166670e-002 0. 0. 0. 0.
      1.04166670e-002 0. 3.12500000e-002 0. 0. 0. 0. 0. 0. 0. 0. 0. 0.
      0. 0. 0. 0. 0. 0. 0.</_>
    <_>
      0. 0. 0. 0. 0. 0. 1.05263162e-002 0. 0. 0. 7.36842155e-002
      2.10526325e-002 0. 1.05263162e-002 0. 0. 0. 0. 0. 0.
      2.10526325e-002 0. 0. 9.47368443e-002 0. 0. 0. 0. 0. 0. 0. 0. 0.
      0. 0. 5.26315793e-002 0. 0. 0. 0. 0. 1.05263162e-002 0. 0. 0. 0.
      0. 0. 0. 1.05263162e-002 0. 0. 0. 0. 0. 0. 0. 0. 0. 0. 0. 0. 0. 0.
      0. 5.26315793e-002 0. 0. 0. 0. 0. 0. 0. 0. 0. 1.05263162e-002 0.
      2.10526325e-002 0. 0. 0. 0. 0. 0. 0. 8.42105299e-002 0.
      3.15789506e-002 0. 0. 0. 0. 0. 0. 0. 1.05263162e-002 0. 0. 0. 0.
      1.05263162e-002 0. 0. 0. 0. 0. 0. 0. 0. 0. 0. 0. 0. 0. 0. 0. 0. 0.
      3.15789506e-002 0. 0. 0. 0. 0. 0. 3.15789506e-002 0. 0. 0. 0. 0.
      0. 0. 2.10526325e-002 0. 0. 0. 0. 0. 0. 0. 0. 0. 0. 0. 0. 0. 0. 0.
      0. 0. 1.05263162e-002 0. 0. 0. 0. 0. 0. 0. 0. 0. 0. 0. 0. 0. 0. 0.
      0. 0. 0. 0. 0. 0. 2.10526325e-002 0. 0. 0. 0. 0. 0. 0. 0. 0.
      2.10526325e-002 2.10526325e-002 0. 0. 0. 0. 0. 0. 0. 0. 0. 0. 0.
      0. 0. 0. 0. 0. 0. 0. 0. 0. 0. 0. 0. 0. 0. 0. 0. 0. 0. 0. 0. 0.
      2.10526325e-002 0. 0. 3.15789506e-002 0. 0. 0. 0. 4.21052650e-002
      0. 0. 0. 0. 0. 0. 0. 0. 1.05263162e-002 0. 0. 0. 0. 0. 0. 0. 0. 0.
      0. 0. 0. 0. 0. 0. 0. 0. 0. 0. 0. 0. 0. 0. 0. 0. 0. 0. 0. 0. 0. 0.
      0. 0. 0. 0. 0. 0. 0. 0. 0. 0. 0. 0. 0. 0. 0. 0. 0. 0. 0. 0. 0. 0.
      0. 0. 0. 0. 0. 0. 0. 0. 0. 0. 0. 0. 0. 2.10526325e-002 0. 0. 0. 0.
      0. 0. 1.05263162e-002 0. 0. 0. 0. 3.15789506e-002 0. 0. 0. 0. 0.
      0. 0. 0. 0. 0. 0. 0. 0. 0. 1.05263162e-002 3.15789506e-002 0. 0.
      0. 0. 1.05263162e-002 0. 0. 0. 0. 0. 0. 0. 0. 0. 0. 0. 0. 0. 0. 0.
      0. 0. 0. 0. 0. 0. 3.15789506e-002 0. 0. 0. 0. 0. 0. 0. 0. 0.
      1.05263162e-002 0. 0. 0. 0. 0. 0. 2.10526325e-002 0. 0. 0. 0. 0.
      0. 0. 0. 3.15789506e-002 0. 0. 0. 0. 0. 0. 0. 0. 0. 0. 0. 0. 0. 0.
      0. 0. 0.</_>
    <_>
      0. 0. 0. 2.15053763e-002 0. 0. 1.07526882e-002 0. 0. 0.
      3.22580636e-002 1.07526882e-002 0. 0. 0. 0. 0. 0. 0.
      1.07526882e-002 5.37634417e-002 0. 0. 9.67741907e-002 0. 0. 0. 0.
      0. 0. 0. 0. 0. 0. 0. 3.22580636e-002 0. 0. 0. 0. 0. 0. 0. 0. 0. 0.
      0. 0. 0. 0. 0. 0. 0. 0. 0. 0. 0. 0. 0. 0. 0. 0. 0. 0. 0. 0. 0. 0.
      0. 0. 0. 0. 0. 0. 0. 1.07526882e-002 0. 1.07526882e-002 0. 0. 0.
      0. 0. 0. 0. 1.07526882e-002 0. 0. 0. 0. 0. 0. 0. 0. 0. 0. 0. 0. 0.
      0. 0. 0. 0. 0. 0. 0. 0. 0. 0. 0. 0. 0. 0. 0. 0. 0. 0. 0.
      1.07526882e-002 0. 0. 0. 0. 0. 0. 3.22580636e-002 0. 0. 0. 0. 0.
      0. 0. 5.37634417e-002 3.22580636e-002 0. 0. 0. 0. 0. 0. 0.
      2.15053763e-002 1.07526882e-002 1.07526882e-002 0. 0. 0. 0. 0. 0.
      1.07526882e-002 0. 0. 0. 0. 0. 0. 0. 0. 0. 0. 0. 0. 0. 0. 0. 0. 0.
      0. 0. 0. 0. 3.22580636e-002 0. 0. 0. 0. 0. 0. 0. 0. 0.
      2.15053763e-002 3.22580636e-002 0. 2.15053763e-002 0. 0. 0. 0. 0.
      0. 1.07526882e-002 0. 0. 0. 0. 0. 0. 0. 0. 0. 1.07526882e-002 0.
      0. 0. 0. 0. 0. 0. 1.07526882e-002 0. 0. 0. 0. 0. 2.15053763e-002
      0. 0. 0. 1.07526882e-002 0. 0. 0. 1.07526882e-002 0. 0. 0. 0. 0.
      0. 0. 0. 1.07526882e-002 0. 0. 0. 0. 0. 0. 0. 0. 0. 0. 0. 0. 0. 0.
      0. 0. 0. 0. 0. 0. 0. 0. 0. 0. 0. 0. 0. 0. 0. 0. 0. 0.
      3.22580636e-002 0. 0. 0. 1.07526882e-002 0. 0. 0. 0. 0. 0. 0. 0.
      1.07526882e-002 0. 0. 0. 0. 0. 0. 0. 0. 0. 3.22580636e-002 0. 0.
      0. 0. 0. 0. 0. 1.07526882e-002 0. 0. 2.15053763e-002 0. 0. 0. 0.
      1.07526882e-002 0. 0. 0. 0. 0. 0. 3.22580636e-002 1.07526882e-002
      0. 0. 0. 0. 0. 0. 0. 0. 0. 0. 0. 0. 0. 2.15053763e-002 0. 0. 0. 0.
      0. 0. 0. 0. 0. 0. 1.07526882e-002 0. 0. 0. 0. 0. 0. 0. 0. 0. 0. 0.
      0. 1.07526882e-002 0. 0. 0. 4.30107526e-002 0. 0. 0. 0. 0. 0. 0.
      0. 0. 0. 0. 0. 0. 0. 0. 0. 2.15053763e-002 0. 0. 0. 0. 0. 0.
      1.07526882e-002 0. 0. 0. 2.15053763e-002 0. 1.07526882e-002 0. 0.
      0. 0. 0. 0. 0. 0. 0. 0. 0. 0. 0.</_>
    <_>
      0. 0. 0. 3.40909101e-002 0. 0. 0. 0. 0. 0. 3.40909101e-002 0. 0.
      1.13636367e-002 0. 0. 2.27272734e-002 0. 0. 0. 0. 0. 0.
      3.40909101e-002 0. 0. 0. 0. 0. 0. 0. 0. 0. 0. 0. 9.09090936e-002
      0. 0. 0. 0. 0. 0. 0. 0. 0. 0. 0. 0. 0. 1.13636367e-002 0. 0.
      1.13636367e-002 0. 0. 0. 0. 0. 0. 0. 0. 0. 0. 0. 0.
      2.27272734e-002 0. 0. 0. 0. 0. 0. 0. 0. 0. 2.27272734e-002 0.
      2.27272734e-002 0. 0. 0. 0. 0. 0. 0. 0. 0. 4.54545468e-002 0. 0.
      0. 0. 0. 0. 1.13636367e-002 0. 0. 0. 0. 0. 0. 0. 0. 0. 0. 0. 0. 0.
      0. 0. 0. 0. 0. 0. 0. 0. 0. 0. 0. 0. 0. 0. 0. 0. 0. 3.40909101e-002
      0. 0. 0. 0. 0. 0. 0. 0. 0. 0. 0. 0. 0. 0. 2.27272734e-002 0.
      1.13636367e-002 3.40909101e-002 0. 0. 0. 0. 1.13636367e-002 0. 0.
      0. 0. 0. 0. 0. 0. 0. 0. 0. 0. 1.13636367e-002 0. 0. 0. 0. 0. 0. 0.
      0. 0. 0. 0. 7.95454532e-002 0. 0. 1.13636367e-002 0. 0. 0. 0. 0.
      0. 2.27272734e-002 2.27272734e-002 0. 0. 0. 0. 0. 0. 0. 0. 0. 0.
      0. 0. 0. 0. 0. 0. 0. 0. 0. 0. 0. 0. 0. 0. 0. 0. 0. 0. 0. 0.
      1.13636367e-002 0. 1.13636367e-002 0. 0. 2.27272734e-002
      5.68181835e-002 0. 0. 0. 0. 0. 0. 0. 0. 0. 0. 0. 0. 0. 0. 0. 0. 0.
      0. 0. 0. 0. 1.13636367e-002 0. 0. 0. 0. 0. 0. 0. 0. 0. 0. 0. 0. 0.
      0. 0. 0. 0. 0. 0. 0. 0. 0. 0. 2.27272734e-002 0. 0. 0.
      1.13636367e-002 0. 0. 0. 0. 0. 0. 0. 0. 0. 0. 0. 0. 0. 0. 0. 0.
      2.27272734e-002 0. 0. 0. 0. 0. 0. 0. 0. 0. 0. 0. 0.
      1.13636367e-002 0. 0. 0. 0. 0. 0. 0. 0. 0. 0. 0. 1.13636367e-002
      0. 0. 0. 0. 0. 0. 0. 0. 1.13636367e-002 0. 0. 0. 0. 0.
      1.13636367e-002 0. 0. 0. 0. 0. 2.27272734e-002 0. 0. 0. 0. 0. 0.
      0. 0. 0. 0. 0. 0. 0. 0. 0. 0. 0. 0. 0. 0. 0. 0. 0. 0. 0. 0. 0. 0.
      4.54545468e-002 0. 0. 1.13636367e-002 0. 0. 0. 0. 0. 0.
      3.40909101e-002 0. 1.13636367e-002 0. 0. 0. 0. 0. 0.
      2.27272734e-002 0. 0. 0. 0. 0. 0. 0. 0. 0. 0. 0. 0. 0. 0. 0. 0. 0.</_>
    <_>
      0. 0. 0. 4.85436916e-002 0. 0. 0. 0. 0. 0. 5.82524277e-002 0.
      9.70873795e-003 1.94174759e-002 0. 0. 9.70873795e-003 0. 0. 0.
      9.70873795e-003 0. 0. 6.79611638e-002 0. 0. 0. 0. 0. 0. 0. 0. 0.
      0. 0. 9.70873795e-003 0. 0. 0. 0. 0. 0. 0. 0. 0. 0. 0. 0. 0. 0.
      9.70873795e-003 0. 9.70873795e-003 0. 0. 0. 0. 0. 0. 0. 0. 0. 0.
      0. 0. 3.88349518e-002 0. 0. 0. 0. 0. 0. 0. 0. 0. 3.88349518e-002
      0. 2.91262139e-002 0. 0. 0. 0. 0. 0. 0. 2.91262139e-002 0.
      3.88349518e-002 0. 0. 0. 0. 0. 0. 0. 9.70873795e-003 0. 0. 0. 0.
      0. 0. 0. 0. 0. 0. 0. 0. 0. 0. 0. 0. 0. 0. 0. 0. 0. 0. 0. 0. 0. 0.
      0. 0. 0. 9.70873795e-003 0. 0. 0. 0. 0. 0. 0. 0. 9.70873795e-003
      0. 0. 0. 0. 0. 9.70873795e-003 0. 1.94174759e-002 9.70873795e-003
      0. 0. 0. 0. 0. 0. 0. 0. 0. 0. 0. 0. 0. 0. 0. 0. 0. 0. 0. 0. 0. 0.
      0. 0. 0. 0. 0. 0. 0. 1.94174759e-002 0. 0. 0. 0. 0. 0. 0. 0. 0.
      2.91262139e-002 2.91262139e-002 0. 0. 0. 0. 0. 0. 0. 0.
      9.70873795e-003 0. 0. 0. 0. 0. 0. 0. 0. 0. 0. 0. 0. 0. 0. 0. 0. 0.
      0. 0. 0. 9.70873795e-003 0. 0. 9.70873795e-003 0. 0.
      2.91262139e-002 2.91262139e-002 0. 0. 0. 0. 0. 0. 0. 0. 0. 0. 0.
      0. 0. 0. 0. 0. 0. 3.88349518e-002 0. 0. 0. 1.94174759e-002
      9.70873795e-003 0. 0. 0. 0. 0. 0. 0. 0. 0. 0. 0. 0. 0. 0. 0. 0. 0.
      0. 0. 0. 0. 0. 1.94174759e-002 0. 0. 0. 0. 0. 0. 0. 0. 0. 0. 0. 0.
      0. 0. 0. 0. 0. 0. 0. 0. 9.70873795e-003 0. 2.91262139e-002 0. 0.
      0. 0. 0. 0. 0. 0. 0. 0. 0. 0. 0. 0. 0. 9.70873795e-003 0. 0. 0. 0.
      0. 0. 9.70873795e-003 0. 0. 0. 0. 0. 0. 0. 0. 9.70873795e-003 0.
      0. 0. 0. 0. 2.91262139e-002 0. 0. 0. 0. 0. 9.70873795e-003 0. 0.
      0. 0. 0. 0. 0. 0. 0. 0. 0. 0. 0. 0. 0. 1.94174759e-002 0. 0. 0. 0.
      0. 0. 0. 0. 0. 0. 0. 0. 0. 0. 0. 9.70873795e-003 0. 0. 0. 0. 0. 0.
      3.88349518e-002 0. 9.70873795e-003 0. 0. 0. 9.70873795e-003 0. 0.
      5.82524277e-002 0. 0. 0. 0. 0. 0. 0. 0. 0. 0. 0. 0. 0. 0. 0. 0. 0.</_>
    <_>
      0. 0. 0. 1.66666675e-002 0. 0. 5.00000045e-002 0. 0. 0.
      4.16666679e-002 0. 0. 8.33333377e-003 0. 0. 0. 0. 0.
      1.66666675e-002 1.66666675e-002 0. 0. 1.00000009e-001 0. 0. 0. 0.
      0. 0. 0. 0. 8.33333377e-003 0. 0. 1.16666675e-001 0. 0. 0. 0. 0.
      8.33333377e-003 0. 0. 8.33333377e-003 0. 0. 0. 0. 0. 0. 0. 0. 0.
      0. 0. 0. 0. 0. 0. 0. 0. 0. 0. 0. 8.33333377e-003 8.33333377e-003
      0. 0. 0. 0. 0. 0. 0. 0. 4.16666679e-002 0. 1.66666675e-002 0. 0.
      0. 0. 0. 0. 0. 1.66666675e-002 0. 1.66666675e-002 0. 0. 0. 0. 0.
      0. 0. 0. 0. 0. 0. 0. 0. 0. 0. 0. 0. 0. 0. 0. 0. 0. 0. 0. 0. 0. 0.
      0. 0. 0. 5.83333373e-002 0. 0. 0. 0. 0. 0. 2.50000022e-002 0. 0.
      0. 0. 0. 0. 0. 2.50000022e-002 8.33333377e-003 0. 0. 0. 0. 0.
      8.33333377e-003 0. 0. 3.33333351e-002 0. 0. 0. 0. 0. 0. 0.
      8.33333377e-003 0. 0. 0. 0. 0. 0. 0. 0. 0. 0. 0. 0. 0. 0. 0. 0. 0.
      0. 0. 0. 0. 3.33333351e-002 0. 0. 0. 0. 0. 0. 0. 0. 0.
      5.00000045e-002 1.66666675e-002 0. 8.33333377e-003 0. 0. 0. 0. 0.
      0. 1.66666675e-002 0. 0. 0. 0. 0. 0. 0. 0. 0. 0. 0. 0. 0. 0. 0. 0.
      0. 0. 0. 0. 0. 0. 0. 1.66666675e-002 0. 0. 2.50000022e-002
      2.50000022e-002 0. 0. 0. 8.33333377e-003 0. 0. 0. 0. 0. 0. 0. 0.
      0. 0. 0. 0. 0. 0. 0. 0. 0. 0. 8.33333377e-003 0. 0. 0. 0. 0. 0. 0.
      0. 0. 0. 0. 0. 0. 0. 0. 0. 0. 0. 0. 0. 0. 0. 0. 0. 0. 0. 0. 0. 0.
      0. 0. 0. 0. 0. 0. 0. 0. 0. 0. 0. 0. 0. 0. 0. 0. 1.66666675e-002 0.
      0. 0. 0. 0. 0. 0. 0. 0. 0. 0. 0. 0. 0. 0. 0. 0. 0. 0. 0. 0. 0.
      3.33333351e-002 0. 0. 0. 0. 0. 0. 0. 0. 8.33333377e-003 0. 0. 0.
      0. 0. 0. 0. 0. 0. 0. 0. 0. 0. 0. 8.33333377e-003 0. 0. 0. 0. 0. 0.
      0. 0. 0. 0. 0. 0. 0. 0. 0. 0. 0. 0. 1.66666675e-002 0. 0. 0. 0. 0.
      0. 0. 0. 0. 8.33333377e-003 0. 0. 0. 0. 0. 0. 1.66666675e-002 0.
      0. 0. 0. 0. 0. 0. 0. 0. 0. 0. 0. 0. 0. 0. 0. 0. 0. 0. 0. 0. 0. 0.
      0. 0. 1.66666675e-002</_>
    <_>
      0. 0. 0. 0. 0. 0. 4.67289686e-002 0. 0. 0. 8.41121450e-002 0. 0.
      3.73831764e-002 0. 0. 9.34579410e-003 0. 0. 0. 0. 9.34579410e-003
      0. 1.21495321e-001 0. 0. 0. 0. 0. 0. 0. 0. 0. 0. 0.
      2.80373823e-002 0. 0. 0. 9.34579410e-003 0. 0. 0. 0. 0. 0. 0. 0.
      0. 9.34579410e-003 0. 0. 0. 0. 0. 0. 0. 0. 0. 0. 0. 0. 0.
      9.34579410e-003 0. 9.34579410e-003 9.34579410e-003 0. 0. 0. 0. 0.
      0. 0. 0. 9.34579410e-003 0. 1.86915882e-002 0. 0. 0. 0. 0. 0. 0.
      2.80373823e-002 0. 1.86915882e-002 0. 0. 0. 0. 0. 0. 0. 0. 0. 0.
      0. 0. 0. 0. 0. 0. 0. 0. 0. 0. 0. 0. 0. 0. 0. 0. 0. 0. 0. 0.
      8.41121450e-002 0. 0. 0. 0. 0. 0. 1.86915882e-002 0. 0. 0. 0. 0.
      0. 0. 2.80373823e-002 1.86915882e-002 0. 0. 0. 0. 0. 0. 0. 0. 0.
      0. 0. 0. 0. 0. 0. 0. 0. 0. 0. 0. 0. 0. 0. 0. 0. 0. 0. 0. 0. 0. 0.
      0. 0. 0. 0. 0. 0. 0. 3.73831764e-002 0. 0. 0. 0. 0. 0. 0. 0. 0. 0.
      4.67289686e-002 0. 0. 0. 0. 0. 0. 0. 0. 0. 0. 0. 0. 0. 0. 0. 0. 0.
      0. 0. 0. 0. 0. 0. 0. 0. 0. 0. 0. 0. 0. 0. 9.34579410e-003
      1.86915882e-002 0. 0. 9.34579410e-003 9.34579410e-003 0. 0. 0.
      9.34579410e-003 0. 0. 0. 0. 0. 0. 0. 0. 2.80373823e-002 0. 0. 0.
      0. 9.34579410e-003 0. 0. 0. 0. 0. 0. 0. 0. 0. 0. 0. 0. 0. 0. 0. 0.
      0. 0. 0. 0. 0. 0. 0. 0. 0. 0. 0. 1.86915882e-002 0. 0. 0. 0. 0. 0.
      0. 0. 0. 0. 0. 0. 0. 0. 0. 0. 0. 0. 0. 0. 0. 0. 2.80373823e-002 0.
      0. 0. 0. 0. 0. 0. 0. 0. 0. 0. 0. 0. 0. 0. 0. 0. 0. 0. 0. 0. 0.
      9.34579410e-003 0. 0. 0. 0. 0. 0. 0. 0. 1.86915882e-002 0. 0. 0.
      0. 0. 9.34579410e-003 1.86915882e-002 0. 0. 0. 0. 2.80373823e-002
      0. 0. 0. 0. 9.34579410e-003 0. 0. 0. 0. 0. 0. 0. 0. 0. 0. 0. 0. 0.
      0. 0. 0. 1.86915882e-002 0. 0. 0. 0. 0. 0. 9.34579410e-003 0. 0.
      9.34579410e-003 0. 0. 0. 0. 0. 0. 0. 0. 0. 0. 0. 0. 0.
      9.34579410e-003 0. 2.80373823e-002 0. 0. 0. 0. 0. 0. 0. 0. 0. 0.
      0. 0. 0. 0. 0. 0. 0.</_>
    <_>
      0. 0. 0. 0. 0. 0. 7.05882385e-002 0. 0. 0. 0. 0. 0. 0. 0. 0.
      1.17647061e-002 0. 0. 0. 1.17647061e-002 1.17647061e-002 0.
      1.41176477e-001 0. 0. 0. 0. 0. 0. 0. 0. 0. 0. 0. 9.41176489e-002
      0. 0. 0. 0. 0. 1.17647061e-002 0. 0. 0. 0. 0. 0. 0. 0.
      1.17647061e-002 0. 0. 0. 0. 0. 0. 0. 0. 0. 0. 0. 0. 0. 0.
      3.52941193e-002 0. 0. 0. 0. 0. 0. 0. 0. 0. 3.52941193e-002 0.
      1.17647061e-002 0. 0. 0. 0. 0. 0. 0. 1.17647061e-002 0. 0. 0. 0.
      0. 0. 0. 0. 0. 0. 0. 0. 0. 0. 0. 0. 0. 0. 0. 1.17647061e-002 0. 0.
      0. 0. 0. 0. 0. 0. 0. 0. 0. 0. 9.41176489e-002 0. 0. 0. 0. 0. 0.
      2.35294122e-002 0. 0. 0. 0. 0. 0. 0. 3.52941193e-002 0. 0. 0. 0.
      0. 0. 4.70588244e-002 0. 0. 0. 0. 0. 0. 0. 0. 0. 0. 0. 0. 0. 0. 0.
      0. 0. 0. 0. 0. 0. 0. 0. 0. 0. 0. 0. 0. 0. 0. 0. 0. 9.41176489e-002
      0. 0. 0. 0. 0. 0. 0. 0. 0. 3.52941193e-002 1.17647061e-002 0.
      1.17647061e-002 0. 0. 0. 0. 0. 0. 0. 0. 0. 0. 0. 0. 0. 0. 0. 0. 0.
      0. 0. 0. 0. 0. 0. 0. 0. 0. 0. 0. 0. 0. 1.17647061e-002 0. 0.
      3.52941193e-002 0. 0. 0. 0. 0. 0. 0. 0. 0. 0. 0. 0. 0. 0. 0. 0. 0.
      0. 0. 0. 0. 1.17647061e-002 0. 0. 0. 0. 0. 0. 0. 0. 0. 0. 0. 0. 0.
      0. 0. 0. 0. 0. 0. 0. 0. 0. 0. 0. 0. 0. 0. 0. 0. 0. 0. 0. 0. 0. 0.
      0. 0. 0. 0. 0. 0. 0. 0. 0. 0. 0. 0. 2.35294122e-002 0. 0. 0. 0. 0.
      0. 0. 0. 0. 1.17647061e-002 0. 0. 0. 0. 0. 1.17647061e-002 0. 0.
      0. 0. 0. 0. 3.52941193e-002 0. 0. 0. 0. 0. 0. 0. 0.
      1.17647061e-002 0. 0. 0. 0. 0. 0. 0. 0. 0. 0. 0. 0. 0. 0. 0. 0. 0.
      0. 0. 0. 0. 0. 0. 0. 0. 0. 0. 0. 0. 0. 0. 0. 0. 0. 0. 0. 0. 0. 0.
      0. 0. 0. 0. 0. 0. 0. 0. 0. 0. 0. 2.35294122e-002 0. 0. 0. 0. 0. 0.
      0. 0. 0. 0. 0. 0. 0. 0. 0. 0. 0. 0. 0. 0. 0. 0. 0. 0. 0. 0.</_>
    <_>
      0. 0. 0. 2.38095261e-002 0. 0. 1.58730168e-002 0. 0. 0.
      5.55555597e-002 0. 0. 0. 0. 0. 7.93650839e-003 0. 0. 0.
      5.55555597e-002 0. 0. 1.11111119e-001 0. 0. 0. 0. 0. 0. 0. 0. 0.
      0. 0. 5.55555597e-002 0. 0. 0. 0. 0. 0. 0. 0. 0. 0. 0. 0. 0. 0. 0.
      0. 0. 0. 0. 0. 0. 0. 0. 0. 0. 0. 0. 0. 0. 2.38095261e-002 0. 0. 0.
      0. 0. 0. 0. 0. 0. 7.93650839e-003 0. 1.58730168e-002 0. 0. 0.
      7.93650839e-003 0. 0. 0. 1.58730168e-002 0. 1.58730168e-002 0. 0.
      0. 0. 0. 0. 0. 0. 0. 0. 0. 0. 0. 0. 0. 0. 0. 0. 0. 0. 0. 0. 0. 0.
      0. 0. 0. 0. 0. 0. 5.55555597e-002 0. 0. 0. 0. 0. 0.
      1.58730168e-002 0. 0. 0. 0. 0. 0. 0. 7.93650839e-003
      7.93650839e-003 0. 0. 0. 0. 0. 7.93650839e-003 0. 1.58730168e-002
      0. 0. 0. 0. 0. 0. 0. 0. 0. 0. 0. 0. 0. 0. 0. 0. 0. 0. 0. 0. 0. 0.
      0. 0. 0. 0. 0. 0. 0. 0. 4.76190522e-002 0. 0. 0. 0. 0. 0. 0. 0. 0.
      3.96825410e-002 7.93650821e-002 0. 0. 0. 0. 0. 0. 0. 0. 0. 0. 0.
      0. 0. 0. 0. 0. 0. 0. 0. 0. 0. 0. 0. 0. 0. 0. 0. 0. 0. 0. 0. 0. 0.
      0. 0. 0. 0. 0. 0. 0. 0. 0. 0. 0. 0. 0. 0. 0. 0. 0. 0. 0. 0. 0.
      7.93650839e-003 0. 0. 7.93650839e-003 7.93650839e-003 0. 0. 0. 0.
      0. 0. 0. 0. 0. 0. 0. 0. 0. 0. 0. 0. 0. 0. 0. 0. 0. 0. 0.
      7.93650839e-003 0. 0. 0. 0. 0. 0. 0. 0. 0. 0. 0. 0. 0. 0. 0. 0. 0.
      0. 0. 0. 0. 0. 3.17460336e-002 0. 0. 0. 0. 0. 0. 0. 0. 0. 0.
      7.93650839e-003 0. 0. 0. 0. 0. 0. 0. 0. 0. 0. 0. 4.76190522e-002
      0. 0. 0. 0. 0. 0. 0. 0. 1.58730168e-002 0. 0. 0. 0. 0.
      7.93650839e-003 1.58730168e-002 0. 0. 0. 0. 7.93650839e-003 0. 0.
      0. 0. 0. 0. 0. 0. 0. 0. 0. 0. 0. 0. 0. 0. 0. 0. 0. 0. 0.
      1.58730168e-002 0. 0. 0. 0. 0. 0. 7.93650839e-003 0. 0.
      2.38095261e-002 0. 0. 0. 0. 0. 0. 6.34920672e-002 0. 0. 0. 0. 0.
      0. 0. 0. 3.17460336e-002 0. 0. 0. 0. 0. 0. 0. 0. 0. 0. 0. 0. 0. 0.
      0. 0. 0.</_>
    <_>
      0. 0. 0. 9.25925933e-003 0. 0. 3.70370373e-002 0. 0. 0.
      4.62962985e-002 9.25925933e-003 0. 0. 0. 0. 0. 0. 0.
      9.25925933e-003 0. 0. 0. 1.48148149e-001 0. 0. 0. 0. 0. 0. 0. 0.
      0. 0. 0. 3.70370373e-002 0. 0. 0. 0. 0. 0. 0. 0. 0. 0. 0. 0. 0.
      2.77777780e-002 0. 0. 0. 0. 0. 0. 0. 0. 0. 0. 0. 0. 0. 0. 0.
      2.77777780e-002 0. 0. 0. 0. 0. 0. 0. 0. 0. 2.77777780e-002 0.
      1.85185187e-002 0. 0. 0. 0. 0. 0. 0. 1.85185187e-002 0.
      9.25925933e-003 0. 0. 0. 0. 0. 0. 9.25925933e-003 0. 0. 0.
      9.25925933e-003 0. 0. 0. 0. 0. 0. 9.25925933e-003 0. 0. 0. 0. 0.
      0. 0. 0. 0. 0. 0. 0. 4.62962985e-002 0. 0. 0. 0. 0. 0.
      1.85185187e-002 0. 0. 0. 0. 0. 0. 0. 3.70370373e-002
      9.25925933e-003 0. 0. 0. 0. 0. 1.85185187e-002 0. 0. 0. 0. 0. 0.
      0. 0. 0. 0. 0. 0. 0. 0. 0. 0. 0. 0. 0. 0. 0. 0. 0. 0. 0. 0. 0. 0.
      0. 0. 0. 0. 9.25925933e-003 0. 0. 0. 0. 0. 0. 0. 0. 0.
      2.77777780e-002 2.77777780e-002 0. 0. 0. 0. 0. 0. 0. 0.
      9.25925933e-003 0. 0. 0. 0. 0. 0. 0. 0. 0. 0. 0. 0. 0. 0. 0. 0. 0.
      0. 0. 0. 0. 0. 0. 0. 0. 0. 0. 0. 0. 0. 0. 0. 0. 0. 0. 0. 0. 0. 0.
      0. 9.25925933e-003 0. 0. 0. 0. 0. 0. 0. 0. 0. 0. 0. 0. 0. 0. 0. 0.
      0. 0. 0. 0. 0. 0. 0. 0. 0. 0. 0. 9.25925933e-003 0. 0. 0. 0.
      9.25925933e-003 0. 0. 0. 0. 0. 0. 0. 0. 0. 0. 0. 0. 0. 0. 0. 0. 0.
      0. 0. 0. 0. 0. 1.85185187e-002 0. 0. 0. 0. 0. 0. 0. 0. 0. 0. 0. 0.
      0. 0. 9.25925933e-003 9.25925933e-003 0. 0. 0. 0. 0. 0.
      5.55555560e-002 0. 0. 0. 0. 0. 0. 0. 0. 1.85185187e-002 0. 0. 0.
      0. 0. 1.85185187e-002 0. 0. 0. 0. 0. 1.85185187e-002 0. 0. 0. 0.
      9.25925933e-003 0. 0. 0. 0. 0. 0. 0. 0. 0. 0. 0. 0. 0. 0. 0. 0.
      1.85185187e-002 0. 0. 0. 0. 0. 0. 9.25925933e-003 0. 0.
      9.25925933e-003 0. 0. 0. 0. 0. 0. 6.48148134e-002 0. 0. 0. 0. 0.
      0. 0. 0. 5.55555560e-002 0. 0. 0. 0. 0. 0. 0. 0. 0. 0. 0. 0. 0. 0.
      0. 0. 0.</_>
    <_>
      0. 0. 0. 0. 0. 0. 4.59770113e-002 0. 0. 0. 2.29885057e-002 0. 0.
      1.14942528e-002 0. 0. 0. 0. 0. 1.14942528e-002 2.29885057e-002 0.
      0. 1.95402294e-001 0. 0. 0. 0. 0. 0. 0. 0. 0. 0. 0.
      8.04597735e-002 0. 0. 0. 0. 0. 0. 0. 0. 0. 0. 0. 0. 0.
      1.14942528e-002 2.29885057e-002 0. 0. 0. 0. 0. 0. 0. 0. 0. 0. 0.
      0. 0. 0. 1.14942528e-002 0. 0. 0. 0. 1.14942528e-002 0. 0. 0. 0.
      2.29885057e-002 0. 5.74712642e-002 0. 0. 0. 0. 0. 0. 0. 0. 0. 0.
      0. 0. 0. 0. 0. 0. 0. 1.14942528e-002 0. 0. 0. 0. 0. 0. 0. 0. 0.
      1.14942528e-002 0. 0. 0. 0. 0. 0. 0. 0. 0. 0. 0. 0.
      3.44827585e-002 0. 0. 0. 0. 0. 0. 0. 0. 0. 0. 0. 0. 0. 0.
      1.14942528e-002 0. 0. 0. 0. 0. 0. 1.14942528e-002 0. 0. 0. 0. 0.
      0. 0. 0. 0. 0. 0. 0. 0. 0. 0. 0. 0. 0. 0. 0. 0. 0. 0. 0. 0. 0. 0.
      0. 0. 0. 0. 0. 0. 0. 0. 0. 0. 0. 0. 0. 0. 0. 0. 5.74712642e-002 0.
      0. 0. 0. 0. 0. 0. 0. 0. 0. 0. 0. 0. 0. 0. 0. 0. 0. 0. 0. 0. 0. 0.
      0. 0. 0. 0. 0. 0. 0. 0. 0. 1.14942528e-002 0. 0. 2.29885057e-002
      0. 0. 0. 0. 0. 0. 0. 0. 0. 0. 0. 0. 0. 0. 0. 0. 0. 0. 0. 0. 0. 0.
      2.29885057e-002 0. 0. 0. 0. 0. 0. 0. 0. 0. 0. 0. 0. 0. 0. 0. 0. 0.
      0. 0. 0. 0. 0. 0. 0. 0. 0. 0. 0. 0. 0. 0. 0. 0. 0. 0. 0. 0. 0. 0.
      0. 1.14942528e-002 0. 0. 0. 0. 0. 1.14942528e-002 0. 0. 0. 0. 0.
      0. 0. 0. 0. 0. 0. 0. 0. 0. 1.14942528e-002 0. 0. 0. 0. 0. 0. 0.
      3.44827585e-002 0. 0. 0. 0. 0. 0. 0. 0. 1.14942528e-002 0. 0. 0.
      0. 0. 2.29885057e-002 0. 0. 0. 0. 0. 0. 0. 0. 0. 0. 0. 0. 0. 0. 0.
      0. 0. 0. 0. 0. 0. 0. 0. 0. 0. 0. 0. 2.29885057e-002 0. 0. 0. 0. 0.
      0. 0. 0. 0. 3.44827585e-002 0. 0. 0. 0. 0. 0. 8.04597735e-002 0.
      0. 0. 0. 0. 0. 0. 0. 1.14942528e-002 0. 1.14942528e-002 0. 0. 0.
      0. 0. 0. 0. 0. 0. 0. 0. 0. 0. 0. 1.14942528e-002</_>
    <_>
      0. 0. 0. 0. 0. 0. 1.66666675e-002 0. 0. 0. 9.16666687e-002 0. 0.
      0. 0. 0. 8.33333377e-003 0. 0. 0. 8.33333377e-003 0. 0.
      1.33333340e-001 0. 0. 0. 0. 0. 0. 0. 0. 0. 0. 0. 1.16666675e-001
      0. 0. 0. 0. 0. 0. 0. 0. 0. 0. 0. 0. 0. 0. 0. 0. 0. 0. 0. 0. 0. 0.
      0. 0. 0. 0. 0. 0. 0. 8.33333377e-003 0. 0. 8.33333377e-003 0. 0.
      0. 0. 0. 8.33333377e-003 2.50000022e-002 0. 1.66666675e-002 0. 0.
      0. 0. 0. 0. 0. 1.66666675e-002 0. 8.33333377e-003 0. 0. 0. 0. 0.
      0. 8.33333377e-003 0. 0. 0. 0. 0. 0. 0. 0. 0. 0. 8.33333377e-003
      0. 0. 0. 0. 0. 0. 0. 0. 0. 0. 0. 0. 4.16666679e-002 0. 0. 0. 0. 0.
      0. 2.50000022e-002 0. 0. 0. 0. 0. 0. 0. 2.50000022e-002 0. 0. 0.
      0. 0. 0. 0. 0. 8.33333377e-003 0. 0. 0. 0. 0. 0. 0. 0. 0. 0. 0. 0.
      0. 0. 0. 0. 0. 0. 8.33333377e-003 0. 0. 0. 0. 0. 0. 0. 0. 0. 0. 0.
      8.33333377e-003 0. 0. 0. 0. 0. 0. 0. 0. 0. 0. 4.16666679e-002 0.
      0. 0. 0. 0. 0. 0. 0. 8.33333377e-003 0. 0. 0. 0. 0. 0. 0. 0. 0. 0.
      0. 0. 0. 0. 0. 0. 0. 0. 0. 0. 0. 0. 0. 0. 0. 0. 1.66666675e-002
      8.33333377e-003 0. 0. 0. 0. 0. 0. 0. 0. 0. 0. 0. 0. 0. 0. 0. 0. 0.
      1.66666675e-002 0. 0. 0. 0. 0. 0. 0. 0. 0. 0. 0. 0. 0. 0. 0. 0. 0.
      0. 0. 0. 0. 0. 0. 0. 0. 0. 0. 8.33333377e-003 0. 0. 0. 0. 0. 0. 0.
      0. 0. 0. 0. 0. 0. 0. 0. 0. 0. 0. 0. 0. 0. 0. 1.66666675e-002 0. 0.
      0. 8.33333377e-003 0. 0. 0. 0. 0. 0. 0. 0. 0. 0. 0.
      8.33333377e-003 0. 0. 0. 0. 0. 0. 3.33333351e-002 0. 0. 0. 0. 0.
      0. 0. 0. 1.66666675e-002 0. 0. 0. 0. 0. 4.16666679e-002 0. 0. 0.
      0. 0. 8.33333377e-003 0. 8.33333377e-003 0. 0. 0. 0. 0. 0. 0. 0.
      0. 8.33333377e-003 0. 0. 0. 8.33333377e-003 0. 0. 0. 0. 0.
      2.50000022e-002 0. 0. 0. 0. 0. 0. 0. 0. 0. 3.33333351e-002 0. 0.
      0. 0. 0. 0. 6.66666701e-002 0. 0. 0. 0. 0. 0. 0. 0.
      1.66666675e-002 0. 0. 0. 0. 0. 0. 0. 0. 0. 0. 0. 0. 0. 0. 0. 0. 0.</_>
    <_>
      0. 0. 0. 5.40540554e-002 0. 0. 0. 0. 0. 0. 7.20720738e-002
      9.00900923e-003 0. 0. 0. 0. 9.00900923e-003 0. 0. 9.00900923e-003
      0. 0. 0. 8.10810849e-002 0. 0. 0. 0. 0. 0. 0. 0. 0. 0. 0.
      9.00900960e-002 0. 0. 0. 0. 0. 0. 0. 0. 9.00900923e-003 0. 0. 0.
      0. 1.80180185e-002 0. 0. 0. 0. 0. 0. 0. 0. 0. 0. 0. 0. 0. 0. 0.
      3.60360369e-002 9.00900923e-003 0. 0. 0. 0. 0. 0. 0. 0.
      1.80180185e-002 0. 0. 0. 0. 0. 0. 0. 0. 0. 2.70270277e-002 0.
      1.80180185e-002 0. 0. 0. 0. 0. 0. 9.00900923e-003 0. 0. 0. 0. 0.
      0. 0. 0. 0. 0. 0. 0. 0. 0. 0. 0. 0. 0. 0. 0. 0. 0. 0.
      1.80180185e-002 0. 0. 0. 0. 0. 0. 3.60360369e-002 0. 0. 0. 0. 0.
      0. 0. 4.50450480e-002 0. 0. 0. 0. 0. 0. 0. 0. 9.00900923e-003 0.
      0. 0. 0. 0. 0. 0. 0. 1.80180185e-002 0. 0. 0. 0. 0. 0. 0. 0. 0. 0.
      0. 0. 0. 0. 0. 0. 0. 0. 0. 0. 0. 1.80180185e-002 0. 0. 0. 0. 0. 0.
      0. 0. 0. 0. 9.00900923e-003 0. 1.80180185e-002 0. 0. 0. 0. 0. 0.
      0. 0. 0. 0. 0. 0. 0. 0. 0. 0. 0. 0. 0. 0. 0. 0. 0. 0. 0. 0. 0. 0.
      0. 3.60360369e-002 9.00900923e-003 0. 0. 0. 0. 0. 0. 0. 0. 0. 0.
      0. 0. 0. 0. 0. 0. 0. 0. 0. 0. 0. 0. 0. 0. 0. 0. 0. 0. 0. 0. 0. 0.
      0. 0. 0. 0. 0. 0. 0. 0. 0. 0. 0. 0. 0. 0. 0. 0. 0. 2.70270277e-002
      0. 0. 0. 0. 0. 0. 0. 0. 0. 0. 0. 0. 0. 0. 0. 0. 0. 0. 0. 0. 0. 0.
      0. 0. 0. 0. 0. 0. 0. 0. 9.00900923e-003 0. 0. 9.00900923e-003 0.
      0. 0. 0. 0. 0. 0. 0. 0. 0. 0. 5.40540554e-002 0. 0. 0. 0. 0. 0. 0.
      0. 9.00900923e-003 0. 0. 0. 0. 0. 1.80180185e-002 9.00900923e-003
      0. 0. 0. 0. 1.80180185e-002 0. 0. 0. 0. 9.00900923e-003 0. 0. 0.
      0. 0. 0. 0. 0. 0. 0. 0. 0. 1.80180185e-002 0. 0. 0.
      2.70270277e-002 0. 0. 0. 0. 0. 0. 1.80180185e-002 0. 0.
      1.80180185e-002 0. 0. 0. 0. 0. 0. 1.80180185e-002 0. 0. 0. 0. 0.
      0. 0. 0. 9.00900923e-003 0. 9.00900923e-003 0. 0. 0. 0. 0.
      9.00900923e-003 0. 0. 0. 0. 0. 0. 0. 0. 2.70270277e-002</_>
    <_>
      0. 0. 0. 2.08333340e-002 0. 0. 1.04166670e-002 0. 0. 0.
      1.04166670e-002 1.04166670e-002 0. 1.04166670e-002 0. 0.
      3.12500000e-002 0. 0. 0. 2.08333340e-002 0. 0. 6.25000000e-002 0.
      0. 0. 0. 0. 0. 0. 0. 0. 0. 0. 3.12500000e-002 0. 0. 0. 0. 0.
      4.16666679e-002 0. 0. 2.08333340e-002 0. 0. 0. 0. 0. 0. 0. 0. 0.
      0. 0. 0. 0. 0. 0. 0. 0. 0. 0. 0. 3.12500000e-002 0. 0. 0. 0.
      1.04166670e-002 0. 0. 0. 0. 2.08333340e-002 0. 4.16666679e-002 0.
      0. 0. 0. 0. 0. 0. 1.04166670e-002 0. 2.08333340e-002 0. 0. 0. 0.
      0. 0. 0. 0. 0. 0. 0. 0. 0. 0. 0. 0. 0. 0. 0. 0. 0. 0. 0. 0. 0. 0.
      0. 0. 0. 0. 4.16666679e-002 0. 0. 0. 0. 0. 0. 1.04166670e-002 0.
      0. 2.08333340e-002 0. 0. 0. 0. 1.04166670e-002 0. 0. 0. 0. 0. 0.
      1.04166670e-002 0. 0. 3.12500000e-002 0. 0. 0. 0. 0. 0. 0. 0. 0.
      0. 0. 0. 0. 0. 0. 0. 0. 0. 0. 0. 0. 0. 0. 0. 0. 0. 0. 0. 0.
      2.08333340e-002 0. 0. 0. 0. 0. 0. 0. 0. 0. 4.16666679e-002 0. 0.
      1.04166670e-002 0. 0. 0. 0. 0. 0. 0. 0. 0. 0. 0. 0. 0. 0. 0. 0. 0.
      0. 0. 0. 0. 0. 0. 0. 0. 0. 0. 0. 0. 0. 1.04166670e-002 0.
      3.12500000e-002 1.04166670e-002 2.08333340e-002 0. 0. 0. 0. 0. 0.
      0. 0. 0. 0. 0. 0. 0. 0. 0. 0. 0. 1.04166670e-002 0. 0. 0.
      3.12500000e-002 0. 0. 0. 0. 0. 0. 0. 0. 0. 0. 0. 0. 0. 0. 0. 0. 0.
      0. 0. 0. 0. 0. 0. 1.04166670e-002 0. 0. 0. 0. 0. 0. 0. 0. 0. 0. 0.
      0. 0. 0. 0. 0. 0. 0. 0. 0. 0. 0. 7.29166716e-002 0. 0. 0. 0. 0. 0.
      0. 0. 0. 0. 0. 0. 0. 0. 1.04166670e-002 0. 0. 0. 0. 0. 0. 0.
      4.16666679e-002 0. 0. 0. 0. 0. 0. 0. 1.04166670e-002
      1.04166670e-002 0. 0. 0. 0. 0. 1.04166670e-002 0. 0. 0. 0. 0.
      1.04166670e-002 0. 0. 0. 0. 2.08333340e-002 0. 0. 0. 0. 0. 0. 0.
      0. 0. 0. 0. 0. 0. 0. 0. 0. 0. 0. 0. 0. 0. 0. 0. 2.08333340e-002 0.
      0. 2.08333340e-002 0. 0. 0. 0. 0. 0. 1.04166670e-002 0.
      1.04166670e-002 0. 0. 0. 0. 0. 0. 2.08333340e-002 0. 0. 0. 0. 0.
      0. 0. 0. 0. 0. 0. 0. 0. 0. 0. 0. 0.</_>
    <_>
      0. 0. 0. 0. 0. 0. 1.06382975e-002 0. 0. 0. 6.38297871e-002
      1.06382975e-002 0. 0. 0. 0. 1.06382975e-002 0. 0. 0.
      3.19148935e-002 0. 0. 6.38297871e-002 0. 0. 0. 0. 0. 0. 0. 0. 0.
      0. 0. 4.25531901e-002 0. 0. 0. 0. 0. 4.25531901e-002 0. 0. 0. 0.
      0. 0. 0. 0. 2.12765951e-002 0. 2.12765951e-002 0. 0. 0. 0. 0. 0.
      0. 0. 0. 0. 0. 0. 4.25531901e-002 0. 0. 0. 0. 0. 0. 0. 0. 0.
      4.25531901e-002 0. 1.06382975e-002 0. 0. 0. 0. 0. 0. 0.
      1.06382975e-002 0. 1.06382975e-002 0. 0. 0. 0. 0. 0. 0. 0. 0. 0.
      0. 0. 0. 0. 0. 0. 0. 0. 0. 0. 0. 0. 0. 0. 0. 0. 0. 0. 0. 0.
      9.57446769e-002 0. 0. 0. 0. 0. 0. 0. 0. 0. 0. 0. 0. 0. 0.
      1.06382975e-002 0. 0. 0. 0. 0. 0. 3.19148935e-002 0. 0. 0. 0. 0.
      0. 0. 0. 0. 0. 0. 0. 0. 0. 0. 0. 0. 0. 0. 0. 1.06382975e-002 0. 0.
      0. 0. 0. 0. 0. 0. 0. 0. 0. 3.19148935e-002 0. 0. 0. 0. 0. 0. 0. 0.
      0. 1.06382975e-002 3.19148935e-002 0. 2.12765951e-002 0. 0. 0. 0.
      0. 0. 1.06382975e-002 0. 0. 0. 0. 0. 0. 0. 0. 0. 1.06382975e-002
      0. 0. 0. 0. 0. 0. 0. 1.06382975e-002 0. 0. 0. 0. 0.
      4.25531901e-002 0. 0. 1.06382975e-002 1.06382975e-002 0. 0. 0. 0.
      0. 0. 0. 0. 0. 0. 0. 0. 0. 0. 0. 0. 0. 1.06382975e-002 0. 0. 0.
      1.06382975e-002 2.12765951e-002 0. 0. 0. 0. 0. 0. 0. 0. 0. 0. 0.
      0. 0. 0. 1.06382975e-002 0. 0. 0. 0. 0. 0. 0. 0. 0.
      2.12765951e-002 0. 0. 0. 0. 0. 0. 0. 0. 0. 0. 0. 0. 0. 0. 0. 0. 0.
      0. 0. 0. 2.12765951e-002 0. 0. 0. 0. 0. 0. 0. 0. 0. 0. 0. 0. 0. 0.
      0. 0. 0. 0. 0. 0. 0. 0. 2.12765951e-002 0. 0. 0. 0. 0. 0. 0. 0. 0.
      0. 0. 0. 0. 0. 1.06382975e-002 1.06382975e-002 0. 0. 0. 0. 0. 0.
      0. 0. 0. 0. 0. 0. 0. 0. 0. 0. 0. 0. 0. 0. 0. 0. 0. 0. 0. 0.
      4.25531901e-002 0. 0. 0. 0. 0. 0. 1.06382975e-002 0. 0. 0. 0. 0.
      0. 0. 0. 0. 2.12765951e-002 0. 0. 0. 0. 0. 0. 0. 0. 0. 0. 0. 0. 0.
      0. 0. 0. 0. 0. 0. 0. 0. 1.06382975e-002 0. 0. 0. 0.</_>
    <_>
      0. 0. 0. 0. 0. 6.66666683e-003 1.99999996e-002 0. 0. 0.
      3.33333351e-002 3.99999991e-002 0. 0. 0. 0. 0. 0. 0. 0. 0. 0. 0.
      1.53333336e-001 0. 0. 0. 0. 0. 0. 0. 0. 0. 0. 0. 6.00000024e-002
      0. 0. 0. 6.66666683e-003 0. 0. 0. 0. 0. 0. 0. 0. 0. 0. 0. 0. 0. 0.
      0. 0. 0. 0. 0. 0. 0. 0. 0. 0. 0. 3.99999991e-002 0. 0. 0. 0. 0. 0.
      0. 0. 0. 6.66666683e-003 0. 2.66666673e-002 0. 0. 0. 0. 0. 0. 0.
      1.33333337e-002 0. 1.33333337e-002 0. 0. 0. 0. 0. 0.
      6.66666683e-003 0. 0. 0. 0. 0. 0. 0. 0. 0. 0. 0. 0. 0. 0. 0. 0. 0.
      0. 0. 0. 0. 0. 0. 4.66666669e-002 0. 0. 0. 0. 0. 0.
      6.66666683e-003 0. 0. 0. 0. 0. 0. 0. 3.33333351e-002 0. 0. 0. 0.
      0. 0. 0. 0. 6.66666683e-003 0. 0. 0. 0. 0. 0. 0. 0. 0. 0. 0. 0. 0.
      0. 0. 0. 0. 0. 0. 0. 0. 0. 0. 0. 0. 0. 0. 0. 0. 0. 1.99999996e-002
      0. 0. 0. 0. 0. 0. 0. 0. 0. 6.66666683e-003 8.66666660e-002 0.
      6.66666683e-003 0. 0. 0. 0. 0. 0. 6.66666683e-003 0. 0. 0. 0. 0.
      0. 0. 0. 0. 0. 0. 0. 0. 0. 0. 0. 0. 0. 0. 0. 0. 0. 0.
      6.66666683e-003 0. 1.33333337e-002 1.33333337e-002 3.33333351e-002
      0. 0. 0. 0. 0. 0. 0. 0. 0. 0. 0. 0. 0. 0. 0. 0. 0. 0. 0. 0. 0.
      1.33333337e-002 0. 0. 0. 0. 0. 0. 0. 0. 0. 0. 0. 0. 0. 0. 0. 0. 0.
      0. 0. 0. 0. 0. 0. 1.99999996e-002 0. 0. 0. 0. 0. 0. 0. 0. 0. 0. 0.
      0. 0. 0. 0. 0. 0. 0. 0. 0. 6.66666683e-003 0. 5.33333346e-002 0.
      0. 0. 0. 0. 0. 0. 0. 0. 0. 0. 0. 0. 0. 6.66666683e-003 0. 0. 0. 0.
      0. 0. 0. 6.66666701e-002 0. 0. 0. 0. 0. 0. 0. 0. 0. 0. 0. 0. 0. 0.
      6.66666683e-003 6.66666683e-003 0. 0. 0. 0. 6.66666683e-003 0. 0.
      0. 0. 0. 0. 0. 0. 0. 0. 0. 0. 0. 0. 0. 0. 0. 0. 0. 0. 0.
      1.33333337e-002 0. 0. 0. 0. 0. 0. 0. 0. 0. 1.33333337e-002 0. 0.
      0. 0. 0. 0. 3.99999991e-002 0. 0. 0. 0. 0. 0. 0. 0.
      3.33333351e-002 0. 0. 0. 0. 0. 0. 0. 0. 0. 0. 0. 0. 0. 0. 0. 0. 0.</_>
    <_>
      0. 0. 0. 0. 0. 0. 0. 0. 0. 0. 9.34579410e-003 9.34579410e-003 0.
      9.34579410e-003 0. 0. 0. 9.34579410e-003 0. 0. 9.34579410e-003 0.
      0. 1.30841121e-001 0. 0. 0. 0. 0. 0. 0. 0. 9.34579410e-003 0. 0.
      1.58878505e-001 0. 0. 0. 9.34579410e-003 0. 0. 0. 0. 0. 0. 0. 0.
      0. 0. 3.73831764e-002 0. 0. 0. 0. 0. 0. 0. 0. 0. 0. 0. 0. 0. 0.
      2.80373823e-002 0. 0. 0. 0. 0. 0. 0. 0. 0. 2.80373823e-002 0. 0.
      0. 0. 0. 0. 0. 0. 0. 9.34579410e-003 0. 9.34579410e-003 0. 0. 0.
      0. 0. 0. 0. 0. 0. 0. 0. 0. 0. 0. 0. 0. 0. 0. 0. 0. 0. 0. 0. 0. 0.
      0. 0. 0. 0. 0. 3.73831764e-002 0. 0. 0. 0. 0. 0. 0. 0. 0. 0. 0. 0.
      0. 0. 1.86915882e-002 0. 0. 0. 0. 0. 0. 1.86915882e-002 0.
      2.80373823e-002 9.34579410e-003 0. 0. 0. 0. 0. 0. 0. 0. 0. 0. 0.
      0. 0. 0. 0. 0. 0. 0. 0. 0. 0. 0. 0. 0. 0. 0. 0. 0. 0.
      5.60747646e-002 0. 0. 9.34579410e-003 0. 0. 0. 0. 0. 0.
      1.86915882e-002 6.54205605e-002 0. 0. 0. 0. 0. 0. 0. 0.
      9.34579410e-003 0. 0. 0. 0. 0. 0. 0. 0. 0. 0. 0. 0. 0. 0. 0. 0. 0.
      0. 0. 0. 0. 0. 0. 9.34579410e-003 0. 0. 9.34579410e-003
      1.86915882e-002 0. 0. 0. 0. 0. 0. 0. 0. 0. 0. 0. 0. 0. 0. 0. 0. 0.
      0. 0. 0. 9.34579410e-003 3.73831764e-002 0. 0. 0. 0. 0. 0. 0. 0.
      0. 0. 0. 0. 0. 0. 0. 0. 0. 0. 0. 0. 0. 0. 0. 0. 0. 0. 0. 0. 0. 0.
      0. 0. 0. 0. 0. 0. 0. 0. 0. 0. 0. 0. 0. 0. 0. 0. 0. 0. 0. 0. 0. 0.
      0. 0. 0. 0. 0. 0. 0. 0. 0. 9.34579410e-003 0. 0. 0. 0. 0. 0. 0.
      1.86915882e-002 0. 0. 0. 0. 0. 0. 0. 0. 0. 0. 0. 0. 0. 0. 0. 0. 0.
      0. 0. 0. 0. 0. 0. 0. 0. 9.34579410e-003 0. 0. 0. 0. 0. 0. 0. 0. 0.
      0. 0. 0. 0. 0. 0. 0. 2.80373823e-002 0. 0. 0. 0. 0. 0.
      9.34579410e-003 0. 0. 9.34579410e-003 0. 0. 0. 0. 0. 0.
      3.73831764e-002 0. 9.34579410e-003 0. 0. 0. 0. 0. 0.
      2.80373823e-002 0. 0. 0. 9.34579410e-003 0. 0. 0. 0. 0. 0. 0. 0.
      0. 0. 0. 0. 9.34579410e-003</_>
    <_>
      0. 0. 0. 0. 0. 0. 0. 0. 0. 0. 1.32450331e-002 0. 1.32450331e-002
      0. 0. 0. 0. 0. 0. 0. 0. 0. 6.62251655e-003 4.63576168e-002 0. 0.
      0. 0. 0. 0. 0. 0. 1.32450331e-002 0. 0. 1.98675506e-002
      1.32450331e-002 1.32450331e-002 0. 0. 0. 6.62251655e-003 0. 0. 0.
      0. 1.98675506e-002 0. 0. 0. 6.62251655e-003 0. 0. 0. 0. 0. 0. 0.
      0. 0. 0. 0. 0. 0. 0. 2.64900662e-002 0. 0. 0. 0. 6.62251655e-003
      0. 0. 5.96026480e-002 0. 1.32450331e-002 0. 6.62251655e-003 0. 0.
      0. 0. 0. 6.62251655e-003 0. 6.62251655e-003 0. 1.98675506e-002 0.
      0. 0. 0. 0. 0. 0. 0. 0. 0. 0. 0. 0. 0. 0. 0. 0. 0. 0. 0.
      1.98675506e-002 0. 0. 0. 0. 0. 0. 0. 0. 0. 0. 0. 0. 0.
      6.62251655e-003 0. 0. 1.98675506e-002 0. 0. 6.62251655e-003 0. 0.
      0. 0. 3.97351012e-002 0. 0. 0. 0. 0. 6.62251655e-003
      1.32450331e-002 0. 0. 0. 6.62251655e-003 0. 0. 0. 0. 0.
      6.62251655e-003 0. 1.98675506e-002 0. 0. 0. 0. 0. 0. 0. 0. 0. 0.
      0. 0. 0. 0. 0. 0. 0. 0. 0. 0. 5.29801324e-002 0. 0. 0. 0. 0. 0. 0.
      0. 0. 0. 6.62251655e-003 0. 0. 0. 0. 0. 0. 0. 0. 3.31125818e-002
      0. 0. 0. 0. 0. 0. 0. 0. 0. 1.98675506e-002 6.62251655e-003 0. 0.
      1.98675506e-002 1.32450331e-002 0. 0. 1.32450331e-002 0. 0.
      6.62251655e-003 0. 0. 2.64900662e-002 0. 1.98675506e-002 0.
      2.64900662e-002 0. 0. 0. 0. 0. 0. 0. 0. 0. 0. 0. 6.62251655e-003
      0. 0. 0. 0. 6.62251655e-003 6.62251655e-003 0. 0. 0. 0. 0. 0.
      6.62251655e-003 0. 0. 0. 0. 0. 0. 0. 0. 0. 0. 0. 0. 0. 0. 0. 0. 0.
      0. 0. 0. 1.98675506e-002 2.64900662e-002 0. 0. 0. 0. 0. 0. 0. 0.
      0. 0. 0. 0. 0. 0. 0. 0. 0. 0. 0. 0. 0. 2.64900662e-002 0. 0. 0. 0.
      0. 0. 0. 0. 0. 0. 0. 0. 0. 0. 0. 0. 0. 0. 0. 0. 2.64900662e-002 0.
      1.32450331e-002 0. 0. 0. 0. 0. 0. 0. 0. 6.62251655e-003 0. 0. 0.
      6.62251655e-003 0. 5.96026480e-002 0. 0. 0. 0. 0. 6.62251655e-003
      0. 0. 6.62251655e-003 0. 0. 0. 0. 0. 0. 0. 0. 0. 0. 0. 0.
      6.62251655e-003 0. 0. 0. 0. 0. 0. 0. 0. 0. 0. 0. 0.
      1.32450331e-002 0. 0. 0. 0. 0. 0. 0. 0. 0. 0. 0. 0. 0. 0. 0. 0. 0.
      0. 1.32450331e-002 3.31125818e-002 0. 0. 0. 0. 0. 0. 0. 0. 0. 0.
      0. 0. 0. 0. 0. 0.</_>
    <_>
      0. 0. 0. 5.78034669e-003 0. 0. 0. 0. 0. 0. 1.15606934e-002 0.
      1.73410401e-002 0. 0. 0. 0. 5.78034669e-003 0. 0. 0. 0. 0.
      5.78034669e-003 0. 0. 0. 0. 0. 0. 0. 0. 0. 0. 0. 1.15606934e-002
      0. 0. 0. 0. 0. 0. 0. 0. 0. 0. 1.15606934e-002 0. 0. 0.
      1.15606934e-002 0. 2.31213868e-002 0. 0. 0. 0. 0. 0. 0. 0. 0. 0.
      0. 0. 2.31213868e-002 0. 0. 0. 0. 5.78034669e-003 0. 0.
      4.62427735e-002 1.15606934e-002 5.78034669e-003 0. 1.15606934e-002
      0. 0. 0. 0. 3.46820801e-002 2.31213868e-002 0. 2.31213868e-002 0.
      2.31213868e-002 0. 0. 1.15606934e-002 0. 0. 0. 0. 0. 0. 0. 0. 0.
      0. 0. 0. 0. 0. 0. 0. 0. 1.73410401e-002 0. 0. 0. 0. 0. 0. 0.
      1.15606934e-002 0. 5.78034669e-003 5.78034669e-003 0. 0. 0. 0. 0.
      1.73410401e-002 0. 0. 5.78034669e-003 0. 0. 0. 0. 1.73410401e-002
      0. 0. 0. 0. 0. 5.78034669e-003 5.78034669e-003 0. 0.
      1.15606934e-002 0. 0. 1.15606934e-002 0. 0. 0. 1.73410401e-002 0.
      0. 0. 0. 0. 0. 0. 0. 0. 0. 0. 0. 0. 0. 0. 1.15606934e-002 0. 0. 0.
      0. 5.78034669e-003 0. 0. 0. 0. 0. 5.78034669e-003 0. 0. 0. 0. 0.
      5.78034669e-003 1.15606934e-002 0. 0. 0. 0. 0. 0. 0. 0.
      1.73410401e-002 0. 0. 0. 0. 0. 0. 0. 0. 5.78034669e-003
      5.78034669e-003 0. 0. 0. 1.15606934e-002 3.46820801e-002 0. 0. 0.
      0. 0. 5.78034669e-003 0. 0. 2.31213868e-002 0. 2.89017335e-002 0.
      1.73410401e-002 0. 0. 0. 0. 0. 0. 0. 0. 0. 0. 5.78034669e-003 0.
      0. 0. 0. 0. 1.15606934e-002 1.15606934e-002 0. 0. 0. 0. 0. 0. 0.
      0. 0. 0. 0. 0. 0. 5.78034669e-003 0. 0. 0. 0. 0. 0. 0. 0. 0. 0. 0.
      1.15606934e-002 0. 2.89017335e-002 5.78034669e-003 0. 0. 0. 0. 0.
      0. 0. 0. 0. 0. 0. 0. 0. 0. 5.78034669e-003 0. 0. 0. 0. 0. 0.
      5.78034669e-003 0. 0. 0. 0. 0. 0. 0. 0. 0. 0. 0. 0. 0. 0. 0. 0. 0.
      0. 2.89017335e-002 0. 3.46820801e-002 0. 1.73410401e-002 0. 0.
      5.78034669e-003 0. 0. 0. 0. 0. 0. 0. 2.31213868e-002 0.
      5.78034669e-003 0. 2.31213868e-002 0. 0. 0. 1.15606934e-002 0. 0.
      1.73410401e-002 1.15606934e-002 1.15606934e-002 0. 0. 0. 0. 0. 0.
      0. 0. 0. 2.31213868e-002 0. 0. 1.73410401e-002 0. 0. 0. 0. 0. 0.
      0. 0. 0. 0. 0. 0. 0. 0. 0. 0. 0. 0. 0. 0. 0. 0. 0. 0. 0. 0. 0. 0.
      1.73410401e-002 5.78034669e-003 0. 0. 0. 0. 0. 0. 0. 0. 0. 0. 0.
      0. 0. 0. 0. 5.78034669e-003 0. 0. 0.</_>
    <_>
      0. 0. 0. 6.99300691e-003 0. 0. 0. 6.99300691e-003 0. 0. 0. 0.
      2.79720277e-002 0. 0. 0. 0. 6.99300691e-003 0. 0. 0. 0. 0.
      6.99300691e-003 0. 0. 0. 0. 0. 0. 0. 0. 2.79720277e-002 0. 0. 0.
      0. 0. 1.39860138e-002 0. 0. 0. 0. 0. 0. 0. 1.39860138e-002 0. 0.
      0. 0. 0. 3.49650346e-002 0. 0. 0. 0. 6.99300691e-003
      2.79720277e-002 0. 6.99300691e-003 0. 6.99300691e-003 0. 0.
      6.99300691e-003 0. 0. 0. 0. 0. 0. 0. 0. 7.69230723e-002
      2.79720277e-002 0. 6.99300691e-003 0. 0. 0. 0. 6.99300691e-003
      2.09790207e-002 0. 0. 6.99300691e-003 0. 0. 0. 6.99300691e-003 0.
      0. 0. 0. 0. 0. 0. 0. 0. 1.39860138e-002 0. 6.99300691e-003 0. 0.
      0. 0. 0. 1.39860138e-002 0. 0. 0. 0. 0. 0. 0. 6.99300691e-003 0.
      1.39860138e-002 0. 0. 0. 0. 0. 0. 0. 0. 0. 0. 0. 0. 0. 0.
      6.99300691e-003 0. 0. 0. 0. 0. 6.99300691e-003 0. 0. 0. 0. 0. 0.
      0. 0. 0. 0. 1.39860138e-002 0. 0. 0. 0. 1.39860138e-002 0. 0. 0.
      0. 0. 0. 0. 0. 0. 0. 2.09790207e-002 0. 0. 0. 0. 0. 0. 0. 0. 0. 0.
      0. 0. 0. 0. 0. 0. 0. 6.99300691e-003 0. 0. 0. 0. 0. 0. 0. 0.
      6.99300691e-003 1.39860138e-002 0. 0. 0. 0. 0. 0. 0. 0. 0.
      6.99300691e-003 0. 0. 2.09790207e-002 1.39860138e-002 0. 0. 0. 0.
      0. 2.09790207e-002 2.79720277e-002 0. 6.99300691e-003 0. 0. 0. 0.
      0. 0. 0. 0. 0. 6.99300691e-003 0. 0. 0. 0. 0. 0. 0. 0. 0. 0.
      2.09790207e-002 3.49650346e-002 0. 0. 6.99300691e-003 0. 0. 0. 0.
      0. 0. 0. 0. 0. 0. 6.99300691e-003 0. 0. 0. 0. 0. 0. 0. 0. 0. 0. 0.
      0. 0. 1.39860138e-002 2.09790207e-002 1.39860138e-002 0. 0. 0. 0.
      0. 0. 0. 0. 6.99300691e-003 0. 0. 0. 0. 0. 6.99300691e-003 0. 0.
      0. 0. 6.99300691e-003 6.99300691e-003 0. 0. 0. 6.99300691e-003 0.
      0. 0. 0. 0. 0. 0. 0. 0. 0. 0. 0. 0. 0. 1.39860138e-002
      2.09790207e-002 0. 0. 6.99300691e-003 0. 0. 0. 0. 0. 0. 0. 0. 0.
      0. 1.39860138e-002 0. 0. 0. 0. 1.39860138e-002 0. 0. 0. 0. 0.
      5.59440553e-002 6.99300691e-003 0. 0. 0. 0. 0. 0. 0. 0. 0. 0.
      2.09790207e-002 0. 0. 1.39860138e-002 0. 0. 0. 0. 6.99300691e-003
      0. 0. 0. 0. 6.99300691e-003 0. 6.99300691e-003 6.99300691e-003 0.
      0. 0. 0. 0. 0. 0. 0. 0. 6.99300691e-003 0. 0. 0. 0. 0.
      2.09790207e-002 0. 0. 0. 1.39860138e-002 0. 0. 0. 0. 0. 0. 0. 0.
      0. 0. 0. 0. 0. 0. 0. 0.</_>
    <_>
      0. 0. 0. 5.61797759e-003 0. 0. 0. 0. 0. 0. 0. 0. 5.05617969e-002
      0. 0. 0. 0. 5.61797759e-003 0. 0. 0. 1.68539323e-002
      2.24719103e-002 1.12359552e-002 0. 0. 0. 0. 0. 0. 0. 0.
      1.12359552e-002 0. 0. 3.93258445e-002 5.61797759e-003
      2.24719103e-002 0. 0. 0. 0. 0. 0. 0. 0. 1.68539323e-002
      5.61797759e-003 0. 0. 1.12359552e-002 0. 0. 0. 0. 0. 0. 0. 0. 0.
      0. 0. 0. 0. 0. 1.68539323e-002 0. 0. 0. 0. 1.12359552e-002 0. 0.
      3.93258445e-002 2.24719103e-002 1.68539323e-002 0. 2.24719103e-002
      0. 0. 0. 0. 5.61797759e-003 5.61797759e-003 0. 0. 0.
      1.68539323e-002 0. 0. 0. 0. 0. 0. 0. 0. 0. 0. 0. 0. 0. 0. 0. 0. 0.
      0. 0. 0. 1.12359552e-002 0. 0. 0. 0. 0. 0. 0. 0. 0.
      1.12359552e-002 0. 0. 0. 0. 0. 0. 5.61797759e-003 0. 0. 0. 0. 0.
      0. 0. 0. 0. 0. 0. 0. 0. 0. 5.61797759e-003 0. 0. 5.61797759e-003
      5.61797759e-003 0. 0. 0. 0. 0. 1.12359552e-002 0. 1.68539323e-002
      0. 0. 0. 0. 0. 0. 0. 0. 0. 0. 0. 0. 0. 5.61797759e-003 0. 0. 0. 0.
      0. 0. 1.12359552e-002 0. 0. 0. 2.24719103e-002 0. 0. 0. 0. 0. 0.
      0. 0. 5.61797759e-003 0. 0. 0. 0. 0. 0. 0. 0. 0. 0. 0. 0. 0.
      5.61797759e-003 0. 5.61797759e-003 1.12359552e-002 0. 0. 0. 0.
      5.61797759e-003 0. 0. 0. 0. 0. 5.61797759e-003 1.12359552e-002 0.
      5.61797759e-003 0. 1.12359552e-002 0. 5.61797759e-003 0. 0. 0. 0.
      0. 1.12359552e-002 0. 0. 0. 0. 0. 0. 0. 0. 0. 0. 5.61797759e-003
      2.24719103e-002 0. 0. 5.61797759e-003 0. 0. 0. 1.12359552e-002 0.
      0. 0. 1.12359552e-002 0. 0. 1.68539323e-002 1.12359552e-002 0. 0.
      0. 0. 0. 0. 0. 0. 0. 0. 0. 0. 3.93258445e-002 0. 5.61797759e-003
      0. 0. 0. 0. 0. 0. 0. 0. 0. 0. 0. 0. 0. 0. 5.61797759e-003 0. 0. 0.
      1.12359552e-002 0. 5.61797759e-003 0. 0. 0. 0. 0. 0. 0. 0. 0.
      5.61797759e-003 5.61797759e-003 0. 0. 5.61797759e-003 0. 0. 0.
      1.12359552e-002 5.61797759e-003 2.24719103e-002 3.37078646e-002 0.
      1.12359552e-002 0. 0. 0. 0. 0. 0. 0. 0. 1.12359552e-002 0.
      5.61797759e-003 0. 2.24719103e-002 0. 1.68539323e-002 0. 0. 0.
      5.61797759e-003 0. 5.61797759e-003 0. 5.61797759e-003
      5.61797759e-003 0. 0. 0. 0. 5.61797759e-003 0. 0. 0. 0.
      1.12359552e-002 0. 0. 2.24719103e-002 0. 0. 0. 0. 5.61797759e-003
      0. 5.61797759e-003 0. 0. 0. 0. 0. 0. 0. 0. 0. 0. 0. 0. 0. 0. 0.
      1.12359552e-002 0. 0. 0. 0. 0. 0. 0. 0. 1.12359552e-002
      1.68539323e-002 0. 0. 0. 0. 0. 0. 0. 0. 0. 0. 0. 0. 0. 0. 0. 0.</_>
    <_>
      0. 0. 7.35294120e-003 1.47058824e-002 0. 0. 0. 0. 0. 0. 0. 0.
      2.20588241e-002 0. 0. 0. 0. 0. 0. 0. 0. 7.35294120e-003
      7.35294120e-003 0. 0. 0. 0. 0. 0. 0. 0. 0. 0. 0. 0.
      2.94117648e-002 0. 0. 0. 0. 0. 0. 0. 0. 7.35294120e-003 0.
      7.35294120e-003 1.47058824e-002 0. 0. 7.35294120e-003 0.
      7.35294120e-003 0. 0. 0. 0. 0. 1.47058824e-002 0. 0. 0. 0. 0. 0.
      7.35294120e-003 0. 0. 0. 0. 0. 0. 0. 7.35294120e-003
      4.41176482e-002 3.67647074e-002 0. 7.35294120e-003 0. 0. 0. 0.
      2.20588241e-002 4.41176482e-002 0. 7.35294120e-003 0. 0. 0. 0.
      7.35294120e-003 0. 0. 0. 0. 0. 0. 0. 0. 0. 0. 0. 7.35294120e-003
      0. 0. 0. 0. 0. 2.94117648e-002 0. 0. 0. 0. 0. 0. 0.
      1.47058824e-002 0. 7.35294120e-003 7.35294120e-003 0. 0. 0. 0. 0.
      1.47058824e-002 0. 0. 0. 0. 0. 0. 0. 0. 0. 0. 0. 0.
      7.35294120e-003 0. 3.67647074e-002 0. 0. 1.47058824e-002 0. 0. 0.
      0. 0. 0. 0. 0. 0. 0. 0. 7.35294120e-003 0. 0. 0. 0.
      7.35294120e-003 7.35294120e-003 0. 0. 0. 0. 7.35294120e-003 0. 0.
      0. 0. 0. 0. 2.94117648e-002 0. 0. 0. 2.94117648e-002 0. 0. 0. 0.
      0. 0. 0. 0. 0. 0. 0. 0. 0. 0. 0. 2.20588241e-002 7.35294120e-003
      0. 0. 0. 0. 0. 0. 0. 0. 0. 0. 0. 7.35294120e-003 0.
      4.41176482e-002 0. 0. 0. 0. 0. 0. 7.35294120e-003 0.
      2.94117648e-002 0. 2.94117648e-002 0. 0. 0. 0. 0. 0. 0. 0. 0. 0.
      0. 0. 0. 7.35294120e-003 0. 0. 0. 0. 7.35294120e-003
      3.67647074e-002 0. 0. 0. 0. 0. 0. 0. 0. 0. 0. 0. 0. 0.
      1.47058824e-002 0. 0. 0. 0. 0. 0. 0. 0. 0. 0. 0. 0. 0. 0.
      7.35294120e-003 0. 0. 7.35294120e-003 0. 7.35294120e-003 0. 0. 0.
      0. 0. 0. 0. 0. 0. 7.35294120e-003 7.35294120e-003 0. 0. 0. 0. 0.
      7.35294120e-003 0. 0. 0. 0. 0. 0. 0. 0. 0. 7.35294120e-003 0. 0.
      0. 0. 7.35294120e-003 0. 0. 1.47058824e-002 0. 7.35294120e-003
      7.35294120e-003 0. 2.20588241e-002 0. 0. 0. 0. 0. 0. 0. 0. 0. 0.
      0. 0. 1.47058824e-002 0. 0. 0. 0. 0. 7.35294120e-003 0. 0.
      7.35294120e-003 0. 0. 0. 0. 0. 0. 0. 0. 0. 0. 0. 1.47058824e-002
      0. 0. 2.94117648e-002 0. 0. 0. 0. 0. 0. 0. 0. 0. 0. 0. 0.
      1.47058824e-002 0. 0. 0. 0. 0. 0. 0. 0. 0. 7.35294120e-003 0. 0.
      7.35294120e-003 0. 0. 0. 7.35294120e-003 0. 0. 7.35294120e-003 0.
      0. 0. 0. 0. 0. 0. 0. 0. 0. 0. 0. 0. 0. 0. 0.</_>
    <_>
      0. 6.94444450e-003 0. 1.38888890e-002 0. 0. 0. 0. 0. 0.
      6.94444450e-003 1.38888890e-002 6.25000000e-002 0. 0. 0. 0.
      6.94444450e-003 0. 1.38888890e-002 0. 0. 6.94444450e-003 0. 0. 0.
      0. 0. 0. 0. 0. 0. 6.94444450e-003 0. 0. 1.38888890e-002
      6.94444450e-003 1.38888890e-002 0. 0. 0. 0. 0. 0. 0. 0.
      6.94444450e-003 0. 0. 0. 2.77777780e-002 0. 1.38888890e-002 0. 0.
      0. 0. 1.38888890e-002 0. 0. 0. 0. 0. 0. 0. 6.94444450e-003 0. 0.
      0. 0. 0. 0. 0. 0. 4.16666679e-002 5.55555560e-002 0.
      6.94444450e-003 0. 0. 0. 0. 6.94444450e-003 1.38888890e-002 0.
      6.94444450e-003 0. 6.94444450e-003 0. 0. 2.08333340e-002 0. 0. 0.
      0. 0. 0. 0. 0. 0. 0. 0. 6.94444450e-003 0. 0. 1.38888890e-002 0.
      0. 0. 0. 0. 0. 0. 0. 0. 0. 1.38888890e-002 0. 0. 0. 0. 0. 0. 0. 0.
      1.38888890e-002 0. 0. 0. 0. 0. 0. 0. 0. 0. 0. 0. 0. 0. 0.
      6.94444450e-003 0. 0. 0. 0. 0. 0. 0. 0. 0. 1.38888890e-002 0. 0.
      0. 0. 0. 0. 0. 0. 0. 0. 0. 0. 0. 0. 0. 0. 0. 0. 0. 0. 0. 0.
      1.38888890e-002 0. 6.94444450e-003 0. 0. 0. 0. 0. 0. 0. 0. 0. 0.
      0. 0. 0. 0. 0. 0. 0. 0. 4.16666679e-002 0. 0. 0. 0. 0. 0. 0. 0.
      6.94444450e-003 6.94444450e-003 0. 6.94444450e-003 1.38888890e-002
      1.38888890e-002 0. 0. 0. 0. 0. 6.94444450e-003 4.16666679e-002 0.
      0. 0. 0. 0. 0. 0. 0. 0. 1.38888890e-002 0. 0. 0. 0. 0. 0. 0.
      6.94444450e-003 0. 0. 0. 0. 0. 2.77777780e-002 0. 0. 0.
      6.94444450e-003 0. 0. 1.38888890e-002 0. 0. 0. 0. 0.
      6.94444450e-003 2.08333340e-002 0. 0. 0. 0. 0. 0. 0. 0. 0. 0. 0.
      0. 0. 2.77777780e-002 0. 1.38888890e-002 0. 0. 0. 6.94444450e-003
      0. 0. 0. 0. 0. 0. 0. 0. 0. 2.08333340e-002 0. 6.94444450e-003 0.
      0. 0. 0. 0. 0. 0. 0. 0. 0. 0. 0. 0. 0. 0. 0. 0. 0. 0.
      6.94444450e-003 0. 0. 6.94444450e-003 1.38888890e-002
      6.94444450e-003 1.38888890e-002 0. 6.94444450e-003 0. 0. 0. 0. 0.
      0. 0. 0. 0. 0. 1.38888890e-002 0. 1.38888890e-002 0.
      6.94444450e-003 0. 0. 0. 0. 0. 0. 6.94444450e-003 0.
      6.94444450e-003 0. 0. 0. 0. 0. 0. 0. 0. 0. 1.38888890e-002 0. 0.
      6.94444450e-003 0. 0. 6.94444450e-003 6.94444450e-003 0.
      6.94444450e-003 0. 0. 6.94444450e-003 0. 0. 1.38888890e-002
      6.94444450e-003 0. 0. 0. 0. 0. 0. 0. 0. 0. 1.38888890e-002 0. 0.
      0. 0. 0. 0. 0. 0. 0. 6.94444450e-003 0. 0. 0. 0. 0. 0. 0. 0. 0. 0.
      0. 0. 0. 0. 0. 0.</_>
    <_>
      0. 8.19672085e-003 0. 8.19672085e-003 0. 0. 0. 0. 0. 0. 0. 0.
      5.73770478e-002 0. 0. 0. 0. 0. 0. 0. 0. 0. 8.19672085e-003
      8.19672085e-003 0. 0. 0. 0. 0. 0. 0. 0. 2.45901626e-002 0. 0.
      1.63934417e-002 0. 0. 0. 0. 0. 8.19672085e-003 0. 0. 0. 0.
      2.45901626e-002 0. 0. 8.19672085e-003 0. 0. 3.27868834e-002 0. 0.
      0. 0. 0. 0. 0. 0. 0. 0. 8.19672085e-003 0. 2.45901626e-002 0. 0.
      0. 0. 0. 0. 0. 8.19672085e-003 8.19672048e-002 8.19672085e-003 0.
      1.63934417e-002 0. 0. 0. 0. 8.19672085e-003 0. 0. 4.91803251e-002
      0. 0. 0. 0. 0. 0. 0. 0. 0. 0. 0. 0. 0. 0. 0. 0. 0. 0. 0. 0. 0. 0.
      0. 0. 0. 0. 0. 0. 0. 0. 8.19672085e-003 0. 1.63934417e-002 0. 0.
      0. 0. 0. 0. 1.63934417e-002 0. 0. 0. 0. 0. 0. 0. 8.19672085e-003
      0. 0. 0. 0. 0. 0. 0. 8.19672085e-003 0. 0. 0. 0. 0. 0. 0. 0. 0. 0.
      8.19672085e-003 0. 0. 0. 0. 0. 0. 0. 0. 0. 0. 0. 0. 0. 0. 0. 0. 0.
      0. 0. 0. 8.19672085e-003 0. 0. 0. 1.63934417e-002 0. 0.
      8.19672085e-003 8.19672085e-003 0. 0. 0. 0. 0. 0. 0. 0. 0. 0. 0.
      8.19672085e-003 0. 0. 0. 0. 8.19672085e-003 0. 0. 0. 0. 0. 0. 0.
