<?xml version="1.0"?>
<opencv_storage>
<my_svm type_id="opencv-ml-svm">
  <svm_type>C_SVC</svm_type>
  <kernel><type>RBF</type>
    <gamma>5.0625000000000009e-001</gamma></kernel>
  <C>3.1250000000000000e+002</C>
  <term_criteria><epsilon>1.1920928955078125e-007</epsilon>
    <iterations>1000</iterations></term_criteria>
  <var_all>250</var_all>
  <var_count>250</var_count>
  <class_count>11</class_count>
  <class_labels type_id="opencv-matrix">
    <rows>1</rows>
    <cols>11</cols>
    <dt>i</dt>
    <data>
      1 2 3 4 5 6 7 8 20 27 30</data></class_labels>
  <sv_total>99</sv_total>
  <support_vectors>
    <_>
      0. 0. 3.37837860e-002 0. 0. 0. 0. 0. 0. 0. 0. 0. 2.70270277e-002
      6.75675692e-003 0. 0. 0. 0. 0. 0. 0. 0. 0. 0. 0. 0. 0. 0.
      6.75675692e-003 2.70270277e-002 0. 0. 0. 0. 0. 0. 0. 0.
      8.10810849e-002 0. 6.75675692e-003 0. 0. 2.02702712e-002 0. 0. 0.
      6.75675692e-003 0. 6.75675692e-003 0. 0. 1.35135138e-002 0.
      3.37837860e-002 0. 0. 0. 0. 0. 0. 0. 0. 0. 0. 0. 0. 0. 0. 0.
      2.02702701e-001 0. 0. 0. 0. 0. 2.70270277e-002 0. 0. 0.
      6.08108118e-002 0. 0. 6.75675692e-003 2.02702712e-002 0. 0. 0. 0.
      0. 0. 0. 0. 0. 6.75675692e-003 0. 0. 0. 0. 0. 0. 0. 0. 0. 0. 0. 0.
      0. 0. 0. 0. 0. 0. 0. 0. 0. 0. 0. 0. 0. 0. 0. 0. 0. 0. 0.
      2.02702712e-002 0. 0. 6.75675692e-003 0. 2.02702712e-002
      6.75675692e-003 0. 0. 0. 0. 0. 0. 0. 0. 0. 0. 0. 0. 0.
      6.75675692e-003 0. 0. 0. 0. 0. 0. 0. 2.22972974e-001 0. 0.
      6.75675692e-003 0. 0. 0. 0. 0. 0. 0. 0. 0. 0. 0. 0. 0. 0. 0. 0. 0.
      0. 0. 0. 0. 0. 6.75675692e-003 0. 0. 0. 0. 2.70270277e-002 0. 0.
      0. 0. 0. 0. 0. 0. 0. 0. 0. 0. 0. 0. 0. 6.75675692e-003 0. 0. 0.
      6.75675692e-003 0. 0. 0. 0. 6.75675692e-003 0. 0. 0.
      1.35135138e-002 0. 0. 0. 0. 0. 0. 0. 0. 0. 0. 0. 0. 0. 0. 0. 0. 0.
      0. 0. 0. 0. 0. 0. 0. 0. 6.75675692e-003 0. 0. 0. 0. 0. 0.
      4.05405425e-002 0. 0.</_>
    <_>
      0. 0. 2.11640205e-002 0. 0. 0. 0. 0. 0. 0. 0. 0. 5.29100513e-003
      0. 0. 0. 0. 0. 0. 0. 0. 0. 0. 0. 0. 0. 0. 0. 0. 2.64550261e-002 0.
      0. 0. 0. 0. 0. 0. 1.05820103e-002 2.59259254e-001 0. 0. 0.
      5.29100513e-003 1.58730149e-002 0. 0. 0. 0. 0. 0. 0. 0.
      4.23280410e-002 0. 4.23280410e-002 0. 0. 0. 0. 0. 0. 0. 0. 0. 0.
      0. 0. 0. 0. 3.70370373e-002 6.34920597e-002 0. 0. 0. 0. 0.
      4.23280410e-002 0. 0. 0. 1.58730149e-002 0. 0. 0. 1.05820103e-002
      0. 1.05820103e-002 0. 0. 5.29100513e-003 0. 0. 0. 0.
      5.29100513e-003 0. 0. 0. 0. 0. 0. 0. 0. 0. 0. 5.29100513e-003
      1.05820103e-002 0. 0. 0. 5.29100513e-003 0. 0. 0. 0. 0. 0. 0. 0.
      0. 0. 0. 0. 0. 0. 0. 1.58730149e-002 0. 0. 1.05820103e-002 0.
      3.70370373e-002 0. 0. 0. 0. 0. 0. 0. 0. 0. 0. 0. 0. 0. 0.
      1.05820103e-002 0. 0. 0. 0. 0. 0. 0. 2.06349194e-001 0.
      5.29100513e-003 0. 0. 0. 0. 0. 0. 0. 0. 0. 0. 0. 0. 0.
      1.05820103e-002 0. 0. 0. 0. 0. 0. 0. 0. 0. 5.29100513e-003 0.
      5.29100513e-003 0. 0. 0. 0. 0. 0. 0. 0. 0. 0. 0. 0. 0. 0. 0. 0. 0.
      0. 5.29100513e-003 0. 0. 0. 0. 0. 0. 0. 0. 5.29100513e-003 0. 0.
      0. 1.58730149e-002 0. 0. 0. 0. 1.05820103e-002 0. 0. 0. 0. 0. 0.
      0. 0. 0. 0. 0. 0. 0. 0. 0. 0. 0. 0. 0. 0. 5.29100513e-003 0. 0. 0.
      0. 0. 0. 5.29100513e-003 5.29100513e-003 0.</_>
    <_>
      0. 0. 7.94702023e-002 0. 0. 0. 0. 0. 0. 0. 0. 0. 5.96026480e-002
      0. 0. 0. 0. 0. 0. 0. 0. 0. 0. 0. 0. 0. 0. 0. 0. 3.31125818e-002 0.
      0. 0. 0. 0. 0. 0. 0. 1.19205296e-001 0. 1.32450331e-002
      6.62251655e-003 0. 0. 0. 0. 0. 0. 0. 0. 0. 0. 3.31125818e-002 0.
      1.98675506e-002 0. 0. 0. 0. 0. 0. 0. 0. 6.62251655e-003 0. 0. 0.
      0. 0. 2.64900662e-002 2.18543053e-001 0. 0. 0. 0. 0.
      1.98675506e-002 0. 6.62251655e-003 0. 6.62251655e-003 0. 0. 0.
      1.98675506e-002 0. 6.62251655e-003 0. 0. 0. 0. 0. 0. 0.
      1.32450331e-002 0. 0. 0. 0. 0. 0. 0. 0. 0. 0. 0. 0. 0. 0. 0. 0. 0.
      0. 0. 0. 0. 0. 0. 0. 0. 0. 0. 1.32450331e-002 0. 0. 0.
      1.32450331e-002 0. 0. 0. 0. 1.98675506e-002 0. 0. 0. 0. 0. 0. 0.
      0. 0. 0. 0. 0. 0. 0. 1.32450331e-002 0. 0. 0. 0. 0.
      1.32450331e-002 0. 1.52317882e-001 0. 0. 0. 0. 0. 0. 0. 0. 0. 0.
      0. 0. 0. 0. 0. 0. 0. 0. 0. 0. 0. 6.62251655e-003 0. 0. 0.
      6.62251655e-003 0. 0. 0. 0. 6.62251655e-003 0. 0. 0. 0. 0. 0. 0.
      0. 0. 0. 0. 0. 0. 0. 0. 6.62251655e-003 0. 0. 0. 0. 0. 0. 0. 0.
      1.98675506e-002 0. 0. 0. 1.32450331e-002 0. 0. 0. 0.
      6.62251655e-003 0. 0. 0. 0. 0. 0. 0. 0. 0. 0. 0. 0. 0. 0. 0. 0. 0.
      0. 0. 0. 0. 0. 0. 0. 0. 0. 0. 1.98675506e-002 0. 0.</_>
    <_>
      0. 0. 5.76923080e-002 0. 0. 0. 0. 0. 0. 0. 0. 0. 5.12820520e-002
      0. 0. 0. 0. 6.41025649e-003 0. 0. 0. 0. 0. 0. 0. 0. 0. 0.
      6.41025649e-003 1.92307699e-002 0. 0. 0. 0. 0. 0. 0. 0.
      3.84615399e-002 0. 0. 0. 0. 0. 0. 0. 6.41025649e-003 0. 0.
      1.28205130e-002 0. 0. 6.41025649e-003 0. 2.56410260e-002
      6.41025649e-003 0. 0. 0. 0. 0. 0. 0. 0. 0. 0. 0. 0. 0.
      1.28205130e-002 1.79487184e-001 0. 0. 0. 0. 0. 0. 0.
      1.28205130e-002 0. 1.28205130e-002 0. 0. 0. 1.28205130e-002 0. 0.
      0. 0. 0. 0. 0. 0. 0. 3.84615399e-002 0. 0. 0. 0. 0. 0.
      6.41025649e-003 0. 0. 0. 0. 0. 0. 0. 0. 1.28205130e-002 0. 0. 0.
      0. 0. 0. 0. 0. 0. 0. 0. 1.28205130e-002 0. 0. 0. 3.20512839e-002
      0. 0. 3.84615399e-002 0. 4.48717959e-002 0. 0. 0. 0. 0.
      6.41025649e-003 0. 0. 0. 0. 0. 0. 0. 0. 6.41025649e-003 0. 0. 0.
      0. 0. 0. 0. 2.56410271e-001 0. 0. 0. 0. 0. 0. 0. 0. 0. 0. 0. 0. 0.
      0. 0. 6.41025649e-003 0. 0. 0. 0. 0. 0. 0. 0. 0. 1.28205130e-002
      0. 0. 0. 0. 0. 0. 0. 0. 0. 0. 0. 0. 0. 0. 0. 0. 0. 0. 0. 0. 0. 0.
      0. 0. 0. 0. 0. 0. 0. 1.28205130e-002 0. 0. 0. 0. 0. 0. 0. 0. 0. 0.
      0. 0. 0. 0. 0. 0. 0. 0. 0. 0. 0. 0. 0. 0. 0. 0. 0. 0. 0. 0. 0. 0.
      0. 0. 0. 0. 4.48717959e-002 0. 0.</_>
    <_>
      0. 0. 6.46766126e-002 0. 0. 4.97512426e-003 0. 0. 0.
      4.97512426e-003 0. 0. 4.97512426e-003 0. 0. 0. 0. 0. 0. 0. 0. 0.
      0. 0. 0. 4.97512426e-003 9.95024852e-003 0. 0. 2.98507456e-002
      4.97512426e-003 0. 0. 0. 0. 0. 0. 0. 8.45771134e-002
      9.95024852e-003 0. 0. 0. 9.95024852e-003 0. 0. 4.97512426e-003 0.
      4.97512426e-003 0. 0. 0. 9.95024852e-003 1.49253728e-002
      4.97512426e-003 4.97512426e-003 0. 0. 9.95024852e-003 0. 0. 0. 0.
      0. 0. 0. 0. 0. 4.97512426e-003 5.97014911e-002 1.09452732e-001 0.
      0. 0. 0. 0. 2.48756222e-002 0. 0. 4.97512426e-003 9.95024852e-003
      4.97512426e-003 0. 0. 1.49253728e-002 0. 4.97512426e-003 0. 0. 0.
      0. 0. 0. 0. 0. 0. 9.95024852e-003 0. 0. 0. 9.95024852e-003 0. 0.
      0. 0. 4.97512426e-003 9.95024852e-003 0. 0. 0. 4.97512426e-003
      4.97512426e-003 0. 0. 0. 0. 0. 0. 0. 0. 0. 9.95024852e-003 0. 0.
      0. 0. 1.49253728e-002 0. 4.97512426e-003 1.49253728e-002 0.
      1.24378107e-001 0. 0. 0. 0. 0. 0. 0. 0. 4.97512426e-003 0.
      4.97512426e-003 0. 0. 0. 4.97512426e-003 0. 0. 0. 0. 0. 0. 0.
      1.44278601e-001 0. 0. 0. 0. 0. 0. 0. 0. 0. 0. 0. 0. 0. 0. 0.
      4.97512426e-003 0. 0. 0. 0. 0. 0. 0. 4.97512426e-003 0.
      4.97512426e-003 0. 0. 0. 0. 4.97512426e-003 4.97512426e-003 0. 0.
      0. 0. 0. 0. 0. 0. 0. 0. 0. 0. 0. 0. 0. 0. 0. 0. 0. 0.
      4.97512426e-003 0. 0. 9.95024852e-003 4.97512426e-003 0. 0.
      9.95024852e-003 0. 0. 0. 0. 0. 0. 4.97512426e-003 0. 0. 0. 0. 0.
      0. 0. 4.97512426e-003 0. 0. 0. 4.97512426e-003 0. 4.97512426e-003
      0. 0. 0. 0. 2.48756222e-002 0. 0. 0. 0. 0. 0. 0. 0. 0.</_>
    <_>
      0. 0. 6.59898445e-002 0. 0. 0. 0. 0. 0. 5.07614203e-003 0.
      5.07614203e-003 5.07614203e-003 0. 0. 0. 0. 5.07614203e-003 0. 0.
      0. 0. 0. 0. 0. 5.07614203e-003 0. 0. 0. 2.53807101e-002 0. 0. 0.
      0. 0. 0. 0. 0. 1.31979689e-001 0. 5.07614203e-003 0. 0.
      4.56852764e-002 0. 0. 1.01522841e-002 0. 0. 0. 0. 0. 0. 0.
      5.58375642e-002 0. 0. 0. 1.01522841e-002 0. 0. 0. 0. 0. 0. 0. 0.
      0. 0. 5.07614203e-003 1.47208124e-001 0. 0. 0. 0. 0. 0. 0.
      5.07614203e-003 0. 1.01522841e-002 5.07614203e-003 0. 0.
      2.03045681e-002 0. 1.52284261e-002 0. 0. 0. 0. 0. 0. 0. 0.
      5.07614203e-003 0. 0. 0. 0. 0. 0. 0. 5.07614203e-003
      5.07614203e-003 0. 1.01522841e-002 0. 0. 5.07614203e-003 0. 0.
      5.07614203e-003 0. 0. 0. 0. 0. 0. 0. 0. 1.01522841e-002 0. 0.
      5.07614203e-003 0. 2.03045681e-002 0. 0. 5.07614203e-003 0.
      9.13705528e-002 1.01522841e-002 0. 0. 0. 0. 0. 0. 0. 0. 0.
      5.07614203e-003 5.07614203e-003 0. 0. 5.07614203e-003 0. 0. 0. 0.
      0. 1.01522841e-002 0. 5.58375642e-002 5.07614203e-003 0. 0.
      1.01522841e-002 0. 0. 0. 0. 0. 0. 0. 0. 5.07614203e-003 0. 0.
      1.52284261e-002 0. 0. 1.01522841e-002 0. 0. 0. 0. 0. 0. 0. 0. 0.
      0. 0. 0. 0. 0. 0. 0. 0. 0. 0. 5.07614203e-003 0. 0. 0. 0. 0. 0. 0.
      2.03045681e-002 0. 0. 0. 0. 0. 5.07614203e-003 0. 0.
      5.07614203e-003 5.07614203e-003 5.07614203e-003 0. 5.07614203e-003
      0. 0. 0. 0. 1.01522841e-002 0. 0. 5.07614203e-003 0. 0. 0.
      1.01522841e-002 0. 0. 0. 0. 0. 0. 0. 0. 0. 0. 0. 0. 0.
      3.55329961e-002 0. 0. 0. 0. 0. 0. 0. 0. 0.</_>
    <_>
      0. 0. 1.96078438e-002 0. 0. 0. 0. 0. 0. 6.53594779e-003 0. 0.
      3.92156877e-002 0. 6.53594779e-003 0. 0. 0. 0. 0. 0. 0. 0. 0. 0.
      0. 0. 0. 0. 1.96078438e-002 0. 0. 0. 0. 0. 0. 0. 0.
      1.04575165e-001 0. 0. 0. 0. 6.53594779e-003 0. 0. 0. 0. 0. 0. 0.
      0. 6.53594779e-003 0. 6.53594779e-003 6.53594779e-003 0. 0. 0. 0.
      0. 0. 0. 0. 0. 0. 0. 0. 0. 6.53594779e-003 2.87581712e-001 0. 0.
      0. 0. 0. 1.30718956e-002 0. 6.53594779e-003 0. 1.96078438e-002 0.
      0. 0. 0. 0. 1.30718956e-002 0. 0. 0. 0. 0. 0. 0. 2.61437912e-002
      0. 0. 0. 0. 0. 0. 0. 0. 0. 0. 0. 0. 0. 0. 0. 0. 0. 0. 0. 0. 0. 0.
      0. 0. 0. 0. 0. 6.53594779e-003 0. 0. 0. 6.53594779e-003 0. 0.
      6.53594779e-003 0. 3.26797403e-002 0. 0. 0. 0. 0. 0. 0. 0. 0. 0.
      0. 6.53594779e-003 0. 0. 6.53594779e-003 0. 0. 0. 0. 0. 0. 0.
      1.83006540e-001 0. 0. 0. 6.53594779e-003 0. 0. 0. 0. 0. 0. 0.
      6.53594779e-003 0. 0. 0. 0. 0. 0. 6.53594779e-003 0. 0.
      6.53594779e-003 0. 0. 0. 3.26797403e-002 0. 0. 0. 0.
      1.96078438e-002 0. 0. 0. 0. 0. 0. 0. 0. 0. 0. 0. 0. 0. 0. 0. 0. 0.
      0. 6.53594779e-003 6.53594779e-003 0. 6.53594779e-003 0. 0.
      6.53594779e-003 0. 0. 0. 6.53594779e-003 0. 0. 0. 0. 0. 0. 0.
      6.53594779e-003 0. 0. 0. 0. 0. 0. 0. 0. 0. 0. 0. 0. 0. 0. 0. 0. 0.
      2.61437912e-002 0. 0. 0. 0. 0. 0. 1.30718956e-002 0. 0.</_>
    <_>
      1.83823537e-002 0. 7.35294120e-003 1.83823537e-002 7.35294120e-003
      0. 0. 0. 0. 0. 0. 0. 3.67647060e-003 2.20588241e-002
      7.35294120e-003 0. 0. 2.57352944e-002 2.20588241e-002 0. 0.
      3.67647074e-002 0. 0. 0. 3.67647060e-003 0. 7.35294120e-003 0.
      3.67647060e-003 0. 0. 0. 3.67647060e-003 0. 0. 1.83823537e-002 0.
      1.83823537e-002 0. 0. 1.83823537e-002 1.83823537e-002
      3.67647060e-003 0. 0. 1.47058824e-002 0. 0. 1.47058824e-002
      3.67647060e-003 0. 3.67647060e-003 0. 0. 1.10294120e-002
      3.67647060e-003 0. 0. 0. 0. 3.67647060e-003 0. 0. 3.67647060e-003
      0. 0. 0. 3.67647060e-003 2.20588241e-002 1.47058824e-002 0. 0. 0.
      0. 0. 3.67647060e-003 0. 7.35294120e-003 3.67647074e-002 0. 0. 0.
      1.10294120e-002 7.35294120e-003 0. 0. 1.10294120e-002 0. 0. 0.
      7.35294120e-003 0. 0. 3.67647060e-003 0. 0. 0. 0. 0.
      3.67647060e-003 0. 0. 0. 0. 0. 0. 3.30882370e-002 0. 0. 0. 0. 0.
      3.67647060e-003 0. 3.67647060e-003 0. 0. 0. 0. 3.67647060e-003
      3.67647060e-003 2.94117648e-002 0. 3.67647060e-003 0. 0. 0. 0.
      3.67647060e-003 0. 1.10294120e-002 1.10294120e-002 3.67647060e-003
      0. 2.57352944e-002 0. 0. 0. 0. 0. 0. 0. 0. 0. 0. 3.67647060e-003
      0. 0. 0. 0. 3.67647060e-003 7.35294120e-003 3.67647060e-003 0. 0.
      0. 2.57352944e-002 1.10294120e-002 0. 0. 1.10294120e-002 0. 0. 0.
      0. 3.67647060e-003 0. 0. 0. 2.20588241e-002 0. 4.04411778e-002
      3.67647060e-003 0. 0. 1.47058824e-002 0. 3.67647060e-003 0. 0. 0.
      4.77941185e-002 0. 0. 4.04411778e-002 0. 0. 0. 3.67647060e-003
      3.67647060e-003 0. 0. 0. 0. 3.67647060e-003 2.57352944e-002
      3.67647060e-003 0. 0. 0. 3.67647060e-003 0. 0. 0. 0.
      7.35294120e-003 3.67647060e-003 0. 3.67647060e-003 0. 0. 0. 0.
      7.35294120e-003 0. 0. 0. 0. 0. 0. 0. 3.67647060e-003 0. 0. 0.
      2.20588241e-002 0. 0. 0. 0. 0. 0. 0. 0. 0. 0. 0. 0.
      1.83823537e-002 1.10294120e-002 0. 0. 3.67647060e-003 0. 0. 0.
      3.67647074e-002 3.67647060e-003 0.</_>
    <_>
      4.00000019e-003 0. 2.40000002e-002 1.20000001e-002 0. 0. 0. 0. 0.
      0. 0. 1.20000001e-002 8.00000038e-003 4.00000019e-003
      1.20000001e-002 0. 0. 0. 2.40000002e-002 0. 0. 3.60000022e-002 0.
      4.00000019e-003 0. 0. 0. 2.80000009e-002 0. 0. 0. 0. 0. 0. 0.
      4.00000019e-003 4.00000019e-003 0. 1.20000001e-002 0.
      8.00000038e-003 4.40000035e-002 2.00000014e-002 0. 0. 0.
      3.20000015e-002 0. 0. 4.00000019e-003 4.00000019e-003 0.
      1.60000008e-002 0. 1.20000001e-002 4.00000019e-003 0. 0. 0. 0. 0.
      1.60000008e-002 0. 0. 0. 0. 0. 0. 8.00000038e-003 8.00000038e-003
      0. 0. 0. 0. 0. 0. 1.20000001e-002 0. 3.20000015e-002
      3.20000015e-002 8.00000038e-003 0. 0. 1.20000001e-002
      4.00000019e-003 0. 0. 1.60000008e-002 0. 8.00000038e-003 0.
      8.00000038e-003 0. 0. 1.20000001e-002 4.00000019e-003 0. 0. 0. 0.
      0. 0. 0. 0. 0. 0. 1.20000001e-002 4.00000019e-003 0.
      4.00000019e-003 4.00000019e-003 0. 0. 1.20000001e-002 0. 0.
      8.00000038e-003 0. 0. 0. 2.00000014e-002 0. 8.00000038e-003 0. 0.
      0. 0. 0. 0. 4.00000019e-003 0. 8.00000038e-003 2.40000002e-002 0.
      0. 1.20000001e-002 0. 1.60000008e-002 0. 0. 0. 0. 0. 0. 0. 0. 0.
      0. 0. 0. 0. 0. 0. 4.00000019e-003 8.00000038e-003 4.00000019e-003
      0. 2.40000002e-002 3.20000015e-002 0. 0. 1.20000001e-002
      4.00000019e-003 0. 0. 0. 0. 0. 0. 0. 3.60000022e-002 0.
      2.00000014e-002 0. 0. 4.00000019e-003 1.20000001e-002 0. 0. 0. 0.
      0. 1.60000008e-002 0. 0. 3.60000022e-002 0. 0. 4.00000019e-003 0.
      4.00000019e-003 0. 0. 0. 0. 0. 0. 0. 0. 0. 0. 0. 4.00000019e-003
      0. 0. 0. 0. 1.60000008e-002 0. 4.00000019e-003 0. 0. 0. 0.
      8.00000038e-003 0. 0. 0. 0. 0. 8.00000038e-003 0. 0. 0. 0.
      8.00000038e-003 0. 0. 0. 0. 0. 0. 0. 0. 0. 0. 0. 0. 0.
      8.00000038e-003 2.40000002e-002 0. 0. 0. 0. 0. 0. 5.20000011e-002
      0. 0.</_>
    <_>
      1.39860138e-002 0. 1.04895104e-002 1.04895104e-002 0. 0.
      3.49650346e-003 0. 0. 6.99300691e-003 0. 3.14685330e-002
      1.74825173e-002 1.39860138e-002 3.49650346e-003 0. 0.
      1.74825173e-002 2.09790207e-002 0. 0. 3.49650346e-003 0. 0. 0.
      3.49650346e-003 0. 1.74825173e-002 0. 0. 3.49650346e-003 0. 0. 0.
      0. 0. 1.39860138e-002 0. 1.74825173e-002 0. 1.74825173e-002
      2.09790207e-002 2.09790207e-002 3.49650346e-003 0. 3.49650346e-003
      3.49650346e-002 0. 0. 1.39860138e-002 0. 0. 2.09790207e-002 0.
      3.49650346e-003 6.99300691e-003 0. 0. 0. 0. 0. 6.99300691e-003
      6.99300691e-003 3.49650346e-003 0. 0. 0. 0. 1.04895104e-002
      6.99300691e-003 6.99300691e-003 0. 0. 0. 0. 0. 1.04895104e-002 0.
      2.79720277e-002 4.19580415e-002 1.39860138e-002 0. 3.49650346e-003
      0. 1.39860138e-002 0. 0. 6.99300691e-003 0. 0. 0. 0. 0. 0.
      3.49650346e-003 0. 0. 0. 0. 0. 0. 0. 0. 0. 0. 3.49650346e-003 0.
      1.04895104e-002 0. 0. 1.04895104e-002 3.49650346e-003
      3.49650346e-003 0. 0. 0. 0. 0. 0. 0. 2.09790207e-002 0.
      6.99300691e-003 0. 6.99300691e-003 3.49650346e-003 3.49650346e-003
      0. 0. 0. 0. 2.09790207e-002 2.79720277e-002 0. 0. 1.04895104e-002
      0. 1.04895104e-002 0. 0. 0. 1.74825173e-002 3.49650346e-003
      3.49650346e-003 0. 0. 0. 0. 0. 0. 0. 0. 0. 0. 1.04895104e-002 0.
      0. 3.84615362e-002 1.39860138e-002 0. 0. 2.44755242e-002 0. 0. 0.
      0. 0. 0. 0. 0. 2.09790207e-002 3.49650346e-003 2.44755242e-002 0.
      0. 0. 6.99300691e-003 0. 0. 0. 6.99300691e-003 0. 2.79720277e-002
      0. 0. 3.14685330e-002 3.49650346e-003 0. 0. 0. 3.49650346e-003 0.
      0. 0. 0. 0. 1.74825173e-002 0. 0. 0. 0. 3.49650346e-003 0. 0. 0.
      0. 0. 6.99300691e-003 0. 1.04895104e-002 0. 0. 0. 0. 0. 0. 0. 0.
      0. 0. 3.49650346e-003 3.49650346e-003 3.49650346e-003 0. 0.
      3.49650346e-003 1.04895104e-002 0. 0. 0. 0. 0. 0. 0. 0. 0. 0. 0.
      0. 1.39860138e-002 0. 0. 0. 3.49650346e-003 0. 3.49650346e-003 0.
      1.04895104e-002 0. 0.</_>
    <_>
      3.42465751e-003 3.42465751e-003 1.71232875e-002 6.84931502e-003 0.
      0. 0. 0. 0. 3.42465751e-003 0. 6.84931502e-003 3.42465751e-003
      2.39726026e-002 6.84931502e-003 0. 0. 1.36986300e-002
      1.36986300e-002 0. 0. 4.45205495e-002 0. 3.42465751e-003 0.
      3.42465751e-003 0. 6.84931502e-003 0. 1.36986300e-002 0. 0. 0.
      3.42465751e-003 3.42465751e-003 0. 1.36986300e-002 6.84931502e-003
      2.05479451e-002 0. 1.02739725e-002 2.39726026e-002 1.36986300e-002
      3.42465751e-003 0. 0. 1.02739725e-002 0. 0. 1.71232875e-002 0. 0.
      1.02739725e-002 0. 1.02739725e-002 1.71232875e-002 0. 0.
      3.42465751e-003 3.42465751e-003 0. 6.84931502e-003 1.02739725e-002
      3.42465751e-003 0. 0. 0. 0. 0. 1.02739725e-002 0. 0. 0. 0. 0. 0.
      1.71232875e-002 0. 3.42465751e-003 1.71232875e-002 3.42465751e-003
      3.42465751e-003 0. 3.42465751e-002 2.39726026e-002 0. 0.
      2.05479451e-002 0. 3.42465751e-003 0. 1.02739725e-002 0. 0.
      3.42465751e-003 0. 0. 0. 6.84931502e-003 0. 0. 0. 0. 0. 0. 0.
      6.84931502e-003 3.42465751e-003 0. 3.42465751e-003 3.42465751e-003
      0. 0. 6.84931502e-003 0. 0. 6.84931502e-003 0. 6.84931502e-003 0.
      1.36986300e-002 0. 1.71232875e-002 0. 1.71232875e-002 0.
      3.42465751e-003 0. 0. 0. 0. 1.71232875e-002 1.36986300e-002 0.
      3.42465751e-003 0. 0. 1.71232875e-002 0. 0. 3.42465751e-003
      1.36986300e-002 0. 3.42465751e-003 0. 3.42465751e-003 0. 0. 0. 0.
      3.42465751e-003 0. 3.42465751e-003 0. 0. 0. 0. 2.05479451e-002
      3.76712307e-002 0. 0. 1.02739725e-002 3.42465751e-003 0. 0. 0. 0.
      0. 0. 3.42465751e-003 3.76712307e-002 0. 0. 3.42465751e-003 0. 0.
      0. 3.42465751e-003 3.42465751e-003 0. 0. 0. 3.42465751e-003 0. 0.
      6.84931502e-003 0. 0. 0. 6.84931502e-003 0. 0. 0. 0. 0. 0.
      2.39726026e-002 0. 0. 0. 0. 3.42465751e-003 0. 0. 0. 0. 0.
      1.02739725e-002 0. 3.42465751e-003 3.42465751e-003 0. 0. 0.
      6.84931502e-003 0. 0. 0. 0. 0. 1.36986300e-002 3.42465751e-003
      3.42465751e-003 0. 3.42465751e-003 6.84931502e-003 1.02739725e-002
      0. 0. 0. 0. 0. 0. 3.42465751e-003 0. 0. 3.42465751e-003 0. 0.
      1.36986300e-002 3.08219176e-002 3.42465751e-003 0. 3.42465751e-003
      3.42465751e-003 0. 0. 1.02739725e-002 0. 0.</_>
    <_>
      1.35135138e-002 0. 3.71621624e-002 1.68918930e-002 6.75675692e-003
      0. 0. 0. 0. 1.01351356e-002 0. 1.01351356e-002 3.37837846e-003 0.
      6.75675692e-003 0. 0. 1.68918930e-002 1.01351356e-002 0. 0.
      3.04054059e-002 0. 0. 0. 6.75675692e-003 0. 6.75675692e-003 0.
      6.75675692e-003 0. 0. 0. 0. 0. 0. 3.37837846e-003 0.
      1.35135138e-002 6.75675692e-003 2.70270277e-002 2.36486495e-002
      3.37837846e-003 3.37837846e-003 0. 0. 2.36486495e-002 0. 0.
      2.36486495e-002 0. 0. 1.68918930e-002 0. 6.75675692e-003
      6.75675692e-003 0. 0. 0. 0. 0. 0. 0. 0. 0. 0. 0. 0.
      3.37837846e-003 3.37837846e-003 3.37837846e-003 0. 0. 0. 0. 0.
      1.01351356e-002 0. 2.70270277e-002 2.02702712e-002 0. 0. 0.
      1.68918930e-002 2.36486495e-002 0. 0. 6.75675692e-003 0. 0. 0.
      3.37837846e-003 0. 0. 6.75675692e-003 0. 0. 0. 6.75675692e-003 0.
      0. 0. 0. 0. 0. 0. 3.37837846e-003 3.37837846e-003 3.37837846e-003
      3.37837846e-003 1.01351356e-002 0. 0. 6.75675692e-003 0. 0.
      3.37837846e-003 0. 0. 0. 1.01351356e-002 0. 2.02702712e-002 0.
      6.75675692e-003 0. 0. 0. 0. 3.37837846e-003 0. 6.75675692e-003
      4.05405425e-002 0. 0. 0. 0. 1.01351356e-002 0. 0. 0.
      6.75675692e-003 3.37837846e-003 3.37837846e-003 0. 0.
      3.37837846e-003 0. 0. 0. 3.37837846e-003 0. 0. 0. 6.75675692e-003
      0. 0. 1.68918930e-002 4.72972989e-002 0. 0. 1.35135138e-002 0. 0.
      0. 0. 0. 0. 0. 0. 1.68918930e-002 0. 1.68918930e-002
      3.37837846e-003 0. 0. 1.01351356e-002 0. 0. 0. 0. 0.
      5.40540554e-002 0. 0. 3.71621624e-002 3.37837846e-003 0. 0. 0.
      3.37837846e-003 0. 0. 0. 0. 1.35135138e-002 3.37837846e-003 0. 0.
      0. 0. 0. 0. 0. 0. 0. 0. 6.75675692e-003 0. 6.75675692e-003 0. 0.
      0. 0. 0. 3.37837846e-003 0. 0. 3.37837846e-003 0. 3.37837846e-003
      1.35135138e-002 3.37837846e-003 3.37837846e-003 0. 1.35135138e-002
      1.01351356e-002 0. 0. 0. 0. 0. 0. 0. 0. 0. 0. 0. 0.
      2.36486495e-002 1.01351356e-002 1.01351356e-002 0. 3.37837846e-003
      0. 0. 0. 1.35135138e-002 0. 0.</_>
    <_>
      1.04529615e-002 3.48432059e-003 2.43902449e-002 1.04529615e-002
      6.96864119e-003 0. 0. 0. 0. 6.96864119e-003 0. 2.09059231e-002
      1.74216032e-002 1.04529615e-002 0. 0. 0. 1.04529615e-002
      2.43902449e-002 0. 0. 2.09059231e-002 0. 0. 0. 1.04529615e-002 0.
      3.48432059e-003 0. 1.04529615e-002 3.48432059e-003 0. 0. 0. 0.
      3.48432059e-003 1.39372824e-002 0. 7.31707290e-002 0.
      1.39372824e-002 2.09059231e-002 1.04529615e-002 0. 0.
      3.48432059e-003 2.43902449e-002 3.48432059e-003 0. 1.04529615e-002
      0. 0. 0. 0. 3.48432059e-003 2.09059231e-002 0. 0. 0. 0. 0. 0. 0.
      0. 0. 0. 0. 0. 0. 1.39372824e-002 0. 0. 0. 0. 0. 0. 0. 0.
      2.78745648e-002 1.39372824e-002 3.48432059e-003 3.48432059e-003 0.
      3.48432059e-003 1.74216032e-002 0. 0. 3.48432059e-003 0.
      1.74216032e-002 3.48432059e-003 6.96864119e-003 0. 0.
      3.48432059e-003 0. 0. 6.96864119e-003 0. 0. 0. 0. 0. 0. 0. 0. 0.
      1.04529615e-002 0. 6.96864119e-003 0. 0. 0. 2.43902449e-002 0. 0.
      6.96864119e-003 0. 3.48432059e-003 0. 1.74216032e-002 0.
      2.43902449e-002 0. 1.04529615e-002 0. 0. 0. 0. 6.96864119e-003 0.
      1.74216032e-002 1.39372824e-002 3.48432059e-003 0. 6.96864119e-003
      0. 1.04529615e-002 0. 0. 0. 0. 0. 6.96864119e-003 0. 0. 0. 0. 0.
      0. 0. 0. 0. 3.48432059e-003 3.48432064e-002 0. 0. 2.09059231e-002
      4.52961661e-002 0. 0. 1.39372824e-002 0. 0. 0. 0. 0.
      6.96864119e-003 0. 0. 6.96864119e-003 0. 1.39372824e-002 0. 0. 0.
      1.39372824e-002 3.48432059e-003 6.96864119e-003 0. 0. 0.
      1.04529615e-002 0. 0. 2.09059231e-002 0. 0. 0. 0. 0. 0. 0. 0. 0.
      0. 3.48432059e-003 0. 0. 0. 0. 0. 0. 0. 0. 0. 0. 2.43902449e-002
      0. 3.48432059e-003 0. 0. 3.48432059e-003 0. 3.48432059e-003 0. 0.
      0. 0. 0. 3.48432059e-003 0. 1.04529615e-002 0. 0. 6.96864119e-003
      3.48432059e-003 0. 0. 0. 0. 0. 0. 3.48432059e-003 0. 0. 0. 0. 0.
      2.78745648e-002 6.96864119e-003 0. 0. 0. 0. 0. 0. 3.48432059e-003
      0. 0.</_>
    <_>
      8.03212821e-003 0. 2.40963846e-002 8.03212821e-003 8.03212821e-003
      0. 0. 8.03212821e-003 0. 0. 0. 8.03212821e-003 8.03212821e-003
      8.03212821e-003 4.01606411e-003 0. 0. 1.60642564e-002
      1.20481923e-002 0. 0. 2.40963846e-002 0. 0. 0. 0. 0.
      8.03212821e-003 0. 8.03212821e-003 0. 0. 0. 0. 4.01606411e-003 0.
      1.20481923e-002 4.01606411e-003 4.01606411e-003 0. 2.00803205e-002
      8.03212821e-003 8.03212821e-003 8.03212821e-003 0. 1.20481923e-002
      2.40963846e-002 0. 4.01606411e-003 2.81124488e-002 0. 0.
      4.01606411e-003 0. 8.03212821e-003 1.60642564e-002 0. 0.
      4.01606411e-003 0. 8.03212821e-003 8.03212821e-003 4.01606411e-003
      0. 0. 0. 0. 0. 8.03212821e-003 1.60642564e-002 0. 0. 0. 0. 0. 0.
      8.03212821e-003 0. 8.03212821e-003 1.60642564e-002 1.20481923e-002
      8.03212821e-003 4.01606411e-003 8.03212821e-003 8.03212821e-003 0.
      0. 1.20481923e-002 0. 0. 0. 8.03212821e-003 0. 0. 8.03212821e-003
      0. 0. 4.01606411e-003 0. 0. 4.01606411e-003 0. 0. 0. 0. 0. 0.
      8.03212821e-003 0. 0. 0. 4.01606411e-003 0. 0. 0. 0. 0. 0. 0. 0.
      8.03212821e-003 0. 2.00803205e-002 0. 1.60642564e-002 0. 0. 0. 0.
      0. 4.01606411e-003 8.03212821e-003 2.81124488e-002 0.
      4.01606411e-003 1.60642564e-002 0. 1.20481923e-002 0. 0. 0.
      4.01606411e-003 0. 8.03212821e-003 0. 0. 0. 0. 0. 0. 0. 0.
      4.01606411e-003 0. 2.00803205e-002 0. 0. 2.00803205e-002
      2.81124488e-002 0. 0. 8.03212821e-003 0. 0. 0. 0. 0.
      8.03212821e-003 0. 0. 5.22088334e-002 0. 4.01606411e-003 0. 0. 0.
      2.00803205e-002 0. 4.01606411e-003 0. 0. 0. 2.00803205e-002 0. 0.
      3.61445770e-002 0. 0. 4.01606411e-003 0. 0. 0. 0. 0. 0. 0.
      2.40963846e-002 0. 0. 0. 0. 0. 8.03212821e-003 0. 0. 0. 0.
      2.81124488e-002 0. 0. 0. 0. 0. 0. 0. 0. 0. 0. 0. 0. 0. 0. 0. 0. 0.
      1.20481923e-002 3.21285129e-002 0. 0. 0. 0. 0. 0. 0. 0. 0. 0. 0.
      0. 8.03212821e-003 1.20481923e-002 0. 0. 0. 4.01606411e-003 0. 0.
      2.40963846e-002 4.01606411e-003 0.</_>
    <_>
      9.77198686e-003 0. 2.60586310e-002 3.25732888e-003 0. 0. 0. 0. 0.
      3.25732888e-003 0. 0. 3.25732888e-003 6.51465775e-003
      9.77198686e-003 0. 0. 1.30293155e-002 9.77198686e-003 0. 0.
      1.95439737e-002 0. 0. 0. 3.25732888e-003 0. 3.25732888e-003 0. 0.
      0. 0. 0. 0. 0. 0. 6.51465775e-003 0. 6.51465775e-003 0.
      1.62866451e-002 1.95439737e-002 6.51465775e-003 1.95439737e-002 0.
      0. 1.62866451e-002 3.25732888e-003 0. 2.60586310e-002 0.
      3.25732888e-003 0. 0. 1.30293155e-002 2.28013024e-002 0. 0. 0. 0.
      0. 3.25732888e-003 3.25732888e-003 0. 0. 0. 0. 0. 0.
      9.77198686e-003 1.30293155e-002 0. 0. 0. 0. 0. 1.95439737e-002 0.
      2.60586310e-002 1.62866451e-002 1.30293155e-002 0. 0.
      1.95439737e-002 1.95439737e-002 0. 0. 2.93159597e-002 0.
      6.51465775e-003 0. 6.51465775e-003 0. 0. 9.77198686e-003 0. 0.
      3.25732888e-003 0. 0. 0. 0. 0. 0. 0. 3.25732888e-003 0.
      3.25732888e-003 3.25732888e-003 0. 3.25732888e-003 3.25732888e-003
      3.25732888e-003 9.77198686e-003 0. 0. 6.51465775e-003 0. 0. 0.
      2.60586310e-002 0. 2.60586310e-002 0. 1.95439737e-002 0.
      3.25732888e-003 0. 3.25732888e-003 1.30293155e-002 0.
      2.93159597e-002 2.60586310e-002 0. 0. 6.51465775e-003 0.
      9.77198686e-003 0. 0. 3.25732888e-003 3.25732888e-003
      3.25732888e-003 3.25732888e-003 0. 0. 3.25732888e-003 0. 0. 0. 0.
      3.25732888e-003 3.25732888e-003 0. 1.62866451e-002 0. 0.
      2.60586310e-002 4.23452742e-002 0. 0. 9.77198686e-003 0. 0. 0. 0.
      0. 0. 0. 0. 9.77198686e-003 0. 1.30293155e-002 0. 0. 0.
      1.62866451e-002 0. 3.25732888e-003 0. 0. 0. 1.95439737e-002 0. 0.
      4.56026047e-002 0. 0. 0. 0. 0. 0. 0. 0. 0. 0. 1.95439737e-002 0.
      0. 0. 0. 3.25732888e-003 0. 0. 0. 3.25732888e-003 0.
      3.25732888e-003 0. 3.25732888e-003 0. 0. 0. 0. 0. 0. 0.
      3.25732888e-003 0. 0. 1.95439737e-002 3.25732888e-003 0. 0. 0.
      3.25732888e-003 6.51465775e-003 0. 0. 0. 0. 0. 0. 3.25732888e-003
      0. 0. 0. 0. 0. 2.28013024e-002 9.77198686e-003 0. 0. 0. 0. 0. 0.
      3.25732888e-003 0. 0.</_>
    <_>
      2.26415098e-002 0. 3.39622647e-002 7.54716992e-003 7.54716992e-003
      0. 0. 0. 0. 0. 0. 1.13207549e-002 3.77358496e-003 1.13207549e-002
      1.50943398e-002 0. 0. 7.54716992e-003 1.50943398e-002 0. 0.
      1.50943398e-002 0. 0. 0. 3.77358496e-003 0. 3.77358496e-003 0. 0.
      0. 0. 0. 0. 0. 0. 3.77358496e-003 0. 3.39622647e-002 0.
      3.01886797e-002 1.13207549e-002 7.54716992e-003 7.54716992e-003 0.
      0. 2.26415098e-002 3.77358496e-003 0. 2.26415098e-002 0. 0.
      7.54716992e-003 0. 1.13207549e-002 7.54716992e-003 0. 0.
      3.77358496e-003 0. 0. 0. 0. 0. 0. 0. 0. 0. 0. 1.50943398e-002 0.
      0. 0. 0. 0. 0. 1.50943398e-002 0. 1.13207549e-002 2.64150947e-002
      7.54716992e-003 0. 0. 3.77358496e-003 1.88679248e-002 0. 0.
      1.50943398e-002 0. 1.13207549e-002 0. 7.54716992e-003 0. 0.
      3.77358496e-003 0. 0. 3.77358496e-003 0. 0. 3.77358496e-003 0. 0.
      0. 0. 3.77358496e-003 3.77358496e-003 5.28301895e-002 0. 0. 0. 0.
      3.77358496e-003 2.26415098e-002 0. 0. 7.54716992e-003 0.
      7.54716992e-003 0. 7.54716992e-003 0. 2.26415098e-002 0.
      7.54716992e-003 0. 0. 3.77358496e-003 0. 3.77358496e-003 0.
      1.50943398e-002 3.77358496e-002 0. 0. 3.39622647e-002 0.
      1.50943398e-002 0. 0. 0. 0. 0. 1.50943398e-002 0. 0. 0. 0. 0. 0.
      0. 0. 0. 0. 0. 0. 0. 7.54716992e-003 3.77358496e-003 0.
      3.77358496e-003 1.13207549e-002 0. 0. 0. 0. 0. 3.77358496e-003 0.
      0. 2.26415098e-002 0. 2.64150947e-002 0. 0. 0. 1.13207549e-002 0.
      3.77358496e-003 0. 0. 0. 1.50943398e-002 0. 0. 5.28301895e-002
      3.77358496e-003 0. 0. 0. 0. 0. 0. 0. 0. 0. 3.77358496e-003
      3.77358496e-003 0. 0. 0. 0. 0. 0. 3.77358496e-003 0. 0.
      7.54716992e-003 0. 0. 0. 0. 0. 0. 0. 0. 0. 0. 0. 0.
      1.50943398e-002 3.77358496e-003 0. 7.54716992e-003 0.
      3.77358496e-003 1.88679248e-002 0. 0. 0. 0. 0. 0. 3.77358496e-003
      0. 0. 0. 0. 0. 7.54716992e-003 3.77358496e-003 0. 0.
      3.77358496e-003 0. 0. 0. 7.54716992e-003 0. 0.</_>
    <_>
      0. 1.91938574e-003 1.72744710e-002 0. 1.91938574e-003
      1.91938574e-003 9.59692895e-003 1.91938574e-003 0. 5.75815700e-003
      1.91938574e-003 0. 5.75815700e-003 3.83877149e-003 3.07101719e-002
      3.83877149e-003 5.75815700e-003 3.83877149e-003 0. 1.91938574e-003
      3.83877149e-003 0. 2.30326280e-002 5.75815700e-003 3.83877149e-003
      0. 7.67754298e-003 0. 3.83877149e-003 5.75815700e-003 0.
      3.83877149e-003 5.75815700e-003 5.75815700e-003 0. 7.67754298e-003
      0. 3.83877149e-003 1.53550860e-002 3.83877149e-003 3.83877149e-003
      1.91938574e-003 1.91938574e-003 1.91938574e-003 3.83877149e-003 0.
      0. 0. 3.83877149e-003 3.83877149e-003 9.59692895e-003
      3.83877149e-003 0. 7.67754298e-003 5.75815700e-003 1.91938574e-003
      1.91938574e-003 5.75815700e-003 1.72744710e-002 5.75815700e-003 0.
      0. 0. 3.83877149e-003 3.83877149e-003 3.83877149e-003
      3.83877149e-003 0. 0. 0. 1.91938574e-003 1.53550860e-002 0. 0. 0.
      1.91938574e-003 1.91938574e-003 1.91938574e-003 1.72744710e-002 0.
      1.91938574e-003 9.59692895e-003 5.75815700e-003 0. 7.67754298e-003
      3.83877149e-003 0. 0. 5.75815700e-003 5.75815700e-003
      1.91938574e-003 3.83877149e-003 0. 5.75815700e-003 0.
      3.83877149e-003 3.83877149e-003 1.15163140e-002 3.83877149e-003
      1.91938574e-003 9.59692895e-003 3.83877149e-003 5.75815700e-003
      7.67754298e-003 0. 1.91938574e-003 0. 0. 5.75815700e-003
      1.91938579e-002 0. 0. 5.75815700e-003 7.67754298e-003 0. 0.
      1.91938574e-003 0. 0. 3.83877149e-003 1.34357000e-002
      3.83877149e-003 7.67754298e-003 0. 0. 0. 0. 0. 7.67754298e-003
      7.67754298e-003 0. 7.67754298e-003 0. 1.91938574e-003
      1.91938574e-003 0. 2.30326280e-002 1.15163140e-002 0.
      3.83877149e-003 7.67754298e-003 0. 0. 1.15163140e-002 0.
      1.91938574e-003 0. 1.91938574e-003 0. 1.91938574e-003
      3.83877149e-003 5.75815700e-003 0. 1.91938574e-003 5.75815700e-003
      1.34357000e-002 3.83877149e-003 0. 0. 3.83877149e-003 0. 0.
      1.53550860e-002 0. 0. 3.83877149e-003 9.59692895e-003
      2.68714000e-002 0. 1.91938574e-003 0. 9.59692895e-003
      9.59692895e-003 0. 7.67754298e-003 5.75815700e-003 9.59692895e-003
      0. 5.75815700e-003 0. 0. 3.83877149e-003 1.91938574e-003 0. 0.
      3.83877149e-003 1.53550860e-002 1.72744710e-002 2.49520149e-002 0.
      0. 0. 0. 3.83877149e-003 0. 5.75815700e-003 0. 0. 1.91938574e-003
      0. 9.59692895e-003 0. 3.83877149e-003 9.59692895e-003
      1.15163140e-002 3.83877149e-003 1.91938574e-003 0. 1.91938574e-003
      3.83877149e-003 0. 9.59692895e-003 1.91938574e-003 7.67754298e-003
      3.83877149e-003 3.83877149e-003 1.91938574e-003 0. 0. 0.
      7.67754298e-003 1.91938574e-003 0. 0. 0. 0. 3.83877149e-003
      3.83877149e-003 0. 0. 9.59692895e-003 1.91938574e-003
      1.15163140e-002 3.83877149e-003 1.15163140e-002 1.53550860e-002 0.
      1.91938574e-003 0. 1.91938574e-003 3.83877149e-003 3.83877149e-003
      0. 1.91938574e-003 5.75815700e-003 1.91938574e-003 3.83877149e-003
      0. 0. 7.67754298e-003</_>
    <_>
      0. 8.35654605e-003 2.78551527e-003 5.57103055e-003 8.35654605e-003
      0. 1.94986071e-002 0. 0. 3.06406673e-002 2.78551527e-003
      5.57103055e-003 0. 1.11420611e-002 1.94986071e-002 0.
      1.67130921e-002 2.78551523e-002 0. 2.78551527e-003 0. 0.
      2.78551527e-003 0. 5.57103055e-003 1.39275761e-002 5.57103055e-003
      0. 0. 0. 0. 2.78551527e-003 0. 8.35654605e-003 0. 8.35654605e-003
      0. 5.57103055e-003 5.57103055e-003 2.78551527e-003 8.35654605e-003
      8.35654605e-003 5.57103055e-003 5.57103055e-003 2.78551527e-003 0.
      0. 2.78551527e-003 0. 1.39275761e-002 8.35654605e-003
      1.39275761e-002 0. 0. 0. 2.50696372e-002 0. 0. 0. 1.67130921e-002
      0. 0. 0. 0. 0. 0. 2.78551527e-003 0. 0. 0. 0. 2.78551527e-003
      1.39275761e-002 0. 0. 3.34261842e-002 0. 0. 8.35654605e-003 0.
      5.57103055e-003 0. 2.78551527e-003 0. 0. 0. 2.78551527e-003 0.
      2.78551527e-003 5.57103055e-003 1.94986071e-002 1.11420611e-002
      2.78551527e-003 0. 0. 0. 8.35654605e-003 0. 0. 2.78551527e-003
      2.78551527e-003 0. 2.78551527e-003 2.78551527e-003 0. 0.
      2.78551527e-003 0. 0. 2.78551527e-003 2.78551527e-003
      2.78551527e-003 8.35654605e-003 1.39275761e-002 0. 2.78551527e-003
      2.78551527e-003 0. 0. 0. 8.35654605e-003 2.78551527e-003
      2.78551527e-003 2.78551527e-003 2.78551527e-003 0. 0.
      5.57103055e-003 2.78551527e-003 0. 0. 2.50696372e-002 0.
      2.78551527e-003 8.35654605e-003 2.78551527e-003 2.78551527e-003
      1.94986071e-002 0. 2.78551527e-003 2.78551527e-003 0. 0.
      2.50696372e-002 0. 0. 0. 8.35654605e-003 0. 5.57103055e-003
      1.11420611e-002 2.78551527e-003 0. 0. 0. 5.57103055e-003 0. 0. 0.
      2.78551527e-003 0. 2.78551527e-003 5.57103055e-003 0.
      5.57103055e-003 0. 0. 0. 0. 2.78551527e-003 5.57103055e-003 0. 0.
      0. 2.78551527e-003 1.11420611e-002 5.57103055e-003 0.
      8.35654605e-003 1.94986071e-002 0. 5.57103055e-003 0. 0.
      2.78551527e-003 1.67130921e-002 1.39275761e-002 0. 2.50696372e-002
      0. 0. 0. 0. 8.35654605e-003 0. 0. 0. 2.78551527e-003 0. 0.
      5.57103055e-003 2.78551527e-003 0. 8.35654605e-003 8.35654605e-003
      0. 0. 0. 0. 2.78551527e-003 0. 0. 0. 3.06406673e-002
      5.57103055e-003 2.78551527e-003 0. 2.78551527e-003 0. 0.
      2.78551527e-003 1.11420611e-002 2.78551527e-003 1.39275761e-002 0.
      0. 0. 8.35654605e-003 0. 0. 1.11420611e-002 1.11420611e-002 0.
      1.39275761e-002 5.57103055e-003 2.78551527e-003 0. 2.78551527e-003
      2.78551527e-003 8.35654605e-003 0. 2.78551527e-003 0. 0.
      1.11420611e-002 8.35654605e-003 2.78551527e-003 0. 0. 0.</_>
    <_>
      0. 3.34448158e-003 3.34448158e-003 1.00334445e-002 0. 0.
      2.00668890e-002 0. 0. 1.67224072e-002 0. 0. 6.68896316e-003
      6.68896316e-003 2.67558526e-002 0. 3.34448158e-003 6.68896316e-003
      0. 3.34448158e-003 0. 0. 1.00334445e-002 3.34448158e-003
      6.68896316e-003 2.00668890e-002 3.34448158e-003 0. 0.
      3.34448158e-003 3.34448158e-003 0. 3.34448158e-003 6.68896316e-003
      0. 1.00334445e-002 6.68896316e-003 3.34448158e-003 3.34448158e-003
      0. 1.67224072e-002 1.00334445e-002 1.00334445e-002 0.
      3.34448158e-003 0. 0. 1.00334445e-002 3.34448158e-003
      1.00334445e-002 1.33779263e-002 0. 0. 0. 1.00334445e-002 0. 0.
      1.00334445e-002 3.34448158e-003 0. 0. 0. 0. 0. 3.34448158e-003
      6.68896316e-003 0. 0. 0. 3.34448158e-003 3.34448158e-003
      1.00334445e-002 0. 0. 0. 3.34448158e-003 0. 6.68896316e-003
      2.67558526e-002 0. 3.34448158e-003 0. 3.34448158e-003 0.
      3.34448144e-002 0. 3.34448158e-003 0. 0. 1.33779263e-002 0.
      3.34448158e-003 0. 0. 0. 3.34448158e-003 0. 4.34782617e-002 0.
      1.00334445e-002 0. 0. 3.01003344e-002 0. 0. 0. 3.34448158e-003 0.
      1.33779263e-002 3.34448158e-003 0. 0. 2.34113708e-002
      3.01003344e-002 0. 0. 1.00334445e-002 0. 0. 0. 1.67224072e-002
      3.34448158e-003 6.68896316e-003 0. 0. 0. 0. 0. 0. 3.34448158e-003
      3.34448158e-003 3.34448158e-003 0. 0. 3.34448158e-003 0.
      3.34448158e-003 2.00668890e-002 0. 0. 1.00334445e-002 0.
      1.33779263e-002 3.67892981e-002 0. 0. 0. 6.68896316e-003 0.
      3.34448158e-003 3.34448158e-003 1.67224072e-002 0. 1.00334445e-002
      3.34448158e-003 1.00334445e-002 0. 0. 0. 3.34448158e-003 0. 0. 0.
      0. 0. 0. 0. 6.68896316e-003 0. 0. 1.33779263e-002 0. 0. 0. 0. 0.
      3.34448158e-003 0. 3.34448158e-003 0. 0. 3.34448158e-003 0. 0. 0.
      0. 6.68896316e-003 0. 2.00668890e-002 0. 0. 0. 0. 3.34448158e-003
      0. 0. 0. 0. 0. 0. 0. 3.34448158e-003 0. 6.68896316e-003
      1.33779263e-002 0. 0. 0. 0. 3.34448158e-003 0. 3.34448158e-003 0.
      0. 6.68896316e-003 0. 0. 0. 6.68896316e-003 0. 1.00334445e-002
      3.01003344e-002 0. 1.33779263e-002 0. 0. 0. 0. 0. 0.
      1.00334445e-002 3.34448158e-003 6.68896316e-003 1.33779263e-002
      1.33779263e-002 3.34448158e-003 0. 3.34448158e-003 3.34448158e-003
      0. 3.34448158e-003 0. 0. 0. 6.68896316e-003 3.34448158e-003
      6.68896316e-003 0. 0. 0.</_>
    <_>
      0. 3.38983047e-003 2.03389823e-002 0. 3.38983047e-003
      8.47457629e-003 1.52542368e-002 6.77966094e-003 0. 1.01694912e-002
      0. 0. 1.69491523e-003 1.35593219e-002 1.18644070e-002
      3.38983047e-003 1.69491523e-003 1.18644070e-002 0. 0. 0.
      1.69491523e-003 6.77966094e-003 1.35593219e-002 5.08474559e-003
      8.47457629e-003 5.08474559e-003 0. 1.69491523e-003 3.38983047e-003
      1.69491523e-003 1.69491523e-003 3.38983047e-003 6.77966094e-003
      3.38983047e-003 1.35593219e-002 1.69491523e-003 0. 1.69491523e-003
      5.08474559e-003 6.77966094e-003 3.38983047e-003 8.47457629e-003
      1.69491523e-003 2.71186437e-002 0. 0. 3.38983047e-003
      1.69491523e-003 1.01694912e-002 3.38983047e-003 3.38983047e-003
      1.69491523e-003 1.69491523e-003 3.38983047e-003 1.69491523e-003
      5.08474559e-003 3.38983047e-003 5.08474559e-003 1.01694912e-002 0.
      0. 1.69491523e-003 0. 6.77966094e-003 1.69491523e-003
      1.69491523e-003 0. 1.69491523e-003 5.08474559e-003 3.38983047e-003
      5.08474559e-003 5.08474559e-003 0. 0. 1.69491523e-003
      3.38983047e-003 1.69491523e-003 8.47457629e-003 0. 1.69491523e-003
      8.47457629e-003 1.18644070e-002 0. 1.18644070e-002 6.77966094e-003
      1.69491523e-003 0. 0. 0. 1.69491523e-003 0. 1.69491523e-003
      1.69491523e-003 0. 0. 3.38983047e-003 0. 6.77966094e-003
      5.08474559e-003 5.08474559e-003 5.08474559e-003 6.77966094e-003
      6.77966094e-003 0. 3.38983047e-003 0. 0. 1.69491523e-003
      1.52542368e-002 6.77966094e-003 0. 6.77966094e-003 3.38983047e-003
      3.38983047e-003 0. 5.08474559e-003 0. 0. 0. 3.38983047e-003
      1.69491523e-003 8.47457629e-003 0. 1.69491523e-003 0. 0. 0.
      3.38983047e-003 6.77966094e-003 1.69491523e-003 5.08474559e-003 0.
      8.47457629e-003 3.38983047e-003 0. 8.47457629e-003 3.38983047e-003
      3.38983047e-003 1.01694912e-002 0. 0. 1.69491523e-003
      3.38983047e-003 0. 0. 1.69491523e-003 3.38983047e-003 0.
      1.69491523e-003 1.01694912e-002 1.01694912e-002 5.08474559e-003
      1.69491523e-003 6.77966094e-003 1.18644070e-002 6.77966094e-003 0.
      0. 0. 0. 0. 8.47457629e-003 0. 0. 3.38983047e-003 5.08474559e-003
      0. 0. 0. 0. 1.01694912e-002 0. 0. 5.08474559e-003 1.69491526e-002
      5.08474559e-003 1.69491523e-003 1.69491523e-003 1.35593219e-002
      1.69491523e-003 1.35593219e-002 0. 0. 0. 6.77966094e-003
      1.35593219e-002 0. 1.52542368e-002 1.69491523e-003 1.69491523e-003
      0. 1.69491523e-003 6.77966094e-003 1.69491523e-003 3.38983047e-003
      0. 3.38983047e-003 1.18644070e-002 0. 8.47457629e-003
      1.69491523e-003 1.52542368e-002 8.47457629e-003 1.35593219e-002
      1.86440684e-002 0. 0. 6.77966094e-003 0. 0. 1.69491526e-002
      1.69491523e-003 1.01694912e-002 5.08474559e-003 3.38983047e-003
      1.69491523e-003 1.18644070e-002 1.69491523e-003 0. 0.
      5.08474559e-003 0. 3.38983047e-003 0. 0. 0. 5.08474559e-003 0.
      5.08474559e-003 8.47457629e-003 8.47457629e-003 6.77966094e-003
      1.69491523e-003 1.69491523e-003 6.77966094e-003 0. 5.08474559e-003
      0. 0. 1.69491523e-003 3.38983047e-003 0. 0. 2.03389823e-002
      6.77966094e-003 6.77966094e-003 0. 0. 1.18644070e-002</_>
    <_>
      0. 4.37636767e-003 2.18818383e-003 6.56455150e-003 0.
      1.96936540e-002 0. 4.37636767e-003 2.18818383e-003 2.84463894e-002
      0. 0. 2.18818383e-003 1.75054707e-002 4.37636767e-003 0.
      1.53172873e-002 1.31291030e-002 0. 0. 2.18818383e-003 0.
      1.96936540e-002 8.75273533e-003 2.18818383e-003 6.56455150e-003
      2.18818383e-003 2.18818383e-003 4.37636767e-003 4.37636767e-003
      4.37636767e-003 0. 2.18818383e-003 8.75273533e-003 2.18818383e-003
      2.18818374e-002 2.18818383e-003 0. 2.18818383e-003 8.75273533e-003
      8.75273533e-003 6.56455150e-003 1.75054707e-002 4.37636767e-003
      2.18818383e-003 6.56455150e-003 0. 2.18818383e-003 4.37636767e-003
      6.56455150e-003 6.56455150e-003 0. 0. 0. 2.18818383e-003
      2.18818383e-003 4.37636767e-003 6.56455150e-003 2.18818383e-003
      4.37636767e-003 4.37636767e-003 0. 0. 0. 6.56455150e-003
      4.37636767e-003 8.75273533e-003 0. 6.56455150e-003 2.18818383e-003
      0. 4.37636767e-003 0. 0. 0. 4.37636767e-003 2.18818383e-003
      2.18818383e-003 6.56455150e-003 0. 2.18818383e-003 8.75273533e-003
      2.40700226e-002 0. 0. 0. 0. 0. 4.37636767e-003 0. 0.
      4.37636767e-003 0. 0. 0. 0. 0. 2.18818383e-003 6.56455150e-003 0.
      2.18818383e-003 2.18818383e-003 2.18818383e-003 1.31291030e-002 0.
      0. 6.56455150e-003 0. 2.18818383e-003 1.31291030e-002 0.
      2.18818383e-003 2.18818383e-003 0. 0. 0. 2.18818383e-003 0. 0. 0.
      6.56455150e-003 1.09409187e-002 8.75273533e-003 0. 0. 0. 0. 0.
      6.56455150e-003 2.18818383e-003 2.18818383e-003 0. 0.
      1.31291030e-002 8.75273533e-003 2.18818383e-003 6.56455150e-003
      1.53172873e-002 0. 2.18818383e-003 4.37636767e-003 0. 0.
      4.37636767e-003 0. 2.18818383e-003 0. 2.18818383e-003 0.
      6.56455150e-003 6.56455150e-003 1.53172873e-002 1.09409187e-002
      4.37636767e-003 0. 1.31291030e-002 4.37636767e-003 0. 0.
      1.09409187e-002 0. 0. 4.37636767e-003 0. 2.18818383e-003 0.
      4.37636767e-003 2.18818383e-003 0. 2.18818383e-003 2.18818383e-003
      0. 0. 0. 1.53172873e-002 8.75273533e-003 2.18818383e-003 0.
      2.18818383e-003 0. 0. 2.62582060e-002 0. 0. 6.56455150e-003
      4.37636767e-003 6.56455150e-003 1.31291030e-002 1.09409187e-002
      8.75273533e-003 2.18818383e-003 0. 2.18818383e-003 4.37636767e-003
      1.75054707e-002 0. 0. 2.18818383e-003 4.37636767e-003 0. 0. 0.
      1.09409187e-002 2.18818383e-003 4.37636767e-003 1.31291030e-002 0.
      2.18818383e-003 0. 0. 0. 1.31291030e-002 0. 0. 4.37636767e-003
      6.56455150e-003 0. 6.56455150e-003 2.18818383e-003 0.
      1.53172873e-002 4.37636767e-003 6.56455150e-003 6.56455150e-003 0.
      0. 0. 1.31291030e-002 0. 2.18818383e-003 1.31291030e-002
      1.09409187e-002 1.31291030e-002 4.37636767e-003 8.75273533e-003
      2.18818383e-003 0. 2.18818383e-003 0. 0. 2.18818383e-003 0.
      2.18818383e-003 0. 2.84463894e-002 0. 2.18818383e-003 0. 0.
      4.37636767e-003</_>
    <_>
      0. 0. 0. 0. 3.83141753e-003 0. 1.53256701e-002 7.66283507e-003 0.
      1.14942528e-002 1.91570874e-002 0. 1.14942528e-002 1.91570874e-002
      1.53256701e-002 1.14942528e-002 3.83141753e-003 1.53256701e-002 0.
      0. 0. 0. 1.53256701e-002 3.83141753e-003 1.14942528e-002
      3.83141753e-003 1.14942528e-002 0. 0. 0. 3.83141753e-003 0.
      1.53256701e-002 7.66283507e-003 0. 3.83141753e-003 0. 0.
      2.68199220e-002 3.83141753e-003 0. 3.83141753e-003 2.29885057e-002
      0. 7.66283507e-003 0. 0. 3.83141753e-003 0. 3.83141753e-003 0.
      3.83141753e-003 7.66283507e-003 0. 1.53256701e-002 2.68199220e-002
      3.83141753e-003 3.83141753e-003 0. 0. 0. 0. 0. 0. 0. 0.
      3.83141753e-003 3.83141753e-003 0. 0. 3.83141753e-003
      7.66283507e-003 0. 0. 0. 0. 0. 0. 7.66283507e-003 0.
      1.53256701e-002 3.83141753e-003 0. 0. 3.83141753e-003 0. 0. 0.
      3.83141753e-003 1.53256701e-002 0. 0. 3.83141753e-003
      3.83141753e-003 0. 3.83141753e-003 1.14942528e-002 3.83141753e-003
      0. 0. 0. 0. 0. 0. 0. 0. 0. 3.83141753e-003 7.66283507e-003
      1.53256701e-002 0. 0. 7.66283507e-003 7.66283507e-003 0.
      7.66283507e-003 1.91570874e-002 0. 0. 0. 1.53256701e-002
      7.66283507e-003 1.53256701e-002 0. 0. 0. 0. 3.83141753e-003 0.
      1.14942528e-002 0. 1.53256701e-002 0. 0. 0. 0. 0. 1.53256701e-002
      3.83141753e-003 0. 3.83141753e-003 0. 3.83141753e-003
      1.14942528e-002 0. 0. 0. 1.53256701e-002 0. 0. 7.66283507e-003 0.
      0. 3.83141753e-003 3.83141753e-003 0. 0. 0. 0. 0. 0. 0.
      3.83141753e-003 0. 3.83141753e-003 0. 0. 0. 0. 3.83141753e-003
      3.83141753e-003 0. 3.83141753e-003 0. 0. 3.83141753e-003
      1.53256701e-002 3.83141753e-003 3.83141753e-003 0. 0.
      7.66283507e-003 0. 0. 0. 1.91570874e-002 7.66283507e-003 0.
      7.66283507e-003 0. 0. 0. 0. 7.66283507e-003 0. 0. 0.
      7.66283507e-003 0. 0. 0. 3.83141753e-003 1.14942528e-002
      2.29885057e-002 3.83141753e-003 0. 3.83141753e-003 0. 0.
      1.91570874e-002 0. 0. 1.14942528e-002 3.06513403e-002 0. 0. 0.
      1.53256701e-002 0. 0. 3.83141753e-003 3.83141753e-003 0.
      7.66283507e-003 0. 0. 0. 1.53256701e-002 0. 3.83141753e-003 0. 0.
      2.68199220e-002 3.83141753e-003 7.66283507e-003 0. 0.
      1.14942528e-002 3.83141753e-003 0. 7.66283507e-003 0. 0. 0.
      1.14942528e-002 0. 3.83141753e-003 3.83141753e-003 3.83141753e-003
      7.66283507e-003</_>
    <_>
      0. 2.48138956e-003 0. 4.96277912e-003 2.48138956e-003
      1.24069480e-002 2.48138956e-003 2.48138956e-003 0. 3.72208431e-002
      2.48138956e-003 0. 0. 1.24069480e-002 0. 4.96277912e-003
      9.92555823e-003 1.48883369e-002 0. 0. 4.96277912e-003 0. 0. 0.
      7.44416844e-003 0. 2.48138956e-003 0. 0. 4.96277912e-003
      2.48138956e-003 0. 4.96277912e-003 4.96277912e-003 0.
      1.48883369e-002 4.96277912e-003 2.48138956e-003 0. 1.48883369e-002
      2.48138960e-002 1.73697267e-002 2.48138956e-003 0. 4.96277912e-003
      0. 0. 4.96277912e-003 0. 0. 7.44416844e-003 4.96277912e-003 0.
      2.48138956e-003 0. 2.48138956e-003 7.44416844e-003 7.44416844e-003
      2.48138956e-003 2.48138956e-003 2.48138956e-003 0. 0. 0. 0. 0. 0.
      0. 0. 4.96277912e-003 0. 7.44416844e-003 2.48138956e-003 0. 0.
      7.44416844e-003 0. 4.96277912e-003 1.98511165e-002 0. 0. 0.
      1.48883369e-002 0. 1.98511165e-002 0. 0. 0. 4.96277912e-003
      2.48138956e-003 0. 2.48138956e-003 4.96277912e-003 0. 0.
      4.96277912e-003 4.96277912e-003 1.24069480e-002 1.98511165e-002 0.
      7.44416844e-003 0. 0. 7.44416844e-003 4.96277912e-003 0.
      7.44416844e-003 0. 9.92555823e-003 0. 2.48138956e-003 0.
      7.44416844e-003 2.48138956e-003 0. 0. 4.96277912e-003 0. 0. 0.
      4.96277912e-003 7.44416844e-003 0. 2.48138956e-003 0. 0. 0.
      2.48138956e-003 1.24069480e-002 1.73697267e-002 2.48138956e-003 0.
      0. 4.96277912e-003 7.44416844e-003 2.48138956e-003 2.48138956e-003
      9.92555823e-003 0. 1.24069480e-002 4.96277912e-003 0. 0.
      1.98511165e-002 0. 1.73697267e-002 0. 1.48883369e-002 0. 0. 0. 0.
      0. 7.44416844e-003 0. 4.96277912e-003 2.48138956e-003 0. 0.
      2.48138956e-003 2.48138956e-003 0. 9.92555823e-003 0.
      4.96277912e-003 0. 2.48138956e-003 4.96277912e-003 2.48138956e-003
      0. 2.48138956e-003 0. 0. 0. 0. 1.98511165e-002 2.48138956e-003 0.
      0. 2.48138956e-003 0. 0. 0. 0. 7.44416844e-003 2.48138956e-003
      4.96277912e-003 2.48138960e-002 1.73697267e-002 2.48138956e-003 0.
      0. 0. 2.48138956e-003 0. 0. 0. 0. 2.48138956e-003 2.48138956e-003
      7.44416844e-003 0. 7.44416844e-003 1.48883369e-002 2.48138956e-003
      0. 2.48138956e-003 0. 7.44416844e-003 9.92555823e-003 0.
      7.44416844e-003 0. 1.48883369e-002 1.73697267e-002 1.73697267e-002
      0. 0. 0. 0. 1.24069480e-002 7.44416844e-003 2.48138956e-003
      2.48138956e-003 0. 0. 0. 7.44416844e-003 2.48138956e-003 0.
      7.44416844e-003 2.48138956e-003 2.48138956e-003 7.44416844e-003
      9.92555823e-003 4.96277912e-003 0. 4.96277912e-003 9.92555823e-003
      0. 9.92555823e-003 2.48138956e-003 7.44416844e-003 0.
      7.44416844e-003 9.92555823e-003 7.44416844e-003 0. 0.
      9.92555823e-003</_>
    <_>
      0. 8.35654605e-003 8.35654605e-003 2.78551527e-003 0.
      8.35654605e-003 2.50696372e-002 2.78551527e-003 0. 1.39275761e-002
      2.78551527e-003 0. 0. 2.78551527e-003 5.29247895e-002
      2.78551527e-003 1.11420611e-002 1.11420611e-002 0. 0.
      2.78551527e-003 0. 1.39275761e-002 5.57103055e-003 8.35654605e-003
      5.57103055e-003 5.57103055e-003 0. 5.57103055e-003 0. 0. 0.
      5.57103055e-003 1.94986071e-002 0. 1.39275761e-002 0. 0.
      1.39275761e-002 5.57103055e-003 1.39275761e-002 5.57103055e-003
      1.11420611e-002 5.57103055e-003 0. 0. 0. 0. 8.35654605e-003
      1.39275761e-002 8.35654605e-003 2.78551527e-003 0. 0.
      1.11420611e-002 8.35654605e-003 0. 0. 2.78551527e-003
      5.57103055e-003 0. 0. 2.78551527e-003 0. 0. 2.78551527e-003 0. 0.
      2.78551527e-003 0. 0. 2.22841222e-002 5.57103055e-003 0. 0.
      8.35654605e-003 0. 2.78551527e-003 0. 2.78551527e-003
      2.78551527e-003 0. 1.67130921e-002 0. 5.57103055e-003
      2.78551527e-003 2.78551527e-003 0. 5.57103055e-003 1.94986071e-002
      2.78551527e-003 2.78551527e-003 0. 0. 0. 0. 5.57103055e-003
      8.35654605e-003 2.78551527e-003 2.78551527e-003 0. 2.78551527e-003
      2.78551527e-003 1.11420611e-002 5.57103055e-003 0. 2.78551527e-003
      0. 5.57103055e-003 2.78551527e-003 5.57103055e-003 2.78551527e-003
      1.39275761e-002 5.57103055e-003 0. 0. 8.35654605e-003 0. 0.
      2.78551527e-003 1.11420611e-002 2.78551527e-003 5.57103055e-003 0.
      0. 0. 0. 0. 0. 0. 0. 2.50696372e-002 0. 8.35654605e-003
      2.78551527e-003 0. 1.94986071e-002 2.78551527e-003 0.
      2.78551527e-003 8.35654605e-003 0. 5.57103055e-003 3.34261842e-002
      0. 0. 0. 2.78551527e-003 0. 2.78551527e-003 8.35654605e-003
      5.57103055e-003 0. 2.78551527e-003 0. 2.78551527e-003
      5.57103055e-003 0. 0. 0. 0. 0. 2.78551527e-003 0. 0. 0.
      2.78551527e-003 5.57103055e-003 0. 0. 1.11420611e-002
      2.78551527e-003 0. 0. 5.57103055e-003 8.35654605e-003
      5.57103055e-003 0. 8.35654605e-003 0. 0. 0. 0. 0. 0.
      1.39275761e-002 0. 5.57103055e-003 1.67130921e-002 2.78551527e-003
      0. 2.78551527e-003 0. 0. 2.78551527e-003 0. 0. 2.78551527e-003
      8.35654605e-003 0. 8.35654605e-003 5.57103055e-003 2.78551527e-003
      2.78551527e-003 1.67130921e-002 0. 0. 0. 0. 5.57103055e-003 0. 0.
      5.57103055e-003 2.78551527e-003 2.78551527e-003 0. 0. 0. 0. 0.
      1.39275761e-002 1.39275761e-002 5.57103055e-003 8.35654605e-003
      2.78551527e-003 0. 0. 5.57103055e-003 0. 5.57103055e-003
      2.78551527e-003 2.78551527e-003 2.78551527e-003 8.35654605e-003
      8.35654605e-003 0. 0. 0. 8.35654605e-003 0. 0. 0. 0.
      8.35654605e-003 8.35654605e-003 1.11420611e-002 0. 2.78551527e-003
      0. 0.</_>
    <_>
      0. 0. 7.27272732e-003 7.27272732e-003 0. 0. 0. 3.63636366e-003 0.
      6.18181825e-002 3.63636366e-003 0. 7.27272732e-003 1.45454546e-002
      1.81818176e-002 0. 1.45454546e-002 3.63636366e-003 3.63636366e-003
      0. 3.63636366e-003 0. 1.45454546e-002 3.63636366e-003
      3.63636366e-003 1.09090907e-002 0. 0. 0. 3.63636366e-003 0. 0. 0.
      3.63636366e-003 0. 1.81818176e-002 0. 3.63636366e-003
      1.45454546e-002 1.45454546e-002 2.18181815e-002 1.09090907e-002
      1.09090907e-002 7.27272732e-003 5.45454547e-002 0. 0.
      3.63636366e-003 3.63636366e-003 0. 1.45454546e-002 0.
      3.63636366e-003 3.63636366e-003 3.63636366e-003 1.45454546e-002
      3.63636366e-003 0. 0. 1.45454546e-002 1.09090907e-002 0.
      3.63636366e-003 0. 0. 0. 0. 0. 0. 1.09090907e-002 0. 0. 0. 0. 0.
      3.63636366e-003 7.27272732e-003 0. 1.09090907e-002 0. 0. 0.
      1.45454546e-002 0. 2.54545454e-002 0. 0. 0. 0. 1.09090907e-002
      3.63636366e-003 7.27272732e-003 3.63636366e-003 0. 0. 0.
      7.27272732e-003 1.09090907e-002 0. 0. 7.27272732e-003 0.
      3.63636366e-003 0. 0. 0. 0. 0. 0. 3.63636366e-003 0. 0.
      7.27272732e-003 0. 0. 0. 0. 0. 0. 0. 1.09090907e-002
      3.63636366e-003 7.27272732e-003 0. 3.63636366e-003 0.
      3.63636366e-003 0. 3.63636366e-003 7.27272732e-003 0.
      2.18181815e-002 0. 0. 0. 0. 1.45454546e-002 1.81818176e-002 0. 0.
      3.63636366e-003 0. 0. 3.27272713e-002 0. 0. 0. 3.63636366e-003 0.
      0. 0. 1.45454546e-002 1.09090907e-002 1.09090907e-002
      7.27272732e-003 1.81818176e-002 0. 0. 3.63636366e-003 0. 0. 0. 0.
      0. 0. 0. 7.27272732e-003 0. 0. 0. 1.09090907e-002 0. 0. 0. 0.
      1.09090907e-002 1.09090907e-002 3.63636366e-003 0. 0. 0.
      3.63636366e-003 0. 0. 0. 2.54545454e-002 1.09090907e-002 0.
      7.27272732e-003 0. 0. 0. 0. 0. 0. 0. 0. 0. 0. 0. 0. 0.
      3.63636366e-003 0. 7.27272732e-003 0. 0. 0. 3.63636366e-003 0. 0.
      7.27272732e-003 0. 7.27272732e-003 0. 0. 0. 0. 0. 0.
      1.45454546e-002 1.09090907e-002 3.63636366e-003 1.09090907e-002 0.
      0. 0. 3.63636366e-003 0. 0. 7.27272732e-003 7.27272732e-003
      1.45454546e-002 0. 1.45454546e-002 0. 0. 0. 0. 0. 1.09090907e-002
      0. 0. 0. 1.45454546e-002 0. 3.63636366e-003 0. 0. 0.</_>
    <_>
      0. 9.00900923e-003 1.20120123e-002 0. 6.00600615e-003
      3.00300308e-003 1.05105108e-002 3.00300308e-003 0. 1.65165178e-002
      3.00300308e-003 1.50150154e-003 1.50150154e-003 3.00300308e-003
      1.05105108e-002 1.50150154e-003 3.00300308e-003 1.50150154e-003 0.
      0. 1.50150154e-003 0. 1.50150154e-002 3.00300308e-003
      3.00300308e-003 4.50450461e-003 7.50750769e-003 0. 0.
      7.50750769e-003 3.00300308e-003 0. 1.50150154e-003 2.25225240e-002
      1.50150154e-003 2.55255252e-002 1.50150154e-003 1.50150154e-003
      9.00900923e-003 9.00900923e-003 1.05105108e-002 3.00300308e-003
      3.00300308e-003 6.00600615e-003 1.50150154e-003 1.50150154e-003
      1.50150154e-003 1.20120123e-002 1.05105108e-002 1.20120123e-002
      6.00600615e-003 3.00300308e-003 4.50450461e-003 4.50450461e-003
      6.00600615e-003 1.50150154e-003 3.00300308e-003 7.50750769e-003
      1.50150154e-003 7.50750769e-003 0. 0. 4.50450461e-003
      1.50150154e-003 9.00900923e-003 3.00300308e-003 3.00300308e-003 0.
      3.00300308e-003 4.50450461e-003 1.50150154e-003 1.20120123e-002 0.
      3.00300308e-003 0. 3.00300308e-003 0. 3.00300308e-003
      4.50450461e-003 0. 0. 1.50150154e-003 2.25225240e-002 0.
      3.00300308e-003 4.50450461e-003 1.50150154e-003 0. 4.50450461e-003
      1.50150154e-003 0. 1.50150154e-003 4.50450461e-003 3.00300308e-003
      0. 4.50450461e-003 6.00600615e-003 3.00300308e-003 1.50150154e-003
      3.00300308e-003 1.80180185e-002 1.50150154e-003 1.50150154e-003
      6.00600615e-003 1.50150154e-003 1.50150154e-003 1.50150154e-003 0.
      7.50750769e-003 9.00900923e-003 4.50450461e-003 1.50150154e-003
      9.00900923e-003 4.50450461e-003 1.50150154e-003 1.50150154e-003
      3.00300308e-003 0. 0. 4.50450461e-003 6.00600615e-003
      7.50750769e-003 4.50450461e-003 0. 4.50450461e-003 0. 0.
      3.00300308e-003 9.00900923e-003 1.50150154e-003 4.50450461e-003
      9.00900923e-003 3.00300308e-003 4.50450461e-003 1.05105108e-002 0.
      6.00600615e-003 3.00300308e-003 0. 9.00900923e-003 1.05105108e-002
      1.50150154e-003 0. 7.50750769e-003 0. 1.50150154e-003 0.
      4.50450461e-003 0. 0. 6.00600615e-003 1.35135138e-002
      1.50150154e-003 6.00600615e-003 7.50750769e-003 1.35135138e-002
      4.50450461e-003 0. 0. 4.50450461e-003 1.50150154e-003 0.
      1.05105108e-002 0. 1.50150154e-003 0. 4.50450461e-003 0. 0. 0. 0.
      7.50750769e-003 1.50150154e-003 0. 1.50150154e-002 1.35135138e-002
      1.20120123e-002 1.50150154e-003 3.00300308e-003 3.00300308e-003 0.
      0. 3.00300308e-003 0. 0. 4.50450461e-003 7.50750769e-003
      3.00300308e-003 1.95195191e-002 0. 0. 1.50150154e-003 0.
      3.00300308e-003 0. 1.50150154e-003 0. 4.50450461e-003
      4.50450461e-003 0. 4.50450461e-003 1.50150154e-003 7.50750769e-003
      4.50450461e-003 1.05105108e-002 0. 0. 1.50150154e-003
      4.50450461e-003 0. 0. 1.05105108e-002 0. 3.00300308e-003
      1.50150154e-003 3.00300308e-003 0. 6.00600615e-003 0. 0.
      1.50150154e-003 1.50150154e-003 0. 7.50750769e-003 0.
      3.00300308e-003 0. 1.65165178e-002 0. 0. 1.50150154e-002
      1.50150154e-002 9.00900923e-003 1.50150154e-003 7.50750769e-003
      6.00600615e-003 0. 4.50450461e-003 7.50750769e-003 0.
      6.00600615e-003 3.00300308e-003 0. 0. 2.10210215e-002
      4.50450461e-003 0. 3.00300308e-003 1.50150154e-003 1.50150154e-003</_>
    <_>
      6.75675692e-003 0. 1.35135144e-001 0. 0. 0. 0. 0. 0.
      3.37837860e-002 0. 0. 2.70270277e-002 1.35135138e-002 0. 0. 0. 0.
      0. 0. 0. 0. 0. 0. 0. 0. 0. 0. 0. 2.02702712e-002 0. 0. 0. 0. 0. 0.
      0. 0. 5.40540554e-002 2.02702712e-002 2.02702712e-002 0. 0.
      6.75675692e-003 1.35135138e-002 0. 0. 0. 0. 0. 0. 0. 0. 0.
      3.37837860e-002 2.02702712e-002 0. 0. 0. 0. 0. 0. 0. 0. 0. 0. 0.
      0. 0. 2.02702712e-002 1.21621624e-001 0. 0. 0. 0. 0. 0. 0.
      3.37837860e-002 0. 2.02702712e-002 0. 0. 0. 4.72972989e-002 0. 0.
      0. 0. 6.75675692e-003 0. 0. 0. 0. 2.02702712e-002 0. 0.
      1.35135138e-002 0. 0. 0. 0. 0. 0. 0. 0. 0. 0. 0. 0. 0. 0.
      6.75675692e-003 6.75675692e-003 0. 0. 0. 0. 0. 0. 6.75675692e-003
      0. 2.02702712e-002 0. 6.75675692e-003 0. 0. 0. 0. 6.08108118e-002
      0. 3.37837860e-002 0. 0. 0. 0. 0. 6.75675692e-003 0. 0. 0. 0. 0.
      6.75675692e-003 0. 0. 0. 0. 0. 0. 0. 0. 0. 0. 8.78378376e-002 0.
      0. 0. 0. 0. 0. 0. 0. 0. 0. 0. 0. 0. 0. 0. 6.75675692e-003 0. 0. 0.
      0. 0. 1.35135138e-002 0. 0. 0. 0. 0. 0. 0. 0. 6.75675692e-003 0.
      0. 0. 0. 0. 0. 0. 0. 0. 0. 0. 0. 0. 0. 0. 0. 0. 0. 0. 0. 0. 0. 0.
      1.35135138e-002 0. 0. 0. 0. 6.75675692e-003 0. 0. 0. 0. 0. 0. 0.
      0. 0. 0. 0. 0. 0. 0. 0. 0. 0. 0. 0. 0. 0. 0. 0. 0. 0.
      6.75675692e-003 0. 0. 1.35135138e-002 0. 0. 0. 0. 0. 0.</_>
    <_>
      0. 0. 8.43373463e-002 0. 0. 0. 0. 0. 0. 2.40963846e-002 0. 0.
      3.61445770e-002 0. 0. 0. 2.40963846e-002 0. 0. 0. 0. 0. 0. 0. 0.
      0. 0. 0. 0. 2.40963846e-002 0. 0. 0. 0. 0. 0. 0. 0.
      1.08433731e-001 4.81927693e-002 2.40963846e-002 0. 0.
      1.20481923e-002 2.40963846e-002 0. 0. 0. 0. 0. 0. 0. 0. 0.
      3.61445770e-002 0. 0. 0. 0. 0. 0. 0. 0. 0. 0. 0. 0. 0. 0.
      3.61445770e-002 8.43373463e-002 0. 0. 0. 0. 0. 0. 0.
      2.40963846e-002 0. 4.81927693e-002 0. 0. 0. 6.02409616e-002 0. 0.
      0. 0. 0. 0. 0. 0. 0. 1.20481923e-002 0. 0. 1.20481923e-002 0. 0.
      0. 0. 0. 0. 0. 0. 0. 0. 0. 0. 0. 0. 0. 0. 0. 0. 0. 0. 0. 0.
      2.40963846e-002 0. 0. 0. 0. 0. 0. 0. 0. 6.02409616e-002 0. 0. 0.
      0. 0. 0. 0. 1.20481923e-002 0. 0. 0. 0. 0. 1.20481923e-002 0. 0.
      0. 0. 0. 0. 0. 0. 0. 0. 4.81927693e-002 0. 0. 0. 0. 0. 0. 0. 0. 0.
      0. 0. 0. 0. 0. 0. 1.20481923e-002 0. 0. 0. 0. 0. 0. 0. 0. 0. 0. 0.
      0. 0. 0. 6.02409616e-002 0. 0. 0. 0. 0. 0. 0. 0. 0. 0. 0. 0. 0. 0.
      0. 0. 0. 1.20481923e-002 0. 0. 0. 0. 0. 1.20481923e-002 0. 0. 0.
      0. 0. 0. 0. 0. 0. 0. 0. 0. 0. 0. 0. 0. 0. 0. 0. 0. 0. 0. 0. 0. 0.
      0. 0. 0. 0. 0. 0. 0. 0. 1.20481923e-002 0. 0. 1.20481923e-002 0.
      0. 0.</_>
    <_>
      0. 0. 8.97435918e-002 0. 0. 0. 1.28205130e-002 0. 0.
      2.56410260e-002 0. 0. 3.84615399e-002 1.28205130e-002
      1.28205130e-002 0. 0. 0. 0. 0. 0. 0. 0. 0. 0. 0. 0. 0. 0.
      1.28205130e-002 1.28205130e-002 0. 0. 0. 0. 0. 0. 0.
      1.28205135e-001 1.28205130e-002 1.28205130e-002 0. 0.
      3.84615399e-002 0. 0. 0. 0. 0. 0. 0. 0. 0. 0. 3.84615399e-002
      2.56410260e-002 0. 0. 0. 1.28205130e-002 0. 0. 0. 0. 0. 0. 0. 0.
      0. 0. 3.84615399e-002 0. 0. 0. 0. 1.28205130e-002 0. 0.
      1.28205130e-002 0. 0. 0. 0. 0. 1.28205130e-002 0. 0. 0. 0. 0. 0.
      0. 0. 0. 1.28205130e-002 0. 2.56410260e-002 1.28205130e-002 0. 0.
      0. 0. 0. 0. 1.28205130e-002 0. 0. 0. 1.28205130e-002 0. 0. 0. 0.
      0. 0. 0. 0. 0. 0. 0. 1.28205130e-002 0. 2.56410260e-002 0. 0. 0.
      0. 0. 0. 3.84615399e-002 0. 3.84615399e-002 0. 0. 0. 0. 0.
      1.28205130e-002 0. 0. 0. 0. 1.28205130e-002 0. 0. 0. 0. 0. 0. 0.
      0. 0. 0. 0. 5.12820520e-002 0. 0. 0. 0. 0. 0. 0. 0. 0. 0. 0. 0. 0.
      0. 0. 0. 0. 0. 0. 0. 0. 1.28205130e-002 0. 0. 0. 0. 0. 0. 0. 0.
      2.56410260e-002 0. 0. 0. 0. 0. 0. 0. 0. 0. 0. 0. 0. 0. 0. 0. 0. 0.
      1.28205130e-002 0. 0. 0. 0. 0. 0. 0. 0. 0. 0. 2.56410260e-002 0.
      0. 0. 0. 0. 0. 0. 0. 0. 0. 0. 0. 0. 0. 0. 0. 0. 0. 0. 0. 0. 0. 0.
      0. 0. 2.56410260e-002 0. 0. 0. 0. 5.12820520e-002 0. 0. 0.
      1.28205130e-002</_>
    <_>
      0. 0. 6.77966103e-002 0. 0. 0. 1.69491526e-002 0. 0.
      8.47457629e-003 0. 0. 0. 8.47457629e-003 0. 0. 1.69491526e-002 0.
      0. 0. 0. 0. 0. 0. 0. 1.69491526e-002 0. 0. 0. 8.47457629e-003 0.
      0. 0. 0. 0. 0. 0. 0. 7.62711838e-002 1.69491526e-002 0. 0. 0. 0.
      1.69491526e-002 0. 0. 0. 0. 8.47457629e-003 0. 0. 8.47457629e-003
      0. 1.69491526e-002 8.47457629e-003 0. 0. 0. 0. 0. 0. 0. 0. 0. 0.
      0. 0. 0. 3.38983051e-002 1.10169493e-001 0. 0. 0. 0.
      2.54237279e-002 8.47457629e-003 0. 2.54237279e-002 0.
      5.08474559e-002 0. 0. 0. 3.38983051e-002 0. 0. 0. 0. 0. 0.
      8.47457629e-003 0. 0. 8.47457629e-003 0. 0. 2.54237279e-002 0. 0.
      0. 0. 0. 0. 8.47457629e-003 0. 0. 0. 0. 0. 0. 0. 8.47457629e-003
      0. 0. 0. 0. 0. 0. 0. 8.47457629e-003 0. 8.47457629e-003 0. 0. 0.
      0. 0. 0. 5.08474559e-002 0. 8.47457629e-003 0. 0. 0. 0. 0.
      8.47457629e-003 0. 0. 0. 0. 0. 8.47457629e-003 0. 0. 0. 0. 0. 0.
      0. 0. 0. 0. 2.11864412e-001 0. 0. 0. 0. 0. 0. 0. 0. 0. 0. 0. 0. 0.
      0. 0. 8.47457629e-003 0. 0. 0. 0. 0. 8.47457629e-003 0. 0. 0. 0.
      0. 0. 0. 0. 8.47457629e-003 0. 0. 0. 0. 0. 0. 0. 0. 0. 0. 0. 0. 0.
      0. 0. 0. 0. 0. 0. 0. 0. 0. 0. 0. 0. 0. 0. 0. 0. 0. 0. 0. 0. 0. 0.
      8.47457629e-003 0. 0. 0. 0. 0. 0. 0. 0. 0. 0. 0. 0. 0. 0. 0. 0. 0.
      8.47457629e-003 0. 0. 0. 0. 0. 0. 8.47457629e-003 0. 0. 0.</_>
    <_>
      0. 0. 6.97674453e-002 0. 7.75193796e-003 0. 7.75193796e-003 0. 0.
      1.55038759e-002 0. 0. 3.87596898e-002 0. 7.75193796e-003 0. 0.
      7.75193796e-003 0. 0. 0. 0. 0. 0. 7.75193796e-003 0. 0. 0. 0. 0.
      0. 0. 0. 0. 0. 0. 0. 0. 6.20155036e-002 0. 3.10077518e-002 0. 0.
      7.75193796e-003 0. 0. 0. 0. 0. 2.32558139e-002 0. 0.
      1.55038759e-002 0. 5.42635657e-002 2.32558139e-002 0. 0. 0. 0. 0.
      0. 0. 0. 0. 0. 7.75193796e-003 0. 0. 1.55038759e-002
      4.65116277e-002 0. 0. 0. 0. 0. 7.75193796e-003 0. 0. 0.
      3.87596898e-002 0. 0. 0. 1.55038759e-002 0. 0. 0. 0.
      7.75193796e-003 0. 1.55038759e-002 0. 0. 1.55038759e-002 0. 0.
      7.75193796e-003 0. 0. 0. 0. 0. 0. 0. 0. 0. 0. 0. 0. 0. 0. 0. 0. 0.
      0. 7.75193796e-003 0. 0. 0. 1.55038759e-002 0. 2.32558139e-002 0.
      0. 0. 0. 0. 0. 3.10077518e-002 0. 3.87596898e-002 0. 0. 0. 0. 0.
      7.75193796e-003 0. 0. 0. 0. 0. 7.75193796e-003 0. 0. 0. 0. 0. 0.
      0. 7.75193796e-003 0. 0. 1.24031007e-001 0. 0. 0. 0. 0. 0. 0. 0.
      0. 0. 0. 0. 0. 0. 0. 7.75193796e-003 0. 0. 0. 0. 0.
      2.32558139e-002 0. 0. 0. 0. 0. 0. 0. 0. 3.10077518e-002
      7.75193796e-003 0. 7.75193796e-003 0. 0. 0. 0. 0. 0. 0. 0. 0. 0.
      0. 0. 0. 0. 7.75193796e-003 7.75193796e-003 0. 0. 0. 0. 0. 0. 0.
      0. 7.75193796e-003 1.55038759e-002 0. 0. 0. 0. 0. 1.55038759e-002
      0. 0. 0. 0. 0. 0. 0. 0. 7.75193796e-003 0. 0. 0. 0. 0. 0. 0. 0. 0.
      0. 7.75193796e-003 0. 0. 0. 7.75193796e-003 7.75193796e-003 0.
      1.55038759e-002 0. 0.</_>
    <_>
      0. 0. 9.70873833e-002 0. 0. 0. 1.94174759e-002 0. 0.
      9.70873795e-003 0. 0. 9.70873795e-003 9.70873795e-003 0. 0. 0.
      9.70873795e-003 0. 0. 0. 0. 0. 0. 0. 0. 0. 0. 0. 1.94174759e-002
      0. 0. 0. 0. 0. 0. 0. 0. 7.76699036e-002 9.70873795e-003
      3.88349518e-002 0. 0. 0. 4.85436916e-002 0. 0. 0. 0.
      9.70873795e-003 0. 0. 0. 0. 3.88349518e-002 1.94174759e-002 0. 0.
      0. 9.70873795e-003 0. 0. 0. 0. 0. 0. 0. 0. 0. 0. 1.94174759e-002
      0. 0. 0. 0. 0. 0. 0. 7.76699036e-002 0. 0. 0. 0. 0.
      7.76699036e-002 0. 0. 0. 0. 0. 0. 9.70873795e-003 0. 0. 0.
      9.70873795e-003 0. 0. 0. 0. 0. 0. 0. 0. 0. 0. 0. 0.
      9.70873795e-003 0. 0. 0. 0. 0. 0. 0. 9.70873795e-003 0. 0. 0.
      9.70873795e-003 0. 4.85436916e-002 0. 0. 0. 0. 0. 0.
      4.85436916e-002 0. 3.88349518e-002 0. 0. 0. 0. 0. 9.70873795e-003
      0. 0. 0. 0. 9.70873795e-003 1.94174759e-002 0. 0. 9.70873795e-003
      0. 0. 0. 0. 0. 0. 0. 2.91262139e-002 0. 0. 0. 0. 0. 0. 0. 0. 0. 0.
      0. 0. 0. 0. 0. 0. 0. 0. 0. 0. 0. 2.91262139e-002 0.
      9.70873795e-003 0. 0. 0. 0. 0. 0. 2.91262139e-002 9.70873795e-003
      0. 0. 0. 0. 0. 0. 0. 0. 0. 0. 0. 0. 0. 0. 0. 0. 0. 9.70873795e-003
      0. 0. 0. 0. 0. 0. 0. 0. 0. 0. 0. 0. 0. 0. 0. 9.70873795e-003
      9.70873795e-003 0. 0. 0. 9.70873795e-003 0. 0. 0. 0. 0. 0. 0. 0.
      0. 0. 0. 0. 0. 0. 1.94174759e-002 0. 0. 0. 0. 0. 0. 0. 0. 0.</_>
    <_>
      0. 0. 6.89655170e-002 0. 0. 0. 1.72413792e-002 0. 0.
      2.58620679e-002 0. 0. 1.72413792e-002 1.72413792e-002
      8.62068962e-003 0. 0. 0. 0. 0. 0. 0. 0. 0. 0. 8.62068962e-003 0.
      0. 0. 0. 0. 0. 0. 0. 0. 0. 0. 0. 6.89655170e-002 8.62068962e-003
      0. 0. 0. 8.62068962e-003 0. 0. 0. 0. 0. 0. 0. 0. 0. 0.
      1.72413792e-002 8.62068962e-003 0. 0. 0. 0. 0. 0. 0. 0. 0. 0. 0.
      0. 0. 1.72413792e-002 5.17241359e-002 0. 0. 0. 0. 0. 0. 0.
      4.31034490e-002 0. 2.58620679e-002 0. 0. 0. 5.17241359e-002 0. 0.
      0. 0. 0. 0. 0. 0. 0. 8.62068962e-003 0. 0. 1.72413792e-002 0. 0.
      0. 0. 0. 0. 0. 0. 0. 0. 0. 0. 0. 0. 8.62068962e-003
      8.62068962e-003 0. 0. 0. 0. 0. 0. 8.62068962e-003 0.
      2.58620679e-002 0. 0. 0. 0. 0. 0. 6.03448264e-002 0.
      1.12068966e-001 0. 0. 0. 0. 0. 8.62068962e-003 0. 0. 0. 0. 0.
      1.72413792e-002 0. 0. 0. 8.62068962e-003 0. 0. 0. 0. 0. 0.
      1.37931034e-001 0. 0. 0. 0. 0. 0. 0. 0. 0. 0. 0. 0. 0. 0. 0.
      8.62068962e-003 0. 0. 0. 0. 0. 1.72413792e-002 0. 0. 0. 0. 0. 0.
      0. 0. 0. 8.62068962e-003 0. 0. 0. 0. 0. 0. 0. 0. 0. 0. 0. 0. 0. 0.
      0. 0. 0. 0. 0. 0. 0. 0. 0. 0. 0. 0. 0. 0. 0. 0. 0. 0. 0. 0. 0.
      8.62068962e-003 0. 0. 0. 0. 0. 0. 0. 0. 0. 0. 0. 0. 0. 0. 0. 0. 0.
      0. 0. 0. 8.62068962e-003 0. 5.17241359e-002 0. 8.62068962e-003 0.
      0.</_>
    <_>
      0. 0. 5.14705889e-002 0. 0. 0. 7.35294120e-003 0. 0.
      1.47058824e-002 0. 0. 2.20588241e-002 1.47058824e-002 0. 0.
      7.35294120e-003 7.35294120e-003 0. 0. 0. 0. 0. 0. 0. 0. 0. 0. 0.
      7.35294120e-003 0. 0. 0. 0. 0. 0. 7.35294120e-003 0.
      8.08823556e-002 1.47058824e-002 7.35294120e-003 0. 0.
      2.20588241e-002 2.20588241e-002 0. 0. 0. 0. 0. 0. 0. 0. 0.
      7.35294120e-003 2.20588241e-002 0. 0. 0. 0. 0. 0. 0. 0. 0. 0. 0.
      0. 0. 2.20588241e-002 6.61764741e-002 0. 0. 0. 0. 0.
      1.47058824e-002 0. 7.35294120e-003 0. 2.20588241e-002
      7.35294120e-003 0. 7.35294120e-003 2.20588241e-002 0. 0. 0. 0. 0.
      7.35294120e-003 7.35294120e-003 0. 0. 0. 0. 0. 0. 0. 0. 0. 0. 0.
      0. 0. 0. 0. 0. 1.47058824e-002 0. 0. 0. 0. 7.35294120e-003 0. 0.
      0. 0. 0. 0. 1.47058824e-002 0. 2.20588241e-002 0. 0. 0. 0. 0. 0.
      2.20588241e-002 0. 2.20588241e-002 0. 0. 0. 0. 0. 1.47058824e-002
      0. 0. 0. 0. 7.35294120e-003 7.35294120e-003 0. 0. 0. 0. 0. 0. 0.
      0. 0. 0. 2.50000000e-001 0. 0. 0. 0. 0. 0. 0. 0. 0. 0. 0. 0. 0. 0.
      0. 0. 0. 0. 0. 0. 0. 7.35294120e-003 0. 0. 0. 0. 2.20588241e-002
      0. 0. 0. 2.94117648e-002 7.35294120e-003 0. 0. 0. 0. 0. 0. 0. 0.
      0. 0. 0. 0. 0. 0. 0. 0. 0. 0. 0. 0. 0. 0. 7.35294120e-003 0. 0. 0.
      0. 0. 0. 0. 0. 0. 0. 7.35294120e-003 0. 0. 0. 0. 0. 0. 0. 0. 0. 0.
      0. 0. 0. 0. 0. 0. 0. 0. 0. 7.35294120e-003 0. 0. 0. 0. 0.
      1.47058824e-002 1.47058824e-002 0. 0.</_>
    <_>
      0. 0. 2.97029689e-002 9.90098994e-003 0. 0. 1.98019799e-002 0. 0.
      9.90098994e-003 0. 0. 4.95049506e-002 1.98019799e-002
      9.90098994e-003 0. 0. 0. 0. 0. 0. 0. 0. 0. 0. 0. 0. 0. 0. 0. 0. 0.
      0. 0. 0. 0. 0. 0. 4.95049506e-002 1.98019799e-002 9.90098994e-003
      0. 0. 0. 9.90098994e-003 0. 0. 0. 0. 0. 0. 0. 2.97029689e-002 0.
      3.96039598e-002 0. 0. 0. 0. 0. 0. 0. 0. 0. 0. 0. 0. 0. 0.
      1.98019799e-002 1.38613865e-001 0. 0. 0. 0. 0. 9.90098994e-003 0.
      1.98019799e-002 0. 2.97029689e-002 0. 0. 0. 2.97029689e-002 0. 0.
      0. 0. 0. 0. 9.90098994e-003 0. 0. 1.98019799e-002 0. 0.
      9.90098994e-003 0. 0. 0. 0. 0. 0. 9.90098994e-003 0. 0. 0. 0. 0.
      0. 0. 9.90098994e-003 0. 0. 0. 0. 0. 0. 0. 0. 0. 2.97029689e-002
      0. 0. 0. 0. 0. 0. 1.98019799e-002 0. 3.96039598e-002 0. 0. 0. 0.
      0. 2.97029689e-002 0. 0. 0. 0. 1.98019799e-002 9.90098994e-003 0.
      0. 0. 1.98019799e-002 0. 0. 0. 0. 0. 0. 1.28712863e-001 0. 0. 0.
      0. 0. 0. 0. 0. 0. 0. 0. 0. 0. 0. 0. 0. 0. 0. 0. 0. 0.
      1.98019799e-002 0. 0. 0. 0. 0. 0. 0. 0. 1.98019799e-002 0. 0. 0.
      0. 0. 0. 0. 0. 0. 0. 0. 0. 0. 0. 0. 0. 0. 0. 0. 0. 0. 0. 0.
      9.90098994e-003 0. 0. 0. 9.90098994e-003 0. 0. 0. 0. 0. 0. 0. 0.
      9.90098994e-003 0. 0. 0. 0. 0. 0. 0. 0. 0. 0. 0. 0. 0. 0. 0. 0. 0.
      0. 0. 0. 0. 0. 0. 0. 9.90098994e-003 0. 9.90098994e-003</_>
    <_>
      0. 0. 0. 4.40528616e-003 0. 4.40528616e-003 4.40528616e-003 0. 0.
      8.81057233e-003 4.40528616e-003 0. 1.76211447e-002 1.76211447e-002
      8.81057233e-003 0. 6.16740063e-002 3.52422893e-002 0. 0.
      1.76211447e-002 4.40528616e-003 0. 0. 1.32158585e-002
      1.32158585e-002 0. 4.40528616e-003 0. 0. 0. 0. 0. 0. 0. 0.
      1.76211447e-002 0. 4.40528616e-003 8.81057233e-003 3.52422893e-002
      8.81057233e-003 8.81057233e-003 1.32158585e-002 4.40528616e-003
      4.40528616e-003 0. 0. 0. 1.32158585e-002 8.81057233e-003 0.
      8.81057233e-003 3.08370031e-002 4.40528616e-003 8.81057233e-003 0.
      0. 0. 4.40528616e-003 0. 4.40528616e-003 0. 8.81057233e-003
      4.40528616e-003 0. 0. 4.40528616e-003 0. 1.32158585e-002 0. 0. 0.
      0. 0. 2.20264308e-002 4.40528616e-003 0. 4.40528616e-003 0.
      8.81057233e-003 0. 0. 0. 0. 0. 0. 0. 0. 4.40528616e-003 0.
      1.32158585e-002 8.81057233e-003 0. 8.81057233e-003 0.
      1.32158585e-002 8.81057233e-003 0. 0. 0. 4.40528616e-003
      4.40528616e-003 0. 4.40528616e-003 0. 4.40528616e-003
      4.40528616e-003 1.76211447e-002 0. 4.40528616e-003 0.
      4.40528616e-003 8.81057233e-003 0. 4.40528616e-003 0. 0.
      1.32158585e-002 0. 3.08370031e-002 0. 1.32158585e-002 0.
      4.40528616e-003 0. 4.40528616e-003 0. 0. 4.40528616e-003 0.
      8.81057233e-003 0. 0. 0. 0. 4.40528616e-003 2.20264308e-002 0. 0.
      0. 0. 0. 0. 4.40528616e-003 0. 0. 8.81057233e-003 8.81057233e-003
      0. 4.40528616e-003 0. 0. 0. 4.40528616e-003 0. 0. 0. 0.
      4.40528616e-003 0. 0. 0. 0. 0. 1.32158585e-002 0. 0. 0. 0.
      8.81057233e-003 0. 8.81057233e-003 8.81057233e-003 4.40528616e-003
      0. 4.40528616e-003 4.40528616e-003 0. 0. 0. 1.32158585e-002 0.
      4.40528616e-003 0. 1.32158585e-002 4.40528616e-003 0. 0. 0. 0. 0.
      0. 0. 0. 0. 0. 0. 0. 4.40528616e-003 4.40528616e-003 0. 0.
      2.64317170e-002 0. 0. 0. 0. 0. 4.40528616e-003 0. 0. 0.
      8.81057233e-003 0. 0. 0. 0. 4.40528616e-003 0. 3.08370031e-002
      1.76211447e-002 8.81057233e-003 0. 4.40528616e-003 0. 0.
      4.40528616e-003 0. 0. 0. 0. 0. 0. 0. 0. 0. 0. 0. 0. 0. 0. 0. 0.
      4.40528616e-003 8.81057233e-003 0. 8.81057233e-003 0.
      3.08370031e-002</_>
    <_>
      2.58397940e-003 0. 7.75193796e-003 5.16795879e-003 7.75193796e-003
      2.58397940e-003 5.16795879e-003 0. 0. 7.75193796e-003
      1.29198972e-002 0. 7.75193796e-003 1.55038759e-002 2.58397940e-003
      2.58397940e-003 1.55038759e-002 5.16795879e-003 0. 2.58397940e-003
      1.55038759e-002 0. 0. 2.58397940e-003 5.16795879e-003
      7.75193796e-003 0. 5.16795879e-003 5.16795879e-003 2.58397940e-003
      0. 2.58397940e-003 0. 2.58397940e-003 1.03359176e-002 0. 0.
      2.58397940e-003 0. 7.75193796e-003 1.55038759e-002 7.75193796e-003
      2.58397940e-003 1.29198972e-002 7.75193796e-003 0. 0. 0. 0. 0. 0.
      0. 0. 7.75193796e-003 0. 2.58397940e-003 0. 2.58397940e-003
      2.58397940e-003 2.58397940e-003 1.29198972e-002 0. 0. 0.
      7.75193796e-003 5.16795879e-003 0. 0. 0. 5.16795879e-003 0. 0. 0.
      0. 0. 7.75193796e-003 2.58397940e-003 0. 2.58397940e-003 0. 0.
      5.16795879e-003 0. 0. 5.16795879e-003 0. 0. 0. 0. 5.16795879e-003
      0. 2.32558139e-002 0. 1.03359176e-002 7.75193796e-003
      2.58397944e-002 2.06718352e-002 1.55038759e-002 0. 1.55038759e-002
      2.58397940e-003 0. 5.16795879e-003 0. 0. 5.16795879e-003
      2.58397940e-003 0. 1.03359176e-002 0. 0. 0. 0. 5.16795879e-003 0.
      1.29198972e-002 2.58397940e-003 2.58397940e-003 2.58397940e-003
      5.16795879e-003 1.55038759e-002 2.58397940e-003 7.75193796e-003 0.
      1.03359176e-002 0. 7.75193796e-003 1.03359176e-002 0. 0.
      2.58397940e-003 1.03359176e-002 0. 0. 0. 0. 0. 2.58397940e-003 0.
      0. 2.58397940e-003 0. 0. 5.16795879e-003 0. 1.03359176e-002
      2.58397940e-003 5.16795879e-003 0. 0. 2.58397940e-003 0. 0. 0.
      7.75193796e-003 0. 0. 0. 0. 7.75193796e-003 0. 0. 2.58397940e-003
      1.03359176e-002 5.16795879e-003 7.75193796e-003 2.58397940e-003
      2.58397940e-003 0. 0. 7.75193796e-003 0. 0. 2.58397940e-003
      2.58397940e-003 0. 5.16795879e-003 7.75193796e-003 2.58397940e-003
      0. 5.16795879e-003 2.58397940e-003 0. 0. 1.29198972e-002
      1.29198972e-002 0. 0. 2.58397940e-003 7.75193796e-003 0.
      2.58397940e-003 5.16795879e-003 2.58397940e-003 2.58397940e-003
      5.16795879e-003 0. 5.16795879e-003 2.58397940e-003 2.58397940e-003
      7.75193796e-003 1.03359176e-002 0. 1.29198972e-002 2.58397940e-003
      0. 0. 0. 1.03359176e-002 7.75193796e-003 0. 2.58397940e-003 0.
      2.58397944e-002 1.03359176e-002 5.16795879e-003 0. 0.
      5.16795879e-003 7.75193796e-003 5.16795879e-003 1.03359176e-002
      5.16795879e-003 0. 0. 2.58397940e-003 0. 2.58397940e-003 0.
      2.58397940e-003 5.16795879e-003 2.58397940e-003 0. 0.
      5.16795879e-003 2.58397940e-003 0. 2.58397940e-003 0.
      2.58397940e-003 5.16795879e-003 2.32558139e-002 7.49353990e-002 0.
      0. 5.16795879e-003 7.75193796e-003 5.16795879e-003 0.
      2.58397940e-003</_>
    <_>
      0. 3.86100379e-003 0. 0. 0. 0. 1.54440152e-002 0. 0.
      7.72200758e-003 3.86100379e-003 0. 1.15830116e-002 1.15830116e-002
      7.72200758e-003 7.72200758e-003 5.79150580e-002 3.86100379e-003 0.
      7.72200758e-003 7.72200758e-003 0. 0. 0. 1.15830116e-002
      1.93050187e-002 0. 7.72200758e-003 7.72200758e-003 0. 0.
      3.86100379e-003 0. 3.86100379e-003 0. 3.86100379e-003
      1.93050187e-002 0. 0. 1.54440152e-002 7.72200758e-003
      7.72200758e-003 3.86100379e-003 0. 2.31660232e-002 3.86100379e-003
      0. 0. 3.86100379e-003 3.86100379e-003 0. 0. 3.86100379e-003
      7.72200758e-003 0. 1.93050187e-002 7.72200758e-003 0. 0. 0.
      7.72200758e-003 0. 0. 7.72200758e-003 3.86100379e-003 0. 0.
      1.15830116e-002 0. 3.86100379e-003 7.72200758e-003 0.
      1.93050187e-002 0. 0. 1.54440152e-002 0. 0. 0. 0. 3.86100379e-003
      1.15830116e-002 0. 7.72200758e-003 0. 3.86100379e-003
      3.86100379e-003 7.72200758e-003 0. 3.86100379e-003 3.86100379e-003
      1.15830116e-002 7.72200758e-003 0. 3.86100379e-003 0.
      1.54440152e-002 7.72200758e-003 7.72200758e-003 3.86100379e-003 0.
      0. 0. 0. 3.86100379e-003 3.86100379e-003 0. 0. 7.72200758e-003 0.
      7.72200758e-003 3.86100379e-003 3.86100379e-003 0. 0. 0. 0. 0. 0.
      1.93050187e-002 7.72200758e-003 1.54440152e-002 0. 7.72200758e-003
      0. 3.86100379e-003 1.15830116e-002 0. 7.72200758e-003 0.
      1.15830116e-002 3.86100379e-003 0. 0. 0. 0. 0. 7.72200758e-003 0.
      3.86100379e-003 7.72200758e-003 0. 0. 1.15830116e-002 0.
      3.86100379e-003 3.86100379e-003 7.72200758e-003 7.72200758e-003
      7.72200758e-003 3.86100379e-003 0. 0. 0. 0. 0. 0. 0. 0. 0.
      3.86100379e-003 0. 0. 3.86100379e-003 1.93050187e-002 0. 0. 0. 0.
      1.15830116e-002 0. 0. 0. 7.72200758e-003 0. 3.86100379e-003
      7.72200758e-003 3.86100379e-003 0. 3.86100379e-003 0.
      1.54440152e-002 0. 0. 7.72200758e-003 3.86100379e-003 0. 0. 0.
      3.86100379e-003 0. 0. 3.86100379e-003 3.86100379e-003
      7.72200758e-003 1.15830116e-002 0. 0. 0. 3.86100379e-003 0.
      3.86100379e-003 0. 7.72200758e-003 0. 0. 0. 7.72200758e-003
      3.86100379e-003 0. 0. 0. 0. 2.31660232e-002 0. 0. 3.86100379e-003
      0. 0. 0. 1.15830116e-002 7.72200758e-003 7.72200758e-003 0.
      7.72200758e-003 0. 0. 3.86100379e-003 3.86100379e-003 0. 0. 0. 0.
      0. 0. 0. 0. 0. 3.86100379e-003 0. 0. 3.86100379e-003
      3.86100374e-002 0. 0. 0. 1.54440152e-002 3.86100379e-003 0.
      1.54440152e-002</_>
    <_>
      0. 0. 4.48430516e-003 1.34529155e-002 0. 0. 8.96861032e-003 0.
      8.96861032e-003 1.79372206e-002 0. 0. 1.34529155e-002
      8.96861032e-003 8.96861032e-003 0. 3.58744413e-002 0. 0. 0.
      1.34529155e-002 4.48430516e-003 0. 0. 8.96861032e-003
      8.96861032e-003 0. 4.48430516e-003 0. 0. 0. 1.34529155e-002 0. 0.
      0. 0. 0. 8.96861032e-003 0. 1.34529155e-002 1.79372206e-002 0. 0.
      0. 1.79372206e-002 1.34529155e-002 4.48430516e-003 0. 0. 0. 0. 0.
      0. 4.48430516e-003 0. 1.79372206e-002 0. 0. 0. 0. 4.48430516e-003
      8.96861032e-003 0. 0. 0. 0. 0. 0. 0. 2.24215258e-002 0.
      4.48430516e-003 0. 0. 0. 1.34529155e-002 8.96861032e-003 0.
      1.34529155e-002 0. 0. 0. 0. 4.48430516e-003 1.79372206e-002 0. 0.
      0. 0. 8.96861032e-003 0. 4.48430516e-003 1.79372206e-002 0. 0. 0.
      3.13901380e-002 8.96861032e-003 4.48430516e-003 0. 0. 0. 0. 0.
      4.48430516e-003 0. 0. 0. 1.79372206e-002 0. 0. 0. 4.48430516e-003
      0. 0. 8.07174891e-002 8.96861032e-003 0. 4.48430516e-003 0.
      8.96861032e-003 0. 8.96861032e-003 4.48430516e-003 0. 0.
      1.34529155e-002 0. 0. 8.96861032e-003 0. 0. 0. 0. 0. 0. 0.
      8.96861032e-003 0. 0. 0. 0. 0. 4.48430516e-003 0. 0. 0.
      4.48430516e-003 0. 0. 0. 0. 0. 0. 0. 0. 0. 0. 0. 0. 0. 0. 0.
      4.48430516e-003 0. 8.96861032e-003 0. 0. 0. 8.96861032e-003
      8.96861032e-003 0. 0. 8.96861032e-003 8.96861032e-003 0.
      4.48430516e-003 0. 0. 0. 0. 1.79372206e-002 4.48430516e-003 0.
      2.69058309e-002 1.79372206e-002 0. 0. 0. 8.96861032e-003 0.
      4.48430516e-003 4.48430516e-003 0. 0. 0. 0. 0. 0. 8.96861032e-003
      0. 0. 4.48430516e-003 4.48430516e-003 0. 0. 4.48430516e-003 0. 0.
      8.96861032e-003 4.48430516e-003 0. 0. 1.79372206e-002
      4.48430516e-003 0. 0. 0. 0. 0. 1.34529155e-002 1.34529155e-002 0.
      0. 0. 8.96861032e-003 0. 0. 8.96861032e-003 0. 0. 0. 0. 0. 0. 0.
      0. 0. 0. 0. 4.48430516e-003 1.79372206e-002 5.82959652e-002 0. 0.
      4.48430516e-003 4.48430516e-003 0. 0. 3.58744413e-002</_>
    <_>
      0. 0. 3.52112669e-003 3.52112669e-003 0. 0. 2.11267602e-002
      7.04225339e-003 0. 3.52112669e-003 0. 0. 1.40845068e-002
      1.40845068e-002 0. 7.04225339e-003 2.11267602e-002 1.05633801e-002
      0. 3.52112669e-003 1.05633801e-002 0. 0. 0. 2.11267602e-002
      3.52112669e-003 0. 3.52112669e-003 3.52112669e-003 7.04225339e-003
      1.05633801e-002 0. 3.52112669e-003 0. 0. 3.52112669e-003
      3.52112669e-003 0. 3.52112669e-003 2.81690136e-002 1.05633801e-002
      1.05633801e-002 7.04225339e-003 7.04225339e-003 1.40845068e-002
      1.40845068e-002 0. 0. 3.52112669e-003 3.52112669e-003 0. 0. 0.
      3.52112669e-003 3.52112669e-003 1.76056325e-002 0. 0. 0. 0. 0. 0.
      3.52112669e-003 3.52112669e-003 3.52112669e-003 0. 0.
      7.04225339e-003 0. 0. 1.40845068e-002 1.05633801e-002
      7.04225339e-003 3.52112669e-003 0. 3.87323946e-002 0. 0.
      3.52112669e-003 0. 3.52112669e-003 0. 3.52112669e-003 0. 0.
      7.04225339e-003 3.52112669e-003 0. 0. 7.04225339e-003 0.
      3.16901393e-002 0. 3.52112669e-003 3.52112669e-003 1.40845068e-002
      1.05633801e-002 2.46478878e-002 3.52112669e-003 7.04225339e-003 0.
      0. 0. 0. 0. 3.52112669e-003 0. 0. 7.04225339e-003 0. 0. 0.
      3.52112669e-003 7.04225339e-003 0. 0. 1.05633801e-002
      3.52112669e-003 7.04225339e-003 3.52112669e-003 1.05633801e-002
      7.04225339e-003 3.52112669e-003 7.04225339e-003 0. 3.52112669e-003
      3.52112669e-003 2.46478878e-002 0. 0. 0. 3.52112669e-003 0.
      7.04225339e-003 0. 0. 0. 3.52112669e-003 0. 0. 7.04225339e-003 0.
      0. 0. 7.04225339e-003 7.04225339e-003 3.52112669e-003
      1.40845068e-002 0. 0. 7.04225339e-003 0. 0. 0. 0. 0. 0. 0. 0. 0.
      0. 0. 1.05633801e-002 0. 0. 1.40845068e-002 0. 3.52112669e-003 0.
      0. 7.04225339e-003 3.52112669e-003 0. 7.04225339e-003
      3.52112669e-003 0. 1.05633801e-002 7.04225339e-003 7.04225339e-003
      0. 3.52112669e-003 1.05633801e-002 0. 0. 0. 1.05633801e-002 0.
      3.52112669e-003 0. 0. 0. 0. 7.04225339e-003 7.04225339e-003 0. 0.
      0. 0. 7.04225339e-003 0. 0. 1.05633801e-002 3.52112669e-003
      1.05633801e-002 3.52112669e-003 0. 0. 3.52112669e-003 0.
      1.40845068e-002 3.52112669e-003 3.52112669e-003 0. 1.05633801e-002
      3.52112669e-003 0. 3.52112669e-003 0. 0. 1.05633801e-002
      1.05633801e-002 7.04225339e-003 0. 0. 3.52112669e-003 0. 0. 0. 0.
      0. 7.04225339e-003 0. 0. 3.52112669e-003 3.52112669e-003
      3.52112669e-003 0. 0. 0. 0. 3.52112669e-003 2.11267602e-002 0. 0.
      0. 7.04225339e-003 3.52112669e-003 0. 0. 3.16901393e-002</_>
    <_>
      0. 0. 0. 0. 0. 0. 8.26446246e-003 4.13223123e-003 8.26446246e-003
      8.26446246e-003 8.26446246e-003 0. 4.13223123e-003 1.65289249e-002
      4.13223123e-003 1.65289249e-002 5.37190065e-002 1.65289249e-002 0.
      0. 1.65289249e-002 0. 0. 0. 2.47933865e-002 8.26446246e-003 0.
      4.13223123e-003 8.26446246e-003 0. 0. 0. 0. 4.13223123e-003 0. 0.
      4.13223123e-003 8.26446246e-003 4.13223123e-003 8.26446246e-003
      2.47933865e-002 1.23966932e-002 8.26446246e-003 8.26446246e-003 0.
      0. 0. 0. 0. 8.26446246e-003 0. 0. 4.13223123e-003 4.13223123e-003
      0. 8.26446246e-003 0. 4.13223123e-003 0. 4.13223123e-003 0. 0. 0.
      4.13223123e-003 4.13223123e-003 0. 0. 8.26446246e-003 0.
      8.26446246e-003 0. 4.13223123e-003 4.13223123e-003 0. 0.
      4.13223123e-003 8.26446246e-003 0. 4.13223123e-003 0. 0.
      8.26446246e-003 4.13223123e-003 0. 4.13223123e-003 0.
      4.13223123e-003 0. 0. 1.23966932e-002 4.13223123e-003
      2.06611566e-002 8.26446246e-003 0. 0. 0. 3.71900797e-002
      4.13223132e-002 0. 4.13223123e-003 4.13223123e-003 0.
      4.13223123e-003 0. 4.13223123e-003 0. 8.26446246e-003 0. 0. 0. 0.
      4.13223123e-003 1.65289249e-002 8.26446246e-003 0. 0. 0. 0.
      2.06611566e-002 0. 0. 4.13223123e-003 2.47933865e-002 0. 0. 0. 0.
      4.13223123e-003 4.13223123e-003 0. 0. 0. 0. 0. 0. 0.
      8.26446246e-003 1.65289249e-002 0. 0. 4.13223123e-003 0. 0.
      8.26446246e-003 8.26446246e-003 0. 0. 4.13223123e-003
      8.26446246e-003 0. 0. 4.13223123e-003 0. 0. 0. 0. 0. 0. 0. 0. 0.
      0. 4.13223123e-003 0. 1.65289249e-002 4.13223123e-003 0.
      4.13223123e-003 0. 4.13223123e-003 4.13223123e-003 0. 0.
      8.26446246e-003 8.26446246e-003 0. 0. 8.26446246e-003
      8.26446246e-003 0. 0. 1.65289249e-002 0. 0. 4.13223123e-003
      4.13223123e-003 4.13223123e-003 0. 0. 0. 0. 1.23966932e-002
      4.13223123e-003 1.23966932e-002 0. 0. 0. 0. 0. 0. 0. 0. 0.
      8.26446246e-003 0. 0. 0. 0. 4.13223123e-003 1.65289249e-002 0. 0.
      0. 3.30578499e-002 0. 4.13223123e-003 0. 4.13223123e-003 0. 0.
      8.26446246e-003 4.13223123e-003 4.13223123e-003 0. 4.13223123e-003
      0. 0. 4.13223123e-003 0. 0. 0. 0. 0. 4.13223123e-003 0.
      4.13223123e-003 0. 4.13223123e-003 8.26446246e-003 0. 0. 0. 0. 0.
      0. 8.26446246e-003 1.65289249e-002 4.13223123e-003 0.
      3.30578499e-002</_>
    <_>
      0. 4.31034481e-003 4.31034481e-003 8.62068962e-003 4.31034481e-003
      4.31034481e-003 0. 0. 0. 2.15517245e-002 1.29310340e-002 0.
      8.62068962e-003 2.58620679e-002 8.62068962e-003 4.31034481e-003
      4.31034481e-003 8.62068962e-003 0. 8.62068962e-003 1.29310340e-002
      0. 0. 0. 3.01724132e-002 1.29310340e-002 0. 0. 4.31034481e-003 0.
      8.62068962e-003 0. 0. 0. 4.31034481e-003 4.31034481e-003
      1.29310340e-002 0. 0. 8.62068962e-003 4.31034481e-003
      4.31034481e-003 1.29310340e-002 4.31034481e-003 0. 4.31034481e-003
      0. 0. 0. 4.31034481e-003 0. 4.31034481e-003 0. 8.62068962e-003 0.
      2.15517245e-002 0. 0. 0. 4.31034481e-003 8.62068962e-003 0. 0. 0.
      8.62068962e-003 4.31034481e-003 4.31034481e-003 0. 4.31034481e-003
      2.15517245e-002 0. 0. 4.31034481e-003 0. 0. 2.15517245e-002
      1.29310340e-002 0. 0. 0. 4.31034481e-003 4.31034481e-003
      4.31034481e-003 0. 0. 0. 0. 4.31034481e-003 0. 4.31034481e-003 0.
      4.31034490e-002 4.31034481e-003 0. 4.31034481e-003 1.29310340e-002
      2.15517245e-002 3.01724132e-002 1.72413792e-002 0. 0. 0. 0. 0. 0.
      0. 0. 0. 8.62068962e-003 0. 4.31034481e-003 4.31034481e-003
      1.72413792e-002 0. 4.31034481e-003 0. 8.62068962e-003
      4.31034481e-003 0. 4.31034481e-003 2.58620679e-002 4.31034481e-003
      4.31034481e-003 8.62068962e-003 4.31034481e-003 0. 4.31034481e-003
      4.31034481e-003 0. 0. 0. 0. 0. 0. 0. 0. 0. 0. 0. 0.
      8.62068962e-003 0. 0. 1.29310340e-002 4.31034481e-003 0.
      8.62068962e-003 8.62068962e-003 4.31034481e-003 0. 8.62068962e-003
      0. 0. 4.31034481e-003 0. 0. 0. 0. 0. 4.31034481e-003 0. 0.
      4.31034481e-003 8.62068962e-003 1.29310340e-002 1.29310340e-002 0.
      0. 0. 0. 4.31034481e-003 0. 0. 1.72413792e-002 8.62068962e-003 0.
      1.29310340e-002 4.31034481e-003 1.29310340e-002 4.31034481e-003
      4.31034481e-003 0. 0. 0. 8.62068962e-003 1.29310340e-002 0. 0. 0.
      1.29310340e-002 0. 4.31034481e-003 0. 4.31034481e-003 0.
      4.31034481e-003 4.31034481e-003 0. 4.31034481e-003 0. 0. 0. 0.
      8.62068962e-003 0. 0. 0. 0. 0. 1.29310340e-002 0. 0. 0.
      4.31034481e-003 0. 0. 0. 0. 4.31034481e-003 4.31034481e-003
      1.72413792e-002 4.31034481e-003 0. 0. 0. 0. 0. 0. 1.72413792e-002
      0. 0. 0. 0. 4.31034481e-003 0. 8.62068962e-003 4.31034481e-003 0.
      0. 0. 0. 4.31034481e-003 1.72413792e-002 0. 0. 0. 0. 0. 0. 0.</_>
    <_>
      2.89855083e-003 8.69565271e-003 0. 1.15942033e-002 8.69565271e-003
      2.89855083e-003 2.89855083e-003 0. 2.89855083e-003 8.69565271e-003
      0. 0. 2.89855083e-003 2.89855083e-003 5.79710165e-003
      5.79710165e-003 2.89855078e-002 8.69565271e-003 0. 5.79710165e-003
      8.69565271e-003 5.79710165e-003 1.15942033e-002 0. 1.73913054e-002
      0. 0. 0. 8.69565271e-003 0. 0. 2.89855083e-003 0. 2.89855083e-003
      2.89855083e-003 2.89855083e-003 8.69565271e-003 2.89855083e-003
      1.73913054e-002 8.69565271e-003 1.44927539e-002 5.79710165e-003
      5.79710165e-003 1.15942033e-002 1.15942033e-002 0. 0. 0.
      2.89855083e-003 0. 2.89855083e-003 0. 0. 2.89855083e-003
      2.89855083e-003 1.15942033e-002 2.89855083e-003 2.89855083e-003 0.
      0. 2.89855083e-003 0. 0. 1.15942033e-002 2.89855083e-003
      2.89855083e-003 0. 2.89855083e-003 5.79710165e-003 8.69565271e-003
      2.89855083e-003 8.69565271e-003 2.89855083e-003 0. 0.
      5.79710165e-003 2.89855083e-003 0. 5.79710165e-003 0.
      5.79710165e-003 8.69565271e-003 0. 2.89855083e-003 0.
      2.89855083e-003 2.89855083e-003 0. 0. 5.79710165e-003
      2.89855083e-003 1.15942033e-002 8.69565271e-003 0. 0. 0.
      2.02898551e-002 1.73913054e-002 5.79710165e-003 0. 2.89855083e-003
      0. 0. 0. 5.79710165e-003 0. 0. 5.79710165e-003 0. 0. 0.
      2.89855083e-003 8.69565271e-003 5.79710165e-003 1.15942033e-002
      2.89855083e-003 1.15942033e-002 0. 5.79710165e-003 2.89855083e-003
      8.69565271e-003 5.79710165e-003 5.79710165e-003 0. 0.
      2.89855083e-003 2.89855083e-003 0. 5.79710165e-003 0. 0.
      1.15942033e-002 0. 2.89855083e-003 2.89855083e-003 0. 0.
      5.79710165e-003 0. 0. 0. 2.89855083e-003 0. 1.15942033e-002 0.
      2.89855083e-003 8.69565271e-003 1.15942033e-002 5.79710165e-003
      2.89855083e-003 2.89855083e-003 0. 0. 5.79710165e-003 0. 0. 0. 0.
      0. 0. 5.79710165e-003 0. 0. 0. 1.44927539e-002 1.15942033e-002 0.
      2.89855083e-003 0. 8.69565271e-003 1.15942033e-002 0.
      2.89855083e-003 5.79710165e-003 1.15942033e-002 0. 5.79710165e-003
      1.73913054e-002 0. 0. 2.89855083e-003 8.69565271e-003 0. 0.
      5.79710165e-003 1.15942033e-002 0. 2.89855083e-003 2.89855083e-003
      5.79710165e-003 0. 0. 0. 5.79710165e-003 5.79710165e-003 0. 0. 0.
      0. 0. 8.69565271e-003 8.69565271e-003 0. 5.79710165e-003
      2.89855083e-003 0. 0. 0. 1.44927539e-002 8.69565271e-003 0. 0.
      2.89855083e-003 2.02898551e-002 0. 8.69565271e-003 0. 0.
      5.79710165e-003 5.79710165e-003 5.79710165e-003 8.69565271e-003
      5.79710165e-003 5.79710165e-003 0. 0. 0. 8.69565271e-003
      2.89855083e-003 0. 0. 0. 0. 5.79710165e-003 0. 5.79710165e-003
      2.89855083e-003 2.89855083e-003 8.69565271e-003 0. 5.79710165e-003
      2.89855083e-003 1.44927539e-002 0. 2.89855083e-003 5.79710165e-003
      1.15942033e-002 2.89855083e-003 0. 1.73913054e-002</_>
    <_>
      0. 5.29100513e-003 2.11640205e-002 1.05820103e-002 5.29100513e-003
      0. 1.05820103e-002 0. 5.29100513e-003 4.23280410e-002
      2.11640205e-002 0. 0. 1.58730149e-002 1.05820103e-002 0.
      5.29100513e-003 2.11640205e-002 0. 0. 3.17460299e-002 0. 0. 0.
      5.29100513e-003 1.05820103e-002 0. 5.29100513e-003 5.29100513e-003
      0. 5.29100513e-003 0. 5.29100513e-003 0. 1.58730149e-002 0.
      5.29100513e-003 0. 0. 1.58730149e-002 5.29100513e-003 0.
      1.58730149e-002 0. 2.11640205e-002 5.29100513e-003 0. 0. 0.
      1.05820103e-002 0. 0. 0. 1.05820103e-002 0. 0. 0. 0. 0. 0. 0. 0.
      0. 0. 0. 0. 0. 0. 0. 2.64550261e-002 0. 0. 0. 0. 0.
      4.76190448e-002 1.05820103e-002 5.29100513e-003 0. 0. 0. 0. 0. 0.
      1.05820103e-002 0. 5.29100513e-003 0. 5.29100513e-003 0. 0.
      4.23280410e-002 1.05820103e-002 0. 0. 2.11640205e-002
      1.05820103e-002 1.05820103e-002 0. 0. 0. 0. 0. 0. 0.
      5.29100513e-003 0. 0. 1.05820103e-002 0. 0. 0. 1.58730149e-002 0.
      5.29100513e-003 0. 1.05820103e-002 2.11640205e-002 1.58730149e-002
      0. 5.29100513e-003 0. 5.29100513e-003 0. 0. 5.29100513e-003
      5.29100513e-003 5.29100513e-003 5.29100513e-003 0. 1.05820103e-002
      0. 0. 0. 0. 0. 0. 5.29100513e-003 0. 0. 5.29100513e-003 0. 0. 0.
      0. 5.29100513e-003 1.05820103e-002 5.29100513e-003 0. 0. 0. 0. 0.
      0. 5.29100513e-003 0. 0. 0. 0. 0. 0. 0. 0. 5.29100513e-003
      1.05820103e-002 2.11640205e-002 0. 5.29100513e-003 0. 0. 0. 0. 0.
      5.29100513e-003 5.29100513e-003 5.29100513e-003 2.11640205e-002 0.
      5.29100513e-003 0. 0. 5.29100513e-003 0. 0. 1.05820103e-002 0.
      5.29100513e-003 0. 5.29100513e-003 5.29100513e-003 0. 0.
      5.29100513e-003 5.29100513e-003 0. 1.05820103e-002 0. 0. 0.
      5.29100513e-003 0. 0. 0. 1.58730149e-002 0. 0. 0. 0.
      5.29100513e-003 1.05820103e-002 0. 5.29100513e-003 0. 0. 0. 0. 0.
      0. 1.58730149e-002 0. 1.05820103e-002 0. 0. 0. 0. 0. 0. 0. 0. 0.
      0. 0. 0. 1.05820103e-002 0. 0. 5.29100513e-003 0. 1.05820103e-002
      0. 0. 5.29100513e-003 1.05820103e-002 0. 0. 1.05820103e-002
      1.58730149e-002 0. 5.29100513e-003 0.</_>
    <_>
      9.25925933e-003 0. 3.70370373e-002 4.62962966e-003 0. 0. 0. 0. 0.
      0. 0. 4.62962966e-003 0. 4.62962966e-003 0. 0. 0. 2.77777780e-002
      4.62962966e-003 0. 0. 1.85185187e-002 0. 0. 0. 0. 0. 0.
      1.85185187e-002 4.62962985e-002 0. 0. 0. 4.62962966e-003 0. 0. 0.
      0. 1.85185187e-002 0. 1.38888890e-002 4.62962966e-003
      9.25925933e-003 4.62962966e-003 0. 0. 0. 0. 0. 4.62962985e-002 0.
      0. 9.25925933e-003 4.62962966e-003 3.24074067e-002 1.85185187e-002
      0. 0. 4.62962966e-003 0. 0. 0. 0. 0. 0. 0. 0. 0. 0.
      4.62962966e-003 9.25925933e-003 0. 0. 0. 0. 0. 0. 4.62962966e-003
      1.85185187e-002 9.25925933e-003 4.62962966e-003 0. 0. 0.
      4.62962985e-002 4.62962966e-003 0. 2.31481493e-002 0. 0. 0. 0. 0.
      0. 0. 0. 0. 0. 0. 0. 4.62962966e-003 0. 0. 0. 0. 0.
      9.25925933e-003 0. 0. 4.62962966e-003 0. 0. 0. 0. 0. 0. 0. 0.
      1.38888890e-002 0. 2.31481493e-002 4.62962966e-003 2.77777780e-002
      0. 0. 0. 9.25925933e-003 0. 9.25925933e-003 1.38888890e-002 0.
      5.55555560e-002 2.77777780e-002 0. 0. 4.62962966e-003 0.
      1.85185187e-002 0. 0. 9.25925933e-003 0. 0. 0. 0. 0. 0. 0. 0. 0.
      0. 0. 0. 4.62962966e-003 3.24074067e-002 0. 0. 1.38888890e-002
      4.62962966e-003 4.62962966e-003 0. 9.25925933e-003 0. 0. 0.
      4.62962966e-003 0. 0. 0. 0. 9.25925933e-003 0. 0. 4.62962966e-003
      0. 0. 0. 0. 4.62962966e-003 0. 0. 0. 1.85185187e-002 0.
      4.62962966e-003 1.85185187e-002 9.25925933e-003 0. 0. 0. 0. 0. 0.
      0. 0. 0. 4.62962966e-003 0. 0. 0. 4.62962966e-003 0. 0. 0. 0. 0.
      4.62962966e-003 9.25925933e-003 0. 4.62962966e-003 0. 0.
      4.62962966e-003 0. 9.25925933e-003 0. 0. 4.62962966e-003 0.
      1.85185187e-002 0. 0. 0. 0. 0. 4.62962966e-003 0. 0. 0. 0. 0. 0.
      0. 4.62962966e-003 0. 0. 0. 0. 4.62962966e-003 4.62962966e-003
      5.55555560e-002 0. 0. 0. 0. 0. 0. 4.62962966e-003 4.62962966e-003
      0.</_>
    <_>
      6.28930796e-003 0. 5.66037707e-002 0. 0. 0. 0. 0. 0. 0. 0. 0.
      6.28930796e-003 0. 2.51572318e-002 0. 0. 6.28930796e-003
      1.25786159e-002 0. 0. 6.28930796e-003 6.28930796e-003 0. 0. 0. 0.
      0. 0. 3.14465389e-002 0. 0. 0. 0. 0. 0. 0. 0. 3.14465389e-002 0.
      0. 6.28930796e-003 1.25786159e-002 3.77358496e-002 0. 0.
      6.28930796e-003 0. 0. 5.66037707e-002 0. 6.28930796e-003 0. 0.
      1.25786159e-002 6.28930796e-003 0. 0. 0. 6.28930796e-003 0. 0. 0.
      1.25786159e-002 0. 0. 0. 0. 0. 1.25786159e-002 1.88679248e-002 0.
      0. 0. 0. 0. 0. 0. 5.66037707e-002 6.28930796e-003 0.
      1.25786159e-002 0. 0. 1.25786159e-002 0. 1.25786159e-002 0.
      6.28930796e-003 0. 0. 6.28930796e-003 0. 0. 0. 0. 0. 0. 0. 0. 0.
      0. 0. 0. 0. 0. 1.25786159e-002 6.28930796e-003 0. 6.28930796e-003
      0. 0. 0. 0. 0. 0. 0. 0. 0. 0. 6.28930796e-003 0. 6.91823885e-002
      0. 0. 0. 0. 0. 0. 1.88679248e-002 0. 4.40251566e-002
      2.51572318e-002 0. 0. 0. 0. 6.28930796e-003 0. 0. 6.28930796e-003
      0. 0. 0. 0. 0. 0. 0. 0. 0. 0. 0. 0. 0. 3.14465389e-002 0. 0.
      6.28930796e-003 0. 0. 0. 0. 0. 0. 0. 0. 6.28930796e-003
      6.28930796e-003 0. 0. 1.88679248e-002 0. 0. 0. 0. 0.
      3.14465389e-002 0. 6.28930796e-003 0. 1.25786159e-002 0.
      1.25786159e-002 0. 6.28930796e-003 3.14465389e-002 0. 0.
      6.28930796e-003 0. 0. 0. 6.28930796e-003 0. 0. 0. 6.28930796e-003
      0. 0. 0. 0. 0. 0. 0. 6.28930796e-003 0. 0. 0. 0. 0.
      3.14465389e-002 0. 0. 0. 0. 6.28930796e-003 0. 0. 0.
      1.25786159e-002 1.25786159e-002 0. 0. 0. 0. 0. 0. 0. 0. 0.
      6.28930796e-003 6.28930796e-003 6.28930796e-003 0. 1.25786159e-002
      0. 6.28930796e-003 0. 0. 6.28930796e-003 0. 0. 0. 0. 0. 0. 0. 0.
      0. 0.</_>
    <_>
      1.25000011e-002 0. 7.50000030e-002 0. 0. 0. 0. 0. 0. 0. 0. 0.
      4.16666688e-003 0. 4.16666688e-003 0. 0. 2.91666687e-002
      8.33333377e-003 0. 0. 4.16666688e-003 0. 0. 0. 0. 0. 0. 0.
      3.33333351e-002 0. 0. 0. 0. 0. 0. 4.16666688e-003 0.
      7.08333403e-002 0. 4.16666688e-003 2.50000022e-002 0.
      4.16666688e-003 0. 0. 1.25000011e-002 0. 0. 2.50000022e-002 0. 0.
      0. 0. 2.08333340e-002 8.33333377e-003 0. 0. 0. 0. 0. 0. 0.
      4.16666688e-003 0. 0. 0. 0. 0. 4.16666688e-003 2.91666687e-002 0.
      4.16666688e-003 0. 0. 0. 0. 0. 2.50000022e-002 3.75000015e-002
      1.25000011e-002 0. 0. 0. 5.83333373e-002 0. 0. 0. 0. 0. 0. 0. 0.
      0. 4.16666688e-003 0. 0. 0. 0. 0. 0. 0. 0. 4.16666688e-003
      4.16666688e-003 0. 4.16666688e-003 8.33333377e-003 0. 0. 0. 0. 0.
      0. 0. 0. 0. 0. 0. 0. 4.16666688e-003 4.16666688e-003
      4.16666679e-002 0. 8.33333377e-003 0. 0. 0. 0. 5.00000045e-002 0.
      9.58333388e-002 4.16666688e-003 0. 0. 0. 0. 1.66666675e-002 0. 0.
      0. 4.16666688e-003 0. 0. 0. 0. 4.16666688e-003 0. 0. 0. 0. 0.
      1.25000011e-002 0. 2.91666687e-002 0. 0. 2.08333340e-002
      2.08333340e-002 0. 0. 1.66666675e-002 0. 0. 0. 0. 0. 0. 0. 0. 0.
      0. 8.33333377e-003 1.66666675e-002 0. 0. 1.66666675e-002 0. 0. 0.
      0. 0. 1.25000011e-002 0. 0. 1.25000011e-002 0. 0. 0. 0. 0. 0. 0.
      0. 0. 0. 0. 0. 0. 0. 4.16666688e-003 0. 0. 0. 0. 0. 0. 0. 0. 0. 0.
      0. 0. 0. 4.16666688e-003 0. 0. 0. 0. 0. 8.33333377e-003 0. 0. 0.
      0. 0. 0. 0. 0. 0. 0. 0. 0. 0. 0. 0. 0. 0. 0. 8.33333377e-003
      2.50000022e-002 0. 0. 0. 0. 0. 0. 0. 4.16666688e-003 0.</_>
    <_>
      0. 2.91545200e-003 5.53935878e-002 2.91545200e-003 2.91545200e-003
      1.45772602e-002 0. 2.91545200e-003 8.74635577e-003 0.
      5.83090400e-003 0. 1.16618080e-002 8.74635577e-003 0. 0. 0.
      1.45772602e-002 2.91545200e-003 0. 0. 1.16618080e-002 0. 0. 0. 0.
      1.16618080e-002 0. 2.91545200e-003 3.20699736e-002 0.
      2.91545200e-003 2.91545200e-003 0. 0. 0. 8.74635577e-003
      5.83090400e-003 4.08163294e-002 0. 8.74635577e-003 5.83090400e-003
      0. 5.83090400e-003 0. 0. 0. 8.74635577e-003 0. 4.08163294e-002
      5.83090400e-003 5.83090400e-003 5.83090400e-003 2.91545200e-003
      1.45772602e-002 2.91545200e-003 0. 0. 2.62390673e-002
      2.91545200e-003 2.91545200e-003 0. 2.91545200e-003 0.
      2.91545200e-003 2.91545200e-003 0. 0. 2.91545200e-003
      2.33236160e-002 2.91545205e-002 0. 2.91545200e-003 5.83090400e-003
      0. 0. 5.83090400e-003 2.91545200e-003 0. 2.91545200e-003
      2.91545200e-003 0. 2.91545200e-003 0. 4.08163294e-002 0. 0.
      2.91545200e-003 0. 0. 0. 5.83090400e-003 0. 2.91545200e-003
      2.91545200e-003 5.83090400e-003 0. 0. 0. 2.91545200e-003
      1.16618080e-002 0. 0. 5.83090400e-003 0. 5.83090400e-003
      1.45772602e-002 0. 0. 0. 0. 0. 0. 0. 0. 0. 0. 0. 1.16618080e-002
      0. 0. 2.91545200e-003 2.62390673e-002 0. 2.91545200e-003 0. 0.
      2.91545200e-003 5.83090400e-003 2.04081647e-002 0. 1.45772602e-002
      2.91545200e-003 2.91545200e-003 2.91545200e-003 2.91545200e-003
      2.91545200e-003 5.83090400e-003 2.91545200e-003 2.91545200e-003
      2.91545200e-003 0. 0. 0. 0. 0. 2.91545200e-003 0. 0. 0.
      2.91545200e-003 2.91545200e-003 8.74635577e-003 0. 2.04081647e-002
      0. 0. 0. 5.83090400e-003 0. 0. 8.74635577e-003 0. 0. 0. 0.
      1.74927115e-002 1.74927115e-002 0. 0. 1.74927115e-002
      2.91545200e-003 0. 8.74635577e-003 2.91545200e-003 2.91545200e-003
      2.91545200e-003 0. 0. 0. 2.91545200e-003 0. 0. 0. 0.
