<?xml version="1.0"?>
<opencv_storage>
<my_svm type_id="opencv-ml-svm">
  <svm_type>C_SVC</svm_type>
  <kernel><type>RBF</type>
    <gamma>5.0625000000000009e-001</gamma></kernel>
  <C>3.1250000000000000e+002</C>
  <term_criteria><epsilon>1.1920928955078125e-007</epsilon>
    <iterations>1000</iterations></term_criteria>
  <var_all>100</var_all>
  <var_count>100</var_count>
  <class_count>32</class_count>
  <class_labels type_id="opencv-matrix">
    <rows>1</rows>
    <cols>32</cols>
    <dt>i</dt>
    <data>
      1 2 3 4 5 6 7 8 9 10 11 12 13 14 15 16 17 18 19 20 21 22 23 24 25
      26 27 28 29 30 31 32</data></class_labels>
  <sv_total>907</sv_total>
  <support_vectors>
    <_>
      0. 3.72439483e-003 3.16573568e-002 0. 1.86219742e-003 0. 0. 0.
      5.58659248e-003 5.58659248e-003 0. 3.22160155e-001 0. 0.
      1.86219742e-003 0. 0. 0. 0. 1.48975793e-002 3.72439483e-003 0.
      7.44878948e-002 0. 0. 0. 0. 5.58659248e-003 0. 0. 0.
      1.86219742e-003 3.72439483e-003 5.58659248e-003 9.31098685e-003
      1.86219742e-003 1.48975793e-002 0. 3.72439483e-003 0.
      3.72439483e-003 0. 0. 0. 0. 0. 0. 1.86219742e-003 1.86219742e-003
      0. 7.44878966e-003 1.86219742e-003 1.86219742e-003 0. 0. 0.
      2.60707643e-002 0. 1.86219742e-003 1.86219742e-003 0. 0.
      1.86219742e-003 0. 0. 0. 0. 1.11731850e-002 0. 1.86219742e-003 0.
      1.86219742e-003 0. 0. 5.02793305e-002 1.86219742e-003 0.
      3.72439483e-003 0. 1.86219742e-003 0. 5.58659248e-003
      5.58659248e-003 0. 1.86219742e-003 3.72439483e-003 0. 0. 0. 0. 0.
      1.86219742e-003 0. 5.58659248e-003 0. 3.38919938e-001 0.
      1.86219742e-003 0. 0.</_>
    <_>
      0. 9.56022926e-003 9.56022926e-003 0. 3.82409175e-003 0.
      3.82409175e-003 0. 0. 7.64818350e-003 0. 3.99617583e-001 0. 0.
      3.82409175e-003 3.82409175e-003 0. 5.73613774e-003 0.
      7.64818350e-003 3.82409175e-003 0. 4.97131944e-002 0. 0. 0. 0. 0.
      0. 0. 1.91204587e-003 1.91204587e-003 0. 0. 3.82409175e-003
      3.82409175e-003 1.14722755e-002 1.91204587e-003 7.64818350e-003 0.
      0. 0. 0. 0. 0. 0. 0. 0. 0. 3.82409175e-003 1.91204587e-003 0. 0.
      0. 0. 1.91204587e-003 7.64818350e-003 0. 1.91204587e-003 0. 0. 0.
      0. 0. 0. 1.91204587e-003 0. 5.73613774e-003 0. 3.82409175e-003
      1.91204587e-003 1.91204587e-003 1.91204587e-003 0. 2.10325047e-002
      7.64818350e-003 0. 1.91204587e-003 0. 0. 0. 3.82409175e-003 0. 0.
      0. 1.91204587e-003 0. 0. 0. 0. 0. 0. 1.91204587e-003
      9.56022926e-003 0. 3.72848958e-001 0. 0. 1.91204587e-003
      1.91204587e-003</_>
    <_>
      0. 0. 3.49040143e-002 0. 0. 0. 0. 0. 1.74520072e-003
      1.74520072e-003 0. 3.49040151e-001 0. 0. 0. 0. 0. 0. 0.
      8.72600358e-003 3.49040143e-003 0. 6.63176253e-002 0. 0. 0. 0.
      1.39616057e-002 0. 0. 0. 0. 0. 1.22164050e-002 1.57068074e-002 0.
      2.26876102e-002 0. 1.74520072e-003 0. 0. 0. 0. 0. 0. 0. 0. 0. 0.
      0. 1.74520072e-003 0. 0. 0. 0. 0. 3.66492160e-002 0. 0. 0. 0. 0.
      0. 0. 0. 0. 0. 2.61780098e-002 0. 1.74520072e-003 0.
      5.23560215e-003 0. 0. 1.22164050e-002 0. 1.74520072e-003
      1.74520072e-003 0. 0. 0. 1.74520072e-003 0. 0. 0. 3.49040143e-003
      0. 0. 0. 0. 0. 0. 0. 8.72600358e-003 0. 3.66492152e-001 0. 0. 0.
      0.</_>
    <_>
      0. 0. 0. 0. 2.17391294e-003 0. 0. 0. 0. 2.17391294e-003 0.
      3.91304344e-001 0. 0. 0. 0. 0. 2.17391294e-003 2.17391294e-003
      4.34782589e-003 0. 2.17391294e-003 4.78260852e-002 0.
      2.17391294e-003 0. 0. 4.34782589e-003 0. 0. 0. 0. 0.
      1.52173908e-002 3.04347817e-002 0. 1.52173908e-002 0. 0. 0. 0. 0.
      4.34782589e-003 0. 0. 0. 0. 0. 0. 0. 2.17391294e-003 0. 0. 0. 0.
      0. 4.56521735e-002 0. 0. 2.17391294e-003 0. 0. 0. 2.17391294e-003
      0. 0. 0. 5.21739125e-002 0. 0. 0. 1.30434781e-002 0. 0.
      3.04347817e-002 0. 2.17391294e-003 0. 0. 0. 0. 0. 4.34782589e-003
      0. 0. 0. 0. 0. 0. 0. 0. 0. 0. 2.39130426e-002 0. 2.93478251e-001
      0. 2.17391294e-003 0. 0.</_>
    <_>
      0. 0. 1.16279069e-002 0. 0. 0. 0. 0. 5.81395347e-003
      1.16279069e-002 0. 4.16666657e-001 0. 0. 0. 0. 0. 7.75193796e-003
      3.87596898e-003 7.75193796e-003 3.87596898e-003 1.93798449e-003
      2.71317828e-002 0. 1.93798449e-003 0. 0. 7.75193796e-003 0. 0. 0.
      0. 0. 5.81395347e-003 3.68217044e-002 0. 1.16279069e-002 0.
      1.93798449e-003 0. 0. 0. 0. 0. 0. 0. 0. 0. 0. 0. 7.75193796e-003
      1.93798449e-003 0. 0. 0. 0. 3.87596898e-002 1.93798449e-003 0.
      9.68992244e-003 0. 0. 0. 0. 0. 0. 0. 1.35658914e-002 0. 0. 0.
      1.93798449e-003 0. 0. 7.75193796e-003 7.75193796e-003
      1.93798449e-003 0. 0. 0. 0. 0. 0. 0. 0. 3.87596898e-003 0. 0. 0.
      0. 0. 0. 0. 1.35658914e-002 0. 3.25581402e-001 0. 0. 0. 0.</_>
    <_>
      0. 0. 0. 0. 0. 0. 0. 0. 0. 4.79616318e-003 0. 4.10071939e-001 0.
      0. 0. 0. 0. 0. 0. 7.19424477e-003 2.39808159e-003 0.
      3.83693054e-002 0. 0. 0. 0. 7.19424477e-003 0. 0. 0. 0. 0.
      2.39808150e-002 2.39808150e-002 0. 1.91846527e-002 0.
      7.19424477e-003 0. 0. 0. 0. 0. 0. 0. 0. 0. 2.39808159e-003 0.
      4.79616318e-003 0. 0. 0. 0. 0. 2.87769791e-002 0. 0.
      2.39808159e-003 0. 0. 0. 0. 0. 0. 0. 3.11750602e-002 0. 0. 0.
      2.39808159e-003 0. 0. 7.19424486e-002 0. 0. 0. 0. 0. 0. 0. 0. 0.
      0. 0. 0. 0. 0. 0. 0. 0. 0. 1.67865716e-002 0. 2.94964045e-001 0.
      0. 0. 0.</_>
    <_>
      0. 0. 7.66283507e-003 0. 0. 0. 0. 0. 0. 1.14942528e-002 0.
      4.80842888e-001 0. 0. 0. 3.83141753e-003 0. 5.74712642e-003 0.
      9.57854372e-003 0. 0. 9.57854372e-003 0. 0. 0. 0. 0. 0. 0. 0. 0.
      0. 0. 1.91570877e-003 0. 1.91570874e-002 0. 1.91570877e-003 0. 0.
      0. 0. 0. 0. 0. 0. 0. 0. 0. 1.91570877e-003 0. 0. 0. 0.
      1.91570877e-003 1.53256701e-002 0. 1.91570877e-003 3.83141753e-003
      0. 0. 0. 0. 0. 0. 0. 1.14942528e-002 0. 0. 0. 1.91570877e-003 0.
      0. 1.53256701e-002 3.83141753e-003 0. 0. 0. 0. 0. 0. 0. 0. 0.
      1.91570877e-003 0. 0. 0. 0. 0. 0. 0. 3.83141753e-003 0.
      3.85057449e-001 0. 0. 0. 0.</_>
    <_>
      0. 0. 1.16550121e-002 0. 0. 0. 0. 0. 0. 4.66200477e-003 0.
      3.77622396e-001 2.33100238e-003 0. 0. 2.33100238e-003 0. 0. 0. 0.
      0. 0. 3.72960381e-002 0. 2.33100238e-003 0. 0. 0. 0. 0. 0. 0. 0.
      6.99300691e-003 2.33100243e-002 0. 1.63170174e-002 0. 0. 0. 0. 0.
      0. 0. 0. 0. 0. 0. 0. 0. 4.66200477e-003 0. 0. 0. 0. 0.
      3.03030312e-002 0. 0. 1.16550121e-002 0. 0. 0. 0. 0. 0. 0.
      4.42890450e-002 0. 0. 0. 2.33100238e-003 0. 0. 2.33100243e-002 0.
      4.66200477e-003 2.33100238e-003 0. 0. 0. 0. 0. 0. 0. 0. 0. 0. 0.
      0. 0. 0. 0. 9.32400953e-003 0. 3.82284403e-001 0. 0. 0. 0.</_>
    <_>
      0. 0. 1.46750519e-002 0. 0. 0. 0. 0. 2.09643599e-003
      1.04821799e-002 0. 4.21383619e-001 0. 0. 0. 2.09643599e-003 0.
      2.09643599e-003 0. 4.19287197e-003 4.19287197e-003 0.
      2.51572318e-002 0. 0. 0. 0. 0. 0. 0. 0. 0. 0. 4.19287197e-003
      1.25786159e-002 2.09643599e-003 1.67714879e-002 0. 2.09643599e-003
      0. 0. 0. 0. 0. 0. 0. 0. 0. 2.09643599e-003 0. 4.19287197e-003 0.
      0. 0. 0. 0. 3.98322828e-002 0. 0. 4.19287197e-003 0. 0. 0. 0. 0.
      0. 0. 2.51572318e-002 0. 0. 0. 0. 2.09643599e-003 0.
      5.66037707e-002 4.19287197e-003 0. 2.09643599e-003 0. 0. 0. 0. 0.
      0. 0. 2.09643599e-003 0. 0. 0. 0. 0. 0. 0. 1.04821799e-002 0.
      3.22851151e-001 0. 0. 0. 0.</_>
    <_>
      0. 1.84842886e-003 4.25138623e-002 1.84842886e-003 5.54528646e-003
      0. 0. 0. 1.84842886e-003 5.54528646e-003 0. 3.40110898e-001 0. 0.
      0. 1.84842886e-003 0. 5.54528646e-003 0. 5.54528646e-003
      1.84842886e-003 0. 3.14232893e-002 0. 0. 0. 0. 1.10905729e-002 0.
      0. 0. 0. 0. 1.47874309e-002 2.21811458e-002 0. 1.10905729e-002 0.
      3.69685772e-003 0. 0. 0. 0. 0. 0. 0. 0. 0. 0. 1.84842886e-003
      1.29390024e-002 0. 9.24214441e-003 0. 0. 0. 3.32717188e-002 0. 0.
      1.84842886e-003 0. 0. 0. 0. 0. 3.69685772e-003 0. 5.54528646e-003
      1.84842886e-003 0. 0. 1.84842886e-003 0. 0. 5.91497235e-002
      5.54528646e-003 1.84842886e-003 7.39371544e-003 0. 1.84842886e-003
      0. 0. 1.84842886e-003 0. 0. 7.39371544e-003 0. 0. 0. 0. 0. 0. 0.
      9.24214441e-003 0. 3.25323492e-001 0. 0. 0. 0.</_>
    <_>
      0. 1.75746926e-003 1.93321612e-002 0. 0. 0. 0. 0. 0.
      3.69068533e-002 0. 3.56766254e-001 0. 0. 0. 0. 0. 1.23022851e-002
      1.75746926e-003 1.05448160e-002 3.51493852e-003 0. 2.81195082e-002
      0. 0. 1.75746926e-003 0. 1.05448160e-002 0. 0. 0. 0. 0.
      7.02987704e-003 1.93321612e-002 0. 1.75746921e-002 0.
      3.51493852e-003 0. 0. 0. 0. 0. 0. 0. 0. 0. 0. 1.75746926e-003
      5.27240802e-003 1.75746926e-003 0. 0. 0. 0. 4.04217914e-002 0. 0.
      0. 0. 0. 0. 0. 0. 1.75746926e-003 0. 5.27240802e-003 0. 0. 0. 0.
      0. 0. 1.58172231e-002 1.40597541e-002 0. 0. 0. 0. 0. 0. 0. 0. 0.
      0. 0. 0. 0. 0. 0. 0. 0. 1.05448160e-002 0. 3.72583479e-001 0. 0.
      0. 0.</_>
    <_>
      0. 3.50877200e-003 1.57894734e-002 0. 3.50877200e-003
      8.77192989e-003 0. 0. 0. 3.33333351e-002 0. 3.21052641e-001 0. 0.
      0. 0. 0. 1.57894734e-002 0. 8.77192989e-003 0. 0. 4.91228066e-002
      0. 0. 0. 0. 0. 0. 0. 0. 0. 0. 3.50877200e-003 1.75438598e-002
      3.50877200e-003 8.77192989e-003 0. 1.75438600e-003 0. 0. 0. 0. 0.
      0. 0. 0. 0. 0. 0. 8.77192989e-003 7.01754401e-003 1.75438600e-003
      0. 0. 0. 4.56140377e-002 5.26315812e-003 0. 3.50877200e-003 0. 0.
      0. 0. 0. 1.75438600e-003 0. 1.57894734e-002 1.75438600e-003 0. 0.
      7.01754401e-003 1.75438600e-003 0. 2.63157897e-002 8.77192989e-003
      0. 0. 0. 0. 0. 0. 0. 0. 0. 1.75438600e-003 0. 0. 0. 0. 0. 0. 0.
      8.77192989e-003 0. 3.59649122e-001 0. 0. 0. 0.</_>
    <_>
      0. 2.01612897e-003 1.20967738e-002 0. 2.01612897e-003 0. 0.
      2.01612897e-003 0. 1.00806449e-002 0. 2.78225809e-001 0. 0. 0. 0.
      0. 2.01612897e-003 0. 8.06451589e-003 0. 0. 6.04838692e-003 0.
      2.01612897e-003 0. 0. 0. 0. 0. 0. 0. 0. 4.03225794e-002
      8.26612860e-002 0. 6.04838692e-003 0. 2.01612897e-003 0. 0. 0. 0.
      0. 0. 0. 0. 0. 0. 0. 1.81451607e-002 0. 0. 0. 0. 0.
      7.86290318e-002 0. 0. 0. 0. 0. 0. 2.01612897e-003 0.
      2.01612897e-003 0. 3.22580636e-002 0. 0. 0. 6.04838692e-003 0. 0.
      3.42741907e-002 6.04838692e-003 2.01612897e-003 2.01612897e-003 0.
      0. 0. 0. 0. 0. 0. 2.01612897e-003 0. 0. 0. 0. 0. 0. 0.
      2.01612897e-003 0. 3.56854826e-001 0. 0. 0. 0.</_>
    <_>
      0. 0. 1.95312500e-002 0. 1.95312500e-003 0. 0. 0. 0.
      5.85937500e-003 0. 3.39843750e-001 1.95312500e-003 0. 0. 0. 0.
      1.17187500e-002 0. 1.36718750e-002 3.90625000e-003 0.
      4.49218750e-002 0. 0. 0. 0. 0. 0. 0. 0. 0. 0. 3.90625000e-003
      1.36718750e-002 0. 1.95312500e-002 0. 5.85937500e-003 0. 0. 0. 0.
      0. 0. 0. 0. 0. 0. 0. 2.14843750e-002 0. 1.95312500e-003 0. 0. 0.
      2.14843750e-002 0. 0. 3.90625000e-003 0. 0. 0. 0. 0. 0. 0.
      2.53906250e-002 0. 0. 0. 1.95312500e-003 0. 0. 4.68750000e-002 0.
      1.95312500e-003 0. 0. 0. 0. 0. 0. 0. 0. 1.95312500e-003 0. 0. 0.
      0. 0. 0. 0. 1.17187500e-002 0. 3.75000000e-001 0. 0. 0. 0.</_>
    <_>
      0. 2.12314236e-003 1.48619963e-002 0. 0. 0. 0. 0. 0.
      2.12314236e-003 0. 3.97027612e-001 0. 0. 0. 0. 0. 2.12314236e-003
      0. 4.24628472e-003 6.36942685e-003 0. 8.49256944e-003 0. 0. 0. 0.
      2.12314236e-003 0. 0. 0. 0. 0. 2.54777074e-002 1.69851389e-002 0.
      1.48619963e-002 0. 2.12314236e-003 0. 0. 0. 0. 0. 0. 0. 0. 0. 0.
      0. 1.06157120e-002 2.12314236e-003 0. 0. 0. 0. 3.18471342e-002 0.
      0. 1.06157120e-002 0. 0. 0. 0. 0. 0. 0. 8.49256944e-003 0. 0. 0.
      0. 0. 0. 1.06157120e-002 0. 2.12314236e-003 0. 0. 0. 0. 0. 0. 0.
      0. 6.36942685e-003 0. 0. 0. 0. 0. 0. 0. 1.69851389e-002 0.
      4.01273906e-001 0. 0. 0. 0.</_>
    <_>
      0. 0. 1.06007066e-002 0. 1.76678447e-003 0. 0. 0. 0.
      7.06713786e-003 0. 3.00353348e-001 0. 0. 3.53356893e-003 0. 0. 0.
      1.76678447e-003 3.53356893e-003 0. 0. 5.30035328e-003 0.
      1.76678447e-003 0. 0. 3.53356893e-003 0. 0. 0. 0. 0.
      2.29681972e-002 3.00353356e-002 1.76678447e-003 1.59010608e-002 0.
      0. 0. 0. 0. 5.30035328e-003 0. 0. 1.76678447e-003 0. 0.
      1.76678447e-003 0. 0. 0. 0. 0. 0. 0. 4.94699664e-002 0. 0.
      1.76678447e-003 0. 0. 0. 1.76678447e-003 0. 1.76678447e-003 0.
      4.24028262e-002 0. 0. 0. 1.41342757e-002 0. 0. 8.48056525e-002 0.
      1.76678447e-003 0. 0. 0. 0. 0. 0. 0. 0. 0. 0. 0. 0. 0. 0. 0. 0.
      1.41342757e-002 0. 3.69257957e-001 0. 0. 0. 0.</_>
    <_>
      0. 0. 1.39534883e-002 0. 0. 0. 2.32558139e-003 0. 2.32558139e-003
      4.65116277e-003 0. 3.18604648e-001 0. 0. 2.32558139e-003 0. 0. 0.
      0. 2.32558139e-003 2.32558139e-003 2.32558139e-003 2.55813953e-002
      0. 2.32558139e-003 0. 0. 0. 0. 0. 0. 0. 0. 2.32558139e-003
      3.48837227e-002 2.32558139e-003 2.79069766e-002 0. 0. 0. 0. 0.
      2.32558139e-003 0. 0. 0. 0. 0. 0. 0. 1.39534883e-002 0. 0. 0. 0.
      0. 3.48837227e-002 0. 0. 4.65116277e-003 0. 0. 0. 0. 0. 0. 0.
      3.48837227e-002 0. 0. 0. 1.16279069e-002 2.32558139e-003 0.
      7.44186044e-002 0. 0. 0. 0. 0. 0. 0. 0. 0. 0. 0. 0. 0. 0. 0. 0. 0.
      0. 6.97674416e-003 0. 3.67441863e-001 0. 0. 0. 0.</_>
    <_>
      0. 0. 3.67170610e-002 0. 4.31965431e-003 0. 0. 0. 4.31965431e-003
      8.63930862e-003 0. 2.98056155e-001 0. 0. 2.15982716e-003 0. 0.
      6.47948124e-003 0. 6.47948124e-003 4.31965431e-003 0.
      4.31965441e-002 0. 4.31965431e-003 2.15982716e-003 0.
      6.47948124e-003 0. 0. 0. 0. 0. 0. 2.80777533e-002 0.
      1.29589625e-002 0. 0. 0. 0. 0. 4.31965431e-003 0. 0.
      2.15982716e-003 0. 0. 0. 0. 8.63930862e-003 0. 0. 0. 0. 0.
      3.88768874e-002 0. 0. 6.47948124e-003 0. 0. 0. 0. 0.
      4.31965431e-003 0. 1.72786172e-002 0. 0. 0. 2.15982716e-003
      2.15982716e-003 0. 4.31965441e-002 8.63930862e-003 2.15982716e-003
      0. 0. 0. 0. 0. 0. 0. 0. 4.31965431e-003 0. 0. 0. 0. 0.
      4.31965431e-003 0. 6.47948124e-003 0. 3.75809938e-001 0. 0. 0. 0.</_>
    <_>
      0. 4.22832975e-003 2.53699794e-002 0. 0. 0. 2.11416488e-003 0. 0.
      8.45665950e-003 0. 1.81818172e-001 0. 0. 0. 0. 0. 8.45665950e-003
      0. 6.55391142e-002 6.34249486e-003 0. 1.58562362e-001 0.
      2.11416488e-003 0. 0. 0. 0. 0. 0. 6.34249486e-003 0.
      2.11416488e-003 4.22832975e-003 4.22832975e-003 2.32558139e-002 0.
      4.22832975e-003 0. 0. 0. 0. 0. 0. 0. 0. 0. 0. 0. 4.22832975e-003
      0. 0. 0. 0. 2.11416488e-003 3.17124724e-002 0. 0. 4.22832975e-003
      0. 0. 2.11416488e-003 0. 0. 0. 0. 1.05708241e-002 0.
      4.22832975e-003 0. 0. 0. 0. 3.17124724e-002 8.45665950e-003 0.
      2.11416488e-003 0. 0. 0. 0. 0. 0. 0. 2.11416488e-003 0. 0. 0. 0.
      0. 2.11416488e-003 0. 8.45665950e-003 0. 3.76321346e-001 0. 0.
      2.11416488e-003 0.</_>
    <_>
      0. 2.53807101e-003 7.36040622e-002 0. 0. 5.07614203e-003 0. 0.
      2.53807101e-003 1.52284261e-002 0. 2.00507611e-001 0. 0.
      2.53807101e-003 0. 0. 2.53807101e-003 0. 1.52284261e-002 0.
      2.53807101e-003 2.76649743e-001 0. 0. 0. 0. 1.01522841e-002 0. 0.
      0. 0. 0. 2.03045681e-002 0. 0. 1.52284261e-002 0. 2.53807101e-003
      0. 0. 0. 0. 0. 2.53807101e-003 0. 0. 0. 0. 0. 4.31472063e-002 0.
      0. 0. 0. 0. 2.53807101e-003 0. 2.53807101e-003 2.53807101e-003 0.
      0. 0. 0. 0. 2.53807101e-003 0. 2.53807101e-003 0. 0. 0. 0.
      5.07614203e-003 0. 1.77664980e-002 1.26903551e-002 0. 0. 0. 0. 0.
      0. 2.53807101e-003 0. 0. 0. 0. 0. 0. 0. 0. 0. 0. 7.61421304e-003
      0. 2.48730958e-001 0. 0. 0. 0.</_>
    <_>
      0. 0. 1.63043477e-002 0. 1.81159424e-003 0. 0. 0. 0.
      3.62318847e-003 0. 3.96739125e-001 0. 0. 0. 0. 0. 1.81159424e-003
      0. 9.05797072e-003 1.81159424e-003 0. 5.43478280e-002 0.
      1.81159424e-003 0. 0. 3.62318847e-003 0. 0. 0. 0. 0. 0.
      1.81159424e-003 1.81159424e-003 1.26811601e-002 0. 1.81159424e-003
      0. 0. 0. 0. 0. 0. 0. 0. 0. 3.62318847e-003 0. 1.81159424e-003 0.
      0. 0. 0. 0. 2.53623202e-002 0. 0. 1.81159424e-003 0. 0. 0. 0. 0.
      0. 0. 7.24637695e-003 0. 1.81159424e-003 0. 0. 0. 0.
      1.44927539e-002 7.24637695e-003 1.81159424e-003 1.81159424e-003 0.
      0. 0. 0. 0. 0. 0. 1.81159424e-003 0. 1.81159424e-003 0. 0. 0. 0.
      0. 1.08695654e-002 0. 4.09420311e-001 0. 0. 0. 0.</_>
    <_>
      0. 5.20833349e-003 2.60416674e-003 0. 0. 0. 0. 0. 2.60416674e-003
      2.60416674e-003 0. 4.16666687e-001 0. 0. 0. 0. 0. 5.20833349e-003
      0. 1.30208340e-002 2.60416674e-003 7.81250000e-003 1.56250000e-001
      0. 0. 0. 0. 0. 0. 0. 0. 0. 0. 0. 0. 0. 1.56250000e-002 0.
      5.20833349e-003 0. 0. 0. 0. 0. 0. 0. 0. 0. 0. 0. 0. 0. 0. 0. 0. 0.
      1.30208340e-002 0. 0. 2.60416674e-003 0. 0. 0. 2.60416674e-003 0.
      0. 0. 1.04166670e-002 0. 0. 0. 0. 0. 0. 1.30208340e-002
      7.81250000e-003 2.60416674e-003 2.60416674e-003 0. 0. 0. 0. 0. 0.
      0. 5.20833349e-003 0. 0. 0. 0. 0. 2.60416674e-003 0.
      2.08333340e-002 0. 2.81250000e-001 0. 0. 0. 0.</_>
    <_>
      0. 4.42477874e-003 8.84955749e-003 0. 0. 0. 0. 0. 0.
      2.21238937e-003 0. 2.34513268e-001 0. 2.21238937e-003 0. 0. 0.
      2.21238937e-003 2.21238937e-003 1.99115053e-002 4.42477874e-003 0.
      3.31858397e-001 0. 0. 0. 0. 2.21238937e-003 0. 0. 0. 0. 0. 0. 0.
      0. 1.32743362e-002 0. 4.42477874e-003 0. 0. 0. 0. 0. 0. 0. 0. 0.
      0. 0. 0. 0. 0. 0. 0. 0. 1.10619469e-002 0. 4.42477874e-003
      2.21238937e-003 0. 0. 2.21238937e-003 2.21238937e-003
      2.21238937e-003 4.42477874e-003 0. 8.84955749e-003 0.
      2.21238937e-003 0. 0. 0. 0. 1.32743362e-002 4.42477874e-003 0. 0.
      0. 0. 0. 0. 0. 0. 0. 0. 0. 0. 0. 0. 0. 0. 0. 1.10619469e-002 0.
      2.96460181e-001 0. 0. 2.21238937e-003 0.</_>
    <_>
      0. 0. 3.42205316e-002 0. 0. 0. 0. 1.90114067e-003 0.
      1.14068445e-002 0. 9.31558907e-002 0. 0. 1.90114067e-003
      1.90114067e-003 0. 1.90114067e-003 1.90114067e-003 2.66159698e-002
      7.60456268e-003 0. 3.34600747e-001 0. 0. 1.90114067e-003 0. 0. 0.
      0. 0. 0. 0. 0. 0. 0. 1.14068445e-002 0. 5.70342224e-003 0. 0. 0.
      1.90114067e-003 0. 0. 0. 0. 1.90114067e-003 0. 0. 3.80228134e-003
      0. 3.80228134e-003 0. 0. 1.90114067e-003 1.90114067e-003 0.
      1.90114067e-003 0. 0. 0. 3.80228134e-003 0. 0. 0. 0.
      3.80228134e-003 0. 3.80228134e-003 0. 0. 0. 0. 9.50570311e-003
      5.70342224e-003 1.90114067e-003 1.90114067e-003 0. 0. 0.
      1.90114067e-003 3.80228134e-003 0. 0. 0. 0. 0. 1.90114067e-003 0.
      0. 0. 1.90114067e-003 3.80228134e-003 1.90114067e-003
      4.01140690e-001 0. 0. 0. 0.</_>
    <_>
      0. 0. 2.80172415e-002 2.15517241e-003 4.31034481e-003
      2.15517241e-003 0. 0. 4.31034481e-003 6.46551698e-003 0.
      3.44827592e-001 0. 0. 0. 0. 0. 0. 0. 1.29310340e-002
      4.31034481e-003 0. 1.87500000e-001 0. 0. 2.15517241e-003 0.
      8.62068962e-003 0. 0. 0. 0. 0. 0. 2.15517241e-003 2.15517241e-003
      1.72413792e-002 0. 4.31034481e-003 0. 0. 0. 2.15517241e-003 0. 0.
      0. 0. 0. 0. 0. 2.15517241e-003 2.15517241e-003 0. 0. 0. 0.
      6.46551698e-003 0. 0. 0. 0. 0. 0. 2.15517241e-003 0.
      4.31034481e-003 0. 4.31034481e-003 0. 0. 0. 0. 0. 2.15517241e-003
      1.07758623e-002 1.07758623e-002 0. 0. 0. 2.15517241e-003 0. 0. 0.
      0. 0. 2.15517241e-003 0. 0. 0. 0. 0. 0. 0. 2.37068962e-002 0.
      2.88793117e-001 0. 0. 0. 2.15517241e-003</_>
    <_>
      0. 0. 4.96277912e-003 0. 9.92555823e-003 0. 2.48138956e-003 0.
      2.48138956e-003 9.92555823e-003 0. 1.61290318e-001 0. 0.
      4.96277912e-003 0. 0. 4.96277912e-003 0. 7.44416844e-003
      2.48138956e-003 0. 3.47394526e-001 0. 0. 0. 0. 4.96277912e-003 0.
      0. 0. 0. 0. 4.96277912e-003 2.48138956e-003 0. 2.23325063e-002 0.
      2.48138956e-003 0. 0. 0. 0. 0. 0. 0. 0. 2.48138956e-003 0. 0.
      4.96277912e-003 0. 0. 0. 0. 2.48138956e-003 2.23325063e-002 0. 0.
      9.92555823e-003 0. 0. 0. 0. 0. 0. 0. 1.48883369e-002 0.
      2.48138956e-003 0. 0. 0. 0. 1.48883369e-002 2.23325063e-002 0. 0.
      0. 0. 0. 0. 2.48138956e-003 0. 0. 2.48138956e-003 0. 0. 0. 0. 0.
      0. 0. 1.98511165e-002 0. 2.82878399e-001 0. 0. 0. 0.</_>
    <_>
      1.62866444e-003 1.38436481e-001 0. 0. 0. 4.88599315e-002 0. 0.
      4.88599343e-003 1.95439737e-002 1.62866444e-003 1.57980457e-001 0.
      0. 2.93159597e-002 1.62866444e-003 0. 9.77198686e-003 0.
      1.79153085e-002 4.88599343e-003 0. 3.58306170e-002 4.88599343e-003
      1.62866444e-003 1.62866444e-003 0. 6.51465775e-003 0. 0. 0.
      4.88599343e-003 0. 0. 0. 0. 1.62866444e-003 1.62866444e-003
      8.14332254e-003 0. 0. 0. 8.14332254e-003 3.25732888e-003 0. 0. 0.
      1.62866444e-003 1.62866444e-003 7.32899010e-002 0. 1.62866451e-002
      4.88599343e-003 0. 0. 1.62866444e-003 0. 2.44299658e-002 0.
      3.25732888e-003 0. 0. 1.62866444e-003 3.42019536e-002 0. 0. 0.
      1.62866444e-003 1.30293155e-002 4.88599343e-003 0. 1.62866444e-003
      0. 2.11726371e-002 1.62866444e-003 1.00977197e-001 0. 0. 0.
      1.62866444e-003 0. 0. 3.25732888e-003 0. 0. 6.51465775e-003 0. 0.
      1.62866451e-002 0. 1.95439737e-002 0. 0. 6.51465775e-003 0.
      1.20521165e-001 0. 0. 3.25732888e-003 0.</_>
    <_>
      0. 8.27250630e-002 0. 2.43309001e-003 0. 8.51581469e-002
      4.86618001e-003 0. 0. 1.45985400e-002 0. 3.64963487e-002 0. 0.
      1.70316305e-002 4.86618001e-003 0. 1.45985400e-002 2.43309001e-003
      8.02919716e-002 9.73236002e-003 4.86618001e-003 5.83941601e-002
      4.86618001e-003 9.73236002e-003 2.43309001e-003 0. 2.43309001e-003
      4.86618001e-003 0. 2.43309001e-003 0. 0. 7.29927002e-003
      2.43309001e-003 2.43309001e-003 0. 0. 9.73236002e-003 0. 0. 0.
      2.43309001e-003 2.43309001e-003 2.43309001e-003 0. 0. 0. 0.
      9.48905125e-002 0. 1.21654496e-002 5.83941601e-002 0. 0. 0. 0.
      4.62287106e-002 0. 2.43309001e-003 0. 0. 2.43309001e-003
      3.64963487e-002 0. 0. 0. 0. 5.83941601e-002 2.43309001e-003 0.
      2.43309001e-003 0. 3.40632610e-002 7.29927002e-003 2.43308991e-002
      9.73236002e-003 0. 0. 1.21654496e-002 0. 2.43309001e-003 0. 0. 0.
      1.45985400e-002 2.43309001e-003 0. 1.21654496e-002 0.
      4.37956192e-002 0. 2.43309001e-003 9.73236002e-003 0.
      3.16301696e-002 0. 0. 2.43309001e-003 0.</_>
    <_>
      2.18340615e-003 9.38864648e-002 0. 0. 0. 6.98689967e-002 0. 0.
      2.18340615e-003 1.31004369e-002 0. 1.52838435e-002 0. 0.
      1.96506549e-002 2.18340615e-003 2.18340615e-003 1.09170303e-002
      4.36681230e-003 6.55021816e-002 2.40174681e-002 2.18340615e-003
      9.82532799e-002 4.36681230e-003 2.18340615e-003 0. 0.
      6.55021844e-003 0. 0. 0. 1.09170303e-002 0. 0. 0. 2.18340615e-003
      6.55021844e-003 0. 1.52838435e-002 2.18340615e-003 0. 0. 0. 0. 0.
      0. 4.36681230e-003 0. 0. 8.07860270e-002 4.36681230e-003
      4.36681230e-003 1.31004369e-002 2.18340615e-003 2.18340615e-003 0.
      0. 5.02183400e-002 0. 1.96506549e-002 0. 0. 0. 2.18340605e-002 0.
      0. 2.18340615e-003 0. 4.14847173e-002 6.55021844e-003 0.
      8.73362459e-003 0. 3.93013097e-002 6.55021844e-003 5.02183400e-002
      0. 0. 0. 1.09170303e-002 0. 2.18340615e-003 0. 4.36681230e-003 0.
      1.96506549e-002 0. 0. 2.18340615e-003 0. 4.36681211e-002 0. 0.
      1.09170303e-002 4.36681230e-003 6.33187816e-002 0. 0.
      2.18340615e-003 2.18340615e-003</_>
    <_>
      0. 1.54963687e-001 0. 0. 0. 1.69491526e-002 0. 0. 4.84261522e-003
      1.93704609e-002 0. 7.50605389e-002 0. 0. 3.63196135e-002
      2.17917692e-002 0. 1.93704609e-002 0. 1.21065378e-002
      1.69491526e-002 2.42130761e-003 4.60048430e-002 1.69491526e-002
      2.42130761e-003 0. 0. 7.26392306e-003 0. 0. 0. 1.45278461e-002
      4.84261522e-003 0. 0. 0. 7.26392306e-003 2.42130761e-003
      4.84261522e-003 4.84261522e-003 2.42130761e-003 0. 0. 0.
      4.84261522e-003 0. 0. 0. 0. 6.53753057e-002 2.42130761e-003
      1.21065378e-002 1.21065378e-002 2.42130761e-003 0. 0. 0.
      4.84261522e-003 0. 0. 0. 9.68523044e-003 0. 3.87409218e-002
      2.42130761e-003 0. 0. 0. 2.17917692e-002 2.42130761e-003 0. 0.
      2.42130761e-003 4.11622301e-002 4.84261522e-003 9.68523026e-002
      2.42130761e-003 0. 0. 0. 0. 0. 0. 2.42130761e-003 0. 0.
      2.42130761e-003 2.42130761e-003 4.60048430e-002 0. 2.90556923e-002
      0. 4.84261522e-003 0. 0. 8.95883814e-002 0. 0. 2.42130761e-003 0.</_>
    <_>
      0. 1.17977530e-001 0. 0. 0. 4.86891381e-002 0. 0. 1.87265920e-003
      9.36329551e-003 0. 4.30711620e-002 0. 1.87265920e-003
      1.12359552e-002 0. 0. 1.31086148e-002 1.87265920e-003
      2.24719103e-002 7.49063678e-003 0. 1.49812728e-001 5.61797759e-003
      1.87265920e-003 1.87265920e-003 1.87265920e-003 1.87265920e-003 0.
      0. 0. 5.61797759e-003 0. 0. 0. 1.87265920e-003 7.49063678e-003
      5.61797759e-003 3.74531839e-003 1.87265920e-003 0. 0.
      1.87265920e-003 0. 3.74531839e-003 0. 0. 0. 2.80898884e-002
      6.74157292e-002 0. 5.61797759e-003 2.24719103e-002 1.87265920e-003
      0. 1.87265920e-003 3.74531839e-003 2.05992516e-002 0.
      9.36329551e-003 0. 0. 0. 3.74531820e-002 0. 0. 0. 1.87265920e-003
      9.36329551e-003 5.61797759e-003 0. 0. 0. 1.87265910e-002
      1.87265920e-003 7.49063641e-002 0. 0. 0. 3.74531839e-003 0.
      3.74531839e-003 1.87265920e-003 0. 0. 5.61797759e-003 0. 0.
      1.12359552e-002 0. 2.80898884e-002 0. 0. 3.74531839e-003 0.
      1.57303378e-001 0. 0. 0. 0.</_>
    <_>
      0. 1.03825137e-001 0. 0. 0. 6.28415272e-002 0. 0. 0.
      1.09289614e-002 0. 4.64480855e-002 2.73224036e-003 2.73224036e-003
      1.09289614e-002 0. 0. 1.36612020e-002 0. 5.19125685e-002
      8.19672085e-003 0. 1.85792342e-001 2.73224036e-003 8.19672085e-003
      0. 0. 8.19672085e-003 0. 0. 0. 1.63934417e-002 2.73224036e-003 0.
      0. 0. 5.46448072e-003 2.73224036e-003 1.09289614e-002 0. 0. 0.
      5.46448072e-003 0. 2.73224036e-003 0. 0. 0. 0. 1.09289616e-001 0.
      5.46448072e-003 8.19672085e-003 2.73224036e-003 0. 0. 0.
      1.91256832e-002 0. 2.18579229e-002 0. 0. 0. 3.00546438e-002
      2.73224036e-003 0. 0. 2.73224036e-003 2.73224036e-003 0. 0. 0. 0.
      4.09836061e-002 0. 4.37158458e-002 8.19672085e-003 0. 0.
      8.19672085e-003 0. 0. 0. 0. 0. 5.46448072e-003 0. 0. 0. 0.
      4.37158458e-002 0. 2.73224036e-003 2.73224036e-003 0.
      7.37704933e-002 0. 0. 0. 0.</_>
    <_>
      0. 8.74751434e-002 0. 3.97614297e-003 0. 5.16898595e-002 0. 0.
      1.39164999e-002 1.39164999e-002 1.98807148e-003 1.39164999e-002 0.
      0. 1.78926438e-002 7.95228593e-003 1.98807148e-003 1.19284289e-002
      0. 8.34989995e-002 2.58449297e-002 0. 1.21272363e-001
      1.98807148e-003 7.95228593e-003 0. 0. 5.96421445e-003
      1.98807148e-003 0. 0. 1.98807148e-003 0. 0. 0. 0. 5.96421445e-003
      5.96421445e-003 5.96421445e-003 1.98807148e-003 1.98807148e-003
      3.97614297e-003 7.95228593e-003 3.97614297e-003 5.96421445e-003 0.
      1.98807148e-003 0. 0. 1.05367787e-001 0. 1.19284289e-002
      3.97614297e-003 1.98807148e-003 1.98807148e-003 0. 0.
      3.18091437e-002 0. 9.94035788e-003 0. 5.96421445e-003
      3.97614297e-003 3.57852876e-002 3.97614297e-003 0. 0.
      1.98807148e-003 2.58449297e-002 5.96421445e-003 0. 7.95228593e-003
      0. 3.18091437e-002 3.97614297e-003 9.94035788e-003 3.97614297e-003
      0. 0. 5.96421445e-003 3.97614297e-003 0. 0. 1.98807148e-003 0.
      1.98807148e-003 0. 1.98807148e-003 1.98807148e-003 0.
      8.54870752e-002 0. 0. 5.96421445e-003 3.97614297e-003
      5.56659997e-002 0. 0. 0. 0.</_>
    <_>
      0. 1.45522386e-001 3.73134320e-003 0. 0. 4.66417894e-002
      1.86567160e-003 0. 9.32835788e-003 2.05223877e-002 0.
      7.46268630e-002 0. 0. 1.30597008e-002 0. 0. 2.42537316e-002
      5.59701491e-003 1.67910438e-002 1.86567160e-003 0. 1.17537312e-001
      5.59701491e-003 3.73134320e-003 0. 0. 3.73134320e-003 0. 0. 0.
      5.59701491e-003 0. 0. 0. 0. 0. 0. 1.86567160e-003 1.86567160e-003
      0. 0. 1.86567160e-003 0. 0. 0. 0. 0. 0. 6.34328350e-002
      1.86567160e-003 1.67910438e-002 7.46268639e-003 0. 0. 0. 0.
      4.85074632e-002 0. 5.59701491e-003 0. 0. 1.86567160e-003
      3.73134315e-002 0. 1.86567160e-003 0. 0. 7.46268639e-003 0. 0. 0.
      1.86567160e-003 5.59701491e-003 0. 1.43656716e-001 1.86567160e-003
      0. 0. 1.11940298e-002 0. 0. 0. 0. 0. 3.73134320e-003 0. 0.
      7.46268639e-003 0. 1.30597008e-002 0. 0. 1.86567160e-003 0.
      1.11940295e-001 0. 0. 0. 0.</_>
    <_>
      1.74825173e-003 1.01398602e-001 0. 1.74825173e-003 0.
      1.10139862e-001 3.49650346e-003 0. 3.49650346e-003 1.74825173e-002
      0. 4.02097888e-002 1.74825173e-003 3.49650346e-003 8.74125864e-003
      3.49650346e-003 1.74825173e-003 1.39860138e-002 5.24475519e-003
      1.74825173e-002 8.74125864e-003 1.74825173e-003 1.41608387e-001 0.
      1.74825173e-003 5.24475519e-003 0. 3.49650346e-003 6.99300691e-003
      0. 0. 3.49650346e-003 0. 0. 0. 0. 1.74825173e-003 3.49650346e-003
      1.57342665e-002 1.74825173e-003 1.74825173e-003 0. 5.24475519e-003
      0. 1.74825173e-003 0. 0. 0. 1.74825173e-003 1.03146851e-001 0.
      1.74825173e-003 8.74125864e-003 3.49650346e-003 1.74825173e-003 0.
      0. 5.76923080e-002 0. 1.74825173e-003 0. 0. 1.74825173e-003
      4.72027957e-002 0. 0. 0. 8.74125864e-003 1.04895104e-002
      5.24475519e-003 0. 3.49650346e-003 0. 6.99300691e-003
      1.74825173e-003 3.67132872e-002 3.49650346e-003 0. 0.
      8.74125864e-003 1.74825173e-003 0. 0. 1.74825173e-003 0.
      1.22377621e-002 0. 1.74825173e-003 3.49650346e-003 0.
      1.92307681e-002 0. 0. 3.49650346e-003 0. 9.79020968e-002 0. 0.
      1.74825173e-003 1.74825173e-003</_>
    <_>
      1.95694715e-003 1.31115466e-001 0. 0. 0. 1.29158512e-001 0. 0.
      3.91389430e-003 1.56555772e-002 1.95694715e-003 5.67514673e-002
      1.95694715e-003 0. 1.56555772e-002 3.91389430e-003 0.
      5.87084144e-003 9.78473574e-003 2.93542072e-002 9.78473574e-003
      1.95694715e-003 6.45792559e-002 5.87084144e-003 9.78473574e-003
      3.91389430e-003 0. 0. 0. 0. 1.95694715e-003 1.95694715e-003 0.
      1.95694715e-003 0. 0. 1.95694715e-003 0. 1.36986300e-002 0. 0. 0.
      0. 0. 0. 0. 0. 0. 1.95694715e-003 1.03718199e-001 0.
      9.78473574e-003 9.78473574e-003 0. 0. 0. 0. 5.67514673e-002 0.
      9.78473574e-003 0. 1.95694715e-003 0. 4.89236787e-002 0. 0. 0. 0.
      2.15264186e-002 1.95694715e-003 0. 1.95694715e-003 0.
      1.17416829e-002 5.87084144e-003 7.82778859e-002 5.87084144e-003 0.
      0. 0. 0. 0. 0. 1.95694715e-003 1.95694715e-003 7.82778859e-003 0.
      3.91389430e-003 9.78473574e-003 0. 2.15264186e-002 0. 0.
      1.95694715e-003 0. 5.67514673e-002 0. 0. 0. 0.</_>
    <_>
      0. 1.45631075e-001 3.23624606e-003 0. 0. 2.26537231e-002 0. 0. 0.
      1.29449842e-002 0. 1.26213595e-001 0. 0. 1.29449842e-002 0. 0.
      9.70873795e-003 0. 1.61812305e-002 9.70873795e-003 0.
      1.48867324e-001 3.23624606e-003 3.23624606e-003 0. 0.
      6.47249212e-003 0. 0. 0. 6.47249212e-003 0. 0. 0. 0.
      2.26537231e-002 3.23624606e-003 6.47249212e-003 0. 0. 0.
      6.47249212e-003 0. 3.23624606e-003 0. 0. 0. 0. 6.79611638e-002 0.
      9.70873795e-003 6.47249212e-003 3.23624606e-003 0. 0. 0.
      3.23624606e-003 6.47249212e-003 0. 0. 0. 0. 5.50161824e-002 0.
      3.23624606e-003 0. 0. 9.70873795e-003 3.23624606e-003 0. 0. 0.
      1.94174759e-002 0. 7.76699036e-002 3.23624606e-003 0. 0. 0. 0. 0.
      0. 0. 0. 1.29449842e-002 0. 0. 0. 0. 1.29449842e-002 0. 0.
      3.23624606e-003 0. 1.32686093e-001 0. 0. 0. 0.</_>
    <_>
      0. 1.78997621e-001 1.19331749e-002 0. 4.77326987e-003
      4.05727923e-002 0. 2.38663494e-003 2.38663494e-003 1.19331749e-002
      0. 1.21718384e-001 0. 2.38663494e-003 4.77326987e-003
      4.77326987e-003 0. 7.15990458e-003 0. 1.19331749e-002
      2.38663494e-003 0. 4.53460626e-002 0. 7.15990458e-003 0. 0.
      4.77326987e-003 0. 0. 0. 2.38663494e-003 0. 2.38663494e-003 0. 0.
      4.77326987e-003 0. 2.38663494e-003 0. 0. 2.38663494e-003
      2.38663494e-003 2.38663494e-003 0. 0. 0. 0. 0. 7.63723180e-002
      2.38663494e-003 1.19331749e-002 0. 0. 0. 0. 0. 3.10262535e-002 0.
      2.38663498e-002 0. 0. 0. 2.38663498e-002 0. 0. 0. 2.38663494e-003
      1.43198092e-002 7.15990458e-003 0. 0. 2.38663494e-003
      2.14797147e-002 0. 1.26491651e-001 7.15990458e-003 0. 0. 0. 0. 0.
      2.38663494e-003 0. 0. 4.77326987e-003 0. 0. 4.77326987e-003 0.
      1.43198092e-002 0. 0. 1.43198092e-002 0. 1.24105014e-001 0. 0. 0.
      0.</_>
    <_>
      0. 2.00636953e-001 0. 0. 0. 3.18471342e-003 0. 0. 3.18471342e-003
      1.91082805e-002 0. 1.05095543e-001 0. 0. 6.36942685e-003 0. 0.
      9.55414027e-003 0. 3.50318477e-002 1.91082805e-002 3.18471342e-003
      1.30573243e-001 3.18471342e-003 6.36942685e-003 0. 0.
      6.36942685e-003 0. 0. 0. 0. 0. 0. 0. 0. 3.50318477e-002 0.
      9.55414027e-003 0. 0. 0. 0. 0. 3.18471342e-003 0. 0. 0. 0.
      8.59872624e-002 3.18471342e-003 3.18471342e-003 6.36942685e-003 0.
      0. 0. 0. 0. 3.18471342e-003 9.55414027e-003 0. 0. 0.
      1.27388537e-002 3.18471342e-003 3.18471342e-003 0. 3.18471342e-003
      0. 3.18471342e-003 0. 0. 0. 0. 0. 1.33757964e-001 3.18471342e-003
      0. 0. 3.18471342e-003 0. 0. 0. 0. 3.18471342e-003 0. 0. 0.
      3.18471342e-003 0. 3.18471342e-003 0. 0. 9.55414027e-003 0.
      1.05095543e-001 0. 0. 0. 0.</_>
    <_>
      0. 1.54142588e-001 0. 1.92678231e-003 0. 9.24855471e-002 0. 0.
      3.85356462e-003 7.70712923e-003 0. 5.20231239e-002 0.
      1.92678231e-003 1.54142585e-002 1.92678231e-003 0. 1.34874759e-002
      0. 1.34874759e-002 7.70712923e-003 0. 5.58766872e-002
      9.63391177e-003 1.92678231e-003 0. 0. 3.85356462e-003 0. 0. 0.
      3.85356462e-003 0. 0. 0. 0. 5.78034669e-003 1.92678231e-003
      7.70712923e-003 3.85356462e-003 1.92678231e-003 0. 3.85356462e-003
      0. 1.92678231e-003 0. 1.92678231e-003 0. 0. 1.13680154e-001 0.
      5.78034669e-003 3.85356462e-003 5.78034669e-003 5.78034669e-003 0.
      1.92678231e-003 6.35838136e-002 0. 3.85356462e-003 0.
      1.92678231e-003 1.92678231e-003 4.23892103e-002 0. 1.92678231e-003
      1.92678231e-003 1.92678231e-003 1.92678235e-002 1.92678231e-003 0.
      1.34874759e-002 0. 3.85356471e-002 7.70712923e-003 7.32177272e-002
      3.85356462e-003 0. 0. 7.70712923e-003 0. 0. 0. 0. 0. 0. 0. 0.
      5.78034669e-003 0. 4.62427735e-002 0. 0. 1.92678231e-003 0.
      5.39499037e-002 0. 0. 0. 0.</_>
    <_>
      0. 1.71370968e-001 8.06451589e-003 0. 0. 4.63709682e-002 0. 0.
      1.61290318e-002 1.20967738e-002 0. 3.22580636e-002 0. 0.
      8.06451589e-003 0. 0. 3.02419346e-002 0. 1.81451607e-002
      8.06451589e-003 0. 1.08870968e-001 8.06451589e-003 8.06451589e-003
      2.01612897e-003 0. 0. 0. 0. 0. 4.03225794e-003 0. 0. 0.
      2.01612897e-003 2.01612897e-003 0. 4.03225794e-003 2.01612897e-003
      2.01612897e-003 0. 6.04838692e-003 0. 0. 0. 0. 0. 0.
      1.25000000e-001 2.01612897e-003 6.04838692e-003 8.06451589e-003 0.
      0. 2.01612897e-003 0. 2.82258056e-002 2.01612897e-003
      8.06451589e-003 0. 0. 0. 1.61290318e-002 0. 0. 0. 0.
      1.20967738e-002 0. 0. 0. 0. 3.22580636e-002 2.01612897e-003
      7.25806430e-002 8.06451589e-003 0. 0. 8.06451589e-003 0.
      2.01612897e-003 0. 0. 0. 4.03225794e-003 0. 0. 2.21774187e-002 0.
      3.42741907e-002 0. 0. 2.01612897e-003 0. 1.02822579e-001 0. 0. 0.
      0.</_>
    <_>
      0. 1.26984134e-001 3.96825420e-003 1.98412710e-003 0.
      5.55555597e-002 0. 0. 5.95238153e-003 2.18253974e-002 0.
      2.77777798e-002 0. 0. 1.58730168e-002 0. 1.98412710e-003
      1.19047631e-002 1.38888899e-002 6.54761940e-002 1.58730168e-002
      1.98412710e-003 1.15079373e-001 5.95238153e-003 3.96825420e-003 0.
      0. 3.96825420e-003 0. 1.98412710e-003 1.98412710e-003
      1.98412710e-003 0. 0. 0. 0. 3.96825420e-003 1.98412710e-003
      1.38888899e-002 0. 1.98412710e-003 7.93650839e-003 1.98412710e-003
      0. 1.98412710e-003 0. 1.98412710e-003 3.96825420e-003 0.
      5.55555597e-002 7.93650839e-003 1.58730168e-002 1.98412710e-003 0.
      5.95238153e-003 0. 5.95238153e-003 6.94444478e-002 0.
      1.38888899e-002 0. 0. 0. 3.17460336e-002 1.98412710e-003 0. 0.
      1.98412710e-003 3.96825410e-002 1.98412710e-003 0. 0.
      1.98412710e-003 2.38095261e-002 0. 2.97619067e-002 5.95238153e-003
      1.98412710e-003 0. 0. 0. 0. 1.98412710e-003 0. 1.98412710e-003
      5.95238153e-003 0. 1.98412710e-003 1.38888899e-002 0.
      2.18253974e-002 0. 0. 5.95238153e-003 1.98412710e-003
      8.13492090e-002 0. 0. 0. 0.</_>
    <_>
      0. 1.21348314e-001 0. 0. 0. 2.24719103e-002 0. 0. 4.49438207e-003
      2.24719103e-002 0. 1.10112362e-001 0. 0. 1.34831462e-002 0. 0.
      1.12359552e-002 0. 2.92134844e-002 4.49438207e-003 0.
      1.10112362e-001 8.98876414e-003 0. 0. 0. 2.47191004e-002 0. 0. 0.
      0. 2.24719103e-003 0. 0. 0. 1.57303363e-002 2.24719103e-003 0.
      2.24719103e-003 0. 0. 0. 0. 0. 0. 0. 2.24719103e-003
      2.24719103e-003 6.06741570e-002 2.24719103e-003 1.34831462e-002
      4.49438207e-003 2.24719103e-003 0. 0. 0. 1.12359552e-002
      2.24719103e-003 0. 0. 0. 0. 2.92134844e-002 0. 0. 0.
      2.24719103e-003 8.98876414e-003 0. 0. 0. 0. 1.79775283e-002 0.
      1.03370786e-001 2.24719103e-003 0. 2.24719103e-003 0. 0. 0. 0. 0.
      0. 8.98876414e-003 0. 0. 8.98876414e-003 0. 2.02247202e-002
      4.49438207e-003 0. 4.49438207e-003 0. 1.79775283e-001 0. 0. 0. 0.</_>
    <_>
      0. 1.46484375e-001 1.95312500e-003 1.95312500e-003 0.
      6.64062500e-002 0. 0. 1.95312500e-003 1.36718750e-002
      1.95312500e-003 2.53906250e-002 1.95312500e-003 0. 2.53906250e-002
      3.90625000e-003 0. 2.73437500e-002 1.95312500e-003 7.22656250e-002
      7.81250000e-003 0. 1.38671875e-001 7.81250000e-003 1.95312500e-003
      3.90625000e-003 0. 7.81250000e-003 0. 1.95312500e-003
      1.95312500e-003 0. 1.95312500e-003 0. 0. 1.95312500e-003 0. 0.
      5.85937500e-003 0. 0. 0. 1.95312500e-003 1.95312500e-003 0. 0. 0.
      0. 0. 7.81250000e-002 0. 1.36718750e-002 0. 0. 0. 0. 0.
      3.12500000e-002 0. 5.85937500e-003 0. 0. 0. 3.32031250e-002
      1.95312500e-003 0. 1.95312500e-003 0. 2.34375000e-002 0. 0. 0.
      1.95312500e-003 2.92968750e-002 7.81250000e-003 5.85937500e-002
      9.76562500e-003 0. 0. 1.95312500e-003 0. 0. 0. 0. 0.
      5.85937500e-003 0. 1.95312500e-003 1.95312500e-003 0.
      2.34375000e-002 0. 0. 1.95312500e-003 0. 8.78906250e-002 0. 0. 0.
      0.</_>
    <_>
      0. 1.32710278e-001 0. 0. 1.86915894e-003 7.28971958e-002
      1.86915894e-003 0. 0. 1.30841127e-002 0. 6.54205605e-002
      3.73831787e-003 0. 1.49532715e-002 1.86915894e-003 0.
      5.60747692e-003 0. 9.34579503e-003 1.86915894e-003 5.60747692e-003
      7.85046741e-002 3.73831787e-003 5.60747692e-003 0. 0.
      2.24299077e-002 0. 1.86915894e-003 1.86915894e-003 3.73831787e-003
      0. 0. 0. 0. 5.60747692e-003 1.86915894e-003 9.34579503e-003
      3.73831787e-003 0. 0. 2.24299077e-002 0. 0. 1.86915894e-003 0. 0.
      0. 8.97196308e-002 0. 1.49532715e-002 1.12149538e-002 0. 0. 0. 0.
      6.16822466e-002 0. 0. 0. 0. 0. 5.23364507e-002 0. 1.86915894e-003
      1.86915894e-003 1.86915894e-003 1.86915894e-003 1.86915894e-003 0.
      3.73831787e-003 1.86915894e-003 1.68224312e-002 1.86915894e-003
      1.15887851e-001 5.60747692e-003 0. 0. 1.86915894e-003 0.
      1.86915894e-003 1.86915894e-003 0. 0. 7.47663574e-003 0.
      3.73831787e-003 3.73831787e-003 0. 2.80373842e-002 0.
      1.86915894e-003 0. 0. 7.10280389e-002 0. 0. 0. 0.</_>
    <_>
      0. 1.05577692e-001 0. 0. 0. 1.19521916e-002 1.99203193e-003
      3.98406386e-003 0. 2.58964151e-002 1.99203193e-003 2.98804790e-002
      5.97609580e-003 0. 1.19521916e-002 4.18326706e-002 1.99203193e-003
      1.39442235e-002 0. 4.98007983e-002 1.39442235e-002 0.
      5.17928302e-002 1.39442235e-002 0. 0. 0. 3.98406386e-003
      1.99203193e-003 1.99203193e-003 0. 2.78884470e-002 0. 0. 0. 0.
      3.98406386e-003 1.59362555e-002 1.19521916e-002 1.19521916e-002
      3.98406386e-003 0. 7.96812773e-003 3.98406386e-003 1.99203193e-003
      0. 7.96812773e-003 1.99203193e-003 0. 1.19521916e-001 0.
      1.99203193e-002 5.97609580e-003 3.98406386e-003 0. 0. 0.
      1.19521916e-002 0. 5.97609580e-003 0. 0. 3.98406386e-003
      2.19123513e-002 0. 0. 3.98406386e-003 1.99203193e-003
      5.37848622e-002 2.19123513e-002 0. 0. 1.99203193e-003
      3.58565748e-002 0. 3.98406386e-002 3.98406386e-003 0.
      1.99203193e-003 1.99203193e-003 0. 0. 3.98406386e-003
      1.99203193e-003 1.99203193e-003 7.96812773e-003 0. 5.97609580e-003
      2.98804790e-002 0. 4.58167344e-002 0. 7.96812773e-003
      7.96812773e-003 1.99203193e-003 2.98804790e-002 0. 0. 0. 0.</_>
    <_>
      0. 1.22388057e-001 0. 0. 0. 1.49253737e-002 0. 0. 1.19402986e-002
      3.28358226e-002 2.98507465e-003 7.46268630e-002 0. 0.
      1.19402986e-002 0. 0. 5.97014930e-003 8.95522349e-003
      2.68656723e-002 2.08955221e-002 5.97014930e-003 1.07462689e-001
      2.98507465e-003 0. 2.98507465e-003 0. 2.98507465e-003 0. 0.
      2.98507465e-003 2.98507465e-003 0. 0. 0. 0. 1.49253737e-002
      8.95522349e-003 0. 0. 2.98507465e-003 2.98507465e-003 0.
      5.97014930e-003 0. 0. 0. 2.98507465e-003 0. 9.55223888e-002
      2.98507465e-003 5.97014930e-003 2.98507465e-003 2.98507465e-003 0.
      0. 2.98507465e-003 2.98507465e-003 0. 2.98507465e-003 0. 0. 0.
      2.98507474e-002 2.98507465e-003 0. 0. 1.49253737e-002
      2.38805972e-002 1.19402986e-002 0. 0. 0. 2.38805972e-002
      2.98507465e-003 1.25373140e-001 2.98507465e-003 0. 0.
      2.98507465e-003 0. 0. 0. 0. 0. 2.98507465e-003 0. 2.98507465e-003
      1.19402986e-002 0. 2.38805972e-002 0. 0. 8.95522349e-003
      2.98507465e-003 8.05970132e-002 2.98507465e-003 0. 0. 0.</_>
    <_>
      5.37634408e-003 9.31899622e-002 0. 1.79211469e-003 0. 0.
      1.79211469e-003 7.16845877e-003 5.37634408e-003 2.32974906e-002
      1.61290318e-002 7.16845877e-003 5.37634408e-003 7.16845877e-003
      8.96057300e-003 3.22580636e-002 5.37634408e-003 7.16845877e-003
      7.16845877e-003 4.83870953e-002 2.32974906e-002 1.79211469e-003
      3.94265242e-002 5.37634408e-003 5.37634408e-003 3.58422939e-003
      8.96057300e-003 3.58422939e-003 0. 1.07526882e-002 7.16845877e-003
      1.79211460e-002 0. 0. 0. 0. 0. 3.94265242e-002 7.16845877e-003
      1.61290318e-002 1.07526882e-002 8.96057300e-003 1.79211469e-003
      7.16845877e-003 0. 1.79211469e-003 5.37634408e-003 3.58422939e-003
      0. 1.07526883e-001 0. 7.16845877e-003 1.25448033e-002
      8.96057300e-003 3.58422939e-003 3.58422939e-003 0. 0. 0.
      1.79211469e-003 0. 7.16845877e-003 0. 1.97132621e-002
      1.79211469e-003 1.79211469e-003 1.43369175e-002 1.79211469e-003
      3.04659493e-002 1.79211460e-002 0. 0. 3.58422939e-003
      2.86738351e-002 7.16845877e-003 1.97132621e-002 3.58422939e-003
      1.79211469e-003 0. 3.58422939e-003 1.07526882e-002 3.58422939e-003
      1.79211469e-003 7.16845877e-003 8.96057300e-003 1.25448033e-002
      1.79211469e-003 1.07526882e-002 3.58422920e-002 0. 1.61290318e-002
      0. 1.79211469e-003 5.37634408e-003 3.58422939e-003 3.58422920e-002
      3.58422939e-003 0. 1.25448033e-002 7.16845877e-003</_>
    <_>
      4.63678502e-003 1.54559501e-003 1.46831527e-001 3.09119001e-003
      3.09119001e-003 3.09119001e-003 1.54559501e-002 0. 2.00927351e-002
      7.72797503e-003 1.23647600e-002 7.88253471e-002 6.18238002e-003
      6.18238002e-003 0. 6.18238002e-003 0. 1.54559501e-003
      7.72797503e-003 3.09119001e-002 2.00927351e-002 1.08191650e-002
      9.27357003e-003 0. 4.63678502e-003 3.09119001e-003 9.27357003e-003
      1.54559501e-003 4.63678502e-003 1.23647600e-002 7.72797503e-003
      1.08191650e-002 0. 0. 0. 4.63678502e-003 1.54559501e-003
      1.39103550e-002 7.72797503e-003 1.23647600e-002 3.09119001e-003
      7.72797503e-003 3.09119001e-003 1.23647600e-002 3.09119001e-003
      1.54559501e-002 4.63678502e-003 4.63678502e-003 4.63678502e-003
      1.39103550e-002 2.47295201e-002 1.08191650e-002 2.78207101e-002
      7.72797503e-003 9.27357003e-003 7.72797503e-003 0. 1.54559501e-003
      0. 0. 7.72797503e-003 1.70015451e-002 0. 3.09119001e-003
      3.09119001e-003 6.18238002e-003 2.47295201e-002 0. 6.18238002e-003
      1.54559501e-003 1.39103550e-002 0. 0. 9.27357003e-003
      3.09119001e-002 6.18238002e-003 3.09119001e-003 3.09119001e-003
      1.54559501e-003 7.72797503e-003 1.23647600e-002 7.72797503e-003 0.
      2.47295201e-002 9.27357003e-003 9.27357003e-003 1.54559501e-003
      2.93663051e-002 1.54559501e-003 0. 7.72797503e-003 0.
      7.72797503e-003 0. 3.09119001e-003 7.88253471e-002 3.09119001e-003
      0. 0. 6.18238002e-003</_>
    <_>
      2.52525252e-003 2.52525248e-002 6.56565651e-002 8.83838348e-003
      2.52525252e-003 0. 2.52525252e-003 0. 1.13636367e-002
      1.01010101e-002 1.64141413e-002 1.89393945e-002 5.05050505e-003
      6.31313119e-003 3.78787890e-003 2.02020202e-002 6.31313119e-003
      3.78787890e-003 1.26262626e-003 2.39898991e-002 5.30303046e-002
      2.52525252e-003 2.52525248e-002 0. 0. 1.26262626e-003
      1.51515156e-002 5.05050505e-003 3.78787890e-003 2.14646459e-002
      1.13636367e-002 1.01010101e-002 0. 0. 0. 3.78787890e-003
      1.26262626e-003 1.51515156e-002 1.13636367e-002 2.14646459e-002
      1.51515156e-002 2.52525248e-002 3.78787890e-003 1.64141413e-002
      1.01010101e-002 5.05050505e-003 3.03030312e-002 1.26262626e-003
      7.57575780e-003 1.64141413e-002 2.90404037e-002 1.01010101e-002
      2.02020202e-002 1.76767670e-002 1.26262626e-003 7.57575780e-003
      1.26262626e-003 0. 0. 1.26262626e-003 3.78787890e-003
      1.76767670e-002 0. 0. 8.83838348e-003 3.78787890e-003
      1.51515156e-002 1.26262626e-003 0. 2.52525252e-003 1.26262626e-003
      0. 2.52525252e-003 2.52525252e-003 1.51515156e-002 2.65151523e-002
      1.26262626e-003 3.78787890e-003 0. 5.05050505e-003 1.13636367e-002
      2.52525252e-003 0. 2.14646459e-002 1.89393945e-002 2.02020202e-002
      1.26262626e-003 1.76767670e-002 3.78787890e-003 0. 7.57575780e-003
      0. 3.78787890e-003 2.52525252e-003 7.57575780e-003 6.81818202e-002
      2.14646459e-002 0. 1.13636367e-002 1.26262624e-002</_>
    <_>
      2.92397663e-003 4.97076027e-002 2.92397663e-002 0. 0. 0. 0. 0. 0.
      7.60233924e-002 1.46198831e-002 2.92397663e-003 2.92397663e-003
      2.92397663e-003 0. 4.38596494e-002 0. 8.77192989e-003 0.
      9.35672522e-002 9.06432718e-002 0. 8.77192989e-002 1.16959065e-002
      0. 5.84795326e-003 8.77192989e-003 0. 0. 0. 1.16959065e-002 0. 0.
      0. 0. 0. 0. 5.84795326e-003 1.75438598e-002 8.77192989e-003 0.
      2.33918130e-002 0. 2.92397663e-003 5.84795326e-003 0.
      8.77192989e-003 2.92397663e-003 1.46198831e-002 3.80116962e-002
      2.92397663e-003 2.63157897e-002 1.75438598e-002 2.92397663e-003 0.
      0. 0. 0. 2.92397663e-003 0. 2.92397663e-003 0. 1.16959065e-002 0.
      2.92397663e-003 1.16959065e-002 5.84795326e-003 0. 8.77192989e-003
      2.92397663e-002 0. 0. 0. 2.92397663e-003 1.16959065e-002
      5.55555560e-002 5.84795326e-003 0. 2.92397663e-003 0.
      5.84795326e-003 0. 0. 1.46198831e-002 0. 2.33918130e-002
      2.92397663e-003 5.84795326e-003 2.92397663e-003 8.77192989e-003 0.
      0. 8.77192989e-003 0. 8.77192989e-003 3.21637429e-002
      2.92397663e-003 0. 5.84795326e-003 0.</_>
    <_>
      9.59692895e-003 3.26295570e-002 4.03071009e-002 0. 0. 0.
      7.67754298e-003 1.91938574e-003 1.34357000e-002 4.22264859e-002
      1.91938574e-003 2.49520149e-002 1.91938574e-003 9.59692895e-003 0.
      4.79846448e-002 5.75815700e-003 2.11132430e-002 0. 4.03071009e-002
      1.03646830e-001 5.75815700e-003 6.90978840e-002 3.83877149e-003 0.
      9.59692895e-003 1.91938574e-003 0. 0. 1.53550860e-002
      3.83877149e-003 7.67754298e-003 0. 0. 0. 0. 0. 3.83877149e-003
      7.67754298e-003 2.11132430e-002 1.15163140e-002 7.67754298e-003
      9.59692895e-003 7.67754298e-003 0. 1.91938574e-003 7.67754298e-003
      1.15163140e-002 9.59692895e-003 1.91938579e-002 1.91938574e-003
      1.91938574e-003 9.59692895e-003 7.67754298e-003 0. 3.83877149e-003
      0. 1.91938574e-003 0. 0. 0. 3.83877149e-003 0. 0. 9.59692895e-003
      7.67754298e-003 5.75815700e-003 0. 7.67754298e-003 9.59692895e-003
      3.83877149e-003 1.91938574e-003 1.91938574e-003 3.83877149e-003
      1.91938574e-003 6.52591139e-002 0. 1.15163140e-002 9.59692895e-003
      7.67754298e-003 1.91938574e-003 0. 0. 1.15163140e-002
      5.75815700e-003 2.49520149e-002 3.83877149e-003 0. 0. 0.
      3.83877149e-003 0. 3.83877149e-003 0. 1.91938574e-003
      9.59692895e-002 1.53550860e-002 0. 5.75815700e-003 5.75815700e-003</_>
    <_>
      2.66311574e-003 1.46471364e-002 6.79094493e-002 5.32623148e-003
      1.33155787e-003 0. 1.59786940e-002 3.99467349e-003 7.98934698e-003
      1.99733675e-002 2.39680409e-002 5.85885458e-002 1.33155787e-003
      1.46471364e-002 6.65778946e-003 1.33155789e-002 2.66311574e-003
      1.19840205e-002 2.66311574e-003 2.13049259e-002 4.79360819e-002
      2.66311574e-003 4.66045253e-002 1.33155787e-003 1.33155787e-003 0.
      1.19840205e-002 1.33155787e-003 9.32090543e-003 2.26364844e-002
      1.19840205e-002 3.99467349e-003 1.33155787e-003 0. 0.
      2.66311574e-003 0. 1.46471364e-002 5.32623148e-003 1.33155789e-002
      1.33155789e-002 2.13049259e-002 0. 2.26364844e-002 1.33155787e-003
      9.32090543e-003 9.32090543e-003 3.99467349e-003 2.66311574e-003
      1.06524630e-002 3.46205048e-002 6.65778946e-003 1.73102524e-002
      7.98934698e-003 0. 6.65778946e-003 0. 0. 0. 1.33155787e-003
      5.32623148e-003 5.32623148e-003 0. 0. 1.19840205e-002
      5.32623148e-003 1.46471364e-002 1.33155787e-003 0. 1.33155787e-003
      1.73102524e-002 1.33155787e-003 5.32623148e-003 3.99467349e-003
      2.52995994e-002 2.26364844e-002 3.99467349e-003 3.99467349e-003 0.
      6.65778946e-003 2.13049259e-002 9.32090543e-003 0. 1.06524630e-002
      1.06524630e-002 1.99733675e-002 0. 9.32090543e-003 1.33155787e-003
      0. 3.99467349e-003 0. 3.99467349e-003 0. 7.98934698e-003
      6.65778965e-002 6.65778946e-003 2.66311574e-003 1.86418109e-002
      6.65778946e-003</_>
    <_>
      0. 4.55407947e-002 1.51802655e-002 3.79506638e-003 0. 0. 0.
      1.89753319e-003 7.59013277e-003 4.74383309e-002 2.46679317e-002
      1.32827321e-002 1.89753319e-003 5.69259934e-003 0. 4.74383309e-002
      9.48766619e-003 7.59013277e-003 0. 5.50284609e-002 3.98481973e-002
      9.48766619e-003 1.89753324e-002 1.89753319e-003 0. 1.89753319e-003
      1.32827321e-002 0. 0. 1.32827321e-002 7.59013277e-003 0. 0. 0. 0.
      0. 0. 1.89753324e-002 2.27703974e-002 2.08728649e-002
      9.48766619e-003 2.65654642e-002 1.89753319e-003 1.13851987e-002
      1.89753319e-003 9.48766619e-003 1.51802655e-002 5.69259934e-003
      1.89753319e-003 4.36432622e-002 1.89753319e-003 7.59013277e-003
      7.59013277e-003 3.79506638e-003 3.79506638e-003 3.79506638e-003 0.
      0. 1.89753319e-003 1.89753319e-003 0. 2.08728649e-002
      3.79506638e-003 0. 0. 9.48766619e-003 1.51802655e-002 0.
      2.08728649e-002 7.59013277e-003 0. 1.89753319e-003 1.89753319e-003
      9.48766619e-003 1.13851987e-002 1.89753324e-002 0. 7.59013277e-003
      3.79506638e-003 1.89753319e-003 2.08728649e-002 3.03605311e-002
      1.89753319e-003 2.27703974e-002 1.70777980e-002 2.65654642e-002 0.
      3.41555960e-002 7.59013277e-003 3.79506638e-003 3.79506638e-003
      3.79506638e-003 5.69259934e-003 0. 5.69259934e-003 3.60531323e-002
      1.89753324e-002 0. 3.79506638e-003 7.59013277e-003</_>
    <_>
      0. 4.11522612e-002 2.46913582e-002 2.05761311e-003 0. 0. 0. 0.
      6.17283955e-003 4.93827164e-002 1.23456791e-002 8.23045243e-003 0.
      4.11522621e-003 2.05761311e-003 2.46913582e-002 2.05761311e-003
      2.05761306e-002 6.17283955e-003 5.76131679e-002 7.81892985e-002
      1.23456791e-002 3.90946493e-002 8.23045243e-003 2.05761311e-003 0.
      8.23045243e-003 0. 4.11522621e-003 1.02880653e-002 1.44032920e-002
      2.05761311e-003 2.05761311e-003 0. 0. 0. 0. 2.67489702e-002
      1.64609049e-002 1.64609049e-002 1.23456791e-002 1.64609049e-002
      4.11522621e-003 4.11522621e-003 0. 2.05761311e-003 6.17283955e-003
      6.17283955e-003 2.05761311e-003 2.88065840e-002 1.02880653e-002
      8.23045243e-003 8.23045243e-003 1.23456791e-002 0. 2.05761311e-003
      0. 4.11522621e-003 0. 0. 0. 4.11522621e-003 0. 0. 8.23045243e-003
      2.05761311e-003 8.23045243e-003 0. 6.17283955e-003 6.17283955e-003
      2.05761311e-003 0. 4.11522621e-003 8.23045243e-003 2.46913582e-002
      4.73251007e-002 0. 4.11522621e-003 2.05761311e-003 6.17283955e-003
      1.02880653e-002 2.05761311e-003 0. 1.64609049e-002 1.64609049e-002
      2.88065840e-002 1.02880653e-002 2.46913582e-002 0. 4.11522621e-003
      8.23045243e-003 2.05761311e-003 8.23045243e-003 0. 4.11522621e-003
      5.55555522e-002 1.44032920e-002 2.05761311e-003 2.26337444e-002
      6.17283955e-003</_>
    <_>
      1.64473685e-003 3.28947371e-003 1.99013159e-001 3.28947371e-003 0.
      6.57894742e-003 9.86842066e-003 3.28947371e-003 9.86842066e-003
      1.31578948e-002 6.57894742e-003 7.56578967e-002 4.93421033e-003
      6.57894742e-003 0. 1.64473685e-003 0. 3.28947371e-003
      4.93421033e-003 2.79605258e-002 1.64473690e-002 4.93421033e-003
      1.97368413e-002 1.64473685e-003 0. 3.28947371e-003 1.31578948e-002
      1.64473685e-003 1.64473685e-003 1.48026319e-002 3.28947371e-003
      1.15131577e-002 0. 0. 0. 8.22368450e-003 0. 4.93421033e-003
      1.48026319e-002 8.22368450e-003 2.13815793e-002 3.28947371e-003
      1.64473685e-003 8.22368450e-003 8.22368450e-003 6.57894742e-003
      9.86842066e-003 0. 8.22368450e-003 1.15131577e-002 2.13815793e-002
      8.22368450e-003 1.64473690e-002 4.93421033e-003 1.64473685e-003
      4.93421033e-003 0. 3.28947371e-003 0. 4.93421033e-003
      3.28947371e-003 1.64473690e-002 1.64473685e-003 0. 9.86842066e-003
      1.31578948e-002 3.28947371e-003 0. 3.28947371e-003 3.28947371e-003
      1.64473685e-003 0. 1.64473685e-003 4.93421033e-003 6.57894742e-003
      3.12500000e-002 4.93421033e-003 1.64473685e-003 1.64473685e-003
      2.63157897e-002 4.93421033e-003 1.64473685e-003 0. 2.79605258e-002
      3.28947371e-003 6.57894742e-003 1.64473685e-003 1.15131577e-002
      1.64473685e-003 1.64473685e-003 1.64473690e-002 0. 3.28947371e-003
      1.64473685e-003 8.22368450e-003 9.37500000e-002 4.93421033e-003
      1.64473685e-003 9.86842066e-003 9.86842066e-003</_>
    <_>
      2.20750552e-003 4.41501103e-002 9.93377492e-002 2.20750552e-003 0.
      0. 0. 0. 0. 1.98675506e-002 2.64900662e-002 0. 2.20750552e-003
      1.32450331e-002 0. 4.41501103e-003 0. 1.10375276e-002
      4.41501103e-003 3.31125818e-002 4.85651195e-002 0. 2.64900662e-002
      0. 0. 8.83002207e-003 8.83002207e-003 0. 2.20750552e-003
      1.10375276e-002 4.41501103e-003 0. 2.20750552e-003 0. 0.
      2.20750552e-003 0. 4.41501103e-003 8.83002207e-003 8.83002207e-003
      1.10375276e-002 2.64900662e-002 4.41501103e-003 2.20750552e-003
      2.20750552e-003 2.20750552e-003 6.62251655e-003 2.20750552e-003
      1.32450331e-002 4.85651195e-002 8.83002207e-003 6.62251655e-003
      1.76600441e-002 1.76600441e-002 0. 0. 0. 2.20750552e-003
      2.20750552e-003 0. 0. 2.20750552e-003 2.20750552e-003 0.
      8.83002207e-003 8.83002207e-003 4.41501103e-003 0. 2.20750552e-003
      2.20750552e-003 0. 0. 2.20750552e-003 4.41501103e-003
      1.76600441e-002 1.10375278e-001 4.41501103e-003 4.41501103e-003 0.
      2.20750552e-003 1.32450331e-002 2.20750552e-003 0. 1.54525386e-002
      1.54525386e-002 1.98675506e-002 6.62251655e-003 6.62251655e-003
      2.20750552e-003 0. 1.32450331e-002 0. 2.20750552e-003 0.
      2.20750552e-003 1.14790291e-001 1.98675506e-002 0. 8.83002207e-003
      6.62251655e-003</_>
    <_>
      2.73224036e-003 4.91803251e-002 4.64480855e-002 0. 0. 0. 0.
      2.73224036e-003 2.73224036e-003 2.18579229e-002 0. 3.82513665e-002
      0. 8.19672085e-003 0. 2.73224036e-003 2.73224036e-003
      1.09289614e-002 0. 2.18579229e-002 7.10382462e-002 8.19672085e-003
      5.73770478e-002 1.91256832e-002 5.46448072e-003 2.73224036e-003
      2.73224036e-003 0. 2.73224036e-003 2.73224036e-003 0.
      5.46448072e-003 5.46448072e-003 0. 0. 2.73224036e-003 0.
      2.18579229e-002 0. 1.36612020e-002 8.19672085e-003 8.19672085e-003
      2.73224036e-003 8.19672085e-003 2.73224036e-003 2.73224036e-003
      2.73224036e-003 5.46448072e-003 0. 5.73770478e-002 1.36612020e-002
      2.73224036e-003 5.46448072e-003 1.09289614e-002 0. 2.73224036e-003
      0. 0. 2.73224036e-003 0. 0. 2.73224036e-003 0. 0. 2.45901626e-002
      2.73224036e-003 0. 0. 1.36612020e-002 5.46448072e-003
      2.73224036e-003 0. 2.73224036e-003 1.09289614e-002 1.09289614e-002
      1.09289616e-001 2.73224036e-003 0. 0. 0. 0. 0. 0. 2.73224036e-003
      0. 2.73224036e-003 1.09289614e-002 1.91256832e-002 0. 0.
      8.19672085e-003 0. 2.73224036e-003 0. 2.73224036e-003
      1.77595630e-001 0. 2.73224036e-003 1.36612020e-002 0.</_>
    <_>
      1.71821308e-003 5.15463948e-003 1.35738835e-001 8.59106518e-003
      6.87285233e-003 0. 1.03092790e-002 3.43642617e-003 5.15463948e-003
      1.71821304e-002 2.23367698e-002 6.18556701e-002 1.71821308e-003
      5.15463948e-003 5.15463948e-003 5.15463948e-003 3.43642617e-003 0.
      3.43642617e-003 3.78006883e-002 4.46735397e-002 1.03092790e-002
      2.40549836e-002 0. 5.15463948e-003 5.15463948e-003 3.43642617e-003
      1.71821308e-003 6.87285233e-003 1.89003441e-002 1.37457047e-002
      5.15463948e-003 0. 0. 0. 5.15463948e-003 0. 3.43642617e-003
      5.15463948e-003 1.03092790e-002 6.87285233e-003 6.87285233e-003
      1.71821308e-003 1.20274918e-002 6.87285233e-003 6.87285233e-003
      5.15463948e-003 1.71821308e-003 3.43642617e-003 2.23367698e-002
      3.60824764e-002 1.20274918e-002 1.20274918e-002 5.15463948e-003 0.
      1.54639175e-002 0. 1.71821308e-003 0. 0. 3.43642617e-003
      6.87285233e-003 1.71821308e-003 0. 1.03092790e-002 6.87285233e-003
      1.03092790e-002 0. 3.43642617e-003 1.03092790e-002 2.23367698e-002
      0. 5.15463948e-003 3.43642617e-003 1.89003441e-002 2.57731955e-002
      3.43642617e-003 1.71821308e-003 0. 3.43642617e-003 1.03092790e-002
      1.71821308e-003 3.43642617e-003 1.89003441e-002 5.15463948e-003
      3.09278350e-002 0. 5.15463948e-003 5.15463948e-003 0.
      1.71821308e-003 1.71821308e-003 3.43642617e-003 0. 1.20274918e-002
      8.07560161e-002 8.59106518e-003 1.71821308e-003 5.15463948e-003
      6.87285233e-003</_>
    <_>
      9.44881886e-003 3.46456692e-002 2.20472440e-002 1.57480314e-003
      3.14960629e-003 0. 1.57480314e-003 3.14960629e-003 4.72440943e-003
      3.30708660e-002 3.14960629e-002 2.04724409e-002 1.10236220e-002
      1.10236220e-002 0. 2.20472440e-002 3.14960629e-003 1.41732283e-002
      0. 4.40944880e-002 5.35433069e-002 0. 1.10236220e-002
      1.57480314e-003 1.57480314e-003 1.57480314e-003 1.10236220e-002
      4.72440943e-003 1.41732283e-002 2.51968503e-002 4.56692912e-002 0.
      0. 0. 1.57480314e-003 0. 0. 3.14960629e-003 7.87401572e-003
      1.41732283e-002 1.10236220e-002 1.73228346e-002 0. 1.25984251e-002
      3.14960629e-003 1.25984251e-002 2.20472440e-002 1.57480314e-003
      1.57480314e-002 4.25196849e-002 1.25984251e-002 7.87401572e-003
      7.87401572e-003 6.29921257e-003 1.57480314e-003 2.83464566e-002
      1.57480314e-003 0. 0. 1.57480314e-003 3.14960629e-003
      1.41732283e-002 4.72440943e-003 0. 7.87401572e-003 1.57480314e-002
      7.87401572e-003 0. 0. 3.14960629e-003 1.57480314e-003
      1.57480314e-003 1.57480314e-003 3.14960629e-003 6.29921257e-003
      3.14960629e-002 4.72440943e-003 4.72440943e-003 1.57480314e-003 0.
      2.04724409e-002 1.10236220e-002 0. 2.36220472e-002 2.04724409e-002
      2.67716534e-002 0. 1.41732283e-002 7.87401572e-003 0. 0. 0.
      4.72440943e-003 1.57480314e-003 4.72440943e-003 4.72440943e-002
      1.57480314e-002 1.57480314e-003 6.29921257e-003 6.29921257e-003</_>
    <_>
      4.51467279e-003 4.74040657e-002 4.51467279e-003 4.51467279e-003 0.
      0. 0. 0. 2.25733640e-003 4.28893901e-002 2.03160271e-002
      9.02934559e-003 4.51467279e-003 4.51467279e-003 2.25733640e-003
      4.74040657e-002 2.25733640e-003 1.80586912e-002 0. 5.19187376e-002
      1.19638830e-001 4.51467279e-003 1.03837475e-001 9.02934559e-003
      2.25733640e-003 2.25733640e-003 4.51467279e-003 0. 0.
      1.12866815e-002 1.12866815e-002 0. 2.25733640e-003 0. 0. 0. 0.
      9.02934559e-003 1.12866815e-002 1.12866815e-002 2.25733640e-003
      2.03160271e-002 0. 9.02934559e-003 2.25733640e-003 0.
      6.77200919e-003 2.25733640e-003 2.25733640e-003 3.38600464e-002
      9.02934559e-003 2.70880368e-002 0. 9.02934559e-003 0.
      4.51467279e-003 0. 0. 0. 0. 0. 1.35440184e-002 2.25733640e-003 0.
      9.02934559e-003 4.51467279e-003 9.02934559e-003 0. 6.77200919e-003
      6.77200919e-003 0. 0. 2.25733640e-003 2.25733640e-003 0.
      6.54627532e-002 4.51467279e-003 0. 0. 2.25733640e-003
      1.12866815e-002 0. 2.25733640e-003 1.35440184e-002 1.12866815e-002
      2.93453727e-002 4.51467279e-003 1.80586912e-002 6.77200919e-003
      2.25733640e-003 0. 0. 9.02934559e-003 0. 0. 3.83747183e-002
      1.80586912e-002 0. 4.51467279e-003 4.51467279e-003</_>
    <_>
      5.95238106e-003 2.82738097e-002 3.27380970e-002 5.95238106e-003
      1.48809527e-003 0. 1.33928573e-002 7.44047621e-003 5.95238106e-003
      1.93452388e-002 2.52976194e-002 1.48809524e-002 2.97619053e-003
      1.33928573e-002 0. 8.92857183e-003 1.48809527e-003 1.48809527e-003
      0. 1.33928573e-002 4.91071455e-002 0. 2.97619049e-002
      5.95238106e-003 1.48809527e-003 4.46428591e-003 2.23214291e-002
      2.97619053e-003 1.19047621e-002 1.04166670e-002 1.33928573e-002
      2.97619053e-003 0. 0. 0. 0. 0. 5.95238106e-003 2.23214291e-002
      1.19047621e-002 1.19047621e-002 1.78571437e-002 0. 1.48809524e-002
      4.46428591e-003 5.95238106e-003 5.95238106e-003 2.97619053e-003
      4.46428591e-003 2.82738097e-002 4.16666679e-002 2.97619053e-003
      1.48809524e-002 5.95238106e-003 4.46428591e-003 1.48809524e-002 0.
      0. 4.46428591e-003 1.19047621e-002 5.95238106e-003 7.44047621e-003
      1.33928573e-002 0. 1.33928573e-002 4.46428591e-003 1.63690485e-002
      0. 1.78571437e-002 5.95238106e-003 1.48809524e-002 0. 0.
      2.97619053e-003 1.48809524e-002 2.23214291e-002 4.46428591e-003
      2.97619053e-003 4.46428591e-003 0. 1.33928573e-002 8.92857183e-003
      5.95238106e-003 2.52976194e-002 1.48809524e-002 4.01785709e-002
      4.46428591e-003 1.63690485e-002 0. 4.46428591e-003 0.
      4.46428591e-003 2.97619053e-003 0. 5.95238106e-003 5.35714291e-002
      2.38095243e-002 4.46428591e-003 1.78571437e-002 5.95238106e-003</_>
    <_>
      0. 2.66159698e-002 4.56273779e-002 0. 0. 0. 0. 0. 0.
      6.46387860e-002 1.90114062e-002 1.52091254e-002 0. 1.14068445e-002
      0. 1.14068445e-002 0. 1.90114062e-002 3.80228134e-003
      1.10266156e-001 7.60456249e-002 0. 1.74904943e-001 3.80228134e-003
      0. 2.28136890e-002 3.80228134e-003 0. 0. 3.80228134e-003
      3.80228134e-003 0. 7.60456268e-003 0. 0. 0. 0. 3.80228134e-003 0.
      3.80228134e-003 0. 0. 3.80228134e-003 0. 0. 0. 0. 0. 0.
      6.08365014e-002 0. 3.80228134e-003 3.80228134e-003 3.80228134e-003
      0. 0. 0. 0. 0. 0. 0. 3.80228134e-003 0. 0. 0. 0. 0. 0.
      1.14068445e-002 7.60456268e-003 0. 0. 0. 0. 3.80228134e-003
      7.22433478e-002 0. 3.80228134e-003 0. 0. 7.60456268e-003 0.
      1.14068445e-002 1.14068445e-002 0. 0. 1.14068445e-002 0. 0.
      7.60456268e-003 0. 0. 0. 0. 3.80228134e-003 1.36882126e-001 0. 0.
      0. 0.</_>
    <_>
      2.86532962e-003 4.87106033e-002 1.43266479e-002 0. 2.86532962e-003
      0. 0. 0. 2.86532962e-003 4.87106033e-002 2.86532962e-003
      5.73065924e-003 2.86532962e-003 5.73065924e-003 0. 5.15759327e-002
      5.73065924e-003 1.14613185e-002 0. 1.14613183e-001 1.20343842e-001
      1.43266479e-002 1.40401155e-001 8.59598909e-003 2.86532962e-003
      2.86532962e-003 0. 0. 5.73065924e-003 8.59598909e-003
      1.14613185e-002 0. 2.86532962e-003 0. 0. 0. 0. 0. 2.86532962e-003
      0. 8.59598909e-003 1.14613185e-002 0. 5.73065924e-003
      2.86532962e-003 2.86532962e-003 0. 0. 1.14613185e-002
      4.58452739e-002 8.59598909e-003 2.00573076e-002 0. 2.86532962e-003
      0. 1.71919782e-002 0. 0. 0. 0. 2.86532962e-003 2.86532962e-003 0.
      0. 8.59598909e-003 2.86532962e-003 5.73065924e-003 0.
      1.14613185e-002 2.29226369e-002 0. 0. 2.86532962e-003
      2.86532962e-003 8.59598909e-003 2.57879663e-002 0. 5.73065924e-003
      0. 1.14613185e-002 0. 2.00573076e-002 2.86532962e-003
      1.14613185e-002 0. 2.86532962e-003 0. 5.73065924e-003
      5.73065924e-003 0. 0. 0. 5.73065924e-003 0. 2.86532962e-003
      4.29799445e-002 5.73065924e-003 0. 0. 0.</_>
    <_>
      0. 4.08163248e-003 1.71428561e-001 0. 0. 0. 2.85714269e-002 0.
      4.08163248e-003 3.67346928e-002 4.08163248e-003 1.38775498e-001 0.
      0. 0. 8.16326495e-003 0. 2.85714269e-002 0. 4.08163257e-002
      4.89795879e-002 0. 1.22448973e-001 4.08163248e-003 0.
      4.08163248e-003 8.16326495e-003 0. 0. 0. 0. 0. 0. 0. 0. 0. 0. 0.
      0. 0. 0. 0. 0. 0. 0. 0. 0. 0. 4.08163248e-003 2.04081628e-002
      1.63265299e-002 8.16326495e-003 4.08163248e-003 4.08163248e-003 0.
      0. 0. 0. 8.16326495e-003 0. 0. 0. 0. 0. 0. 0. 4.08163248e-003 0.
      8.16326495e-003 0. 0. 0. 0. 0. 2.04081628e-002 7.75510147e-002 0.
      0. 1.63265299e-002 1.22448970e-002 0. 0. 0. 0. 0. 0.
      2.44897939e-002 8.16326495e-003 0. 0. 0. 0. 0. 0. 0.
      1.10204078e-001 0. 0. 0. 0.</_>
    <_>
      0. 5.01138978e-002 5.46697080e-002 6.83371350e-003 0. 0. 0. 0. 0.
      1.82232354e-002 2.05011405e-002 1.13895219e-002 4.55580885e-003
      2.27790442e-003 0. 2.05011405e-002 4.55580885e-003 1.82232354e-002
      2.27790442e-003 4.32801843e-002 4.10022810e-002 2.27790442e-003
      5.46697080e-002 1.13895219e-002 2.27790442e-003 6.83371350e-003
      2.27790442e-003 2.27790442e-003 0. 0. 1.13895219e-002
      2.27790442e-003 6.83371350e-003 0. 0. 2.27790442e-003 0.
      2.27790442e-003 6.83371350e-003 6.83371350e-003 9.11161769e-003
      6.83371350e-003 0. 4.55580885e-003 2.27790442e-003 0.
      2.27790442e-003 1.13895219e-002 2.27790442e-003 4.55580875e-002
      5.01138978e-002 2.27790442e-003 9.11161769e-003 1.13895219e-002 0.
      9.11161769e-003 2.27790442e-003 0. 2.27790442e-003 4.55580885e-003
      1.13895219e-002 4.55580885e-003 4.55580885e-003 0. 9.11161769e-003
      2.27790442e-003 4.55580885e-003 0. 2.27790438e-002 0.
      4.55580885e-003 0. 0. 6.83371350e-003 5.23918010e-002
      7.28929415e-002 2.27790442e-003 0. 0. 9.11161769e-003
      4.55580885e-003 9.11161769e-003 2.27790442e-003 1.13895219e-002
      9.11161769e-003 9.11161769e-003 9.11161769e-003 2.27790442e-003
      4.55580885e-003 0. 0. 0. 0. 0. 0. 1.18451029e-001 0.
      4.55580885e-003 9.11161769e-003 4.55580885e-003</_>
    <_>
      2.48138956e-003 1.48883369e-002 1.43920600e-001 2.48138956e-003
      1.24069480e-002 0. 7.44416844e-003 4.96277912e-003 2.48138956e-003
      1.73697267e-002 2.48138956e-003 5.21091819e-002 2.48138956e-003 0.
      4.96277912e-003 0. 2.48138956e-003 2.48138956e-003 4.96277912e-003
      1.48883369e-002 5.21091819e-002 0. 9.92555823e-003 4.96277912e-003
      0. 1.48883369e-002 2.48138956e-003 0. 4.96277912e-003
      2.48138956e-003 1.48883369e-002 0. 0. 0. 2.48138956e-003 0. 0. 0.
      2.48138956e-003 0. 7.44416844e-003 2.48138956e-003 2.48138956e-003
      7.44416844e-003 2.48138956e-003 1.98511165e-002 0. 0.
      4.96277912e-003 2.48138960e-002 7.44416844e-003 0. 4.71464023e-002
      0. 7.44416844e-003 3.22580636e-002 0. 0. 0. 0. 0. 4.96277912e-003
      0. 0. 2.48138956e-003 2.97766738e-002 2.48138956e-003 0.
      2.48138956e-003 4.96277912e-003 1.24069480e-002 0. 0.
      4.96277912e-003 1.33995041e-001 2.97766738e-002 0. 9.92555823e-003
      2.48138956e-003 2.23325063e-002 2.48138956e-003 2.48138956e-003
      2.48138956e-003 1.24069480e-002 0. 2.48138956e-003 2.48138956e-003
      2.48138956e-003 4.96277912e-003 4.96277912e-003 2.48138956e-003 0.
      0. 2.48138956e-003 7.44416844e-003 7.69230798e-002 0.
      3.47394533e-002 0. 2.48138956e-003</_>
    <_>
      0. 3.70370373e-002 9.42760929e-002 0. 3.36700329e-003
      3.36700329e-003 6.73400657e-003 0. 3.36700329e-003 4.37710434e-002
      0. 5.38720526e-002 0. 0. 0. 6.73400657e-003 3.36700329e-003
      1.68350171e-002 0. 5.38720526e-002 5.05050495e-002 3.36700329e-003
      1.14478111e-001 0. 3.36700329e-003 6.73400657e-003 0. 0.
      3.36700329e-003 3.36700329e-003 6.73400657e-003 0. 6.73400657e-003
      0. 0. 0. 0. 6.73400657e-003 1.34680131e-002 0. 0. 3.36700329e-003
      1.01010101e-002 0. 6.73400657e-003 6.73400657e-003 3.36700329e-003
      0. 6.73400657e-003 4.37710434e-002 1.34680131e-002 1.34680131e-002
      1.34680131e-002 3.36700329e-003 6.73400657e-003 3.36700329e-003
      6.73400657e-003 0. 0. 0. 0. 3.36700329e-003 0. 0. 3.36700329e-003
      0. 3.36700329e-003 0. 3.36700329e-003 0. 0. 3.36700329e-003
      3.36700329e-003 0. 2.02020202e-002 1.17845118e-001 3.36700329e-003
      0. 6.73400657e-003 1.68350171e-002 1.01010101e-002 0. 0.
      3.36700329e-003 0. 6.73400657e-003 3.36700329e-003 0.
      1.01010101e-002 0. 0. 0. 0. 0. 0. 9.42760929e-002 0. 0. 0. 0.</_>
    <_>
      0. 3.82352956e-002 3.23529430e-002 0. 0. 0. 0. 0. 0.
      2.94117648e-002 0. 2.64705885e-002 0. 2.94117653e-003 0.
      1.47058824e-002 0. 1.47058824e-002 0. 6.76470622e-002
      8.52941200e-002 0. 7.64705911e-002 1.47058824e-002 0.
      5.88235306e-003 2.94117653e-003 0. 2.94117653e-003 1.17647061e-002
      2.94117653e-003 0. 1.17647061e-002 0. 0. 8.82352982e-003 0. 0.
      2.94117653e-003 5.88235306e-003 1.76470596e-002 8.82352982e-003 0.
      0. 2.94117653e-003 8.82352982e-003 0. 1.76470596e-002
      5.88235306e-003 7.35294148e-002 1.17647061e-002 5.88235306e-003 0.
      0. 0. 8.82352982e-003 0. 0. 0. 0. 2.94117653e-003 1.17647061e-002
      0. 0. 5.88235306e-003 5.88235306e-003 5.88235306e-003
      5.88235306e-003 2.64705885e-002 1.17647061e-002 0. 0. 0.
      2.94117653e-003 3.52941193e-002 7.05882385e-002 0. 5.88235306e-003
      0. 0. 5.88235306e-003 1.17647061e-002 0. 1.17647061e-002
      5.88235306e-003 2.35294122e-002 0. 8.82352982e-003 8.82352982e-003
      0. 2.94117653e-003 0. 2.94117653e-003 0. 2.94117653e-003
      9.11764726e-002 0. 0. 8.82352982e-003 2.94117653e-003</_>
    <_>
      1.38121552e-003 1.10497242e-002 8.42541456e-002 2.76243105e-003 0.
      1.24309398e-002 0. 1.38121552e-003 6.90607773e-003 2.20994484e-002
      1.65745858e-002 2.90055256e-002 0. 1.38121555e-002 1.38121552e-003
      1.51933711e-002 2.76243105e-003 5.52486209e-003 1.38121552e-003
      3.45303863e-002 4.83425446e-002 1.10497242e-002 2.07182337e-002
      1.38121552e-003 1.38121552e-003 1.24309398e-002 9.66850854e-003
      4.14364645e-003 5.52486209e-003 2.62430944e-002 2.76243109e-002
      8.28729291e-003 0. 0. 0. 4.14364645e-003 1.38121552e-003
      1.10497242e-002 2.76243105e-003 9.66850854e-003 2.34806631e-002
      9.66850854e-003 0. 9.66850854e-003 2.76243105e-003 1.24309398e-002
      8.28729291e-003 1.38121552e-003 2.07182337e-002 2.76243109e-002
      1.79558024e-002 6.90607773e-003 1.93370171e-002 6.90607773e-003
      4.14364645e-003 2.07182337e-002 1.38121552e-003 0. 0. 0.
      1.10497242e-002 4.14364645e-003 1.38121552e-003 0. 2.07182337e-002
      9.66850854e-003 1.10497242e-002 0. 5.52486209e-003 5.52486209e-003
      1.38121552e-003 0. 0. 1.24309398e-002 2.34806631e-002
      3.86740342e-002 0. 1.38121552e-003 0. 1.38121555e-002
      6.90607773e-003 5.52486209e-003 2.76243105e-003 1.51933711e-002
      9.66850854e-003 1.38121555e-002 0. 1.51933711e-002 4.14364645e-003
      0. 1.10497242e-002 0. 5.52486209e-003 4.14364645e-003
      5.52486209e-003 5.11049740e-002 1.51933711e-002 1.38121552e-003
      8.28729291e-003 2.76243105e-003</_>
    <_>
      6.79347850e-003 2.98913047e-002 1.03260875e-001 8.15217383e-003
      2.71739135e-003 5.43478271e-003 1.35869568e-003 4.07608692e-003
      1.49456523e-002 1.22282607e-002 1.63043477e-002 2.44565215e-002
      2.71739135e-003 8.15217383e-003 0. 5.43478271e-003 4.07608692e-003
      0. 2.71739135e-003 1.08695654e-002 4.75543477e-002 6.79347850e-003
      3.80434804e-002 1.35869568e-003 1.35869568e-003 9.51087009e-003
      8.15217383e-003 4.07608692e-003 2.03804355e-002 1.35869570e-002
      1.35869570e-002 2.71739135e-003 1.35869568e-003 0. 0. 0. 0.
      5.43478271e-003 5.43478271e-003 6.79347850e-003 1.76630430e-002
      9.51087009e-003 4.07608692e-003 2.71739140e-002 1.08695654e-002
      1.22282607e-002 8.15217383e-003 4.07608692e-003 5.43478271e-003
      2.17391308e-002 4.61956523e-002 4.07608692e-003 3.94021757e-002
      1.08695654e-002 1.35869568e-003 1.49456523e-002 1.35869568e-003
      5.43478271e-003 0. 4.07608692e-003 1.22282607e-002 9.51087009e-003
      1.35869568e-003 0. 1.08695654e-002 1.90217402e-002 4.07608692e-003
      1.35869568e-003 2.71739135e-003 0. 5.43478271e-003 0.
      2.71739135e-003 1.22282607e-002 1.35869570e-002 3.26086953e-002
      1.35869568e-003 6.79347850e-003 0. 2.71739135e-003 1.35869568e-003
      1.35869568e-003 0. 1.90217402e-002 1.35869568e-003 1.08695654e-002
      0. 5.43478271e-003 4.07608692e-003 0. 1.08695654e-002
      1.35869568e-003 2.71739135e-003 2.71739135e-003 8.15217383e-003
      7.74456561e-002 5.43478271e-003 2.71739135e-003 1.35869568e-003
      6.79347850e-003</_>
    <_>
      0. 4.01606411e-003 2.08835334e-001 0. 4.01606411e-003 0.
      2.40963846e-002 0. 1.20481923e-002 2.40963846e-002 2.00803205e-003
      3.81526090e-002 2.00803205e-003 2.00803205e-003 0. 4.01606411e-003
      0. 2.00803205e-003 0. 2.20883526e-002 2.61044167e-002
      1.60642564e-002 6.02409616e-002 6.02409616e-003 0. 6.02409616e-003
      2.00803205e-003 6.02409616e-003 0. 2.00803205e-003 6.02409616e-003
      2.00803205e-003 2.00803205e-003 0. 0. 0. 2.00803205e-003
      1.00401603e-002 0. 1.60642564e-002 6.02409616e-003 2.00803205e-003
      2.00803205e-003 4.01606411e-003 0. 1.00401603e-002 0. 0.
      6.02409616e-003 1.00401603e-002 6.22489937e-002 6.02409616e-003
      1.80722885e-002 2.00803205e-003 0. 1.00401603e-002 0.
      2.00803205e-003 0. 6.02409616e-003 2.00803205e-003 4.01606411e-003
      0. 0. 2.00803205e-003 2.20883526e-002 4.01606411e-003 0. 0.
      6.02409616e-003 8.03212821e-003 0. 0. 8.03212821e-003
      2.61044167e-002 2.81124488e-002 4.01606411e-003 1.40562244e-002 0.
      2.20883526e-002 6.02409616e-003 2.00803205e-003 4.01606411e-003
      2.00803205e-002 4.01606411e-003 1.00401603e-002 0. 1.40562244e-002
      6.02409616e-003 0. 6.02409616e-003 0. 0. 0. 0. 1.04417667e-001
      8.03212821e-003 4.01606411e-003 2.00803205e-003 0.</_>
    <_>
      2.58397940e-003 5.68475462e-002 1.08527131e-001 5.16795879e-003
      1.80878565e-002 2.58397940e-003 2.58397944e-002 5.16795879e-003
      7.75193796e-003 2.84237731e-002 0. 5.16795879e-003 5.16795879e-003
      7.75193796e-003 0. 7.75193796e-003 2.58397940e-003 5.16795879e-003
      0. 4.13436703e-002 3.87596898e-002 0. 1.73126623e-001 0.
      7.75193796e-003 7.75193796e-003 0. 5.16795879e-003 5.16795879e-003
      0. 7.75193796e-003 0. 0. 0. 1.55038759e-002 0. 0. 0.
      2.58397940e-003 0. 5.16795879e-003 0. 0. 5.16795879e-003 0. 0. 0.
      2.58397940e-003 2.06718352e-002 3.10077518e-002 3.10077518e-002
      1.29198972e-002 2.32558139e-002 5.16795879e-003 5.16795879e-003
      2.32558139e-002 0. 0. 0. 0. 2.58397940e-003 2.58397940e-003
      5.16795879e-003 0. 2.58397940e-003 7.75193796e-003 2.58397940e-003
      0. 7.75193796e-003 2.58397940e-003 1.29198972e-002 0.
      5.16795879e-003 5.16795879e-003 5.16795879e-003 2.84237731e-002
      7.75193796e-003 0. 0. 1.29198972e-002 0. 0. 0. 2.58397940e-003 0.
      2.58397940e-003 5.16795879e-003 0. 2.58397940e-003 0.
      2.58397940e-003 0. 5.16795879e-003 0. 0. 1.03359178e-001 0. 0. 0.
      0.</_>
    <_>
      0. 1.36054419e-002 1.36054426e-001 0. 3.40136047e-003 0.
      3.40136047e-003 3.40136047e-003 3.40136047e-003 1.02040814e-002 0.
      5.78231290e-002 0. 0. 0. 0. 0. 6.80272095e-003 0. 1.70068033e-002
      1.02040814e-002 6.80272095e-003 2.58503407e-001 6.80272095e-003
      3.40136047e-003 3.40136047e-003 0. 3.40136047e-003 0. 0.
      1.02040814e-002 0. 6.80272095e-003 0. 0. 0. 0. 0. 0. 0.
      3.40136047e-003 0. 0. 0. 3.40136047e-003 0. 0. 0. 3.40136047e-003
      2.04081628e-002 6.80272095e-003 0. 1.36054419e-002 0.
      3.40136047e-003 2.04081628e-002 0. 0. 0. 3.40136047e-003
      6.80272095e-003 0. 0. 0. 0. 6.80272095e-003 0. 0. 0. 0.
      1.02040814e-002 0. 3.40136047e-003 0. 2.04081628e-002
      6.46258518e-002 1.02040814e-002 0. 3.40136047e-003 3.40136047e-003
      3.40136047e-003 0. 6.80272095e-003 3.40136047e-003 0.
      3.40136047e-003 1.70068033e-002 0. 3.40136047e-003 0. 0. 0. 0. 0.
      0. 1.83673471e-001 0. 0. 3.40136047e-003 3.40136047e-003</_>
    <_>
      0. 4.09711674e-002 5.31107746e-002 6.06980268e-003 1.51745067e-003
      0. 0. 4.55235224e-003 3.03490134e-003 1.82094090e-002
      1.82094090e-002 1.21396054e-002 0. 1.97268594e-002 7.58725312e-003
      4.55235224e-003 7.58725312e-003 1.51745067e-003 0. 2.12443098e-002
      5.46282232e-002 0. 1.03186645e-001 1.51745067e-003 1.51745067e-003
      7.58725312e-003 6.06980268e-003 1.51745067e-003 6.06980268e-003
      2.57966612e-002 1.82094090e-002 6.06980268e-003 0. 0. 0.
      3.03490134e-003 0. 3.03490134e-003 4.55235224e-003 1.06221549e-002
      3.18664648e-002 1.82094090e-002 4.55235224e-003 1.66919567e-002 0.
      6.06980268e-003 4.55235224e-003 0. 9.10470448e-003 3.94537188e-002
      2.42792107e-002 0. 1.51745067e-003 9.10470448e-003 3.03490134e-003
      1.36570558e-002 0. 0. 0. 0. 3.03490134e-003 3.03490134e-003 0. 0.
      1.51745062e-002 4.55235224e-003 1.82094090e-002 0. 0.
      1.51745067e-003 0. 0. 0. 1.51745067e-003 9.10470448e-003
      4.85584214e-002 3.03490134e-003 1.51745067e-003 3.03490134e-003
      7.58725312e-003 1.51745062e-002 1.21396054e-002 3.03490134e-003
      6.06980268e-003 1.66919567e-002 0. 0. 7.58725312e-003 0. 0.
      1.51745067e-003 0. 3.03490134e-003 0. 7.58725312e-003
      1.22913502e-001 1.06221549e-002 0. 1.51745062e-002 3.03490134e-003</_>
    <_>
      0. 2.00573076e-002 1.57593131e-001 0. 2.86532962e-003 0. 0. 0.
      1.14613185e-002 4.87106033e-002 5.73065924e-003 1.17478512e-001
      2.86532962e-003 0. 0. 2.86532962e-003 0. 1.43266479e-002 0.
      1.43266479e-002 4.29799445e-002 2.86532962e-003 4.58452739e-002 0.
      0. 2.86532962e-003 0. 2.86532962e-003 0. 1.14613185e-002
      5.73065924e-003 1.43266479e-002 0. 0. 0. 0. 0. 8.59598909e-003 0.
      0. 8.59598909e-003 2.86532962e-003 0. 2.86532962e-003
      2.86532962e-003 0. 5.73065924e-003 5.73065924e-003 2.86532962e-003
      4.58452739e-002 8.59598909e-003 1.14613185e-002 1.71919782e-002
      5.73065924e-003 2.86532962e-003 8.59598909e-003 0. 0. 0. 0.
      2.86532962e-003 2.86532962e-003 0. 0. 0. 1.14613185e-002 0. 0. 0.
      0. 5.73065924e-003 0. 8.59598909e-003 5.73065924e-003
      3.43839563e-002 1.00286536e-001 5.73065924e-003 0. 2.86532962e-003
      1.14613185e-002 0. 2.86532962e-003 2.86532962e-003 1.14613185e-002
      0. 2.86532962e-003 0. 0. 8.59598909e-003 0. 0. 2.86532962e-003 0.
      0. 0. 1.00286536e-001 2.86532962e-003 2.86532962e-003 0.
      2.86532962e-003</_>
    <_>
      0. 1.75054707e-002 1.44420132e-001 2.18818383e-003 2.18818383e-003
      0. 0. 0. 1.09409187e-002 2.40700226e-002 8.75273533e-003
      5.03282286e-002 6.56455150e-003 8.75273533e-003 0. 6.56455150e-003
      0. 1.31291030e-002 0. 1.53172873e-002 4.59518619e-002
      8.75273533e-003 7.22100660e-002 8.75273533e-003 4.37636767e-003
      2.18818383e-003 2.18818383e-003 4.37636767e-003 0. 6.56455150e-003
      2.18818383e-003 2.18818383e-003 2.18818383e-003 0. 0. 0. 0.
      6.56455150e-003 0. 2.18818383e-003 1.09409187e-002 0. 0.
      4.37636767e-003 0. 4.37636767e-003 2.18818383e-003 0.
      2.18818383e-003 4.81400453e-002 1.75054707e-002 2.18818383e-003
      2.18818374e-002 2.18818383e-003 0. 4.37636767e-003 0. 0. 0.
      6.56455150e-003 2.18818383e-003 0. 0. 0. 2.18818383e-003
      6.56455150e-003 2.18818383e-003 0. 0. 2.18818383e-003 0. 0.
      4.37636767e-003 0. 3.28227580e-002 6.34573326e-002 6.56455150e-003
      0. 0. 4.37636767e-003 2.18818383e-003 0. 2.18818383e-003
      6.56455150e-003 4.37636767e-003 8.75273533e-003 0. 2.18818383e-003
      6.56455150e-003 0. 6.56455150e-003 0. 4.37636767e-003 0.
      4.37636767e-003 2.03501090e-001 4.37636767e-003 0. 8.75273533e-003
      0.</_>
    <_>
      0. 1.71568636e-002 2.05882356e-001 4.90196096e-003 0. 0.
      2.45098048e-003 2.45098048e-003 0. 2.45098043e-002 7.35294167e-003
      1.34803921e-001 4.90196096e-003 0. 0. 4.90196096e-003 0.
      4.90196096e-003 0. 2.69607846e-002 4.41176482e-002 1.47058833e-002
      3.18627469e-002 0. 2.45098048e-003 2.45098048e-003 0.
      2.45098048e-003 2.45098048e-003 2.45098048e-003 7.35294167e-003 0.
      0. 0. 0. 0. 0. 4.90196096e-003 2.45098048e-003 2.45098048e-003
      4.90196096e-003 7.35294167e-003 4.90196096e-003 4.90196096e-003
      4.90196096e-003 2.45098048e-003 0. 0. 7.35294167e-003
      2.94117667e-002 1.71568636e-002 4.90196096e-003 7.35294167e-003
      7.35294167e-003 0. 7.35294167e-003 0. 7.35294167e-003 0. 0. 0.
      7.35294167e-003 0. 0. 0. 1.22549022e-002 2.45098048e-003 0.
      4.90196096e-003 2.45098048e-003 0. 0. 7.35294167e-003
      1.47058833e-002 2.45098043e-002 5.63725494e-002 1.22549022e-002
      2.45098048e-003 0. 1.71568636e-002 1.22549022e-002 4.90196096e-003
      2.45098048e-003 2.45098043e-002 0. 4.90196096e-003 0.
      7.35294167e-003 9.80392192e-003 0. 4.90196096e-003 4.90196096e-003
      4.90196096e-003 0. 0. 6.37254938e-002 2.45098048e-003
      4.90196096e-003 2.45098048e-003 2.45098048e-003</_>
    <_>
      0. 1.66666675e-002 8.33333358e-002 2.38095247e-003 0.
      2.38095247e-003 1.90476198e-002 0. 2.61904765e-002 4.52380963e-002
      1.19047621e-002 1.90476198e-002 0. 2.38095247e-003 4.76190494e-003
      1.66666675e-002 0. 1.42857153e-002 0. 5.47619052e-002
      6.19047657e-002 2.38095243e-002 8.33333358e-002 2.38095247e-003
      7.14285765e-003 4.76190494e-003 4.76190494e-003 0. 0.
      7.14285765e-003 0. 9.52380989e-003 0. 0. 0. 2.38095247e-003 0. 0.
      0. 4.76190494e-003 7.14285765e-003 7.14285765e-003 0.
      1.19047621e-002 0. 0. 4.76190494e-003 2.38095247e-003
      2.38095247e-003 5.71428612e-002 9.52380989e-003 1.66666675e-002
      2.61904765e-002 4.76190494e-003 2.38095247e-003 7.14285765e-003 0.
      0. 0. 0. 4.76190494e-003 4.76190494e-003 0. 2.38095247e-003
      4.76190494e-003 1.19047621e-002 9.52380989e-003 0. 0.
      1.19047621e-002 1.19047621e-002 0. 0. 7.14285765e-003
      3.57142873e-002 4.28571440e-002 4.76190494e-003 2.38095247e-003
      1.19047621e-002 1.90476198e-002 4.76190494e-003 0. 0.
      1.19047621e-002 4.76190494e-003 7.14285765e-003 9.52380989e-003
      1.19047621e-002 0. 0. 4.76190494e-003 0. 0. 0. 9.52380989e-003
      5.00000007e-002 4.76190494e-003 0. 0. 4.76190494e-003</_>
    <_>
      0. 2.73972601e-002 3.88127826e-002 6.84931502e-003 2.28310493e-003
      2.28310493e-003 0. 2.28310493e-003 0. 2.73972601e-002
      1.36986300e-002 6.16438314e-002 4.56620986e-003 2.28310493e-003
      4.56620986e-003 6.84931502e-003 2.28310493e-003 1.14155244e-002 0.
      2.51141544e-002 7.30593577e-002 0. 1.07305929e-001 6.84931502e-003
      2.28310493e-003 1.14155244e-002 9.13241971e-003 9.13241971e-003
      2.28310493e-003 9.13241971e-003 9.13241971e-003 0. 0. 0. 0. 0. 0.
      2.28310493e-003 2.28310493e-003 4.56620986e-003 1.82648394e-002
      6.84931502e-003 0. 6.84931502e-003 2.28310493e-003 4.56620986e-003
      4.56620986e-003 2.28310493e-003 6.84931502e-003 3.19634676e-002
      3.88127826e-002 2.28310493e-003 4.56620986e-003 9.13241971e-003 0.
      0. 0. 0. 0. 9.13241971e-003 6.84931502e-003 4.56620986e-003 0. 0.
      4.56620986e-003 2.28310493e-003 4.56620986e-003 0. 0.
      6.84931502e-003 0. 0. 4.56620986e-003 2.28310493e-003
      1.59817338e-002 6.39269352e-002 4.56620986e-003 9.13241971e-003 0.
      1.14155244e-002 0. 4.56620986e-003 2.28310493e-003 1.59817338e-002
      2.28310493e-003 4.56620986e-003 2.28310493e-003 6.84931502e-003
      2.28310493e-003 0. 6.84931502e-003 0. 2.28310493e-003 0.
      4.56620986e-003 1.43835604e-001 9.13241971e-003 2.28310493e-003
      4.56620986e-003 6.84931502e-003</_>
    <_>
      0. 2.57731951e-003 1.64948449e-001 0. 0. 0. 5.15463902e-003 0.
      2.57731951e-003 3.35051529e-002 1.28865978e-002 1.21134020e-001
      2.57731951e-003 2.57731951e-003 7.73195829e-003 2.57731951e-003 0.
      1.28865978e-002 5.15463902e-003 1.54639166e-002 4.38144319e-002
      2.57731951e-003 3.09278332e-002 2.57731951e-003 2.57731951e-003 0.
      5.15463902e-003 7.73195829e-003 5.15463902e-003 1.28865978e-002 0.
      2.57731951e-003 0. 0. 0. 0. 0. 1.03092780e-002 2.57731951e-003
      2.57731951e-003 7.73195829e-003 2.57731951e-003 0. 1.03092780e-002
      5.15463902e-003 2.57731951e-003 0. 0. 0. 2.31958758e-002
      1.28865978e-002 1.54639166e-002 1.03092780e-002 0. 0.
      5.15463902e-003 0. 0. 0. 0. 2.57731951e-003 7.73195829e-003 0. 0.
      2.57731951e-003 7.73195829e-003 0. 0. 1.03092780e-002 0.
      1.28865978e-002 0. 5.15463902e-003 0. 4.63917516e-002
      5.92783503e-002 2.57731951e-003 2.57731951e-003 0. 1.28865978e-002
      7.73195829e-003 5.15463902e-003 0. 1.54639166e-002 0.
      1.54639166e-002 0. 5.15463902e-003 5.15463902e-003 0. 0. 0.
      2.57731951e-003 0. 2.57731951e-003 1.36597931e-001 0.
      2.57731951e-003 7.73195829e-003 2.57731951e-003</_>
    <_>
      0. 2.90178582e-002 5.13392873e-002 0. 4.46428591e-003 0.
      3.12500000e-002 0. 1.11607146e-002 3.57142873e-002 0.
      2.45535728e-002 6.69642910e-003 2.23214296e-003 0. 2.45535728e-002
      0. 6.69642910e-003 2.23214296e-003 4.68750037e-002 3.34821455e-002
      1.56250000e-002 1.36160716e-001 1.11607146e-002 1.11607146e-002
      2.23214296e-003 0. 0. 0. 2.23214296e-003 1.33928582e-002
      6.69642910e-003 2.23214296e-003 0. 2.23214296e-003 0.
      2.23214296e-003 0. 0. 2.23214296e-003 4.46428591e-003
      4.46428591e-003 0. 2.23214296e-003 0. 8.92857183e-003
      2.23214296e-003 2.23214296e-003 2.23214296e-003 3.57142873e-002
      8.92857183e-003 1.78571437e-002 6.69642910e-003 0. 0.
      8.92857183e-003 0. 0. 0. 4.46428591e-003 2.23214296e-003 0.
      2.23214296e-003 0. 1.11607146e-002 2.00892873e-002 2.23214296e-003
      0. 1.33928582e-002 8.92857183e-003 2.45535728e-002 0.
      2.23214296e-003 0. 3.79464291e-002 3.57142873e-002 2.23214296e-003
      6.69642910e-003 0. 2.23214291e-002 6.69642910e-003 4.46428591e-003
      2.23214296e-003 2.23214291e-002 0. 2.00892873e-002 0.
      6.69642910e-003 4.46428591e-003 0. 0. 4.46428591e-003
      4.46428591e-003 0. 2.23214296e-003 1.00446433e-001 0. 0. 0.
      2.23214296e-003</_>
    <_>
      0. 0. 1.00952379e-001 3.80952377e-003 3.80952377e-003
      1.90476188e-003 3.42857130e-002 0. 9.52380896e-003 1.14285713e-002
      7.61904754e-003 5.52380942e-002 1.14285713e-002 0. 3.80952377e-003
      1.90476179e-002 5.71428565e-003 5.71428565e-003 0. 4.19047624e-002
      6.66666627e-002 3.80952377e-003 2.09523812e-002 3.80952377e-003 0.
      3.80952377e-003 1.90476188e-003 0. 3.80952377e-003 5.71428565e-003
      1.33333337e-002 0. 1.90476188e-003 0. 0. 0. 3.80952377e-003
      5.71428565e-003 3.80952377e-003 1.14285713e-002 3.80952377e-003
      2.09523812e-002 1.90476188e-003 9.52380896e-003 1.90476188e-003
      5.71428565e-003 7.61904754e-003 5.71428565e-003 2.09523812e-002
      2.47619040e-002 1.90476179e-002 1.71428565e-002 1.71428565e-002
      5.71428565e-003 0. 1.90476179e-002 0. 0. 0. 1.90476188e-003
      1.90476188e-003 7.61904754e-003 1.90476188e-003 0. 1.33333337e-002
      1.52380951e-002 5.71428565e-003 3.80952377e-003 1.90476188e-003
      1.33333337e-002 3.23809534e-002 0. 0. 5.71428565e-003
      2.85714287e-002 4.57142852e-002 7.61904754e-003 5.71428565e-003
      1.90476188e-003 2.47619040e-002 3.80952377e-003 5.71428565e-003 0.
      9.52380896e-003 9.52380896e-003 1.14285713e-002 5.71428565e-003
      7.61904754e-003 1.90476188e-003 0. 1.90476188e-003 0. 0. 0.
      1.52380951e-002 3.61904763e-002 7.61904754e-003 1.90476188e-003
      7.61904754e-003 7.61904754e-003</_>
    <_>
      0. 3.24189551e-002 6.23441413e-002 0. 0. 0. 0. 0. 2.49376567e-003
      3.49127203e-002 1.49625940e-002 6.23441413e-002 2.49376567e-003
      2.49376567e-003 0. 9.97506268e-003 0. 1.49625940e-002 0.
      2.49376558e-002 4.23940159e-002 0. 1.77057356e-001 0.
      9.97506268e-003 2.49376567e-003 2.49376567e-003 4.98753134e-003 0.
      7.48129701e-003 1.49625940e-002 0. 0. 0. 0. 0. 0. 4.98753134e-003
      2.49376567e-003 2.49376567e-003 4.98753134e-003 9.97506268e-003 0.
      7.48129701e-003 0. 7.48129701e-003 2.49376567e-003 0. 0.
      4.73815463e-002 1.24688279e-002 1.49625940e-002 0. 2.49376567e-003
      0. 2.49376567e-003 0. 0. 0. 9.97506268e-003 0. 4.98753134e-003 0.
      0. 0. 2.49376567e-003 2.49376567e-003 0. 2.49376567e-003
      2.49376567e-003 0. 0. 0. 0. 4.98753134e-003 7.73067325e-002
      7.48129701e-003 0. 0. 0. 0. 0. 0. 4.98753134e-003 7.48129701e-003
      7.48129701e-003 2.49376567e-003 9.97506268e-003 2.49376567e-003 0.
      2.49376567e-003 0. 2.49376567e-003 0. 2.49376567e-003
      1.89526185e-001 2.49376567e-003 0. 2.49376567e-003 0.</_>
    <_>
      0. 1.16618080e-002 4.66472320e-002 0. 0. 0. 2.91545200e-003 0. 0.
      2.91545205e-002 1.45772602e-002 1.37026250e-001 0. 5.83090400e-003
      0. 8.74635577e-003 0. 8.74635577e-003 2.91545200e-003
      6.70553967e-002 9.62099135e-002 0. 9.03790146e-002 2.91545200e-003
      0. 0. 0. 0. 0. 8.74635577e-003 5.83090400e-003 0. 0. 0. 0. 0. 0.
      0. 0. 0. 0. 0. 0. 8.74635577e-003 5.83090400e-003 2.91545200e-003
      0. 5.83090400e-003 0. 6.41399473e-002 5.83090400e-003
      1.74927115e-002 0. 0. 8.74635577e-003 1.45772602e-002 0. 0.
      2.91545200e-003 0. 0. 2.91545200e-003 0. 0. 5.83090400e-003
      2.91545200e-003 2.91545200e-003 0. 0. 2.91545200e-003
      2.91545200e-003 0. 2.91545200e-003 0. 5.83090400e-003
      1.19533531e-001 0. 0. 0. 8.74635577e-003 8.74635577e-003
      2.91545200e-003 0. 1.74927115e-002 2.91545200e-003 2.91545200e-003
      0. 2.91545200e-003 1.45772602e-002 0. 0. 5.83090400e-003
      2.91545200e-003 2.91545200e-003 5.83090400e-003 8.45481083e-002 0.
      0. 8.74635577e-003 2.91545200e-003</_>
    <_>
      0. 3.16027105e-002 9.70654637e-002 4.51467279e-003 0. 0. 0. 0.
      2.25733640e-003 1.35440184e-002 9.02934559e-003 7.44921044e-002
      6.77200919e-003 0. 0. 4.51467279e-003 0. 9.02934559e-003 0.
      3.16027105e-002 4.51467261e-002 0. 7.44921044e-002 1.35440184e-002
      4.51467279e-003 6.77200919e-003 4.51467279e-003 1.12866815e-002
      2.25733640e-003 6.77200919e-003 0. 2.25733640e-003 6.77200919e-003
      0. 0. 0. 0. 0. 0. 1.12866815e-002 1.12866815e-002 4.51467279e-003
      2.25733640e-003 9.02934559e-003 4.51467279e-003 0. 4.51467279e-003
      1.12866815e-002 2.25733640e-003 6.99774250e-002 2.25733630e-002
      9.02934559e-003 1.80586912e-002 1.12866815e-002 0. 0. 0. 0.
      2.25733640e-003 2.25733640e-003 0. 4.51467279e-003 0. 0.
      6.77200919e-003 9.02934559e-003 4.51467279e-003 0. 1.12866815e-002
      6.77200919e-003 0. 0. 0. 4.51467279e-003 9.02934559e-003
      6.32054210e-002 1.12866815e-002 4.51467279e-003 2.25733640e-003
      4.51467279e-003 4.51467279e-003 0. 0. 1.35440184e-002 0.
      2.03160271e-002 0. 0. 4.51467279e-003 0. 4.51467279e-003 0.
      4.51467279e-003 0. 4.51467279e-003 1.30925506e-001 2.25733640e-003
      4.51467279e-003 4.51467279e-003 0.</_>
    <_>
      8.60215072e-003 1.93548389e-002 3.87096778e-002 4.30107536e-003 0.
      0. 0. 2.15053768e-003 0. 3.44086029e-002 8.60215072e-003
      8.38709697e-002 0. 2.36559138e-002 0. 2.58064531e-002
      2.15053768e-003 8.60215072e-003 0. 6.45161271e-002 5.59139811e-002
      2.15053768e-003 9.89247337e-002 0. 8.60215072e-003 4.30107536e-003
      8.60215072e-003 0. 2.15053768e-003 2.36559138e-002 1.07526882e-002
      0. 2.15053768e-003 0. 0. 0. 0. 6.45161327e-003 0. 1.29032265e-002
      6.45161327e-003 1.07526882e-002 0. 2.15053763e-002 0. 0.
      2.15053768e-003 6.45161327e-003 2.15053768e-003 3.22580636e-002
      6.45161327e-003 4.30107536e-003 2.15053768e-003 0. 0. 0. 0. 0. 0.
      2.15053768e-003 8.60215072e-003 6.45161327e-003 6.45161327e-003 0.
      8.60215072e-003 4.30107536e-003 6.45161327e-003 0. 6.45161327e-003
      4.30107536e-003 0. 0. 0. 0. 1.72043014e-002 4.73118275e-002
      2.15053768e-003 0. 2.15053768e-003 0. 6.45161327e-003
      2.15053768e-003 0. 1.29032265e-002 4.30107536e-003 6.45161327e-003
      0. 8.60215072e-003 2.15053768e-003 0. 2.15053768e-003 0. 0. 0.
      1.07526882e-002 1.39784947e-001 6.45161327e-003 0. 1.50537640e-002
      4.30107536e-003</_>
    <_>
      0. 9.34844166e-002 1.41643062e-001 0. 0. 2.83286115e-003
      5.66572230e-003 0. 2.83286115e-003 1.69971660e-002 2.83286115e-003
      3.11614722e-002 2.83286115e-003 5.66572230e-003 0. 2.83286115e-003
      0. 0. 0. 3.96600552e-002 1.13314446e-002 1.13314446e-002
      9.91501436e-002 1.41643062e-002 2.83286115e-003 8.49858299e-003 0.
      5.66572230e-003 0. 5.66572230e-003 0. 0. 0. 0. 0. 0. 0.
      2.83286115e-003 5.66572230e-003 2.83286115e-003 5.66572230e-003
      2.83286115e-003 0. 5.66572230e-003 0. 0. 2.83286115e-003
      1.13314446e-002 5.66572230e-003 4.53257784e-002 5.09915017e-002 0.
      3.11614722e-002 1.69971660e-002 2.83286115e-003 5.66572230e-003 0.
      2.83286115e-003 2.83286115e-003 0. 0. 0. 0. 0. 2.83286115e-003
      8.49858299e-003 5.66572230e-003 0. 1.13314446e-002 5.66572230e-003
      0. 0. 0. 0. 3.39943320e-002 3.68271954e-002 2.83286115e-003 0.
      5.66572230e-003 2.83286115e-003 2.83286115e-003 2.83286115e-003 0.
      8.49858299e-003 2.83286115e-003 8.49858299e-003 2.26628892e-002
      2.83286115e-003 5.66572230e-003 0. 0. 0. 8.49858299e-003 0. 0.
      1.01983003e-001 5.66572230e-003 0. 0. 0.</_>
    <_>
      5.63909765e-003 4.88721803e-002 9.39849671e-003 5.63909765e-003 0.
      0. 3.75939859e-003 1.12781953e-002 1.87969930e-003 6.20300770e-002
      1.69172939e-002 0. 3.75939859e-003 1.69172939e-002 1.87969930e-003
      4.13533859e-002 3.75939859e-003 1.69172939e-002 3.75939859e-003
      4.69924808e-002 4.69924808e-002 3.75939859e-003 3.00751887e-002 0.
      0. 3.75939859e-003 1.12781953e-002 0. 1.87969930e-003
      1.12781953e-002 9.39849671e-003 5.63909765e-003 1.87969930e-003 0.
      0. 0. 0. 1.50375944e-002 1.50375944e-002 2.81954892e-002
      5.63909765e-003 1.50375944e-002 1.87969930e-003 1.50375944e-002 0.
      7.51879718e-003 1.50375944e-002 5.63909765e-003 9.39849671e-003
      1.50375944e-002 1.31578948e-002 2.06766929e-002 3.75939859e-003
      1.87969930e-003 0. 0. 0. 0. 5.63909765e-003 0. 3.75939859e-003
      1.69172939e-002 3.75939859e-003 1.87969930e-003 1.87969934e-002
      1.12781953e-002 1.87969934e-002 0. 1.69172939e-002 9.39849671e-003
      1.87969930e-003 0. 0. 9.39849671e-003 1.31578948e-002
      4.13533859e-002 0. 3.75939859e-003 0. 1.87969930e-003
      1.50375944e-002 9.39849671e-003 1.87969930e-003 7.51879718e-003
      7.51879718e-003 3.94736864e-002 0. 2.06766929e-002 1.87969930e-003
      0. 3.75939859e-003 0. 5.63909765e-003 0. 9.39849671e-003
      4.88721803e-002 1.31578948e-002 3.75939859e-003 1.12781953e-002
      7.51879718e-003</_>
    <_>
      0. 4.55580875e-002 4.10022810e-002 4.55580885e-003 0. 0. 0.
      2.27790442e-003 9.11161769e-003 3.18906605e-002 9.11161769e-003
      4.55580885e-003 0. 1.13895219e-002 2.27790442e-003 3.18906605e-002
      2.27790442e-003 1.13895219e-002 0. 4.32801843e-002 4.32801843e-002
      6.83371350e-003 5.01138978e-002 4.55580885e-003 0. 2.27790442e-003
      1.59453303e-002 1.13895219e-002 2.27790442e-003 1.82232354e-002
      4.55580885e-003 2.27790442e-003 0. 0. 0. 0. 0. 1.13895219e-002
      9.11161769e-003 2.50569489e-002 9.11161769e-003 1.36674270e-002 0.
      1.82232354e-002 2.27790442e-003 9.11161769e-003 4.55580885e-003
      2.27790442e-003 1.82232354e-002 5.01138978e-002 4.32801843e-002
      4.55580885e-003 1.13895219e-002 2.27790442e-003 0. 4.55580885e-003
      0. 2.27790442e-003 0. 1.13895219e-002 0. 4.55580885e-003
      9.11161769e-003 0. 1.59453303e-002 9.11161769e-003 1.13895219e-002
      0. 1.59453303e-002 6.83371350e-003 0. 0. 0. 4.55580885e-003
      1.82232354e-002 6.37813210e-002 2.27790442e-003 0. 2.27790442e-003
      1.36674270e-002 4.55580885e-003 0. 0. 1.82232354e-002
      6.83371350e-003 6.83371350e-003 0. 4.55580885e-003 2.27790442e-003
      0. 9.11161769e-003 4.55580885e-003 2.27790442e-003 0.
      2.27790442e-003 6.83371350e-002 4.55580885e-003 0. 2.05011405e-002
      2.27790442e-003</_>
    <_>
      0. 8.84955749e-003 1.15044251e-001 4.42477874e-003 1.32743362e-002
      0. 2.65486725e-002 0. 4.42477874e-003 2.21238937e-002 0.
      6.19469024e-002 0. 4.42477874e-003 0. 4.42477874e-003 0.
      1.76991150e-002 0. 3.53982300e-002 1.76991150e-002 0.
      2.74336278e-001 4.42477874e-003 0. 4.42477874e-003 0.
      4.42477874e-003 0. 0. 4.42477874e-003 0. 0. 0. 4.42477874e-003 0.
      0. 0. 0. 0. 4.42477874e-003 4.42477874e-003 0. 0. 4.42477874e-003
      0. 0. 4.42477874e-003 0. 2.65486725e-002 0. 4.42477874e-003
      4.42477874e-003 0. 0. 8.84955749e-003 0. 0. 0. 0. 4.42477874e-003
      0. 4.42477874e-003 0. 4.42477874e-003 1.32743362e-002
      4.42477874e-003 0. 0. 0. 2.21238937e-002 0. 0. 0. 4.42477874e-002
      9.73451287e-002 0. 0. 4.42477874e-003 4.42477874e-003 0. 0. 0.
      1.76991150e-002 0. 4.42477874e-003 3.09734512e-002 0. 0. 0. 0. 0.
      0. 0. 0. 3.98230106e-002 4.42477874e-003 0. 0. 4.42477874e-003</_>
    <_>
      0. 2.20994484e-002 6.90607727e-002 5.52486209e-003 5.52486209e-003
      0. 1.38121555e-002 5.52486209e-003 2.76243109e-002 2.20994484e-002
      5.52486209e-003 3.31491716e-002 5.52486209e-003 2.76243105e-003
      2.76243105e-003 1.93370171e-002 2.76243105e-003 1.10497242e-002 0.
      1.18784532e-001 8.01104978e-002 1.65745858e-002 9.94475186e-002 0.
      0. 2.76243105e-003 2.76243105e-003 0. 0. 0. 8.28729291e-003
      5.52486209e-003 2.76243105e-003 0. 0. 0. 0. 0. 0. 2.76243105e-003
      8.28729291e-003 2.76243105e-003 2.76243105e-003 2.76243105e-003
