<?xml version="1.0"?>
<opencv_storage>
<my_svm type_id="opencv-ml-svm">
  <svm_type>C_SVC</svm_type>
  <kernel><type>RBF</type>
    <gamma>5.0625000000000009e-001</gamma></kernel>
  <C>3.1250000000000000e+002</C>
  <term_criteria><epsilon>1.1920928955078125e-007</epsilon>
    <iterations>1000</iterations></term_criteria>
  <var_all>256</var_all>
  <var_count>256</var_count>
  <class_count>32</class_count>
  <class_labels type_id="opencv-matrix">
    <rows>1</rows>
    <cols>32</cols>
    <dt>i</dt>
    <data>
      1 2 3 4 5 6 7 8 9 10 11 12 13 14 15 16 17 18 19 20 21 22 23 24 25
      26 27 28 29 30 31 32</data></class_labels>
  <sv_total>1234</sv_total>
  <support_vectors>
    <_>
      0. 1.44927539e-002 0. 5.79710156e-002 0. 2.89855078e-002 0. 0. 0.
      0. 0. 0. 0. 0. 1.44927539e-002 1.44927539e-002 0. 0. 0. 0. 0.
      2.89855078e-002 0. 0. 0. 0. 0. 0. 2.89855078e-002 0.
      4.34782617e-002 0. 0. 0. 2.89855078e-002 0. 0. 0. 0. 0. 0. 0. 0.
      0. 0. 0. 0. 0. 0. 0. 0. 0. 0. 0. 0. 0. 0. 0. 0. 0. 0. 0. 0. 0. 0.
      0. 0. 0. 0. 0. 0. 4.34782617e-002 0. 4.34782617e-002 0.
      1.44927539e-002 0. 5.79710156e-002 0. 0. 0. 0. 0. 0. 0. 0. 0. 0.
      0. 0. 0. 0. 0. 0. 0. 0. 0. 0. 0. 5.79710156e-002 0. 0. 0. 0. 0. 0.
      0. 0. 0. 0. 0. 0. 0. 0. 0. 0. 1.44927539e-002 0. 0. 0. 0.
      7.24637657e-002 2.89855078e-002 0. 0. 2.89855078e-002 0. 0. 0. 0.
      0. 0. 0. 0. 0. 1.44927539e-002 0. 0. 0. 0. 0. 0. 0. 0. 0. 0. 0. 0.
      0. 0. 0. 0. 0. 0. 0. 0. 4.34782617e-002 0. 0. 0. 0. 0. 0. 0. 0. 0.
      0. 0. 0. 0. 0. 0. 0. 0. 0. 5.79710156e-002 0. 0. 0. 0. 0. 0. 0. 0.
      0. 2.89855078e-002 0. 0. 0. 0. 0. 0. 0. 0. 0. 0. 0. 0. 0. 0. 0. 0.
      0. 0. 0. 0. 0. 0. 1.44927539e-002 0. 0. 0. 0. 1.44927539e-002
      1.15942031e-001 0. 0. 0. 0. 0. 0. 0. 1.44927539e-002 0. 0. 0. 0.
      1.44927539e-002 0. 0. 0. 0. 1.44927539e-002 0. 0. 0. 0. 0. 0. 0.
      0. 0. 0. 1.44927539e-002 0. 2.89855078e-002 0. 0. 0. 0. 0. 0. 0.
      0. 0. 0.</_>
    <_>
      0. 0. 0. 3.17460336e-002 0. 0. 0. 0. 0. 0. 0. 0. 0. 0.
      3.17460336e-002 1.58730168e-002 0. 0. 0. 0. 0. 3.17460336e-002 0.
      0. 0. 0. 0. 0. 6.34920672e-002 0. 3.17460336e-002 0. 0. 0.
      1.42857149e-001 0. 0. 0. 0. 0. 0. 0. 0. 0. 0. 0. 0. 0.
      3.17460336e-002 0. 0. 0. 0. 0. 0. 0. 0. 0. 0. 0. 0. 0. 0. 0. 0. 0.
      0. 0. 0. 0. 3.17460336e-002 1.58730168e-002 0. 1.58730168e-002 0.
      1.58730168e-002 0. 0. 3.17460336e-002 0. 0. 0. 0. 0. 0. 0. 0. 0.
      0. 0. 0. 0. 0. 0. 0. 0. 0. 0. 0. 7.93650821e-002 0. 0. 0. 0. 0. 0.
      0. 0. 0. 0. 0. 1.58730168e-002 0. 0. 0. 0. 0. 0. 0. 0. 0.
      4.76190522e-002 0. 0. 0. 0. 0. 0. 0. 0. 0. 1.58730168e-002 0. 0.
      0. 0. 0. 0. 0. 0. 0. 0. 0. 0. 0. 0. 0. 0. 0. 0. 0. 1.58730168e-002
      0. 0. 0. 0. 1.58730168e-002 0. 0. 0. 0. 0. 0. 0. 0. 0. 0. 0. 0.
      1.58730168e-002 0. 0. 0. 0. 0. 6.34920672e-002 0. 0. 0. 0. 0. 0.
      0. 0. 0. 1.58730168e-002 0. 0. 0. 0. 0. 0. 0. 0. 0. 0. 0. 0. 0. 0.
      0. 0. 0. 0. 0. 0. 0. 0. 0. 0. 0. 1.58730168e-002 0. 0.
      1.26984134e-001 0. 0. 0. 0. 0. 0. 0. 1.58730168e-002 0. 0. 0. 0.
      0. 0. 0. 0. 0. 0. 0. 0. 0. 0. 1.58730168e-002 0. 0. 0.
      1.58730168e-002 0. 0. 0. 3.17460336e-002 0. 0. 0. 0. 0. 0. 0. 0.
      0. 0.</_>
    <_>
      0. 0. 3.12500000e-002 6.25000000e-002 0. 1.56250000e-002 0. 0. 0.
      0. 0. 0. 0. 0. 1.56250000e-002 0. 0. 0. 0. 0. 0. 3.12500000e-002
      0. 0. 0. 0. 0. 0. 4.68750000e-002 3.12500000e-002 7.81250000e-002
      0. 0. 1.56250000e-002 1.56250000e-002 0. 0. 0. 0. 0. 0. 0. 0. 0.
      0. 0. 0. 0. 0. 0. 0. 0. 0. 0. 0. 0. 0. 0. 0. 0. 0. 0. 0.
      3.12500000e-002 0. 0. 0. 0. 0. 0. 1.56250000e-002 3.12500000e-002
      0. 1.56250000e-002 0. 6.25000000e-002 0. 7.81250000e-002 0. 0. 0.
      0. 0. 0. 0. 0. 0. 0. 0. 0. 0. 0. 0. 0. 0. 0. 0. 0. 0. 0. 0. 0. 0.
      0. 0. 0. 0. 0. 0. 0. 0. 0. 0. 0. 0. 0. 0. 0. 0. 0. 0.
      1.56250000e-002 0. 0. 0. 3.12500000e-002 0. 0. 0. 0. 0.
      1.56250000e-002 0. 0. 3.12500000e-002 0. 0. 0. 0. 0. 0. 0. 0. 0.
      0. 0. 0. 0. 0. 0. 0. 0. 0. 0. 0. 0. 0. 0. 0. 0. 0. 0. 0. 0. 0. 0.
      0. 0. 0. 0. 0. 0. 0. 0. 0. 1.56250000e-002 0. 0. 0. 0. 0.
      1.56250000e-002 0. 0. 0. 3.12500000e-002 0. 0. 0. 0. 0. 0. 0. 0.
      0. 0. 0. 0. 0. 0. 0. 0. 0. 0. 0. 0. 0. 0. 6.25000000e-002 0. 0.
      1.56250000e-002 0. 0. 9.37500000e-002 0. 0. 0. 0. 0. 0. 0.
      3.12500000e-002 0. 0. 1.56250000e-002 0. 0. 0. 0. 0. 0. 0. 0. 0.
      0. 0. 1.56250000e-002 0. 0. 0. 0. 0. 0. 0. 0. 0. 3.12500000e-002
      0. 0. 0. 0. 0. 0. 0. 0.</_>
    <_>
      0. 0. 5.47945201e-002 1.36986300e-002 0. 1.36986300e-002 0. 0. 0.
      0. 0. 0. 0. 0. 4.10958901e-002 4.10958901e-002 0. 0. 0. 0. 0.
      4.10958901e-002 0. 0. 0. 0. 0. 0. 2.73972601e-002 0.
      1.36986300e-002 0. 0. 0. 1.23287670e-001 0. 0. 0. 0. 0. 0. 0. 0.
      0. 0. 0. 0. 0. 1.36986300e-002 0. 0. 0. 0. 0. 0. 0. 0. 0. 0. 0. 0.
      0. 0. 0. 0. 0. 0. 0. 0. 0. 1.36986300e-002 1.36986300e-002 0. 0.
      0. 1.36986300e-002 0. 0. 1.36986300e-002 0. 0. 0. 0. 0. 0. 0.
      1.36986300e-002 0. 0. 0. 0. 0. 0. 0. 1.36986300e-002 0. 0. 0. 0.
      1.50684923e-001 0. 0. 0. 0. 0. 0. 0. 0. 0. 0. 0. 0. 0. 0. 0. 0. 0.
      0. 0. 0. 0. 2.73972601e-002 0. 0. 0. 1.36986300e-002 0. 0. 0. 0.
      0. 1.36986300e-002 0. 0. 0. 0. 0. 0. 0. 0. 0. 0. 0. 0. 0. 0. 0. 0.
      0. 0. 0. 0. 0. 0. 0. 0. 1.36986300e-002 0. 0. 0. 0. 0. 0. 0. 0. 0.
      0. 0. 0. 0. 0. 0. 0. 0. 0. 0. 0. 1.36986300e-002 0. 0. 0.
      5.47945201e-002 0. 0. 0. 0. 0. 0. 0. 0. 0. 0. 0. 0. 0. 0. 0. 0. 0.
      0. 0. 0. 0. 0. 0. 0. 0. 0. 1.36986300e-002 0. 0. 0. 0. 0.
      9.58904102e-002 0. 0. 0. 0. 0. 0. 0. 2.73972601e-002 0. 0. 0. 0.
      0. 0. 0. 0. 0. 4.10958901e-002 0. 0. 0. 0. 0. 0. 1.36986300e-002
      0. 0. 0. 1.36986300e-002 0. 4.10958901e-002 0. 0. 0. 0. 0. 0. 0.
      0. 0. 0.</_>
    <_>
      0. 1.51515156e-002 0. 7.57575780e-002 0. 1.51515156e-002 0. 0. 0.
      0. 0. 0. 0. 0. 0. 7.57575780e-002 0. 0. 0. 0. 0. 0. 0.
      1.51515156e-002 0. 0. 0. 0. 3.03030312e-002 0. 0. 0. 0. 0.
      3.03030312e-002 0. 0. 0. 0. 0. 0. 0. 0. 0. 0. 0. 0.
      1.51515156e-002 0. 0. 0. 0. 0. 0. 0. 0. 0. 0. 1.51515156e-002 0.
      0. 0. 0. 0. 3.03030312e-002 0. 0. 0. 0. 0. 3.03030312e-002
      1.21212125e-001 0. 4.54545468e-002 0. 0. 0. 3.03030312e-002 0. 0.
      0. 0. 0. 1.51515156e-002 0. 0. 0. 0. 0. 0. 0. 0. 0. 0.
      1.51515156e-002 0. 0. 0. 0. 7.57575780e-002 0. 0. 0. 0. 0. 0. 0.
      0. 0. 0. 0. 1.51515156e-002 0. 0. 0. 0. 0. 0. 0. 0. 0. 0. 0. 0. 0.
      1.51515156e-002 0. 1.51515156e-002 0. 0. 0. 1.51515156e-002 0. 0.
      1.51515156e-002 0. 0. 0. 0. 0. 0. 0. 0. 0. 0. 0. 0. 0. 0. 0. 0. 0.
      0. 0. 0. 0. 0. 0. 0. 0. 0. 0. 0. 0. 0. 0. 0. 0. 0. 0. 0. 0. 0. 0.
      0. 3.03030312e-002 0. 0. 0. 0. 0. 3.03030312e-002 0. 0. 0. 0. 0.
      0. 0. 0. 0. 0. 0. 0. 0. 0. 0. 0. 0. 0. 0. 0. 0. 0. 0.
      1.51515156e-002 0. 0. 1.51515156e-002 0. 0. 1.51515156e-002 0. 0.
      7.57575780e-002 0. 1.51515156e-002 0. 0. 0. 0. 0. 1.51515156e-002
      0. 0. 0. 0. 0. 0. 0. 0. 0. 0. 0. 0. 0. 0. 0. 0. 1.51515156e-002 0.
      0. 0. 0. 0. 4.54545468e-002 0. 0. 0. 0. 0. 0. 0. 0. 0. 0.</_>
    <_>
      0. 0. 4.87804860e-002 0. 0. 2.43902430e-002 0. 0. 0. 0. 0. 0. 0.
      0. 0. 9.75609720e-002 0. 0. 0. 0. 0. 4.87804860e-002 0. 0. 0. 0.
      0. 0. 4.87804860e-002 0. 0. 2.43902430e-002 0. 2.43902430e-002
      7.31707290e-002 0. 0. 0. 0. 0. 0. 0. 0. 0. 0. 0. 0. 0. 0. 0. 0. 0.
      0. 0. 0. 0. 0. 0. 0. 0. 0. 0. 0. 0. 0. 0. 0. 0. 0. 0.
      2.43902430e-002 2.43902430e-002 0. 4.87804860e-002 0.
      2.43902430e-002 0. 2.43902430e-002 0. 0. 0. 0. 0. 0. 0. 0. 0. 0.
      0. 0. 0. 0. 0. 0. 0. 0. 0. 0. 0. 0. 0. 0. 0. 0. 0. 0. 0. 0. 0. 0.
      0. 0. 0. 0. 0. 0. 0. 0. 0. 0. 0. 4.87804860e-002 0. 0. 0.
      2.43902430e-002 0. 0. 0. 0. 0. 2.43902430e-002 0. 0. 0. 0. 0. 0.
      0. 0. 0. 0. 0. 0. 0. 0. 0. 0. 0. 0. 0. 0. 0. 0. 0. 0.
      2.43902430e-002 2.43902430e-002 0. 0. 0. 0. 0. 0. 0. 0. 0. 0. 0.
      0. 0. 0. 0. 0. 0. 2.43902430e-002 0. 2.43902430e-002 0. 0. 0.
      2.43902430e-002 0. 0. 0. 4.87804860e-002 0. 0. 0. 0. 0. 0. 0. 0.
      0. 0. 0. 0. 0. 0. 0. 0. 0. 0. 0. 2.43902430e-002 0. 0.
      7.31707290e-002 0. 0. 0. 0. 0. 4.87804860e-002 0. 0. 0. 0. 0. 0.
      0. 2.43902430e-002 0. 0. 0. 0. 0. 0. 0. 0. 0. 0. 0. 0. 0. 0. 0. 0.
      0. 0. 0. 0. 0. 0. 2.43902430e-002 0. 0. 0. 0. 0. 0. 0. 0. 0. 0.</_>
    <_>
      0. 0. 3.07692308e-002 1.53846154e-002 0. 1.53846154e-002 0. 0. 0.
      0. 0. 0. 0. 0. 4.61538471e-002 0. 0. 0. 0. 0. 0. 1.53846154e-002
      0. 0. 0. 0. 0. 0. 1.53846154e-002 0. 9.23076943e-002 0. 0. 0.
      6.15384616e-002 0. 0. 0. 0. 0. 0. 0. 0. 0. 0. 0. 0. 0.
      1.53846154e-002 0. 0. 4.61538471e-002 0. 0. 0. 0. 0. 0. 0. 0. 0.
      0. 0. 0. 0. 0. 0. 0. 0. 0. 0. 1.53846154e-002 0. 6.15384616e-002
      0. 4.61538471e-002 0. 3.07692308e-002 6.15384616e-002 0. 0. 0. 0.
      0. 0. 0. 0. 0. 0. 0. 0. 0. 0. 0. 0. 0. 0. 0. 0. 4.61538471e-002 0.
      0. 0. 0. 0. 0. 0. 0. 0. 0. 0. 0. 0. 0. 0. 0. 0. 0. 0. 0. 0. 0. 0.
      0. 0. 1.53846154e-002 0. 3.07692308e-002 0. 0. 0. 1.53846154e-002
      0. 0. 0. 1.53846154e-002 0. 0. 1.53846154e-002 0. 0. 0. 0. 0. 0.
      0. 0. 0. 0. 0. 0. 0. 0. 0. 0. 0. 0. 0. 0. 0. 0. 0. 0. 0. 0. 0. 0.
      0. 0. 0. 0. 0. 0. 0. 0. 1.53846154e-002 0. 0. 0. 0. 0.
      3.07692308e-002 0. 0. 0. 1.53846154e-002 0. 0. 0. 0. 0. 0. 0. 0.
      0. 0. 0. 0. 0. 1.53846154e-002 0. 0. 0. 0. 0. 0. 0.
      1.53846154e-002 3.07692308e-002 0. 0. 3.07692308e-002 0. 0.
      3.07692308e-002 0. 0. 0. 0. 0. 0. 0. 1.53846154e-002 0. 0. 0. 0.
      0. 0. 0. 0. 0. 1.53846154e-002 0. 0. 0. 0. 0. 0. 1.53846154e-002
      0. 0. 0. 0. 0. 6.15384616e-002 0. 0. 0. 0. 0. 0. 0. 0. 0. 0.</_>
    <_>
      0. 1.20481923e-002 0. 4.81927693e-002 0. 0. 0. 0. 0. 0. 0. 0. 0.
      0. 2.40963846e-002 1.92771077e-001 1.20481923e-002 0. 0. 0. 0.
      2.40963846e-002 0. 1.20481923e-002 0. 0. 0. 0. 1.20481923e-002 0.
      2.40963846e-002 0. 0. 3.61445770e-002 1.08433731e-001 0. 0. 0. 0.
      0. 0. 0. 0. 0. 0. 0. 0. 0. 0. 0. 0. 0. 0. 0. 0. 0. 0. 0.
      1.20481923e-002 0. 0. 0. 0. 0. 1.20481923e-002 0. 0. 0. 0. 0.
      2.40963846e-002 3.61445770e-002 0. 0. 0. 1.20481923e-002 0. 0. 0.
      0. 0. 0. 0. 0. 0. 0. 0. 0. 0. 0. 0. 0. 0. 0. 3.61445770e-002 0. 0.
      0. 0. 8.43373463e-002 0. 0. 0. 0. 0. 0. 0. 0. 0. 0. 0. 0. 0. 0. 0.
      0. 0. 0. 0. 0. 0. 0. 2.40963846e-002 0. 0. 3.61445770e-002 0.
      1.20481923e-002 0. 0. 0. 1.20481923e-002 0. 0. 0. 0. 0. 0. 0. 0.
      0. 0. 0. 0. 0. 0. 0. 0. 0. 0. 0. 0. 0. 0. 0. 0. 0. 0. 0. 0. 0. 0.
      0. 0. 0. 0. 0. 0. 0. 0. 0. 0. 0. 0. 0. 0. 0. 0. 0. 0. 0.
      1.20481923e-002 0. 0. 0. 0. 0. 0. 0. 0. 0. 0. 0. 0. 0. 0. 0. 0. 0.
      0. 0. 0. 1.20481923e-002 0. 0. 2.40963846e-002 0. 0. 0. 0. 0. 0.
      0. 0. 8.43373463e-002 0. 0. 0. 0. 0. 0. 0. 1.20481923e-002 0. 0.
      0. 0. 0. 0. 0. 0. 0. 0. 0. 0. 0. 0. 0. 0. 1.20481923e-002 0. 0. 0.
      0. 0. 3.61445770e-002 0. 0. 0. 0. 0. 0. 0. 0. 0. 0.</_>
    <_>
      0. 3.27868834e-002 0. 1.63934417e-002 0. 0. 0. 0. 0. 0. 0. 0. 0.
      0. 3.27868834e-002 1.63934417e-002 0. 0. 0. 0. 0. 1.63934417e-002
      0. 1.63934417e-002 0. 0. 0. 0. 1.63934417e-002 0. 6.55737668e-002
      0. 0. 3.27868834e-002 4.91803251e-002 0. 0. 0. 0. 0. 0. 0. 0. 0.
      0. 0. 0. 0. 1.63934417e-002 0. 0. 3.27868834e-002 0. 0. 0. 0. 0.
      0. 0. 0. 0. 0. 0. 0. 0. 0. 0. 0. 0. 0. 0. 4.91803251e-002 0.
      1.63934417e-002 0. 1.63934417e-002 0. 0. 1.63934417e-002 0. 0. 0.
      0. 0. 0. 0. 0. 0. 0. 0. 0. 0. 0. 0. 4.91803251e-002 0. 0. 0. 0.
      1.31147534e-001 0. 0. 0. 0. 0. 0. 0. 0. 0. 0. 0. 0. 0. 0. 0. 0. 0.
      0. 0. 0. 0. 8.19672048e-002 1.63934417e-002 0. 0. 1.63934417e-002
      0. 0. 0. 0. 0. 3.27868834e-002 0. 0. 0. 0. 0. 0. 0. 0. 0. 0. 0. 0.
      0. 0. 0. 0. 0. 0. 0. 0. 0. 0. 0. 0. 3.27868834e-002 0. 0. 0. 0. 0.
      0. 0. 0. 0. 0. 0. 0. 0. 0. 0. 0. 0. 0. 0. 0. 0. 0. 0. 0. 0. 0. 0.
      0. 0. 0. 0. 0. 0. 0. 0. 0. 0. 0. 0. 0. 0. 0. 0. 0. 0. 0. 0. 0.
      1.63934417e-002 0. 0. 0. 0. 0. 0. 0. 0. 1.14754096e-001 0. 0. 0.
      0. 0. 0. 0. 1.63934417e-002 0. 0. 0. 0. 0. 0. 0. 0. 0. 0. 0. 0. 0.
      0. 0. 0. 0. 1.63934417e-002 0. 0. 0. 0. 3.27868834e-002 0. 0. 0.
      0. 0. 0. 0. 0. 0. 0.</_>
    <_>
      0. 3.12500000e-002 0. 4.68750000e-002 0. 0. 0. 0. 0. 0. 0. 0. 0.
      0. 3.12500000e-002 3.12500000e-002 1.56250000e-002 0. 0. 0. 0.
      1.56250000e-002 0. 1.56250000e-002 0. 0. 0. 0. 3.12500000e-002 0.
      7.81250000e-002 0. 0. 3.12500000e-002 0. 0. 0. 0. 0. 0. 0. 0. 0.
      0. 0. 0. 0. 1.56250000e-002 0. 0. 0. 0. 0. 0. 0. 0. 0. 0. 0. 0. 0.
      0. 0. 0. 0. 0. 0. 0. 0. 0. 4.68750000e-002 4.68750000e-002 0. 0.
      0. 0. 0. 1.56250000e-002 0. 0. 0. 0. 0. 0. 0. 0. 0. 0. 0. 0. 0. 0.
      0. 0. 0. 0. 0. 0. 0. 7.81250000e-002 0. 0. 0. 0. 0. 0. 0. 0. 0. 0.
      0. 0. 0. 0. 0. 0. 0. 0. 0. 3.12500000e-002 0. 6.25000000e-002 0.
      0. 0. 1.56250000e-002 0. 0. 0. 0. 0. 1.56250000e-002 0. 0. 0. 0.
      0. 0. 0. 0. 0. 0. 0. 0. 0. 0. 0. 0. 0. 0. 0. 0. 0. 0. 0. 0. 0. 0.
      0. 0. 0. 0. 0. 0. 0. 0. 0. 0. 0. 0. 0. 0. 0. 0. 0. 0. 0. 0. 0. 0.
      0. 4.68750000e-002 0. 0. 0. 0. 0. 0. 0. 0. 0. 0. 0. 0. 0. 0. 0. 0.
      0. 0. 0. 0. 1.56250000e-002 0. 0. 3.12500000e-002 0. 0.
      3.12500000e-002 1.56250000e-002 1.56250000e-002 0. 0. 0.
      9.37500000e-002 0. 0. 0. 0. 0. 0. 0. 0. 0. 0. 0. 1.56250000e-002
      0. 0. 0. 0. 0. 0. 0. 0. 0. 0. 0. 0. 4.68750000e-002 0. 0. 0. 0. 0.
      3.12500000e-002 0. 0. 0. 0. 0. 0. 0. 0. 0. 0.</_>
    <_>
      0. 5.97014911e-002 0. 2.98507456e-002 0. 0. 0. 0. 0. 0. 0. 0. 0.
      0. 0. 4.47761193e-002 0. 0. 0. 0. 0. 0. 0. 0. 0. 0. 0. 0. 0. 0.
      2.98507456e-002 0. 0. 0. 5.97014911e-002 0. 0. 0. 0. 0. 0. 0. 0.
      0. 0. 0. 0. 0. 1.49253728e-002 0. 0. 1.49253728e-002 0. 0. 0. 0.
      0. 0. 2.98507456e-002 0. 0. 0. 0. 0. 1.49253728e-002 0. 0. 0. 0.
      0. 1.49253728e-002 2.98507456e-002 0. 2.98507456e-002 0.
      1.49253728e-002 0. 1.49253728e-002 0. 0. 0. 0. 0. 0. 0. 0. 0. 0.
      0. 0. 0. 0. 0. 0. 1.49253728e-002 0. 0. 0. 0. 1.19402982e-001 0.
      0. 0. 0. 0. 0. 0. 0. 0. 0. 0. 0. 0. 0. 0. 0. 0. 0. 0. 0. 0.
      2.98507456e-002 0. 0. 0. 2.98507456e-002 0. 0. 0. 0. 0.
      7.46268630e-002 0. 0. 0. 0. 0. 0. 0. 0. 0. 0. 0. 0. 0. 0. 0. 0. 0.
      0. 0. 0. 0. 0. 0. 0. 0. 0. 0. 0. 0. 0. 0. 0. 0. 0. 0. 0. 0. 0. 0.
      0. 0. 0. 0. 1.49253728e-002 0. 0. 0. 0. 0. 1.49253728e-002 0. 0.
      0. 2.98507456e-002 0. 0. 0. 0. 0. 0. 0. 0. 0. 0. 0. 0. 0. 0. 0. 0.
      0. 0. 0. 0. 0. 0. 1.49253728e-002 0. 1.49253728e-002 0. 0. 0.
      1.19402982e-001 0. 0. 0. 0. 0. 0. 0. 1.49253728e-002 0. 0. 0. 0.
      0. 0. 0. 0. 0. 0. 0. 0. 0. 0. 2.98507456e-002 0. 1.49253728e-002
      0. 0. 0. 0. 0. 2.98507456e-002 0. 2.98507456e-002 0. 0. 0. 0. 0.
      0. 0. 0.</_>
    <_>
      0. 3.99999991e-002 0. 5.99999987e-002 0. 5.99999987e-002 0. 0. 0.
      0. 0. 0. 0. 0. 3.99999991e-002 1.99999996e-002 0. 0. 0. 0. 0. 0.
      0. 0. 0. 0. 0. 0. 5.99999987e-002 0. 3.99999991e-002 0. 0. 0.
      7.99999982e-002 0. 0. 0. 0. 0. 0. 0. 0. 0. 0. 0. 0. 0. 0. 0. 0. 0.
      0. 0. 0. 0. 0. 0. 1.99999996e-002 0. 0. 0. 0. 0. 0. 0. 0. 0. 0. 0.
      5.99999987e-002 0. 0. 0. 0. 1.99999996e-002 0. 0. 0. 0. 0. 0. 0.
      0. 0. 0. 0. 0. 0. 0. 0. 0. 0. 0. 0. 0. 0. 0. 0. 1.40000001e-001 0.
      0. 0. 0. 0. 0. 0. 0. 0. 0. 0. 0. 0. 0. 0. 0. 0. 0. 0. 0. 0. 0. 0.
      0. 0. 0. 0. 1.99999996e-002 0. 0. 0. 3.99999991e-002 0. 0. 0. 0.
      0. 0. 0. 0. 0. 0. 0. 1.99999996e-002 0. 0. 0. 0. 0. 0. 0. 0. 0. 0.
      0. 0. 0. 0. 0. 0. 0. 0. 0. 0. 0. 0. 0. 0. 0. 0. 0. 0. 0. 0. 0.
      1.99999996e-002 0. 0. 0. 0. 0. 7.99999982e-002 0. 0. 0. 0. 0. 0.
      0. 0. 0. 0. 0. 0. 0. 0. 0. 0. 0. 0. 0. 0. 0. 0. 0. 1.99999996e-002
      0. 0. 1.99999996e-002 0. 0. 0. 0. 0. 3.99999991e-002 0. 0. 0. 0.
      0. 0. 0. 3.99999991e-002 0. 0. 0. 0. 0. 0. 0. 0. 0. 0. 0. 0. 0. 0.
      1.99999996e-002 0. 0. 0. 0. 0. 0. 0. 1.99999996e-002 0. 0. 0. 0.
      0. 0. 0. 0. 0. 1.99999996e-002</_>
    <_>
      0. 3.40909101e-002 0. 2.27272734e-002 0. 2.27272734e-002 0. 0. 0.
      0. 0. 0. 0. 0. 1.13636367e-002 5.68181835e-002 0. 0. 0. 0. 0.
      2.27272734e-002 0. 2.27272734e-002 0. 0. 0. 0. 3.40909101e-002 0.
      1.13636367e-002 2.27272734e-002 0. 1.13636367e-002 1.02272734e-001
      0. 0. 0. 0. 0. 0. 0. 0. 0. 0. 0. 0. 0. 0. 0. 0. 0. 0. 0. 0. 0. 0.
      0. 0. 0. 0. 0. 0. 1.13636367e-002 0. 0. 0. 0. 0. 0.
      2.27272734e-002 1.13636367e-002 0. 1.13636367e-002 0.
      3.40909101e-002 0. 4.54545468e-002 1.13636367e-002 0. 0. 0. 0. 0.
      0. 0. 0. 0. 0. 0. 0. 0. 0. 0. 0. 0. 0. 0. 0. 3.40909101e-002 0. 0.
      0. 0. 0. 0. 0. 0. 0. 0. 0. 0. 0. 0. 0. 0. 0. 0. 0. 0. 0.
      2.27272734e-002 0. 0. 0. 5.68181835e-002 0. 1.13636367e-002 0. 0.
      0. 2.27272734e-002 0. 0. 0. 0. 0. 0. 0. 0. 0. 0. 0. 0. 0. 0. 0. 0.
      0. 0. 0. 0. 0. 0. 0. 0. 1.13636367e-002 0. 0. 0. 0. 0. 0. 0. 0. 0.
      0. 0. 0. 0. 0. 0. 0. 0. 0. 1.13636367e-002 0. 0. 0. 0. 0.
      1.13636367e-002 0. 0. 0. 0. 0. 0. 0. 0. 0. 0. 0. 0. 0. 0. 0. 0. 0.
      0. 0. 0. 0. 0. 0. 0. 0. 0. 3.40909101e-002 0. 0. 4.54545468e-002
      0. 0. 1.13636367e-001 0. 0. 0. 1.13636367e-002 0. 0. 0. 0. 0. 0.
      0. 0. 0. 0. 0. 0. 0. 0. 0. 0. 0. 0. 2.27272734e-002 0.
      2.27272734e-002 1.13636367e-002 0. 0. 0. 0. 2.27272734e-002 0. 0.
      1.13636367e-002 0. 0. 0. 0. 0. 0. 0.</_>
    <_>
      0. 0. 2.43902430e-002 4.87804860e-002 0. 2.43902430e-002 0. 0. 0.
      0. 0. 0. 0. 0. 2.43902430e-002 2.43902430e-002 0. 0. 0. 0. 0. 0.
      0. 0. 0. 0. 0. 0. 0. 0. 4.87804860e-002 0. 0. 0. 2.43902430e-002
      0. 0. 0. 0. 0. 0. 0. 0. 0. 0. 0. 0. 0. 2.43902430e-002 0. 0. 0. 0.
      0. 0. 0. 0. 0. 0. 0. 0. 0. 0. 0. 0. 0. 0. 0. 0. 0. 0.
      9.75609720e-002 0. 0. 0. 0. 0. 0. 0. 0. 0. 0. 0. 2.43902430e-002
      0. 0. 0. 0. 0. 0. 0. 0. 0. 0. 0. 0. 0. 0. 0. 9.75609720e-002 0. 0.
      0. 0. 0. 0. 0. 0. 0. 0. 0. 0. 0. 0. 0. 0. 0. 0. 0. 0. 0.
      4.87804860e-002 2.43902430e-002 0. 0. 0. 0. 0. 0. 0. 0.
      4.87804860e-002 0. 0. 0. 0. 0. 0. 0. 0. 0. 0. 0. 0. 0. 0. 0. 0. 0.
      0. 0. 0. 0. 0. 0. 0. 9.75609720e-002 0. 0. 0. 0. 0. 0. 0. 0. 0. 0.
      0. 0. 0. 0. 0. 0. 0. 0. 7.31707290e-002 0. 0. 0. 0. 0.
      7.31707290e-002 0. 0. 0. 0. 0. 0. 0. 0. 0. 0. 0. 0. 0. 0. 0. 0. 0.
      0. 0. 0. 0. 0. 0. 4.87804860e-002 0. 0. 2.43902430e-002 0.
      2.43902430e-002 2.43902430e-002 0. 0. 0. 0. 0. 0. 0. 0. 0. 0. 0.
      0. 0. 0. 0. 0. 0. 0. 0. 0. 0. 0. 0. 0. 0. 0. 0. 0. 2.43902430e-002
      0. 0. 0. 0. 2.43902430e-002 0. 0. 0. 0. 0. 0. 0. 0. 0. 0.</_>
    <_>
      0. 0. 0. 4.47761193e-002 0. 2.98507456e-002 0. 0. 0. 0. 0. 0. 0.
      0. 0. 7.46268630e-002 0. 0. 0. 0. 0. 2.98507456e-002 0.
      1.49253728e-002 0. 0. 0. 0. 2.98507456e-002 0. 1.49253728e-002 0.
      0. 0. 5.97014911e-002 0. 0. 0. 0. 0. 0. 0. 0. 0. 0. 0. 0.
      1.49253728e-002 1.49253728e-002 0. 0. 0. 0. 0. 0. 0. 0. 0.
      1.49253728e-002 0. 0. 0. 0. 0. 1.49253728e-002 0. 0. 0. 0. 0. 0.
      4.47761193e-002 0. 5.97014911e-002 0. 0. 0. 0. 1.49253728e-002 0.
      0. 0. 0. 1.49253728e-002 0. 0. 0. 0. 0. 0. 0. 0. 0. 0.
      2.98507456e-002 0. 0. 0. 0. 5.97014911e-002 0. 0. 0. 0. 0. 0. 0.
      0. 0. 0. 0. 1.49253728e-002 0. 0. 0. 0. 0. 0. 0. 0. 0.
      1.04477607e-001 0. 0. 0. 0. 0. 1.49253728e-002 0. 0. 0. 0. 0. 0.
      1.49253728e-002 0. 0. 0. 0. 0. 0. 0. 0. 0. 0. 0. 0. 0. 0. 0. 0. 0.
      0. 0. 0. 0. 2.98507456e-002 0. 0. 0. 0. 0. 0. 0. 0. 0. 0. 0. 0. 0.
      0. 0. 0. 0. 0. 1.49253728e-002 0. 0. 0. 0. 0. 1.49253728e-002 0.
      0. 0. 0. 0. 0. 0. 0. 0. 0. 0. 0. 0. 0. 0. 0. 0. 0. 0. 0. 0. 0. 0.
      2.98507456e-002 0. 0. 0. 0. 0. 2.98507456e-002 0. 0.
      1.04477607e-001 0. 0. 0. 0. 0. 0. 0. 1.49253728e-002 0. 0. 0. 0.
      0. 0. 0. 0. 0. 0. 0. 0. 0. 0. 0. 0. 2.98507456e-002 0. 0. 0. 0. 0.
      0. 0. 0. 0. 0. 0. 0. 0. 0. 0. 0.</_>
    <_>
      0. 1.92307699e-002 0. 1.92307699e-002 1.92307699e-002 0. 0. 0. 0.
      0. 0. 0. 0. 0. 5.76923117e-002 3.84615399e-002 0. 0. 0. 0. 0.
      7.69230798e-002 0. 0. 0. 0. 0. 0. 1.92307699e-002 0.
      1.92307699e-002 0. 0. 0. 3.84615399e-002 0. 0. 0. 0. 0. 0. 0. 0.
      0. 0. 0. 0. 0. 1.92307699e-002 0. 0. 0. 0. 0. 0. 0. 0. 0. 0. 0. 0.
      0. 0. 0. 0. 0. 0. 0. 0. 0. 0. 7.69230798e-002 0. 0. 0. 0. 0. 0.
      1.92307699e-002 0. 0. 0. 0. 0. 0. 0. 0. 0. 0. 0. 0. 0. 0. 0. 0. 0.
      0. 0. 0. 5.76923117e-002 0. 0. 0. 0. 0. 0. 0. 0. 0. 0. 0. 0. 0. 0.
      0. 0. 0. 0. 0. 0. 0. 1.92307699e-002 0. 0. 0. 0. 0. 0. 0. 0. 0. 0.
      0. 0. 0. 0. 0. 0. 0. 0. 0. 0. 0. 0. 0. 0. 0. 0. 0. 0. 0. 0. 0. 0.
      0. 0. 0. 0. 0. 0. 0. 0. 0. 0. 0. 0. 0. 0. 0. 0. 0. 0. 0. 0. 0.
      1.92307699e-002 0. 1.92307699e-002 0. 0. 0. 0. 0. 0. 0. 0. 0. 0.
      0. 0. 0. 0. 0. 0. 0. 0. 0. 0. 0. 0. 0. 0. 0. 0. 0. 0. 0. 0. 0.
      1.92307699e-002 0. 0. 0. 0. 2.30769247e-001 0. 0. 0. 0. 0. 0. 0.
      1.92307699e-002 0. 0. 0. 0. 0. 0. 0. 0. 0. 0. 0. 0. 0. 0.
      1.92307699e-002 0. 1.92307699e-002 0. 0. 0. 0. 0. 1.53846160e-001
      0. 0. 0. 0. 0. 0. 0. 0. 0. 0.</_>
    <_>
      0. 0. 3.44827585e-002 3.44827585e-002 0. 1.72413792e-002 0. 0. 0.
      0. 0. 0. 0. 0. 3.44827585e-002 1.20689653e-001 0. 0. 0. 0. 0. 0.
      0. 1.72413792e-002 0. 0. 0. 0. 0. 0. 1.72413792e-002 0. 0. 0. 0.
      0. 0. 0. 0. 0. 0. 0. 0. 0. 0. 0. 0. 0. 0. 0. 0. 0. 0. 0. 0. 0. 0.
      0. 1.72413792e-002 0. 0. 0. 0. 0. 0. 0. 0. 0. 0. 0.
      3.44827585e-002 3.44827585e-002 0. 0. 0. 1.72413792e-002 0.
      1.72413792e-002 3.44827585e-002 0. 0. 0. 0. 0. 0. 0. 0. 0. 0. 0.
      0. 0. 0. 0. 1.72413792e-002 0. 0. 0. 0. 3.44827585e-002 0. 0. 0.
      0. 0. 0. 0. 0. 0. 0. 0. 0. 0. 0. 0. 0. 0. 0. 0. 0. 0.
      1.03448272e-001 5.17241359e-002 0. 0. 5.17241359e-002 0. 0. 0. 0.
      0. 3.44827585e-002 0. 0. 0. 0. 0. 0. 0. 0. 0. 0. 0. 0. 0. 0. 0. 0.
      0. 0. 0. 1.72413792e-002 0. 0. 0. 0. 1.72413792e-002 0. 0. 0. 0.
      0. 0. 0. 0. 0. 0. 0. 0. 0. 0. 0. 0. 0. 0. 5.17241359e-002 0. 0. 0.
      0. 0. 0. 0. 0. 0. 1.72413792e-002 0. 0. 0. 0. 0. 0. 0. 0. 0. 0. 0.
      0. 0. 0. 0. 0. 0. 0. 0. 1.72413792e-002 0. 0. 0. 0. 0. 0. 0. 0.
      6.89655170e-002 0. 0. 0. 0. 0. 0. 0. 0. 0. 0. 0. 0. 0. 0. 0. 0. 0.
      1.72413792e-002 0. 0. 0. 0. 0. 0. 0. 1.72413792e-002 0. 0. 0. 0.
      1.72413792e-002 0. 0. 0. 0. 0. 0. 0. 0. 0. 3.44827585e-002</_>
    <_>
      0. 0. 1.53846154e-002 1.53846154e-002 0. 0. 0. 0. 0. 0. 0. 0. 0.
      0. 3.07692308e-002 3.07692308e-002 0. 0. 0. 0. 0. 0. 0. 0. 0. 0.
      0. 0. 0. 0. 0. 0. 0. 0. 7.69230798e-002 0. 0. 0. 0. 0. 0. 0. 0. 0.
      0. 0. 0. 0. 0. 0. 0. 1.53846154e-002 0. 0. 0. 0. 0. 0. 0. 0. 0. 0.
      0. 0. 0. 0. 0. 0. 0. 0. 3.07692308e-002 4.61538471e-002 0. 0. 0.
      3.07692308e-002 0. 3.07692308e-002 0. 0. 0. 0. 0. 0. 0. 0. 0. 0.
      0. 0. 0. 0. 0. 0. 0. 0. 0. 0. 0. 1.38461545e-001 0. 0. 0. 0. 0. 0.
      0. 0. 0. 0. 0. 1.53846154e-002 0. 0. 0. 0. 0. 0. 0. 0. 0.
      6.15384616e-002 0. 0. 0. 0. 0. 1.53846154e-002 0. 0. 0.
      1.53846154e-002 0. 0. 0. 0. 0. 0. 0. 0. 0. 0. 0. 0. 0. 0. 0. 0. 0.
      0. 0. 0. 0. 0. 0. 0. 0. 0. 0. 0. 0. 0. 0. 0. 0. 0. 0. 0. 0. 0. 0.
      0. 0. 0. 0. 0. 0. 0. 0. 0. 0. 1.53846154e-002 0. 0. 0.
      4.61538471e-002 0. 0. 0. 1.53846154e-002 0. 0. 0. 0. 0. 0. 0. 0.
      0. 1.53846154e-002 0. 0. 0. 0. 0. 0. 0. 0. 1.53846154e-002 0. 0.
      3.07692308e-002 0. 0. 1.69230774e-001 0. 0. 0. 0. 0. 0. 0.
      3.07692308e-002 0. 0. 0. 0. 0. 0. 0. 0. 0. 0. 0. 0. 0. 0.
      3.07692308e-002 0. 0. 0. 0. 0. 0. 0. 6.15384616e-002 0. 0. 0. 0.
      0. 0. 0. 0. 0. 0.</_>
    <_>
      0. 1.53846154e-002 0. 4.61538471e-002 0. 0. 0. 0. 0. 0. 0. 0. 0.
      0. 1.53846154e-002 4.61538471e-002 0. 0. 0. 0. 0. 1.53846154e-002
      0. 0. 0. 0. 0. 0. 4.61538471e-002 0. 1.53846154e-002 0. 0.
      1.53846154e-002 3.07692308e-002 0. 0. 0. 0. 0. 0. 0. 0. 0. 0. 0.
      0. 0. 0. 0. 0. 0. 0. 0. 0. 0. 0. 0. 0. 0. 0. 0. 0. 0.
      1.53846154e-002 0. 0. 0. 0. 0. 1.53846154e-002 6.15384616e-002 0.
      4.61538471e-002 0. 3.07692308e-002 0. 3.07692308e-002
      3.07692308e-002 0. 0. 0. 0. 0. 0. 0. 0. 0. 0. 0. 0. 0. 0.
      1.53846154e-002 0. 0. 0. 0. 0. 9.23076943e-002 0. 0. 0. 0. 0. 0.
      0. 0. 0. 0. 0. 0. 0. 0. 0. 0. 0. 0. 0. 0. 0. 3.07692308e-002
      3.07692308e-002 0. 0. 3.07692308e-002 0. 0. 0. 0. 0.
      1.53846154e-002 0. 0. 0. 0. 0. 0. 0. 0. 0. 0. 0. 0. 0. 0. 0. 0. 0.
      0. 0. 0. 0. 0. 0. 0. 3.07692308e-002 0. 0. 0. 0. 0. 0. 0. 0. 0. 0.
      0. 0. 0. 0. 0. 0. 0. 0. 0. 0. 0. 0. 0. 0. 4.61538471e-002 0. 0. 0.
      0. 0. 0. 0. 0. 0. 0. 0. 0. 0. 0. 0. 0. 0. 0. 0. 0. 0. 0. 0.
      4.61538471e-002 0. 0. 1.53846154e-002 0. 0. 0. 0. 0.
      1.23076923e-001 0. 0. 0. 0. 0. 0. 0. 0. 0. 0. 0. 0. 0. 0. 0. 0. 0.
      0. 0. 0. 0. 0. 1.53846154e-002 0. 0. 0. 0. 0. 0. 0.
      3.07692308e-002 0. 0. 0. 0. 0. 0. 0. 0. 0. 0.</_>
    <_>
      0. 0. 0. 6.89655170e-002 0. 0. 0. 0. 0. 0. 0. 0. 0. 0. 0.
      3.44827585e-002 0. 0. 0. 0. 0. 6.89655170e-002 0. 0. 0. 0. 0. 0.
      0. 0. 3.44827585e-002 0. 0. 0. 3.44827585e-002 0. 0. 0. 0. 0. 0.
      0. 0. 0. 0. 0. 0. 0. 0. 0. 0. 0. 0. 0. 0. 0. 0. 0. 0. 0. 0. 0. 0.
      0. 0. 0. 0. 0. 0. 0. 6.89655170e-002 0. 0. 0. 0. 0. 0. 0. 0. 0. 0.
      0. 0. 0. 0. 0. 0. 0. 0. 0. 0. 0. 0. 3.44827585e-002 0. 0. 0. 0. 0.
      0. 0. 0. 0. 0. 0. 0. 0. 0. 0. 0. 0. 0. 0. 0. 0. 0. 0. 0. 0. 0. 0.
      1.03448272e-001 0. 0. 0. 3.44827585e-002 0. 3.44827585e-002 0. 0.
      0. 0. 0. 0. 0. 0. 0. 0. 0. 0. 0. 0. 0. 0. 0. 0. 0. 0. 0. 0. 0.
      3.44827585e-002 0. 0. 0. 0. 0. 0. 0. 0. 0. 0. 0. 0. 0. 0. 0. 0. 0.
      0. 0. 0. 0. 0. 0. 0. 0. 0. 0. 0. 0. 0. 0. 0. 0. 0. 0. 0. 0. 0. 0.
      0. 0. 0. 0. 0. 0. 0. 0. 0. 0. 0. 0. 0. 0. 6.89655170e-002 0. 0. 0.
      0. 0. 3.44827585e-002 0. 0. 1.37931034e-001 0. 0. 0. 0. 0. 0. 0.
      3.44827585e-002 0. 0. 0. 0. 0. 0. 0. 0. 0. 0. 0. 0. 0. 0. 0. 0. 0.
      3.44827585e-002 0. 0. 0. 0. 1.03448272e-001 0. 3.44827585e-002 0.
      0. 0. 0. 0. 0. 0. 0.</_>
    <_>
      0. 0. 3.70370373e-002 3.70370373e-002 1.85185187e-002
      1.85185187e-002 0. 0. 0. 0. 0. 0. 0. 0. 0. 1.85185187e-002 0. 0.
      0. 0. 0. 1.85185187e-002 0. 0. 0. 0. 0. 0. 5.55555560e-002 0.
      5.55555560e-002 0. 0. 1.85185187e-002 5.55555560e-002 0. 0. 0. 0.
      0. 0. 0. 0. 0. 0. 0. 0. 1.85185187e-002 0. 0. 0. 1.85185187e-002
      0. 0. 0. 0. 0. 0. 0. 0. 0. 0. 0. 0. 0. 0. 0. 0. 0. 0.
      7.40740746e-002 0. 0. 3.70370373e-002 0. 3.70370373e-002 0.
      3.70370373e-002 0. 0. 0. 0. 0. 0. 0. 0. 0. 0. 0. 0. 0. 0. 0. 0. 0.
      0. 0. 0. 0. 3.70370373e-002 0. 0. 0. 0. 1.85185187e-002 0. 0. 0.
      0. 0. 0. 0. 0. 0. 0. 0. 0. 0. 0. 0. 0. 1.85185187e-002 0. 0. 0.
      9.25925970e-002 0. 1.85185187e-002 0. 0. 0. 3.70370373e-002 0. 0.
      1.85185187e-002 0. 0. 0. 0. 0. 0. 0. 0. 0. 0. 0. 0. 0. 0. 0. 0. 0.
      0. 0. 0. 0. 0. 0. 0. 0. 0. 0. 0. 0. 0. 0. 0. 0. 0. 0. 0. 0. 0. 0.
      0. 1.85185187e-002 0. 1.85185187e-002 0. 0. 0. 5.55555560e-002 0.
      0. 0. 0. 0. 0. 0. 0. 0. 0. 0. 0. 0. 0. 0. 0. 0. 0. 0. 0.
      1.85185187e-002 0. 0. 0. 0. 0. 3.70370373e-002 0. 0. 0. 0. 0.
      3.70370373e-002 0. 0. 0. 0. 0. 0. 0. 0. 0. 0. 0. 0. 0. 0. 0. 0. 0.
      0. 0. 0. 0. 0. 1.85185187e-002 0. 0. 0. 0. 0. 0. 0. 0. 0. 0. 0. 0.
      0. 0. 0. 0. 0. 0.</_>
    <_>
      0. 1.16279069e-002 2.32558139e-002 0. 0. 3.48837227e-002 0. 0. 0.
      0. 0. 0. 0. 0. 3.48837227e-002 6.97674453e-002 1.16279069e-002 0.
      0. 0. 0. 1.16279069e-002 0. 0. 0. 0. 0. 0. 2.32558139e-002 0.
      1.16279069e-002 0. 0. 0. 2.32558139e-002 0. 0. 0. 0. 0. 0. 0. 0.
      0. 0. 0. 0. 0. 0. 0. 0. 3.48837227e-002 0. 0. 0. 0. 0. 0. 0. 0. 0.
      0. 0. 0. 1.16279069e-002 0. 0. 0. 0. 0. 0. 6.97674453e-002 0.
      2.32558139e-002 0. 2.32558139e-002 0. 0. 2.32558139e-002 0. 0. 0.
      0. 0. 0. 0. 0. 0. 0. 0. 0. 0. 0. 0. 1.16279069e-002 0. 0. 0. 0.
      1.04651161e-001 0. 0. 0. 0. 2.32558139e-002 0. 0. 0. 0. 0. 0. 0.
      0. 0. 0. 0. 0. 0. 0. 0. 0. 5.81395328e-002 0. 0. 0.
      1.16279069e-002 0. 0. 0. 0. 0. 1.16279069e-002 0. 0. 0. 0. 0. 0.
      0. 0. 0. 0. 0. 0. 0. 0. 0. 0. 0. 0. 0. 0. 0. 0. 0. 0.
      2.32558139e-002 0. 0. 0. 0. 1.16279069e-002 0. 0. 0. 0. 0. 0. 0.
      0. 0. 0. 0. 0. 0. 0. 0. 1.16279069e-002 0. 0. 0. 2.32558139e-002
      0. 0. 0. 0. 0. 0. 0. 0. 0. 0. 0. 0. 0. 0. 0. 0. 0. 0. 0. 0. 0. 0.
      0. 1.16279069e-002 0. 0. 1.16279069e-002 0. 0. 0. 0. 0.
      1.04651161e-001 0. 0. 0. 0. 0. 0. 0. 1.16279069e-002 0. 0. 0. 0.
      0. 0. 0. 0. 0. 1.16279069e-002 0. 0. 0. 0. 5.81395328e-002 0. 0.
      0. 0. 0. 0. 0. 5.81395328e-002 0. 0. 0. 0. 0. 0. 0. 0. 0. 0.</_>
    <_>
      0. 0. 0. 3.07692308e-002 0. 0. 0. 0. 0. 0. 0. 0. 0. 0.
      3.07692308e-002 3.07692308e-002 0. 0. 0. 0. 0. 3.07692308e-002 0.
      0. 0. 0. 0. 1.53846154e-002 1.53846154e-002 0. 6.15384616e-002 0.
      0. 1.53846154e-002 4.61538471e-002 0. 0. 0. 0. 0. 0. 0. 0. 0. 0.
      0. 0. 0. 0. 0. 0. 0. 0. 0. 0. 0. 0. 0. 0. 0. 0. 0. 0. 0.
      1.53846154e-002 0. 0. 0. 0. 0. 0. 9.23076943e-002 0.
      1.53846154e-002 0. 6.15384616e-002 0. 3.07692308e-002 0. 0. 0. 0.
      0. 0. 0. 0. 0. 0. 0. 0. 0. 0. 0. 0. 4.61538471e-002 0. 0. 0. 0.
      7.69230798e-002 0. 0. 0. 0. 0. 0. 0. 0. 0. 0. 0. 0. 0. 0. 0. 0. 0.
      0. 0. 0. 0. 9.23076943e-002 0. 0. 0. 3.07692308e-002 0.
      1.53846154e-002 0. 0. 0. 0. 0. 0. 0. 0. 0. 0. 0. 0. 0. 0. 0. 0. 0.
      0. 0. 0. 0. 0. 0. 0. 0. 0. 0. 0. 1.53846154e-002 0. 0. 0. 0. 0. 0.
      0. 0. 0. 0. 0. 0. 0. 0. 0. 0. 0. 0. 0. 0. 0. 0. 0. 0.
      1.53846154e-002 0. 0. 0. 0. 0. 0. 0. 0. 0. 0. 0. 0. 0. 0. 0. 0. 0.
      0. 0. 0. 0. 0. 0. 0. 0. 0. 1.53846154e-002 0. 0. 0. 0. 0.
      1.69230774e-001 0. 0. 0. 0. 0. 0. 0. 0. 0. 0. 0. 0. 0. 0. 0. 0. 0.
      0. 0. 0. 0. 0. 0. 0. 1.53846154e-002 0. 0. 0. 0. 0.
      1.53846154e-002 0. 0. 0. 0. 0. 0. 0. 0. 0. 0.</_>
    <_>
      0. 1.75438598e-002 0. 3.50877196e-002 0. 1.75438598e-002 0. 0. 0.
      0. 0. 0. 0. 0. 3.50877196e-002 7.01754391e-002 0. 0. 0. 0. 0.
      3.50877196e-002 0. 0. 0. 0. 0. 1.75438598e-002 1.75438598e-002 0.
      7.01754391e-002 0. 0. 0. 8.77192989e-002 0. 0. 0. 0. 0. 0. 0. 0.
      0. 0. 0. 0. 0. 0. 0. 0. 0. 0. 0. 0. 0. 0. 0. 0. 0. 0. 0. 0. 0. 0.
      0. 0. 0. 0. 0. 0. 5.26315793e-002 0. 3.50877196e-002 0. 0. 0.
      3.50877196e-002 1.75438598e-002 0. 0. 0. 0. 0. 0. 0. 0. 0. 0. 0.
      0. 0. 0. 0. 0. 0. 0. 0. 0. 5.26315793e-002 0. 0. 0. 0. 0. 0. 0. 0.
      0. 0. 0. 0. 0. 0. 0. 0. 0. 0. 0. 0. 0. 3.50877196e-002 0. 0. 0. 0.
      0. 1.75438598e-002 0. 0. 0. 1.75438598e-002 0. 0. 1.75438598e-002
      0. 0. 0. 0. 0. 0. 0. 0. 0. 0. 0. 0. 0. 0. 0. 0. 0. 1.75438598e-002
      0. 0. 0. 0. 0. 0. 0. 0. 0. 0. 0. 0. 0. 0. 0. 0. 0. 0. 0. 0. 0. 0.
      0. 0. 0. 0. 0. 0. 3.50877196e-002 0. 0. 0. 1.75438598e-002 0. 0.
      0. 0. 0. 0. 0. 0. 0. 0. 0. 0. 0. 0. 0. 0. 0. 0. 0. 1.75438598e-002
      0. 1.75438598e-002 0. 0. 0. 0. 0. 0. 8.77192989e-002 0. 0. 0. 0.
      0. 0. 0. 1.75438598e-002 0. 0. 0. 1.75438598e-002 0. 0. 0. 0. 0.
      0. 0. 0. 0. 0. 3.50877196e-002 0. 3.50877196e-002 0. 0. 0. 0. 0.
      1.75438598e-002 0. 0. 0. 0. 0. 0. 0. 0. 0. 0.</_>
    <_>
      0. 0. 0. 3.38983051e-002 0. 0. 0. 0. 0. 0. 0. 0. 0. 0.
      1.69491526e-002 3.38983051e-002 0. 0. 0. 0. 0. 8.47457647e-002 0.
      3.38983051e-002 0. 0. 0. 0. 1.69491526e-002 0. 0. 0. 0.
      1.69491526e-002 5.08474559e-002 0. 0. 0. 0. 0. 0. 0. 0. 0. 0. 0.
      0. 1.69491526e-002 0. 0. 0. 0. 0. 0. 0. 0. 0. 0. 1.69491526e-002
      0. 0. 0. 0. 0. 1.69491526e-002 0. 0. 0. 0. 0. 1.69491526e-002
      1.69491526e-002 0. 1.69491526e-002 0. 1.69491526e-002 0.
      1.69491526e-002 0. 0. 0. 0. 0. 1.69491526e-002 0. 0. 0. 0. 0. 0.
      0. 0. 0. 1.69491526e-002 1.69491526e-002 0. 0. 0. 0.
      1.01694912e-001 0. 0. 0. 0. 0. 0. 0. 0. 0. 0. 0. 0. 0. 0. 0. 0. 0.
      0. 0. 0. 0. 3.38983051e-002 0. 0. 0. 1.69491526e-002 0. 0. 0. 0.
      0. 1.69491526e-002 0. 0. 0. 0. 0. 0. 0. 0. 0. 0. 0. 0. 0. 0. 0. 0.
      0. 0. 0. 1.69491526e-002 0. 0. 0. 0. 0. 0. 0. 0. 0. 0. 0. 0. 0. 0.
      0. 0. 0. 0. 0. 0. 0. 0. 0. 1.69491526e-002 0. 0. 0. 0. 0.
      1.69491526e-002 0. 0. 0. 3.38983051e-002 0. 0. 0. 0. 0. 0. 0. 0.
      0. 0. 0. 0. 0. 0. 0. 0. 0. 0. 0. 6.77966103e-002 0. 0. 0. 0. 0. 0.
      0. 0. 1.01694912e-001 0. 0. 0. 0. 0. 0. 0. 1.69491526e-002 0. 0.
      0. 0. 0. 0. 0. 0. 0. 0. 0. 0. 0. 0. 1.69491526e-002 0.
      1.69491526e-002 1.69491526e-002 0. 0. 0. 0. 1.69491526e-002 0. 0.
      0. 0. 0. 0. 0. 0. 0. 1.69491526e-002</_>
    <_>
      0. 1.19047621e-002 3.57142873e-002 3.57142873e-002 0.
      1.19047621e-002 0. 0. 0. 0. 0. 0. 0. 0. 4.76190485e-002
      4.76190485e-002 0. 0. 0. 0. 0. 1.19047621e-002 0. 0. 0. 0. 0. 0.
      2.38095243e-002 0. 4.76190485e-002 0. 0. 0. 4.76190485e-002 0. 0.
      0. 0. 0. 0. 0. 0. 0. 0. 0. 0. 0. 1.19047621e-002 0. 0.
      1.19047621e-002 0. 0. 0. 0. 0. 0. 0. 0. 0. 0. 0. 0. 0. 0. 0. 0. 0.
      0. 2.38095243e-002 4.76190485e-002 0. 4.76190485e-002 0.
      1.19047621e-002 0. 2.38095243e-002 1.19047621e-002 0. 0. 0. 0.
      1.19047621e-002 0. 0. 0. 0. 0. 0. 0. 0. 0. 0. 0. 0. 0. 0. 0.
      4.76190485e-002 0. 0. 0. 0. 0. 0. 0. 0. 0. 0. 0. 2.38095243e-002
      0. 0. 0. 0. 0. 0. 0. 0. 0. 4.76190485e-002 0. 0. 0.
      2.38095243e-002 0. 1.19047621e-002 0. 0. 0. 2.38095243e-002 0. 0.
      0. 0. 0. 0. 0. 0. 0. 0. 0. 0. 0. 0. 0. 0. 0. 0. 0. 0. 0. 0. 0. 0.
      1.19047621e-002 0. 0. 0. 0. 0. 0. 0. 0. 0. 0. 0. 0. 0. 0. 0. 0. 0.
      0. 3.57142873e-002 0. 1.19047621e-002 0. 0. 0. 3.57142873e-002 0.
      0. 0. 1.19047621e-002 0. 0. 0. 0. 0. 0. 0. 0. 0. 0. 0. 0. 0. 0. 0.
      0. 0. 0. 0. 0. 0. 0. 0. 0. 0. 0. 0. 0. 7.14285746e-002 0. 0. 0. 0.
      0. 0. 0. 3.57142873e-002 0. 0. 0. 0. 0. 0. 0. 0. 0. 0. 0.
      1.19047621e-002 0. 0. 2.38095243e-002 0. 0. 0. 0. 0. 0. 0.
      3.57142873e-002 0. 1.19047621e-002 0. 0. 0. 0. 0. 0. 0. 0.</_>
    <_>
      0. 5.40540554e-002 0. 2.70270277e-002 2.70270277e-002
      2.70270277e-002 0. 0. 0. 0. 0. 0. 0. 0. 5.40540554e-002
      2.70270277e-002 0. 0. 0. 0. 0. 0. 0. 0. 0. 0. 0. 0. 0. 0.
      2.70270277e-002 0. 0. 0. 0. 0. 0. 0. 0. 0. 0. 0. 0. 0. 0. 0. 0. 0.
      0. 0. 0. 2.70270277e-002 0. 0. 0. 0. 0. 0. 0. 0. 0. 0. 0. 0. 0. 0.
      0. 0. 0. 0. 8.10810849e-002 0. 0. 5.40540554e-002 0.
      5.40540554e-002 0. 0. 0. 0. 0. 0. 0. 0. 0. 0. 0. 0. 0. 0. 0. 0. 0.
      0. 0. 0. 0. 0. 0. 5.40540554e-002 0. 0. 0. 0. 0. 0. 0. 0. 0. 0. 0.
      2.70270277e-002 0. 0. 0. 0. 0. 0. 0. 0. 0. 5.40540554e-002 0. 0.
      0. 5.40540554e-002 0. 0. 0. 0. 0. 0. 0. 0. 0. 0. 0. 0. 0. 0. 0. 0.
      0. 0. 0. 0. 0. 0. 0. 0. 0. 2.70270277e-002 0. 0. 0. 0.
      2.70270277e-002 0. 0. 0. 0. 0. 0. 0. 0. 0. 0. 0. 0. 0. 0. 0. 0. 0.
      0. 0. 0. 5.40540554e-002 0. 0. 0. 0. 0. 0. 0. 0. 0. 0. 0. 0. 0. 0.
      0. 0. 0. 0. 0. 0. 0. 0. 0. 0. 0. 0. 0. 0. 0. 0. 0. 0. 0. 0. 0. 0.
      8.10810849e-002 0. 0. 0. 0. 0. 0. 0. 5.40540554e-002 0. 0. 0. 0.
      0. 0. 0. 0. 0. 0. 0. 0. 0. 0. 0. 0. 5.40540554e-002 0. 0. 0. 0. 0.
      5.40540554e-002 0. 0. 0. 0. 0. 0. 0. 0. 0. 0.</_>
    <_>
      0. 1.69491526e-002 0. 1.69491526e-002 0. 0. 0. 0. 0. 0. 0. 0. 0.
      0. 6.77966103e-002 8.47457647e-002 0. 0. 0. 0. 0. 6.77966103e-002
      0. 0. 0. 0. 0. 0. 3.38983051e-002 0. 1.69491526e-002 0. 0.
      1.69491526e-002 8.47457647e-002 0. 0. 0. 0. 0. 0. 0. 0. 0. 0. 0.
      0. 0. 0. 0. 0. 0. 0. 0. 0. 0. 0. 0. 1.69491526e-002 0. 0. 0. 0. 0.
      0. 0. 0. 0. 0. 0. 1.69491526e-002 0. 0. 3.38983051e-002 0. 0. 0.
      0. 0. 0. 0. 0. 0. 0. 0. 0. 0. 0. 0. 0. 0. 0. 0. 0. 0. 0. 0. 0. 0.
      3.38983051e-002 0. 0. 0. 0. 0. 0. 0. 0. 0. 0. 0. 0. 0. 0. 0. 0. 0.
      0. 0. 0. 0. 1.35593221e-001 0. 0. 0. 1.69491526e-002 0.
      3.38983051e-002 0. 0. 0. 1.69491526e-002 0. 0. 0. 0. 0. 0. 0. 0.
      0. 0. 0. 0. 0. 0. 0. 0. 0. 0. 0. 0. 0. 0. 0. 0. 1.69491526e-002 0.
      0. 0. 0. 0. 0. 0. 0. 0. 0. 0. 0. 0. 0. 0. 0. 0. 0. 0. 0. 0. 0. 0.
      0. 5.08474559e-002 0. 0. 0. 0. 0. 0. 0. 0. 0. 0. 0. 0. 0. 0. 0. 0.
      0. 0. 0. 0. 0. 0. 0. 0. 0. 0. 3.38983051e-002 0. 3.38983051e-002
      0. 0. 0. 8.47457647e-002 0. 0. 0. 0. 0. 0. 0. 0. 0. 0. 0. 0. 0. 0.
      0. 0. 1.69491526e-002 0. 0. 0. 0. 0. 0. 0. 0. 0. 0. 0. 0. 0.
      5.08474559e-002 0. 0. 0. 0. 0. 0. 0. 0. 0. 0.</_>
    <_>
      0. 3.27868834e-002 4.91803251e-002 4.91803251e-002 0.
      6.55737668e-002 0. 0. 0. 0. 0. 0. 0. 0. 1.63934417e-002
      1.63934417e-002 1.63934417e-002 0. 0. 0. 0. 0. 0. 0. 0. 0. 0. 0.
      3.27868834e-002 0. 0. 0. 0. 0. 3.27868834e-002 0. 0. 0. 0. 0. 0.
      0. 0. 0. 0. 0. 0. 1.63934417e-002 0. 0. 0. 0. 0. 0. 0. 0. 0. 0. 0.
      0. 0. 0. 0. 0. 1.63934417e-002 0. 0. 0. 0. 0. 3.27868834e-002
      3.27868834e-002 0. 3.27868834e-002 0. 3.27868834e-002 0.
      8.19672048e-002 0. 0. 0. 0. 0. 0. 0. 0. 0. 0. 0. 0. 0. 0. 0. 0.
      1.63934417e-002 0. 0. 0. 0. 8.19672048e-002 0. 0. 0. 0. 0. 0. 0.
      0. 0. 0. 0. 0. 0. 0. 0. 0. 0. 0. 0. 0. 0. 1.63934417e-002 0. 0. 0.
      3.27868834e-002 0. 4.91803251e-002 0. 0. 0. 1.63934417e-002 0. 0.
      0. 0. 0. 0. 0. 0. 0. 0. 0. 0. 0. 0. 0. 0. 0. 0. 0. 0. 0. 0. 0. 0.
      0. 0. 0. 0. 0. 1.63934417e-002 0. 0. 0. 0. 0. 0. 0. 0. 0. 0. 0. 0.
      0. 1.63934417e-002 0. 0. 0. 0. 0. 0. 0. 0. 0. 1.63934417e-002 0.
      0. 0. 1.63934417e-002 0. 0. 0. 0. 0. 0. 0. 0. 0. 0. 0. 0. 0. 0. 0.
      0. 0. 0. 0. 0. 0. 0. 0. 0. 4.91803251e-002 0. 0. 0. 0. 0. 0. 0.
      3.27868834e-002 0. 0. 0. 0. 0. 0. 0. 0. 0. 1.63934417e-002 0. 0.
      0. 0. 0. 0. 0. 0. 0. 0. 0. 0. 6.55737668e-002 0. 0. 0. 0. 0. 0. 0.
      0. 0. 0.</_>
    <_>
      0. 5.55555560e-002 1.85185187e-002 0. 0. 0. 0. 0. 0. 0. 0. 0. 0.
      0. 0. 3.70370373e-002 0. 0. 0. 0. 0. 3.70370373e-002 0. 0. 0. 0.
      0. 0. 1.85185187e-002 0. 3.70370373e-002 0. 0. 1.85185187e-002
      5.55555560e-002 0. 0. 0. 0. 0. 0. 0. 0. 0. 0. 0. 0. 0.
      1.85185187e-002 0. 0. 5.55555560e-002 0. 0. 0. 0. 0. 0. 0. 0. 0.
      0. 0. 1.85185187e-002 0. 0. 0. 0. 0. 0. 0. 7.40740746e-002 0. 0.
      0. 5.55555560e-002 0. 0. 1.85185187e-002 0. 0. 0. 0. 0. 0. 0. 0.
      0. 0. 0. 0. 0. 0. 0. 0. 0. 0. 0. 0. 3.70370373e-002 0. 0. 0. 0. 0.
      0. 0. 0. 0. 0. 0. 3.70370373e-002 0. 0. 0. 0. 0. 0. 0. 0. 0.
      1.85185187e-002 0. 0. 0. 1.85185187e-002 0. 1.85185187e-002 0. 0.
      0. 0. 0. 0. 0. 0. 0. 0. 0. 0. 0. 0. 0. 0. 0. 0. 0. 0. 0. 0. 0. 0.
      0. 0. 0. 0. 3.70370373e-002 0. 0. 0. 0. 0. 0. 0. 0. 0. 0. 0. 0. 0.
      0. 0. 0. 0. 0. 1.85185187e-002 0. 0. 0. 0. 0. 1.85185187e-002 0.
      0. 0. 1.85185187e-002 0. 0. 0. 0. 0. 0. 0. 0. 0. 0. 0. 0. 0. 0. 0.
      0. 0. 0. 0. 1.85185187e-002 0. 0. 1.85185187e-002 0. 0.
      3.70370373e-002 0. 0. 9.25925970e-002 0. 0. 0. 0. 1.85185187e-002
      0. 0. 0. 0. 0. 0. 0. 0. 0. 0. 0. 0. 1.85185187e-002 0. 0. 0. 0. 0.
      0. 1.85185187e-002 0. 0. 0. 0. 0. 3.70370373e-002 0. 0. 0. 0. 0.
      0. 0. 0. 0. 0.</_>
    <_>
      0. 0. 4.83870953e-002 1.61290318e-002 0. 0. 0. 0. 0. 0. 0. 0. 0.
      0. 0. 4.83870953e-002 0. 0. 0. 0. 0. 0. 0. 0. 0. 0. 0. 0.
      6.45161271e-002 0. 1.61290318e-002 0. 0. 0. 4.83870953e-002 0. 0.
      0. 0. 0. 0. 0. 0. 0. 0. 0. 0. 0. 1.61290318e-002 0. 0.
      1.61290318e-002 0. 0. 0. 0. 0. 0. 0. 0. 0. 0. 0. 0. 0. 0. 0. 0. 0.
      0. 1.61290318e-002 1.12903222e-001 0. 0. 0. 4.83870953e-002 0.
      4.83870953e-002 0. 0. 0. 0. 0. 0. 0. 0. 0. 0. 0. 0. 0. 0. 0. 0. 0.
      0. 0. 0. 0. 1.61290318e-002 0. 0. 0. 0. 1.61290318e-002 0. 0. 0.
      0. 0. 0. 0. 0. 0. 0. 0. 0. 0. 0. 0. 0. 3.22580636e-002
      1.61290318e-002 0. 0. 0. 0. 1.61290318e-002 0. 0. 0.
      3.22580636e-002 0. 0. 0. 0. 0. 0. 0. 0. 0. 0. 0. 0. 0. 0. 0. 0. 0.
      0. 0. 0. 0. 0. 0. 0. 1.61290318e-002 0. 0. 0. 0. 0. 0. 0. 0. 0. 0.
      0. 0. 0. 0. 0. 0. 0. 0. 1.61290318e-002 0. 1.61290318e-002 0. 0.
      0. 3.22580636e-002 0. 0. 0. 0. 0. 0. 0. 0. 0. 0. 0. 0. 0. 0. 0. 0.
      0. 0. 0. 0. 1.61290318e-002 0. 0. 1.61290318e-002 0. 0.
      1.61290318e-002 0. 0. 1.61290318e-002 0. 0. 1.61290318e-001 0. 0.
      0. 0. 0. 0. 0. 0. 0. 0. 0. 0. 0. 0. 0. 0. 0. 0. 0. 0. 0. 0.
      1.61290318e-002 0. 0. 0. 0. 0. 0. 0. 3.22580636e-002 0.
      1.61290318e-002 0. 0. 0. 0. 0. 0. 0. 0.</_>
    <_>
      0. 0. 1.19047621e-002 2.38095243e-002 0. 1.19047621e-002 0. 0. 0.
      0. 0. 0. 0. 0. 0. 4.76190485e-002 0. 0. 0. 0. 0. 3.57142873e-002
      0. 0. 0. 0. 0. 0. 3.57142873e-002 0. 8.33333358e-002 0. 0.
      1.19047621e-002 3.57142873e-002 0. 0. 0. 0. 0. 0. 0. 0. 0. 0. 0.
      0. 0. 1.19047621e-002 0. 0. 1.19047621e-002 0. 0. 0. 0. 0. 0. 0.
      0. 0. 0. 0. 0. 0. 0. 0. 0. 0. 0. 2.38095243e-002 8.33333358e-002
      0. 1.19047621e-002 0. 2.38095243e-002 0. 0. 0. 0. 0. 0. 0.
      1.19047621e-002 0. 0. 0. 0. 0. 0. 0. 0. 0. 0. 1.19047621e-002 0.
      0. 0. 0. 5.95238097e-002 0. 0. 0. 0. 0. 0. 0. 0. 0. 0. 0. 0. 0. 0.
      0. 0. 0. 0. 0. 0. 0. 1.07142858e-001 0. 0. 0. 2.38095243e-002 0.
      1.19047621e-002 0. 0. 0. 7.14285746e-002 0. 0. 1.19047621e-002 0.
      0. 0. 0. 0. 0. 0. 0. 0. 0. 0. 0. 0. 0. 0. 0. 0. 0. 0. 0. 0.
      1.19047621e-002 0. 0. 0. 0. 0. 0. 0. 0. 0. 0. 0. 0. 0. 0. 0. 0. 0.
      0. 0. 0. 0. 0. 0. 0. 2.38095243e-002 0. 0. 0. 0. 0. 0. 0. 0. 0. 0.
      0. 0. 0. 0. 0. 0. 0. 0. 0. 0. 0. 0. 0. 0. 0. 0. 1.19047621e-002 0.
      0. 0. 0. 0. 1.19047619e-001 0. 0. 0. 0. 0. 0. 0. 0. 0. 0. 0. 0. 0.
      0. 0. 0. 0. 1.19047621e-002 0. 0. 0. 0. 0. 0. 1.19047621e-002 0.
      0. 0. 0. 0. 3.57142873e-002 0. 0. 0. 0. 0. 0. 0. 0. 0. 0.</_>
    <_>
      0. 1.49253728e-002 0. 1.49253728e-002 0. 0. 0. 0. 0. 0. 0.
      1.49253728e-002 0. 0. 1.49253728e-002 2.98507456e-002
      1.49253728e-002 0. 0. 0. 0. 0. 0. 0. 0. 0. 0. 0. 2.98507456e-002
      0. 2.98507456e-002 0. 0. 2.98507456e-002 1.04477607e-001 0. 0. 0.
      0. 0. 0. 0. 1.49253728e-002 0. 0. 0. 0. 0. 1.49253728e-002 0. 0.
      1.49253728e-002 0. 0. 0. 0. 0. 0. 0. 0. 0. 0. 0. 2.98507456e-002
      0. 0. 0. 0. 0. 0. 2.98507456e-002 0. 0. 1.49253728e-002 0.
      1.49253728e-002 0. 4.47761193e-002 0. 0. 0. 0. 0. 1.49253728e-002
      0. 0. 0. 0. 0. 0. 0. 0. 0. 0. 2.98507456e-002 0. 0. 0. 0.
      2.98507456e-002 0. 0. 0. 0. 0. 0. 0. 0. 0. 0. 0. 0. 0. 0. 0. 0. 0.
      0. 0. 0. 0. 4.47761193e-002 0. 0. 0. 1.49253728e-002 0. 0. 0. 0.
      0. 4.47761193e-002 0. 0. 0. 0. 0. 0. 0. 0. 0. 0. 0. 0. 0. 0. 0. 0.
      0. 0. 0. 0. 0. 0. 0. 0. 1.49253728e-002 0. 0. 0. 0. 0. 0. 0. 0. 0.
      0. 0. 0. 0. 0. 0. 0. 0. 0. 1.49253728e-002 0. 0. 0. 0. 0.
      7.46268630e-002 0. 0. 0. 0. 0. 0. 0. 0. 0. 0. 0. 0. 0. 0. 0. 0. 0.
      0. 0. 0. 0. 0. 0. 0. 0. 0. 2.98507456e-002 0. 0. 0. 0. 0.
      1.64179102e-001 0. 0. 0. 0. 0. 0. 0. 0. 0. 0. 1.49253728e-002 0.
      0. 0. 0. 0. 0. 0. 0. 0. 0. 0. 0. 0. 0. 1.49253728e-002 0. 0. 0. 0.
      1.49253728e-002 0. 0. 0. 0. 0. 0. 0. 0. 0. 0.</_>
    <_>
      0. 0. 0. 1.69491526e-002 0. 0. 0. 0. 0. 0. 0. 0. 0. 0.
      8.47457647e-002 3.38983051e-002 0. 0. 0. 0. 0. 1.69491526e-002 0.
      1.69491526e-002 0. 0. 0. 0. 3.38983051e-002 0. 3.38983051e-002 0.
      0. 0. 8.47457647e-002 0. 0. 0. 0. 0. 0. 0. 0. 0. 0. 0. 0. 0. 0. 0.
      0. 0. 0. 0. 0. 0. 0. 0. 0. 0. 0. 0. 0. 0. 0. 0. 0. 0. 0. 0. 0.
      5.08474559e-002 0. 6.77966103e-002 0. 5.08474559e-002 0. 0. 0. 0.
      0. 0. 0. 0. 0. 0. 0. 0. 0. 0. 0. 0. 0. 0. 1.69491526e-002 0. 0. 0.
      0. 1.18644066e-001 0. 0. 0. 0. 0. 0. 0. 0. 0. 0. 0. 0. 0. 0. 0. 0.
      0. 0. 0. 0. 0. 1.69491526e-002 0. 0. 0. 3.38983051e-002 0.
      1.69491526e-002 0. 0. 0. 1.69491526e-002 0. 0. 0. 0. 0. 0. 0. 0.
      0. 0. 0. 0. 0. 0. 0. 0. 0. 0. 0. 0. 0. 0. 0. 0. 5.08474559e-002 0.
      0. 0. 0. 0. 0. 0. 0. 0. 0. 0. 0. 0. 0. 0. 0. 0. 0. 1.69491526e-002
      0. 0. 0. 0. 0. 0. 0. 0. 0. 1.69491526e-002 0. 0. 0. 0. 0. 0. 0. 0.
      0. 0. 0. 0. 0. 0. 0. 0. 0. 0. 0. 0. 0. 0. 1.69491526e-002 0. 0. 0.
      0. 0. 6.77966103e-002 0. 0. 0. 0. 0. 0. 0. 0. 0. 0. 0. 0. 0. 0. 0.
      0. 0. 0. 0. 0. 0. 0. 5.08474559e-002 0. 0. 0. 0. 0. 0. 0.
      6.77966103e-002 0. 0. 0. 0. 0. 0. 0. 0. 0. 0.</_>
    <_>
      0. 0. 1.20481923e-002 2.40963846e-002 0. 1.20481923e-002 0. 0. 0.
      0. 0. 0. 0. 0. 1.20481923e-002 6.02409616e-002 0. 0. 0. 0. 0.
      2.40963846e-002 0. 0. 0. 0. 0. 0. 3.61445770e-002 0.
      2.40963846e-002 1.20481923e-002 0. 0. 7.22891539e-002 0. 0. 0. 0.
      0. 0. 0. 0. 0. 0. 0. 0. 0. 1.20481923e-002 0. 0. 1.20481923e-002
      0. 0. 0. 0. 0. 0. 0. 0. 0. 0. 0. 0. 0. 0. 0. 0. 0. 0.
      1.20481923e-002 7.22891539e-002 0. 2.40963846e-002 0. 0. 0.
      1.20481923e-002 1.20481923e-002 0. 0. 0. 0. 0. 0. 0.
      1.20481923e-002 0. 0. 0. 0. 0. 0. 0. 0. 0. 0. 0. 0.
      1.08433731e-001 0. 0. 0. 0. 0. 0. 0. 0. 0. 0. 0. 0. 0. 0. 0. 0. 0.
      0. 0. 0. 0. 1.20481923e-002 0. 0. 0. 2.40963846e-002 0. 0. 0. 0.
      0. 1.20481923e-002 0. 0. 0. 0. 0. 0. 0. 0. 0. 0. 0. 0. 0. 0. 0. 0.
      0. 0. 0. 0. 0. 0. 0. 0. 0. 0. 0. 0. 0. 0. 0. 0. 0. 0. 0. 0.
      1.20481923e-002 1.20481923e-002 0. 0. 0. 0. 1.20481923e-002 0. 0.
      0. 0. 0. 0. 4.81927693e-002 0. 0. 0. 0. 0. 0. 0. 0. 0. 0. 0. 0. 0.
      0. 0. 0. 0. 0. 0. 0. 0. 0. 0. 0. 0. 1.20481923e-002
      2.40963846e-002 0. 0. 1.20481923e-002 0. 0. 1.56626493e-001 0. 0.
      1.20481923e-002 0. 0. 0. 0. 2.40963846e-002 0. 0. 0. 0. 0. 0. 0.
      0. 0. 1.20481923e-002 0. 0. 0. 0. 0. 0. 0. 1.20481923e-002 0. 0.
      0. 0. 3.61445770e-002 0. 0. 0. 0. 0. 0. 0. 0. 0. 0.</_>
    <_>
      0. 4.05405425e-002 0. 2.70270277e-002 0. 1.35135138e-002 0. 0. 0.
      0. 0. 0. 0. 0. 5.40540554e-002 8.10810849e-002 1.35135138e-002 0.
      0. 0. 0. 1.35135138e-002 0. 0. 0. 0. 0. 0. 4.05405425e-002 0.
      4.05405425e-002 0. 0. 1.35135138e-002 5.40540554e-002 0. 0. 0. 0.
      0. 0. 0. 0. 0. 0. 0. 0. 0. 0. 0. 0. 0. 0. 0. 0. 0. 0. 0. 0. 0. 0.
      0. 0. 0. 0. 0. 0. 0. 0. 0. 1.35135138e-002 2.70270277e-002 0.
      1.35135138e-002 0. 4.05405425e-002 0. 4.05405425e-002
      1.35135138e-002 0. 0. 0. 0. 0. 0. 0. 0. 0. 0. 0. 0. 0. 0. 0.
      1.35135138e-002 0. 0. 0. 0. 1.35135144e-001 0. 0. 0. 0. 0. 0. 0.
      0. 0. 0. 0. 0. 0. 0. 0. 0. 0. 0. 0. 0. 0. 9.45945978e-002 0. 0. 0.
      0. 0. 1.35135138e-002 0. 0. 0. 0. 0. 0. 0. 0. 0. 0. 0. 0. 0. 0. 0.
      0. 0. 0. 0. 0. 0. 0. 0. 0. 0. 0. 0. 0. 0. 0. 0. 0. 0. 0. 0. 0. 0.
      0. 0. 0. 0. 0. 0. 0. 0. 0. 0. 0. 0. 1.35135138e-002 0. 0. 0. 0. 0.
      0. 0. 0. 0. 0. 0. 0. 0. 0. 0. 0. 0. 0. 0. 0. 0. 0. 0. 0. 0. 0. 0.
      1.35135138e-002 0. 0. 0. 0. 0. 1.35135138e-002 0. 0.
      8.10810849e-002 0. 0. 0. 0. 0. 0. 0. 1.35135138e-002 0. 0. 0. 0.
      0. 1.35135138e-002 0. 0. 0. 0. 0. 0. 0. 0. 0. 0. 0. 0. 0. 0. 0. 0.
      5.40540554e-002 0. 0. 0. 0. 0. 0. 0. 0. 0. 0.</_>
    <_>
      0. 1.99999996e-002 1.99999996e-002 7.99999982e-002 0.
      1.99999996e-002 0. 0. 0. 0. 0. 0. 0. 0. 0. 3.99999991e-002 0. 0.
      0. 0. 0. 1.99999996e-002 0. 0. 0. 0. 0. 0. 0. 0. 0. 0. 0.
      1.99999996e-002 7.99999982e-002 0. 0. 0. 0. 0. 0. 0. 0. 0. 0. 0.
      0. 1.99999996e-002 0. 0. 0. 1.99999996e-002 0. 0. 0. 0. 0. 0. 0.
      0. 0. 0. 0. 0. 0. 0. 1.99999996e-002 0. 0. 0. 0. 3.99999991e-002
      0. 5.99999987e-002 0. 0. 0. 0. 0. 0. 0. 0. 0. 0. 0. 0. 0. 0. 0. 0.
      0. 0. 0. 0. 1.99999996e-002 0. 0. 0. 0. 1.40000001e-001 0. 0. 0.
      0. 0. 0. 0. 0. 0. 0. 0. 0. 0. 0. 0. 0. 0. 0. 0. 0. 0.
      7.99999982e-002 0. 0. 0. 1.99999996e-002 0. 1.99999996e-002 0. 0.
      0. 0. 0. 0. 1.99999996e-002 0. 0. 0. 0. 0. 0. 0. 0. 0. 0. 0. 0. 0.
      0. 0. 0. 0. 0. 0. 0. 0. 3.99999991e-002 0. 0. 0. 0. 0. 0. 0. 0. 0.
      0. 0. 0. 0. 0. 0. 0. 0. 0. 1.99999996e-002 0. 0. 0. 0. 0.
      1.99999996e-002 0. 0. 0. 0. 0. 0. 0. 0. 0. 0. 0. 0. 0. 0. 0. 0. 0.
      0. 0. 0. 0. 0. 0. 0. 0. 0. 1.99999996e-002 0. 0. 1.99999996e-002
      0. 0. 3.99999991e-002 0. 0. 0. 0. 0. 0. 0. 0. 0. 0. 0. 0. 0. 0. 0.
      0. 0. 0. 0. 0. 0. 0. 3.99999991e-002 0. 0. 0. 0. 0. 0. 0.
      3.99999991e-002 0. 0. 0. 0. 0. 0. 0. 0. 0. 0.</_>
    <_>
      0. 0. 0. 1.61290318e-002 0. 4.83870953e-002 0. 0. 0. 0. 0. 0. 0.
      0. 0. 1.12903222e-001 0. 0. 0. 0. 0. 1.61290318e-002 0. 0. 0. 0.
      0. 0. 1.61290318e-002 0. 0. 0. 0. 3.22580636e-002 3.22580636e-002
      0. 0. 0. 0. 0. 0. 0. 0. 0. 0. 0. 0. 1.61290318e-002 0. 0. 0. 0. 0.
      0. 0. 0. 0. 0. 1.61290318e-002 0. 0. 0. 0. 0. 0. 0. 0. 0. 0. 0. 0.
      8.06451589e-002 0. 0. 0. 6.45161271e-002 0. 4.83870953e-002 0. 0.
      0. 0. 0. 0. 0. 0. 0. 0. 0. 0. 0. 0. 0. 0. 1.61290318e-002 0. 0. 0.
      0. 1.12903222e-001 0. 0. 0. 0. 0. 0. 0. 0. 0. 0. 0. 0. 0. 0. 0. 0.
      1.61290318e-002 0. 0. 0. 0. 3.22580636e-002 0. 0. 0. 0. 0. 0. 0.
      0. 0. 0. 0. 1.61290318e-002 0. 1.61290318e-002 0. 0. 0. 0. 0. 0.
      0. 0. 0. 0. 0. 0. 0. 0. 0. 0. 0. 0. 0. 0. 1.61290318e-002 0. 0. 0.
      0. 1.61290318e-002 0. 0. 0. 0. 0. 0. 0. 0. 0. 0. 0. 0. 0. 0. 0. 0.
      0. 0. 0. 4.83870953e-002 0. 0. 0. 0. 0. 0. 0. 0. 0. 0. 0. 0. 0. 0.
      0. 0. 0. 0. 0. 0. 0. 0. 0. 0. 0. 0. 0. 0. 0. 1.61290318e-002 0. 0.
      1.61290318e-001 0. 0. 0. 0. 0. 0. 0. 0. 0. 0. 0. 0. 0. 0. 0. 0. 0.
      1.61290318e-002 0. 1.61290318e-002 0. 0. 0. 0. 0. 0. 0. 0. 0. 0.
      0. 0. 0. 0. 0. 0. 0. 0. 0. 0. 0.</_>
    <_>
      0. 4.41176482e-002 0. 2.94117648e-002 0. 1.47058824e-002 0. 0. 0.
      0. 0. 0. 0. 0. 1.47058824e-002 2.94117648e-002 0. 0. 0. 0. 0.
      7.35294148e-002 0. 0. 0. 0. 0. 0. 8.82352963e-002 0.
      2.94117648e-002 0. 0. 2.94117648e-002 7.35294148e-002 0. 0. 0. 0.
      0. 0. 0. 0. 0. 0. 0. 0. 0. 2.94117648e-002 0. 0. 0. 0. 0. 0. 0. 0.
      0. 1.47058824e-002 0. 0. 0. 0. 0. 1.47058824e-002 0. 0. 0. 0. 0.
      0. 2.94117648e-002 0. 0. 0. 1.47058824e-002 0. 2.94117648e-002 0.
      0. 0. 0. 0. 0. 0. 0. 0. 0. 0. 0. 0. 0. 0. 0. 2.94117648e-002 0. 0.
      0. 0. 1.47058824e-002 0. 0. 0. 0. 0. 0. 0. 0. 0. 0. 0. 0. 0. 0. 0.
      0. 0. 0. 0. 0. 0. 7.35294148e-002 0. 0. 0. 1.47058824e-002 0.
      1.47058824e-002 0. 0. 0. 0. 0. 0. 0. 0. 0. 0. 0. 0. 0. 0. 0. 0. 0.
      0. 0. 0. 0. 0. 0. 0. 0. 0. 0. 0. 1.47058824e-002 0. 0. 0. 0. 0. 0.
      0. 0. 0. 0. 0. 0. 1.47058824e-002 0. 0. 0. 0. 0. 1.47058824e-002
      0. 0. 0. 0. 0. 2.94117648e-002 0. 0. 0. 0. 0. 0. 0. 0. 0. 0. 0. 0.
      0. 0. 0. 0. 0. 0. 0. 0. 0. 0. 0. 2.94117648e-002 0. 0. 0. 0. 0.
      1.47058824e-002 0. 0. 1.17647059e-001 0. 0. 0. 0. 0. 0. 0.
      1.47058824e-002 0. 0. 0. 0. 0. 0. 0. 0. 0. 0. 0. 0. 0. 0. 0. 0. 0.
      0. 0. 0. 0. 0. 4.41176482e-002 0. 0. 0. 0. 0. 0. 0. 0. 0. 0.</_>
    <_>
      0. 0. 3.50877196e-002 5.26315793e-002 0. 3.50877196e-002 0. 0. 0.
      0. 0. 0. 0. 0. 0. 5.26315793e-002 0. 0. 0. 0. 0. 0. 0.
      1.75438598e-002 0. 0. 0. 0. 0. 0. 3.50877196e-002 0. 0. 0.
      5.26315793e-002 0. 0. 0. 0. 0. 0. 0. 0. 0. 0. 0. 0. 0. 0. 0. 0.
      1.75438598e-002 0. 0. 0. 0. 0. 0. 0. 0. 0. 0. 0. 0. 0. 0. 0. 0. 0.
      0. 0. 3.50877196e-002 0. 3.50877196e-002 0. 3.50877196e-002 0. 0.
      0. 0. 0. 0. 0. 0. 0. 0. 0. 0. 0. 0. 0. 0. 0. 0. 0. 0. 0. 0. 0.
      1.75438598e-001 0. 0. 0. 0. 1.75438598e-002 0. 0. 0. 0. 0. 0. 0.
      0. 0. 0. 0. 0. 0. 0. 0. 0. 0. 0. 0. 0. 3.50877196e-002 0.
      3.50877196e-002 0. 0. 0. 0. 0. 0. 0. 0. 0. 0. 0. 0. 0. 0. 0. 0. 0.
      0. 0. 0. 0. 0. 0. 1.75438598e-002 0. 0. 0. 0. 1.75438598e-002 0.
      0. 0. 0. 0. 0. 0. 0. 0. 0. 0. 0. 0. 0. 0. 0. 0. 0. 1.75438598e-002
      1.75438598e-002 0. 0. 0. 0. 3.50877196e-002 0. 0. 0.
      1.75438598e-002 0. 0. 0. 0. 0. 0. 0. 0. 0. 0. 0. 0. 0. 0. 0. 0. 0.
      0. 0. 0. 0. 0. 1.75438598e-002 0. 1.75438598e-002 0. 0. 0.
      1.05263159e-001 0. 0. 0. 0. 0. 0. 0. 0. 0. 0. 0. 0. 0. 0. 0. 0. 0.
      0. 0. 0. 0. 0. 1.75438598e-002 0. 0. 0. 0. 0. 0. 0.
      5.26315793e-002 0. 0. 0. 0. 0. 0. 0. 0. 0. 0.</_>
    <_>
      0. 0. 0. 7.27272704e-002 0. 1.81818176e-002 0. 0. 0. 0. 0. 0. 0.
      0. 3.63636352e-002 3.63636352e-002 0. 0. 0. 0. 0. 1.81818176e-002
      0. 0. 0. 0. 0. 0. 1.81818176e-002 0. 1.81818176e-002 0. 0.
      1.81818176e-002 7.27272704e-002 0. 0. 0. 0. 0. 0. 0. 0. 0. 0. 0.
      0. 0. 1.81818176e-002 0. 0. 0. 0. 0. 0. 0. 0. 0. 0. 0. 0. 0. 0. 0.
      0. 0. 0. 0. 0. 0. 0. 3.63636352e-002 0. 3.63636352e-002 0. 0. 0.
      0. 3.63636352e-002 0. 0. 0. 0. 0. 0. 0. 0. 0. 0. 0. 0. 0. 0. 0. 0.
      0. 0. 0. 0. 3.63636352e-002 0. 0. 0. 0. 0. 0. 0. 0. 0. 0. 0. 0. 0.
      0. 0. 0. 0. 0. 0. 0. 0. 3.63636352e-002 0. 0. 0. 7.27272704e-002
      0. 0. 0. 0. 0. 1.81818176e-002 0. 0. 0. 0. 0. 0. 0. 0. 0. 0. 0. 0.
      0. 0. 0. 0. 0. 0. 0. 0. 0. 0. 0. 0. 1.81818176e-002 0. 0. 0. 0. 0.
      0. 0. 0. 0. 0. 0. 0. 0. 0. 0. 0. 0. 0. 3.63636352e-002 0. 0. 0. 0.
      0. 0. 0. 0. 0. 1.81818176e-002 0. 0. 0. 0. 0. 0. 0. 0. 0. 0. 0. 0.
      0. 0. 0. 0. 0. 0. 0. 1.81818176e-002 0. 0. 5.45454547e-002 0.
      1.81818176e-002 1.81818176e-002 0. 0. 1.09090909e-001 0. 0. 0. 0.
      0. 0. 0. 1.81818176e-002 0. 0. 0. 0. 0. 0. 0. 0. 0. 0. 0. 0. 0. 0.
      3.63636352e-002 0. 0. 1.81818176e-002 0. 0. 1.81818176e-002 0.
      1.81818176e-002 0. 0. 0. 0. 0. 0. 0. 0. 0. 0.</_>
    <_>
      0. 0. 0. 5.08474559e-002 0. 0. 0. 0. 0. 0. 0. 0. 0. 0. 0. 0. 0. 0.
      0. 0. 0. 1.69491526e-002 0. 3.38983051e-002 0. 0. 0. 0.
      1.69491526e-002 0. 6.77966103e-002 0. 0. 1.69491526e-002
      6.77966103e-002 0. 0. 0. 0. 0. 0. 0. 0. 0. 0. 0. 0.
      1.69491526e-002 0. 0. 0. 3.38983051e-002 0. 0. 0. 0. 0. 0. 0. 0.
      0. 0. 0. 0. 1.69491526e-002 0. 0. 0. 0. 0. 1.69491526e-002
      3.38983051e-002 0. 3.38983051e-002 0. 6.77966103e-002 0.
      3.38983051e-002 0. 0. 0. 0. 0. 0. 0. 0. 0. 0. 0. 0. 0. 0. 0. 0.
      3.38983051e-002 0. 0. 0. 0. 3.38983051e-002 0. 0. 0. 0. 0. 0. 0.
      0. 0. 0. 0. 0. 0. 0. 0. 0. 0. 0. 0. 0. 0. 0. 0. 0. 0.
      1.69491526e-002 0. 0. 0. 0. 0. 1.69491526e-002 0. 0. 0. 0. 0. 0.
      0. 0. 0. 0. 0. 0. 0. 0. 0. 0. 0. 0. 0. 0. 0. 0. 0. 0.
      1.69491526e-002 0. 0. 0. 0. 0. 0. 0. 0. 0. 0. 0. 0. 0. 0. 0. 0. 0.
      0. 0. 0. 0. 0. 0. 0. 0. 0. 0. 0. 3.38983051e-002 0. 0. 0. 0. 0. 0.
      0. 0. 0. 0. 0. 0. 0. 0. 0. 0. 0. 0. 0. 5.08474559e-002 0. 0.
      3.38983051e-002 0. 1.69491526e-002 1.69491526e-002 0. 0.
      1.01694912e-001 0. 1.69491526e-002 0. 0. 1.69491526e-002 0. 0.
      1.69491526e-002 0. 0. 0. 0. 0. 0. 0. 0. 0. 0. 0. 0. 0. 0. 0. 0. 0.
      1.69491526e-002 0. 0. 0. 0. 3.38983051e-002 0. 0. 0. 0. 0. 0. 0.
      0. 0. 0.</_>
    <_>
      0. 1.66666675e-002 1.66666675e-002 1.66666675e-002 0.
      1.66666675e-002 0. 0. 0. 0. 0. 0. 0. 0. 3.33333351e-002
      5.00000045e-002 0. 0. 0. 0. 0. 3.33333351e-002 0. 0. 0. 0. 0. 0.
      1.66666675e-002 0. 1.66666675e-002 0. 0. 3.33333351e-002
      5.00000045e-002 0. 0. 0. 0. 0. 0. 0. 0. 0. 0. 0. 0.
      5.00000045e-002 1.66666675e-002 0. 0. 0. 0. 0. 0. 0. 0. 0. 0. 0.
      0. 0. 0. 0. 0. 0. 0. 0. 0. 0. 3.33333351e-002 5.00000045e-002 0.
      0. 0. 1.66666675e-002 0. 1.66666675e-002 1.66666675e-002 0. 0. 0.
      0. 0. 0. 0. 0. 0. 0. 0. 0. 0. 0. 0. 0. 0. 0. 0. 0. 5.00000045e-002
      0. 0. 0. 0. 0. 0. 0. 0. 0. 0. 0. 0. 0. 0. 0. 0. 0. 0. 0. 0. 0.
      5.00000045e-002 0. 0. 0. 0. 0. 0. 0. 0. 0. 1.66666675e-002 0. 0.
      1.66666675e-002 0. 0. 0. 0. 0. 0. 0. 0. 0. 0. 0. 0. 0. 0. 0. 0.
      1.66666675e-002 0. 0. 0. 0. 0. 0. 0. 0. 0. 0. 0. 0. 0. 0. 0. 0.
      1.66666675e-002 0. 0. 0. 0. 0. 0. 3.33333351e-002 0. 0. 0. 0. 0.
      1.66666675e-002 0. 0. 0. 0. 0. 0. 0. 0. 0. 0. 0. 0. 0. 0. 0. 0. 0.
      0. 0. 0. 0. 0. 0. 0. 0. 0. 0. 0. 1.66666675e-002 0. 0.
      1.66666675e-002 1.16666675e-001 0. 0. 0. 0. 1.66666675e-002 0. 0.
      0. 0. 0. 0. 0. 0. 0. 0. 3.33333351e-002 0. 0. 0. 0. 0. 0.
      1.66666675e-002 0. 1.66666675e-002 1.66666675e-002 0. 0.
      1.66666675e-002 0. 1.66666675e-002 0. 0. 0. 0. 0. 0. 0. 0. 0. 0.</_>
    <_>
      0. 0. 2.80373823e-002 9.34579410e-003 0. 9.34579410e-003
      9.34579410e-003 0. 0. 9.34579410e-003 0. 0. 0. 0. 0.
      3.73831764e-002 0. 0. 0. 0. 0. 0. 0. 0. 0. 9.34579410e-003 0. 0.
      1.86915882e-002 2.80373823e-002 1.86915882e-002 0. 0. 0.
      2.80373823e-002 0. 0. 0. 0. 0. 0. 0. 0. 0. 0. 0. 0. 0. 0. 0. 0.
      3.73831764e-002 0. 9.34579410e-003 0. 0. 0. 0. 0. 9.34579410e-003
      0. 0. 0. 1.86915882e-002 0. 0. 0. 0. 0. 0. 0. 0. 0.
      9.34579410e-003 0. 1.86915882e-002 0. 3.73831764e-002 0. 0. 0. 0.
      0. 0. 0. 0. 1.86915882e-002 0. 0. 9.34579410e-003 0. 0.
      9.34579410e-003 0. 1.86915882e-002 9.34579410e-003 0. 0. 0.
      1.86915882e-002 0. 0. 9.34579410e-003 0. 0. 0. 0. 0. 0. 0. 0. 0.
      0. 0. 9.34579410e-003 0. 1.86915882e-002 0. 0. 0. 0. 0. 0. 0. 0.
      4.67289686e-002 0. 0. 0. 0. 0. 0. 0. 0. 4.67289686e-002 0. 0. 0.
      0. 0. 0. 0. 0. 9.34579410e-003 0. 0. 0. 0. 0. 0. 0. 0.
      9.34579410e-003 9.34579410e-003 4.67289686e-002 0. 0.
      9.34579410e-003 0. 0. 0. 0. 0. 0. 0. 0. 0. 0. 2.80373823e-002 0.
      0. 0. 0. 0. 0. 0. 0. 9.34579410e-003 0. 0. 0. 3.73831764e-002 0.
      0. 0. 0. 0. 0. 0. 0. 0. 9.34579410e-003 0. 0. 0. 0. 0. 0. 0. 0. 0.
      0. 0. 0. 0. 9.34579410e-003 0. 9.34579410e-003 3.73831764e-002
      9.34579410e-003 0. 0. 0. 0. 2.80373823e-002 0. 0. 9.34579410e-003
      0. 0. 0. 0. 0. 0. 9.34579410e-003 9.34579410e-003 1.86915882e-002
      0. 0. 0. 3.73831764e-002 0. 9.34579410e-003 9.34579410e-003 0. 0.
      0. 0. 0. 0. 0. 0. 0. 0. 0. 0. 5.60747646e-002 1.86915882e-002 0.
      0. 0. 0. 0. 0. 0. 0.</_>
    <_>
      0. 2.19780225e-002 1.09890113e-002 0. 0. 0. 0. 0. 0. 0. 0. 0. 0.
      0. 0. 0. 0. 0. 0. 0. 0. 0. 0. 0. 0. 0. 0. 0. 3.29670347e-002
      2.19780225e-002 2.19780225e-002 0. 0. 0. 1.09890113e-002 0. 0. 0.
      0. 0. 0. 0. 1.09890113e-002 1.09890113e-002 0. 0. 0. 0. 0. 0. 0.
      3.29670347e-002 0. 0. 0. 0. 0. 0. 1.09890113e-002 0. 0. 0. 0. 0.
      0. 0. 0. 0. 0. 0. 0. 6.59340695e-002 0. 6.59340695e-002 0.
      5.49450554e-002 0. 1.09890113e-002 0. 0. 0. 0. 0. 0. 0. 0.
      4.39560451e-002 0. 0. 0. 0. 0. 0. 0. 0. 0. 0. 0. 1.09890113e-002
      3.29670347e-002 1.09890113e-002 0. 0. 0. 0. 0. 0. 0. 0. 0. 0. 0.
      0. 1.09890113e-002 1.09890113e-002 0. 3.29670347e-002 0. 0. 0. 0.
      0. 0. 0. 0. 2.19780225e-002 0. 1.09890113e-002 0. 0.
      1.09890113e-002 0. 0. 0. 2.19780225e-002 1.09890113e-002 0. 0.
      1.09890113e-002 0. 0. 0. 0. 2.19780225e-002 0. 0. 0. 0. 0. 0. 0.
      0. 0. 0. 8.79120901e-002 0. 0. 0. 3.29670347e-002 0. 0. 0. 0. 0.
      0. 0. 0. 0. 0. 0. 0. 0. 0. 0. 0. 1.09890113e-002 0.
      1.09890113e-002 0. 0. 0. 1.09890113e-002 0. 0. 0. 0. 0. 0. 0. 0.
      0. 1.09890113e-002 0. 2.19780225e-002 0. 0. 0. 0. 0. 0. 0. 0. 0.
      0. 0. 0. 0. 1.09890113e-002 2.19780225e-002 0. 0. 1.09890113e-002
      0. 0. 3.29670347e-002 0. 0. 1.09890113e-002 0. 0. 0. 0. 0. 0. 0.
      0. 0. 0. 0. 0. 1.09890113e-002 0. 3.29670347e-002 0. 0. 0. 0.
      1.09890113e-002 0. 0. 0. 0. 0. 0. 0. 1.09890113e-002 0. 0.
      1.09890113e-002 0. 0. 0. 0. 0. 0. 0.</_>
    <_>
      0. 7.93650839e-003 0. 0. 0. 2.38095261e-002 0. 0. 0.
      7.93650839e-003 0. 0. 0. 0. 1.58730168e-002 1.58730168e-002 0. 0.
      0. 0. 7.93650839e-003 0. 0. 1.58730168e-002 0. 0. 0. 0. 0.
      3.96825410e-002 7.93650839e-003 0. 0. 0. 2.38095261e-002 0. 0. 0.
      7.93650839e-003 7.93650839e-003 0. 0. 1.58730168e-002 0. 0. 0. 0.
      0. 0. 0. 0. 1.58730168e-002 7.93650839e-003 0. 0. 0.
      7.93650839e-003 0. 0. 7.93650839e-003 0. 2.38095261e-002 0.
      1.58730168e-002 0. 0. 0. 0. 0. 0. 0. 7.93650839e-003
      7.93650839e-003 0. 7.93650839e-003 0. 0. 1.58730168e-002 0. 0. 0.
      0. 0. 7.93650839e-003 0. 0. 5.55555597e-002 0. 0. 2.38095261e-002
      0. 0. 0. 0. 0. 0. 0. 0. 1.58730168e-002 7.93650839e-003 0. 0. 0.
      0. 0. 0. 0. 0. 0. 0. 0. 0. 0. 0. 0. 0. 3.17460336e-002 0. 0. 0. 0.
      2.38095261e-002 7.93650839e-003 0. 0. 2.38095261e-002 0.
      7.93650839e-003 0. 0. 0. 0. 0. 0. 4.76190522e-002 0. 0. 0. 0. 0.
      0. 0. 0. 1.58730168e-002 1.58730168e-002 0. 0. 0. 0. 0. 0. 0. 0.
      7.93650839e-003 3.17460336e-002 0. 0. 2.38095261e-002
      7.93650839e-003 0. 0. 7.93650839e-003 0. 0. 0. 0. 0. 0.
      7.93650839e-003 7.93650839e-003 0. 0. 0. 0. 0. 0. 0. 0. 0. 0. 0.
      7.93650839e-003 0. 0. 0. 0. 7.93650839e-003 0. 0. 0. 0.
      2.38095261e-002 0. 7.93650839e-003 0. 0. 2.38095261e-002 0.
      7.93650839e-003 7.93650839e-003 0. 0. 0. 0. 0. 1.58730168e-002 0.
      0. 1.58730168e-002 0. 0. 0. 0. 0. 7.93650839e-003 0. 0.
      1.58730168e-002 0. 0. 7.93650839e-003 0. 0. 0. 2.38095261e-002
      2.38095261e-002 1.58730168e-002 0. 0. 0. 1.58730168e-002
      7.93650839e-003 0. 0. 0. 0. 0. 0. 0. 0. 0. 0. 0. 7.93650839e-003
      0. 1.58730168e-002 2.38095261e-002 1.58730168e-002 0. 0. 0. 0. 0.
      0. 0. 0.</_>
    <_>
      0. 0. 0. 2.12765951e-002 0. 3.19148935e-002 0. 0. 0. 0. 0. 0. 0.
      0. 0. 1.06382975e-002 0. 0. 0. 0. 0. 0. 0. 0. 0. 0. 0. 0.
      2.12765951e-002 3.19148935e-002 1.06382975e-002 0. 0. 0.
      1.06382975e-002 0. 0. 0. 0. 0. 0. 0. 0. 0. 0. 0. 0. 0. 0. 0. 0. 0.
      0. 0. 0. 0. 0. 0. 0. 0. 0. 0. 0. 0. 0. 0. 0. 0. 0. 0.
      1.06382975e-002 5.31914867e-002 1.06382975e-002 2.12765951e-002 0.
      1.06382975e-002 0. 5.31914867e-002 0. 0. 0. 0. 0. 0. 0. 0.
      8.51063803e-002 0. 0. 0. 1.06382975e-002 0. 0. 0. 0. 0. 0. 0. 0.
      2.12765951e-002 0. 0. 0. 0. 0. 0. 0. 0. 0. 0. 0. 0. 0. 0.
      1.06382975e-002 0. 2.12765951e-002 0. 0. 0. 0. 1.06382975e-002 0.
      0. 1.06382975e-002 6.38297871e-002 0. 0. 0. 0. 0. 1.06382975e-002
      0. 0. 1.06382975e-002 1.06382975e-002 0. 0. 0. 0. 0. 0. 0.
      3.19148935e-002 2.12765951e-002 0. 0. 0. 0. 0. 0. 0. 0.
      1.06382975e-002 6.38297871e-002 0. 0. 0. 0. 0. 0. 0. 0. 0. 0. 0.
      0. 0. 0. 0. 0. 0. 0. 0. 0. 0. 0. 1.06382975e-002 0. 0. 0.
      3.19148935e-002 0. 0. 0. 0. 0. 0. 0. 0. 0. 2.12765951e-002 0.
      2.12765951e-002 0. 0. 0. 0. 0. 0. 0. 0. 0. 0. 0. 0. 0.
      1.06382975e-002 5.31914867e-002 0. 0. 0. 0. 0. 5.31914867e-002 0.
      0. 1.06382975e-002 0. 0. 0. 0. 0. 0. 0. 0. 0. 0. 0. 0.
      2.12765951e-002 0. 4.25531901e-002 0. 1.06382975e-002 0. 0. 0. 0.
      0. 0. 0. 0. 0. 0. 1.06382975e-002 0. 0. 1.06382975e-002 0. 0. 0.
      0. 0. 0. 0.</_>
    <_>
      0. 1.02040814e-002 1.02040814e-002 2.04081628e-002 0.
      1.02040814e-002 0. 0. 0. 0. 0. 0. 0. 0. 0. 1.02040814e-002 0. 0.
      0. 0. 0. 0. 0. 0. 0. 1.02040814e-002 0. 0. 1.02040814e-002
      4.08163257e-002 4.08163257e-002 1.02040814e-002 0. 0.
      4.08163257e-002 1.02040814e-002 0. 0. 0. 1.02040814e-002 0. 0. 0.
      0. 0. 0. 0. 1.02040814e-002 1.02040814e-002 0. 0. 3.06122452e-002
      1.02040814e-002 0. 0. 0. 0. 0. 0. 0. 0. 0. 0. 0. 0. 0. 0. 0. 0. 0.
      1.02040814e-002 1.02040814e-002 0. 3.06122452e-002 0. 0. 0.
      4.08163257e-002 0. 0. 0. 0. 0. 1.02040814e-002 0. 0.
      3.06122452e-002 0. 0. 0. 0. 0. 0. 0. 0. 0. 0. 0. 1.02040814e-002
      1.02040814e-002 0. 0. 0. 0. 1.02040814e-002 0. 0. 0. 0. 0. 0.
      1.02040814e-002 0. 1.02040814e-002 0. 0. 3.06122452e-002 0. 0. 0.
      0. 0. 0. 0. 0. 3.06122452e-002 0. 0. 0. 0. 0. 0. 0. 0.
      4.08163257e-002 1.02040814e-002 0. 0. 0. 0. 0. 0. 0.
      5.10204062e-002 0. 0. 0. 0. 0. 0. 0. 0. 0. 0. 5.10204062e-002 0.
      0. 0. 0. 0. 0. 0. 0. 0. 0. 0. 0. 0. 0. 0. 0. 0. 0. 0. 0. 0. 0. 0.
      0. 0. 1.02040814e-002 2.04081628e-002 0. 0. 0. 0. 0. 0. 0. 0. 0.
      1.02040814e-002 0. 2.04081628e-002 0. 0. 0. 0. 0. 0. 0. 0. 0. 0.
      0. 0. 0. 2.04081628e-002 5.10204062e-002 0. 0. 0. 0. 0.
      4.08163257e-002 0. 0. 1.02040814e-002 0. 0. 0. 0. 0.
      1.02040814e-002 0. 0. 0. 0. 0. 0. 4.08163257e-002 0.
      3.06122452e-002 0. 0. 0. 0. 1.02040814e-002 0. 0. 0. 0. 0. 0. 0.
      3.06122452e-002 0. 0. 0. 0. 0. 0. 0. 0. 0. 0.</_>
    <_>
      0. 0. 3.48837227e-002 3.48837227e-002 0. 0. 0. 0. 0. 0. 0. 0. 0.
      0. 2.32558139e-002 1.16279069e-002 0. 0. 0. 0. 0. 0. 0. 0. 0. 0.
      0. 0. 0. 4.65116277e-002 5.81395328e-002 0. 0. 0. 1.16279069e-002
      0. 0. 0. 0. 0. 0. 0. 0. 1.16279069e-002 0. 0. 0. 0. 0. 0. 0. 0.
      1.16279069e-002 0. 0. 0. 0. 0. 0. 1.16279069e-002 0. 0. 0.
      1.16279069e-002 0. 0. 0. 0. 0. 0. 0. 1.16279069e-002 0.
      1.16279069e-002 0. 1.16279069e-002 0. 3.48837227e-002 0. 0. 0. 0.
      0. 0. 0. 0. 2.32558139e-002 0. 0. 0. 0. 0. 0. 0. 0. 0. 0. 0.
      3.48837227e-002 2.32558139e-002 0. 0. 0. 0. 0. 0. 0. 0. 0. 0. 0.
      0. 0. 1.16279069e-002 1.16279069e-002 0. 9.30232555e-002 0. 0. 0.
      0. 1.16279069e-002 0. 0. 0. 1.16279069e-002 0. 0. 0. 0.
      1.16279069e-002 1.16279069e-002 0. 0. 2.32558139e-002
      1.16279069e-002 0. 0. 0. 0. 0. 0. 0. 2.32558139e-002 0. 0. 0. 0.
      0. 0. 0. 0. 0. 2.32558139e-002 4.65116277e-002 0. 0.
      1.16279069e-002 5.81395328e-002 0. 0. 0. 0. 0. 0. 0. 0. 0. 0. 0.
      0. 0. 0. 0. 0. 0. 0. 0. 0. 0. 0. 3.48837227e-002 0. 0. 0. 0. 0. 0.
      0. 0. 0. 1.16279069e-002 0. 0. 0. 0. 0. 0. 0. 0. 0. 0. 0. 0.
      1.16279069e-002 2.32558139e-002 0. 0. 2.32558139e-002 0. 0. 0. 0.
      0. 0. 0. 0. 1.16279069e-002 0. 0. 0. 0. 0. 0. 1.16279069e-002
      1.16279069e-002 0. 0. 0. 0. 1.16279069e-002 1.16279069e-002
      1.16279069e-002 0. 0. 0. 0. 1.16279069e-002 0. 0. 0. 0. 0. 0. 0.
      1.16279069e-002 2.32558139e-002 0. 0. 0. 0. 0. 0. 0. 0. 0.</_>
    <_>
      0. 0. 1.02040814e-002 1.02040814e-002 0. 0. 0. 0. 0. 0. 0. 0. 0.
      0. 1.02040814e-002 1.02040814e-002 0. 0. 0. 0. 0. 0. 0. 0. 0. 0.
      0. 1.02040814e-002 1.02040814e-002 7.14285672e-002 1.02040814e-002
      1.02040814e-002 0. 0. 1.02040814e-002 0. 0. 0. 0. 0. 0. 0. 0. 0.
      0. 0. 0. 0. 0. 0. 0. 1.02040814e-002 2.04081628e-002 0. 0. 0. 0.
      0. 0. 0. 0. 0. 0. 0. 0. 0. 0. 0. 0. 0. 1.02040814e-002
      1.02040814e-002 0. 0. 0. 3.06122452e-002 0. 0. 0. 0. 0. 0. 0. 0.
      0. 0. 3.06122452e-002 0. 0. 0. 0. 0. 1.02040814e-002 0. 0. 0. 0.
      0. 2.04081628e-002 1.02040814e-002 0. 0. 0. 0. 1.02040814e-002 0.
      0. 0. 0. 0. 0. 0. 0. 0. 0. 0. 4.08163257e-002 0. 0. 0. 0. 0. 0. 0.
      0. 1.02040814e-002 0. 0. 0. 0. 0. 0. 0. 0. 3.06122452e-002 0. 0.
      0. 0. 0. 0. 0. 0. 7.14285672e-002 0. 0. 0. 0. 0. 0. 0. 0. 0. 0.
      5.10204062e-002 0. 0. 1.02040814e-002 1.02040814e-002 0. 0. 0. 0.
      0. 0. 0. 0. 0. 0. 0. 0. 0. 0. 0. 0. 0. 0. 1.02040814e-002 0. 0. 0.
      1.02040814e-002 0. 0. 0. 0. 2.04081628e-002 0. 0. 0. 0.
      5.10204062e-002 0. 3.06122452e-002 1.02040814e-002 0.
      1.02040814e-002 0. 0. 0. 0. 0. 0. 0. 0. 1.02040814e-002 0.
      2.04081628e-002 0. 0. 0. 0. 0. 0. 3.06122452e-002 0. 0. 0. 0. 0.
      0. 0. 0. 1.02040814e-002 4.08163257e-002 1.02040814e-002
      1.02040814e-002 0. 0. 0. 3.06122452e-002 0. 1.02040814e-002 0.
      1.02040814e-002 0. 0. 1.02040814e-002 0. 0. 1.02040814e-002
      1.02040814e-002 0. 1.02040814e-002 0. 3.06122452e-002
      2.04081628e-002 2.04081628e-002 1.02040814e-002 0. 0. 0. 0. 0. 0.
      0.</_>
    <_>
      0. 9.52380989e-003 1.90476198e-002 9.52380989e-003 0.
      9.52380989e-003 0. 0. 0. 0. 0. 0. 0. 0. 0. 0. 9.52380989e-003 0.
      0. 0. 0. 0. 0. 0. 0. 0. 0. 0. 0. 4.76190485e-002 0. 0. 0. 0.
      1.90476198e-002 0. 0. 0. 9.52380989e-003 9.52380989e-003 0. 0. 0.
      0. 0. 0. 0. 0. 0. 0. 0. 3.80952395e-002 0. 0. 0. 0. 0. 0.
      9.52380989e-003 1.90476198e-002 0. 1.90476198e-002 0.
      9.52380989e-003 0. 0. 0. 0. 0. 0. 0. 0. 0. 9.52380989e-003
      9.52380989e-003 0. 0. 0. 0. 0. 0. 0. 0. 0. 0. 0. 0. 0. 0.
      9.52380989e-003 9.52380989e-003 0. 0. 0. 0. 0. 0. 0.
      5.71428612e-002 9.52380989e-003 3.80952395e-002 0. 1.90476198e-002
      0. 0. 0. 0. 0. 0. 0. 0. 0. 0. 9.52380989e-003 9.52380989e-003 0.
      3.80952395e-002 0. 0. 0. 0. 0. 9.52380989e-003 0. 9.52380989e-003
      0. 0. 0. 0. 0. 0. 0. 0. 0. 2.85714306e-002 0. 0. 0. 0. 0. 0. 0. 0.
      9.52380989e-003 9.52380989e-003 0. 0. 0. 0. 0. 0. 0. 0.
      9.52380989e-003 5.71428612e-002 0. 0. 1.90476198e-002
      2.85714306e-002 0. 0. 0. 0. 0. 0. 0. 0. 0. 0. 0. 0. 0. 0.
      9.52380989e-003 0. 0. 0. 9.52380989e-003 0. 0. 0. 1.90476198e-002
      0. 0. 0. 9.52380989e-003 0. 0. 0. 0. 0. 9.52380989e-003 0.
      6.66666701e-002 0. 0. 9.52380989e-003 0. 0. 0. 0. 0.
      9.52380989e-003 0. 1.90476198e-002 1.90476198e-002 0. 0.
      3.80952395e-002 0. 0. 0. 0. 0. 9.52380989e-003 0. 0.
      3.80952395e-002 0. 0. 0. 0. 0. 9.52380989e-003 9.52380989e-003 0.
      0. 0. 0. 0. 2.85714306e-002 0. 9.52380989e-003 0. 0. 0. 0. 0. 0.
      0. 0. 0. 0. 0. 0. 3.80952395e-002 0. 0. 0. 0. 0. 0. 0. 0. 0. 0.</_>
    <_>
      0. 0. 0. 1.78571437e-002 0. 8.92857183e-003 2.67857164e-002 0. 0.
      0. 0. 0. 0. 0. 1.78571437e-002 0. 8.92857183e-003 0. 0. 0. 0.
      8.92857183e-003 0. 0. 0. 8.92857183e-003 0. 0. 8.92857183e-003
      6.25000000e-002 3.57142873e-002 8.92857183e-003 0. 0.
      2.67857164e-002 0. 0. 0. 0. 0. 0. 0. 0. 0. 0. 0. 0. 0. 0. 0. 0. 0.
      0. 8.92857183e-003 0. 0. 0. 0. 0. 0. 0. 0. 0. 0. 0. 0. 0. 0. 0. 0.
      0. 2.67857164e-002 2.67857164e-002 0. 0. 1.78571437e-002 0.
      8.92857183e-003 0. 0. 0. 0. 0. 8.92857183e-003 0. 0.
      4.46428582e-002 0. 0. 1.78571437e-002 2.67857164e-002 0.
      8.92857183e-003 0. 0. 0. 0. 0. 1.78571437e-002 8.92857183e-003
      1.78571437e-002 0. 8.92857183e-003 0. 0. 0. 0. 0. 0. 0. 0. 0. 0.
      8.92857183e-003 0. 0. 4.46428582e-002 0. 0. 0. 0. 0. 0. 0. 0.
      8.92857183e-003 0. 0. 0. 0. 0. 8.92857183e-003 0. 0.
      4.46428582e-002 8.92857183e-003 0. 0. 0. 0. 0. 0. 0.
      2.67857164e-002 0. 0. 0. 0. 0. 0. 0. 0. 8.92857183e-003
      2.67857164e-002 2.67857164e-002 0. 0. 1.78571437e-002
      2.67857164e-002 0. 0. 0. 0. 0. 0. 0. 0. 0. 0. 0. 0. 0. 0. 0. 0. 0.
      0. 1.78571437e-002 0. 0. 0. 1.78571437e-002 0. 0. 0. 0.
      8.92857183e-003 0. 0. 0. 0. 1.78571437e-002 0. 8.92857183e-003 0.
      0. 8.92857183e-003 0. 0. 8.92857183e-003 0. 0. 0. 0.
      2.67857164e-002 0. 0. 0. 1.78571437e-002 0. 0. 0. 0. 0.
      2.67857164e-002 0. 0. 8.92857183e-003 0. 0. 8.92857183e-003 0. 0.
      0. 0. 8.92857183e-003 8.92857183e-003 0. 8.92857183e-003 0.
      8.92857183e-003 0. 0. 0. 0. 0. 0. 0. 0. 0. 0. 0. 0. 0. 0.
      8.92857183e-003 1.78571437e-002 0. 8.92857183e-003 0. 0. 0. 0. 0.
      0. 0.</_>
    <_>
      0. 0. 2.46913582e-002 0. 0. 0. 2.46913582e-002 0. 0. 0. 0. 0. 0.
      0. 2.46913582e-002 1.23456791e-002 0. 0. 0. 0. 0. 0. 0. 0. 0. 0.
      0. 1.23456791e-002 0. 4.93827164e-002 1.23456791e-002 0. 0. 0.
      1.23456791e-002 0. 0. 0. 0. 0. 0. 0. 0. 0. 0. 0. 0.
      1.23456791e-002 1.23456791e-002 0. 0. 1.23456791e-002 0. 0. 0. 0.
      0. 0. 0. 0. 0. 0. 0. 0. 1.23456791e-002 0. 0. 0. 0. 0. 0.
      1.23456791e-002 0. 2.46913582e-002 0. 1.23456791e-002 0.
      2.46913582e-002 0. 0. 0. 0. 0. 0. 0. 0. 4.93827164e-002 0. 0.
      2.46913582e-002 1.23456791e-002 0. 0. 0. 0. 0. 0. 0.
      1.23456791e-002 1.23456791e-002 0. 0. 0. 0. 0. 0. 0. 0. 0. 0. 0.
      0. 0. 2.46913582e-002 0. 0. 2.46913582e-002 0. 0. 0. 0. 0. 0. 0.
      0. 3.70370373e-002 0. 0. 0. 0. 0. 0. 0. 0. 4.93827164e-002 0. 0.
      0. 0. 0. 0. 0. 0. 2.46913582e-002 0. 0. 0. 0. 0. 0. 0. 0. 0. 0.
      6.17283955e-002 0. 0. 3.70370373e-002 0. 0. 0. 0. 0. 0. 0. 0. 0.
      0. 2.46913582e-002 2.46913582e-002 0. 0. 0. 0. 0. 0. 0.
      1.23456791e-002 0. 0. 0. 0. 0. 0. 0. 0. 0. 0. 0. 0. 0.
      2.46913582e-002 0. 0. 0. 0. 1.23456791e-002 0. 0. 0. 0. 0. 0. 0.
      0. 0. 0. 2.46913582e-002 2.46913582e-002 0. 0. 1.23456791e-002 0.
      0. 2.46913582e-002 0. 0. 0. 0. 0. 0. 0. 0. 0. 0. 2.46913582e-002
      1.23456791e-002 1.23456791e-002 0. 0. 3.70370373e-002 0.
      1.23456791e-002 0. 0. 0. 0. 0. 0. 0. 0. 0. 0. 0. 0. 0.
      3.70370373e-002 0. 0. 0. 0. 0. 0. 0. 0. 1.23456791e-002</_>
    <_>
      0. 0. 2.12765951e-002 4.25531901e-002 1.06382975e-002
      1.06382975e-002 0. 0. 0. 0. 0. 0. 0. 0. 1.06382975e-002
      1.06382975e-002 0. 0. 0. 0. 0. 0. 0. 0. 0. 0. 0. 0. 0.
      4.25531901e-002 3.19148935e-002 0. 0. 0. 1.06382975e-002 0. 0. 0.
      0. 0. 0. 0. 1.06382975e-002 0. 0. 0. 0. 0. 0. 0. 0.
      1.06382975e-002 1.06382975e-002 0. 0. 0. 0. 0. 0. 0. 0. 0. 0.
      1.06382975e-002 0. 0. 0. 0. 0. 0. 0. 1.06382975e-002
      2.12765951e-002 3.19148935e-002 0. 1.06382975e-002 0.
      2.12765951e-002 0. 0. 0. 0. 0. 0. 0. 0. 5.31914867e-002 0. 0. 0.
      2.12765951e-002 0. 0. 0. 0. 0. 0. 0. 1.06382975e-002
      4.25531901e-002 0. 0. 1.06382975e-002 0. 0. 0. 0. 0. 0. 0. 0. 0.
      0. 0. 0. 0. 3.19148935e-002 0. 0. 0. 0. 0. 0. 0. 1.06382975e-002
      2.12765951e-002 0. 1.06382975e-002 0. 0. 0. 0. 0. 0.
      3.19148935e-002 1.06382975e-002 0. 0. 0. 0. 0. 0. 0.
      4.25531901e-002 1.06382975e-002 0. 0. 0. 0. 0. 0. 0. 0. 0.
      5.31914867e-002 0. 0. 0. 2.12765951e-002 0. 0. 0. 0. 0. 0. 0. 0.
      0. 0. 0. 0. 0. 0. 0. 0. 0. 0. 0. 0. 0. 1.06382975e-002
      3.19148935e-002 0. 0. 0. 0. 0. 0. 0. 0. 0. 1.06382975e-002 0.
      1.06382975e-002 0. 0. 3.19148935e-002 0. 0. 1.06382975e-002 0. 0.
      0. 0. 0. 0. 0. 2.12765951e-002 2.12765951e-002 0. 0. 0. 0. 0.
      5.31914867e-002 0. 0. 1.06382975e-002 0. 0. 0. 0. 0. 0. 0. 0.
      1.06382975e-002 0. 0. 0. 1.06382975e-002 0. 3.19148935e-002 0. 0.
      0. 0. 0. 0. 0. 0. 0. 0. 0. 0. 2.12765951e-002 0. 0. 0. 0. 0. 0. 0.
      0. 0. 0.</_>
    <_>
      0. 0. 9.99999978e-003 2.99999993e-002 0. 1.99999996e-002
      1.99999996e-002 0. 0. 9.99999978e-003 0. 0. 0. 0. 0. 0. 0.
      9.99999978e-003 0. 0. 0. 0. 0. 0. 0. 0. 0. 0. 0. 0.
      1.99999996e-002 0. 0. 0. 0. 0. 0. 0. 0. 9.99999978e-003 0. 0. 0.
      0. 0. 0. 0. 0. 9.99999978e-003 0. 0. 9.99999978e-003
      9.99999978e-003 0. 0. 0. 0. 0. 0. 1.99999996e-002 0.
      9.99999978e-003 0. 0. 0. 0. 0. 0. 0. 0. 0. 9.99999978e-003 0.
      9.99999978e-003 1.99999996e-002 9.99999978e-003 0. 9.99999978e-003
      0. 0. 0. 0. 0. 9.99999978e-003 0. 0. 3.99999991e-002 0. 0.
      1.99999996e-002 0. 0. 0. 0. 9.99999978e-003 0. 0. 0.
      4.99999970e-002 9.99999978e-003 9.99999978e-003 0. 9.99999978e-003
      0. 0. 0. 0. 0. 0. 0. 0. 0. 0. 0. 0. 0. 1.99999996e-002 0. 0.
      9.99999978e-003 0. 0. 0. 0. 9.99999978e-003 9.99999978e-003 0. 0.
      0. 0. 0. 0. 0. 0. 4.99999970e-002 9.99999978e-003 0. 0. 0. 0. 0.
      0. 0. 2.99999993e-002 0. 0. 0. 0. 0. 0. 0. 0. 0. 1.99999996e-002
      5.99999987e-002 0. 0. 9.99999978e-003 0. 0. 0. 0. 0. 0. 0. 0. 0.
      0. 0. 0. 0. 0. 0. 9.99999978e-003 0. 0. 0. 0. 0. 0. 0.
      1.99999996e-002 0. 0. 0. 0. 0. 0. 0. 0. 0. 2.99999993e-002 0.
      7.00000003e-002 0. 0. 9.99999978e-003 0. 0. 0. 0. 0. 0. 0. 0. 0.
      0. 0. 1.99999996e-002 0. 0. 0. 0. 0. 4.99999970e-002 0. 0.
      2.99999993e-002 0. 0. 0. 0. 0. 0. 9.99999978e-003 0. 0. 0. 0. 0.
      2.99999993e-002 0. 9.99999978e-003 0. 0. 0. 0. 0. 0. 0. 0. 0. 0.
      0. 0. 2.99999993e-002 1.99999996e-002 0. 9.99999978e-003 0. 0. 0.
      0. 0. 0. 9.99999978e-003</_>
    <_>
      0. 1.06382975e-002 1.06382975e-002 0. 0. 2.12765951e-002
      3.19148935e-002 0. 0. 1.06382975e-002 0. 0. 0. 0. 0. 0. 0. 0. 0.
      0. 4.25531901e-002 0. 0. 0. 1.06382975e-002 0. 0. 0. 0.
      2.12765951e-002 2.12765951e-002 0. 0. 0. 1.06382975e-002 0. 0. 0.
      0. 0. 0. 0. 1.06382975e-002 0. 0. 0. 0. 0. 0. 1.06382975e-002 0.
      0. 1.06382975e-002 0. 1.06382975e-002 0. 0. 0. 0. 0. 0. 0. 0.
      1.06382975e-002 0. 0. 0. 0. 0. 0. 0. 1.06382975e-002 0.
      2.12765951e-002 0. 0. 0. 0. 0. 0. 0. 0. 0. 0. 0. 0.
      2.12765951e-002 0. 0. 0. 1.06382975e-002 0. 0. 0. 0. 0. 0.
      1.06382975e-002 0. 0. 0. 0. 0. 0. 0. 0. 0. 0. 0. 0. 0. 0. 0.
      1.06382975e-002 1.06382975e-002 0. 6.38297871e-002 0. 0. 0. 0. 0.
      0. 0. 1.06382975e-002 2.12765951e-002 0. 1.06382975e-002 0. 0.
      1.06382975e-002 0. 0. 0. 2.12765951e-002 1.06382975e-002 0. 0. 0.
      0. 0. 0. 1.06382975e-002 2.12765951e-002 0. 0. 1.06382975e-002 0.
      0. 0. 0. 0. 1.06382975e-002 0. 6.38297871e-002 0. 0.
      2.12765951e-002 1.06382975e-002 0. 1.06382975e-002 0. 0. 0. 0. 0.
      0. 0. 1.06382975e-002 1.06382975e-002 0. 0. 0. 0. 0. 0. 0. 0. 0.
      0. 0. 0. 0. 0. 0. 0. 0. 0. 0. 0. 0. 4.25531901e-002 0.
      2.12765951e-002 0. 0. 1.06382975e-002 0. 0. 0. 0. 0. 0. 0. 0. 0.
      0. 1.06382975e-002 1.06382975e-002 0. 0. 0. 0. 0. 3.19148935e-002
      0. 0. 3.19148935e-002 0. 0. 0. 0. 0. 3.19148935e-002 0.
      2.12765951e-002 2.12765951e-002 0. 0. 1.06382975e-002
      1.06382975e-002 1.06382975e-002 0. 0. 0. 0. 0. 0. 0. 0. 0.
      1.06382975e-002 0. 3.19148935e-002 0. 1.06382975e-002 0. 0.
      1.06382975e-002 0. 0. 0. 0. 0. 0. 0.</_>
    <_>
      0. 1.56250000e-002 1.56250000e-002 2.34375000e-002 0. 0.
      1.56250000e-002 0. 0. 0. 0. 0. 0. 0. 7.81250000e-003
      1.56250000e-002 0. 0. 0. 0. 0. 0. 0. 0. 0. 0. 0. 0.
      7.81250000e-003 1.56250000e-002 2.34375000e-002 1.56250000e-002 0.
      0. 7.81250000e-003 0. 0. 0. 0. 0. 0. 0. 0. 0. 0. 0. 0. 0. 0. 0. 0.
      7.81250000e-003 7.81250000e-003 7.81250000e-003 0. 0. 0. 0. 0. 0.
      0. 1.56250000e-002 0. 7.81250000e-003 7.81250000e-003 0. 0. 0. 0.
      0. 0. 7.81250000e-003 0. 3.12500000e-002 3.90625000e-002
      7.81250000e-003 0. 3.12500000e-002 0. 0. 0. 0. 0. 0. 0. 0.
      2.34375000e-002 0. 0. 0. 0. 0. 7.81250000e-003 0. 0. 0. 0. 0.
      1.56250000e-002 1.56250000e-002 0. 0. 7.81250000e-003 0. 0. 0. 0.
      0. 0. 0. 0. 7.81250000e-003 0. 0. 7.81250000e-003 0.
      3.12500000e-002 0. 0. 0. 0. 0. 7.81250000e-003 0. 0.
      3.12500000e-002 0. 0. 0. 0. 0. 0. 0. 0. 4.68750000e-002 0. 0. 0.
      0. 0. 0. 0. 0. 3.12500000e-002 7.81250000e-003 0. 0. 0.
      7.81250000e-003 0. 0. 0. 7.81250000e-003 7.81250000e-003
      3.12500000e-002 0. 0. 0. 1.56250000e-002 0. 0. 0. 0. 0. 0. 0. 0.
      0. 0. 0. 0. 0. 0. 0. 0. 0. 0. 0. 0. 0. 0. 1.56250000e-002 0. 0. 0.
      0. 0. 0. 0. 0. 7.81250000e-003 3.90625000e-002 0. 0. 0.
      7.81250000e-003 7.81250000e-003 0. 0. 0. 0. 0. 0. 0.
      3.12500000e-002 0. 0. 3.12500000e-002 4.68750000e-002 0. 0. 0. 0.
      7.81250000e-003 1.56250000e-002 0. 0. 0. 0. 7.81250000e-003
      7.81250000e-003 0. 0. 0. 0. 0. 7.81250000e-003 0. 0. 0. 0.
      1.56250000e-002 7.81250000e-003 7.81250000e-003 0. 0. 0. 0. 0. 0.
      7.81250000e-003 0. 0. 1.56250000e-002 0. 4.68750000e-002
      7.81250000e-003 0. 0. 0. 0. 0. 7.81250000e-003 0. 0. 0.</_>
    <_>
      0. 8.84955749e-003 0. 0. 0. 0. 1.76991150e-002 0. 0.
      1.76991150e-002 0. 0. 0. 8.84955749e-003 0. 0. 0. 0. 0. 0. 0. 0.
      0. 0. 0. 8.84955749e-003 0. 0. 0. 3.53982300e-002 2.65486725e-002
      0. 0. 0. 1.76991150e-002 0. 0. 0. 0. 8.84955749e-003 0. 0. 0. 0.
      0. 0. 0. 8.84955749e-003 0. 0. 0. 1.76991150e-002 0. 0. 0. 0. 0.
      0. 0. 0. 0. 8.84955749e-003 0. 2.65486725e-002 0. 0. 0. 0. 0. 0.
      0. 8.84955749e-003 1.76991150e-002 0. 0. 0. 0. 6.19469024e-002 0.
      0. 0. 0. 0. 0. 0. 0. 6.19469024e-002 0. 0. 8.84955749e-003
      8.84955749e-003 0. 0. 0. 8.84955749e-003 0. 0. 0. 6.19469024e-002
      8.84955749e-003 0. 0. 3.53982300e-002 0. 0. 0. 0. 0. 0. 0. 0. 0.
      0. 8.84955749e-003 0. 0. 4.42477874e-002 0. 0. 0. 0. 0. 0. 0.
      8.84955749e-003 8.84955749e-003 0. 0. 0. 0. 0. 0. 0. 0.
      1.76991150e-002 8.84955749e-003 0. 0. 0. 0. 0. 0. 0. 0. 0. 0. 0.
      0. 0. 0. 0. 0. 0. 8.84955749e-003 3.53982300e-002 0. 0.
      8.84955749e-003 3.53982300e-002 0. 8.84955749e-003 0. 0. 0. 0. 0.
      0. 0. 0. 0. 0. 0. 0. 0. 0. 0. 0. 8.84955749e-003 0. 0. 0.
      3.53982300e-002 0. 0. 0. 0. 0. 0. 0. 0. 0. 8.84955749e-003 0.
      1.76991150e-002 0. 0. 8.84955749e-003 0. 0. 0. 0. 0. 0. 0.
      8.84955749e-003 2.65486725e-002 0. 2.65486725e-002 3.53982300e-002
      0. 0. 0. 0. 0. 8.84955749e-003 0. 0. 2.65486725e-002 0. 0. 0. 0.
      0. 0. 2.65486725e-002 1.76991150e-002 0. 0. 0. 0. 0. 0. 0. 0. 0.
      0. 0. 8.84955749e-003 0. 0. 0. 0. 0. 8.84955749e-003 0.
      1.76991150e-002 1.76991150e-002 0. 0. 0. 0. 0. 0. 0. 0. 0.</_>
    <_>
      0. 7.14285718e-003 7.14285718e-003 2.14285720e-002 0.
      7.14285718e-003 1.42857144e-002 0. 7.14285718e-003 0. 0. 0. 0. 0.
      0. 1.42857144e-002 0. 0. 0. 0. 0. 1.42857144e-002 7.14285718e-003
      0. 0. 7.14285718e-003 0. 0. 1.42857144e-002 4.28571440e-002
      1.42857144e-002 7.14285718e-003 0. 0. 2.85714287e-002 0. 0. 0. 0.
      7.14285718e-003 0. 0. 0. 0. 0. 0. 0. 0. 0. 0. 0. 0.
      1.42857144e-002 0. 0. 0. 0. 0. 0. 0. 0. 0. 0. 1.42857144e-002 0.
      0. 0. 0. 0. 0. 7.14285718e-003 0. 1.42857144e-002 1.42857144e-002
      1.42857144e-002 7.14285718e-003 0. 1.42857144e-002 0. 0. 0. 0. 0.
      0. 0. 0. 7.14285746e-002 0. 0. 0. 0. 0. 7.14285718e-003 0.
      1.42857144e-002 1.42857144e-002 0. 0. 7.14285718e-003
      1.42857144e-002 1.42857144e-002 0. 7.14285718e-003 0.
      7.14285718e-003 0. 0. 0. 0. 0. 0. 0. 0. 7.14285718e-003 0. 0.
      5.71428575e-002 0. 0. 0. 0. 0. 0. 0. 2.85714287e-002
      7.14285718e-003 0. 7.14285718e-003 0. 0. 0. 7.14285718e-003 0. 0.
      3.57142873e-002 7.14285718e-003 0. 0. 7.14285718e-003 0. 0. 0. 0.
      3.57142873e-002 0. 0. 0. 0. 0. 0. 0. 0. 0. 2.14285720e-002
      4.28571440e-002 0. 0. 0. 1.42857144e-002 0. 7.14285718e-003 0. 0.
      0. 0. 0. 0. 0. 7.14285718e-003 0. 0. 0. 0. 7.14285718e-003 0. 0.
      0. 0. 0. 0. 0. 7.14285718e-003 0. 0. 0. 0. 7.14285718e-003 0. 0.
      0. 0. 0. 0. 7.14285718e-003 0. 7.14285718e-003 7.14285718e-003 0.
      7.14285718e-003 0. 0. 0. 0. 0. 2.14285720e-002 7.14285718e-003 0.
      7.14285718e-003 1.42857144e-002 0. 0. 0. 0. 0. 7.14285718e-003 0.
      0. 0. 0. 0. 7.14285718e-003 0. 0. 0. 0. 0. 7.14285718e-003 0. 0.
      0. 3.57142873e-002 0. 2.14285720e-002 0. 0. 0. 0. 1.42857144e-002
      0. 7.14285718e-003 0. 0. 0. 0. 0. 7.14285718e-003 7.14285718e-003
      7.14285718e-003 7.14285718e-003 0. 0. 0. 0. 0. 0. 0.</_>
    <_>
      0. 0. 7.24637695e-003 1.44927539e-002 0. 2.89855078e-002
      7.24637695e-003 0. 0. 0. 0. 0. 0. 0. 7.24637695e-003 0.
      7.24637695e-003 0. 0. 0. 0. 7.24637695e-003 0. 0. 0. 0. 0. 0.
      1.44927539e-002 1.44927539e-002 0. 0. 0. 0. 2.17391308e-002 0. 0.
      0. 0. 0. 0. 0. 7.24637695e-003 0. 0. 0. 0. 0. 0. 0. 0.
      3.62318829e-002 0. 1.44927539e-002 0. 0. 0. 0. 0. 7.24637695e-003
      0. 7.24637695e-003 0. 0. 0. 0. 0. 0. 0. 0. 0. 7.24637695e-003
      7.24637695e-003 1.44927539e-002 1.44927539e-002 1.44927539e-002 0.
      2.17391308e-002 0. 0. 0. 0. 0. 0. 0. 0. 3.62318829e-002
      7.24637695e-003 0. 0. 2.17391308e-002 0. 7.24637695e-003 0. 0. 0.
      0. 0. 7.97101483e-002 7.24637695e-003 7.24637695e-003 0.
      1.44927539e-002 0. 0. 0. 0. 0. 0. 0. 0. 0. 0. 0. 1.44927539e-002
      0. 2.89855078e-002 0. 0. 0. 0. 7.24637695e-003 0. 0. 0.
      2.89855078e-002 0. 0. 0. 0. 0. 1.44927539e-002 0. 0.
      2.17391308e-002 2.17391308e-002 0. 0. 0. 0. 0. 0. 0.
      2.89855078e-002 0. 0. 0. 0. 0. 0. 0. 0. 7.24637695e-003
      3.62318829e-002 3.62318829e-002 0. 0. 1.44927539e-002
      1.44927539e-002 0. 0. 0. 0. 0. 0. 0. 0. 0. 0. 0. 0. 0. 0. 0.
      7.24637695e-003 7.24637695e-003 0. 7.24637695e-003 0. 0. 0.
      1.44927539e-002 0. 0. 0. 0. 0. 0. 0. 0. 0. 2.17391308e-002 0.
      2.17391308e-002 0. 1.44927539e-002 1.44927539e-002 0. 0. 0. 0. 0.
      0. 0. 2.17391308e-002 7.24637695e-003 0. 7.24637695e-003
      2.89855078e-002 0. 0. 0. 0. 0. 7.24637695e-003 0. 0.
      1.44927539e-002 0. 0. 7.24637695e-003 0. 0. 7.24637695e-003
      1.44927539e-002 7.24637695e-003 7.24637695e-003 0. 0. 0. 0. 0. 0.
      7.24637695e-003 0. 0. 0. 7.24637695e-003 0. 0. 0. 0. 0. 0. 0. 0.
      7.24637695e-003 0. 0. 0. 0. 0. 0. 0. 0. 0.</_>
    <_>
      0. 0. 1.05263162e-002 0. 0. 0. 0. 0. 0. 0. 0. 0. 0. 0. 0. 0. 0. 0.
      0. 0. 0. 0. 0. 1.05263162e-002 0. 0. 0. 0. 2.10526325e-002
      1.05263162e-002 3.15789506e-002 0. 0. 0. 0. 0. 0. 0. 0. 0. 0. 0.
      0. 0. 0. 0. 0. 0. 0. 0. 0. 0. 0. 0. 0. 0. 0. 0. 0. 1.05263162e-002
      0. 0. 0. 0. 1.05263162e-002 0. 0. 0. 0. 0. 1.05263162e-002 0. 0.
      5.26315793e-002 1.05263162e-002 3.15789506e-002 0. 3.15789506e-002
      0. 0. 0. 0. 0. 0. 0. 0. 3.15789506e-002 0. 0. 1.05263162e-002
      1.05263162e-002 0. 0. 0. 1.05263162e-002 0. 0. 0. 0.
      1.05263162e-002 0. 0. 0. 0. 1.05263162e-002 0. 0. 0. 0. 0. 0. 0.
      0. 0. 0. 0. 2.10526325e-002 0. 0. 1.05263162e-002 0.
      1.05263162e-002 1.05263162e-002 0. 0. 1.05263159e-001 0. 0. 0. 0.
      0. 1.05263162e-002 0. 0. 5.26315793e-002 0. 0. 0. 0. 0. 0. 0. 0.
      9.47368443e-002 0. 0. 0. 0. 0. 0. 0. 0. 0. 0. 3.15789506e-002 0.
      0. 0. 3.15789506e-002 0. 1.05263162e-002 0. 0. 0. 0. 0. 0. 0. 0.
      0. 0. 0. 0. 0. 0. 0. 0. 0. 0. 0. 0. 3.15789506e-002 0. 0. 0. 0. 0.
      0. 0. 0. 0. 1.05263162e-002 0. 2.10526325e-002 0. 0.
      1.05263162e-002 0. 0. 0. 0. 0. 0. 0. 0. 1.05263162e-002 0.
      2.10526325e-002 3.15789506e-002 0. 0. 0. 0. 0. 1.05263162e-002 0.
      0. 4.21052650e-002 0. 0. 0. 0. 0. 0. 0. 1.05263162e-002 0. 0. 0.
      0. 1.05263162e-002 1.05263162e-002 2.10526325e-002 1.05263162e-002
      0. 0. 0. 0. 0. 1.05263162e-002 0. 0. 0. 0. 0. 1.05263162e-002 0.
      0. 0. 0. 0. 0. 0. 0. 0. 1.05263162e-002</_>
    <_>
      0. 9.70873795e-003 0. 9.70873795e-003 0. 0. 2.91262139e-002 0. 0.
      0. 0. 9.70873795e-003 0. 0. 0. 0. 0. 0. 0. 0. 0. 0. 0.
      9.70873795e-003 0. 0. 0. 0. 9.70873795e-003 9.70873795e-003
      1.94174759e-002 0. 0. 0. 9.70873795e-003 0. 0. 0. 0. 0. 0. 0. 0.
      0. 0. 0. 0. 0. 0. 0. 0. 1.94174759e-002 3.88349518e-002 0. 0. 0.
      0. 0. 0. 0. 0. 0. 0. 0. 0. 0. 0. 0. 0. 0. 0. 1.94174759e-002
      9.70873795e-003 1.94174759e-002 0. 3.88349518e-002 0.
      3.88349518e-002 0. 0. 0. 0. 0. 0. 0. 0. 2.91262139e-002 0. 0.
      9.70873795e-003 0. 0. 1.94174759e-002 0. 0. 0. 0. 0. 0. 0. 0. 0.
      0. 0. 0. 0. 0. 0. 0. 0. 0. 0. 0. 9.70873795e-003 9.70873795e-003
      0. 9.70873795e-003 0. 0. 0. 0. 0. 0. 0. 0. 5.82524277e-002 0.
      1.94174759e-002 0. 0. 0. 0. 0. 0. 3.88349518e-002 9.70873795e-003
      0. 0. 0. 0. 0. 0. 0. 4.85436916e-002 0. 0. 0. 0. 0. 0. 0. 0. 0. 0.
      5.82524277e-002 0. 0. 0. 5.82524277e-002 0. 0. 0. 0. 0. 0. 0. 0.
      0. 0. 0. 0. 0. 0. 0. 0. 0. 0. 9.70873795e-003 0. 0. 0.
      1.94174759e-002 0. 0. 0. 0. 0. 0. 0. 0. 0. 0. 0. 0. 0. 0. 0. 0. 0.
      0. 0. 0. 0. 0. 9.70873795e-003 0. 0. 0. 2.91262139e-002 0. 0. 0.
      0. 9.70873795e-003 5.82524277e-002 0. 0. 2.91262139e-002 0. 0. 0.
      0. 0. 9.70873795e-003 1.94174759e-002 0. 9.70873795e-003 0. 0. 0.
      0. 0. 2.91262139e-002 0. 0. 0. 0. 9.70873795e-003 0. 0. 0. 0. 0.
      9.70873795e-003 0. 2.91262139e-002 1.94174759e-002 9.70873795e-003
      9.70873795e-003 0. 0. 0. 0. 0. 0. 0.</_>
    <_>
      0. 1.92307699e-002 9.61538497e-003 9.61538497e-003 0.
      9.61538497e-003 0. 0. 0. 0. 0. 0. 0. 0. 9.61538497e-003 0.
      9.61538497e-003 0. 0. 0. 9.61538497e-003 0. 0. 0. 0.
      1.92307699e-002 0. 0. 0. 3.84615399e-002 1.92307699e-002 0. 0. 0.
      9.61538497e-003 0. 0. 0. 9.61538497e-003 0. 0. 0. 0. 0. 0. 0. 0.
      0. 0. 0. 0. 0. 2.88461559e-002 0. 0. 9.61538497e-003 0. 0. 0. 0.
      0. 0. 0. 1.92307699e-002 9.61538497e-003 0. 0. 0. 0. 0. 0.
      2.88461559e-002 0. 3.84615399e-002 0. 1.92307699e-002 0. 0. 0. 0.
      0. 0. 0. 0. 0. 0. 2.88461559e-002 2.88461559e-002 0. 0. 0. 0. 0.
      0. 0. 9.61538497e-003 0. 0. 0. 1.92307699e-002 1.92307699e-002 0.
      0. 0. 0. 0. 0. 0. 0. 0. 0. 0. 0. 0. 2.88461559e-002 0.
      2.88461559e-002 0. 0. 0. 0. 0. 0. 0. 0. 1.92307699e-002 0. 0. 0.
      0. 9.61538497e-003 9.61538497e-003 0. 0. 3.84615399e-002 0. 0. 0.
      0. 0. 0. 0. 0. 1.92307699e-002 0. 0. 0. 0. 0. 0. 0. 0.
      2.88461559e-002 0. 1.05769232e-001 0. 0. 9.61538497e-003
      9.61538497e-003 0. 0. 0. 9.61538497e-003 0. 0. 0. 0. 0. 0. 0. 0.
      0. 0. 0. 0. 0. 0. 9.61538497e-003 0. 0. 0. 0. 0. 0. 0. 0. 0. 0. 0.
      0. 0. 9.61538497e-003 0. 0. 0. 0. 0. 0. 0. 0. 0. 0. 0. 0. 0.
      9.61538497e-003 0. 2.88461559e-002 1.92307699e-002 0. 0. 0. 0. 0.
      3.84615399e-002 0. 0. 9.61538497e-003 0. 0. 0. 0. 0. 0.
      1.92307699e-002 0. 0. 0. 0. 0. 1.92307699e-002 0. 4.80769239e-002
      0. 0. 0. 0. 0. 0. 0. 0. 0. 0. 9.61538497e-003 0. 1.92307699e-002
      0. 0. 9.61538497e-003 0. 0. 0. 0. 0. 0. 0.</_>
    <_>
      0. 2.53164563e-002 2.53164563e-002 0. 1.26582282e-002
      5.06329127e-002 0. 0. 0. 0. 0. 0. 0. 0. 1.26582282e-002 0. 0. 0.
      0. 0. 0. 0. 0. 0. 0. 0. 0. 0. 0. 1.26582282e-002 1.26582282e-002
      0. 0. 0. 1.26582282e-002 0. 0. 0. 0. 0. 0. 0. 0. 0. 0. 0. 0. 0. 0.
      0. 0. 0. 0. 0. 0. 0. 0. 0. 1.26582282e-002 0. 1.26582282e-002 0.
      0. 0. 0. 0. 0. 0. 0. 0. 0. 3.79746854e-002 0. 3.79746854e-002 0.
      3.79746854e-002 0. 2.53164563e-002 0. 0. 0. 0. 0. 0. 0. 0.
      7.59493709e-002 0. 0. 0. 0. 0. 1.26582282e-002 0. 0. 0. 0. 0. 0.
      0. 0. 0. 0. 0. 0. 0. 0. 0. 0. 0. 0. 0. 0. 0. 0. 0. 2.53164563e-002
      0. 0. 0. 0. 0. 0. 0. 0. 1.26582282e-002 0. 0. 0. 0.
      2.53164563e-002 0. 0. 0. 5.06329127e-002 1.26582282e-002 0. 0. 0.
      0. 0. 0. 0. 1.26582282e-002 0. 0. 0. 0. 0. 0. 0. 0. 0. 0.
      3.79746854e-002 0. 0. 3.79746854e-002 0. 0. 0. 0. 0. 0. 0. 0. 0.
      0. 0. 1.26582282e-002 0. 0. 0. 0. 1.26582282e-002 0. 0.
      1.26582282e-002 0. 0. 0. 5.06329127e-002 0. 0. 0. 0. 0. 0.
      2.53164563e-002 0. 0. 2.53164563e-002 0. 3.79746854e-002 0. 0. 0.
      0. 0. 0. 0. 0. 0. 0. 0. 0. 0. 0. 2.53164563e-002 0. 0. 0. 0.
      1.26582282e-002 3.79746854e-002 0. 0. 0. 0. 0. 1.26582282e-002 0.
      1.26582282e-002 0. 0. 0. 0. 0. 0. 0. 2.53164563e-002 0.
      3.79746854e-002 0. 0. 0. 0. 1.26582282e-002 0. 0. 0. 0. 0. 0. 0.
      1.26582282e-002 0. 0. 0. 0. 0. 0. 0. 0. 0. 0.</_>
    <_>
      0. 9.17431153e-003 1.83486231e-002 9.17431153e-003 0.
      2.75229346e-002 0. 0. 0. 0. 0. 0. 0. 0. 1.83486231e-002
      1.83486231e-002 0. 0. 0. 0. 0. 0. 9.17431153e-003 0. 0.
      9.17431153e-003 0. 0. 2.75229346e-002 9.17431153e-003
      9.17431153e-003 9.17431153e-003 0. 0. 3.66972461e-002 0. 0. 0. 0.
      0. 0. 0. 9.17431153e-003 0. 0. 0. 0. 0. 0. 0. 0. 1.83486231e-002
      9.17431153e-003 0. 0. 0. 0. 0. 0. 1.83486231e-002 0.
      9.17431153e-003 0. 9.17431153e-003 0. 0. 0. 0. 0. 0. 0.
      1.83486231e-002 0. 1.83486231e-002 0. 0. 0. 4.58715558e-002
      9.17431153e-003 0. 0. 0. 0. 0. 0. 0. 1.83486231e-002 0. 0.
      1.83486231e-002 0. 0. 0. 0. 9.17431153e-003 0. 0. 0.
      9.17431153e-003 9.17431153e-003 0. 0. 0. 0. 9.17431153e-003 0. 0.
      0. 0. 0. 0. 0. 0. 0. 0. 0. 3.66972461e-002 0. 0. 0. 0. 0. 0. 0. 0.
      3.66972461e-002 0. 1.83486231e-002 0. 0. 9.17431153e-003 0. 0. 0.
      4.58715558e-002 0. 0. 0. 0. 0. 0. 0. 0. 1.83486231e-002 0. 0. 0.
      0. 0. 0. 0. 0. 0. 9.17431153e-003 2.75229346e-002 0.
      9.17431153e-003 2.75229346e-002 9.17431153e-003 0. 0. 0. 0. 0. 0.
      0. 0. 0. 1.83486231e-002 9.17431153e-003 0. 0. 0. 0. 0. 0. 0.
      9.17431153e-003 0. 0. 0. 9.17431153e-003 0. 0. 0. 0. 0. 0. 0. 0.
      0. 9.17431153e-003 0. 1.83486231e-002 0. 0. 0. 0. 0. 0. 0. 0. 0.
      0. 0. 0. 0. 9.17431153e-003 6.42201826e-002 0. 0. 0. 0. 0. 0. 0.
      0. 9.17431153e-003 0. 0. 0. 0. 0. 9.17431153e-003 0.
      1.83486231e-002 9.17431153e-003 0. 0. 0. 2.75229346e-002 0.
      1.83486231e-002 0. 0. 0. 0. 1.83486231e-002 0. 0. 0. 0. 0. 0. 0.
      2.75229346e-002 1.83486231e-002 0. 0. 0. 0. 0. 0. 0. 0. 0.</_>
    <_>
      0. 0. 1.94805190e-002 0. 0. 6.49350649e-003 1.94805190e-002 0.
      6.49350649e-003 0. 0. 0. 0. 0. 0. 0. 0. 0. 0. 0. 0. 0. 0. 0. 0. 0.
      0. 0. 6.49350649e-003 3.89610380e-002 4.54545468e-002 0. 0. 0. 0.
      0. 0. 0. 0. 0. 0. 0. 6.49350649e-003 0. 0. 0. 0. 0.
      6.49350649e-003 0. 0. 6.49350649e-003 3.89610380e-002
      6.49350649e-003 0. 6.49350649e-003 0. 0. 0. 3.24675329e-002 0. 0.
      0. 6.49350649e-003 0. 0. 0. 0. 0. 0. 0. 1.29870130e-002
      6.49350649e-003 6.49350649e-003 1.29870130e-002 1.94805190e-002 0.
      1.94805190e-002 0. 0. 0. 0. 0. 0. 0. 0. 3.89610380e-002 0. 0.
      1.94805190e-002 1.94805190e-002 0. 0. 0. 0. 6.49350649e-003 0. 0.
      6.49350649e-003 0. 3.24675329e-002 0. 6.49350649e-003 0. 0. 0. 0.
      0. 0. 0. 0. 0. 0. 0. 6.49350649e-003 0. 3.24675329e-002 0. 0. 0.
      0. 0. 0. 0. 2.59740259e-002 6.49350649e-003 0. 0. 0. 0.
      1.29870130e-002 0. 0. 0. 2.59740259e-002 0. 0. 0. 0. 0. 0. 0. 0.
      1.94805190e-002 3.89610380e-002 0. 0. 0. 0. 0. 0. 0.
      1.29870130e-002 1.94805190e-002 6.49350658e-002 0. 0.
      6.49350649e-003 2.59740259e-002 0. 0. 0. 0. 0. 0. 0. 0. 0.
      6.49350649e-003 0. 0. 0. 0. 1.29870130e-002 1.29870130e-002 0. 0.
      0. 0. 0. 0. 1.94805190e-002 0. 0. 0. 0. 0. 0. 0. 0. 0.
      2.59740259e-002 0. 6.49350649e-003 0. 6.49350649e-003
      1.29870130e-002 0. 0. 0. 0. 0. 0. 0. 5.19480519e-002
      6.49350649e-003 0. 1.29870130e-002 0. 0. 0. 0. 0. 0. 0. 0. 0. 0.
      0. 0. 0. 0. 0. 6.49350649e-003 0. 6.49350649e-003 0. 0. 0. 0.
      1.29870130e-002 0. 1.29870130e-002 0. 0. 0. 0. 6.49350649e-003 0.
      0. 0. 0. 0. 0. 0. 0. 1.29870130e-002 6.49350649e-003 0. 0. 0. 0.
      0. 0. 0. 0.</_>
    <_>
      0. 9.17431153e-003 0. 0. 0. 9.17431153e-003 9.17431153e-003 0.
      9.17431153e-003 1.83486231e-002 0. 0. 0. 0. 0. 9.17431153e-003 0.
      0. 0. 0. 0. 0. 1.83486231e-002 0. 0. 1.83486231e-002 0. 0.
      9.17431153e-003 4.58715558e-002 0. 0. 0. 0. 2.75229346e-002 0. 0.
      0. 0. 0. 0. 0. 0. 0. 0. 0. 0. 0. 0. 0. 0. 9.17431153e-003
      9.17431153e-003 0. 0. 0. 0. 0. 0. 0. 0. 0. 0. 0. 0. 0. 0. 0. 0. 0.
      0. 9.17431153e-003 0. 1.83486231e-002 0. 9.17431153e-003 0.
      9.17431153e-003 0. 0. 0. 0. 0. 0. 0. 0. 9.17431153e-003 0. 0.
      3.66972461e-002 4.58715558e-002 0. 9.17431153e-003 0.
      9.17431153e-003 9.17431153e-003 0. 0. 9.17431153e-003
      9.17431153e-003 2.75229346e-002 0. 9.17431153e-003 0. 0. 0. 0. 0.
      0. 0. 0. 0. 0. 9.17431153e-003 0. 0. 5.50458692e-002 0. 0. 0. 0.
      0. 0. 0. 9.17431153e-003 0. 0. 0. 0. 0. 0. 1.83486231e-002 0. 0.
      3.66972461e-002 9.17431153e-003 0. 0. 0. 0. 0. 0. 0.
      9.17431153e-003 0. 0. 0. 0. 0. 0. 0. 0. 1.83486231e-002
      1.83486231e-002 3.66972461e-002 0. 0. 0. 0. 0. 0. 9.17431153e-003
      0. 0. 0. 0. 0. 0. 2.75229346e-002 9.17431153e-003 0. 0. 0. 0. 0.
      0. 0. 0. 0. 0. 0. 0. 0. 0. 0. 0. 0. 0. 0. 0. 0. 0. 0. 0. 0.
      9.17431153e-003 1.83486231e-002 0. 0. 0. 0. 0. 0. 0.
      3.66972461e-002 9.17431153e-003 0. 9.17431153e-003 2.75229346e-002
      1.83486231e-002 0. 0. 0. 1.83486231e-002 9.17431153e-003 0. 0. 0.
      0. 0. 0. 0. 0. 0. 2.75229346e-002 1.83486231e-002 0. 0. 0. 0.
      2.75229346e-002 0. 9.17431153e-003 0. 0. 0. 0. 1.83486231e-002 0.
      0. 0. 0. 0. 0. 0. 2.75229346e-002 9.17431153e-003 1.83486231e-002
      0. 0. 0. 0. 0. 0. 0. 0.</_>
    <_>
      0. 0. 0. 1.42857144e-002 0. 2.85714287e-002 1.42857144e-002 0. 0.
      0. 0. 0. 0. 0. 1.42857144e-002 0. 0. 0. 0. 0. 0. 0. 0. 0. 0. 0. 0.
      0. 0. 1.42857144e-002 1.42857144e-002 0. 0. 0. 0. 0. 0. 0. 0. 0.
      0. 0. 1.42857144e-002 0. 0. 0. 0. 0. 0. 0. 0. 0. 1.42857144e-002
      0. 0. 0. 0. 0. 0. 0. 0. 0. 0. 0. 1.42857144e-002 0. 0. 0. 0. 0. 0.
      1.42857144e-002 1.42857144e-002 0. 0. 1.42857144e-002 0.
      8.57142881e-002 0. 0. 0. 0. 0. 0. 0. 0. 4.28571440e-002 0. 0. 0.
      0. 0. 0. 0. 1.42857144e-002 0. 0. 0. 0. 2.85714287e-002
      2.85714287e-002 0. 0. 0. 0. 0. 0. 0. 0. 0. 0. 0. 0. 0.
      2.85714287e-002 0. 5.71428575e-002 0. 0. 0. 0. 0. 0. 0. 0.
      1.42857144e-002 0. 0. 0. 0. 0. 0. 0. 0. 2.85714287e-002 0. 0. 0.
      0. 0. 0. 0. 0. 4.28571440e-002 0. 0. 0. 0. 0. 0. 0. 0. 0. 0.
      4.28571440e-002 0. 1.42857144e-002 1.42857144e-002 1.42857144e-002
      0. 0. 1.42857144e-002 0. 0. 0. 0. 0. 0. 1.42857144e-002 0. 0. 0.
      0. 0. 1.42857144e-002 0. 0. 0. 0. 0. 0. 5.71428575e-002 0. 0. 0.
      1.42857144e-002 0. 0. 0. 0. 0. 1.42857144e-002 0. 2.85714287e-002
      0. 0. 1.42857144e-002 0. 0. 0. 0. 0. 0. 0. 1.42857144e-002
      1.42857144e-002 0. 0. 1.42857144e-002 0. 0. 0. 0. 0. 0. 0. 0.
      1.42857144e-002 0. 0. 0. 0. 0. 0. 0. 0. 0. 0. 0. 0.
      2.85714287e-002 0. 0. 2.85714287e-002 0. 0. 0. 0. 0. 0. 0. 0. 0.
      0. 0. 2.85714287e-002 1.42857144e-002 2.85714287e-002 0. 0. 0. 0.
      0. 0. 0. 0.</_>
    <_>
      0. 0. 0. 8.19672085e-003 0. 8.19672085e-003 8.19672085e-003 0.
      8.19672085e-003 0. 0. 0. 0. 0. 8.19672085e-003 8.19672085e-003 0.
      0. 0. 0. 0. 0. 0. 0. 0. 1.63934417e-002 0. 0. 1.63934417e-002
      8.19672085e-003 1.63934417e-002 0. 0. 0. 2.45901626e-002 0. 0. 0.
      8.19672085e-003 8.19672085e-003 0. 0. 8.19672085e-003 0. 0. 0. 0.
      8.19672085e-003 0. 0. 0. 0. 0. 0. 0. 0. 0. 0. 0. 0. 0. 0. 0.
      1.63934417e-002 0. 0. 0. 0. 0. 0. 0. 8.19672085e-003
      8.19672085e-003 2.45901626e-002 1.63934417e-002 1.63934417e-002 0.
      2.45901626e-002 0. 0. 0. 0. 0. 0. 0. 0. 3.27868834e-002 0. 0. 0.
      8.19672085e-003 0. 8.19672085e-003 0. 0. 0. 0. 0. 2.45901626e-002
      0. 8.19672085e-003 0. 8.19672085e-003 0. 0. 0. 0. 0. 0. 0. 0. 0.
      0. 8.19672085e-003 1.63934417e-002 0. 8.19672085e-003 0. 0. 0. 0.
      0. 0. 0. 8.19672085e-003 4.91803251e-002 0. 8.19672085e-003 0. 0.
      0. 0. 0. 0. 7.37704858e-002 0. 0. 0. 0. 0. 0. 0. 0.
      3.27868834e-002 0. 0. 0. 0. 0. 0. 0. 0. 0. 4.09836024e-002
      1.63934417e-002 0. 0. 1.63934417e-002 1.63934417e-002 0. 0. 0. 0.
      0. 0. 0. 0. 0. 2.45901626e-002 0. 0. 0. 0. 0. 8.19672085e-003 0.
      0. 0. 0. 0. 0. 4.09836024e-002 0. 0. 0. 0. 0. 0. 0. 0. 0.
      8.19672085e-003 0. 0. 0. 0. 2.45901626e-002 0. 0. 0. 0. 0. 0. 0.
      1.63934417e-002 0. 0. 8.19672085e-003 3.27868834e-002
      8.19672085e-003 0. 0. 0. 0. 2.45901626e-002 0. 0. 1.63934417e-002
      0. 0. 0. 0. 0. 8.19672085e-003 8.19672085e-003 0. 0.
      8.19672085e-003 0. 0. 4.91803251e-002 0. 8.19672085e-003 0. 0. 0.
      8.19672085e-003 0. 0. 0. 8.19672085e-003 0. 0. 8.19672085e-003 0.
      0. 1.63934417e-002 0. 0. 0. 0. 0. 0. 0. 0. 0.</_>
    <_>
      0. 1.55038759e-002 7.75193796e-003 1.55038759e-002 0.
      1.55038759e-002 7.75193796e-003 0. 0. 0. 0. 0. 0. 0.
      1.55038759e-002 0. 0. 0. 0. 0. 0. 0. 0. 0. 0. 7.75193796e-003 0.
      7.75193796e-003 7.75193796e-003 1.55038759e-002 2.32558139e-002
      7.75193796e-003 0. 0. 2.32558139e-002 0. 0. 0. 0. 0. 0. 0. 0. 0.
      0. 0. 0. 0. 0. 0. 0. 0. 0. 7.75193796e-003 0. 0. 0. 0. 0.
      7.75193796e-003 0. 7.75193796e-003 0. 7.75193796e-003 0. 0. 0. 0.
      7.75193796e-003 0. 0. 7.75193796e-003 7.75193796e-003
      7.75193796e-003 1.55038759e-002 7.75193796e-003 0. 7.75193796e-003
      0. 0. 0. 0. 0. 0. 0. 0. 1.55038759e-002 0. 0. 2.32558139e-002 0.
      0. 0. 0. 0. 0. 0. 0. 5.42635657e-002 7.75193796e-003 0. 0.
      2.32558139e-002 0. 0. 0. 0. 0. 0. 0. 0. 0. 0. 0. 1.55038759e-002
      0. 3.10077518e-002 0. 0. 0. 0. 0. 0. 0. 0. 1.55038759e-002 0.
      1.55038759e-002 0. 0. 0. 7.75193796e-003 0. 0. 3.10077518e-002
      3.10077518e-002 0. 0. 0. 0. 0. 0. 0. 1.55038759e-002 0. 0. 0. 0.
      7.75193796e-003 0. 0. 0. 7.75193796e-003 0. 4.65116277e-002 0. 0.
      7.75193796e-003 3.10077518e-002 0. 0. 0. 0. 0. 0. 0. 0. 0.
      1.55038759e-002 0. 0. 0. 0. 0. 0. 7.75193796e-003 0. 0. 0. 0. 0.
      2.32558139e-002 0. 0. 0. 0. 0. 0. 0. 0. 0. 0. 0. 3.87596898e-002
      0. 0. 3.10077518e-002 0. 0. 7.75193796e-003 0. 0. 0. 0.
      3.87596898e-002 2.32558139e-002 0. 0. 5.42635657e-002 0. 0. 0. 0.
      0. 7.75193796e-003 0. 0. 2.32558139e-002 0. 0. 0. 0. 0. 0.
      7.75193796e-003 0. 1.55038759e-002 0. 0. 7.75193796e-003
      7.75193796e-003 0. 2.32558139e-002 0. 0. 0. 0. 0. 0. 0. 0. 0. 0.
