<?xml version="1.0"?>
<opencv_storage>
<my_svm type_id="opencv-ml-svm">
  <svm_type>C_SVC</svm_type>
  <kernel><type>RBF</type>
    <gamma>5.0625000000000009e-001</gamma></kernel>
  <C>3.1250000000000000e+002</C>
  <term_criteria><epsilon>1.1920928955078125e-007</epsilon>
    <iterations>1000</iterations></term_criteria>
  <var_all>500</var_all>
  <var_count>500</var_count>
  <class_count>11</class_count>
  <class_labels type_id="opencv-matrix">
    <rows>1</rows>
    <cols>11</cols>
    <dt>i</dt>
    <data>
      1 2 3 4 5 6 7 8 20 27 30</data></class_labels>
  <sv_total>104</sv_total>
  <support_vectors>
    <_>
      0. 0. 6.66666701e-002 0. 0. 6.66666683e-003 0. 0. 0. 0. 0. 0. 0.
      2.66666673e-002 5.33333346e-002 0. 6.66666683e-003 0. 0. 0. 0. 0.
      0. 0. 0. 0. 0. 0. 0. 0. 0. 0. 0. 6.66666683e-003 0. 0. 0. 0. 0. 0.
      6.66666683e-003 6.66666683e-003 0. 0. 0. 0. 0. 0. 0. 0. 0. 0. 0.
      0. 0. 0. 1.99999996e-002 0. 0. 0. 1.33333337e-002 0. 0. 0. 0. 0.
      6.66666683e-003 0. 0. 0. 0. 0. 0. 1.33333337e-002 0. 0. 0. 0. 0.
      1.99999996e-002 0. 0. 0. 1.33333337e-002 0. 0. 0. 0. 0.
      6.66666683e-003 0. 0. 0. 0. 0. 0. 0. 0. 0. 0. 0. 0. 0. 0.
      1.99999996e-002 0. 0. 0. 0. 0. 0. 0. 0. 0. 5.33333346e-002 0.
      6.66666683e-003 0. 0. 0. 0. 0. 0. 0. 0. 0. 0. 0. 0. 0. 0. 0. 0. 0.
      0. 0. 0. 0. 0. 0. 0. 0. 0. 0. 0. 0. 0. 0. 0. 0. 0. 0. 0. 0.
      1.33333337e-002 0. 6.66666683e-003 0. 6.66666683e-003 0. 0. 0. 0.
      0. 0. 0. 0. 0. 0. 0. 0. 0. 0. 0. 0. 0. 0. 6.66666683e-003 0. 0. 0.
      0. 0. 0. 0. 0. 0. 0. 0. 0. 0. 3.33333351e-002 0. 0. 0. 0. 0. 0. 0.
      0. 0. 0. 0. 0. 0. 0. 0. 0. 0. 0. 0. 0. 0. 0. 1.66666672e-001 0. 0.
      0. 0. 0. 0. 0. 0. 0. 6.66666683e-003 0. 0. 0. 0. 0. 0. 0. 0. 0. 0.
      0. 0. 0. 0. 0. 0. 0. 0. 0. 0. 0. 0. 0. 0. 0. 0. 0. 0. 0. 0. 0. 0.
      0. 0. 0. 0. 0. 0. 0. 0. 6.66666683e-003 0. 0. 0. 0. 0. 0. 0. 0. 0.
      0. 0. 0. 0. 0. 0. 0. 0. 0. 0. 0. 0. 0. 6.00000024e-002 0. 0. 0. 0.
      0. 0. 0. 0. 0. 0. 6.66666683e-003 0. 0. 0. 0. 0. 0. 0.
      6.66666683e-003 0. 0. 0. 0. 0. 0. 0. 0. 0. 0. 0. 0. 0. 0. 0. 0. 0.
      0. 0. 0. 3.99999991e-002 0. 0. 0. 0. 0. 0. 0. 0. 0. 0. 0. 0. 0. 0.
      0. 0. 0. 0. 0. 0. 0. 0. 0. 0. 0. 0. 0. 0. 0. 0. 0. 0. 0. 0. 0. 0.
      0. 0. 0. 0. 0. 0. 0. 0. 0. 0. 0. 0. 0. 0. 0. 0. 0. 0. 0. 0. 0. 0.
      0. 0. 0. 0. 0. 0. 0. 0. 0. 0. 0. 0. 0. 1.46666676e-001 0. 0. 0. 0.
      0. 0. 0. 0. 0. 0. 0. 0. 0. 0. 2.66666673e-002 0. 6.66666683e-003
      0. 0. 0. 0. 0. 6.66666683e-003 0. 1.33333337e-002 0. 0. 0. 0. 0.
      0. 0. 0. 0. 0. 0. 0. 6.66666683e-003 0. 0. 0. 0. 0. 0. 0. 0. 0.
      3.33333351e-002 6.66666683e-003 0. 0. 0. 0. 0. 0. 6.66666683e-003
      0. 0. 0. 0. 0. 0. 0. 0. 0. 0. 0. 0. 0. 0. 0. 0. 0. 0.
      1.33333337e-002 0. 0. 0. 0. 0. 0. 0. 0. 6.66666683e-003 0. 0. 0.
      0. 0. 0. 0. 0. 1.33333337e-002 0. 0. 0. 0. 0. 0.</_>
    <_>
      0. 0. 7.84313753e-002 0. 0. 0. 0. 0. 0. 0. 0. 0. 0.
      5.39215691e-002 9.80392192e-003 0. 0. 0. 4.90196096e-003 0.
      4.90196096e-003 4.90196096e-003 0. 0. 0. 4.90196096e-003 0. 0. 0.
      0. 0. 0. 0. 0. 0. 0. 0. 0. 0. 0. 0. 0. 0. 0. 0. 0. 0. 0. 0. 0.
      4.90196096e-003 0. 9.80392192e-003 0. 0. 0. 0. 0. 0. 0.
      1.96078438e-002 0. 0. 0. 0. 0. 9.80392192e-003 4.90196096e-003 0.
      0. 0. 0. 0. 0. 0. 0. 7.84313753e-002 0. 0. 0. 0. 0. 0.
      1.96078438e-002 0. 0. 0. 0. 0. 0. 0. 4.90196096e-003 0. 0. 0. 0.
      0. 0. 0. 0. 4.90196096e-003 9.80392192e-003 0. 0. 0. 0. 0. 0. 0.
      0. 0. 0. 0. 0. 7.35294148e-002 0. 4.90196096e-003 0. 0. 0. 0. 0.
      0. 0. 0. 0. 0. 0. 0. 4.90196096e-003 0. 0. 2.94117667e-002 0. 0.
      4.90196096e-003 0. 0. 0. 0. 9.80392192e-003 0. 0. 0. 0. 0. 0. 0.
      0. 0. 0. 0. 0. 0. 0. 0. 0. 0. 4.90196096e-003 0. 0. 0. 0. 0. 0. 0.
      4.90196096e-003 0. 4.90196096e-003 0. 0. 4.90196096e-003 0. 0. 0.
      0. 0. 0. 0. 0. 0. 9.80392192e-003 0. 0. 0. 0. 0. 0. 0. 0. 0.
      4.90196096e-003 0. 0. 0. 0. 0. 0. 0. 0. 0. 0. 0. 0. 0. 0. 0. 0. 0.
      0. 0. 0. 0. 0. 1.47058833e-002 0. 0. 0. 0. 0. 0. 0.
      4.90196096e-003 0. 0. 0. 0. 0. 0. 4.90196096e-003 0. 0.
      2.45098043e-002 0. 0. 4.90196096e-003 0. 0. 0. 0. 0. 0. 0. 0. 0.
      4.90196096e-003 0. 0. 0. 0. 0. 0. 0. 0. 0. 0. 0. 0. 0. 0. 0. 0. 0.
      0. 4.90196096e-003 9.80392192e-003 0. 0. 4.90196096e-003
      4.90196096e-003 0. 0. 0. 0. 0. 0. 0. 1.47058833e-002 0. 0. 0. 0.
      0. 4.90196096e-003 0. 0. 0. 0. 6.37254938e-002 0. 0.
      1.47058833e-002 0. 0. 0. 0. 0. 0. 0. 0. 0. 0. 0. 0. 0. 0. 0. 0. 0.
      0. 0. 0. 0. 0. 0. 0. 0. 0. 0. 0. 0. 0. 0. 0. 0. 0. 0. 0. 0. 0. 0.
      0. 0. 4.90196096e-003 0. 0. 0. 4.90196096e-003 0. 0. 0. 0. 0.
      4.90196096e-003 0. 0. 0. 0. 0. 0. 0. 0. 0. 0. 0. 0. 0. 0. 0. 0. 0.
      0. 0. 0. 0. 0. 0. 0. 0. 0. 0. 0. 0. 0. 0. 0. 0. 0. 0. 0. 0. 0. 0.
      0. 4.90196096e-003 0. 0. 0. 0. 0. 0. 0. 0. 0. 0. 0. 0. 0. 0. 0.
      1.37254909e-001 0. 0. 0. 0. 0. 4.90196096e-003 0. 0. 0. 0. 0. 0.
      0. 9.80392192e-003 4.41176482e-002 0. 0. 0. 0. 0. 0. 0.
      9.80392192e-003 0. 0. 0. 0. 0. 0. 4.90196096e-003 4.90196096e-003
      0. 0. 0. 0. 0. 0. 4.90196096e-003 0. 0. 0. 0. 0. 0. 0. 0.
      4.90196096e-003 3.43137272e-002 0. 0. 0. 0. 0. 0. 0.
      1.47058833e-002 0. 0. 0. 0. 0. 0. 0. 0. 4.90196096e-003 0.
      4.90196096e-003 0. 4.90196096e-003 0. 0. 0. 0. 0. 0. 0. 0. 0. 0.
      0. 4.90196096e-003 0. 0. 0. 0. 0. 0. 0. 0. 0. 0. 0. 0. 0. 0.
      4.90196096e-003 9.80392192e-003 0. 0.</_>
    <_>
      0. 0. 1.03225805e-001 0. 0. 3.22580636e-002 0. 0. 0. 0. 0. 0. 0.
      1.93548389e-002 1.29032256e-002 0. 1.29032256e-002 0. 0. 0. 0. 0.
      0. 0. 0. 0. 6.45161280e-003 0. 0. 0. 0. 0. 0. 1.29032256e-002 0.
      6.45161280e-003 0. 0. 0. 0. 0. 0. 6.45161280e-003 0. 0. 0. 0. 0.
      0. 0. 0. 0. 0. 0. 0. 0. 1.29032256e-002 0. 0. 0. 1.29032256e-002
      0. 0. 0. 0. 6.45161280e-003 1.29032256e-002 6.45161280e-003 0. 0.
      0. 0. 0. 3.22580636e-002 0. 0. 1.29032256e-002 0. 0. 0. 0. 0. 0.
      6.45161280e-003 0. 0. 0. 0. 0. 0. 0. 0. 0. 0. 0. 0. 0. 0. 0. 0. 0.
      6.45161280e-003 0. 0. 3.87096778e-002 0. 0. 0. 0. 0. 0. 0. 0. 0.
      9.03225765e-002 0. 0. 0. 0. 0. 0. 0. 0. 0. 0. 0. 0. 0. 0. 0. 0. 0.
      0. 0. 0. 0. 0. 0. 0. 0. 0. 0. 0. 0. 0. 0. 0. 0. 0. 0. 0. 0. 0. 0.
      2.58064512e-002 0. 6.45161280e-003 0. 1.29032256e-002 0. 0. 0. 0.
      0. 0. 0. 0. 0. 0. 0. 0. 0. 0. 0. 0. 0. 0. 1.93548389e-002 0. 0. 0.
      0. 0. 0. 0. 0. 0. 0. 0. 0. 0. 1.93548389e-002 0. 0. 0. 0. 0. 0. 0.
      0. 0. 0. 0. 0. 0. 0. 0. 0. 0. 0. 0. 0. 0. 0. 1.03225805e-001 0. 0.
      0. 0. 1.29032256e-002 0. 0. 0. 0. 0. 0. 0. 0. 0. 0. 0. 0.
      1.29032256e-002 0. 0. 0. 0. 0. 0. 0. 0. 0. 0. 6.45161280e-003 0.
      0. 0. 0. 0. 0. 0. 0. 0. 0. 0. 0. 0. 0. 0. 0. 0. 0. 0. 0. 0.
      1.29032256e-002 0. 0. 0. 0. 0. 0. 0. 0. 0. 0. 0. 0. 0. 0. 0. 0. 0.
      6.45161280e-003 0. 0. 0. 0. 1.93548389e-002 0. 0. 0. 0. 0. 0. 0.
      0. 0. 0. 0. 0. 0. 0. 0. 0. 0. 0. 6.45161280e-003 0. 0. 0. 0. 0. 0.
      0. 0. 0. 0. 0. 0. 0. 0. 0. 0. 0. 0. 0. 0. 6.45161280e-003 0. 0. 0.
      0. 0. 0. 0. 0. 0. 0. 0. 0. 0. 0. 0. 0. 0. 0. 0. 0. 0. 0. 0. 0. 0.
      0. 0. 0. 0. 0. 0. 0. 0. 0. 0. 0. 0. 0. 0. 0. 0. 0. 0. 0. 0. 0. 0.
      0. 0. 0. 0. 0. 0. 0. 0. 1.29032256e-002 0. 0. 0. 0. 0. 0. 0. 0. 0.
      0. 0. 0. 0. 0. 0. 1.74193546e-001 0. 0. 0. 0. 0. 0. 0. 0. 0. 0. 0.
      0. 0. 0. 0. 0. 0. 0. 0. 0. 0. 0. 0. 0. 0. 0. 0. 0. 0. 0. 0. 0. 0.
      0. 0. 0. 0. 6.45161280e-003 0. 1.29032256e-002 0. 0. 0. 0. 0. 0.
      0. 3.22580636e-002 0. 0. 0. 0. 0. 0. 0. 0. 0. 0. 0. 0. 0. 0. 0. 0.
      0. 0. 0. 0. 0. 0. 0. 0. 0. 0. 0. 0. 0. 0. 0. 0. 0. 0. 0. 0. 0. 0.
      0. 6.45161280e-003 0. 6.45161280e-003 0. 0. 6.45161280e-003 0. 0.
      0. 1.93548389e-002 0. 0.</_>
    <_>
      0. 0. 8.37438405e-002 0. 0. 4.92610829e-003 0. 0. 0. 0. 0. 0. 0.
      4.92610829e-003 9.85221658e-003 0. 9.85221658e-003 0. 0. 0. 0. 0.
      0. 0. 0. 0. 0. 0. 4.92610829e-003 0. 4.92610829e-003 0. 0. 0. 0.
      0. 0. 0. 0. 0. 0. 0. 0. 0. 0. 0. 0. 0. 4.92610829e-003 0.
      4.92610829e-003 0. 9.85221658e-003 0. 0. 0. 0. 0. 0. 0.
      1.47783253e-002 0. 0. 0. 0. 0. 9.85221658e-003 0. 0. 0. 0. 0. 0.
      0. 0. 0. 1.08374380e-001 0. 0. 0. 0. 0. 0. 4.92610829e-003 0.
      4.92610829e-003 0. 0. 0. 0. 0. 0. 0. 0. 0. 0. 0. 0. 0. 0.
      1.47783253e-002 9.85221658e-003 0. 0. 0. 0. 0. 0. 0. 0. 0. 0. 0.
      0. 6.40394092e-002 0. 0. 0. 0. 0. 0. 4.92610829e-003 0. 0. 0. 0.
      0. 0. 0. 0. 0. 0. 4.92610829e-003 0. 0. 4.92610829e-003 0. 0. 0.
      0. 4.92610829e-003 0. 0. 0. 0. 0. 0. 0. 0. 0. 0. 0. 0. 0.
      1.97044332e-002 0. 9.85221658e-003 0. 4.92610820e-002 0. 0. 0. 0.
      0. 0. 0. 0. 0. 4.92610829e-003 0. 0. 4.92610829e-003 0. 0. 0. 0.
      0. 0. 0. 0. 0. 0. 0. 0. 0. 0. 0. 0. 0. 0. 0. 1.97044332e-002 0. 0.
      0. 0. 0. 0. 4.92610829e-003 0. 0. 0. 0. 4.92610829e-003 0. 0. 0.
      0. 0. 0. 0. 0. 0. 0. 1.13300487e-001 0. 0. 0. 0. 0. 0. 0. 0. 0. 0.
      0. 0. 0. 0. 0. 0. 0. 4.92610829e-003 0. 0. 0. 0. 4.92610829e-003
      0. 0. 0. 0. 0. 0. 0. 0. 0. 0. 0. 0. 0. 0. 0. 0. 0. 0. 0. 0. 0. 0.
      0. 0. 0. 0. 0. 0. 0. 0. 0. 4.92610829e-003 0. 0. 0. 0. 0. 0. 0.
      1.97044332e-002 0. 0. 0. 0. 9.85221658e-003 0. 0. 0. 0. 0.
      3.94088663e-002 0. 0. 4.92610829e-003 0. 0. 0. 0. 0. 0. 0. 0. 0.
      0. 0. 0. 0. 0. 4.92610829e-003 4.92610829e-003 0. 0. 0. 0.
      4.92610829e-003 0. 0. 0. 0. 0. 0. 0. 0. 0. 0. 0. 0. 0. 0. 0. 0. 0.
      0. 0. 0. 0. 0. 0. 0. 0. 0. 0. 0. 0. 0. 0. 0. 0. 0. 4.92610829e-003
      4.92610829e-003 0. 0. 0. 0. 0. 0. 0. 0. 0. 0. 4.92610829e-003 0.
      0. 0. 0. 0. 0. 9.85221658e-003 0. 0. 0. 0. 0. 0. 0. 0. 0. 0. 0. 0.
      0. 0. 0. 0. 0. 0. 0. 0. 0. 0. 0. 0. 0. 0. 0. 0. 4.92610829e-003 0.
      0. 0. 0. 7.88177326e-002 0. 0. 0. 0. 0. 0. 4.92610829e-003 0. 0.
      0. 0. 4.92610829e-003 0. 9.85221658e-003 1.47783253e-002 0. 0. 0.
      0. 0. 0. 0. 4.92610829e-003 0. 0. 0. 0. 0. 0. 9.85221658e-003 0.
      0. 0. 0. 0. 0. 0. 1.97044332e-002 0. 0. 0. 0. 0. 0. 0. 0. 0.
      9.85221658e-003 1.47783253e-002 0. 0. 0. 0. 4.92610829e-003 0. 0.
      0. 0. 0. 0. 0. 0. 0. 0. 0. 0. 0. 0. 0. 0. 0. 0. 0. 4.92610829e-003
      4.92610829e-003 0. 0. 0. 0. 4.92610829e-003 0. 0. 0. 0.
      9.85221658e-003 0. 0. 0. 0. 0. 0. 0. 1.97044332e-002 0. 0. 0.
      1.47783253e-002 0. 4.92610829e-003</_>
    <_>
      0. 0. 4.68750000e-002 0. 0. 2.08333340e-002 0. 0. 0. 0. 0. 0. 0.
      4.16666679e-002 1.56250000e-002 0. 5.20833349e-003 0. 0. 0. 0. 0.
      0. 0. 0. 0. 0. 0. 0. 0. 0. 0. 0. 0. 0. 0. 0. 0. 0. 0. 0. 0. 0. 0.
      0. 0. 0. 0. 0. 0. 0. 0. 0. 0. 0. 0. 1.04166670e-002 0. 0. 0.
      1.04166670e-002 0. 0. 0. 0. 0. 0. 0. 0. 0. 0. 0. 0.
      5.20833349e-003 0. 0. 5.72916679e-002 0. 0. 0. 0. 0. 0.
      1.04166670e-002 0. 0. 0. 0. 0. 0. 0. 0. 0. 0. 0. 0. 0. 0. 0. 0. 0.
      5.20833349e-003 0. 0. 5.20833349e-003 0. 0. 0. 0. 0. 0. 0. 0. 0.
      1.82291672e-001 0. 5.20833349e-003 0. 0. 0. 0. 0. 0. 0. 0. 0. 0.
      0. 0. 0. 0. 0. 0. 0. 0. 5.20833349e-003 0. 5.20833349e-003 0. 0.
      0. 0. 0. 0. 0. 0. 0. 0. 0. 0. 0. 0. 0. 0. 4.68750000e-002 0. 0. 0.
      2.08333340e-002 0. 0. 0. 0. 0. 0. 0. 5.20833349e-003 0. 0. 0. 0.
      0. 0. 0. 0. 0. 0. 1.04166670e-002 0. 0. 0. 0. 0. 0. 0. 0. 0. 0. 0.
      0. 0. 0. 0. 0. 0. 0. 0. 0. 0. 0. 0. 0. 0. 0. 0. 0. 0. 0. 0. 0. 0.
      0. 0. 0. 9.89583358e-002 0. 0. 0. 0. 5.20833349e-003 0. 0.
      5.20833349e-003 0. 0. 0. 0. 0. 0. 0. 0. 0. 1.04166670e-002 0. 0.
      0. 0. 0. 0. 0. 0. 0. 0. 0. 0. 0. 0. 0. 0. 0. 0. 0. 0. 0. 0. 0. 0.
      0. 0. 0. 0. 0. 0. 0. 0. 1.04166670e-002 0. 0. 0. 0. 0. 0. 0. 0. 0.
      0. 0. 0. 0. 0. 0. 1.04166670e-002 0. 0. 0. 0. 0. 0.
      4.16666679e-002 0. 0. 0. 0. 0. 0. 0. 0. 0. 0. 0. 0. 0. 0. 0. 0. 0.
      0. 5.20833349e-003 0. 0. 0. 0. 0. 0. 0. 0. 0. 0. 5.20833349e-003
      0. 0. 0. 0. 0. 0. 0. 0. 0. 1.04166670e-002 0. 0. 0. 0. 0. 0. 0. 0.
      0. 0. 0. 0. 0. 0. 0. 0. 0. 0. 1.04166670e-002 0. 0. 0. 0. 0. 0. 0.
      0. 0. 0. 0. 0. 0. 0. 0. 0. 0. 0. 0. 5.20833349e-003 0. 0. 0. 0. 0.
      0. 0. 0. 0. 0. 0. 0. 0. 0. 0. 0. 0. 0. 0. 0. 0. 0. 0. 0. 0. 0. 0.
      0. 0. 0. 0. 0. 5.20833358e-002 0. 0. 0. 0. 0. 0. 0. 0. 0. 0. 0. 0.
      0. 1.04166670e-002 1.04166670e-002 0. 5.20833349e-003 0. 0. 0. 0.
      0. 0. 0. 5.20833349e-003 0. 0. 0. 0. 0. 0. 0. 0. 0. 0. 0. 0.
      1.04166670e-002 0. 5.20833349e-003 0. 0. 0. 0. 0. 0. 0.
      3.12500000e-002 1.04166670e-002 0. 0. 0. 0. 0. 0. 0. 0. 0. 0. 0.
      0. 0. 0. 0. 0. 5.20833349e-003 0. 0. 0. 0. 0. 5.20833349e-003 0.
      0. 1.04166670e-002 5.20833349e-003 0. 0. 0. 0. 0. 0. 0. 0. 0. 0.
      0. 0. 0. 0. 0. 0. 6.25000000e-002 0. 0. 0. 3.64583358e-002 0. 0.</_>
    <_>
      0. 0. 1.05590060e-001 0. 0. 6.21118024e-003 0. 0. 0. 0. 0. 0.
      1.24223605e-002 2.48447210e-002 1.24223605e-002 0. 6.21118024e-003
      0. 0. 0. 0. 0. 0. 0. 0. 0. 0. 0. 0. 0. 0. 0. 0. 0. 0. 0. 0. 0. 0.
      0. 0. 0. 0. 0. 0. 0. 0. 0. 0. 0. 0. 0. 0. 0. 0. 0. 6.21118024e-003
      0. 0. 0. 3.10559012e-002 0. 6.21118024e-003 0. 0. 1.24223605e-002
      6.21118024e-003 0. 0. 0. 0. 0. 0. 3.72670814e-002 0. 0.
      1.86335407e-002 0. 0. 0. 0. 0. 0. 0. 0. 0. 0. 0. 0.
      6.21118024e-003 0. 0. 0. 0. 0. 0. 0. 0. 0. 0. 0. 6.21118024e-003
      0. 0. 1.86335407e-002 0. 0. 0. 0. 0. 0. 0. 0. 0. 2.48447210e-002
      0. 0. 0. 0. 0. 0. 0. 0. 0. 0. 0. 0. 0. 0. 0. 0. 0. 0. 0. 0.
      6.21118024e-003 0. 0. 0. 0. 0. 0. 0. 0. 0. 0. 0. 0. 0. 0. 0. 0. 0.
      0. 0. 0. 0. 0. 0. 0. 0. 0. 0. 0. 0. 0. 0. 0. 0. 0. 0. 0. 0. 0. 0.
      0. 0. 1.86335407e-002 0. 0. 0. 0. 0. 0. 0. 0. 0. 0. 0. 0. 0.
      4.96894419e-002 0. 0. 0. 0. 0. 0. 0. 0. 0. 0. 0. 0. 0. 0. 0. 0. 0.
      0. 0. 1.86335407e-002 0. 0. 1.86335415e-001 0. 0. 0. 0. 0. 0. 0.
      1.24223605e-002 0. 0. 0. 0. 0. 0. 0. 0. 0. 6.21118024e-003 0. 0.
      0. 0. 0. 0. 0. 0. 0. 0. 0. 0. 0. 0. 0. 0. 0. 0. 0. 0. 0. 0. 0.
      6.21118024e-003 0. 0. 0. 0. 0. 0. 0. 0. 0. 0. 0. 0. 0. 0. 0. 0. 0.
      0. 0. 0. 0. 0. 0. 0. 6.21118024e-003 0. 0. 0. 0. 0. 0.
      3.72670814e-002 0. 0. 0. 0. 0. 0. 0. 0. 0. 0. 0. 0. 0. 0. 0. 0. 0.
      0. 1.86335407e-002 0. 0. 0. 0. 0. 0. 0. 0. 0. 0. 0. 0. 0. 0. 0. 0.
      0. 0. 0. 0. 4.96894419e-002 0. 0. 0. 0. 0. 0. 0. 0. 0. 0. 0. 0. 0.
      0. 0. 0. 0. 0. 6.21118024e-003 0. 0. 0. 0. 0. 0. 0. 0. 0. 0. 0. 0.
      0. 0. 0. 0. 0. 0. 0. 1.24223605e-002 0. 0. 0. 0. 0. 0. 0. 0. 0. 0.
      0. 0. 0. 0. 0. 0. 6.21118024e-003 0. 0. 0. 0. 0. 0. 0. 0. 0. 0. 0.
      0. 0. 0. 0. 1.11801244e-001 6.21118024e-003 0. 0. 0. 0. 0. 0. 0.
      0. 0. 0. 0. 0. 0. 0. 0. 0. 0. 0. 0. 0. 0. 0. 0. 0. 0. 0. 0. 0. 0.
      0. 0. 0. 0. 0. 0. 6.21118024e-003 6.21118024e-003 0.
      1.86335407e-002 0. 0. 0. 0. 0. 0. 0. 1.24223605e-002
      3.10559012e-002 0. 0. 0. 0. 0. 0. 0. 0. 0. 0. 0. 0. 0. 0. 0. 0. 0.
      0. 0. 6.21118024e-003 0. 0. 0. 0. 0. 0. 0. 0. 0. 0. 0. 0. 0. 0. 0.
      0. 0. 0. 0. 0. 0. 0. 0. 0. 0. 0. 0. 1.86335407e-002 0. 0.</_>
    <_>
      0. 3.81679391e-003 1.90839693e-002 3.81679391e-003 0. 0. 0. 0. 0.
      1.14503819e-002 0. 3.81679391e-003 0. 3.81679391e-003
      3.81679391e-003 0. 0. 3.81679391e-003 0. 0. 0. 0. 0. 0. 0. 0. 0.
      3.81679391e-003 0. 0. 0. 0. 0. 7.63358781e-003 3.81679391e-003
      7.63358781e-003 0. 0. 7.63358781e-003 0. 0. 7.63358781e-003 0.
      1.90839693e-002 0. 0. 0. 0. 0. 3.81679391e-003 0. 0.
      7.63358781e-003 0. 0. 1.14503819e-002 0. 0. 0. 0. 0. 0. 0. 0. 0.
      1.14503819e-002 1.14503819e-002 0. 1.14503819e-002 0. 0. 0. 0. 0.
      0. 0. 0. 0. 3.81679391e-003 7.63358781e-003 0. 0. 0. 0. 0. 0. 0.
      7.63358781e-003 0. 1.90839693e-002 3.81679391e-003 1.14503819e-002
      0. 0. 0. 0. 0. 0. 3.81679391e-003 0. 0. 0. 0. 0. 7.63358781e-003
      0. 0. 0. 0. 0. 3.81679391e-003 0. 0. 7.63358781e-003 0. 0.
      7.63358781e-003 0. 7.63358781e-003 7.63358781e-003 0.
      1.14503819e-002 1.14503819e-002 0. 0. 0. 0. 0. 0. 0. 0. 0. 0.
      1.52671756e-002 0. 0. 0. 7.63358781e-003 1.52671756e-002 0.
      2.29007639e-002 0. 0. 0. 1.52671756e-002 0. 0. 0. 0. 0. 0. 0. 0.
      0. 3.81679391e-003 0. 1.14503819e-002 3.81679391e-003 0. 0. 0. 0.
      0. 0. 0. 0. 0. 0. 3.81679391e-003 7.63358781e-003 0. 0. 0.
      1.14503819e-002 0. 3.81679391e-003 0. 0. 0. 0. 0. 0. 0. 0. 0. 0.
      0. 0. 0. 0. 0. 0. 0. 0. 1.52671756e-002 0. 0. 0. 0. 0. 0. 0.
      1.14503819e-002 0. 0. 0. 0. 3.81679391e-003 0. 0. 3.81679391e-003
      0. 0. 0. 1.52671756e-002 0. 0. 0. 0. 0. 0. 0. 3.81679391e-003 0.
      7.63358781e-003 1.90839693e-002 0. 0. 0. 0. 0. 0. 3.81679391e-003
      0. 0. 0. 0. 0. 0. 0. 1.14503819e-002 0. 0. 0. 0. 0. 0. 0. 0. 0. 0.
      0. 0. 0. 0. 1.14503819e-002 3.05343512e-002 0. 0. 0.
      3.81679391e-003 0. 0. 0. 7.63358781e-003 3.81679391e-003 0. 0. 0.
      0. 0. 0. 0. 3.81679391e-003 0. 0. 0. 0. 0. 0. 3.81679391e-003
      1.52671756e-002 0. 3.81679391e-003 0. 2.29007639e-002
      3.81679391e-003 0. 1.14503819e-002 0. 0. 7.63358781e-003
      3.81679391e-003 0. 0. 7.63358781e-003 0. 0. 0. 0. 0. 0.
      3.81679391e-003 0. 0. 0. 0. 0. 0. 3.81679391e-003 0. 0. 0. 0. 0.
      0. 0. 0. 0. 0. 0. 0. 0. 0. 0. 0. 0. 0. 0. 0. 0. 3.81679391e-003 0.
      3.81679391e-003 3.81679391e-003 0. 0. 1.90839693e-002 0. 0. 0.
      1.90839693e-002 0. 0. 0. 0. 0. 0. 0. 0. 3.81679391e-003
      1.52671756e-002 0. 0. 0. 0. 0. 0. 0. 0. 3.81679391e-003 0. 0.
      1.52671756e-002 0. 7.63358781e-003 0. 0. 0. 0. 3.81679391e-003 0.
      2.29007639e-002 7.63358781e-003 0. 3.81679391e-003 0. 0. 0. 0. 0.
      0. 0. 0. 0. 0. 0. 3.81679391e-003 0. 0. 0. 7.63358781e-003 0. 0.
      0. 3.81679391e-003 0. 0. 3.81679391e-003 0. 0. 0. 0. 0. 0. 0.
      1.52671756e-002 0. 0. 0. 0. 0. 0. 0. 0. 0. 0. 0. 0.
      1.14503819e-002 0. 3.81679391e-003 0. 0. 0. 0. 1.52671756e-002 0.
      0. 0. 0. 7.63358781e-003 3.81679391e-003 0. 0. 0. 2.67175566e-002
      0. 2.29007639e-002 3.81679391e-003 0. 0. 0. 0. 0. 0.
      7.63358781e-003 7.63358781e-003 1.14503819e-002 0. 0. 0. 0. 0. 0.
      0. 3.81679391e-003 0. 0. 0. 0. 0. 0. 0. 0. 0. 0. 3.81679391e-003
      0. 0. 0. 0. 0. 0. 0. 0. 0. 0. 0. 0. 0. 0. 0. 7.63358781e-003 0. 0.
      0. 0. 1.14503819e-002 0. 7.63358781e-003 0. 0. 0. 0. 0.
      7.63358781e-003 3.81679391e-003 7.63358781e-003 0.</_>
    <_>
      0. 0. 9.74025950e-003 3.24675324e-003 0. 0. 3.24675324e-003 0. 0.
      3.24675324e-003 0. 0. 6.49350649e-003 6.49350649e-003 0. 0.
      3.24675324e-003 3.24675324e-003 0. 0. 0. 0. 0. 0. 0.
      3.24675324e-003 3.24675324e-003 0. 3.24675324e-003 0.
      6.49350649e-003 0. 0. 1.29870130e-002 0. 6.49350649e-003 0.
      3.24675324e-003 3.24675324e-003 0. 0. 1.94805190e-002 0.
      2.59740259e-002 0. 0. 0. 0. 0. 0. 0. 0. 0. 0. 3.24675324e-003 0.
      9.74025950e-003 0. 0. 0. 0. 0. 0. 0. 3.24675324e-003
      6.49350649e-003 3.24675324e-003 0. 9.74025950e-003 0. 0. 0. 0. 0.
      0. 0. 3.24675324e-003 0. 1.62337665e-002 1.94805190e-002 0. 0. 0.
      3.24675324e-003 0. 0. 6.49350649e-003 9.74025950e-003 0.
      6.49350649e-003 0. 1.62337665e-002 0. 0. 3.24675324e-003 0. 0. 0.
      1.94805190e-002 0. 0. 3.24675324e-003 0. 0. 0. 0. 0.
      3.24675324e-003 3.24675324e-003 0. 0. 0. 0. 3.24675324e-003
      6.49350649e-003 6.49350649e-003 0. 0. 6.49350649e-003
      6.49350649e-003 0. 3.24675324e-003 0. 0. 0. 0. 0. 0. 0. 0. 0. 0.
      0. 0. 0. 3.24675324e-003 0. 3.24675324e-003 3.24675329e-002 0.
      1.29870130e-002 0. 0. 0. 6.49350649e-003 0. 0. 0. 0.
      3.24675324e-003 0. 6.49350649e-003 0. 0. 6.49350649e-003 0.
      2.59740259e-002 2.27272734e-002 0. 0. 0. 0. 9.74025950e-003 0. 0.
      0. 0. 0. 0. 3.24675324e-003 0. 0. 0. 1.94805190e-002 0.
      2.92207785e-002 0. 9.74025950e-003 0. 0. 0. 0. 0. 0. 0. 0. 0. 0.
      0. 0. 0. 3.24675324e-003 0. 0. 1.29870130e-002 0. 0. 0. 0. 0. 0.
      0. 3.24675324e-003 0. 0. 0. 0. 0. 0. 0. 3.24675324e-003 0. 0. 0.
      3.24675324e-003 0. 0. 0. 0. 0. 0. 0. 3.24675324e-003
      3.24675324e-003 3.24675324e-003 6.49350649e-003 3.24675324e-003 0.
      0. 0. 3.24675324e-003 0. 6.49350649e-003 0. 0. 0. 0.
      1.29870130e-002 0. 3.24675324e-003 0. 0. 1.29870130e-002 0. 0. 0.
      6.49350649e-003 0. 0. 0. 3.24675324e-003 0. 0. 0. 0. 0.
      2.27272734e-002 0. 0. 0. 0. 0. 0. 0. 3.24675324e-003 0. 0. 0.
      6.49350649e-003 3.24675324e-003 0. 0. 0. 0. 0. 0. 0.
      3.24675324e-003 0. 0. 0. 6.49350649e-003 0. 0. 0. 3.24675324e-003
      3.57142873e-002 0. 3.24675324e-003 0. 0. 0. 0. 0. 0. 0. 0. 0. 0.
      0. 0. 0. 0. 0. 0. 0. 0. 0. 0. 0. 0. 0. 3.24675324e-003 0. 0. 0. 0.
      0. 0. 0. 0. 0. 0. 0. 0. 0. 0. 0. 6.49350649e-003 0. 0.
      3.24675324e-003 0. 3.24675324e-003 0. 0. 0. 6.49350649e-003 0. 0.
      0. 3.24675324e-003 3.24675324e-003 3.24675324e-003 0. 0.
      3.24675324e-003 0. 0. 0. 0. 1.94805190e-002 0. 0. 0. 0. 0. 0. 0.
      0. 0. 0. 0. 3.24675324e-003 0. 0. 6.49350649e-003 0. 0. 0. 0. 0.
      3.24675329e-002 0. 0. 0. 0. 0. 0. 0. 0. 0. 0. 0. 0. 0. 0. 0. 0. 0.
      0. 9.74025950e-003 0. 0. 0. 0. 0. 3.24675324e-003 6.49350649e-003
      0. 0. 0. 6.49350649e-003 3.24675324e-003 0. 0. 2.27272734e-002 0.
      3.24675324e-003 0. 0. 0. 0. 0. 0. 0. 0. 0. 0. 0. 0. 0. 0.
      1.62337665e-002 0. 0. 6.49350649e-003 0. 0. 0. 0. 3.24675324e-003
      0. 0. 0. 0. 6.49350649e-003 0. 1.62337665e-002 3.24675324e-003 0.
      0. 0. 6.49350649e-003 0. 0. 0. 0. 6.49350649e-003 0. 0. 0. 0. 0.
      0. 0. 2.27272734e-002 0. 0. 3.24675324e-003 0. 0. 0.
      6.49350649e-003 0. 3.24675324e-003 0. 0. 0. 9.74025950e-003 0. 0.
      0. 0. 0. 0. 3.24675324e-003 0. 0. 3.24675324e-003 0. 0. 0.
      1.94805190e-002 0. 0. 0. 0. 3.24675324e-003 0. 1.29870130e-002 0.
      0. 0. 0. 3.24675324e-003 0. 0. 3.24675324e-003 3.24675324e-003</_>
    <_>
      0. 0. 1.11111104e-002 1.11111104e-002 0. 0. 0. 3.70370364e-003 0.
      0. 0. 1.11111104e-002 1.48148146e-002 1.11111104e-002 0. 0. 0. 0.
      0. 0. 0. 0. 0. 0. 0. 0. 0. 0. 0. 0. 0. 0. 0. 7.40740728e-003 0.
      7.40740728e-003 0. 0. 7.40740728e-003 0. 0. 1.48148146e-002 0.
      1.48148146e-002 0. 0. 0. 0. 0. 3.70370364e-003 0. 0.
      1.11111104e-002 0. 0. 0. 3.70370364e-003 0. 0. 0. 3.70370364e-003
      0. 0. 0. 0. 7.40740728e-003 3.70370364e-003 0. 7.40740728e-003 0.
      0. 0. 0. 0. 0. 0. 1.11111104e-002 0. 1.85185187e-002
      1.85185187e-002 0. 0. 0. 0. 0. 0. 0. 7.40740728e-003 0. 0. 0.
      3.70370364e-003 0. 0. 0. 0. 0. 0. 3.33333313e-002 0. 0.
      7.40740728e-003 0. 0. 0. 0. 0. 7.40740728e-003 7.40740728e-003 0.
      0. 0. 0. 3.70370364e-003 3.70370364e-003 3.70370364e-003
      1.11111104e-002 0. 7.40740728e-003 7.40740728e-003 0. 0.
      3.70370364e-003 0. 0. 0. 0. 0. 0. 0. 0. 0. 0. 0. 0.
      7.40740728e-003 0. 0. 1.48148146e-002 0. 1.85185187e-002 0. 0. 0.
      0. 0. 0. 0. 3.70370364e-003 0. 0. 0. 0. 0. 3.70370364e-003 0.
      2.96296291e-002 7.40740728e-003 3.70370364e-003 3.70370364e-003
      3.70370364e-003 3.70370364e-003 7.40740728e-003 1.11111104e-002 0.
      0. 0. 0. 3.70370364e-003 3.70370364e-003 0. 0. 0. 7.40740728e-003
      0. 2.22222209e-002 0. 1.48148146e-002 0. 0. 0. 0. 0. 0. 0. 0. 0.
      3.70370364e-003 0. 0. 0. 3.70370364e-003 0. 0. 7.40740728e-003 0.
      0. 0. 0. 0. 0. 0. 0. 0. 0. 0. 0. 0. 0. 0. 0. 0. 0. 0.
      1.11111104e-002 0. 0. 0. 3.70370364e-003 0. 0. 0. 3.70370364e-003
      0. 7.40740728e-003 1.11111104e-002 0. 0. 0. 0. 7.40740728e-003 0.
      0. 0. 0. 0. 0. 7.40740728e-003 0. 0. 0. 0. 3.70370364e-003 0. 0.
      0. 0. 0. 0. 0. 0. 0. 0. 0. 0. 0. 7.40740728e-003 0. 0. 0. 0. 0. 0.
      3.70370364e-003 7.40740728e-003 0. 0. 0. 7.40740728e-003 0. 0. 0.
      0. 7.40740728e-003 0. 0. 0. 7.40740728e-003 0. 0. 0.
      7.40740728e-003 0. 0. 0. 1.85185187e-002 3.70370364e-003
      3.70370364e-003 3.33333313e-002 0. 0. 0. 0. 0. 0. 0. 0. 0. 0. 0.
      0. 0. 0. 0. 0. 0. 0. 0. 0. 0. 0. 0. 7.40740728e-003 0. 0. 0. 0. 0.
      0. 0. 0. 0. 0. 0. 0. 0. 0. 0. 3.70370364e-003 0. 0.
      1.48148146e-002 0. 0. 3.70370364e-003 0. 0. 0. 0. 0. 0. 0.
      3.70370364e-003 0. 0. 0. 0. 0. 0. 3.70370364e-003 0.
      7.40740728e-003 0. 0. 0. 0. 0. 0. 0. 0. 0. 0. 3.70370364e-003 0.
      0. 3.70370364e-003 0. 0. 0. 0. 0. 0. 1.85185187e-002 0. 0. 0. 0.
      0. 0. 0. 0. 0. 0. 0. 0. 0. 0. 0. 0. 0. 0. 3.70370364e-003 0. 0. 0.
      0. 0. 0. 1.11111104e-002 0. 0. 0. 3.70370364e-003 0.
      3.70370364e-003 0. 1.11111104e-002 0. 0. 0. 0. 0. 0. 0. 0.
      3.70370364e-003 0. 0. 0. 0. 0. 0. 0. 1.48148146e-002 0. 0.
      1.48148146e-002 0. 0. 0. 0. 7.40740728e-003 3.70370364e-003 0. 0.
      0. 7.40740728e-003 0. 2.59259250e-002 1.85185187e-002
      3.70370364e-003 0. 0. 0. 3.70370364e-003 0. 0. 3.70370364e-003 0.
      7.40740728e-003 0. 0. 3.70370364e-003 0. 0. 0. 2.22222209e-002 0.
      0. 1.48148146e-002 0. 0. 0. 1.85185187e-002 0. 0. 0.
      3.70370364e-003 0. 7.40740728e-003 0. 0. 0. 0. 0. 0.
      3.70370364e-003 0. 0. 0. 3.70370364e-003 0. 0. 3.70370364e-003 0.
      0. 0. 0. 3.70370364e-003 0. 3.70370364e-003 0. 0. 0. 0.
      7.40740728e-003 3.70370364e-003 1.11111104e-002 1.11111104e-002 0.</_>
    <_>
      0. 0. 1.96078438e-002 0. 0. 0. 0. 0. 0. 3.26797389e-003 0.
      3.26797389e-003 3.26797389e-003 0. 3.26797389e-003 0.
      6.53594779e-003 0. 3.26797389e-003 0. 0. 0. 0. 0. 0. 0. 0. 0. 0.
      0. 0. 0. 0. 1.30718956e-002 0. 1.63398702e-002 3.26797389e-003 0.
      3.26797389e-003 0. 0. 9.80392192e-003 0. 9.80392192e-003 0. 0. 0.
      0. 0. 0. 0. 0. 3.26797389e-003 0. 0. 0. 0. 0. 0. 0. 0. 0. 0. 0.
      3.26797389e-003 0. 6.53594779e-003 0. 3.26797389e-003 0. 0. 0. 0.
      0. 0. 0. 6.53594779e-003 0. 9.80392192e-003 9.80392192e-003 0. 0.
      0. 0. 0. 3.26797389e-003 0. 3.26797389e-003 0. 1.30718956e-002 0.
      9.80392192e-003 0. 0. 0. 0. 0. 0. 1.96078438e-002 0. 0. 0. 0. 0.
      1.30718956e-002 0. 0. 9.80392192e-003 6.53594779e-003 0. 0. 0. 0.
      0. 4.57516350e-002 3.26797389e-003 0. 0. 3.26797389e-003
      1.30718956e-002 3.26797389e-003 1.63398702e-002 9.80392192e-003 0.
      0. 0. 0. 0. 0. 0. 0. 0. 0. 0. 0. 3.26797389e-003 0.
      9.80392192e-003 1.30718956e-002 0. 1.63398702e-002 0. 0. 0.
      9.80392192e-003 0. 0. 0. 0. 0. 0. 3.26797389e-003 0. 0. 0. 0.
      1.30718956e-002 1.96078438e-002 0. 0. 0. 0. 0. 0. 0. 0. 0. 0. 0.
      3.26797389e-003 0. 0. 0. 1.96078438e-002 0. 1.30718956e-002 0. 0.
      0. 0. 0. 1.30718956e-002 0. 0. 0. 0. 0. 6.53594779e-003 0. 0. 0.
      3.26797389e-003 0. 0. 9.80392192e-003 0. 0. 0. 0. 0. 0. 0.
      9.80392192e-003 0. 9.80392192e-003 0. 0. 0. 0. 0. 6.53594779e-003
      0. 0. 0. 2.28758175e-002 0. 0. 0. 0. 0. 0. 3.26797389e-003
      3.26797389e-003 3.26797389e-003 6.53594779e-003 0. 0. 0. 0. 0.
      6.53594779e-003 0. 3.26797389e-003 0. 0. 0. 0. 0. 0. 0. 0. 0.
      3.26797389e-003 0. 0. 0. 0. 3.26797389e-003 0. 0. 0. 0. 0. 0. 0.
      0. 1.96078438e-002 0. 0. 0. 0. 0. 0. 6.53594779e-003
      9.80392192e-003 0. 0. 9.80392192e-003 0. 3.26797389e-003 0. 0. 0.
      0. 0. 0. 3.26797389e-003 6.53594779e-003 0. 0. 0. 3.26797389e-003
      0. 0. 0. 9.80392192e-003 1.30718956e-002 0. 1.96078438e-002 0. 0.
      0. 0. 0. 0. 0. 0. 0. 0. 0. 0. 0. 0. 0. 0. 0. 0. 0. 0. 0. 0. 0.
      9.80392192e-003 0. 0. 0. 0. 0. 0. 0. 0. 0. 0. 0. 0. 0. 0. 0.
      3.26797389e-003 0. 0. 6.53594779e-003 0. 0. 3.26797389e-003 0. 0.
      3.26797389e-003 0. 0. 0. 0. 0. 9.80392192e-003 0. 0. 0. 0. 0. 0.
      0. 9.80392192e-003 0. 0. 0. 0. 0. 0. 0. 0. 0. 0. 0. 0. 0.
      9.80392192e-003 0. 0. 0. 0. 0. 0. 2.28758175e-002 0. 0.
      3.26797389e-003 0. 0. 0. 0. 0. 0. 0. 0. 0. 0. 0. 0. 0. 0. 0.
      6.53594779e-003 0. 0. 0. 6.53594779e-003 0. 6.53594779e-003
      6.53594779e-003 0. 0. 3.26797389e-003 0. 0. 1.30718956e-002 0. 0.
      0. 0. 0. 0. 0. 0. 3.26797389e-003 0. 0. 0. 0. 0. 0. 0. 0. 0. 0. 0.
      0. 1.63398702e-002 0. 0. 0. 9.80392192e-003 0. 3.26797389e-003 0.
      3.26797389e-003 0. 1.63398702e-002 0. 1.96078438e-002
      3.26797389e-003 0. 0. 0. 6.53594779e-003 0. 0. 0. 3.26797389e-003
      1.30718956e-002 0. 0. 0. 0. 0. 3.26797389e-003 1.30718956e-002
      6.53594779e-003 0. 0. 6.53594779e-003 0. 0. 0. 9.80392192e-003 0.
      6.53594779e-003 0. 6.53594779e-003 0. 6.53594779e-003 0. 0. 0. 0.
      0. 0. 0. 0. 0. 0. 0. 0. 0. 3.26797389e-003 0. 0. 0. 0.
      9.80392192e-003 0. 6.53594779e-003 0. 0. 0. 3.26797389e-003
      6.53594779e-003 0. 6.53594779e-003 2.28758175e-002 3.26797389e-003</_>
    <_>
      0. 0. 1.54320989e-002 6.17283955e-003 0. 0. 0. 0. 0. 0. 0.
      1.23456791e-002 3.08641978e-003 6.17283955e-003 9.25925933e-003 0.
      0. 9.25925933e-003 3.08641978e-003 0. 0. 0. 0. 0. 0.
      6.17283955e-003 3.08641978e-003 0. 3.08641978e-003 0. 0. 0. 0.
      2.16049384e-002 0. 1.54320989e-002 0. 0. 3.08641978e-003 0. 0.
      6.17283955e-003 0. 9.25925933e-003 0. 0. 0. 0. 3.08641978e-003 0.
      0. 0. 3.08641978e-003 0. 0. 6.17283955e-003 3.08641978e-003 0. 0.
      0. 0. 0. 0. 0. 0. 3.08641978e-003 6.17283955e-003 0.
      6.17283955e-003 0. 0. 0. 0. 6.17283955e-003 0. 0. 1.54320989e-002
      0. 6.17283955e-003 4.01234552e-002 0. 0. 3.08641978e-003
      3.08641978e-003 0. 0. 0. 1.23456791e-002 0. 1.85185187e-002 0.
      9.25925933e-003 0. 0. 0. 0. 0. 0. 9.25925933e-003 0. 0.
      3.08641978e-003 0. 0. 3.08641978e-003 0. 0. 6.17283955e-003
      6.17283955e-003 0. 3.08641978e-003 0. 0. 3.08641978e-003 0.
      3.08641978e-003 0. 0. 3.08641978e-003 1.85185187e-002 0. 0.
      9.25925933e-003 0. 0. 0. 0. 0. 0. 0. 0. 0. 0. 0. 0. 0. 0.
      9.25925933e-003 1.85185187e-002 0. 1.23456791e-002 0. 0. 0.
      3.08641978e-003 0. 0. 0. 0. 0. 0. 9.25925933e-003 0. 0. 0. 0.
      1.23456791e-002 1.23456791e-002 0. 0. 0. 3.08641978e-003
      1.54320989e-002 0. 0. 0. 0. 0. 0. 6.17283955e-003 0. 0. 0.
      1.54320989e-002 0. 1.23456791e-002 0. 0. 0. 0. 0. 0. 0. 0. 0. 0.
      0. 3.08641978e-003 0. 0. 0. 3.08641978e-003 0. 0. 9.25925933e-003
      0. 3.08641978e-003 3.08641978e-003 0. 0. 0. 0. 3.08641978e-003 0.
      9.25925933e-003 0. 0. 0. 0. 0. 3.08641978e-003 0. 0. 0.
      6.17283955e-003 0. 0. 3.08641978e-003 0. 0. 0. 0. 3.08641978e-003
      0. 9.25925933e-003 0. 0. 0. 0. 0. 9.25925933e-003 0. 0. 0. 0. 0.
      0. 0. 0. 0. 0. 0. 0. 3.08641978e-003 0. 0. 0. 3.08641978e-003 0.
      0. 0. 0. 0. 0. 0. 0. 2.16049384e-002 0. 0. 0. 0. 0. 0.
      3.08641978e-003 1.23456791e-002 6.17283955e-003 0. 0.
      3.08641978e-003 0. 0. 0. 0. 6.17283955e-003 0. 0. 0.
      9.25925933e-003 0. 0. 3.08641978e-003 1.23456791e-002 0. 0. 0.
      9.25925933e-003 6.17283955e-003 0. 9.25925933e-003 0. 0.
      3.08641978e-003 0. 0. 0. 3.08641978e-003 0. 0. 0. 0. 0. 0. 0. 0.
      0. 0. 3.08641978e-003 0. 0. 0. 0. 0. 1.23456791e-002 0. 0. 0. 0.
      0. 0. 0. 0. 0. 0. 0. 0. 0. 0. 0. 9.25925933e-003 0. 0. 0. 0. 0.
      6.17283955e-003 0. 0. 3.08641978e-003 0. 0. 0. 0. 0. 0. 0. 0. 0.
      0. 0. 0. 0. 2.16049384e-002 0. 0. 0. 0. 0. 0. 0. 0. 0. 0. 0. 0. 0.
      3.08641978e-003 0. 3.08641978e-003 0. 0. 0. 0. 2.46913582e-002 0.
      0. 0. 0. 0. 0. 0. 0. 0. 0. 0. 3.08641978e-003 0. 0. 0. 0. 0. 0.
      9.25925933e-003 0. 0. 0. 6.17283955e-003 0. 6.17283955e-003
      1.85185187e-002 0. 6.17283955e-003 0. 0. 0. 3.08641978e-003 0.
      1.54320989e-002 0. 0. 0. 0. 0. 0. 0. 0. 1.23456791e-002 0. 0. 0.
      0. 0. 0. 0. 9.25925933e-003 0. 0. 6.17283955e-003 0. 0. 0. 0.
      3.08641978e-003 0. 0. 3.08641978e-003 0. 3.08641978e-003 0.
      6.17283955e-003 6.17283955e-003 0. 0. 0. 0. 0. 3.08641978e-003 0.
      3.08641978e-003 6.17283955e-003 3.08641978e-003 0. 0. 0. 0. 0. 0.
      1.85185187e-002 0. 3.08641978e-003 1.23456791e-002 0. 0. 0.
      9.25925933e-003 0. 0. 0. 3.08641978e-003 0. 1.23456791e-002 0. 0.
      3.08641978e-003 0. 0. 0. 3.08641978e-003 0. 0. 0. 0. 0. 0.
      9.25925933e-003 0. 0. 0. 0. 9.25925933e-003 0. 1.23456791e-002 0.
      0. 6.17283955e-003 0. 9.25925933e-003 6.17283955e-003
      6.17283955e-003 0. 0.</_>
    <_>
      0. 0. 0. 1.07142860e-002 0. 0. 0. 0. 0. 3.57142859e-003 0.
      1.07142860e-002 0. 1.07142860e-002 7.14285718e-003 0. 0. 0.
      1.07142860e-002 0. 0. 0. 0. 0. 0. 0. 0. 0. 0. 0. 0. 0. 0.
      1.42857144e-002 0. 0. 0. 3.57142859e-003 3.57142859e-003 0. 0.
      7.14285718e-003 0. 1.42857144e-002 0. 0. 0. 0. 0. 0. 0. 0.
      3.57142859e-003 0. 0. 3.57142859e-003 0. 0. 0. 0. 3.57142859e-003
      0. 0. 0. 0. 3.57142859e-003 3.57142859e-003 0. 3.57142859e-003 0.
      0. 0. 0. 0. 0. 0. 3.57142859e-003 0. 3.57142859e-003
      3.57142873e-002 0. 0. 0. 0. 0. 0. 0. 7.14285718e-003 0.
      3.57142859e-003 0. 7.14285718e-003 0. 0. 0. 0. 0. 0.
      1.42857144e-002 0. 0. 0. 0. 0. 0. 0. 0. 7.14285718e-003
      7.14285718e-003 0. 0. 0. 0. 5.00000007e-002 2.14285720e-002 0.
      3.57142859e-003 0. 7.14285718e-003 1.42857144e-002 0.
      1.42857144e-002 1.07142860e-002 0. 0. 0. 0. 0. 0. 0. 0. 0. 0. 0.
      0. 1.07142860e-002 0. 7.14285718e-003 1.78571437e-002
      3.57142859e-003 1.78571437e-002 0. 0. 0. 7.14285718e-003 0. 0. 0.
      0. 0. 0. 1.07142860e-002 0. 0. 3.57142859e-003 0. 2.50000004e-002
      1.07142860e-002 7.14285718e-003 3.57142859e-003 0. 0.
      7.14285718e-003 0. 0. 0. 0. 0. 3.57142859e-003 7.14285718e-003 0.
      0. 0. 7.14285718e-003 0. 7.14285718e-003 0. 3.57142859e-003 0. 0.
      0. 0. 0. 0. 0. 0. 0. 0. 0. 0. 0. 3.57142859e-003 0. 0.
      2.50000004e-002 0. 0. 0. 0. 0. 0. 0. 3.57142859e-003 0.
      3.57142859e-003 0. 0. 0. 0. 3.57142859e-003 0. 0. 0. 0. 0. 0. 0.
      0. 0. 0. 0. 0. 3.57142859e-003 0. 3.57142859e-003 3.57142859e-003
      0. 0. 0. 0. 0. 0. 0. 0. 0. 0. 0. 0. 0. 0. 0. 0. 0. 0. 0. 0. 0. 0.
      0. 0. 0. 0. 0. 0. 0. 7.14285718e-003 1.78571437e-002 0. 0. 0. 0.
      0. 0. 7.14285718e-003 3.57142859e-003 0. 0. 3.57142859e-003 0. 0.
      0. 0. 0. 0. 0. 0. 0. 0. 3.57142859e-003 0. 0. 7.14285718e-003 0.
      0. 0. 7.14285718e-003 1.07142860e-002 0. 2.50000004e-002 0. 0.
      3.57142859e-003 0. 0. 0. 0. 0. 0. 0. 0. 0. 0. 3.57142859e-003 0.
      0. 0. 0. 0. 0. 0. 0. 0. 1.07142860e-002 0. 0. 0. 0. 0. 0. 0. 0. 0.
      0. 0. 0. 0. 0. 0. 0. 0. 0. 3.57142859e-003 0. 0. 0. 0. 0.
      3.57142859e-003 0. 0. 0. 0. 0. 0. 0. 0. 3.57142859e-003
      3.57142859e-003 0. 0. 0. 3.57142859e-003 0. 0. 0. 0. 0. 0. 0. 0.
      0. 0. 0. 0. 0. 1.42857144e-002 1.07142860e-002 0. 0. 0. 0. 0.
      7.14285718e-003 0. 0. 3.57142859e-003 0. 0. 0. 0. 0. 0. 0. 0. 0.
      0. 0. 0. 0. 0. 0. 0. 0. 0. 0. 1.42857144e-002 0. 1.78571437e-002
      7.14285718e-003 0. 0. 1.07142860e-002 0. 0. 0. 0. 1.42857144e-002
      0. 3.57142859e-003 0. 0. 0. 0. 3.57142859e-003 0. 7.14285718e-003
      0. 3.57142859e-003 0. 0. 3.57142859e-003 0. 0. 7.14285718e-003 0.
      0. 1.78571437e-002 0. 3.57142859e-003 0. 3.57142859e-003
      7.14285718e-003 0. 0. 7.14285718e-003 0. 3.57142859e-003 0.
      1.78571437e-002 7.14285718e-003 0. 0. 0. 0. 0. 0. 0.
      7.14285718e-003 1.07142860e-002 0. 0. 0. 0. 0. 7.14285718e-003
      7.14285718e-003 3.57142859e-003 0. 0. 1.07142860e-002 0. 0. 0.
      3.57142859e-003 0. 0. 0. 7.14285718e-003 0. 3.57142859e-003 0. 0.
      0. 0. 0. 0. 0. 0. 0. 0. 0. 0. 0. 0. 0. 0. 3.57142859e-003 0.
      1.07142860e-002 0. 7.14285718e-003 0. 0. 7.14285718e-003
      3.57142859e-003 7.14285718e-003 2.14285720e-002 3.57142859e-003
      3.57142859e-003 7.14285718e-003</_>
    <_>
      0. 0. 6.45161280e-003 3.22580640e-003 0. 0. 3.22580640e-003 0. 0.
      9.67741944e-003 0. 9.67741944e-003 9.67741944e-003 6.45161280e-003
      3.22580640e-003 0. 0. 1.29032256e-002 0. 0. 0. 0. 0. 0. 0. 0. 0.
      0. 0. 0. 0. 0. 0. 0. 0. 0. 0. 0. 3.22580640e-003 0. 0.
      9.67741944e-003 0. 9.67741944e-003 0. 0. 0. 0. 0. 0. 0. 0. 0. 0.
      0. 9.67741944e-003 3.22580640e-003 0. 0. 0. 6.45161280e-003 0. 0.
      0. 0. 3.22580640e-003 6.45161280e-003 0. 1.29032256e-002 0. 0. 0.
      0. 0. 0. 0. 3.22580640e-003 0. 3.22580640e-003 6.45161280e-003 0.
      0. 0. 0. 0. 3.22580640e-003 0. 1.61290318e-002 0. 1.61290318e-002
      0. 1.29032256e-002 0. 0. 0. 0. 0. 0. 9.67741944e-003 0. 0.
      9.67741944e-003 0. 0. 3.22580640e-003 0. 0. 6.45161280e-003
      9.67741944e-003 0. 6.45161280e-003 0. 0. 6.45161280e-003 0. 0. 0.
      0. 9.67741944e-003 2.25806441e-002 3.22580640e-003 6.45161280e-003
      6.45161280e-003 0. 0. 0. 0. 0. 0. 0. 0. 0. 3.22580640e-003 0. 0.
      0. 0. 1.29032256e-002 1.29032256e-002 0. 2.90322583e-002 0. 0. 0.
      6.45161280e-003 0. 0. 0. 0. 0. 0. 0. 0. 3.22580640e-003
      3.22580640e-003 0. 0. 9.67741944e-003 6.45161280e-003 0. 0. 0.
      3.22580640e-003 3.22580640e-003 0. 0. 0. 0. 3.22580640e-003
      6.45161280e-003 0. 0. 0. 3.22580640e-003 0. 0. 0. 1.61290318e-002
      0. 0. 0. 3.22580640e-003 0. 0. 0. 0. 0. 3.22580640e-003 0. 0. 0.
      3.22580640e-003 6.45161280e-003 0. 3.22580640e-003 0.
      3.22580640e-003 0. 0. 0. 0. 0. 3.22580640e-003 0. 0. 0. 0. 0. 0.
      0. 1.29032256e-002 0. 0. 0. 0. 0. 0. 0. 0. 3.22580640e-003
      3.22580640e-003 0. 6.45161280e-003 3.22580640e-003 3.22580640e-003
      6.45161280e-003 0. 0. 0. 0. 0. 0. 1.93548389e-002 3.22580640e-003
      0. 0. 0. 0. 0. 0. 0. 0. 6.45161280e-003 0. 0. 0. 0.
      6.45161280e-003 3.22580640e-003 0. 0. 0. 0. 0. 0. 0.
      1.61290318e-002 0. 0. 0. 0. 0. 0. 0. 6.45161280e-003 0. 0. 0. 0.
      3.22580640e-003 0. 0. 0. 0. 0. 0. 0. 9.67741944e-003 0. 0. 0.
      3.22580640e-003 0. 3.22580640e-003 0. 1.29032256e-002
      3.22580640e-003 0. 2.90322583e-002 0. 0. 3.22580640e-003
      3.22580640e-003 0. 0. 3.22580640e-003 0. 0. 0. 0. 0. 0. 0. 0. 0.
      0. 0. 0. 0. 3.22580640e-003 0. 0. 6.45161280e-003 0. 0. 0. 0. 0.
      0. 0. 0. 0. 0. 0. 3.22580640e-003 0. 0. 0. 0. 0. 0.
      3.22580640e-003 0. 3.22580640e-003 6.45161280e-003 0. 0.
      1.29032256e-002 0. 0. 0. 3.22580640e-003 3.22580640e-003
      3.22580640e-003 0. 0. 0. 0. 0. 3.22580640e-003 0. 6.45161280e-003
      0. 0. 0. 0. 0. 0. 0. 0. 3.22580640e-003 0. 0. 9.67741944e-003 0.
      0. 0. 0. 0. 0. 3.22580640e-003 0. 1.61290318e-002 0. 0. 0. 0. 0.
      0. 0. 0. 3.22580640e-003 0. 0. 0. 0. 0. 0. 0. 0. 0.
      1.93548389e-002 0. 0. 0. 3.22580640e-003 0. 0. 1.61290318e-002 0.
      0. 9.67741944e-003 0. 0. 3.22580640e-003 0. 1.29032256e-002 0.
      3.22580640e-003 0. 0. 3.22580640e-003 0. 3.22580640e-003 0.
      3.22580640e-003 0. 6.45161280e-003 0. 0. 0. 0. 0. 1.29032256e-002
      0. 0. 9.67741944e-003 0. 0. 3.22580640e-003 0. 6.45161280e-003
      3.22580640e-003 3.22580640e-003 1.29032256e-002 0. 6.45161280e-003
      0. 1.29032256e-002 1.93548389e-002 0. 0. 0. 0. 0. 0.
      3.22580640e-003 0. 9.67741944e-003 0. 3.22580640e-003
      3.22580640e-003 0. 0. 0. 6.45161280e-003 2.58064512e-002 0. 0.
      1.29032256e-002 0. 3.22580640e-003 0. 0. 0. 3.22580640e-003 0. 0.
      0. 0. 0. 0. 0. 0. 3.22580640e-003 3.22580640e-003 3.22580640e-003
      0. 0. 3.22580640e-003 0. 3.22580640e-003 0. 3.22580640e-003 0. 0.
      0. 0. 0. 0. 1.61290318e-002 0. 0. 0. 3.22580640e-003
      6.45161280e-003 0. 0. 0. 3.22580640e-003</_>
    <_>
      0. 0. 1.32450331e-002 3.31125828e-003 0. 3.31125828e-003 0. 0. 0.
      6.62251655e-003 0. 3.31125828e-003 0. 3.31125828e-003
      9.93377529e-003 0. 0. 0. 0. 0. 0. 0. 3.31125828e-003 0. 0.
      3.31125828e-003 0. 0. 0. 0. 0. 0. 0. 1.98675506e-002 0.
      6.62251655e-003 0. 0. 0. 0. 0. 6.62251655e-003 0. 2.98013240e-002
      0. 0. 0. 0. 0. 3.31125828e-003 0. 0. 9.93377529e-003 0. 0. 0.
      3.31125828e-003 0. 0. 0. 3.31125828e-003 0. 0. 0. 0.
      3.31125828e-003 0. 3.31125828e-003 1.65562909e-002 0. 0. 0. 0. 0.
      0. 3.31125828e-003 9.93377529e-003 0. 3.31125828e-003
      6.62251655e-003 0. 0. 0. 0. 0. 0. 0. 6.62251655e-003 0.
      3.31125828e-003 0. 9.93377529e-003 0. 0. 0. 0. 0. 0.
      2.31788084e-002 0. 0. 6.62251655e-003 0. 0. 3.31125828e-003 0.
      3.31125828e-003 0. 1.65562909e-002 0. 6.62251655e-003 0. 0.
      1.65562909e-002 3.31125828e-003 6.62251655e-003 0. 0.
      3.31125828e-003 0. 0. 9.93377529e-003 1.65562909e-002 0. 0. 0. 0.
      0. 0. 0. 0. 0. 0. 0. 0. 0. 0. 1.98675506e-002 2.98013240e-002 0.
      1.32450331e-002 0. 0. 6.62251655e-003 3.31125828e-003
      3.31125828e-003 0. 0. 0. 0. 0. 0. 0. 0. 3.31125828e-003
      3.31125828e-003 1.98675506e-002 9.93377529e-003 3.31125828e-003 0.
      0. 0. 0. 0. 0. 0. 0. 0. 0. 0. 0. 0. 0. 2.31788084e-002 0.
      1.32450331e-002 0. 1.98675506e-002 0. 0. 0. 6.62251655e-003 0.
      3.31125828e-003 0. 0. 0. 3.31125828e-003 0. 0. 0. 6.62251655e-003
      0. 0. 9.93377529e-003 0. 0. 0. 0. 0. 0. 0. 2.31788084e-002 0.
      6.62251655e-003 0. 0. 0. 0. 0. 0. 0. 0. 0. 0. 3.31125828e-003 0.
      0. 0. 0. 0. 0. 6.62251655e-003 0. 6.62251655e-003 6.62251655e-003
      0. 0. 0. 0. 0. 0. 0. 0. 0. 0. 0. 0. 0. 0. 0. 0. 0. 0. 0. 0. 0. 0.
      0. 0. 0. 0. 0. 0. 0. 0. 9.93377529e-003 0. 0. 0. 0. 0. 0. 0.
      6.62251655e-003 0. 0. 0. 3.31125828e-003 0. 0. 0. 0.
      6.62251655e-003 0. 0. 0. 0. 0. 0. 3.31125828e-003 6.62251655e-003
      0. 0. 0. 2.64900662e-002 2.98013240e-002 0. 2.31788084e-002 0. 0.
      0. 3.31125828e-003 0. 0. 0. 0. 0. 0. 0. 0. 0. 0. 0. 0. 0. 0. 0. 0.
      0. 0. 0. 3.31125828e-003 0. 0. 0. 0. 0. 0. 0. 0. 0. 0. 0. 0. 0. 0.
      0. 0. 0. 0. 6.62251655e-003 0. 0. 3.31125828e-003 0. 0.
      6.62251655e-003 0. 0. 0. 6.62251655e-003 0. 3.31125828e-003
      3.31125828e-003 0. 6.62251655e-003 0. 0. 3.31125828e-003 0. 0. 0.
      0. 0. 0. 0. 0. 0. 0. 0. 0. 0. 0. 0. 0. 3.31125828e-003 0. 0. 0. 0.
      0. 6.62251655e-003 0. 0. 6.62251655e-003 0. 0. 0. 0. 0. 0. 0. 0.
      3.31125828e-003 0. 0. 3.31125828e-003 0. 0. 0. 6.62251655e-003 0.
      0. 0. 1.32450331e-002 0. 3.31125828e-003 0. 0. 6.62251655e-003 0.
      0. 0. 0. 0. 9.93377529e-003 0. 0. 0. 0. 0. 0. 0. 0.
      3.31125828e-003 0. 0. 0. 0. 0. 0. 0. 6.62251655e-003 0. 0.
      1.98675506e-002 0. 0. 0. 0. 6.62251655e-003 6.62251655e-003 0.
      9.93377529e-003 0. 1.32450331e-002 3.31125828e-003 6.62251655e-003
      6.62251655e-003 3.31125828e-003 0. 0. 3.31125828e-003 0. 0. 0.
      3.31125828e-003 0. 0. 0. 0. 0. 0. 0. 0. 9.93377529e-003 0. 0.
      1.65562909e-002 0. 0. 0. 0. 0. 3.31125828e-003 0. 0. 0.
      1.98675506e-002 0. 0. 0. 0. 0. 0. 0. 0. 0. 0. 0. 0. 0.
      1.32450331e-002 0. 0. 0. 0. 0. 0. 9.93377529e-003 0. 0.
      3.31125828e-003 0. 3.31125828e-003 1.32450331e-002 3.31125828e-003
      1.65562909e-002 0.</_>
    <_>
      0. 0. 0. 1.36986300e-002 0. 0. 0. 0. 0. 1.36986300e-002 0.
      3.42465751e-003 0. 0. 0. 0. 0. 3.42465751e-003 0. 0. 0. 0. 0. 0.
      0. 0. 0. 0. 0. 0. 0. 0. 0. 3.42465751e-003 0. 6.84931502e-003 0.
      0. 3.42465751e-003 0. 0. 1.71232875e-002 0. 1.02739725e-002 0. 0.
      0. 0. 0. 0. 0. 6.84931502e-003 0. 0. 0. 3.42465751e-003 0. 0. 0.
      0. 0. 0. 0. 0. 0. 1.36986300e-002 6.84931502e-003 0.
      1.36986300e-002 0. 0. 0. 0. 3.42465751e-003 0. 0. 0. 0.
      3.42465751e-003 2.39726026e-002 0. 0. 0. 6.84931502e-003 0. 0. 0.
      3.42465751e-003 0. 1.02739725e-002 3.42465751e-003 1.71232875e-002
      0. 0. 0. 0. 0. 0. 1.02739725e-002 0. 0. 6.84931502e-003 0. 0. 0.
      0. 3.42465751e-003 0. 1.02739725e-002 0. 6.84931502e-003
      3.42465751e-003 0. 4.10958901e-002 1.36986300e-002 0. 0. 0.
      3.42465751e-003 3.42465751e-003 0. 0. 1.71232875e-002 0. 0. 0.
      3.42465751e-003 0. 0. 0. 0. 3.42465751e-003 0. 0. 0. 0. 0.
      1.36986300e-002 3.42465751e-003 0. 2.73972601e-002 0. 0. 0.
      3.42465751e-003 3.42465751e-003 0. 0. 6.84931502e-003 0. 0.
      1.02739725e-002 0. 0. 0. 0. 2.05479451e-002 6.84931502e-003 0. 0.
      0. 0. 2.39726026e-002 3.42465751e-003 0. 0. 0. 0. 0.
      1.02739725e-002 0. 0. 0. 3.42465751e-003 0. 0. 0. 3.42465751e-003
      0. 0. 0. 0. 0. 6.84931502e-003 0. 0. 0. 6.84931502e-003 0. 0. 0.
      0. 0. 0. 3.42465751e-003 0. 0. 0. 0. 0. 0. 0. 0. 0.
      6.84931502e-003 0. 0. 0. 0. 0. 0. 0. 0. 0. 0. 0. 3.42465751e-003
      0. 0. 3.42465751e-003 0. 0. 0. 0. 3.42465751e-003 1.36986300e-002
      0. 3.42465751e-003 0. 0. 2.05479451e-002 3.42465751e-003
      1.02739725e-002 0. 0. 0. 0. 0. 0. 0. 3.42465751e-003 0. 0. 0. 0.
      0. 0. 0. 0. 0. 0. 0. 0. 0. 0. 6.84931502e-003 1.02739725e-002 0.
      0. 0. 0. 0. 0. 0. 3.42465751e-003 0. 0. 0. 0. 0. 0. 0. 0. 0. 0. 0.
      0. 0. 0. 0. 0. 3.42465751e-003 0. 3.42465751e-003 0.
      6.84931502e-003 2.05479451e-002 0. 1.02739725e-002 0. 0.
      6.84931502e-003 0. 0. 0. 6.84931502e-003 0. 0. 0. 0. 0. 0. 0. 0.
      0. 0. 0. 0. 0. 0. 0. 0. 0. 0. 0. 0. 0. 0. 0. 0. 0. 0. 0. 0. 0. 0.
      0. 0. 6.84931502e-003 0. 0. 0. 0. 6.84931502e-003 3.42465751e-003
      0. 0. 0. 0. 0. 0. 6.84931502e-003 0. 0. 0. 0. 3.42465751e-003 0.
      0. 3.42465751e-003 0. 2.05479451e-002 0. 0. 0. 0. 0. 0. 0. 0. 0.
      0. 0. 3.42465751e-003 0. 1.71232875e-002 1.71232875e-002 0. 0. 0.
      0. 0. 0. 0. 0. 0. 0. 0. 0. 0. 0. 0. 0. 0. 0. 0. 0. 0.
      3.42465751e-003 0. 0. 6.84931502e-003 0. 0. 0. 2.39726026e-002 0.
      6.84931502e-003 3.42465751e-003 0. 3.42465751e-003 0. 0. 0.
      3.42465751e-003 3.42465751e-003 1.36986300e-002 0. 0. 0. 0. 0. 0.
      3.42465751e-003 0. 0. 0. 0. 0. 0. 0. 0. 0. 3.42465751e-003 0. 0.
      1.36986300e-002 3.42465751e-003 0. 0. 0. 3.42465751e-003
      3.42465751e-003 0. 1.36986300e-002 0. 3.08219176e-002
      1.02739725e-002 6.84931502e-003 2.05479451e-002 0. 0. 0. 0. 0. 0.
      0. 0. 0. 0. 0. 0. 0. 0. 0. 0. 1.71232875e-002 3.42465751e-003 0.
      3.42465751e-003 0. 0. 0. 0. 0. 0. 0. 0. 0. 3.42465751e-003 0. 0.
      3.42465751e-003 0. 0. 0. 0. 0. 0. 3.42465751e-003 0. 0. 0.
      2.73972601e-002 0. 0. 0. 0. 6.84931502e-003 0. 3.42465751e-003 0.
      0. 0. 0. 0. 2.05479451e-002 3.42465751e-003 3.42465751e-003
      3.42465751e-003</_>
    <_>
      0. 0. 7.78210117e-003 1.16731515e-002 0. 0. 0. 3.89105058e-003 0.
      3.89105058e-003 0. 3.89105058e-003 7.78210117e-003 7.78210117e-003
      0. 0. 0. 7.78210117e-003 0. 0. 0. 0. 0. 0. 0. 0. 3.89105058e-003
      0. 0. 0. 0. 0. 0. 7.78210117e-003 0. 1.16731515e-002 0. 0. 0. 0.
      0. 3.89105058e-003 0. 1.55642023e-002 0. 0. 0. 0. 0.
      3.89105058e-003 0. 0. 3.89105058e-003 0. 0. 0. 0. 0. 0. 0. 0. 0.
      0. 0. 0. 3.89105058e-003 7.78210117e-003 0. 0. 0. 0. 0. 0. 0. 0.
      0. 7.78210117e-003 0. 1.16731515e-002 3.89105058e-003 0.
      3.89105058e-003 3.89105058e-003 0. 0. 0. 0. 1.94552522e-002 0.
      7.78210117e-003 0. 0. 0. 0. 0. 0. 0. 0. 0. 0. 0. 3.89105058e-003
      0. 0. 0. 0. 3.89105058e-003 3.89105058e-003 7.78210117e-003 0. 0.
      0. 0. 1.16731515e-002 7.78210117e-003 0. 0. 0. 1.16731515e-002
      1.16731515e-002 0. 7.78210117e-003 1.94552522e-002 0. 0. 0. 0. 0.
      0. 0. 0. 0. 0. 0. 3.89105058e-003 7.78210117e-003 0.
      2.33463030e-002 2.33463030e-002 0. 3.11284047e-002 0. 0. 0. 0. 0.
      0. 0. 0. 0. 0. 7.78210117e-003 0. 0. 0. 0. 1.55642023e-002
      3.11284047e-002 0. 0. 0. 0. 7.78210117e-003 7.78210117e-003 0. 0.
      0. 0. 0. 1.16731515e-002 0. 0. 0. 3.89105044e-002 0.
      1.55642023e-002 0. 1.16731515e-002 0. 0. 0. 0. 0. 0. 0. 0. 0.
      7.78210117e-003 0. 0. 0. 3.89105058e-003 0. 0. 0. 0. 0. 0. 0. 0.
      0. 0. 1.16731515e-002 0. 7.78210117e-003 0. 0. 0. 0. 0. 0. 0. 0.
      0. 3.89105058e-003 0. 0. 0. 0. 0. 0. 0. 1.16731515e-002
      3.89105058e-003 0. 1.16731515e-002 0. 3.89105058e-003 0. 0.
      3.89105058e-003 0. 0. 0. 0. 0. 0. 0. 3.89105058e-003 0. 0. 0. 0.
      0. 0. 0. 0. 3.89105058e-003 0. 0. 0. 0. 0. 0. 0. 7.78210117e-003
      0. 0. 0. 1.16731515e-002 0. 0. 0. 0. 1.16731515e-002 0. 0. 0. 0.
      7.78210117e-003 0. 0. 3.89105058e-003 0. 0. 0. 0. 1.94552522e-002
      0. 0. 3.89105058e-003 3.89105058e-003 0. 0. 0. 7.78210117e-003
      3.89105058e-003 0. 7.78210117e-003 0. 3.89105058e-003
      3.89105058e-003 7.78210117e-003 0. 0. 0. 0. 0. 0. 0. 0. 0. 0. 0.
      0. 0. 0. 0. 0. 0. 0. 0. 3.89105058e-003 0. 0. 0. 0. 0. 0. 0. 0. 0.
      0. 0. 0. 0. 0. 0. 3.89105058e-003 0. 0. 3.89105058e-003 0. 0. 0.
      0. 0. 0. 0. 0. 0. 2.33463030e-002 0. 0. 0. 0. 0. 0. 0. 0. 0. 0. 0.
      0. 0. 0. 0. 0. 0. 3.89105058e-003 0. 0. 0. 0. 0. 0. 0. 0. 0. 0. 0.
      0. 7.78210117e-003 0. 0. 0. 0. 0. 0. 0. 0. 0. 0. 0. 0. 0. 0.
      3.89105058e-003 0. 0. 0. 0. 0. 0. 0. 1.16731515e-002 0. 0.
      7.78210117e-003 0. 0. 0. 0. 0. 0. 0. 2.33463030e-002 0. 0. 0. 0.
      0. 0. 0. 0. 0. 0. 0. 0. 3.89105058e-003 0. 0. 0. 1.16731515e-002
      0. 0. 3.89105058e-003 0. 0. 0. 0. 1.16731515e-002 3.89105058e-003
      0. 3.89105058e-003 0. 5.05836569e-002 7.78210117e-003
      1.55642023e-002 2.33463030e-002 0. 0. 0. 0. 0. 0. 0. 0. 0. 0. 0.
      0. 0. 0. 0. 7.78210117e-003 3.89105058e-003 0. 0. 1.16731515e-002
      0. 0. 0. 7.78210117e-003 0. 0. 0. 0. 3.89105058e-003
      1.94552522e-002 0. 0. 0. 0. 0. 3.89105058e-003 0. 0. 0. 0. 0. 0.
      0. 3.89105058e-003 0. 0. 0. 0. 3.89105058e-003 0. 1.55642023e-002
      0. 0. 0. 0. 0. 3.89105058e-003 0. 0. 0.</_>
    <_>
      0. 0. 7.36377016e-003 5.89101622e-003 0. 0. 1.47275405e-003
      7.36377016e-003 4.41826228e-003 0. 1.47275405e-003 1.47275405e-003
      2.94550811e-003 5.89101622e-003 0. 0. 0. 0. 1.47275405e-003 0.
      4.41826228e-003 2.94550811e-003 1.17820324e-002 0. 2.94550811e-003
      1.47275405e-003 0. 2.94550811e-003 2.94550811e-003 0.
      8.83652456e-003 4.41826228e-003 0. 7.36377016e-003 1.47275405e-003
      7.36377016e-003 4.41826228e-003 1.47275405e-003 0. 5.89101622e-003
      1.47275405e-003 0. 1.47275405e-003 0. 0. 0. 0. 0. 8.83652456e-003
      0. 5.89101622e-003 1.47275405e-003 0. 1.17820324e-002
      5.89101622e-003 2.94550811e-003 0. 0. 0. 1.47275405e-003 0. 0.
      2.94550811e-003 0. 4.41826228e-003 0. 1.47275405e-003
      5.89101622e-003 1.47275405e-003 7.36377016e-003 0. 0.
      5.89101622e-003 1.47275405e-003 0. 1.17820324e-002 8.83652456e-003
      8.83652456e-003 7.36377016e-003 7.36377016e-003 1.47275405e-003 0.
      0. 1.47275405e-003 2.94550811e-003 2.94550811e-003 0. 0. 0.
      1.47275405e-003 1.47275405e-003 2.94550811e-003 4.41826228e-003 0.
      0. 0. 2.94550811e-003 0. 0. 0. 0. 0. 2.94550811e-003 0. 0.
      5.89101622e-003 0. 1.47275405e-003 0. 0. 0. 1.47275405e-003
      4.41826228e-003 0. 7.36377016e-003 0. 0. 1.47275405e-003 0. 0.
      1.47275405e-003 0. 0. 0. 0. 0. 1.47275405e-003 0. 1.47275405e-003
      0. 1.03092780e-002 5.89101622e-003 1.47275405e-003 5.89101622e-003
      1.03092780e-002 2.94550811e-003 1.47275405e-003 4.41826228e-003 0.
      5.89101622e-003 4.41826228e-003 0. 4.41826228e-003 8.83652456e-003
      0. 0. 0. 1.47275405e-003 0. 0. 4.41826228e-003 1.47275405e-003
      5.89101622e-003 0. 2.94550811e-003 7.36377016e-003 1.47275405e-003
      2.94550811e-003 2.94550811e-003 1.47275405e-003 4.41826228e-003 0.
      1.47275405e-003 0. 0. 0. 2.94550811e-003 4.41826228e-003
      1.47275405e-003 0. 5.89101622e-003 7.36377016e-003 0. 0. 0. 0. 0.
      1.47275405e-003 4.41826228e-003 0. 2.94550811e-003 7.36377016e-003
      2.94550811e-003 0. 0. 1.47275405e-003 2.94550811e-003
      1.47275405e-003 5.89101622e-003 0. 0. 0. 0. 0. 7.36377016e-003 0.
      0. 0. 2.94550811e-003 0. 2.94550811e-003 0. 0. 0. 1.47275405e-003
      2.94550811e-003 0. 1.47275405e-003 0. 0. 1.47275405e-003 0.
      1.47275405e-003 0. 1.47275405e-003 4.41826228e-003 0.
      2.94550811e-003 0. 0. 1.47275405e-003 0. 0. 1.47275405e-003 0.
      1.47275405e-003 0. 2.94550811e-003 1.47275405e-003 1.47275405e-003
      0. 2.94550811e-003 2.94550811e-003 1.47275405e-003 0.
      1.47275405e-003 5.89101622e-003 0. 1.03092780e-002 7.36377016e-003
      0. 0. 2.94550811e-003 1.47275405e-003 0. 2.94550811e-003 0.
      1.47275405e-003 0. 0. 0. 0. 7.36377016e-003 5.89101622e-003 0.
      1.47275405e-003 1.47275405e-003 0. 5.89101622e-003 1.47275405e-003
      0. 0. 4.41826228e-003 1.47275405e-003 0. 0. 2.94550811e-003 0. 0.
      1.47275405e-003 1.47275405e-003 1.47275405e-003 1.03092780e-002
      1.47275405e-003 2.94550811e-003 0. 0. 4.41826228e-003
      4.41826228e-003 1.47275405e-003 0. 7.36377016e-003 2.94550811e-003
      1.47275405e-003 1.47275405e-003 0. 0. 2.94550811e-003
      4.41826228e-003 2.94550811e-003 0. 5.89101622e-003 1.47275405e-003
      0. 2.94550811e-003 0. 0. 0. 4.41826228e-003 0. 2.94550811e-003
      1.47275405e-003 4.41826228e-003 1.47275405e-003 0. 0.
      5.89101622e-003 0. 0. 4.41826228e-003 1.32547868e-002
      1.62002947e-002 0. 4.41826228e-003 1.47275405e-003 1.47275405e-003
      1.47275405e-003 0. 0. 0. 2.94550811e-003 0. 7.36377016e-003
      2.94550811e-003 1.47275405e-003 0. 1.47275405e-003 0. 0. 0.
      2.94550811e-003 1.47275405e-003 4.41826228e-003 1.47275405e-003 0.
      7.36377016e-003 0. 0. 0. 4.41826228e-003 1.47275405e-003 0. 0. 0.
      1.47275405e-003 5.89101622e-003 0. 0. 2.94550811e-003
      1.47275405e-003 1.03092780e-002 0. 1.47275405e-003 7.36377016e-003
      0. 2.94550811e-003 0. 1.47275405e-003 0. 2.94550811e-003
      1.32547868e-002 0. 0. 0. 4.41826228e-003 1.47275405e-003 0. 0. 0.
      0. 0. 0. 0. 0. 0. 2.94550811e-003 0. 1.47275405e-003 0. 0. 0.
      1.47275405e-003 2.94550811e-003 1.47275405e-003 0. 1.47275405e-003
      4.41826228e-003 1.47275405e-003 0. 0. 0. 1.47275405e-003
      1.47275405e-003 0. 0. 0. 5.89101622e-003 1.47275405e-003 0.
      2.94550811e-003 0. 0. 1.47275405e-003 0. 1.47275405e-003
      1.47275405e-003 1.47275405e-003 0. 5.89101622e-003 1.47275405e-003
      4.41826228e-003 0. 2.94550811e-003 1.47275405e-003 0. 0. 0.
      4.41826228e-003 0. 1.47275405e-003 0. 7.36377016e-003
      2.94550811e-003 0. 4.41826228e-003 0. 0. 0. 4.41826228e-003
      1.47275405e-003 0. 0. 4.41826228e-003 0. 1.47275405e-003 0.
      1.47275405e-003 0. 1.47275405e-003 0. 0. 0. 1.47275405e-003
      2.94550811e-003 0. 0. 1.47275405e-003 5.89101622e-003
      1.32547868e-002 1.47275405e-003 0. 7.36377016e-003 2.94550811e-003
      1.47275405e-003 0. 1.47275405e-003 0. 1.03092780e-002
      2.94550811e-003 5.89101622e-003 2.94550811e-003 1.47275405e-003
      1.47275403e-002 2.94550811e-003 1.47275405e-003 1.17820324e-002
      4.41826228e-003 0. 5.89101622e-003 1.47275405e-003 0.
      4.41826228e-003 0. 0. 2.94550811e-003 0. 1.47275405e-003 0.
      1.47275405e-003 0. 0. 0. 2.94550811e-003 1.47275405e-003 0.
      2.94550811e-003 0. 0. 4.41826228e-003 0. 0. 4.41826228e-003 0. 0.
      0. 0. 0. 4.41826228e-003 0. 0.</_>
    <_>
      0. 0. 8.38926155e-003 8.38926155e-003 1.67785236e-003 0.
      5.03355730e-003 6.71140943e-003 0. 1.67785236e-003 1.67785236e-003
      0. 3.35570471e-003 0. 1.67785236e-003 0. 0. 0. 1.67785236e-003
      1.67785236e-003 1.17449667e-002 0. 1.00671146e-002 1.67785236e-003
      0. 1.67785236e-003 3.35570471e-003 0. 1.67785236e-003 0.
      5.03355730e-003 6.71140943e-003 1.67785236e-003 6.71140943e-003 0.
      3.35570471e-003 1.67785236e-003 1.67785236e-003 1.67785236e-003
      1.67785236e-003 3.35570471e-003 0. 0. 0. 1.17449667e-002 0. 0. 0.
      1.17449667e-002 0. 3.35570471e-003 0. 0. 5.03355730e-003
      5.03355730e-003 3.35570471e-003 0. 3.35570471e-003 0.
      1.67785236e-003 0. 0. 1.00671146e-002 0. 6.71140943e-003
      1.67785236e-003 3.35570471e-003 0. 0. 1.67785236e-003 0.
      1.67785236e-003 1.67785236e-003 0. 0. 1.17449667e-002
      1.67785236e-003 2.34899335e-002 3.35570471e-003 1.00671146e-002
      1.67785236e-003 0. 0. 0. 0. 3.35570471e-003 1.67785236e-003 0.
      1.67785236e-003 3.35570471e-003 0. 5.03355730e-003 0. 0. 0. 0. 0.
      0. 0. 0. 3.35570471e-003 0. 0. 1.67785236e-003 1.67785236e-003
      6.71140943e-003 0. 1.67785236e-003 0. 0. 1.67785236e-003 0.
      3.35570471e-003 0. 1.67785236e-003 0. 0. 0. 0. 0. 0. 0. 0. 0.
      3.35570471e-003 0. 0. 0. 1.67785236e-003 0. 5.03355730e-003
      3.35570471e-003 1.67785236e-003 5.03355730e-003 5.03355730e-003
      1.67785236e-003 0. 6.71140943e-003 0. 3.35570471e-003 0. 0.
      5.03355730e-003 8.38926155e-003 0. 0. 0. 5.03355730e-003 0. 0. 0.
      0. 6.71140943e-003 3.35570471e-003 0. 6.71140943e-003
      1.67785236e-003 1.67785236e-003 3.35570471e-003 0. 1.00671146e-002
      0. 0. 0. 0. 0. 0. 0. 6.71140943e-003 0. 0. 5.03355730e-003
      1.00671146e-002 0. 1.67785236e-003 0. 6.71140943e-003
      1.67785236e-003 0. 6.71140943e-003 0. 0. 3.35570471e-003 0. 0.
      1.67785236e-003 6.71140943e-003 0. 5.03355730e-003 0. 0. 0. 0. 0.
      3.35570471e-003 1.67785236e-003 1.67785236e-003 0. 1.51006710e-002
      0. 6.71140943e-003 1.67785236e-003 0. 3.35570471e-003 0.
      1.67785236e-003 0. 3.35570471e-003 0. 3.35570471e-003 0. 0.
      3.35570471e-003 0. 1.67785236e-003 6.71140943e-003 0. 0. 0. 0.
      1.67785236e-003 0. 0. 0. 0. 0. 3.35570471e-003 8.38926155e-003
      1.67785236e-003 0. 0. 3.35570471e-003 0. 0. 0. 1.67785236e-003
      1.67785236e-003 1.67785236e-003 0. 8.38926155e-003 0. 0.
      1.67785236e-003 0. 1.67785236e-003 1.67785236e-003 3.35570471e-003
      3.35570471e-003 0. 1.67785236e-003 0. 0. 3.35570471e-003 0. 0. 0.
      8.38926155e-003 0. 0. 0. 0. 2.01342292e-002 3.35570471e-003
      1.67785236e-003 0. 0. 1.67785236e-003 0. 1.67785236e-003
      1.67785236e-003 1.67785236e-003 3.35570471e-003 3.35570471e-003 0.
      0. 0. 0. 1.67785236e-003 1.67785236e-003 5.03355730e-003 0.
      3.35570471e-003 5.03355730e-003 3.35570471e-003 0. 0. 0.
      3.35570471e-003 3.35570471e-003 1.67785236e-003 0. 0. 0. 0. 0. 0.
      0. 0. 0. 0. 1.67785236e-003 1.67785236e-003 0. 0. 0. 0.
      1.17449667e-002 0. 0. 6.71140943e-003 8.38926155e-003 0.
      3.35570471e-003 1.67785236e-003 0. 0. 0. 0. 5.03355730e-003 0. 0.
      0. 3.35570471e-003 1.67785236e-003 0. 1.34228189e-002
      3.35570471e-003 0. 0. 1.67785236e-003 6.71140943e-003 0.
      8.38926155e-003 1.67785236e-003 0. 1.67785236e-003 1.67785236e-003
      0. 1.67785236e-003 5.03355730e-003 3.35570471e-003 0. 0. 0. 0.
      3.35570471e-003 0. 0. 6.71140943e-003 0. 6.71140943e-003 0.
      1.34228189e-002 5.03355730e-003 3.35570471e-003 5.03355730e-003 0.
      0. 1.67785236e-003 0. 5.03355730e-003 0. 0. 0. 0. 0. 0.
      3.35570471e-003 0. 3.35570471e-003 5.03355730e-003 0. 0. 0. 0. 0.
      1.67785236e-003 6.71140943e-003 0. 0. 0. 0. 0. 0. 0. 0.
      5.03355730e-003 0. 0. 0. 0. 1.67785236e-003 0. 1.67785236e-003 0.
      0. 5.03355730e-003 0. 0. 3.35570471e-003 1.67785236e-003 0.
      1.67785236e-003 0. 0. 1.67785236e-003 0. 0. 1.00671146e-002
      1.67785236e-003 5.03355730e-003 0. 1.34228189e-002 0. 0.
      1.67785236e-003 1.67785236e-003 5.03355730e-003 0. 0.
      3.35570471e-003 6.71140943e-003 1.67785236e-003 6.71140943e-003
      1.67785236e-003 0. 3.35570471e-003 0. 6.71140943e-003 0. 0.
      1.67785236e-003 1.67785236e-003 0. 1.34228189e-002 0. 0. 0.
      1.17449667e-002 0. 0. 1.67785236e-003 1.67785236e-003
      1.67785236e-003 0. 0. 0. 1.67785236e-003 1.17449667e-002
      3.35570471e-003 3.35570471e-003 3.35570471e-003 0. 0.
      1.67785236e-003 0. 0. 3.35570471e-003 1.67785236e-003
      5.03355730e-003 1.67785236e-003 0. 5.03355730e-003 0. 0.
      5.03355730e-003 0. 0. 5.03355730e-003 6.71140943e-003 0.
      6.71140943e-003 0. 0. 8.38926155e-003 3.35570471e-003 0.
      5.03355730e-003 0. 0. 0. 3.35570471e-003 5.03355730e-003 0.
      1.67785236e-003 1.67785236e-003 3.35570471e-003 0. 5.03355730e-003
      0. 1.67785236e-003 8.38926155e-003 0. 3.35570471e-003
      1.67785236e-003 0. 0. 5.03355730e-003 0. 0.</_>
    <_>
      0. 0. 0. 2.13675224e-003 0. 0. 2.13675224e-003 2.13675224e-003
      2.13675224e-003 0. 0. 1.28205139e-002 1.06837610e-002
      2.13675224e-003 0. 0. 0. 0. 0. 0. 4.27350448e-003 2.13675224e-003
      6.41025696e-003 0. 0. 0. 0. 0. 2.13675224e-003 0. 6.41025696e-003
      2.13675224e-003 4.27350448e-003 4.27350448e-003 0. 0.
      6.41025696e-003 0. 0. 2.13675224e-003 0. 6.41025696e-003 0. 0.
      2.56410278e-002 0. 0. 2.13675224e-003 1.06837610e-002 0.
      8.54700897e-003 0. 0. 4.27350448e-003 2.13675224e-003 0. 0. 0. 0.
      2.13675224e-003 0. 0. 2.13675224e-003 0. 8.54700897e-003 0. 0.
      2.13675224e-003 0. 4.27350448e-003 0. 0. 8.54700897e-003 0. 0. 0.
      0. 1.28205139e-002 0. 2.13675224e-003 0. 0. 0. 0. 2.13675224e-003
      4.27350448e-003 0. 2.13675224e-003 0. 2.13675224e-003 0.
      8.54700897e-003 8.54700897e-003 0. 2.13675224e-003 0. 0. 0. 0. 0.
      0. 2.13675224e-003 4.27350448e-003 0. 2.13675224e-003
      4.27350448e-003 2.13675224e-003 0. 0. 0. 0. 0. 4.27350448e-003 0.
      0. 0. 2.13675224e-003 0. 0. 0. 4.27350448e-003 0. 2.13675224e-003
      0. 0. 2.13675224e-003 0. 0. 0. 0. 6.41025696e-003 0. 0. 0.
      1.49572659e-002 0. 0. 6.41025696e-003 0. 2.13675224e-003 0. 0.
      2.13675224e-003 2.13675224e-003 2.13675224e-003 0. 0.
      1.28205139e-002 0. 2.13675224e-003 2.13675224e-003 0.
      4.27350448e-003 6.41025696e-003 0. 0. 4.27350448e-003
      2.13675224e-003 0. 0. 8.54700897e-003 0. 0. 0. 0. 0.
      2.13675224e-003 0. 2.13675224e-003 0. 0. 1.28205139e-002 0. 0. 0.
      0. 4.27350448e-003 2.13675224e-003 4.27350448e-003 2.13675224e-003
      2.13675224e-003 0. 4.27350448e-003 2.13675224e-003 0. 0.
      2.13675224e-003 1.06837610e-002 4.27350448e-003 0. 0. 0. 0. 0.
      4.27350448e-003 0. 0. 0. 2.13675224e-003 2.13675224e-003 0.
      2.13675224e-003 0. 0. 2.13675224e-003 0. 0. 0. 0. 2.13675224e-003
      0. 0. 0. 0. 0. 2.13675224e-003 0. 0. 0. 0. 0. 2.13675224e-003
      2.13675224e-003 6.41025696e-003 6.41025696e-003 0. 0. 0.
      2.13675224e-003 0. 0. 4.27350448e-003 2.13675224e-003
      4.27350448e-003 0. 0. 0. 0. 8.54700897e-003 1.28205139e-002
      4.27350448e-003 2.13675224e-003 0. 0. 0. 2.13675224e-003
      4.27350448e-003 2.13675224e-003 0. 2.13675224e-003 0. 0.
      2.13675224e-003 0. 0. 0. 1.28205139e-002 0. 0. 0. 4.27350448e-003
      2.13675224e-003 8.54700897e-003 2.13675224e-003 0. 0.
      4.27350448e-003 0. 0. 4.27350448e-003 6.41025696e-003
      2.13675224e-003 1.06837610e-002 0. 4.27350448e-003 0. 0. 0.
      2.13675224e-003 2.13675224e-003 0. 0. 0. 4.27350448e-003
      2.13675224e-003 0. 0. 4.27350448e-003 2.13675224e-003 0. 0.
      2.13675224e-003 0. 0. 0. 0. 0. 2.13675224e-003 2.13675224e-003 0.
      0. 0. 2.13675224e-003 0. 0. 4.27350448e-003 2.13675224e-003 0.
      2.13675224e-003 1.06837610e-002 2.13675224e-003 6.41025696e-003
      4.27350448e-003 6.41025696e-003 0. 0. 0. 2.13675224e-003
      4.27350448e-003 2.13675224e-003 2.13675224e-003 0. 2.13675224e-003
      2.13675224e-003 0. 2.13675224e-003 0. 0. 0. 0. 0. 0.
      2.13675224e-003 2.13675224e-003 2.13675224e-003 6.41025696e-003 0.
      0. 2.13675224e-003 4.27350448e-003 0. 0. 0. 6.41025696e-003 0.
      1.70940179e-002 0. 0. 4.27350448e-003 0. 4.27350448e-003 0.
      1.92307699e-002 4.27350448e-003 2.13675224e-003 2.13675224e-003 0.
      0. 0. 0. 4.27350448e-003 0. 4.27350448e-003 0. 0. 0. 0. 0. 0. 0.
      2.13675224e-003 0. 0. 0. 2.13675224e-003 4.27350448e-003
      4.27350448e-003 0. 0. 0. 0. 2.13675224e-003 0. 0. 0.
      8.54700897e-003 4.27350448e-003 0. 4.27350448e-003 0. 0.
      4.27350448e-003 0. 0. 0. 0. 1.28205139e-002 2.13675224e-003 0.
      1.49572659e-002 0. 0. 0. 4.27350448e-003 8.54700897e-003
      2.13675224e-003 0. 0. 4.27350448e-003 0. 1.28205139e-002 0.
      1.06837610e-002 0. 2.13675224e-003 2.13675224e-003 0.
      6.41025696e-003 0. 0. 0. 0. 4.27350448e-003 0. 0. 0.
      4.27350448e-003 0. 0. 4.27350448e-003 0. 6.41025696e-003
      2.13675224e-003 0. 8.54700897e-003 2.13675224e-003 0. 0. 0. 0. 0.
      6.41025696e-003 0. 0. 0. 6.41025696e-003 2.13675224e-003
      2.13675224e-003 6.41025696e-003 2.13675224e-003 6.41025696e-003
      8.54700897e-003 0. 0. 0. 2.13675224e-003 0. 6.41025696e-003 0.
      2.13675224e-003 0. 0. 2.13675220e-002 4.27350448e-003
      2.13675224e-003 1.70940179e-002 2.13675224e-003 2.13675224e-003
      8.54700897e-003 1.06837610e-002 0. 2.13675224e-003 0. 0. 0.
      4.27350448e-003 0. 0. 2.13675224e-003 0. 0. 0. 0. 0. 0. 0. 0.
      2.13675224e-003 6.41025696e-003 2.13675224e-003 4.27350448e-003
      6.41025696e-003 4.27350448e-003 0. 2.13675224e-003 2.13675224e-003
      0. 0. 0. 0.</_>
    <_>
      0. 0. 3.16455704e-003 1.58227850e-002 0. 0. 0. 0. 3.16455704e-003
      3.16455704e-003 0. 6.32911408e-003 9.49367136e-003 6.32911408e-003
      3.16455704e-003 0. 0. 0. 2.21518986e-002 0. 3.16455704e-003
      3.16455704e-003 0. 0. 0. 6.32911408e-003 0. 0. 6.32911408e-003 0.
      3.16455704e-003 9.49367136e-003 0. 9.49367136e-003 0. 0.
      3.16455704e-003 0. 0. 0. 3.16455704e-003 9.49367136e-003 0. 0. 0.
      0. 0. 0. 0. 0. 0. 0. 0. 6.32911408e-003 3.16455704e-003 0. 0. 0.
      0. 3.16455704e-003 0. 0. 0. 0. 3.16455704e-003 0. 6.32911408e-003
      0. 0. 0. 0. 0. 3.16455704e-003 3.16455704e-003 0. 9.49367136e-003
      3.16455704e-003 1.58227850e-002 0. 6.32911408e-003 0. 0. 0. 0.
      3.16455704e-003 9.49367136e-003 0. 0. 0. 3.16455704e-003 0.
      3.16455704e-003 3.16455704e-003 0. 0. 0. 0. 0. 0. 0. 0.
      6.32911408e-003 0. 0. 0. 9.49367136e-003 0. 6.32911408e-003 0. 0.
      0. 0. 0. 0. 3.16455704e-003 3.16455704e-003 0. 0. 0. 0. 0. 0. 0.
      0. 0. 0. 3.16455704e-003 0. 3.16455704e-003 0. 9.49367136e-003 0.
      3.16455704e-003 0. 0. 0. 0. 6.32911408e-003 0. 0. 6.32911408e-003
      0. 6.32911408e-003 2.21518986e-002 0. 3.16455704e-003 0. 0. 0. 0.
      3.16455704e-003 0. 0. 0. 3.16455704e-003 0. 0. 1.26582282e-002 0.
      0. 0. 0. 0. 3.16455704e-003 0. 0. 0. 0. 3.16455704e-003 0.
      3.16455704e-003 0. 3.16455704e-003 0. 0. 0. 6.32911408e-003
      3.16455704e-003 6.32911408e-003 0. 3.16455704e-003 0.
      6.32911408e-003 3.16455704e-003 0. 0. 3.16455704e-003
      3.16455704e-003 0. 0. 0. 3.16455704e-003 0. 0. 0. 0.
      3.16455704e-003 0. 0. 0. 0. 0. 0. 3.16455704e-003 3.16455704e-003
      0. 0. 0. 0. 3.16455704e-003 0. 0. 0. 0. 3.16455704e-003
      3.16455704e-003 0. 0. 0. 0. 0. 0. 3.16455704e-003 3.16455704e-003
      0. 0. 0. 0. 0. 3.16455704e-003 0. 0. 3.16455704e-003
      6.32911408e-003 0. 0. 0. 9.49367136e-003 0. 0. 0. 1.26582282e-002
      0. 0. 0. 9.49367136e-003 6.32911408e-003 6.32911408e-003 0.
      3.16455704e-003 0. 0. 3.16455704e-003 0. 0. 0. 9.49367136e-003 0.
      3.16455704e-003 0. 0. 6.32911408e-003 3.16455704e-003 0. 0. 0. 0.
      3.16455704e-003 0. 9.49367136e-003 0. 0. 9.49367136e-003 0. 0. 0.
      3.16455704e-003 3.16455704e-003 3.16455704e-003 3.16455704e-003 0.
      3.16455704e-003 0. 0. 6.32911408e-003 0. 0. 0. 0. 0. 0. 0. 0. 0.
      1.26582282e-002 0. 0. 0. 6.32911408e-003 0. 0. 0. 0. 0. 0. 0. 0.
      0. 0. 0. 3.16455704e-003 0. 3.16455704e-003 0. 0. 0. 0. 0. 0. 0.
      3.16455704e-003 0. 0. 2.21518986e-002 0. 0. 0. 0. 0.
      3.16455704e-003 3.16455704e-003 0. 0. 3.16455704e-003
      6.32911408e-003 0. 0. 0. 3.16455704e-003 6.32911408e-003 0. 0. 0.
      0. 0. 0. 0. 0. 0. 0. 0. 0. 0. 3.16455704e-003 3.16455704e-003 0.
      0. 0. 0. 0. 1.26582282e-002 0. 0. 0. 0. 0. 0. 0. 0.
      9.49367136e-003 0. 0. 0. 0. 0. 0. 0. 0. 0. 0. 0. 0. 0. 0. 0.
      3.16455704e-003 0. 0. 0. 0. 0. 9.49367136e-003 0. 0. 0. 0. 0.
      1.58227850e-002 0. 3.16455704e-003 0. 0. 0. 3.16455704e-003
      6.32911408e-003 3.16455704e-003 6.32911408e-003 1.58227850e-002
      3.16455704e-003 0. 0. 0. 0. 0. 0. 0. 0. 6.32911408e-003 0. 0. 0.
      3.16455704e-003 0. 6.32911408e-003 0. 0. 9.49367136e-003 0.
      6.32911408e-003 0. 6.32911408e-003 9.49367136e-003 0. 0.
      6.32911408e-003 0. 0. 0. 2.84810141e-002 0. 0. 0. 0.
      3.16455704e-003 0. 0. 0. 1.89873427e-002 0. 0. 0. 6.32911408e-003
      0. 0. 0. 9.49367136e-003 0. 3.16455704e-003 3.16455704e-003
      1.58227850e-002 0. 0. 0. 1.58227850e-002 0. 2.21518986e-002 0.
      2.53164563e-002 1.26582282e-002 1.26582282e-002 0. 3.16455704e-003
      0. 0. 0. 3.16455704e-003 0. 3.16455704e-003 0. 0. 0. 0.
      3.16455700e-002 0. 3.16455704e-003 0. 0. 0. 0. 0. 6.32911408e-003
      9.49367136e-003 0. 0. 0. 3.16455704e-003 0. 0. 0. 0.</_>
    <_>
      0. 0. 3.66300368e-003 1.09890113e-002 0. 0. 0. 3.66300368e-003 0.
      0. 0. 3.66300368e-003 7.32600736e-003 1.09890113e-002
      1.46520147e-002 3.66300368e-003 0. 0. 7.32600736e-003 0.
      3.66300368e-003 0. 0. 0. 3.66300368e-003 0. 0. 7.32600736e-003
      3.66300368e-003 0. 3.66300368e-003 0. 0. 7.32600736e-003 0.
      1.83150191e-002 0. 0. 0. 3.66300368e-003 0. 0. 0. 0.
      3.66300368e-003 3.66300368e-003 0. 0. 3.66300368e-003 0. 0. 0. 0.
      7.32600736e-003 0. 0. 0. 3.66300368e-003 0. 0. 0. 0. 0. 0.
      3.66300368e-003 3.66300368e-003 3.66300368e-003 0. 0. 0.
      1.83150191e-002 0. 0. 3.66300368e-003 3.66300368e-003
      1.46520147e-002 2.93040294e-002 7.32600736e-003 0. 1.46520147e-002
      0. 0. 0. 0. 0. 0. 0. 3.66300368e-003 0. 7.32600736e-003
      3.66300368e-003 1.09890113e-002 0. 0. 0. 3.66300368e-003 0. 0. 0.
      0. 3.66300368e-003 3.66300368e-003 0. 0. 3.66300368e-003 0. 0. 0.
      0. 0. 0. 3.66300368e-003 3.66300368e-003 0. 3.66300368e-003
      1.46520147e-002 0. 0. 0. 0. 3.66300368e-003 0. 0. 0.
      1.09890113e-002 0. 0. 0. 0. 0. 1.46520147e-002 0. 0.
      3.66300368e-003 3.66300368e-003 0. 3.66300368e-003 1.09890113e-002
      0. 3.66300368e-003 3.66300368e-003 0. 3.66300368e-003
      3.66300368e-003 0. 0. 0. 3.66300368e-003 0. 1.09890113e-002 0. 0.
      0. 3.66300368e-003 0. 3.66300368e-003 7.32600736e-003
      3.66300368e-003 0. 0. 0. 3.66300368e-003 0. 3.66300368e-003 0. 0.
      0. 0. 0. 0. 3.66300368e-003 0. 0. 0. 0. 0. 1.09890113e-002
      3.66300368e-003 3.66300368e-003 3.66300368e-003 7.32600736e-003 0.
      0. 3.66300368e-003 0. 0. 0. 1.09890113e-002 3.66300368e-003 0. 0.
      1.09890113e-002 0. 0. 0. 0. 0. 0. 0. 0. 3.66300368e-003 0. 0. 0.
      1.83150191e-002 0. 0. 1.09890113e-002 3.66300368e-003 0. 0. 0.
      3.66300368e-003 0. 0. 1.83150191e-002 0. 0. 0. 0. 0. 0. 0.
      3.66300368e-003 0. 3.66300368e-003 0. 0. 0. 0. 0. 0. 0.
      3.66300368e-003 0. 0. 0. 7.32600736e-003 3.66300368e-003 0. 0. 0.
      0. 0. 0. 3.66300368e-003 0. 1.83150191e-002 0. 0. 0. 0.
      3.66300368e-003 0. 0. 0. 7.32600736e-003 0. 0. 7.32600736e-003 0.
      7.32600736e-003 3.66300368e-003 0. 0. 0. 0. 0. 3.66300368e-003
      7.32600736e-003 0. 0. 3.66300368e-003 0. 0. 0. 0. 7.32600736e-003
      0. 7.32600736e-003 0. 3.66300368e-003 1.46520147e-002 0. 0. 0. 0.
      3.66300368e-003 3.66300368e-003 0. 7.32600736e-003 0. 0.
      3.66300368e-003 0. 0. 0. 0. 0. 0. 1.46520147e-002 0.
      1.09890113e-002 3.66300368e-003 0. 0. 7.32600736e-003 0. 0. 0. 0.
      3.66300368e-003 1.83150191e-002 0. 3.66300368e-003 0. 0. 0. 0. 0.
      0. 0. 0. 0. 3.66300368e-003 1.83150191e-002 0. 0. 0. 0.
      7.32600736e-003 0. 3.66300368e-003 3.66300368e-003 0. 0. 0. 0. 0.
      3.66300368e-003 0. 0. 0. 0. 0. 0. 0. 0. 1.83150191e-002 0. 0. 0.
      0. 1.83150191e-002 3.66300368e-003 3.66300368e-003 0.
      3.66300368e-003 3.66300368e-003 0. 0. 3.66300368e-003 0. 0. 0.
      7.32600736e-003 0. 0. 0. 0. 0. 0. 0. 0. 0. 3.66300368e-003 0.
      3.66300368e-003 0. 0. 1.09890113e-002 0. 0. 0. 0. 0. 0. 0. 0. 0.
      0. 7.32600736e-003 0. 0. 0. 0. 3.66300368e-003 3.66300368e-003 0.
      7.32600736e-003 0. 0. 0. 0. 3.66300368e-003 0. 0. 0. 0. 0. 0. 0.
      0. 0. 0. 0. 0. 0. 3.66300368e-003 0. 3.66300368e-003 0. 0.
      3.66300368e-003 0. 0. 7.32600736e-003 0. 0. 0. 0. 0.
      3.66300368e-003 0. 1.83150191e-002 0. 0. 0. 0. 0. 0.
      3.66300368e-003 0. 0. 0. 0. 0. 7.32600736e-003 0. 3.66300368e-003
      0. 0. 0. 0. 0. 1.09890113e-002 0. 3.66300368e-003 0.
      7.32600736e-003 0. 0. 3.66300368e-003 0. 0. 7.32600736e-003 0.
      7.32600736e-003 3.66300368e-003 0. 0. 0. 0. 0. 3.66300368e-003 0.
      3.66300368e-003 0. 0. 0. 0. 0. 0. 0. 3.66300368e-003 0. 0. 0.
      3.66300368e-003 0. 3.66300368e-003 0. 0. 0. 0. 0. 0. 0. 0. 0.</_>
    <_>
      0. 0. 0. 0. 0. 0. 2.38663494e-003 9.54653975e-003 4.77326987e-003
      2.38663494e-003 2.38663494e-003 9.54653975e-003 4.77326987e-003 0.
      0. 0. 0. 0. 2.38663494e-003 0. 2.38663494e-003 0. 4.77326987e-003
      0. 2.38663494e-003 1.43198092e-002 0. 0. 2.38663494e-003 0.
      9.54653975e-003 4.77326987e-003 2.38663494e-003 1.19331749e-002 0.
      0. 4.77326987e-003 2.38663494e-003 0. 2.38663494e-003 0.
      2.38663494e-003 0. 0. 0. 0. 0. 0. 1.90930795e-002 0.
      2.38663494e-003 0. 0. 2.38663494e-003 1.67064443e-002
      2.38663494e-003 0. 0. 4.77326987e-003 0. 0. 2.38663494e-003
      4.77326987e-003 2.38663494e-003 2.38663494e-003 0. 9.54653975e-003
      2.38663494e-003 0. 4.77326987e-003 7.15990458e-003 0.
      7.15990458e-003 0. 2.38663494e-003 2.38663494e-003 0.
      1.19331749e-002 0. 0. 2.38663494e-003 0. 0. 0. 0. 0. 0. 0. 0. 0.
      0. 9.54653975e-003 0. 0. 2.38663494e-003 0. 0. 0. 0. 0.
      4.77326987e-003 0. 1.43198092e-002 0. 0. 9.54653975e-003 0. 0. 0.
      0. 0. 2.38663494e-003 2.38663494e-003 0. 0. 4.77326987e-003 0.
      4.77326987e-003 0. 0. 0. 0. 2.38663494e-003 0. 2.38663494e-003
      2.38663494e-003 0. 0. 2.38663494e-003 0. 2.38663494e-003 0. 0.
      2.38663494e-003 4.77326987e-003 0. 0. 2.38663494e-003 0. 0. 0. 0.
      1.90930795e-002 9.54653975e-003 0. 4.77326987e-003 2.38663494e-003
      2.38663494e-003 0. 4.77326987e-003 7.15990458e-003 0.
      4.77326987e-003 0. 0. 0. 2.38663494e-003 1.43198092e-002
      2.38663494e-003 0. 0. 4.77326987e-003 0. 0. 0. 0. 4.77326987e-003
      2.38663494e-003 2.38663494e-003 0. 7.15990458e-003 7.15990458e-003
      0. 0. 0. 0. 1.67064443e-002 0. 2.38663494e-003 0. 0. 0. 0. 0. 0.
      2.38663494e-003 0. 2.38663494e-003 2.38663494e-003 0. 0. 0.
      2.38663494e-003 0. 1.43198092e-002 2.38663494e-003 9.54653975e-003
      2.38663494e-003 2.38663494e-003 0. 0. 0. 0. 0. 0. 0. 0.
      2.38663494e-003 0. 0. 0. 0. 0. 0. 0. 7.15990458e-003 0. 0. 0. 0.
      0. 0. 0. 0. 0. 0. 4.77326987e-003 0. 0. 2.38663494e-003 0.
      4.77326987e-003 0. 0. 0. 0. 0. 0. 0. 4.77326987e-003 0. 0.
      2.38663494e-003 0. 2.38663494e-003 0. 1.19331749e-002
      2.38663494e-003 0. 0. 0. 0. 7.15990458e-003 0. 0. 2.38663494e-003
      0. 0. 9.54653975e-003 0. 2.38663494e-003 2.38663494e-003
      4.77326987e-003 2.38663494e-003 0. 0. 0. 4.77326987e-003 0.
      4.77326987e-003 0. 0. 9.54653975e-003 0. 2.38663494e-003 0. 0.
      9.54653975e-003 0. 4.77326987e-003 0. 0. 2.38663494e-003 0. 0. 0.
      0. 0. 0. 4.77326987e-003 2.38663494e-003 2.38663494e-003 0. 0.
      7.15990458e-003 0. 0. 0. 0. 0. 0. 2.38663494e-003 0. 0. 0. 0.
      4.77326987e-003 0. 2.38663494e-003 0. 1.43198092e-002
      4.77326987e-003 4.77326987e-003 0. 0. 0. 0. 0. 0. 7.15990458e-003
      2.38663494e-003 0. 0. 2.38663494e-003 0. 2.38663498e-002
      2.38663494e-003 0. 0. 2.38663494e-003 4.77326987e-003 0. 0.
      2.38663494e-003 0. 4.77326987e-003 0. 0. 2.38663494e-003
      4.77326987e-003 0. 0. 2.38663494e-003 0. 0. 2.38663494e-003 0. 0.
      2.38663494e-003 0. 0. 0. 0. 2.38663494e-003 4.77326987e-003 0. 0.
      2.38663494e-003 0. 2.38663494e-003 2.38663494e-003 0. 0. 0.
      2.38663494e-003 0. 0. 0. 0. 0. 2.38663494e-003 0. 0. 0.
      2.38663494e-003 0. 2.38663494e-003 7.15990458e-003 0. 0. 0. 0. 0.
      2.38663494e-003 0. 7.15990458e-003 2.38663494e-003 0. 0. 0.
      2.38663494e-003 2.38663494e-003 0. 2.38663494e-003 4.77326987e-003
      0. 7.15990458e-003 2.38663494e-003 0. 2.38663494e-003 0. 0.
      4.77326987e-003 2.38663494e-003 0. 0. 0. 0. 2.38663494e-003 0. 0.
      0. 2.38663494e-003 2.38663494e-003 2.38663494e-003 0. 0.
      4.77326987e-003 0. 0. 0. 4.77326987e-003 4.77326987e-003
      9.54653975e-003 0. 0. 9.54653975e-003 0. 0. 2.38663494e-003
      4.77326987e-003 7.15990458e-003 0. 0. 1.19331749e-002 0. 0. 0.
      4.77326987e-003 0. 0. 7.15990458e-003 0. 0. 0. 0. 0.
      1.19331749e-002 1.43198092e-002 9.54653975e-003 0. 2.38663494e-003
      0. 0. 0. 9.54653975e-003 0. 7.15990458e-003 0. 2.38663494e-003 0.
      0. 7.15990458e-003 0. 0. 1.19331749e-002 2.38663494e-003
      9.54653975e-003 7.15990458e-003 7.15990458e-003 0. 2.38663494e-003
      0. 0. 2.38663494e-003 9.54653975e-003 0. 0. 0. 0. 0. 0.
      1.19331749e-002 0. 0. 0. 0. 0. 0. 0. 9.54653975e-003
      7.15990458e-003 1.19331749e-002 0. 0. 0. 0. 0. 0. 2.38663494e-003</_>
    <_>
      0. 0. 1.32075474e-002 2.64150947e-002 1.88679248e-003 0.
      5.66037744e-003 5.66037744e-003 5.66037744e-003 0. 3.77358496e-003
      1.88679248e-003 9.43396240e-003 5.66037744e-003 1.88679248e-003 0.
      0. 0. 7.54716992e-003 0. 7.54716992e-003 5.66037744e-003
      7.54716992e-003 0. 1.88679248e-003 3.77358496e-003 0. 0. 0. 0.
      3.77358496e-003 0. 1.88679248e-003 1.88679248e-003 1.88679248e-003
      7.54716992e-003 1.88679248e-003 0. 0. 1.88679248e-003 0. 0.
      3.77358496e-003 0. 1.88679248e-003 1.88679248e-003 0. 0.
      1.88679248e-003 0. 3.77358496e-003 1.88679248e-003 0.
      1.69811323e-002 1.88679248e-003 0. 0. 0. 0. 0. 0. 0. 0. 0.
      7.54716992e-003 1.88679248e-003 1.88679248e-003 1.88679248e-003 0.
      0. 1.88679248e-003 0. 0. 0. 0. 9.43396240e-003 7.54716992e-003
      5.66037744e-003 0. 3.77358496e-003 0. 0. 0. 0. 0. 0.
      3.77358496e-003 1.88679248e-003 1.88679248e-003 1.88679248e-003 0.
      1.88679248e-003 1.88679248e-003 0. 0. 0. 3.77358496e-003 0. 0. 0.
      0. 0. 1.50943398e-002 1.88679248e-003 1.88679248e-003
      1.50943398e-002 0. 1.88679248e-003 0. 0. 1.88679248e-003
      1.88679248e-003 5.66037744e-003 0. 1.13207549e-002 0. 0.
      1.88679248e-003 0. 0. 1.88679248e-003 0. 0. 0. 0. 0.
      3.77358496e-003 3.77358496e-003 3.77358496e-003 0. 7.54716992e-003
      0. 0. 0. 0. 0. 0. 1.88679248e-003 0. 1.88679248e-003
      5.66037744e-003 0. 0. 3.77358496e-003 0. 0. 0. 0. 0.
      1.88679248e-003 9.43396240e-003 2.07547173e-002 5.66037744e-003
      3.77358496e-003 0. 7.54716992e-003 0. 1.88679248e-003 0.
      1.88679248e-003 0. 3.77358496e-003 3.77358496e-003 5.66037744e-003
      0. 0. 1.88679248e-003 5.66037744e-003 7.54716992e-003 0.
      1.88679248e-003 3.77358496e-003 1.88679248e-003 0. 1.88679248e-003
      0. 3.77358496e-003 0. 9.43396240e-003 1.88679248e-003 0. 0. 0. 0.
      0. 1.88679248e-003 3.77358496e-003 0. 9.43396240e-003 0. 0.
      3.77358496e-003 1.88679248e-003 0. 3.77358496e-003 0.
      1.88679248e-003 1.88679248e-003 1.88679248e-003 0. 0. 0. 0. 0.
      1.88679248e-003 1.88679248e-003 0. 0. 0. 2.07547173e-002
      1.88679248e-003 0. 1.88679248e-003 5.66037744e-003 1.88679248e-003
      3.77358496e-003 0. 0. 0. 0. 3.77358496e-003 0. 0. 3.77358496e-003
      1.88679248e-003 1.88679248e-003 1.88679248e-003 0. 0.
      5.66037744e-003 0. 0. 1.88679248e-003 1.88679248e-003
      1.88679248e-003 1.13207549e-002 0. 0. 1.88679248e-003
      3.77358496e-003 0. 0. 0. 0. 1.88679248e-003 0. 7.54716992e-003 0.
      5.66037744e-003 0. 0. 0. 3.77358496e-003 0. 5.66037744e-003 0.
      3.77358496e-003 0. 0. 0. 0. 1.88679248e-003 7.54716992e-003
      1.88679248e-003 0. 0. 0. 0. 0. 0. 3.77358496e-003 0.
      7.54716992e-003 0. 0. 3.77358496e-003 0. 1.88679248e-003
      1.88679248e-003 0. 0. 3.77358496e-003 3.77358496e-003 0. 0. 0. 0.
      0. 5.66037744e-003 0. 0. 0. 0. 0. 7.54716992e-003 0. 0. 0.
      3.77358496e-003 0. 5.66037744e-003 0. 1.88679248e-003
      1.88679248e-003 0. 0. 5.66037744e-003 0. 0. 5.66037744e-003
      3.77358496e-003 5.66037744e-003 5.66037744e-003 7.54716992e-003
      1.88679248e-003 0. 0. 0. 0. 0. 1.88679248e-003 0. 1.88679248e-003
      3.77358496e-003 3.77358496e-003 9.43396240e-003 0. 0. 0.
      3.77358496e-003 0. 0. 0. 0. 1.88679248e-003 7.54716992e-003 0. 0.
      0. 3.77358496e-003 3.77358496e-003 0. 1.88679248e-003 0. 0. 0.
      1.88679248e-003 0. 0. 0. 0. 0. 0. 0. 5.66037744e-003
      1.88679248e-003 0. 0. 0. 0. 1.88679248e-003 0. 1.88679248e-003 0.
      0. 0. 1.13207549e-002 0. 0. 1.88679248e-003 3.77358496e-003 0. 0.
      0. 3.77358496e-003 3.77358496e-003 3.77358496e-003 0. 0. 0. 0.
      1.88679248e-003 1.88679248e-003 0. 0. 1.88679248e-003
      1.88679248e-003 0. 1.88679248e-003 0. 0. 0. 0. 1.88679248e-003 0.
      0. 1.88679248e-003 1.88679248e-003 0. 9.43396240e-003 0. 0. 0. 0.
      1.88679248e-003 1.88679248e-003 3.77358496e-003 0. 3.77358496e-003
      1.88679248e-003 1.88679248e-003 0. 1.88679248e-003 0.
      3.77358496e-003 0. 0. 0. 0. 0. 1.88679248e-003 1.88679248e-003
      1.88679248e-003 0. 0. 0. 0. 0. 1.88679248e-003 1.88679248e-003
      9.43396240e-003 1.88679248e-003 1.88679248e-003 0. 1.88679248e-003
      0. 0. 0. 0. 0. 0. 3.77358496e-003 0. 0. 0. 1.88679248e-003 0.
      3.77358496e-003 1.13207549e-002 7.54716992e-003 0. 0. 0.
      1.88679248e-003 0. 3.77358496e-003 1.88679248e-003 5.66037744e-003
      0. 1.50943398e-002 1.88679248e-003 1.88679248e-003 2.07547173e-002
      5.66037744e-003 3.77358496e-003 3.77358496e-003 1.88679248e-003 0.
      3.77358496e-003 1.69811323e-002 0. 5.66037744e-003 0. 0.
      1.13207549e-002 3.77358496e-003 0. 1.88679248e-003 3.77358496e-003
      0. 0. 0. 1.32075474e-002 1.88679248e-003 0. 0. 1.88679248e-003 0.
      1.88679248e-003 0. 0. 9.43396240e-003 1.88679248e-003 0.
      1.88679248e-003 0. 0. 3.77358496e-003 0. 0.</_>
    <_>
      0. 0. 3.53356893e-003 7.06713786e-003 0. 0. 7.06713786e-003
      3.53356893e-003 3.53356893e-003 0. 0. 1.06007066e-002
      1.41342757e-002 3.53356893e-003 0. 0. 0. 0. 7.06713786e-003 0.
      1.41342757e-002 0. 3.53356893e-003 0. 0. 7.06713786e-003 0. 0.
      3.53356893e-003 0. 7.06713786e-003 0. 0. 3.53356893e-003 0.
      1.06007066e-002 0. 3.53356893e-003 0. 0. 0. 7.06713786e-003 0. 0.
      7.06713786e-003 0. 0. 0. 6.36042431e-002 0. 3.53356893e-003 0. 0.
      3.53356893e-003 0. 0. 0. 0. 0. 0. 3.53356893e-003 0.
      3.53356893e-003 0. 3.53356893e-003 0. 3.53356893e-003 0. 0. 0. 0.
      3.53356893e-003 3.53356893e-003 0. 0. 0. 3.53356893e-003
      7.06713786e-003 0. 7.06713786e-003 7.06713786e-003 0. 0. 0. 0.
      7.06713786e-003 0. 0. 0. 7.06713786e-003 0. 0. 3.53356893e-003 0.
      0. 3.53356893e-003 3.53356893e-003 0. 0. 0. 0. 0. 0. 0. 0. 0. 0.
      0. 0. 0. 3.53356893e-003 0. 0. 0. 7.06713786e-003 0. 0. 0. 0. 0.
      0. 0. 3.53356893e-003 0. 0. 0. 7.06713786e-003 0. 0. 0.
      1.06007066e-002 1.06007066e-002 0. 0. 1.06007066e-002 0. 0.
      1.06007066e-002 0. 0. 7.06713786e-003 0. 3.53356893e-003
      7.06713786e-003 3.53356893e-003 0. 0. 0. 0. 0. 0. 0.
      7.06713786e-003 7.06713786e-003 0. 0. 1.76678449e-002
      1.76678449e-002 3.53356893e-003 0. 0. 0. 0. 3.53356893e-003 0. 0.
      0. 0. 0. 0. 3.53356893e-003 3.53356893e-003 0. 0. 0. 0.
      1.41342757e-002 3.53356893e-003 0. 3.53356893e-003 3.53356893e-003
      0. 0. 0. 0. 0. 0. 3.53356893e-003 3.53356893e-003 0. 0.
      7.06713786e-003 0. 0. 2.12014131e-002 0. 1.06007066e-002 0. 0. 0.
      0. 0. 0. 0. 3.53356893e-003 3.53356893e-003 0. 0. 0. 0. 0. 0. 0.
      3.53356893e-003 7.06713786e-003 3.53356893e-003 0. 0. 0. 0.
      3.53356893e-003 0. 0. 3.53356893e-003 0. 3.53356893e-003 0.
      7.06713786e-003 0. 0. 0. 0. 0. 0. 0. 3.53356893e-003 0. 0.
      3.53356893e-003 3.53356893e-003 0. 0. 0. 0. 0. 0. 7.06713786e-003
      0. 0. 0. 0. 0. 3.53356893e-003 0. 0. 0. 0. 0. 0. 0.
      3.53356893e-003 1.41342757e-002 1.06007066e-002 3.53356893e-003 0.
      0. 0. 0. 0. 0. 0. 0. 0. 0. 0. 0. 0. 7.06713786e-003
      1.41342757e-002 7.06713786e-003 0. 0. 3.53356893e-003
      1.06007066e-002 0. 0. 0. 0. 2.47349832e-002 0. 0. 3.53356893e-003
      0. 0. 0. 0. 0. 0. 0. 0. 0. 0. 0. 0. 0. 0. 3.53356893e-003 0. 0.
      3.53356893e-003 3.53356893e-003 0. 1.06007066e-002 0. 0. 0. 0. 0.
      0. 0. 0. 0. 0. 0. 0. 1.06007066e-002 0. 0. 0. 0. 0. 0. 0. 0. 0.
      3.53356893e-003 0. 0. 0. 0. 0. 0. 0. 0. 0. 0. 0. 3.53356893e-003
      0. 0. 0. 0. 3.53356893e-003 0. 0. 3.53356893e-003 0. 0. 0. 0.
      7.06713786e-003 0. 0. 0. 0. 0. 0. 0. 0. 7.06713786e-003
      7.06713786e-003 0. 0. 0. 0. 0. 0. 0. 3.53356893e-003 0. 0. 0. 0.
      3.53356893e-003 0. 3.53356893e-003 0. 0. 0. 0. 0. 0. 0. 0. 0. 0.
      7.06713786e-003 0. 0. 1.41342757e-002 0. 0. 0. 0. 0. 0.
      3.53356893e-003 0. 1.06007066e-002 0. 0. 0. 3.53356893e-003 0. 0.
      7.06713786e-003 0. 3.53356893e-003 3.53356893e-003 0. 0.
      3.53356893e-003 0. 7.06713786e-003 0. 0. 0. 0. 0. 0. 0.
      1.06007066e-002 0. 0. 1.41342757e-002 0. 0. 0. 1.76678449e-002 0.
      0. 1.06007066e-002 0. 7.06713786e-003 0. 0. 0. 2.12014131e-002
      7.06713786e-003 3.53356893e-003 0. 3.53356893e-003 0. 0. 0.
      3.53356893e-003 0. 7.06713786e-003 3.53356893e-003 1.41342757e-002
      0. 0. 1.06007066e-002 3.53356893e-003 0. 1.76678449e-002 0.
      3.53356893e-003 3.53356893e-003 7.06713786e-003 0. 7.06713786e-003
      0. 0. 3.53356893e-003 0. 3.53356893e-003 0. 0. 0. 0. 0.
      7.06713786e-003 0. 0. 0. 0. 0. 7.06713786e-003 0. 3.53356893e-003
      0. 0. 3.53356893e-003 0. 0. 0. 3.53356893e-003 0. 0.</_>
    <_>
      0. 0. 0. 1.91256832e-002 0. 0. 2.73224036e-003 8.19672085e-003
      2.73224036e-003 0. 0. 2.73224036e-003 8.19672085e-003 0.
      5.46448072e-003 0. 0. 0. 2.18579229e-002 5.46448072e-003
      1.09289614e-002 0. 5.46448072e-003 0. 2.73224036e-003 0. 0.
      2.73224036e-003 0. 0. 2.73224036e-003 2.73224036e-003 0. 0. 0.
      2.73224036e-003 2.73224036e-003 5.46448072e-003 0. 5.46448072e-003
      0. 2.73224036e-003 0. 0. 5.46448072e-003 0. 0. 0. 2.73224036e-003
      0. 2.73224036e-003 0. 2.73224036e-003 5.46448072e-003
      2.73224036e-003 0. 0. 2.73224036e-003 0. 0. 0. 0. 1.36612020e-002
      0. 5.46448072e-003 0. 0. 0. 0. 0. 8.19672085e-003 0.
      1.09289614e-002 0. 0. 1.36612020e-002 1.09289614e-002
      1.36612020e-002 0. 1.91256832e-002 2.73224036e-003 0. 0. 0. 0.
      8.19672085e-003 0. 0. 0. 1.09289614e-002 0. 1.91256832e-002 0. 0.
      0. 0. 0. 0. 0. 0. 0. 0. 0. 0. 0. 2.73224036e-003 0.
      5.46448072e-003 2.73224036e-003 0. 0. 0. 0. 0. 0. 0.
      2.73224036e-003 5.46448072e-003 0. 0. 5.46448072e-003 0. 0. 0. 0.
      0. 2.73224036e-003 0. 0. 0. 0. 0. 0. 0. 0. 0. 0. 5.46448072e-003
      0. 8.19672085e-003 5.46448072e-003 0. 2.73224036e-003
      8.19672085e-003 2.73224036e-003 2.73224036e-003 0. 0. 0.
      2.73224036e-003 0. 0. 0. 2.73224036e-003 0. 0. 0. 5.46448072e-003
      0. 0. 0. 0. 0. 5.46448072e-003 0. 0. 0. 0. 0. 0. 2.73224036e-003
      0. 2.73224036e-003 0. 0. 0. 5.46448072e-003 0. 0. 0. 0. 0. 0. 0.
      2.73224036e-003 0. 2.73224036e-003 2.73224036e-003 2.73224036e-003
      0. 0. 0. 0. 0. 8.19672085e-003 0. 2.73224036e-003 5.46448072e-003
      2.73224036e-003 0. 0. 0. 0. 0. 2.73224036e-003 5.46448072e-003 0.
      5.46448072e-003 0. 0. 5.46448072e-003 0. 5.46448072e-003 0. 0.
      8.19672085e-003 0. 2.73224036e-003 0. 0. 0. 0. 0. 0.
      8.19672085e-003 0. 2.73224036e-003 1.09289614e-002 0. 0. 0. 0. 0.
      5.46448072e-003 0. 0. 2.73224036e-003 2.73224036e-003
      2.73224036e-003 0. 0. 2.73224036e-003 0. 0. 0. 5.46448072e-003
      1.09289614e-002 0. 0. 8.19672085e-003 0. 0. 2.73224036e-003 0. 0.
      0. 8.19672085e-003 0. 0. 0. 0. 2.73224036e-003 0. 0. 0. 0.
      2.73224036e-003 0. 0. 5.46448072e-003 0. 2.73224036e-003
      2.73224036e-003 0. 2.73224036e-003 0. 5.46448072e-003 0.
      2.73224036e-003 8.19672085e-003 0. 5.46448072e-003 8.19672085e-003
      0. 0. 0. 0. 2.73224036e-003 1.91256832e-002 0. 0. 0. 0. 0. 0. 0.
      1.09289614e-002 0. 0. 0. 8.19672085e-003 2.73224036e-003
      2.73224036e-003 2.73224036e-003 0. 2.73224036e-003 0. 0. 0.
      8.19672085e-003 2.73224036e-003 1.36612020e-002 1.36612020e-002
      2.73224036e-003 0. 0. 0. 0. 0. 0. 5.46448072e-003 0. 0.
      2.73224036e-003 0. 1.91256832e-002 0. 0. 0. 0. 2.73224036e-003
      5.46448072e-003 5.46448072e-003 5.46448072e-003 0. 0.
      2.73224036e-003 0. 0. 8.19672085e-003 0. 0. 0. 2.73224036e-003 0.
      0. 0. 0. 2.73224036e-003 0. 5.46448072e-003 2.73224036e-003 0. 0.
      0. 0. 0. 0. 2.73224036e-003 5.46448072e-003 1.36612020e-002
      2.73224036e-003 0. 0. 0. 0. 0. 0. 0. 2.73224036e-003
      2.73224036e-003 0. 0. 0. 0. 0. 1.63934417e-002 5.46448072e-003 0.
      0. 0. 0. 0. 0. 0. 0. 2.73224036e-003 0. 0. 0. 0. 0. 0. 0. 0. 0.
      2.73224036e-003 1.09289614e-002 0. 2.73224036e-003 0. 0. 0. 0.
      5.46448072e-003 0. 2.73224036e-003 0. 0. 0. 2.73224036e-003 0.
      2.73224036e-003 0. 5.46448072e-003 5.46448072e-003 0.
      2.73224036e-003 0. 2.73224036e-003 0. 0. 5.46448072e-003 0. 0. 0.
      1.36612020e-002 0. 2.73224036e-003 0. 0. 8.19672085e-003
      1.09289614e-002 0. 5.46448072e-003 0. 0. 0. 0. 0. 0.
      1.09289614e-002 8.19672085e-003 0. 0. 0. 0. 5.46448072e-003 0. 0.
      0. 0. 0. 2.73224036e-003 0. 2.73224036e-003 0. 5.46448072e-003 0.
      5.46448072e-003 0. 2.73224036e-003 2.73224036e-003 0. 0.
      1.91256832e-002 0. 0. 5.46448072e-003 8.19672085e-003 0.
      8.19672085e-003 0. 0. 8.19672085e-003 8.19672085e-003
      5.46448072e-003 0. 0. 0. 0. 0. 2.73224036e-003 0. 2.73224036e-003
      0. 0. 0. 0. 0. 5.46448072e-003 2.73224036e-003 0. 0. 0. 0. 0. 0.
      2.73224036e-003 0.</_>
    <_>
      0. 0. 0. 4.40771356e-002 0. 0. 0. 5.50964195e-003 0. 0. 0.
      1.10192839e-002 0. 1.10192839e-002 2.75482098e-003 0. 0. 0.
      1.37741044e-002 0. 8.26446339e-003 0. 5.50964195e-003 0. 0. 0. 0.
      5.50964195e-003 0. 0. 5.50964195e-003 0. 0. 0. 0. 5.50964195e-003
      0. 2.75482098e-003 0. 0. 2.75482098e-003 2.75482098e-003 0. 0. 0.
      2.75482098e-003 0. 0. 5.50964195e-003 0. 1.37741044e-002
      2.75482098e-003 0. 5.50964195e-003 5.50964195e-003 0. 0.
      5.50964195e-003 0. 0. 0. 0. 2.75482098e-003 0. 0. 5.50964195e-003
      0. 0. 0. 2.75482098e-003 2.75482098e-003 0. 1.10192839e-002 0. 0.
      2.47933883e-002 1.10192839e-002 8.26446339e-003 0. 8.26446339e-003
      0. 2.75482098e-003 0. 0. 0. 2.75482098e-003 0. 0. 0.
      5.50964195e-003 0. 1.10192839e-002 5.50964195e-003 0.
      2.75482098e-003 2.75482098e-003 2.75482098e-003 0. 0. 0.
      2.75482098e-003 0. 2.75482098e-003 0. 0. 1.92837473e-002 0.
      2.75482098e-003 0. 0. 0. 2.75482098e-003 5.50964195e-003 0.
      8.26446339e-003 0. 0. 0. 0. 0. 5.50964195e-003 0. 0. 0. 0. 0.
      2.75482098e-003 0. 0. 0. 0. 0. 2.75482098e-003 0. 0. 0. 0.
      5.50964195e-003 0. 2.75482098e-003 2.75482098e-003 0.
      2.75482098e-003 1.65289268e-002 0. 5.50964195e-003 0.
      2.75482098e-003 0. 0. 8.26446339e-003 2.75482098e-003
      2.75482098e-003 8.26446339e-003 0. 0. 8.26446339e-003 0. 0.
      2.75482098e-003 0. 0. 0. 0. 0. 0. 2.75482098e-003 0.
      2.75482098e-003 0. 5.50964195e-003 5.50964195e-003 0. 0. 0. 0. 0.
      0. 0. 0. 0. 0. 0. 0. 0. 0. 5.50964195e-003 8.26446339e-003
      5.50964195e-003 0. 0. 0. 0. 0. 1.37741044e-002 0. 5.50964195e-003
      0. 0. 0. 0. 2.75482098e-003 0. 0. 2.75482098e-003 2.75482098e-003
      0. 2.75482098e-003 0. 2.75482098e-003 2.75482098e-003 0. 0.
      2.75482098e-003 0. 2.75482098e-003 0. 0. 2.75482098e-003 0.
      5.50964195e-003 0. 2.75482098e-003 0. 0. 0. 0. 0. 2.75482098e-003
      0. 0. 2.75482098e-003 0. 5.50964195e-003 0. 0. 0. 2.75482098e-003
      2.75482098e-003 1.37741044e-002 0. 8.26446339e-003 0. 0. 0.
      2.75482098e-003 5.50964195e-003 5.50964195e-003 0. 0. 0. 0. 0. 0.
      0. 0. 2.75482098e-003 0. 8.26446339e-003 0. 0. 0. 5.50964195e-003
      2.75482098e-003 0. 0. 0. 2.75482098e-003 2.75482098e-003
      2.75482098e-003 0. 0. 5.50964195e-003 0. 0. 0. 2.75482098e-003 0.
      2.75482098e-003 5.50964195e-003 0. 2.75482098e-003 5.50964195e-003
      0. 0. 0. 0. 2.75482098e-003 2.20385678e-002 8.26446339e-003
      2.75482098e-003 0. 0. 0. 0. 0. 0. 0. 0. 0. 0. 0. 8.26446339e-003
      0. 0. 2.75482098e-003 0. 0. 0. 2.75482098e-003 8.26446339e-003
      8.26446339e-003 5.50964195e-003 0. 0. 0. 0. 0. 0. 0. 0. 0.
      1.37741044e-002 0. 0. 2.75482098e-003 2.75482098e-003 0. 0.
      2.75482098e-003 0. 0. 0. 0. 2.75482098e-003 0. 0. 0. 0.
      2.75482098e-003 2.75482098e-003 0. 0. 5.50964195e-003 0.
      5.50964195e-003 8.26446339e-003 0. 0. 0. 8.26446339e-003 0. 0.
      1.10192839e-002 5.50964195e-003 2.75482098e-003 0. 0. 0.
      5.50964195e-003 5.50964195e-003 0. 0. 0. 0. 0. 0. 0. 0.
      5.50964195e-003 0. 0. 0. 0. 0. 0. 2.75482098e-003 5.50964195e-003
      0. 0. 2.75482098e-003 0. 2.75482098e-003 0. 0. 0. 5.50964195e-003
      2.75482098e-003 0. 0. 0. 0. 0. 0. 0. 0. 0. 5.50964195e-003 0.
      8.26446339e-003 0. 0. 2.75482098e-003 0. 2.75482098e-003 0.
      8.26446339e-003 0. 8.26446339e-003 0. 0. 0. 0. 0. 0.
      5.50964195e-003 0. 5.50964195e-003 0. 0. 0. 0. 0. 0. 0. 0.
      2.75482098e-003 0. 0. 2.75482098e-003 5.50964195e-003 0. 0. 0.
      2.75482098e-003 0. 0. 0. 8.26446339e-003 0. 0. 0. 0. 0. 0.
      2.75482098e-003 0. 2.20385678e-002 0. 0. 0. 5.50964195e-003 0. 0.
      2.75482098e-003 1.10192839e-002 0. 2.75482098e-003 2.75482098e-003
      1.10192839e-002 0. 2.75482098e-003 5.50964195e-003 5.50964195e-003
      0. 5.50964195e-003 0. 5.50964195e-003 8.26446339e-003 0. 0.
      2.75482098e-003 0. 0. 2.75482098e-003 2.75482098e-003
      8.26446339e-003 2.75482098e-003 0. 0. 0. 0. 2.75482098e-003 0.
      2.75482098e-003 0. 0. 2.75482098e-003 2.75482098e-003 0.
      5.50964195e-003 1.10192839e-002 0. 0. 0. 0. 0. 2.75482098e-003 0.
      0.</_>
    <_>
      0. 0. 1.96078438e-002 9.80392192e-003 0. 0. 0. 0. 0. 0. 0. 0.
      9.80392192e-003 2.94117667e-002 2.94117667e-002 0. 0. 0.
      9.80392192e-003 0. 0. 0. 0. 0. 0. 0. 0. 0. 0. 0. 1.96078438e-002
      0. 0. 1.96078438e-002 0. 0. 0. 0. 0. 0. 0. 9.80392192e-003 0. 0.
      0. 0. 0. 0. 9.80392192e-003 0. 0. 0. 0. 0. 0. 0. 9.80392192e-003
      0. 0. 0. 0. 0. 0. 0. 0. 2.94117667e-002 9.80392192e-003 0. 0. 0.
      9.80392192e-003 0. 0. 9.80392192e-003 0. 1.96078438e-002
      9.80392192e-003 0. 0. 1.96078438e-002 0. 0. 0. 0. 0. 0. 0. 0. 0.
      9.80392192e-003 0. 0. 0. 0. 0. 0. 0. 0. 0. 0. 0. 0. 0. 0.
      3.92156877e-002 0. 0. 0. 0. 0. 0. 0. 0. 0. 9.80392192e-003
      9.80392192e-003 0. 0. 0. 0. 0. 0. 0. 0. 0. 0. 0. 0. 0. 0. 0. 0. 0.
      0. 0. 0. 0. 9.80392192e-003 0. 0. 0. 0. 9.80392192e-003
      9.80392192e-003 0. 0. 0. 0. 0. 0. 0. 0. 0. 0. 9.80392192e-003 0.
      0. 0. 1.96078438e-002 0. 0. 0. 0. 0. 0. 0. 0. 0. 0. 0. 0. 0. 0. 0.
      0. 0. 0. 1.96078438e-002 0. 9.80392192e-003 0. 0. 0. 0. 0. 0. 0.
      0. 0. 0. 0. 9.80392192e-003 0. 0. 9.80392192e-003 0. 0. 0. 0. 0.
      0. 0. 0. 0. 0. 0. 0. 0. 0. 0. 0. 0. 0. 0. 1.27450988e-001
      9.80392192e-003 0. 0. 0. 0. 0. 0. 0. 0. 0. 0. 0. 0. 0. 0. 0. 0. 0.
      0. 0. 0. 0. 0. 0. 0. 0. 0. 0. 0. 0. 0. 0. 0. 0. 0. 0. 0. 0. 0. 0.
      0. 0. 0. 0. 0. 0. 9.80392192e-003 0. 0. 0. 0. 0. 0. 0. 0. 0. 0. 0.
      0. 0. 0. 0. 0. 0. 0. 0. 0. 0. 0. 0. 0. 0. 0. 6.86274543e-002 0. 0.
      0. 0. 0. 0. 0. 0. 0. 0. 0. 0. 0. 0. 0. 0. 0. 0. 0. 0. 0. 0. 0. 0.
      0. 0. 0. 0. 0. 0. 0. 0. 0. 0. 0. 0. 9.80392192e-003 0. 0.
      9.80392192e-003 0. 0. 0. 0. 0. 0. 0. 0. 0. 0. 0. 0. 0. 0. 0. 0. 0.
      0. 0. 0. 0. 0. 0. 0. 0. 0. 0. 0. 0. 0. 0. 0. 0. 0. 0. 0. 0. 0. 0.
      0. 0. 0. 0. 0. 0. 0. 0. 0. 0. 0. 0. 0. 0. 0. 0. 0. 0. 0. 0. 0. 0.
      0. 0. 0. 0. 0. 0. 0. 0. 0. 0. 1.37254909e-001 0. 0. 0. 0. 0.
      9.80392192e-003 1.96078438e-002 0. 0. 0. 0. 0. 0. 0. 0. 0. 0. 0.
      0. 0. 0. 0. 9.80392192e-003 0. 0. 0. 0. 0. 0. 0. 9.80392192e-003
      0. 0. 1.96078438e-002 0. 0. 0. 1.96078438e-002 0. 0. 0. 0.
      9.80392192e-003 0. 0. 0. 0. 0. 0. 0. 0. 0. 0. 0. 0. 0. 0. 0. 0. 0.
      0. 0. 0. 0. 0. 0. 0. 0. 2.94117667e-002 0. 0. 0. 0. 0. 0. 0. 0. 0.
      0. 0. 0. 9.80392192e-003 0. 0. 0. 0. 9.80392192e-003
      9.80392192e-003 0. 0. 0. 0. 9.80392192e-003 0. 0. 0. 0. 0. 0.</_>
    <_>
      0. 0. 6.30630627e-002 9.00900923e-003 0. 0. 0. 0. 0. 0. 0.
      9.00900923e-003 9.00900923e-003 1.80180185e-002 1.80180185e-002 0.
      0. 0. 9.00900923e-003 0. 0. 0. 0. 0. 0. 0. 0. 0. 9.00900923e-003
      0. 9.00900923e-003 0. 0. 9.00900923e-003 0. 9.00900923e-003 0. 0.
      0. 0. 0. 0. 0. 0. 9.00900923e-003 0. 0. 0. 9.00900923e-003 0. 0.
      0. 0. 0. 0. 0. 0. 0. 0. 0. 0. 0. 0. 0. 0. 2.70270277e-002 0. 0. 0.
      0. 0. 0. 0. 9.00900923e-003 0. 0. 9.00900923e-003 0. 0. 0. 0. 0.
      0. 0. 0. 0. 0. 0. 0. 0. 0. 0. 0. 0. 0. 0. 0. 0. 0. 0. 0. 0. 0. 0.
      9.00900923e-003 0. 0. 0. 0. 0. 0. 0. 0. 0. 4.50450480e-002 0.
      9.00900923e-003 0. 0. 0. 0. 0. 0. 0. 0. 0. 0. 0. 0. 0. 0. 0. 0. 0.
      0. 0. 0. 0. 0. 0. 0. 0. 0. 9.00900923e-003 0. 0. 0. 0. 0. 0. 0.
      9.00900923e-003 0. 0. 9.00900923e-003 0. 0. 0. 9.00900923e-003 0.
      0. 0. 0. 0. 0. 0. 0. 0. 0. 0. 0. 0. 0. 0. 0. 0. 1.80180185e-002
      1.80180185e-002 0. 0. 0. 0. 0. 0. 0. 0. 0. 0. 0. 0. 0.
      1.80180185e-002 0. 0. 9.00900923e-003 0. 0. 0. 0. 0. 0. 0. 0. 0.
      0. 0. 0. 0. 0. 0. 0. 0. 0. 0. 1.44144148e-001 0. 0. 0. 0. 0. 0. 0.
      0. 0. 0. 0. 0. 0. 0. 0. 0. 0. 1.80180185e-002 0. 0. 0. 0. 0. 0. 0.
      0. 0. 0. 0. 0. 0. 0. 0. 0. 0. 9.00900923e-003 0. 0. 0. 0. 0. 0. 0.
      0. 0. 0. 3.60360369e-002 0. 0. 0. 0. 0. 0. 0. 0. 0. 0. 0. 0. 0. 0.
      0. 9.00900923e-003 0. 0. 0. 0. 0. 0. 0. 0. 0. 0. 1.80180185e-002
      0. 0. 0. 0. 0. 0. 0. 0. 0. 0. 0. 0. 0. 0. 0. 0. 0. 0. 0. 0. 0. 0.
      0. 1.80180185e-002 0. 0. 0. 0. 0. 0. 0. 0. 0. 0. 0. 0. 0. 0. 0. 0.
      0. 0. 0. 0. 0. 0. 0. 0. 0. 0. 0. 0. 0. 0. 0. 0. 0. 0.
      9.00900923e-003 0. 0. 0. 0. 0. 0. 0. 0. 0. 0. 0. 0. 0. 0. 0. 0. 0.
      0. 0. 0. 0. 0. 0. 0. 0. 0. 0. 0. 0. 0. 0. 0. 0. 0. 0. 0. 0. 0. 0.
      0. 0. 0. 0. 0. 0. 0. 0. 0. 0. 0. 0. 0. 8.10810849e-002 0. 0. 0. 0.
      0. 0. 1.80180185e-002 0. 0. 0. 0. 0. 0. 0. 0. 0. 0. 0. 0. 0. 0. 0.
      9.00900923e-003 0. 0. 1.80180185e-002 0. 0. 0. 0. 9.00900923e-003
      0. 0. 0. 0. 0. 0. 2.70270277e-002 0. 0. 1.80180185e-002 0. 0. 0.
      0. 0. 9.00900923e-003 9.00900923e-003 3.60360369e-002 0. 0. 0. 0.
      0. 9.00900923e-003 0. 0. 0. 9.00900923e-003 0. 0. 0. 0. 0.
      9.00900923e-003 0. 9.00900923e-003 0. 9.00900923e-003 0. 0. 0. 0.
      0. 0. 0. 0. 0. 0. 0. 0. 1.80180185e-002 0. 0. 0. 0. 0.
      1.80180185e-002 0. 0. 0. 0. 0. 0. 0. 0. 2.70270277e-002 0. 0.</_>
    <_>
      0. 0. 4.93827164e-002 0. 0. 0. 0. 0. 0. 0. 0. 0. 1.23456791e-002
      3.70370373e-002 0. 0. 0. 0. 0. 0. 1.23456791e-002 0. 0. 0. 0. 0.
      0. 0. 1.23456791e-002 0. 1.23456791e-002 0. 0. 2.46913582e-002 0.
      1.23456791e-002 0. 0. 0. 0. 0. 0. 0. 0. 0. 0. 0. 0. 0. 0. 0. 0. 0.
      0. 0. 0. 0. 0. 0. 0. 0. 0. 0. 0. 0. 1.23456791e-002
      1.23456791e-002 0. 0. 0. 0. 0. 1.23456791e-002 1.23456791e-002 0.
      3.70370373e-002 1.23456791e-002 0. 0. 1.23456791e-002 0. 0. 0. 0.
      0. 0. 0. 0. 0. 2.46913582e-002 0. 0. 0. 0. 0. 0. 0. 0. 0. 0. 0.
      2.46913582e-002 0. 0. 1.23456791e-002 0. 0. 1.23456791e-002 0. 0.
      0. 0. 0. 0. 8.64197537e-002 0. 1.23456791e-002 0. 0. 0. 0. 0. 0.
      0. 0. 0. 0. 0. 0. 0. 0. 0. 0. 0. 0. 0. 0. 0. 0. 0. 0. 0. 0. 0. 0.
      0. 0. 0. 0. 0. 0. 0. 0. 0. 0. 0. 1.23456791e-002 0. 0. 0. 0. 0. 0.
      0. 0. 0. 0. 0. 0. 0. 0. 0. 0. 0. 0. 0. 0. 0. 0. 0. 0. 0. 0. 0. 0.
      0. 0. 0. 0. 0. 0. 3.70370373e-002 0. 0. 0. 0. 0. 0. 0. 0. 0. 0. 0.
      0. 0. 0. 0. 0. 0. 0. 0. 0. 0. 0. 2.46913582e-002 0. 0. 0. 0. 0. 0.
      0. 0. 0. 0. 0. 0. 0. 0. 0. 0. 0. 1.23456791e-002 0. 0. 0. 0. 0. 0.
      0. 0. 0. 0. 0. 0. 0. 0. 0. 0. 0. 0. 0. 0. 0. 0. 0. 0. 0. 0. 0. 0.
      0. 0. 0. 0. 0. 0. 0. 0. 0. 0. 0. 0. 0. 0. 0. 0. 1.23456791e-002 0.
