<?xml version="1.0"?>
<opencv_storage>
<my_svm type_id="opencv-ml-svm">
  <svm_type>C_SVC</svm_type>
  <kernel><type>RBF</type>
    <gamma>5.0625000000000009e-001</gamma></kernel>
  <C>3.1250000000000000e+002</C>
  <term_criteria><epsilon>1.1920928955078125e-007</epsilon>
    <iterations>1000</iterations></term_criteria>
  <var_all>250</var_all>
  <var_count>250</var_count>
  <class_count>11</class_count>
  <class_labels type_id="opencv-matrix">
    <rows>1</rows>
    <cols>11</cols>
    <dt>i</dt>
    <data>
      1 2 3 4 5 6 7 8 20 27 30</data></class_labels>
  <sv_total>96</sv_total>
  <support_vectors>
    <_>
      7.57575780e-002 3.78787890e-003 3.78787890e-003 0. 0.
      3.78787890e-003 0. 0. 0. 0. 0. 0. 0. 0. 0. 2.27272734e-002 0.
      3.78787890e-003 3.78787890e-003 0. 3.78787890e-003 0. 0. 0. 0. 0.
      0. 0. 3.78787890e-003 0. 0. 2.27272734e-002 0. 7.57575780e-003 0.
      0. 0. 0. 0. 0. 3.78787890e-003 0. 1.70454547e-001 0. 0.
      7.57575780e-003 0. 0. 0. 0. 3.78787890e-003 6.81818202e-002
      5.30303046e-002 0. 0. 0. 3.78787890e-003 0. 0. 0. 0. 0. 0. 0. 0.
      0. 0. 0. 0. 1.51515156e-002 7.57575780e-003 0. 0. 0. 0. 0. 0. 0.
      0. 0. 0. 0. 0. 0. 0. 0. 0. 1.51515156e-002 0. 0. 0. 0. 0. 0. 0.
      3.78787890e-003 0. 0. 0. 0. 7.57575780e-003 0. 0. 0. 0. 0. 0. 0.
      4.16666679e-002 0. 3.78787890e-003 0. 0. 0. 0. 0. 0. 0. 0.
      3.78787890e-003 7.57575780e-003 0. 7.57575780e-003 0. 0. 0. 0. 0.
      0. 7.57575780e-003 0. 0. 0. 0. 0. 0. 0. 0. 0. 0. 0. 0.
      2.27272734e-002 0. 0. 0. 0. 3.78787890e-003 0. 1.51515156e-002 0.
      0. 0. 0. 3.78787890e-003 0. 0. 0. 0. 0. 0. 3.78787890e-003 0. 0.
      3.78787890e-003 0. 0. 0. 0. 0. 1.51515156e-002 0. 3.78787890e-003
      0. 0. 0. 3.78787890e-003 2.46212125e-001 0. 0. 0. 0. 0. 0. 0. 0.
      0. 0. 0. 0. 0. 3.78787890e-003 0. 0. 0. 0. 0. 0. 0.
      3.78787890e-003 1.51515156e-002 0. 1.89393945e-002 0. 0. 0. 0. 0.
      0. 0. 0. 0. 0. 0. 0. 3.78787890e-003 0. 1.89393945e-002 0. 0. 0.
      0. 0. 0. 0. 0. 0. 0. 0. 0. 0. 7.57575780e-003 0. 0. 0. 0. 0. 0.
      7.57575780e-003 0. 0. 0. 0. 0. 0. 3.78787890e-003 0.
      3.78787890e-003 3.78787890e-003 0.</_>
    <_>
      2.32026145e-001 0. 3.26797389e-003 0. 0. 0. 3.26797389e-003
      3.26797389e-003 3.26797389e-003 0. 0. 3.26797389e-003 0. 0. 0.
      4.24836613e-002 0. 1.63398702e-002 0. 0. 3.26797389e-003 0. 0. 0.
      0. 0. 0. 0. 0. 0. 0. 9.80392192e-003 0. 2.28758175e-002
      3.26797389e-003 0. 0. 0. 0. 0. 3.26797389e-003 0. 1.69934645e-001
      0. 0. 9.80392192e-003 6.53594779e-003 0. 0. 0. 3.26797389e-003
      3.26797389e-003 6.53594779e-003 0. 0. 0. 6.53594779e-003 0. 0. 0.
      0. 0. 0. 3.26797389e-003 3.26797389e-003 6.53594779e-003 0.
      6.53594779e-003 0. 9.80392192e-003 3.26797389e-003 0. 0. 0. 0. 0.
      0. 0. 0. 0. 0. 0. 0. 0. 0. 0. 0. 6.53594779e-003 0. 0.
      3.26797389e-003 3.26797389e-003 0. 0. 0. 3.26797389e-003 0.
      3.26797389e-003 0. 0. 0. 0. 0. 0. 0. 0. 0. 0. 8.16993490e-002 0.
      6.53594779e-003 0. 3.26797389e-003 0. 0. 0. 0. 0. 0.
      3.26797389e-003 9.80392192e-003 0. 1.30718956e-002 0. 0. 0. 0. 0.
      0. 3.26797389e-003 0. 0. 0. 3.26797389e-003 3.26797389e-003 0. 0.
      0. 0. 0. 3.26797389e-003 3.26797389e-003 1.96078438e-002 0. 0. 0.
      0. 3.26797389e-003 0. 3.26797389e-003 0. 0. 0. 0. 6.53594779e-003
      3.26797389e-003 6.53594779e-003 0. 0. 0. 3.26797389e-003
      9.80392192e-003 6.53594779e-003 0. 0. 0. 0. 0. 0. 3.26797389e-003
      9.80392192e-003 0. 0. 0. 0. 0. 3.26797389e-003 4.24836613e-002
      6.53594779e-003 0. 0. 0. 0. 0. 0. 0. 0. 0. 0. 0. 0.
      6.53594779e-003 0. 3.26797389e-003 0. 0. 0. 0. 0. 0. 0. 0.
      9.80392192e-003 0. 0. 0. 0. 0. 0. 0. 0. 0. 0. 3.26797389e-003 0.
      1.96078438e-002 0. 1.96078438e-002 9.80392192e-003 0. 0. 0. 0. 0.
      0. 0. 0. 0. 3.26797389e-003 3.26797389e-003 0. 1.30718956e-002 0.
      0. 0. 3.26797389e-003 0. 0. 1.30718956e-002 0. 6.53594779e-003 0.
      0. 6.53594779e-003 3.26797389e-003 3.26797389e-003 0. 0.
      3.26797389e-003 0.</_>
    <_>
      9.66850892e-002 0. 0. 2.76243105e-003 0. 8.28729291e-003 0. 0. 0.
      8.28729291e-003 0. 8.28729291e-003 0. 0. 0. 3.03867422e-002 0.
      5.52486209e-003 0. 0. 0. 2.76243105e-003 0. 0. 0. 0.
      2.76243105e-003 0. 0. 0. 2.76243105e-003 1.65745858e-002 0.
      7.73480684e-002 8.28729291e-003 0. 2.76243105e-003 0. 0. 0.
      5.52486209e-003 2.76243105e-003 1.40883982e-001 0. 0.
      1.38121555e-002 0. 0. 0. 0. 2.76243105e-003 5.52486209e-003
      1.10497242e-002 0. 0. 0. 2.76243105e-003 0. 0. 0. 0. 0. 0.
      8.28729291e-003 2.76243105e-003 0. 0. 5.52486209e-003 0.
      1.10497242e-002 2.76243105e-003 2.76243105e-003 0. 5.52486209e-003
      0. 2.76243105e-003 0. 0. 0. 0. 0. 2.76243105e-003 0. 0.
      5.52486209e-003 5.52486209e-003 0. 2.76243105e-003 0. 0.
      8.28729291e-003 0. 0. 0. 0. 5.52486209e-003 0. 0. 0. 0.
      1.10497242e-002 0. 2.76243105e-003 5.52486209e-003 0. 0. 0. 0.
      5.24861887e-002 0. 2.76243105e-003 0. 0. 2.76243105e-003 0. 0. 0.
      2.76243105e-003 5.52486209e-003 0. 5.52486209e-003 0.
      1.38121555e-002 0. 2.76243105e-003 0. 0. 0. 0. 0. 2.76243105e-003
      0. 0. 0. 0. 0. 0. 0. 0. 0. 0. 0. 5.52486209e-003 0. 0. 0. 0.
      2.76243105e-003 0. 0. 5.52486209e-003 0. 0. 0. 3.59116048e-002 0.
      2.76243105e-003 0. 2.76243105e-003 0. 2.76243105e-003
      8.28729291e-003 0. 2.76243105e-003 0. 0. 5.52486209e-003 0. 0. 0.
      1.38121555e-002 0. 0. 0. 0. 0. 0. 8.56353641e-002 5.52486209e-003
      0. 0. 0. 0. 0. 0. 0. 0. 8.28729291e-003 2.76243105e-003 0. 0. 0.
      0. 2.76243105e-003 0. 0. 0. 0. 0. 0. 5.52486209e-003 0.
      8.28729291e-003 2.76243105e-003 0. 2.76243105e-003 0. 0. 0. 0. 0.
      0. 0. 2.76243105e-003 5.52486209e-003 1.10497242e-002
      2.76243105e-003 1.93370171e-002 2.76243105e-003 0. 0. 0.
      5.52486209e-003 0. 0. 2.76243105e-003 5.52486209e-003 0. 0. 0. 0.
      3.03867422e-002 0. 0. 0. 0. 5.52486209e-003 0. 2.20994484e-002 0.
      8.28729291e-003 5.52486209e-003 5.52486209e-003 0. 0. 0. 0. 0.
      1.10497242e-002 0.</_>
    <_>
      1.27071828e-001 0. 0. 0. 0. 2.48618796e-002 0. 0. 0.
      2.76243105e-003 0. 2.76243105e-003 2.76243105e-003 0. 0.
      5.52486209e-003 0. 1.10497242e-002 0. 0. 0. 0. 0. 0.
      2.76243105e-003 0. 0. 0. 0. 2.76243105e-003 0. 5.52486209e-003
      5.52486209e-003 1.65745858e-002 1.93370171e-002 0. 2.76243105e-003
      1.10497242e-002 2.76243105e-003 0. 1.93370171e-002 2.76243105e-003
      3.03867422e-002 5.52486209e-003 0. 3.03867422e-002 2.76243105e-003
      0. 0. 2.76243105e-003 2.76243105e-003 2.76243105e-003
      8.28729291e-003 0. 0. 0. 5.52486209e-003 0. 0. 0. 0. 0. 0.
      5.52486209e-003 0. 0. 0. 0. 0. 5.52486209e-003 0. 5.52486209e-003
      2.76243105e-003 0. 0. 2.76243105e-003 0. 0. 0. 0. 5.52486209e-003
      0. 0. 0. 2.76243105e-003 1.10497242e-002 2.76243105e-003 0. 0. 0.
      5.52486209e-003 2.76243105e-003 0. 0. 0. 2.76243105e-003 0. 0.
      2.76243105e-003 0. 8.28729291e-003 0. 0. 2.76243105e-003 0. 0. 0.
      0. 7.45856389e-002 5.52486209e-003 2.76243105e-003 0. 0. 0. 0. 0.
      0. 0. 8.28729291e-003 0. 5.52486209e-003 0. 5.52486209e-003
      2.76243105e-003 2.76243105e-003 0. 0. 0. 0. 2.76243105e-003
      2.76243105e-003 0. 0. 0. 2.76243105e-003 0. 0. 0. 0.
      5.52486209e-003 2.76243105e-003 0. 1.65745858e-002 0. 0. 0. 0.
      2.76243105e-003 0. 8.28729291e-003 0. 0. 0. 0. 8.28729291e-003 0.
      0. 0. 0. 5.52486209e-003 0. 2.76243105e-003 2.76243105e-003
      5.52486209e-003 0. 2.76243105e-003 8.28729291e-003 0. 0.
      2.76243105e-003 8.28729291e-003 0. 0. 0. 0. 0. 1.93370171e-002
      1.35359123e-001 0. 0. 0. 0. 0. 0. 2.76243105e-003 1.10497242e-002
      0. 2.76243105e-003 5.52486209e-003 0. 0. 0. 0. 5.52486209e-003 0.
      0. 0. 0. 0. 0. 8.28729291e-003 0. 3.59116048e-002 2.76243105e-003
      0. 2.76243105e-003 0. 0. 2.76243105e-003 0. 8.28729291e-003 0. 0.
      0. 2.76243105e-003 3.59116048e-002 2.76243105e-003 2.76243105e-003
      5.52486209e-003 0. 0. 0. 0. 0. 0. 2.76243105e-003 5.52486209e-003
      0. 0. 0. 0. 4.14364673e-002 0. 0. 0. 5.52486209e-003
      2.76243105e-003 0. 8.28729291e-003 0. 8.28729291e-003 0. 0. 0. 0.
      0. 0. 2.76243105e-003 2.76243105e-003 0.</_>
    <_>
      3.19488812e-003 3.19488812e-003 1.91693287e-002 0. 0.
      7.98721984e-003 1.59744406e-003 0. 0. 0. 4.79233218e-003
      3.19488812e-003 3.19488812e-003 0. 0. 7.98721984e-003
      1.59744406e-003 3.19488812e-003 2.87539922e-002 0. 0.
      3.19488812e-003 0. 1.75718851e-002 9.58466437e-003 0.
      1.59744406e-003 0. 1.59744406e-003 7.98721984e-003 0.
      3.19488812e-003 0. 7.98721984e-003 0. 0. 3.19488812e-003
      1.43769961e-002 0. 0. 3.19488812e-003 1.59744406e-003 0.
      1.59744406e-003 1.11821089e-002 1.91693287e-002 1.59744406e-003
      3.19488812e-003 6.38977624e-003 0. 9.58466437e-003 1.27795525e-002
      1.43769961e-002 0. 0. 0. 1.59744406e-003 3.19488812e-003 0. 0.
      3.19488812e-003 0. 1.59744406e-003 1.75718851e-002 1.59744406e-003
      9.58466437e-003 1.43769961e-002 3.83386575e-002 1.59744397e-002
      4.79233218e-003 1.11821089e-002 0. 1.59744406e-003 0. 0.
      7.98721984e-003 0. 0. 0. 0. 6.38977624e-003 1.59744406e-003 0. 0.
      0. 1.59744406e-003 4.79233218e-003 6.38977624e-003 0. 0.
      6.38977624e-003 1.59744406e-003 1.59744406e-003 1.59744406e-003
      1.59744406e-003 4.79233218e-003 0. 1.59744406e-003 0. 0. 0. 0. 0.
      4.79233218e-003 0. 0. 1.59744406e-003 0. 4.79233218e-003
      1.59744406e-003 1.11821089e-002 0. 0. 0. 0. 0. 7.98721984e-003 0.
      1.11821089e-002 7.98721984e-003 1.75718851e-002 3.19488812e-003
      1.27795525e-002 0. 0. 0. 0. 1.59744406e-003 3.19488812e-003
      1.11821089e-002 0. 0. 4.79233218e-003 0. 3.19488812e-003
      1.59744406e-003 0. 0. 0. 1.59744406e-003 0. 0. 3.19488812e-003
      3.19488812e-003 0. 0. 0. 4.79233218e-003 3.19488812e-003 0.
      1.59744406e-003 0. 1.59744406e-003 0. 0. 0. 1.59744406e-003
      6.38977624e-003 3.19488812e-003 4.79233218e-003 1.59744406e-003
      7.98721984e-003 2.39616614e-002 1.59744397e-002 1.59744406e-003
      1.59744406e-003 9.58466437e-003 0. 0. 4.79233218e-003 0.
      1.59744406e-003 6.38977624e-003 1.59744406e-003 3.19488812e-003 0.
      4.79233218e-003 7.98721984e-003 1.11821089e-002 3.19488812e-003 0.
      0. 1.59744406e-003 3.19488812e-003 1.11821089e-002 1.43769961e-002
      0. 0. 1.75718851e-002 0. 1.11821089e-002 0. 0. 1.59744406e-003
      1.59744397e-002 1.59744406e-003 0. 0. 1.59744406e-003
      1.27795525e-002 1.59744406e-003 1.27795525e-002 1.59744397e-002
      6.38977624e-003 0. 1.59744406e-003 4.79233218e-003 0.
      2.39616614e-002 0. 9.58466437e-003 3.19488812e-003 4.79233218e-003
      0. 3.19488812e-003 3.19488812e-003 0. 1.43769961e-002
      1.27795525e-002 3.19488812e-003 3.19488812e-003 1.59744406e-003 0.
      0. 0. 0. 0. 1.59744406e-003 0. 1.59744406e-003 4.79233218e-003
      9.58466437e-003 1.59744406e-003 0. 1.27795525e-002 1.59744406e-003
      0. 0. 0. 9.58466437e-003 2.23642178e-002 1.59744406e-003
      3.19488812e-003 0. 3.19488812e-003 0. 0. 6.38977624e-003
      3.19488794e-002 1.59744406e-003</_>
    <_>
      8.03858507e-003 0. 2.09003203e-002 8.03858507e-003 0.
      8.03858507e-003 1.44694531e-002 0. 9.64630209e-003 0. 0. 0.
      1.60771701e-003 0. 0. 1.12540191e-002 3.21543403e-003
      4.82315104e-003 2.89389063e-002 0. 0. 9.64630209e-003
      1.60771701e-003 1.44694531e-002 6.43086806e-003 0. 1.60771701e-003
      1.60771701e-003 0. 4.82315104e-003 0. 8.03858507e-003
      4.82315104e-003 3.21543403e-003 8.03858507e-003 3.21543403e-003
      3.21543403e-003 2.73311883e-002 1.60771701e-003 0. 1.12540191e-002
      1.60771701e-003 3.21543403e-003 0. 3.21543403e-003 9.64630209e-003
      3.21543403e-003 3.21543403e-003 6.43086806e-003 0. 4.82315104e-003
      1.60771701e-002 1.92926042e-002 1.60771701e-003 1.60771701e-003
      1.60771701e-003 6.43086806e-003 4.82315104e-003 0. 0. 0. 0.
      1.60771701e-003 1.12540191e-002 4.82315104e-003 1.12540191e-002
      1.60771701e-003 1.44694531e-002 0. 8.03858507e-003 3.21543403e-003
      0. 9.64630209e-003 0. 0. 0. 0. 0. 3.21543403e-003 0.
      4.82315104e-003 1.60771701e-003 0. 1.60771701e-003 0.
      8.03858507e-003 0. 6.43086806e-003 0. 0. 8.03858507e-003
      6.43086806e-003 0. 0. 3.21543403e-003 6.43086806e-003 0.
      6.43086806e-003 0. 0. 0. 0. 0. 6.43086806e-003 3.21543403e-003 0.
      0. 0. 1.44694531e-002 1.60771701e-003 9.64630209e-003
      1.60771701e-003 0. 4.82315104e-003 3.21543403e-003 1.60771701e-003
      1.60771701e-003 0. 1.28617361e-002 1.60771701e-003 8.03858507e-003
      0. 1.76848881e-002 1.60771701e-003 1.12540191e-002 0.
      3.21543403e-003 0. 6.43086806e-003 1.60771701e-003 0. 0. 0. 0. 0.
      0. 6.43086806e-003 3.21543403e-003 0. 0. 4.82315104e-003 0.
      1.60771701e-003 0. 0. 0. 0. 1.28617361e-002 6.43086806e-003 0. 0.
      1.60771701e-003 0. 1.60771701e-003 4.82315104e-003 0.
      1.60771701e-003 0. 1.60771701e-003 0. 0. 1.60771701e-002
      1.44694531e-002 1.60771701e-002 0. 0. 1.28617361e-002 0.
      1.60771701e-003 3.21543403e-003 0. 8.03858507e-003 1.92926042e-002
      4.82315104e-003 3.21543403e-003 0. 6.43086806e-003 0.
      8.03858507e-003 1.60771701e-003 0. 0. 0. 1.60771701e-003
      9.64630209e-003 9.64630209e-003 1.60771701e-003 0. 9.64630209e-003
      0. 1.28617361e-002 1.60771701e-003 0. 0. 9.64630209e-003
      1.60771701e-003 0. 0. 1.60771701e-003 4.82315104e-003
      9.64630209e-003 4.82315104e-003 2.25080382e-002 2.57234722e-002 0.
      1.60771701e-003 0. 0. 1.60771701e-002 1.60771701e-003
      2.09003203e-002 1.60771701e-003 0. 3.21543403e-003 0.
      9.64630209e-003 0. 4.82315104e-003 8.03858507e-003 0. 0.
      1.60771701e-003 0. 0. 0. 0. 0. 1.60771701e-003 0. 9.64630209e-003
      3.21543403e-003 8.03858507e-003 3.21543403e-003 1.60771701e-003
      1.60771701e-003 1.60771701e-003 3.21543403e-003 3.21543403e-003 0.
      1.60771701e-003 3.37620564e-002 3.21543403e-003 0. 1.60771701e-003
      4.82315104e-003 0. 0. 1.60771701e-003 4.82315104e-003
      1.60771701e-003</_>
    <_>
      5.92592591e-003 0. 4.29629646e-002 5.92592591e-003 0.
      4.44444455e-003 1.62962954e-002 0. 4.44444455e-003 0. 0.
      2.51851846e-002 2.96296296e-003 0. 0. 1.18518518e-002 0. 0.
      2.96296291e-002 0. 1.48148148e-003 1.03703700e-002 0.
      2.07407400e-002 8.88888910e-003 0. 0. 0. 2.96296296e-003
      2.96296296e-003 4.44444455e-003 0. 1.48148148e-003 8.88888910e-003
      0. 4.44444455e-003 0. 1.62962954e-002 0. 0. 2.96296296e-003 0.
      1.03703700e-002 2.96296296e-003 4.44444455e-003 1.33333337e-002
      2.96296296e-003 2.96296296e-003 1.48148148e-003 1.48148148e-003
      1.77777782e-002 1.92592591e-002 1.62962954e-002 0. 0.
      1.48148148e-003 1.48148148e-003 1.48148148e-003 0. 1.48148148e-003
      1.48148148e-003 0. 0. 1.18518518e-002 0. 1.03703700e-002
      5.92592591e-003 3.99999991e-002 5.92592591e-003 1.03703700e-002
      4.44444455e-003 0. 0. 0. 0. 0. 0. 0. 1.48148148e-003
      1.48148148e-003 2.96296296e-003 2.96296296e-003 0. 2.96296296e-003
      2.96296296e-003 0. 7.40740728e-003 4.44444455e-003 1.48148148e-003
      0. 2.96296296e-003 0. 1.48148148e-003 2.96296296e-003
      1.48148148e-003 8.88888910e-003 0. 1.48148148e-003 0. 0.
      1.48148148e-003 4.44444455e-003 1.48148148e-003 4.44444455e-003
      2.96296296e-003 0. 0. 0. 7.40740728e-003 0. 2.22222228e-002 0. 0.
      4.44444455e-003 0. 2.96296296e-003 2.96296296e-003 0.
      1.03703700e-002 2.96296296e-003 7.40740728e-003 2.96296296e-003
      4.44444455e-003 0. 0. 0. 1.18518518e-002 0. 1.48148148e-003
      1.48148148e-003 0. 0. 0. 0. 0. 0. 0. 0. 2.96296296e-003
      1.48148148e-003 5.92592591e-003 0. 2.96296296e-003 0. 0. 0. 0.
      7.40740728e-003 1.48148148e-003 0. 1.48148148e-003 0. 0. 0. 0. 0.
      0. 5.92592591e-003 1.48148148e-003 1.48148148e-003 2.96296296e-003
      2.66666673e-002 8.88888910e-003 1.48148146e-002 2.96296296e-003 0.
      2.81481482e-002 0. 1.48148148e-003 1.48148148e-003 0. 0.
      1.18518518e-002 1.48148148e-003 4.44444455e-003 0. 0.
      2.96296296e-003 4.44444455e-003 1.48148148e-003 0. 1.18518518e-002
      0. 0. 7.40740728e-003 4.44444455e-003 0. 1.48148148e-003
      2.96296296e-003 0. 1.03703700e-002 2.96296296e-003 1.48148148e-003
      0. 1.92592591e-002 0. 0. 0. 2.96296296e-003 1.33333337e-002
      1.48148148e-003 1.77777782e-002 2.66666673e-002 2.96296296e-003 0.
      1.48148148e-003 1.03703700e-002 0. 7.40740728e-003 0.
      1.03703700e-002 0. 2.96296296e-003 2.96296296e-003 4.44444455e-003
      2.96296296e-003 1.48148148e-003 1.03703700e-002 1.48148146e-002
      1.48148148e-003 0. 0. 0. 0. 0. 7.40740728e-003 0. 0. 0.
      8.88888910e-003 4.44444455e-003 1.48148148e-003 1.48148148e-003 0.
      1.77777782e-002 0. 0. 1.48148148e-003 1.48148148e-003
      1.48148148e-003 1.33333337e-002 0. 0. 0. 0. 0. 0. 1.03703700e-002
      1.48148146e-002 0.</_>
    <_>
      1.81818176e-002 1.51515147e-003 1.21212117e-002 1.51515147e-003 0.
      6.06060587e-003 7.57575734e-003 0. 3.03030293e-003 0.
      4.54545440e-003 4.54545440e-003 0. 4.54545440e-003 0.
      4.54545440e-003 4.54545440e-003 1.51515147e-003 1.66666657e-002
      3.03030293e-003 0. 7.57575734e-003 0. 1.81818176e-002
      3.03030293e-003 0. 0. 1.51515147e-003 0. 0. 1.51515147e-003 0.
      3.03030293e-003 1.51515147e-003 6.06060587e-003 4.54545440e-003 0.
      2.42424235e-002 0. 0. 4.54545440e-003 3.03030293e-003
      1.51515147e-003 0. 1.21212117e-002 1.81818176e-002 6.06060587e-003
      1.51515147e-003 3.03030293e-003 0. 1.36363637e-002 9.09090880e-003
      9.09090880e-003 0. 0. 4.54545440e-003 3.03030293e-003
      4.54545440e-003 0. 0. 1.51515147e-003 1.51515147e-003
      6.06060587e-003 1.06060598e-002 1.51515147e-003 2.27272715e-002
      6.06060587e-003 4.54545440e-003 2.12121196e-002 4.54545440e-003
      1.36363637e-002 0. 3.03030293e-003 1.51515147e-003 0.
      1.51515147e-003 6.06060587e-003 0. 0. 0. 4.54545440e-003
      4.54545440e-003 0. 1.51515147e-003 0. 3.03030293e-003
      4.54545440e-003 6.06060587e-003 1.51515147e-003 0. 4.54545440e-003
      6.06060587e-003 1.51515147e-003 0. 0. 1.51515147e-003 0.
      1.21212117e-002 0. 0. 0. 0. 3.03030293e-003 4.54545440e-003
      3.03030293e-003 0. 7.57575734e-003 3.03030293e-003 1.06060598e-002
      1.51515147e-003 1.06060598e-002 0. 1.51515147e-003 7.57575734e-003
      0. 3.03030293e-003 9.09090880e-003 0. 6.06060587e-003
      3.03030293e-003 6.06060587e-003 0. 6.06060587e-003 1.51515147e-003
      1.51515147e-003 1.51515147e-003 7.57575734e-003 3.03030293e-003
      4.54545440e-003 4.54545440e-003 0. 0. 4.54545440e-003
      1.51515147e-003 0. 4.54545440e-003 1.51515147e-003 0. 0.
      3.03030293e-003 0. 0. 1.51515147e-003 1.51515147e-003
      1.51515147e-003 0. 0. 9.09090880e-003 0. 0. 1.51515147e-003
      1.51515147e-003 0. 0. 1.51515147e-003 0. 0. 9.09090880e-003
      1.51515147e-003 1.51515147e-003 0. 2.57575754e-002 7.57575734e-003
      1.66666657e-002 0. 0. 1.36363637e-002 0. 1.51515147e-003
      7.57575734e-003 1.51515147e-003 0. 6.06060587e-003 0. 0.
      3.03030293e-003 3.03030293e-003 0. 0. 4.54545440e-003
      1.51515147e-003 0. 0. 0. 7.57575734e-003 2.27272715e-002 0. 0.
      1.51515147e-002 0. 1.51515147e-003 0. 0. 0. 1.06060598e-002
      1.51515147e-003 0. 1.51515147e-003 1.51515147e-003 7.57575734e-003
      1.51515147e-003 1.21212117e-002 1.81818176e-002 2.12121196e-002
      6.06060587e-003 0. 7.57575734e-003 0. 1.81818176e-002
      1.51515147e-003 7.57575734e-003 0. 1.06060598e-002 1.51515147e-003
      3.03030293e-003 0. 4.54545440e-003 1.06060598e-002 9.09090880e-003
      4.54545440e-003 1.51515147e-003 0. 0. 0. 0. 4.54545440e-003 0. 0.
      1.51515147e-003 6.06060587e-003 1.06060598e-002 1.66666657e-002
      1.51515147e-003 3.03030293e-003 1.51515147e-002 3.03030293e-003
      1.51515147e-003 1.51515147e-003 1.51515147e-003 9.09090880e-003
      2.57575754e-002 4.54545440e-003 0. 0. 7.57575734e-003 0.
      1.51515147e-003 3.03030293e-003 7.57575734e-003 0.</_>
    <_>
      1.68918923e-003 8.44594650e-003 2.70270277e-002 3.37837846e-003 0.
      1.68918923e-003 2.02702712e-002 0. 1.68918923e-003 6.75675692e-003
      3.37837846e-003 1.18243247e-002 1.68918923e-003 1.68918923e-003 0.
      3.37837846e-003 1.68918923e-003 8.44594650e-003 3.20945941e-002 0.
      0. 1.52027030e-002 0. 1.01351356e-002 6.75675692e-003 0. 0. 0. 0.
      0. 1.68918923e-003 5.06756781e-003 1.68918923e-003 8.44594650e-003
      1.68918923e-003 0. 0. 3.04054059e-002 1.68918923e-003 0.
      1.68918923e-003 0. 6.75675692e-003 1.68918923e-003 3.37837846e-003
      2.36486495e-002 1.68918923e-003 1.68918923e-003 0. 1.68918923e-003
      8.44594650e-003 1.18243247e-002 1.35135138e-002 1.68918923e-003 0.
      1.68918923e-003 0. 1.68918923e-003 0. 0. 3.37837846e-003
      1.68918923e-003 0. 1.85810812e-002 0. 8.44594650e-003 0.
      1.52027030e-002 5.06756781e-003 3.37837846e-003 8.44594650e-003 0.
      0. 5.06756781e-003 0. 3.37837846e-003 0. 0. 0. 0. 6.75675692e-003
      3.37837846e-003 0. 0. 6.75675692e-003 1.68918923e-003
      5.06756781e-003 3.37837846e-003 0. 0. 1.68918923e-003
      5.06756781e-003 1.68918923e-003 3.37837846e-003 1.68918923e-003
      5.06756781e-003 0. 6.75675692e-003 0. 0. 0. 0. 1.68918923e-003
      1.68918923e-003 6.75675692e-003 1.68918923e-003 3.37837846e-003
      1.68918923e-003 1.35135138e-002 0. 1.18243247e-002 0.
      3.37837846e-003 8.44594650e-003 3.37837846e-003 1.68918923e-003
      1.18243247e-002 0. 1.01351356e-002 0. 6.75675692e-003 0.
      1.68918923e-003 0. 0. 0. 6.75675692e-003 0. 0. 3.37837846e-003
      3.37837846e-003 0. 3.37837846e-003 0. 0. 3.37837846e-003
      1.68918923e-003 0. 0. 5.06756781e-003 5.06756781e-003 0.
      5.06756781e-003 0. 0. 0. 0. 2.02702712e-002 0. 1.68918923e-003
      3.37837846e-003 0. 0. 0. 3.37837846e-003 0. 0. 0. 0.
      1.68918923e-003 1.68918923e-003 1.18243247e-002 5.06756781e-003
      2.87162177e-002 0. 0. 2.70270277e-002 1.68918923e-003
      3.37837846e-003 3.37837846e-003 0. 0. 1.18243247e-002 0.
      1.68918923e-003 0. 1.68918923e-003 0. 0. 0. 0. 0. 0.
      1.68918923e-003 3.37837846e-003 1.85810812e-002 3.37837846e-003
      8.44594650e-003 2.70270277e-002 0. 1.68918923e-003 0. 0. 0.
      8.44594650e-003 0. 0. 0. 1.68918923e-003 1.52027030e-002 0.
      1.01351356e-002 2.19594594e-002 1.35135138e-002 3.37837846e-003
      1.68918923e-003 1.68918923e-003 0. 2.19594594e-002 0.
      1.18243247e-002 0. 1.68918923e-003 0. 0. 3.37837846e-003
      3.37837846e-003 1.18243247e-002 2.36486495e-002 0. 1.68918923e-003
      3.37837846e-003 0. 1.68918923e-003 3.37837846e-003 1.18243247e-002
      0. 0. 0. 3.37837846e-003 6.75675692e-003 8.44594650e-003
      3.37837846e-003 0. 1.18243247e-002 1.68918923e-003 0. 0. 0.
      3.37837846e-003 2.19594594e-002 1.68918923e-003 0. 0. 0.
      1.68918923e-003 0. 1.35135138e-002 1.68918923e-003 0.</_>
    <_>
      4.19847332e-002 0. 2.09923666e-002 1.90839695e-003 0.
      1.90839695e-003 3.81679391e-003 0. 5.72519097e-003 3.81679391e-003
      0. 2.29007639e-002 3.81679391e-003 0. 0. 9.54198465e-003 0. 0.
      3.81679386e-002 0. 0. 1.14503819e-002 3.81679391e-003
      2.29007639e-002 3.81679391e-003 0. 0. 0. 0. 3.81679391e-003 0.
      3.81679391e-003 0. 3.81679391e-003 0. 5.72519097e-003
      1.90839695e-003 2.67175566e-002 1.90839695e-003 0. 1.90839695e-003
      0. 2.29007639e-002 0. 5.72519097e-003 1.52671756e-002
      3.81679391e-003 0. 5.72519097e-003 3.81679391e-003 1.33587783e-002
      1.90839695e-003 1.71755720e-002 1.90839695e-003 0. 0. 0. 0.
      1.90839695e-003 0. 1.90839695e-003 0. 3.81679391e-003
      1.90839693e-002 0. 9.54198465e-003 1.90839695e-003 5.72519097e-003
      3.81679391e-003 9.54198465e-003 1.14503819e-002 0. 0. 0. 0.
      5.72519097e-003 0. 0. 0. 0. 1.14503819e-002 5.72519097e-003
      1.90839695e-003 3.81679391e-003 3.81679391e-003 3.81679391e-003
      3.81679391e-003 3.81679391e-003 1.90839695e-003 0. 5.72519097e-003
      1.90839695e-003 0. 3.81679391e-003 1.90839695e-003 7.63358781e-003
      0. 0. 0. 0. 0. 0. 1.90839695e-003 1.90839695e-003 3.81679391e-003
      0. 0. 3.81679391e-003 1.71755720e-002 0. 1.14503819e-002 0. 0.
      3.81679391e-003 0. 0. 3.81679391e-003 0. 1.71755720e-002 0.
      9.54198465e-003 1.90839695e-003 3.81679391e-003 1.90839695e-003
      1.90839695e-003 1.90839695e-003 0. 0. 7.63358781e-003
      3.81679391e-003 1.90839695e-003 1.90839695e-003 1.90839695e-003
      1.90839695e-003 0. 0. 5.72519097e-003 0. 1.90839695e-003
      3.81679391e-003 1.90839695e-003 0. 0. 0. 1.90839695e-003 0. 0.
      1.90839693e-002 1.90839695e-003 0. 0. 1.90839695e-003 0. 0. 0. 0.
      0. 0. 0. 0. 0. 1.14503819e-002 7.63358781e-003 1.90839693e-002 0.
      0. 2.29007639e-002 0. 0. 7.63358781e-003 0. 1.90839695e-003
      1.33587783e-002 0. 7.63358781e-003 0. 0. 5.72519097e-003
      1.90839695e-003 1.90839695e-003 1.90839695e-003 0. 0.
      1.90839695e-003 3.81679391e-003 1.14503819e-002 0. 0.
      1.14503819e-002 0. 7.63358781e-003 0. 0. 1.90839695e-003
      1.33587783e-002 0. 0. 0. 0. 9.54198465e-003 0. 7.63358781e-003
      3.05343512e-002 1.33587783e-002 0. 3.81679391e-003 1.90839695e-003
      0. 2.86259539e-002 0. 7.63358781e-003 0. 1.90839695e-003
      1.90839695e-003 1.90839695e-003 1.90839695e-003 1.90839695e-003
      2.09923666e-002 1.71755720e-002 0. 0. 0. 0. 1.90839695e-003 0.
      5.72519097e-003 0. 0. 0. 3.81679391e-003 0. 3.81679391e-003
      3.81679391e-003 0. 1.90839693e-002 0. 0. 0. 3.81679391e-003
      3.81679391e-003 1.14503819e-002 1.90839695e-003 0. 0.
      1.90839695e-003 0. 0. 5.72519097e-003 1.14503819e-002 0.</_>
    <_>
      1.62866444e-003 1.62866444e-003 8.14332254e-003 1.62866444e-003 0.
      9.77198686e-003 4.88599343e-003 0. 3.25732888e-003 0.
      6.51465775e-003 6.51465775e-003 1.62866444e-003 0. 0.
      8.14332254e-003 0. 4.88599343e-003 4.07166108e-002 0. 0.
      1.79153085e-002 0. 1.46579798e-002 8.14332254e-003 0. 0. 0.
      3.25732888e-003 9.77198686e-003 0. 4.88599343e-003 4.88599343e-003
      6.51465775e-003 6.51465775e-003 4.88599343e-003 1.62866444e-003
      1.14006512e-002 1.62866444e-003 0. 1.14006512e-002 0.
      8.14332254e-003 3.25732888e-003 1.30293155e-002 1.95439737e-002
      3.25732888e-003 0. 1.79153085e-002 1.62866444e-003 3.25732888e-003
      8.14332254e-003 1.62866451e-002 0. 0. 1.62866444e-003
      1.62866444e-003 3.25732888e-003 1.62866444e-003 0. 1.62866444e-003
      0. 4.88599343e-003 1.79153085e-002 1.62866444e-003 9.77198686e-003
      4.88599343e-003 4.88599343e-003 6.51465775e-003 8.14332254e-003
      1.14006512e-002 0. 1.62866444e-003 0. 0. 3.25732888e-003
      1.62866444e-003 0. 1.62866444e-003 0. 1.46579798e-002
      4.88599343e-003 0. 0. 1.62866444e-003 6.51465775e-003 0.
      3.25732888e-003 1.62866444e-003 0. 1.62866444e-003 4.88599343e-003
      0. 0. 0. 4.88599343e-003 0. 4.88599343e-003 1.62866444e-003 0. 0.
      0. 1.62866444e-003 4.88599343e-003 1.62866444e-003 0. 0. 0.
      1.14006512e-002 1.62866444e-003 1.62866451e-002 1.62866444e-003
      1.62866444e-003 1.14006512e-002 0. 0. 3.25732888e-003 0.
      1.95439737e-002 6.51465775e-003 9.77198686e-003 3.25732888e-003
      4.88599343e-003 0. 4.88599343e-003 0. 6.51465775e-003 0.
      6.51465775e-003 9.77198686e-003 1.62866444e-003 0. 6.51465775e-003
      1.62866444e-003 0. 0. 3.25732888e-003 0. 0. 3.25732888e-003
      1.62866444e-003 0. 3.25732888e-003 0. 0. 0. 0. 1.14006512e-002
      6.51465775e-003 0. 1.62866444e-003 3.25732888e-003 0.
      3.25732888e-003 3.25732888e-003 1.62866444e-003 1.62866444e-003
      4.88599343e-003 1.62866444e-003 0. 1.62866444e-003 1.95439737e-002
      1.14006512e-002 1.30293155e-002 1.62866444e-003 0. 9.77198686e-003
      0. 3.25732888e-003 1.62866444e-003 0. 6.51465775e-003
      8.14332254e-003 4.88599343e-003 8.14332254e-003 1.62866444e-003
      9.77198686e-003 0. 8.14332254e-003 1.62866444e-003 3.25732888e-003
      1.62866444e-003 0. 1.62866444e-003 1.14006512e-002 1.30293155e-002
      3.25732888e-003 0. 6.51465775e-003 0. 1.46579798e-002 0.
      1.62866444e-003 0. 1.46579798e-002 1.62866444e-003 0. 0.
      1.62866444e-003 4.88599343e-003 1.62866444e-003 6.51465775e-003
      1.46579798e-002 1.95439737e-002 4.88599343e-003 1.62866444e-003 0.
      0. 1.30293155e-002 1.62866444e-003 1.30293155e-002 0. 0. 0.
      3.25732888e-003 1.14006512e-002 0. 1.46579798e-002 4.88599343e-003
      1.62866444e-003 0. 0. 0. 0. 0. 0. 0. 0. 1.62866444e-003
      4.88599343e-003 8.14332254e-003 4.88599343e-003 1.62866444e-003 0.
      9.77198686e-003 0. 0. 0. 0. 4.88599343e-003 1.95439737e-002
      1.62866444e-003 0. 0. 0. 0. 0. 3.25732888e-003 9.77198686e-003 0.</_>
    <_>
      1.72711571e-003 0. 1.03626940e-002 0. 0. 6.90846285e-003
      8.63557868e-003 0. 3.45423142e-003 1.72711571e-003 0.
      8.63557868e-003 0. 0. 0. 6.90846285e-003 0. 1.72711571e-003
      3.45423147e-002 0. 3.45423142e-003 5.18134702e-003 1.72711571e-003
      1.55440411e-002 6.90846285e-003 0. 5.18134702e-003 1.72711571e-003
      0. 0. 0. 1.20898103e-002 0. 1.89982727e-002 3.45423142e-003
      6.90846285e-003 1.72711571e-003 4.31778915e-002 0. 0.
      8.63557868e-003 3.45423142e-003 1.38169257e-002 0. 6.90846285e-003
      1.72711574e-002 1.72711571e-003 0. 1.72711571e-003 5.18134702e-003
      1.20898103e-002 1.38169257e-002 1.03626940e-002 0. 0. 0. 0.
      1.72711571e-003 0. 0. 5.18134702e-003 1.72711571e-003
      1.03626940e-002 3.28151993e-002 1.72711571e-003 1.55440411e-002
      1.72711571e-003 2.07253881e-002 1.72711571e-003 6.90846285e-003
      1.38169257e-002 0. 0. 0. 0. 1.72711571e-003 0. 0. 0. 0. 0.
      8.63557868e-003 0. 0. 1.72711571e-003 0. 0. 0. 3.45423142e-003 0.
      3.45423142e-003 0. 0. 0. 0. 6.90846285e-003 0. 0. 0. 0. 0. 0. 0.
      1.72711571e-003 0. 0. 0. 0. 1.72711574e-002 1.72711571e-003
      5.18134702e-003 0. 0. 6.90846285e-003 0. 0. 0. 0. 1.89982727e-002
      1.72711571e-003 5.18134702e-003 1.38169257e-002 0. 1.72711571e-003
      0. 0. 1.72711571e-003 3.45423142e-003 3.45423142e-003
      5.18134702e-003 0. 0. 3.45423142e-003 0. 3.45423142e-003 0.
      1.72711571e-003 0. 0. 3.45423142e-003 3.45423142e-003 0.
      6.90846285e-003 0. 0. 0. 0. 1.03626940e-002 0. 0. 3.45423142e-003
      0. 1.72711571e-003 1.72711571e-003 0. 1.72711571e-003 0.
      5.18134702e-003 0. 0. 0. 2.07253881e-002 5.18134702e-003
      2.59067360e-002 1.72711571e-003 0. 2.07253881e-002 0. 0.
      3.45423142e-003 3.45423142e-003 0. 8.63557868e-003 0.
      5.18134702e-003 0. 3.45423142e-003 5.18134702e-003 1.72711571e-003
      0. 1.72711571e-003 1.72711571e-003 0. 1.03626940e-002
      5.18134702e-003 1.55440411e-002 0. 3.45423142e-003 1.38169257e-002
      0. 5.18134702e-003 0. 0. 0. 1.38169257e-002 0. 0. 0. 0.
      1.38169257e-002 0. 8.63557868e-003 2.59067360e-002 1.38169257e-002
      1.72711571e-003 5.18134702e-003 8.63557868e-003 0. 2.07253881e-002
      0. 1.20898103e-002 0. 5.18134702e-003 0. 1.72711571e-003
      5.18134702e-003 1.72711571e-003 1.72711574e-002 6.90846285e-003
      6.90846285e-003 0. 0. 0. 1.72711571e-003 0. 1.72711571e-003
      1.72711571e-003 0. 0. 6.90846285e-003 0. 3.45423142e-003
      1.38169257e-002 0. 2.07253881e-002 1.72711571e-003 0. 0. 0.
      3.45423142e-003 1.20898103e-002 3.45423142e-003 0. 0. 0. 0. 0.
      6.90846285e-003 6.90846285e-003 3.45423142e-003</_>
    <_>
      1.36186769e-002 1.94552529e-003 2.91828793e-002 1.94552529e-003 0.
      5.83657576e-003 7.78210117e-003 0. 1.94552529e-003 0. 0.
      9.72762611e-003 0. 0. 0. 5.83657576e-003 0. 0. 3.89105044e-002
      1.94552529e-003 0. 1.55642023e-002 5.83657576e-003 1.94552522e-002
      3.89105058e-003 0. 1.94552529e-003 0. 1.94552529e-003
      3.89105058e-003 1.94552529e-003 0. 1.94552529e-003 3.89105058e-003
      1.94552529e-003 1.94552529e-003 0. 1.94552522e-002 1.94552529e-003
      0. 1.94552529e-003 0. 1.94552529e-003 0. 5.83657576e-003
      2.33463030e-002 1.94552529e-003 0. 0. 1.94552529e-003
      7.78210117e-003 9.72762611e-003 1.16731515e-002 0. 0. 0. 0. 0. 0.
      0. 1.94552529e-003 0. 3.89105058e-003 2.14007776e-002 0.
      1.55642023e-002 1.94552529e-003 6.03112839e-002 5.83657576e-003
      9.72762611e-003 5.83657576e-003 0. 1.94552529e-003 0. 0.
      5.83657576e-003 0. 0. 1.94552529e-003 0. 3.89105058e-003 0. 0.
      1.94552529e-003 0. 0. 0. 1.94552529e-003 0. 0. 1.94552529e-003
      1.94552529e-003 3.89105058e-003 1.94552529e-003 0. 7.78210117e-003
      0. 0. 0. 0. 0. 0. 0. 1.94552529e-003 5.83657576e-003
      3.89105058e-003 0. 0. 1.75097268e-002 1.94552529e-003
      1.94552522e-002 0. 0. 1.94552529e-003 0. 0. 3.89105058e-003 0.
      1.75097268e-002 9.72762611e-003 1.36186769e-002 5.83657576e-003
      3.89105058e-003 0. 1.94552529e-003 0. 3.89105058e-003 0.
      3.89105058e-003 5.83657576e-003 0. 0. 3.89105058e-003 0.
      1.94552529e-003 0. 1.94552529e-003 0. 0. 0. 5.83657576e-003 0.
      3.89105058e-003 0. 0. 0. 0. 1.16731515e-002 1.94552529e-003 0. 0.
      0. 0. 0. 3.89105058e-003 0. 0. 0. 1.94552529e-003 0.
      1.94552529e-003 9.72762611e-003 9.72762611e-003 2.52918284e-002 0.
      0. 9.72762611e-003 0. 0. 5.83657576e-003 1.94552529e-003 0.
      1.36186769e-002 1.94552529e-003 5.83657576e-003 0. 3.89105058e-003
      0. 1.55642023e-002 0. 0. 0. 0. 1.94552529e-003 5.83657576e-003
      5.83657576e-003 0. 0. 5.83657576e-003 0. 7.78210117e-003 0. 0.
      1.94552529e-003 1.16731515e-002 0. 0. 3.89105058e-003 0.
      1.16731515e-002 0. 1.94552529e-003 4.28015552e-002 9.72762611e-003
      0. 9.72762611e-003 1.94552529e-003 0. 2.52918284e-002 0.
      3.89105058e-003 0. 0. 3.89105058e-003 0. 3.89105058e-003
      1.94552529e-003 1.55642023e-002 1.36186769e-002 0. 0.
      1.94552529e-003 0. 0. 0. 0. 1.94552529e-003 0. 0. 1.94552529e-003
      0. 3.89105058e-003 7.78210117e-003 0. 1.55642023e-002
      3.89105058e-003 0. 0. 3.89105058e-003 5.83657576e-003
      1.55642023e-002 1.94552529e-003 0. 0. 0. 1.94552529e-003 0.
      1.75097268e-002 2.91828793e-002 0.</_>
    <_>
      8.96191224e-003 3.73412995e-003 7.46826001e-004 1.34428684e-002
      7.46826001e-004 4.48095612e-003 0. 1.49365200e-003 3.73412995e-003
      2.98730400e-003 1.49365200e-003 1.49365200e-003 0. 5.97460801e-003
      7.46826001e-004 2.24047806e-003 1.49365200e-003 0. 0.
      1.49365200e-003 7.46825989e-003 7.46826001e-004 1.49365200e-003
      7.46826001e-004 7.46826001e-004 5.97460801e-003 1.49365200e-003
      2.98730400e-003 4.48095612e-003 8.96191224e-003 4.48095612e-003
      7.46826001e-004 9.70873795e-003 4.48095612e-003 7.46826001e-004
      2.98730400e-003 6.72143418e-003 7.46826001e-004 3.73412995e-003
      4.48095612e-003 0. 4.48095612e-003 5.22778183e-003 4.48095612e-003
      7.46826001e-004 7.46826001e-004 8.21508560e-003 6.72143418e-003
      7.46826001e-004 2.98730400e-003 3.73412995e-003 0. 7.46826001e-004
      3.73412995e-003 0. 1.41896941e-002 9.70873795e-003 1.64301712e-002
      3.73412995e-003 2.98730400e-003 3.73412995e-003 8.96191224e-003
      1.49365200e-003 0. 5.22778183e-003 2.09111273e-002 4.48095612e-003
      3.73412995e-003 5.97460801e-003 7.46826001e-004 0. 5.22778183e-003
      1.86706502e-002 9.70873795e-003 0. 2.24047806e-003 1.49365200e-003
      0. 1.79238245e-002 7.46826001e-004 3.73412995e-003 7.46826001e-004
      7.46826001e-004 5.22778183e-003 7.46826001e-004 1.12023903e-002
      1.49365200e-003 0. 7.46826001e-004 1.49365200e-003 7.46826001e-004
      5.22778183e-003 1.49365200e-003 0. 5.97460801e-003 3.73412995e-003
      8.96191224e-003 2.24047806e-003 4.48095612e-003 2.24047806e-003
      7.46826001e-004 7.46825989e-003 1.86706502e-002 9.70873795e-003
      1.04555637e-002 0. 5.22778183e-003 5.22778183e-003 1.41896941e-002
      3.73412995e-003 1.49365200e-003 3.73412995e-003 1.49365200e-003
      2.98730400e-003 1.41896941e-002 1.49365200e-003 0. 3.73412995e-003
      7.46826001e-004 1.49365200e-003 5.97460801e-003 2.98730400e-003
      7.46826001e-004 1.49365200e-003 8.21508560e-003 0. 7.46826001e-004
      5.97460801e-003 7.46826001e-004 1.49365200e-003 1.49365200e-003
      1.34428684e-002 0. 3.73412995e-003 1.49365198e-002 7.46826001e-004
      1.04555637e-002 6.72143418e-003 1.26960417e-002 2.98730400e-003
      7.46826001e-004 1.19492160e-002 5.97460801e-003 7.46826001e-004
      7.46826001e-004 5.97460801e-003 7.46825989e-003 1.04555637e-002
      7.46826001e-004 0. 4.48095612e-003 8.96191224e-003 5.22778183e-003
      3.73412995e-003 5.97460801e-003 0. 2.98730400e-003 4.48095612e-003
      9.70873795e-003 1.04555637e-002 1.49365200e-003 0. 5.97460801e-003
      0. 0. 0. 0. 7.46826001e-004 9.70873795e-003 4.48095612e-003 0.
      8.21508560e-003 0. 8.96191224e-003 7.46825989e-003 0.
      2.24047806e-003 2.24047806e-003 1.49365200e-003 3.73412995e-003
      2.24047806e-002 7.46826001e-004 2.98730400e-003 1.49365200e-003 0.
      0. 1.19492160e-002 1.49365200e-003 0. 8.96191224e-003
      2.98730400e-003 7.46826001e-004 8.21508560e-003 7.46825989e-003 0.
      3.73412995e-003 0. 5.22778183e-003 1.49365200e-003 7.46826001e-004
      7.46826001e-004 7.46826001e-004 2.98730400e-003 7.46826001e-004
      7.46826001e-004 1.04555637e-002 0. 2.98730400e-003 0.
      1.34428684e-002 7.46826001e-004 1.04555637e-002 7.46826001e-004
      8.96191224e-003 2.98730400e-003 1.49365200e-003 2.98730400e-003
      2.24047806e-003 1.49365200e-003 0. 1.49365200e-003 8.96191224e-003
      7.46826001e-004 7.46826001e-004 2.24047806e-003 7.46826001e-004
      8.21508560e-003 1.34428684e-002 2.98730400e-003 2.98730400e-003
      3.73412995e-003 2.24047806e-003 5.22778183e-003 2.24047806e-003
      1.49365200e-003 1.26960417e-002 4.48095612e-003 7.46825989e-003
      2.24047806e-003 1.49365200e-003 0. 1.49365200e-003 0.
      2.24047806e-003 8.96191224e-003 0. 1.49365200e-003 0.
      2.98730400e-003 0.</_>
    <_>
      4.89715952e-003 9.79431905e-004 0. 1.76297743e-002 4.89715952e-003
      9.79431905e-004 1.95886381e-003 3.91772762e-003 7.83545524e-003
      9.79431905e-003 2.93829571e-003 5.87659143e-003 3.91772762e-003 0.
      8.81488714e-003 0. 7.83545524e-003 0. 4.89715952e-003
      1.95886381e-003 4.89715952e-003 0. 1.95886381e-003 1.95886381e-003
      1.95886381e-003 6.85602333e-003 2.93829571e-003 9.79431905e-004
      4.89715952e-003 9.79431905e-004 4.89715952e-003 0. 7.83545524e-003
      9.79431905e-003 1.95886381e-003 9.79431905e-004 9.79431905e-004 0.
      1.95886381e-003 1.56709105e-002 2.93829571e-003 9.79431905e-004
      1.95886381e-003 4.89715952e-003 0. 4.89715952e-003 1.95886381e-003
      9.79431905e-003 2.93829571e-003 3.91772762e-003 1.46914786e-002
      9.79431905e-004 9.79431905e-004 1.95886381e-003 0. 1.07737510e-002
      3.91772762e-003 1.46914786e-002 1.95886381e-003 4.89715952e-003 0.
      3.91772762e-003 0. 0. 4.89715952e-003 1.27326148e-002
      1.95886381e-003 0. 9.79431905e-004 2.93829571e-003 7.83545524e-003
      1.95886381e-003 7.83545524e-003 1.95886381e-003 2.93829571e-003
      3.91772762e-003 1.95886381e-003 3.91772762e-003 4.89715952e-003
      6.85602333e-003 3.91772762e-003 4.89715952e-003 0. 1.27326148e-002
      0. 7.83545524e-003 3.91772762e-003 0. 9.79431905e-004
      9.79431905e-004 9.79431905e-004 4.89715952e-003 3.91772762e-003
      9.79431905e-004 3.91772762e-003 2.93829571e-003 5.87659143e-003
      9.79431905e-004 1.17531829e-002 1.56709105e-002 9.79431905e-004
      4.89715952e-003 1.76297743e-002 1.76297743e-002 6.85602333e-003 0.
      9.79431905e-004 0. 9.79431905e-004 1.95886381e-003 9.79431905e-004
      9.79431905e-004 2.93829571e-003 0. 3.91772762e-003 0.
      3.91772762e-003 9.79431905e-004 9.79431905e-004 2.93829571e-003
      4.89715952e-003 3.91772762e-003 0. 5.87659143e-003 7.83545524e-003
      9.79431905e-004 9.79431905e-004 9.79431905e-004 1.95886381e-003
      1.95886381e-003 6.85602333e-003 1.17531829e-002 0. 0.
      2.93829571e-003 2.93829571e-003 8.81488714e-003 1.95886381e-003
      8.81488714e-003 7.83545524e-003 3.91772762e-003 9.79431905e-004
      9.79431905e-004 9.79431905e-004 0. 1.86092071e-002 4.89715952e-003
      1.37120467e-002 0. 9.79431905e-004 1.66503415e-002 5.87659143e-003
      1.07737510e-002 0. 0. 9.79431905e-004 4.89715952e-003
      2.93829571e-003 1.56709105e-002 5.87659143e-003 9.79431905e-004
      9.79431905e-004 7.83545524e-003 0. 0. 1.95886381e-003
      9.79431905e-004 9.79431905e-004 4.89715952e-003 7.83545524e-003 0.
      4.89715952e-003 0. 6.85602333e-003 2.93829571e-003 0.
      2.93829571e-003 0. 1.95886381e-003 4.89715952e-003 8.81488714e-003
      0. 1.95886381e-003 2.93829571e-003 0. 9.79431905e-004
      4.89715952e-003 0. 0. 0. 4.89715952e-003 0. 3.91772762e-003
      2.93829571e-003 0. 6.85602333e-003 0. 7.83545524e-003
      2.93829571e-003 0. 9.79431905e-004 9.79431905e-004 1.17531829e-002
      9.79431905e-004 0. 1.17531829e-002 2.93829571e-003 7.83545524e-003
      0. 2.15475019e-002 3.91772762e-003 1.17531829e-002 2.93829571e-003
      8.81488714e-003 5.87659143e-003 4.89715952e-003 1.95886381e-003 0.
      0. 9.79431905e-004 0. 2.93829571e-003 2.93829571e-003
      3.91772762e-003 5.87659143e-003 1.37120467e-002 3.91772762e-003
      1.66503415e-002 2.93829571e-003 7.83545524e-003 8.81488714e-003 0.
      6.85602333e-003 9.79431905e-004 0. 8.81488714e-003 3.91772762e-003
      1.37120467e-002 9.79431905e-004 0. 9.79431905e-004 3.91772762e-003
      2.93829571e-003 6.85602333e-003 1.07737510e-002 0. 1.95886381e-003
      0. 0. 0.</_>
    <_>
      3.65408044e-003 0. 0. 1.09622413e-002 0. 6.09013438e-003
      8.52618832e-003 3.65408044e-003 1.82704031e-002 9.74421483e-003
      1.21802685e-003 3.65408044e-003 4.87210741e-003 0. 2.43605371e-003
      2.43605371e-003 9.74421483e-003 0. 7.30816089e-003 1.21802685e-003
      6.09013438e-003 0. 0. 3.65408044e-003 0. 2.43605371e-003 0. 0.
      1.21802685e-003 8.52618832e-003 2.43605371e-003 3.65408044e-003 0.
      2.43605371e-003 0. 1.21802685e-003 6.09013438e-003 0.
      1.21802685e-003 2.43605371e-003 4.87210741e-003 1.21802685e-003
      3.65408044e-003 1.21802685e-003 0. 1.46163218e-002 6.09013438e-003
      1.09622413e-002 2.43605371e-003 1.21802688e-002 1.46163218e-002
      1.21802685e-003 3.65408044e-003 2.43605371e-003 0. 1.21802688e-002
      8.52618832e-003 1.82704031e-002 2.43605371e-003 3.65408044e-003 0.
      7.30816089e-003 0. 0. 1.21802685e-003 2.67965905e-002
      2.43605371e-003 0. 0. 1.21802685e-003 9.74421483e-003
      3.65408044e-003 7.30816089e-003 0. 1.21802685e-003 1.09622413e-002
      0. 1.21802685e-003 6.09013438e-003 3.65408044e-003 2.43605371e-003
      0. 0. 7.30816089e-003 2.43605371e-003 6.09013438e-003
      1.21802685e-003 0. 2.43605371e-003 1.21802685e-003 4.87210741e-003
      7.30816089e-003 1.21802685e-003 1.21802685e-003 2.43605371e-003
      2.43605371e-003 4.87210741e-003 3.65408044e-003 8.52618832e-003
      1.21802685e-003 1.21802685e-003 7.30816089e-003 3.65408063e-002
      1.70523766e-002 4.87210741e-003 0. 0. 4.87210741e-003
      3.65408044e-003 7.30816089e-003 0. 0. 0. 0. 6.09013438e-003 0.
      7.30816089e-003 3.65408044e-003 0. 1.21802685e-003 6.09013438e-003
      2.43605371e-003 2.43605371e-003 2.43605371e-003 2.43605371e-003
      2.43605371e-003 0. 1.21802685e-003 3.65408044e-003 4.87210741e-003
      1.21802685e-003 1.58343483e-002 0. 1.21802685e-003 2.43605371e-003
      0. 6.09013438e-003 3.65408044e-003 1.70523766e-002 9.74421483e-003
      2.43605371e-003 2.43605371e-003 1.21802685e-003 1.21802685e-003
      7.30816089e-003 4.87210741e-003 4.87210741e-003 1.21802688e-002 0.
      0. 9.74421483e-003 7.30816089e-003 1.21802685e-003 0.
      6.09013438e-003 2.43605371e-003 3.65408044e-003 2.43605371e-003
      4.87210741e-003 0. 1.21802685e-003 0. 4.87210741e-003 0. 0.
      3.65408044e-003 1.21802685e-003 0. 9.74421483e-003 9.74421483e-003
      0. 3.65408044e-003 1.21802685e-003 8.52618832e-003 6.09013438e-003
      0. 2.43605371e-003 9.74421483e-003 1.21802685e-003 4.87210741e-003
      8.52618832e-003 0. 4.87210741e-003 2.43605371e-003 1.21802685e-003
      0. 2.43605371e-003 6.09013438e-003 0. 1.09622413e-002
      2.43605371e-003 0. 1.21802685e-003 2.43605371e-003 0.
      1.21802685e-003 0. 7.30816089e-003 3.65408044e-003 0.
      2.43605371e-003 0. 1.21802685e-003 0. 0. 3.53227779e-002
      1.21802685e-003 3.65408044e-003 0. 2.19244827e-002 8.52618832e-003
      3.65408044e-003 3.65408044e-003 1.09622413e-002 3.65408044e-003 0.
      1.09622413e-002 1.21802685e-003 0. 0. 0. 1.21802685e-003
      2.43605371e-003 2.43605371e-003 1.21802685e-003 1.46163218e-002
      1.21802685e-003 2.31425110e-002 0. 4.87210741e-003 0.
      6.09013438e-003 6.09013438e-003 0. 2.43605371e-003 4.87210741e-003
      1.21802685e-003 7.30816089e-003 0. 1.21802685e-003 1.21802685e-003
      3.65408044e-003 1.21802685e-003 4.87210741e-003 6.09013438e-003 0.
      4.87210741e-003 0. 0. 2.43605371e-003</_>
    <_>
      2.63504614e-003 6.58761535e-004 0. 1.38339922e-002 1.31752307e-003
      3.95256933e-003 3.29380762e-003 1.31752307e-003 1.31752307e-003
      4.61133057e-003 4.61133057e-003 1.31752307e-003 3.29380762e-003
      6.58761535e-004 4.61133057e-003 1.97628466e-003 4.61133057e-003 0.
      6.58761535e-004 6.58761524e-003 5.92885399e-003 0. 6.58761535e-004
      1.31752307e-003 1.31752307e-003 5.27009228e-003 5.92885399e-003
      3.29380762e-003 2.63504614e-003 1.97628466e-003 5.27009228e-003
      3.29380762e-003 9.88142285e-003 5.27009228e-003 2.63504614e-003
      1.31752307e-003 9.22266115e-003 0. 0. 7.90513866e-003 0.
      6.58761524e-003 5.92885399e-003 5.27009228e-003 1.31752307e-003
      7.24637695e-003 3.95256933e-003 1.71278007e-002 4.61133057e-003
      1.31752307e-003 4.61133057e-003 6.58761535e-004 0. 3.29380762e-003
      6.58761535e-004 1.84453223e-002 8.56390037e-003 1.64690390e-002
      5.27009228e-003 5.92885399e-003 0. 5.92885399e-003 0. 0.
      1.11989463e-002 7.24637695e-003 1.31752307e-003 6.58761535e-004 0.
      1.97628466e-003 2.63504614e-003 1.05401846e-002 1.58102773e-002
      6.58761535e-004 1.97628466e-003 2.63504614e-003 6.58761535e-004
      1.31752307e-003 5.92885399e-003 6.58761535e-004 3.29380762e-003 0.
      0. 7.24637695e-003 0. 1.97628466e-003 3.29380762e-003 0.
      1.97628466e-003 3.95256933e-003 1.31752307e-003 9.22266115e-003
      6.58761535e-004 1.97628466e-003 2.63504614e-003 3.95256933e-003
      5.92885399e-003 6.58761524e-003 1.05401846e-002 5.92885399e-003
      1.31752307e-003 1.18577080e-002 9.22266115e-003 1.58102773e-002
      1.58102773e-002 0. 0. 5.27009228e-003 1.25164688e-002
      6.58761535e-004 0. 1.31752307e-003 1.97628466e-003 5.92885399e-003
      7.90513866e-003 1.31752307e-003 6.58761535e-004 2.63504614e-003 0.
      0. 8.56390037e-003 1.31752307e-003 0. 8.56390037e-003
      3.29380762e-003 6.58761535e-004 1.31752307e-003 1.31752307e-003
      6.58761535e-004 6.58761535e-004 5.27009228e-003 1.58102773e-002 0.
      5.27009228e-003 7.90513866e-003 1.31752307e-003 1.97628457e-002
      5.27009228e-003 9.22266115e-003 1.97628466e-003 0. 8.56390037e-003
      1.31752307e-003 6.58761535e-004 6.58761535e-004 3.95256933e-003
      7.24637695e-003 5.92885399e-003 6.58761535e-004 1.31752307e-003
      1.64690390e-002 1.11989463e-002 4.61133057e-003 1.31752307e-003
      2.63504614e-003 0. 7.24637695e-003 2.63504614e-003 1.64690390e-002
      2.63504614e-003 1.31752307e-003 0. 5.27009228e-003 0. 0.
      6.58761535e-004 0. 0. 1.71278007e-002 1.38339922e-002 0.
      9.22266115e-003 0. 9.88142285e-003 8.56390037e-003 6.58761535e-004
      1.97628466e-003 3.29380762e-003 0. 5.27009228e-003 6.58761524e-003
      1.31752307e-003 4.61133057e-003 0. 6.58761535e-004 0.
      2.63504614e-003 1.97628466e-003 1.31752307e-003 4.61133057e-003 0.
      0. 7.24637695e-003 3.29380762e-003 0. 7.90513866e-003 0.
      3.95256933e-003 3.95256933e-003 0. 8.56390037e-003 2.63504614e-003
      1.97628466e-003 0. 0. 3.29380762e-003 1.31752307e-003
      6.58761524e-003 0. 1.11989463e-002 1.31752307e-003 9.22266115e-003
      2.63504614e-003 1.18577080e-002 1.31752307e-003 1.31752307e-003
      1.97628466e-003 3.95256933e-003 0. 0. 1.31752307e-003
      5.92885399e-003 1.31752307e-003 6.58761535e-004 1.31752305e-002
      9.22266115e-003 3.29380762e-003 1.84453223e-002 6.58761535e-004
      1.31752307e-003 2.63504614e-003 4.61133057e-003 7.90513866e-003
      1.97628466e-003 0. 1.18577080e-002 1.97628466e-003 7.90513866e-003
      0. 1.97628466e-003 0. 4.61133057e-003 5.27009228e-003
      5.92885399e-003 8.56390037e-003 1.31752307e-003 6.58761535e-004 0.
      0. 0.</_>
    <_>
      0. 1.47492625e-003 0. 3.68731562e-003 2.21238937e-003
      2.94985250e-003 4.42477874e-003 0. 2.21238937e-003 7.37463124e-003
      1.47492625e-003 0. 2.94985250e-003 2.21238937e-003 0. 0.
      7.37463124e-003 7.37463124e-004 7.37463124e-003 7.37463124e-004
      1.03244837e-002 0. 3.68731562e-003 2.21238937e-003 2.94985250e-003
      7.37463124e-004 2.94985250e-003 3.68731562e-003 2.21238937e-003
      2.21238937e-003 7.37463124e-003 1.47492625e-003 1.32743362e-002
      1.47492625e-003 2.21238937e-003 1.47492625e-003 1.40117994e-002
      7.37463124e-004 2.94985250e-003 7.37463124e-004 1.47492625e-003
      8.11209437e-003 7.37463124e-004 1.47492625e-002 7.37463124e-004
      3.68731562e-003 2.21238937e-003 1.25368731e-002 5.89970499e-003
      2.94985250e-003 1.25368731e-002 2.21238937e-003 7.37463124e-004
      2.21238937e-003 1.47492625e-003 1.25368731e-002 8.11209437e-003
      8.11209437e-003 2.21238937e-003 1.84365772e-002 7.37463124e-004
      5.16224187e-003 0. 0. 5.89970499e-003 6.63716812e-003
      3.68731562e-003 0. 2.94985250e-003 1.47492625e-003 6.63716812e-003
      3.68731562e-003 1.17994100e-002 1.47492625e-003 5.89970499e-003
      6.63716812e-003 3.68731562e-003 0. 1.10619469e-002 1.47492625e-003
      2.21238937e-003 2.21238937e-003 0. 1.17994100e-002 2.94985250e-003
      5.16224187e-003 5.89970499e-003 0. 1.47492625e-003 3.68731562e-003
      2.21238937e-003 1.10619469e-002 2.21238937e-003 7.37463124e-004
      2.94985250e-003 8.11209437e-003 1.10619469e-002 2.94985250e-003
      4.42477874e-003 1.47492625e-003 7.37463124e-004 2.21238937e-003
      9.58702061e-003 1.47492625e-002 8.11209437e-003 0. 7.37463124e-004
      5.89970499e-003 7.37463124e-004 7.37463124e-004 0. 7.37463124e-004
      7.37463124e-004 4.42477874e-003 1.25368731e-002 1.47492625e-003
      2.21238937e-003 2.94985250e-003 0. 0. 2.21238937e-003 0. 0.
      7.37463124e-003 8.11209437e-003 0. 0. 7.37463124e-004
      7.37463124e-004 3.68731562e-003 4.42477874e-003 2.28613578e-002
      7.37463124e-004 2.21238937e-003 1.47492625e-003 0. 2.21238937e-002
      5.16224187e-003 1.47492625e-003 1.47492625e-003 1.47492625e-003
      5.16224187e-003 7.37463124e-004 0. 7.37463124e-004 4.42477874e-003
      1.47492625e-003 1.10619469e-002 7.37463124e-004 0. 1.54867256e-002
      2.50737462e-002 2.21238937e-003 0. 3.68731562e-003 0.
      6.63716812e-003 5.16224187e-003 6.63716812e-003 3.68731562e-003 0.
      7.37463124e-004 2.21238937e-003 0. 0. 6.63716812e-003
      7.37463124e-004 2.94985250e-003 1.32743362e-002 5.16224187e-003
      1.47492625e-003 1.03244837e-002 0. 7.37463124e-003 2.94985250e-003
      2.21238937e-003 1.47492625e-003 0. 7.37463124e-004 7.37463124e-003
      7.37463124e-003 0. 3.68731562e-003 1.47492625e-003 0. 0.
      4.42477874e-003 5.16224187e-003 0. 1.03244837e-002 2.21238937e-003
      0. 4.42477874e-003 8.11209437e-003 7.37463124e-004 7.37463124e-003
      0. 1.47492625e-003 6.63716812e-003 0. 5.16224187e-003 0.
      6.63716812e-003 1.47492625e-003 3.68731562e-003 2.94985250e-003
      2.94985250e-003 2.94985250e-003 0. 1.84365772e-002 5.89970499e-003
      1.17994100e-002 2.94985250e-003 1.76991150e-002 7.37463124e-004
      1.47492625e-003 3.68731562e-003 0. 0. 2.94985250e-003 0.
      8.84955749e-003 3.68731562e-003 7.37463124e-004 5.89970499e-003
      1.32743362e-002 2.94985250e-003 2.13864297e-002 0. 3.68731562e-003
      2.21238937e-003 2.21238937e-003 4.42477874e-003 2.94985250e-003 0.
      0. 0. 1.03244837e-002 0. 2.21238937e-003 3.68731562e-003
      1.17994100e-002 1.47492625e-003 7.37463124e-004 1.62241887e-002
      7.37463124e-004 2.94985250e-003 0. 0. 2.21238937e-003</_>
    <_>
      6.90448796e-003 1.15074799e-003 1.15074799e-003 6.90448796e-003
      3.45224398e-003 2.30149599e-003 1.03567317e-002 0. 8.05523619e-003
      4.60299198e-003 1.26582282e-002 1.15074799e-003 4.60299198e-003
      1.15074799e-003 0. 2.30149599e-003 5.75373974e-003 0.
      2.30149599e-003 1.15074799e-003 1.38089759e-002 1.15074799e-003 0.
      6.90448796e-003 2.30149599e-003 1.03567317e-002 4.60299198e-003
      1.15074799e-003 0. 2.30149599e-003 6.90448796e-003 0.
      3.45224398e-003 6.90448796e-003 0. 0. 8.05523619e-003
      1.15074799e-003 1.15074799e-003 3.10701951e-002 0. 3.45224398e-003
      0. 6.90448796e-003 0. 4.60299198e-003 8.05523619e-003
      1.15074795e-002 2.30149599e-003 4.60299198e-003 6.90448796e-003
      5.75373974e-003 3.45224398e-003 6.90448796e-003 1.15074799e-003
      1.03567317e-002 3.45224398e-003 9.20598395e-003 0. 3.45224398e-003
      0. 4.60299198e-003 0. 0. 5.75373974e-003 1.26582282e-002 0.
      1.15074799e-003 1.15074799e-003 4.60299198e-003 8.05523619e-003
      2.30149599e-003 3.45224398e-003 0. 1.15074799e-003 1.15074799e-003
      1.15074799e-003 3.45224398e-003 4.60299198e-003 2.30149599e-003
      1.03567317e-002 1.15074799e-003 2.30149599e-003 6.90448796e-003
      1.15074799e-003 1.72612201e-002 4.60299198e-003 0. 1.15074799e-003
      3.45224398e-003 4.60299198e-003 1.15074799e-003 8.05523619e-003
      3.45224398e-003 0. 6.90448796e-003 6.90448796e-003 0.
      8.05523619e-003 4.60299198e-003 1.15074799e-003 1.03567317e-002
      1.26582282e-002 1.26582282e-002 3.45224398e-003 0. 0.
      1.15074799e-003 1.15074799e-003 1.15074799e-003 0. 3.45224398e-003
      2.30149599e-003 1.15074799e-003 1.15074795e-002 1.15074799e-003
      6.90448796e-003 0. 0. 2.30149599e-003 8.05523619e-003
      2.30149599e-003 2.30149599e-003 2.30149599e-003 1.84119679e-002 0.
      1.15074799e-003 0. 0. 2.30149599e-003 6.90448796e-003
      9.20598395e-003 0. 3.45224398e-003 1.15074799e-003 1.15074799e-003
      1.15074795e-002 4.60299198e-003 1.38089759e-002 1.49597237e-002
      4.60299198e-003 9.20598395e-003 3.45224398e-003 0. 0.
      5.75373974e-003 4.60299198e-003 1.49597237e-002 0. 0.
      5.75373974e-003 6.90448796e-003 1.15074799e-003 2.30149599e-003
      2.30149599e-003 0. 3.45224398e-003 2.30149599e-003 4.60299198e-003
      1.15074799e-003 0. 5.75373974e-003 1.95627157e-002 1.15074799e-003
      0. 2.30149599e-003 0. 2.30149599e-003 4.60299198e-003
      1.84119679e-002 0. 6.90448796e-003 1.15074799e-003 1.15074795e-002
      3.45224398e-003 4.60299198e-003 3.45224398e-003 1.15074799e-003 0.
      5.75373974e-003 8.05523619e-003 0. 8.05523619e-003 2.30149599e-003
      0. 0. 3.45224398e-003 3.45224398e-003 0. 1.15074799e-003
      6.90448796e-003 1.15074799e-003 3.45224398e-003 2.30149599e-003 0.
      4.60299198e-003 2.30149599e-003 1.15074795e-002 2.30149599e-003 0.
      0. 0. 8.05523619e-003 0. 0. 8.05523619e-003 0. 1.15074799e-003
      1.15074799e-003 2.18642112e-002 8.05523619e-003 3.45224398e-003 0.
      6.90448796e-003 1.38089759e-002 4.60299198e-003 2.30149599e-003 0.
      0. 1.15074799e-003 0. 3.45224398e-003 2.30149599e-003
      1.15074799e-003 3.45224398e-003 4.60299198e-003 3.45224398e-003
      6.90448796e-003 1.15074799e-003 4.60299198e-003 9.20598395e-003
      1.15074799e-003 5.75373974e-003 4.60299198e-003 0. 6.90448796e-003
      3.45224398e-003 5.75373974e-003 0. 0. 2.30149599e-003
      5.75373974e-003 6.90448796e-003 2.30149599e-003 6.90448796e-003
      2.30149599e-003 2.30149599e-003 0. 0. 2.30149599e-003</_>
    <_>
      0. 1.80018006e-003 0. 6.30063005e-003 5.40054031e-003
      4.50045010e-003 1.80018006e-003 9.00090032e-004 6.30063005e-003
      2.07020715e-002 3.60036013e-003 9.00090032e-004 9.00090032e-004 0.
      9.00090032e-004 0. 3.60036013e-003 0. 9.00090032e-004 0.
      8.10081046e-003 0. 0. 5.40054031e-003 0. 9.90098994e-003
      9.00090032e-004 0. 3.60036013e-003 5.40054031e-003 1.08010806e-002
      9.00090020e-003 1.26012601e-002 0. 9.00090032e-004 9.00090032e-004
      1.35013508e-002 9.00090032e-004 7.20072025e-003 4.50045010e-003
      9.00090032e-004 9.00090032e-004 0. 6.30063005e-003 0.
      9.90098994e-003 9.00090020e-003 1.17011704e-002 1.80018006e-003
      6.30063005e-003 6.30063005e-003 1.80018006e-003 1.80018006e-003 0.
      1.80018006e-003 1.62016209e-002 6.30063005e-003 1.17011704e-002
      9.00090032e-004 3.60036013e-003 1.80018006e-003 6.30063005e-003 0.
      0. 3.60036013e-003 2.70027015e-003 9.00090032e-004 9.00090032e-004
      9.00090032e-004 0. 1.80018006e-003 2.70027015e-003 9.00090020e-003
      0. 5.40054031e-003 5.40054031e-003 5.40054031e-003 9.00090032e-004
      4.50045010e-003 1.80018006e-003 9.00090032e-004 0. 0.
      8.10081046e-003 9.00090020e-003 4.50045010e-003 3.60036013e-003 0.
      4.50045010e-003 5.40054031e-003 1.80018006e-003 9.90098994e-003
      2.70027015e-003 9.00090032e-004 1.80018006e-003 5.40054031e-003
      5.40054031e-003 3.60036013e-003 8.10081046e-003 0. 0.
      1.35013508e-002 9.00090020e-003 1.71017107e-002 4.50045010e-003 0.
      1.80018006e-003 3.60036013e-003 7.20072025e-003 9.00090032e-004 0.
      9.00090032e-004 9.00090032e-004 0. 3.60036013e-003 0.
      3.60036013e-003 7.20072025e-003 0. 9.00090032e-004 9.00090032e-004
      1.80018006e-003 1.80018006e-003 6.30063005e-003 5.40054031e-003
      1.80018006e-003 1.80018006e-003 9.00090032e-004 1.80018006e-003
      3.60036013e-003 8.10081046e-003 1.62016209e-002 0. 5.40054031e-003
      7.20072025e-003 0. 1.53015302e-002 5.40054031e-003 6.30063005e-003
      4.50045010e-003 2.70027015e-003 1.62016209e-002 0. 0.
      1.80018006e-003 6.30063005e-003 8.10081046e-003 9.00090020e-003 0.
      0. 2.25022510e-002 1.35013508e-002 4.50045010e-003 0.
      9.00090020e-003 9.00090032e-004 2.70027015e-003 7.20072025e-003
      7.20072025e-003 4.50045010e-003 1.80018006e-003 9.00090032e-004
      9.00090032e-004 0. 0. 3.60036013e-003 0. 1.80018006e-003
      9.90098994e-003 1.08010806e-002 9.00090032e-004 9.00090020e-003 0.
      9.90098994e-003 8.10081046e-003 8.10081046e-003 0. 0. 0.
      1.44014405e-002 6.30063005e-003 0. 7.20072025e-003 1.80018006e-003
      1.80018006e-003 0. 2.70027015e-003 7.20072025e-003 0.
      3.60036013e-003 9.00090032e-004 0. 8.10081046e-003 4.50045010e-003
      9.00090032e-004 1.26012601e-002 0. 4.50045010e-003 1.80018006e-003
      0. 9.00090032e-004 9.00090032e-004 9.00090032e-004 0. 0.
      7.20072025e-003 0. 9.90098994e-003 0. 4.50045010e-003
      9.00090020e-003 1.17011704e-002 1.80018006e-003 1.44014405e-002
      2.70027015e-003 9.00090032e-004 5.40054031e-003 2.70027015e-003 0.
      9.00090032e-004 0. 1.35013508e-002 3.60036013e-003 1.80018006e-003
      4.50045010e-003 1.08010806e-002 6.30063005e-003 9.00090020e-003
      1.80018006e-003 2.70027015e-003 5.40054031e-003 9.00090020e-003
      1.80018006e-003 1.80018006e-003 0. 1.17011704e-002 2.70027015e-003
      5.40054031e-003 0. 2.70027015e-003 1.80018006e-003 2.70027015e-003
      1.80018006e-003 3.60036013e-003 6.30063005e-003 1.80018006e-003
      1.80018006e-003 0. 0. 3.60036013e-003</_>
    <_>
      1.07095046e-002 0. 0. 1.87416337e-002 2.67737615e-003
      5.35475230e-003 2.67737615e-003 1.33868807e-003 2.27576979e-002
      2.27576979e-002 0. 1.33868807e-003 5.35475230e-003 0.
      2.67737615e-003 2.67737615e-003 1.33868807e-003 0. 1.33868807e-003
      2.67737615e-003 1.33868807e-003 0. 2.67737615e-003 0. 0.
      6.69344049e-003 6.69344049e-003 0. 2.67737615e-003 1.33868807e-003
      4.01606411e-003 6.69344049e-003 1.07095046e-002 1.33868807e-003
      4.01606411e-003 0. 6.69344049e-003 0. 2.67737615e-003
      2.67737615e-003 0. 1.33868807e-003 1.47255687e-002 5.35475230e-003
      0. 1.20481923e-002 1.33868807e-003 1.60642564e-002 1.33868807e-003
      1.33868810e-002 8.03212821e-003 0. 2.67737615e-003 0. 0.
      1.60642564e-002 8.03212821e-003 1.47255687e-002 0. 6.69344049e-003
      0. 4.01606411e-003 0. 0. 5.35475230e-003 2.00803205e-002 0. 0.
      2.67737615e-003 1.33868807e-003 5.35475230e-003 4.01606411e-003
      2.14190092e-002 0. 5.35475230e-003 2.67737615e-003 0. 0.
      4.01606411e-003 5.35475230e-003 5.35475230e-003 0. 0.
      1.47255687e-002 5.35475230e-003 8.03212821e-003 0. 1.33868807e-003
      1.33868807e-003 1.33868807e-003 1.33868807e-003 4.01606411e-003
      2.67737615e-003 1.33868807e-003 1.33868807e-003 1.07095046e-002
      4.01606411e-003 0. 1.07095046e-002 1.33868807e-003 1.33868807e-003
      5.35475230e-003 2.14190092e-002 8.03212821e-003 9.37081687e-003 0.
      0. 0. 8.03212821e-003 5.35475230e-003 0. 1.33868807e-003
      1.33868807e-003 1.33868807e-003 4.01606411e-003 1.33868807e-003 0.
      5.35475230e-003 1.33868807e-003 0. 5.35475230e-003 1.33868807e-003
      0. 4.01606411e-003 8.03212821e-003 2.67737615e-003 1.33868807e-003
      0. 0. 4.01606411e-003 5.35475230e-003 8.03212821e-003 0. 0.
      1.33868807e-003 0. 1.87416337e-002 0. 2.67737615e-003
      2.67737615e-003 1.33868807e-003 6.69344049e-003 2.67737615e-003
      1.33868807e-003 1.33868807e-003 0. 5.35475230e-003 8.03212821e-003
      0. 1.33868807e-003 1.33868810e-002 1.20481923e-002 2.67737615e-003
      1.33868807e-003 1.07095046e-002 1.33868807e-003 0. 0.
      6.69344049e-003 2.67737615e-003 0. 2.67737615e-003 1.20481923e-002
      0. 0. 1.33868807e-003 0. 0. 1.20481923e-002 6.69344049e-003
      1.33868807e-003 6.69344049e-003 4.01606411e-003 6.69344049e-003
      1.33868807e-003 0. 0. 0. 1.33868807e-003 1.07095046e-002
      6.69344049e-003 0. 0. 1.33868807e-003 0. 1.33868807e-003
      2.67737615e-003 1.07095046e-002 0. 2.67737615e-003 5.35475230e-003
      0. 4.01606411e-003 2.67737615e-003 0. 2.67737615e-003
      1.33868807e-003 4.01606411e-003 1.33868807e-003 0. 5.35475230e-003
      1.33868807e-003 1.74029451e-002 0. 1.33868807e-003 1.74029451e-002
      0. 1.07095046e-002 1.33868807e-003 1.20481923e-002 6.69344049e-003
      9.37081687e-003 1.33868807e-003 6.69344049e-003 4.01606411e-003
      2.67737615e-003 4.01606411e-003 2.67737615e-003 0. 0. 0.
      1.33868807e-003 2.67737615e-003 1.33868807e-003 1.87416337e-002
      1.60642564e-002 9.37081687e-003 1.60642564e-002 1.33868807e-003
      5.35475230e-003 0. 4.01606411e-003 4.01606411e-003 0. 0.
      2.67737615e-003 4.01606411e-003 6.69344049e-003 1.33868807e-003
      1.33868807e-003 1.33868807e-003 0. 1.33868807e-003 1.07095046e-002
      6.69344049e-003 0. 2.67737615e-003 0. 0. 0.</_>
    <_>
      7.02458620e-003 5.01756149e-004 0. 8.52985494e-003 4.01404919e-003
      4.51580528e-003 2.00702460e-003 3.01053701e-003 3.51229310e-003
      6.52283011e-003 3.01053701e-003 1.50526850e-003 5.01756149e-004
      5.01756149e-004 1.00351230e-003 2.00702460e-003 3.51229310e-003
      1.00351230e-003 5.01756149e-004 5.01756137e-003 1.15403915e-002 0.
      3.01053701e-003 5.01756149e-004 5.01756149e-004 2.00702460e-003
      6.02107402e-003 2.50878069e-003 5.51931746e-003 5.01756149e-004
      7.02458620e-003 4.01404919e-003 9.03161056e-003 4.01404919e-003
      3.51229310e-003 1.00351230e-003 1.15403915e-002 2.00702460e-003
      1.00351230e-003 5.51931746e-003 1.50526850e-003 6.02107402e-003
      5.51931746e-003 6.02107402e-003 1.00351230e-003 2.00702460e-003
      4.01404919e-003 1.35474158e-002 4.51580528e-003 2.50878069e-003
      4.01404919e-003 5.01756149e-004 1.50526850e-003 2.50878069e-003
      1.50526850e-003 1.30456602e-002 7.02458620e-003 1.55544402e-002
      2.50878069e-003 1.50526850e-003 0. 5.51931746e-003 0.
      5.01756149e-004 1.40491724e-002 4.51580528e-003 5.01756149e-004
      1.00351230e-003 1.50526850e-003 0. 3.51229310e-003 6.52283011e-003
      1.60561968e-002 0. 1.00351230e-003 2.00702460e-003 1.50526850e-003
      0. 1.35474158e-002 1.00351230e-003 2.00702460e-003 1.00351230e-003
      5.01756149e-004 7.02458620e-003 1.50526850e-003 6.02107402e-003
      3.01053701e-003 1.00351230e-003 1.00351230e-003 1.00351230e-003
      3.01053701e-003 9.53336712e-003 1.50526850e-003 1.00351230e-003
      5.01756137e-003 4.51580528e-003 9.53336712e-003 3.51229310e-003
      8.52985494e-003 3.01053701e-003 1.00351230e-003 4.01404919e-003
      1.35474158e-002 1.45509280e-002 1.50526846e-002 0. 0.
      8.52985494e-003 9.03161056e-003 2.50878069e-003 5.01756149e-004
      2.00702460e-003 5.01756149e-004 2.00702460e-003 1.30456602e-002
      1.00351230e-003 0. 2.00702460e-003 3.01053701e-003 2.00702460e-003
      5.51931746e-003 1.50526850e-003 5.01756149e-004 7.52634229e-003
      7.52634229e-003 5.01756149e-004 1.00351230e-003 2.00702460e-003 0.
      1.50526850e-003 2.50878069e-003 1.50526846e-002 5.01756149e-004
      5.51931746e-003 2.50878069e-003 1.50526850e-003 1.60561968e-002
      4.01404919e-003 1.45509280e-002 2.50878069e-003 5.01756149e-004
      1.30456602e-002 5.01756149e-004 2.00702460e-003 5.01756149e-004
      5.01756149e-004 1.00351230e-003 3.01053701e-003 0. 0.
      1.35474158e-002 1.90667342e-002 5.51931746e-003 2.50878069e-003
      1.10386349e-002 0. 5.01756137e-003 4.01404919e-003 9.53336712e-003
      4.51580528e-003 5.01756149e-004 2.00702460e-003 9.53336712e-003
      1.00351230e-003 0. 2.00702460e-003 1.00351230e-003 0.
      1.55544402e-002 4.51580528e-003 5.01756149e-004 1.50526846e-002
      1.00351230e-003 1.15403915e-002 9.03161056e-003 0. 1.00351230e-003
      1.00351230e-003 5.01756149e-004 7.52634229e-003 1.45509280e-002 0.
      5.01756137e-003 5.01756137e-003 5.01756149e-004 5.01756149e-004
      5.01756137e-003 3.01053701e-003 5.01756149e-004 6.52283011e-003
      1.50526850e-003 0. 9.53336712e-003 5.51931746e-003 0.
      4.01404919e-003 0. 2.50878069e-003 3.01053701e-003 0.
      2.00702460e-003 1.50526850e-003 2.50878069e-003 0. 1.00351230e-003
      8.52985494e-003 1.50526850e-003 5.01756149e-004 0. 1.40491724e-002
      1.00351230e-003 1.30456602e-002 1.00351230e-003 1.25439037e-002
      6.52283011e-003 1.00351230e-003 1.00351230e-003 1.00351230e-003
      1.00351230e-003 3.01053701e-003 1.00351230e-003 5.01756137e-003
      1.50526850e-003 3.01053701e-003 1.00351230e-003 7.02458620e-003
      7.52634229e-003 1.65579524e-002 1.50526850e-003 1.50526850e-003
      5.01756137e-003 2.50878069e-003 4.51580528e-003 2.50878069e-003
      1.50526850e-003 1.10386349e-002 7.02458620e-003 8.52985494e-003 0.
      0. 0. 3.01053701e-003 2.00702460e-003 3.01053701e-003
      1.05368793e-002 1.00351230e-003 4.01404919e-003 5.01756149e-004
      5.01756149e-004 5.01756149e-004</_>
    <_>
      4.50450480e-002 0. 0. 4.50450461e-003 0. 1.35135138e-002 0. 0.
      9.00900923e-003 1.35135138e-002 0. 0. 4.50450461e-003 0. 0.
      4.50450461e-003 0. 0. 0. 0. 0. 0. 0. 0. 4.50450461e-003 0. 0. 0.
      0. 4.50450461e-003 0. 4.05405425e-002 0. 1.35135138e-002
      4.50450461e-003 0. 0. 4.50450461e-003 4.50450461e-003 0.
      4.50450461e-003 0. 9.45945978e-002 0. 0. 4.95495498e-002 0. 0. 0.
      9.00900923e-003 1.35135138e-002 1.35135138e-002 1.80180185e-002 0.
      0. 0. 0. 4.50450461e-003 0. 4.50450461e-003 0. 0. 0. 0. 0.
      9.00900923e-003 0. 0. 0. 2.25225240e-002 0. 0. 0. 0. 0.
      4.50450461e-003 0. 0. 0. 0. 1.35135138e-002 0. 0. 0.
      4.50450461e-003 0. 0. 0. 0. 0. 0. 0. 0. 0. 0. 9.00900923e-003 0.
      0. 0. 0. 0. 0. 0. 0. 0. 0. 0. 0. 8.55855867e-002 0. 0. 0. 0.
      4.50450461e-003 0. 0. 0. 0. 0. 0. 3.60360369e-002 0.
      1.35135138e-002 0. 0. 4.50450461e-003 0. 0. 0. 0. 0. 0. 0. 0. 0.
      0. 0. 0. 0. 0. 4.50450461e-003 0. 9.00900923e-003 0. 0. 0. 0.
      4.50450480e-002 0. 0. 0. 0. 0. 0. 0. 0. 0. 0. 4.50450461e-003 0.
      0. 1.35135138e-002 1.35135138e-002 0. 0. 0. 4.50450461e-003 0. 0.
      4.50450461e-003 0. 0. 0. 0. 0. 0. 0. 1.35135144e-001 0. 0. 0. 0.
      0. 0. 0. 0. 0. 2.25225240e-002 0. 0. 0. 0. 0. 0. 0. 0.
      4.50450461e-003 0. 0. 0. 0. 0. 3.15315314e-002 0. 0.
      1.35135138e-002 0. 9.00900923e-003 0. 0. 0. 0. 0. 0. 0.
      4.50450461e-003 0. 9.00900923e-003 0. 0. 0. 0. 0. 0.
      9.00900923e-003 1.80180185e-002 0. 0. 0. 1.80180185e-002 0.
      2.70270277e-002 0. 0. 0. 0. 0. 0. 0. 0. 4.50450461e-003 0. 0. 0.
      0. 0. 0. 0. 0. 4.50450461e-003</_>
    <_>
      1.11801244e-001 0. 0. 1.24223605e-002 0. 6.21118024e-003
      6.21118024e-003 0. 6.21118024e-003 1.24223605e-002 0. 0. 0. 0. 0.
      0. 0. 0. 0. 0. 0. 0. 0. 0. 0. 0. 0. 0. 0. 0. 0. 2.48447210e-002 0.
      6.21118024e-003 0. 0. 0. 0. 6.21118024e-003 0. 1.24223605e-002 0.
      8.69565234e-002 0. 0. 2.48447210e-002 0. 0. 0. 1.24223605e-002
      1.24223605e-002 5.59006222e-002 3.10559012e-002 0. 0. 0. 0. 0. 0.
      1.24223605e-002 0. 0. 0. 0. 0. 6.21118024e-003 0. 0. 0.
      1.86335407e-002 0. 0. 0. 0. 0. 0. 0. 0. 0. 0. 1.86335407e-002 0.
      0. 6.21118024e-003 6.21118024e-003 0. 0. 6.21118024e-003 0. 0. 0.
      0. 0. 6.21118024e-003 0. 3.10559012e-002 0. 0. 0. 0. 0. 0. 0. 0.
      1.24223605e-002 0. 0. 0. 3.72670814e-002 6.21118024e-003 0. 0. 0.
      0. 0. 0. 0. 0. 0. 0. 6.21118024e-003 0. 6.21118024e-003 0. 0. 0.
      0. 0. 0. 0. 0. 0. 0. 0. 0. 0. 0. 0. 1.24223605e-002 0. 0. 0.
      3.10559012e-002 0. 0. 0. 0. 6.21118024e-002 0. 0. 0. 0. 0. 0. 0.
      0. 0. 0. 0. 0. 0. 1.24223605e-002 1.86335407e-002 0. 0. 0. 0. 0.
      0. 6.21118024e-003 0. 0. 0. 0. 0. 0. 0. 7.45341629e-002 0. 0. 0.
      0. 0. 0. 0. 0. 0. 1.86335407e-002 0. 0. 0. 0. 0. 0. 0. 0. 0. 0. 0.
      0. 0. 0. 3.10559012e-002 0. 0. 2.48447210e-002 0. 1.86335407e-002
      0. 0. 0. 0. 0. 0. 0. 6.21118024e-003 0. 3.10559012e-002 0. 0. 0.
      0. 0. 0. 6.21118024e-003 6.21118024e-003 6.21118024e-003 0. 0.
      1.24223605e-002 0. 1.24223605e-002 0. 0. 0. 0. 0. 0. 0. 0. 0. 0.
      0. 0. 0. 0. 0. 0. 0. 0.</_>
    <_>
      7.03125000e-002 0. 0. 7.81250000e-003 0. 1.56250000e-002 0. 0. 0.
      2.34375000e-002 0. 0. 0. 0. 0. 0. 0. 0. 0. 0. 0. 0. 0. 0.
      7.81250000e-003 3.90625000e-002 0. 0. 0. 0. 7.81250000e-003
      4.68750000e-002 0. 3.90625000e-002 0. 0. 0. 0. 0. 0. 0. 0.
      7.03125000e-002 0. 0. 4.68750000e-002 0. 0. 0. 1.56250000e-002
      7.81250000e-003 2.34375000e-002 7.81250000e-003 0. 0. 0. 0. 0. 0.
      0. 0. 0. 0. 7.81250000e-003 0. 7.81250000e-003 0. 0. 0.
      1.56250000e-002 0. 0. 0. 0. 0. 0. 0. 0. 0. 7.81250000e-003
      2.34375000e-002 0. 0. 0. 0. 0. 0. 1.56250000e-002 0. 0. 0. 0. 0.
      0. 0. 1.56250000e-002 0. 0. 0. 0. 0. 3.90625000e-002 0. 0.
      7.81250000e-003 0. 0. 0. 2.34375000e-002 0. 0. 0. 0. 0. 0. 0. 0.
      0. 0. 0. 1.56250000e-002 0. 2.34375000e-002 0. 0. 0. 0. 0. 0.
      1.56250000e-002 0. 0. 0. 0. 0. 0. 0. 0. 1.56250000e-002 0. 0. 0.
      7.81250000e-003 0. 0. 7.81250000e-003 1.56250000e-002
      3.12500000e-002 0. 0. 0. 0. 0. 0. 0. 0. 0. 0. 0. 0. 0. 0.
      1.56250000e-002 0. 0. 0. 0. 0. 0. 0. 0. 0. 0. 0. 0. 0. 0.
      6.25000000e-002 0. 0. 0. 0. 0. 0. 0. 0. 0. 1.56250000e-002 0. 0.
      0. 0. 0. 0. 0. 0. 0. 0. 0. 0. 0. 0. 3.12500000e-002 0. 0. 0. 0.
      7.81250000e-003 0. 0. 0. 0. 0. 0. 0. 3.12500000e-002 0.
      7.81250000e-003 0. 0. 0. 0. 7.81250000e-003 0. 1.56250000e-002
      1.56250000e-002 7.81250000e-003 0. 0. 7.81250000e-003 0.
      4.68750000e-002 0. 0. 0. 0. 0. 0. 0. 0. 0. 0. 0. 0. 0. 0. 0. 0. 0.
      0.</_>
    <_>
      5.74712642e-002 0. 0. 1.14942528e-002 0. 1.72413792e-002 0. 0.
      5.74712642e-003 1.14942528e-002 0. 0. 1.72413792e-002 0. 0.
      3.44827585e-002 0. 0. 5.74712642e-003 0. 0. 0. 0. 0. 0.
      5.74712642e-003 0. 0. 0. 5.74712642e-003 0. 5.74712642e-003 0.
      5.74712642e-003 0. 0. 0. 0. 1.14942528e-002 0. 0. 0.
      2.01149419e-001 0. 0. 2.29885057e-002 0. 0. 0. 2.29885057e-002 0.
      1.72413792e-002 0. 0. 0. 0. 0. 0. 0. 0. 0. 0. 0. 0. 0.
      5.74712642e-003 0. 0. 0. 2.87356321e-002 0. 0. 5.74712642e-003 0.
      1.14942528e-002 5.74712642e-003 0. 0. 0. 0. 1.14942528e-002 0. 0.
      0. 0. 0. 0. 5.74712642e-003 0. 0. 0. 0. 0. 0. 0. 5.74712642e-003
      0. 0. 0. 0. 0. 0. 0. 0. 0. 0. 0. 0. 5.17241359e-002 0.
      5.74712642e-003 0. 0. 0. 0. 0. 0. 0. 0. 0. 2.29885057e-002 0. 0.
      0. 0. 0. 0. 0. 0. 1.14942528e-002 0. 0. 0. 0. 0. 0. 0. 0.
      1.14942528e-002 0. 0. 0. 2.29885057e-002 0. 0. 5.74712642e-003 0.
      2.29885057e-002 0. 0. 0. 0. 0. 0. 0. 0. 0. 0. 5.74712642e-003
      5.74712642e-003 0. 0. 1.14942528e-002 0. 0. 0. 0. 0. 0. 0. 0. 0.
      0. 0. 0. 0. 0. 1.09195404e-001 0. 0. 0. 0. 5.74712642e-003 0. 0.
      5.74712642e-003 0. 1.72413792e-002 0. 0. 0. 0. 0. 0. 0. 0. 0. 0.
      0. 0. 0. 0. 1.14942528e-002 0. 0. 1.14942528e-002 0.
      2.29885057e-002 0. 0. 0. 0. 0. 0. 0. 5.74712642e-003 0.
      4.02298868e-002 0. 0. 0. 0. 0. 0. 5.74712642e-003 1.14942528e-002
      0. 5.74712642e-003 0. 1.14942528e-002 0. 1.72413792e-002 0. 0. 0.
      0. 0. 0. 0. 0. 0. 0. 0. 0. 0. 0. 0. 0. 0. 0.</_>
    <_>
      5.49999997e-002 0. 0. 2.49999985e-002 0. 0. 0. 0. 0.
      1.49999997e-002 0. 0. 0. 0. 0. 1.49999997e-002 0. 0.
      4.99999989e-003 0. 0. 0. 0. 0. 0. 4.99999989e-003 0. 0. 0. 0. 0.
      1.49999997e-002 0. 2.49999985e-002 0. 0. 0. 4.99999989e-003 0. 0.
      4.99999989e-003 0. 1.25000000e-001 4.99999989e-003 0.
      2.49999985e-002 0. 4.99999989e-003 4.99999989e-003 4.99999989e-003
      9.99999978e-003 1.49999997e-002 2.49999985e-002 0. 0. 0. 0.
      9.99999978e-003 4.99999989e-003 0. 0. 0. 0. 0. 0. 9.99999978e-003
      0. 0. 0. 9.99999978e-003 0. 0. 0. 0. 0. 0. 0. 0. 0. 0.
      1.99999996e-002 0. 0. 0. 0. 9.99999978e-003 0. 9.99999978e-003 0.
      0. 4.99999989e-003 0. 0. 0. 0. 1.99999996e-002 0. 0. 0. 0. 0.
      1.99999996e-002 9.99999978e-003 0. 4.99999989e-003 0. 0. 0.
      3.99999991e-002 0. 0. 0. 0. 0. 0. 0. 0. 0. 0. 0. 1.49999997e-002
      0. 9.99999978e-003 0. 0. 0. 0. 0. 0. 9.99999978e-003
      4.99999989e-003 4.99999989e-003 0. 0. 0. 0. 0. 0. 1.49999997e-002
      0. 4.99999989e-003 0. 1.99999996e-002 0. 0. 9.99999978e-003 0.
      4.99999989e-003 0. 0. 4.99999989e-003 0. 4.99999989e-003 0. 0. 0.
      0. 0. 9.99999978e-003 0. 0. 9.99999978e-003 1.49999997e-002 0. 0.
      0. 4.99999989e-003 0. 0. 4.99999989e-003 0. 0. 0. 0. 0. 0.
      4.99999989e-003 6.49999976e-002 9.99999978e-003 0. 0. 0. 0. 0. 0.
      0. 0. 4.99999989e-003 0. 0. 0. 0. 0. 0. 0. 0. 4.99999989e-003 0.
      0. 0. 0. 0. 4.99999970e-002 0. 0. 4.99999989e-003 0.
      4.99999989e-003 0. 0. 9.99999978e-003 0. 0. 0. 9.99999978e-003
      9.99999978e-003 0. 1.99999996e-002 0. 0. 0. 0. 4.99999989e-003 0.
      1.49999997e-002 9.99999978e-003 0. 0. 0. 1.99999996e-002 0.
      1.49999997e-002 0. 0. 0. 9.99999978e-003 0. 0. 0. 0. 0. 0. 0. 0.
      4.99999989e-003 0. 0. 0. 0. 0.</_>
    <_>
      4.93827164e-002 0. 0. 6.17283955e-003 0. 1.23456791e-002
      6.17283955e-003 0. 0. 0. 0. 0. 0. 0. 0. 6.17283955e-003 0. 0. 0.
      0. 0. 0. 0. 0. 0. 0. 0. 0. 0. 0. 0. 5.55555560e-002 0.
      2.46913582e-002 0. 0. 0. 0. 0. 0. 6.17283955e-003 0.
      4.93827164e-002 0. 0. 4.93827164e-002 0. 0. 0. 1.23456791e-002
      6.17283955e-003 6.17283955e-003 6.17283955e-003 0. 0. 0. 0.
      6.17283955e-003 0. 6.17283955e-003 0. 0. 0. 6.17283955e-003 0.
      1.23456791e-002 0. 0. 0. 6.17283955e-003 6.17283955e-003 0. 0. 0.
      0. 6.17283955e-003 0. 0. 0. 0. 6.17283955e-003 0. 0.
      6.17283955e-003 0. 0. 0. 0. 0. 0. 0. 0. 0. 0. 0. 1.23456791e-002
      0. 0. 0. 0. 0. 0. 0. 6.17283955e-003 0. 0. 0. 0. 1.11111112e-001
      0. 0. 0. 0. 0. 0. 0. 0. 0. 0. 0. 6.17283955e-002 0.
      3.08641978e-002 0. 0. 0. 0. 0. 0. 1.23456791e-002 0. 0. 0. 0. 0.
      0. 0. 0. 2.46913582e-002 0. 0. 0. 2.46913582e-002 0. 0. 0. 0.
      3.70370373e-002 0. 0. 6.17283955e-003 6.17283955e-003 0. 0.
      6.17283955e-003 0. 0. 0. 6.17283955e-003 0. 0. 6.17283955e-003
      1.23456791e-002 0. 0. 0. 6.17283955e-003 0. 0. 6.17283955e-003 0.
      0. 0. 0. 0. 0. 0. 4.93827164e-002 0. 0. 0. 0. 0. 0. 0. 0. 0.
      6.17283955e-003 0. 0. 0. 0. 0. 0. 0. 0. 0. 0. 0. 0. 0. 0.
      4.93827164e-002 0. 0. 6.17283955e-003 0. 6.17283955e-003 0. 0. 0.
      0. 0. 0. 6.17283955e-003 0. 0. 6.17283955e-003 0. 0. 0. 0. 0. 0.
      4.32098769e-002 1.85185187e-002 0. 0. 0. 2.46913582e-002 0.
      3.70370373e-002 0. 0. 0. 0. 6.17283955e-003 0. 0. 0. 0. 0. 0. 0.
      0. 0. 0. 0. 6.17283955e-003 0.</_>
    <_>
      9.49720666e-002 0. 0. 0. 0. 5.58659201e-003 0. 0. 5.58659201e-003
      1.67597756e-002 0. 0. 0. 0. 0. 5.58659201e-003 0. 0. 0. 0. 0. 0.
      0. 0. 5.58659201e-003 1.67597756e-002 0. 0. 0. 0. 0.
      3.91061455e-002 0. 4.46927361e-002 0. 0. 0. 0. 0. 0. 0. 0.
      1.89944133e-001 0. 0. 3.91061455e-002 0. 0. 0. 0. 1.11731840e-002
      1.11731840e-002 1.67597756e-002 0. 0. 0. 0. 0. 0. 0. 0. 0. 0. 0.
      0. 1.11731840e-002 0. 0. 0. 2.79329605e-002 0. 0. 0. 0. 0. 0. 0.
      0. 0. 0. 2.23463681e-002 0. 0. 0. 0. 0. 0. 1.11731840e-002 0. 0.
      5.58659201e-003 0. 0. 0. 0. 5.58659201e-003 0. 0. 0. 0. 0.
      5.58659201e-003 0. 0. 0. 0. 0. 0. 8.37988779e-002 0. 0. 0. 0. 0.
      0. 0. 0. 5.58659201e-003 0. 0. 1.67597756e-002 0. 1.11731840e-002
      0. 0. 0. 0. 0. 0. 0. 0. 0. 0. 0. 0. 0. 0. 0. 5.58659201e-003 0. 0.
      0. 2.79329605e-002 0. 0. 0. 5.58659201e-003 2.23463681e-002 0. 0.
      0. 0. 0. 0. 0. 0. 0. 0. 5.58659201e-003 0. 0. 5.58659201e-003
      5.58659201e-003 5.58659201e-003 0. 0. 5.58659201e-003 0. 0. 0. 0.
      0. 0. 0. 0. 0. 0. 6.14525117e-002 0. 0. 0. 0. 0. 0. 0.
      5.58659201e-003 0. 2.23463681e-002 0. 0. 0. 0. 0. 0. 0. 0. 0. 0.
      0. 0. 0. 0. 1.11731840e-002 0. 0. 5.58659201e-003 0.
      5.58659201e-003 0. 0. 0. 0. 0. 0. 0. 2.79329605e-002
      5.58659201e-003 1.11731840e-002 0. 0. 0. 0. 0. 0. 1.11731840e-002
      0. 0. 0. 0. 5.58659201e-003 0. 1.67597756e-002 0. 0. 0. 0. 0. 0.
      0. 0. 1.11731840e-002 0. 0. 0. 0. 0. 0. 0. 0. 0.</_>
    <_>
      7.84313753e-002 0. 0. 9.80392192e-003 0. 4.90196096e-003 0. 0.
      4.90196096e-003 9.80392192e-003 0. 0. 9.80392192e-003 0. 0.
      2.45098043e-002 0. 0. 4.90196096e-003 0. 0. 0. 0. 0.
      4.90196096e-003 0. 0. 0. 0. 9.80392192e-003 0. 1.47058833e-002 0.
      9.80392192e-003 4.90196096e-003 0. 0. 0. 4.90196096e-003 0.
      4.90196096e-003 0. 1.61764711e-001 0. 0. 9.80392192e-003 0. 0. 0.
      9.80392192e-003 9.80392192e-003 4.90196096e-003 2.94117667e-002 0.
      0. 0. 0. 0. 0. 1.47058833e-002 0. 0. 0. 0. 0. 9.80392192e-003 0.
      0. 0. 2.94117667e-002 0. 0. 0. 0. 0. 0. 0. 0. 0. 4.90196096e-003
      4.90196096e-003 0. 4.90196096e-003 0. 4.90196096e-003 0. 0. 0. 0.
      1.47058833e-002 0. 0. 0. 0. 0. 4.90196096e-003 0. 0. 0. 0. 0.
      4.90196096e-003 0. 0. 4.90196096e-003 0. 0. 0. 6.86274543e-002 0.
      0. 0. 0. 0. 0. 0. 0. 0. 0. 0. 3.92156877e-002 0. 4.90196096e-003
      0. 0. 0. 0. 0. 0. 0. 0. 4.90196096e-003 0. 0. 0. 0. 0. 0.
      9.80392192e-003 0. 0. 0. 2.45098043e-002 0. 0. 9.80392192e-003
      4.90196096e-003 1.47058833e-002 0. 0. 0. 0. 0. 0. 0.
      4.90196096e-003 4.90196096e-003 0. 4.90196096e-003 0. 0. 0.
      1.47058833e-002 0. 0. 0. 0. 0. 0. 0. 0. 0. 0. 0. 0. 0. 0.
      8.82352963e-002 4.90196096e-003 0. 0. 0. 0. 0. 0. 0. 0.
      1.47058833e-002 0. 0. 0. 0. 0. 0. 0. 0. 0. 0. 0. 0. 0. 0.
      1.96078438e-002 0. 0. 4.90196096e-003 0. 2.94117667e-002 0. 0.
      4.90196096e-003 0. 0. 0. 0. 0. 4.90196096e-003 1.96078438e-002 0.
      0. 0. 0. 0. 0. 2.45098043e-002 4.90196096e-003 0. 0. 0.
      9.80392192e-003 0. 2.45098043e-002 0. 0. 0. 0. 0. 0. 0. 0. 0. 0.
      0. 0. 0. 0. 0. 0. 0. 4.90196096e-003</_>
    <_>
      1.09289616e-001 0. 0. 5.46448072e-003 0. 1.09289614e-002 0. 0.
      5.46448072e-003 1.09289614e-002 0. 0. 5.46448072e-003 0. 0.
      1.63934417e-002 0. 0. 0. 0. 0. 0. 0. 0. 0. 5.46448072e-003 0. 0.
      0. 0. 0. 2.18579229e-002 0. 1.63934417e-002 0. 0. 0.
      5.46448072e-003 0. 5.46448072e-003 0. 0. 1.47540987e-001 0. 0.
      5.46448072e-003 0. 5.46448072e-003 0. 2.18579229e-002
      5.46448072e-003 4.37158458e-002 3.27868834e-002 0. 0. 0.
      5.46448072e-003 0. 0. 0. 0. 0. 0. 0. 0. 0. 0. 0. 0.
      1.09289614e-002 0. 0. 0. 0. 0. 0. 0. 0. 0. 5.46448072e-003
      1.63934417e-002 0. 0. 0. 0. 0. 0. 1.63934417e-002 0. 0. 0. 0. 0.
      0. 0. 1.09289614e-002 0. 0. 0. 0. 0. 1.63934417e-002 0. 0. 0. 0.
      0. 0. 1.09289614e-002 0. 0. 0. 0. 0. 0. 0. 0. 0. 0. 0.
      3.27868834e-002 0. 0. 0. 0. 0. 0. 0. 0. 1.09289614e-002 0. 0. 0.
      0. 0. 0. 0. 0. 1.09289614e-002 0. 5.46448072e-003 0.
      2.18579229e-002 0. 0. 0. 2.18579229e-002 2.73224041e-002 0. 0. 0.
      0. 0. 0. 0. 0. 0. 0. 0. 0. 0. 5.46448072e-003 5.46448072e-003 0.
      0. 0. 0. 0. 0. 5.46448072e-003 0. 0. 0. 0. 0. 0. 0.
      1.31147534e-001 5.46448072e-003 0. 0. 0. 0. 0. 0. 0. 0.
      1.09289614e-002 0. 0. 0. 0. 0. 0. 0. 0. 0. 0. 0. 0. 0. 0.
      4.91803251e-002 0. 0. 2.18579229e-002 0. 0. 0. 0. 0. 0. 0. 0. 0.
      0. 0. 2.18579229e-002 0. 0. 0. 0. 5.46448072e-003 0.
      1.09289614e-002 0. 0. 0. 0. 5.46448072e-003 0. 5.46448072e-003 0.
      0. 0. 0. 0. 0. 0. 0. 0. 0. 0. 0. 0. 0. 0. 0. 0. 1.09289614e-002</_>
    <_>
      2.18818383e-003 0. 0. 2.18818383e-003 0. 2.18818383e-003
      2.18818383e-003 0. 4.37636767e-003 1.09409187e-002 0. 0.
      8.75273533e-003 0. 6.56455150e-003 4.37636767e-003 2.18818383e-003
      6.56455150e-003 1.31291030e-002 0. 0. 0. 4.37636767e-003
      2.18818374e-002 1.75054707e-002 6.56455150e-003 4.37636767e-003 0.
      4.37636767e-003 6.56455150e-003 0. 4.37636767e-003 0.
      1.31291030e-002 1.53172873e-002 0. 0. 2.18818383e-003
      2.84463894e-002 1.75054707e-002 2.18818383e-003 0. 6.56455150e-003
      0. 0. 8.75273533e-003 2.18818383e-003 0. 0. 1.31291030e-002
      2.18818374e-002 8.75273533e-003 1.53172873e-002 0. 0. 0.
      2.18818383e-003 4.37636767e-003 0. 2.18818383e-003 6.56455150e-003
      6.56455150e-003 0. 0. 0. 1.75054707e-002 0. 6.56455150e-003
      2.18818383e-003 6.56455150e-003 1.31291030e-002 0. 2.18818383e-003
      2.18818383e-003 4.15754914e-002 4.37636767e-003 0. 8.75273533e-003
      0. 1.09409187e-002 1.09409187e-002 2.18818383e-003 6.56455150e-003
      0. 2.18818383e-003 4.37636767e-003 0. 6.56455150e-003 0. 0.
      2.18818383e-003 0. 1.31291030e-002 6.56455150e-003 0.
      2.40700226e-002 0. 0. 0. 0. 4.37636767e-003 8.75273533e-003
      2.18818383e-003 4.37636767e-003 0. 0. 0. 0. 6.56455150e-003
      6.56455150e-003 0. 0. 0. 0. 0. 0. 1.09409187e-002 2.84463894e-002
      0. 0. 8.75273533e-003 0. 0. 6.56455150e-003 2.18818383e-003 0. 0.
      2.18818383e-003 2.18818383e-003 1.96936540e-002 0. 0. 0.
      2.18818383e-003 0. 0. 0. 0. 2.18818383e-003 0. 2.18818383e-003 0.
      0. 0. 0. 8.75273533e-003 2.40700226e-002 1.31291030e-002
      2.18818383e-003 0. 0. 0. 2.18818383e-003 0. 2.18818383e-003 0. 0.
      0. 4.37636767e-003 2.18818383e-003 0. 2.18818383e-003
      6.56455150e-003 0. 0. 2.18818383e-003 0. 2.18818383e-003 0.
      1.75054707e-002 4.37636767e-003 0. 2.18818383e-003 2.18818383e-003
      2.18818383e-003 2.18818383e-003 0. 2.18818383e-003 2.18818383e-003
      0. 0. 0. 2.18818383e-003 0. 8.75273533e-003 0. 0. 2.18818374e-002
      0. 2.18818383e-003 1.09409187e-002 0. 0. 0. 4.37636767e-003 0.
      1.09409187e-002 0. 0. 0. 0. 0. 1.75054707e-002 6.56455150e-003
      6.56455150e-003 8.75273533e-003 0. 0. 0. 2.18818383e-003
      1.53172873e-002 0. 2.18818383e-003 2.18818383e-003 0.
      1.31291030e-002 4.37636767e-003 1.96936540e-002 0. 0.
      2.18818383e-003 0. 1.53172873e-002 2.18818383e-003 0.
      1.53172873e-002 2.18818383e-003 0. 0. 2.62582060e-002 0.
      4.37636767e-003 2.18818383e-003 0. 0. 2.18818383e-003
      6.56455150e-003 2.18818383e-003 0. 4.37636767e-003 2.18818383e-003
      0. 0. 2.18818383e-003 0. 2.18818383e-003 0. 0. 4.37636767e-003
      8.75273533e-003</_>
    <_>
      1.15874852e-003 2.31749704e-003 1.15874852e-003 8.11123941e-003
      8.11123941e-003 9.26998816e-003 3.47624556e-003 0. 4.63499408e-003
      5.79374284e-003 1.27462335e-002 0. 2.31749704e-003 2.31749704e-003
      1.15874852e-003 2.31749704e-003 2.31749704e-003 2.31749704e-003
      3.47624556e-003 0. 1.15874852e-003 0. 3.47624556e-003
      2.31749704e-003 1.15874857e-002 6.95249112e-003 1.15874852e-003
      2.31749704e-003 3.47624556e-003 3.47624556e-003 6.95249112e-003 0.
      0. 5.79374284e-003 5.79374284e-003 3.47624556e-003 3.47624556e-003
      0. 9.26998816e-003 2.08574738e-002 0. 1.15874852e-003
      6.95249112e-003 3.47624556e-003 0. 1.39049822e-002 1.15874852e-003
      1.15874852e-003 2.31749704e-003 8.11123941e-003 9.26998816e-003
      1.15874852e-003 4.63499408e-003 0. 1.96987242e-002 2.31749704e-003
      0. 3.47624556e-003 0. 0. 6.95249112e-003 5.79374284e-003
      1.15874852e-003 1.15874852e-003 2.31749704e-003 1.50637310e-002
      9.26998816e-003 1.15874852e-003 1.27462335e-002 4.63499408e-003
      1.15874852e-003 1.15874852e-003 2.31749704e-003 3.47624556e-003
      6.95249112e-003 5.79374284e-003 6.95249112e-003 5.79374284e-003
      1.15874852e-003 5.79374284e-003 4.63499408e-003 1.15874852e-003
      4.63499408e-003 3.47624556e-003 1.15874852e-003 3.47624556e-003
      1.04287369e-002 8.11123941e-003 0. 2.31749704e-003 9.26998816e-003
      0. 9.26998816e-003 5.79374284e-003 0. 5.79374284e-003
      3.47624556e-003 0. 6.95249112e-003 1.15874852e-003 6.95249112e-003
      6.95249112e-003 4.63499408e-003 0. 1.15874852e-003 0.
      3.47624556e-003 0. 4.63499408e-003 2.31749704e-003 2.31749704e-003
      1.15874852e-003 3.47624556e-003 2.31749704e-003 5.79374284e-003
      1.15874852e-003 4.63499408e-003 1.62224788e-002 1.15874852e-003
      1.15874852e-003 6.95249112e-003 0. 0. 2.31749704e-003
      5.79374284e-003 1.15874852e-003 0. 2.31749704e-003 3.47624556e-003
      1.62224788e-002 1.15874852e-003 1.15874852e-003 1.15874852e-003 0.
      1.15874852e-003 2.31749704e-003 1.15874852e-003 0. 1.04287369e-002
      1.15874852e-003 1.04287369e-002 0. 5.79374284e-003 1.15874852e-003
      1.15874852e-003 4.63499408e-003 1.85399763e-002 3.47624556e-003
      2.31749704e-003 1.15874852e-003 0. 0. 1.15874852e-003
      4.63499408e-003 0. 1.15874852e-003 0. 1.15874857e-002
      3.47624556e-003 0. 0. 0. 3.47624556e-003 1.15874852e-003
      1.15874852e-003 2.31749704e-003 0. 9.26998816e-003 0.
      1.96987242e-002 3.47624556e-003 3.47624556e-003 0. 3.47624556e-003
      5.79374284e-003 2.20162217e-002 6.95249112e-003 1.15874852e-003 0.
      5.79374284e-003 1.15874852e-003 3.47624556e-003 5.79374284e-003
      3.47624556e-003 1.15874852e-003 8.11123941e-003 0. 9.26998816e-003
      1.15874852e-003 1.15874852e-003 1.15874852e-003 0. 4.63499408e-003
      3.47624556e-003 2.31749704e-003 8.11123941e-003 0. 6.95249112e-003
      1.15874852e-003 0. 0. 2.31749704e-003 1.15874857e-002
      3.47624556e-003 0. 5.79374284e-003 9.26998816e-003 6.95249112e-003
      0. 4.63499408e-003 5.79374284e-003 1.15874852e-003 5.79374284e-003
      2.31749704e-003 1.15874852e-003 9.26998816e-003 8.11123941e-003
      8.11123941e-003 0. 5.79374284e-003 5.79374284e-003 0.
      8.11123941e-003 1.15874852e-003 1.15874852e-003 1.27462335e-002 0.
      3.47624556e-003 1.15874852e-003 6.95249112e-003 2.66512167e-002 0.
      5.79374284e-003 0. 0. 2.31749704e-003 2.20162217e-002
      3.47624556e-003 6.95249112e-003 6.95249112e-003 6.95249112e-003
      2.31749704e-003 0. 0. 1.15874852e-003 0. 6.95249112e-003 0. 0.
      1.15874852e-003</_>
    <_>
      6.29921257e-003 4.72440943e-003 0. 3.14960629e-003 4.72440943e-003
      1.57480314e-003 1.57480314e-003 1.10236220e-002 6.29921257e-003
      9.44881886e-003 0. 6.29921257e-003 1.57480314e-002 3.14960629e-003
      4.72440943e-003 1.57480314e-003 3.14960629e-003 4.72440943e-003
      4.72440943e-003 3.14960629e-003 7.87401572e-003 0. 1.57480314e-003
      9.44881886e-003 1.25984251e-002 1.10236220e-002 0. 4.72440943e-003
      1.57480314e-003 4.72440943e-003 1.57480314e-003 1.57480314e-003
      1.57480314e-003 1.57480314e-003 1.57480314e-003 0. 4.72440943e-003
      3.14960629e-003 9.44881886e-003 2.51968503e-002 0. 0. 0. 0. 0.
      1.57480314e-003 1.57480314e-003 1.57480314e-003 1.57480314e-003
      1.73228346e-002 7.87401572e-003 3.14960629e-003 1.10236220e-002 0.
      2.67716534e-002 1.57480314e-003 0. 0. 0. 1.73228346e-002 0. 0.
      1.57480314e-003 1.57480314e-003 1.57480314e-003 4.72440943e-003
      7.87401572e-003 0. 3.46456692e-002 4.72440943e-003 4.72440943e-003
      1.57480314e-003 0. 1.41732283e-002 3.62204723e-002 0.
      6.29921257e-003 6.29921257e-003 0. 1.41732283e-002 7.87401572e-003
      0. 1.57480314e-003 0. 4.72440943e-003 4.72440943e-003
      3.14960629e-003 1.57480314e-003 3.14960629e-003 7.87401572e-003
      1.57480314e-003 0. 0. 1.57480314e-003 4.72440943e-003
      1.57480314e-003 0. 3.14960629e-003 1.57480314e-003 4.72440943e-003
      1.57480314e-002 9.44881886e-003 1.57480314e-003 3.14960629e-003
      1.57480314e-003 0. 1.57480314e-003 3.14960629e-003 0.
      9.44881886e-003 0. 0. 0. 7.87401572e-003 3.14960629e-003
      4.72440943e-003 6.29921257e-003 6.29921257e-003 1.57480314e-003 0.
      6.29921257e-003 3.14960629e-003 0. 0. 9.44881886e-003 0. 0.
      1.57480314e-003 0. 6.29921257e-003 0. 0. 0. 4.72440943e-003 0.
      4.72440943e-003 0. 0. 1.25984251e-002 3.14960629e-003
      1.57480314e-003 0. 0. 4.72440943e-003 0. 1.88976377e-002
      1.41732283e-002 4.72440943e-003 3.14960629e-003 3.14960629e-003
      3.14960629e-003 0. 0. 0. 0. 3.14960629e-003 0. 1.57480314e-003
      1.57480314e-003 0. 4.72440943e-003 1.57480314e-003 4.72440943e-003
      1.57480314e-003 0. 4.72440943e-003 1.57480314e-003 1.25984251e-002
      1.57480314e-003 7.87401572e-003 1.10236220e-002 3.14960629e-003 0.
      0. 3.14960629e-003 3.62204723e-002 6.29921257e-003 0.
      1.57480314e-003 3.14960629e-003 0. 4.72440943e-003 1.57480314e-003
      0. 1.57480314e-003 3.14960629e-003 0. 1.73228346e-002
      6.29921257e-003 3.14960629e-003 3.14960629e-003 0. 4.72440943e-003
      1.57480314e-003 6.29921257e-003 3.14960629e-003 7.87401572e-003 0.
      0. 0. 0. 0. 1.57480314e-003 1.57480314e-003 3.14960629e-003
      3.14960629e-003 1.57480314e-003 1.57480314e-002 0. 0.
      3.14960629e-003 0. 1.57480314e-003 0. 0. 3.14960629e-003
      3.14960629e-003 0. 0. 4.72440943e-003 0. 0. 1.73228346e-002
      7.87401572e-003 1.10236220e-002 9.44881886e-003 0. 0.
      1.57480314e-003 9.44881886e-003 6.29921257e-003 1.57480314e-003
      7.87401572e-003 0. 0. 1.57480314e-003 3.14960629e-003
      4.72440943e-003 4.72440943e-003 3.14960629e-003 0. 0. 0.
      3.14960629e-003 0. 1.57480314e-003 4.72440943e-003 0.
      9.44881886e-003 6.29921257e-003</_>
    <_>
      2.52525252e-003 0. 0. 2.52525252e-003 0. 7.57575780e-003 0. 0.
      5.05050505e-003 1.01010101e-002 4.54545468e-002 0. 1.01010101e-002
      1.01010101e-002 7.57575780e-003 1.01010101e-002 2.52525252e-003
      5.05050505e-003 1.76767670e-002 0. 0. 2.52525252e-003 0.
      1.01010101e-002 7.57575780e-003 7.57575780e-003 0. 0. 0. 0. 0.
      5.05050505e-003 0. 0. 2.52525252e-003 0. 0. 0. 1.51515156e-002
      3.28282826e-002 0. 0. 5.05050505e-003 0. 0. 2.27272734e-002 0. 0.
      0. 2.02020202e-002 7.57575780e-003 2.52525252e-003 5.05050505e-003
      0. 0. 0. 0. 0. 0. 1.01010101e-002 7.57575780e-003 5.05050505e-003
      2.52525252e-003 0. 0. 1.51515156e-002 2.77777780e-002 0.
      2.52525252e-003 5.05050505e-003 1.01010101e-002 0. 0. 0.
      2.77777780e-002 0. 1.01010101e-002 7.57575780e-003 0.
      2.52525248e-002 1.01010101e-002 0. 2.52525252e-003 0.
      2.52525252e-003 0. 2.52525252e-003 2.52525252e-003 0. 0. 0. 0.
      2.52525252e-003 7.57575780e-003 0. 2.02020202e-002 2.52525252e-003
      0. 0. 0. 1.01010101e-002 1.76767670e-002 0. 0. 0. 0. 0. 0.
      5.05050505e-003 7.57575780e-003 0. 0. 0. 0. 0. 0. 0.
      2.02020202e-002 0. 0. 1.01010101e-002 0. 5.05050505e-003
      2.52525252e-003 0. 1.26262624e-002 0. 0. 2.52525252e-003
      7.57575780e-003 0. 0. 0. 0. 0. 1.51515156e-002 0. 0.
      7.57575780e-003 0. 5.05050505e-003 0. 5.05050505e-003 0.
      2.52525252e-003 1.26262624e-002 3.53535339e-002 0. 2.52525252e-003
      0. 0. 0. 0. 0. 0. 0. 0. 0. 0. 0. 0. 7.57575780e-003
      2.52525252e-003 0. 0. 0. 0. 2.52525248e-002 0. 5.05050505e-003
      1.01010101e-002 0. 2.52525252e-003 0. 2.52525252e-003
      5.30303046e-002 0. 0. 0. 0. 0. 5.05050505e-003 0. 0.
      5.05050505e-003 5.05050505e-003 0. 2.02020202e-002 2.52525252e-003
      0. 2.52525252e-003 0. 0. 0. 0. 0. 2.52525252e-003 0. 0. 0. 0. 0.
      1.01010101e-002 0. 2.52525252e-003 1.26262624e-002 0. 0. 0. 0.
      2.52525252e-003 0. 7.57575780e-003 0. 0. 0. 2.52525252e-003
      1.26262624e-002 0. 0. 2.52525252e-003 0. 2.02020202e-002 0.
      1.76767670e-002 7.57575780e-003 2.52525252e-003 0. 0.
      1.51515156e-002 0. 1.51515156e-002 0. 0. 0. 0. 0. 0.
      1.51515156e-002 0. 7.57575780e-003 0. 0. 0. 0. 1.01010101e-002 0.
      0. 0. 5.05050505e-003</_>
    <_>
      1.07296137e-002 0. 0. 4.29184549e-003 0. 2.14592274e-003
      2.14592274e-003 0. 6.43776823e-003 8.58369097e-003 0. 0.
      1.71673819e-002 0. 6.43776823e-003 6.43776823e-003 6.43776823e-003
      6.43776823e-003 1.28755365e-002 0. 4.29184549e-003 0.
      4.29184549e-003 1.07296137e-002 2.78969966e-002 0. 0. 0.
      4.29184549e-003 0. 2.14592274e-003 2.14592274e-003 0.
      8.58369097e-003 4.29184549e-003 0. 4.29184549e-003 0.
      1.71673819e-002 6.43776823e-003 0. 0. 6.43776823e-003
      2.14592274e-003 0. 6.43776823e-003 0. 6.43776823e-003
      1.71673819e-002 1.71673819e-002 8.58369097e-003 4.29184549e-003
      6.43776823e-003 0. 0. 0. 2.14592274e-003 0. 0. 1.28755365e-002
      6.43776823e-003 0. 0. 2.14592274e-003 0. 4.29184549e-003
      4.29184549e-003 6.43776823e-003 4.29184549e-003 1.50214592e-002
      1.07296137e-002 0. 4.29184549e-003 0. 2.78969966e-002
      8.58369097e-003 0. 1.28755365e-002 8.58369097e-003 2.14592274e-002
      2.14592274e-002 0. 1.28755365e-002 2.14592274e-003 1.07296137e-002
      2.14592274e-003 0. 4.29184549e-003 0. 0. 0. 2.14592274e-003
      2.14592274e-003 4.29184549e-003 2.14592274e-003 8.58369097e-003
      2.14592274e-003 0. 6.43776823e-003 0. 1.28755365e-002
      1.07296137e-002 0. 0. 0. 0. 0. 4.29184549e-003 2.14592274e-003
      4.29184549e-003 0. 0. 4.29184549e-003 0. 0. 2.14592274e-003
      1.50214592e-002 3.43347639e-002 0. 0. 1.07296137e-002 0. 0.
      4.29184549e-003 2.14592274e-003 4.29184549e-003 0. 0.
      8.58369097e-003 1.28755365e-002 0. 2.14592274e-003 0. 0.
      2.14592274e-003 0. 0. 0. 4.29184549e-003 0. 1.07296137e-002 0. 0.
      2.14592274e-003 4.29184549e-003 6.43776823e-003 3.00429184e-002
      6.43776823e-003 1.07296137e-002 0. 2.14592274e-003 0.
      2.14592274e-003 0. 2.14592274e-003 0. 0. 0. 4.29184549e-003 0. 0.
      2.14592274e-003 1.93133056e-002 0. 0. 0. 2.14592274e-003 0. 0.
      1.28755365e-002 2.14592274e-003 0. 2.14592274e-003 0. 0.
      2.14592274e-003 0. 0. 0. 0. 0. 0. 0. 2.14592274e-003
      2.14592274e-003 0. 2.14592274e-003 2.36051492e-002 2.14592274e-003
      0. 4.29184549e-003 0. 2.14592274e-003 0. 2.14592274e-003
      2.14592274e-003 8.58369097e-003 0. 2.14592274e-003 0. 0. 0.
      1.28755365e-002 0. 8.58369097e-003 1.07296137e-002 0.
      1.07296137e-002 0. 0. 4.29184549e-003 0. 6.43776823e-003 0. 0. 0.
      8.58369097e-003 1.50214592e-002 0. 0. 6.43776823e-003 0.
      1.71673819e-002 0. 4.29184549e-003 1.28755365e-002 2.14592274e-003
      0. 0. 1.93133056e-002 0. 4.29184549e-003 4.29184549e-003 0. 0.
      4.29184549e-003 0. 2.14592274e-003 2.14592274e-003 2.14592274e-003
      1.28755365e-002 0. 0. 0. 0. 0. 0. 0. 0. 1.28755365e-002</_>
    <_>
      1.44508667e-003 0. 1.44508667e-003 4.33526002e-003 2.89017335e-003
      5.78034669e-003 1.44508667e-003 2.89017335e-003 1.15606934e-002
      1.15606934e-002 4.33526002e-003 0. 0. 1.44508667e-003
      2.89017335e-003 0. 0. 2.89017335e-003 1.01156067e-002
      2.89017335e-003 2.89017335e-003 0. 5.78034669e-003 1.01156067e-002
      5.78034669e-003 7.22543336e-003 0. 1.44508667e-003 1.44508667e-003
      1.44508667e-003 5.78034669e-003 1.44508667e-003 0. 7.22543336e-003
      1.44508667e-003 0. 2.89017335e-003 0. 7.22543336e-003
      8.67052004e-003 0. 0. 0. 4.33526002e-003 1.44508667e-003
      1.30057801e-002 2.89017335e-003 1.44508667e-003 1.01156067e-002
      1.15606934e-002 5.78034669e-003 1.44508667e-003 1.01156067e-002
      2.89017335e-003 1.44508667e-003 1.44508667e-003 2.89017335e-003
      2.89017335e-003 0. 4.33526002e-003 0. 8.67052004e-003 0. 0.
      2.89017335e-003 5.78034669e-003 0. 0. 1.44508667e-003 0.
      7.22543336e-003 7.22543336e-003 1.44508667e-003 4.33526002e-003
      2.16763001e-002 2.89017335e-003 4.33526002e-003 5.78034669e-003
      4.33526002e-003 1.15606934e-002 5.78034669e-003 2.89017335e-003
      1.01156067e-002 2.89017335e-003 4.33526002e-003 4.33526002e-003
      4.33526002e-003 4.33526002e-003 1.44508667e-003 7.22543336e-003 0.
      0. 1.44508667e-003 1.44508667e-003 1.44508667e-003 2.89017335e-003
      0. 1.44508667e-003 0. 1.44508667e-003 1.01156067e-002
      1.44508667e-002 0. 0. 1.44508667e-003 0. 1.44508667e-003
      2.89017335e-003 7.22543336e-003 5.78034669e-003 0. 1.44508667e-003
      8.67052004e-003 0. 5.78034669e-003 1.44508667e-003 8.67052004e-003
      1.87861267e-002 1.44508667e-003 7.22543336e-003 2.89017335e-003
      4.33526002e-003 0. 1.44508667e-003 5.78034669e-003 0.
      1.44508667e-003 7.22543336e-003 2.89017335e-003 2.02312134e-002 0.
      2.89017335e-003 5.78034669e-003 1.44508667e-003 0. 3.17919068e-002
      1.44508667e-003 0. 1.30057801e-002 0. 7.22543336e-003 0.
      1.44508667e-003 1.44508667e-003 2.89017335e-003 3.90173420e-002
      3.03468201e-002 4.33526002e-003 1.44508667e-003 4.33526002e-003
      2.89017335e-003 2.89017335e-003 1.44508667e-003 7.22543336e-003 0.
      2.89017335e-003 0. 0. 1.44508667e-003 0. 2.89017335e-003 0.
      8.67052004e-003 1.44508667e-003 0. 1.44508667e-003 1.44508667e-003
      1.44508667e-003 1.44508667e-003 1.15606934e-002 4.33526002e-003 0.
      1.44508667e-003 4.33526002e-003 1.01156067e-002 0. 1.44508667e-003
      1.15606934e-002 2.89017335e-003 4.33526002e-003 2.89017335e-003
      1.44508667e-003 1.44508667e-003 0. 0. 2.89017335e-003
      5.78034669e-003 1.01156067e-002 0. 5.78034669e-003 1.30057801e-002
