<?xml version="1.0"?>
<opencv_storage>
<my_svm type_id="opencv-ml-svm">
  <svm_type>C_SVC</svm_type>
  <kernel><type>LINEAR</type></kernel>
  <C>1.</C>
  <term_criteria><epsilon>2.2204460492503131e-016</epsilon>
    <iterations>100</iterations></term_criteria>
  <var_all>256</var_all>
  <var_count>256</var_count>
  <class_count>32</class_count>
  <class_labels type_id="opencv-matrix">
    <rows>1</rows>
    <cols>32</cols>
    <dt>i</dt>
    <data>
      1 2 3 4 5 6 7 8 9 10 11 12 13 14 15 16 17 18 19 20 21 22 23 24 25
      26 27 28 29 30 31 32</data></class_labels>
  <sv_total>496</sv_total>
  <support_vectors>
    <_>
      3.13571072e+000 5.59983075e-001 -2.08333344e-003 4.61893762e-003
      1.44176828e-002 0. -7.25198239e-002 1.18378792e-002
      -5.15693659e-003 0. -1.35259656e-002 -4.21933234e-001
      -1.37560079e-002 2.24933848e-001 2.81157680e-002 -2.76243105e-003
      -2.01849312e-001 -1.01705221e-002 1.41518209e-002 -1.00714937e-001
      -5.39184501e-003 -2.52521604e-001 0. -2.69527454e-002
      -1.08448472e-002 7.64011173e-004 -2.32674927e-001 -1.89275201e-003
      -1.61978845e-002 -1.42979771e-002 -2.21729488e-003
      -1.13932356e-001 4.15395061e-003 -2.24719103e-003 2.25632433e-002
      -2.00400804e-003 0. -3.88355516e-002 0. -5.16627729e-003
      -4.30114800e-004 1.23899421e-002 -1.67244971e-001 0.
      -2.76243105e-003 -4.01143590e-003 8.80538858e-003 0.
      -7.46572390e-004 -2.24719103e-003 -1.02463262e-002
      -2.76243105e-003 -4.12799150e-001 1.76128447e-001 2.84900283e-003
      -1.69154555e-002 -4.96649981e-001 1.98216848e-002 -4.25531901e-003
      1.12894718e-002 -6.78123161e-003 -9.34756920e-003 -2.00707535e-003
      -1.96078443e-003 1.59049481e-001 0. 2.65660416e-003
      3.56146169e+000 2.48138956e-003 -5.73799293e-003 -2.21729488e-003
      3.91607434e-002 -8.19256064e-003 -2.71027442e-003 -1.35284830e-002
      -2.40384624e-003 8.17413330e-002 -1.34490142e-002 -1.96078443e-003
      1.37001881e-003 3.22524109e-003 6.41462160e-004 -2.57785758e-003
      -6.39207102e-003 2.30946881e-003 3.77965509e-003 -7.71984644e-003
      -1.66002885e-002 0. -1.09641429e-003 -2.24719103e-003
      -2.89626811e-002 -3.14465398e-003 -1.91938574e-003
      -3.00595760e-002 4.78695845e-004 -1.78884026e-002 2.08793636e-002
      -3.83709767e-003 -1.41376839e-003 -1.08631887e-001
      -1.11092185e-003 -1.45403454e-002 6.54348210e-002 -1.26144383e-002
      -8.54740813e-002 6.60084328e-003 -9.75366496e-003 0.
      -1.24421448e-001 -2.21729488e-003 -2.24719103e-003 2.96198968e-002
      -3.21054310e-002 -3.53797041e-002 -6.95195347e-002
      -3.28689022e-003 1.49686402e-003 -4.85722721e-003 -5.63380262e-003
      1.03990119e-002 1.07004791e-001 -2.28568781e-002 5.13419136e-003
      -1.83899254e-002 -2.21729488e-003 -4.34284005e-003
      -7.95282602e-001 -2.18126997e-002 -2.17951126e-002
      -4.40891460e-003 -2.91515082e-001 -1.06798060e-001
      -3.14465398e-003 -3.07872333e-003 -1.67530943e-002 1.07056212e+000
      0. -3.01573635e-003 0. -5.94910264e-001 8.37158877e-005
      -3.35729215e-003 0. 9.62217059e-003 0. -5.32303751e-002
      -6.27012923e-003 -4.35312884e-003 -5.96247725e-002
      -2.52714045e-002 -3.28689022e-003 -1.99645292e-003 1.59628857e-002
      -6.41328335e-001 4.45902906e-002 2.84900283e-003 -4.47237045e-002
      1.08142865e+000 1.38774775e-002 -9.34354123e-003 -1.90884713e-002
      -1.41097650e-001 -2.76243105e-003 3.88907529e-002 0.
      -1.95581000e-002 -5.94053388e-001 3.83327045e-002 2.28590399e-001
      -2.13675224e-003 -4.90682684e-002 -2.21729488e-003
      -2.19829530e-002 3.66616212e-002 -7.74215721e-003 -4.65116277e-003
      -1.40082836e-002 -6.52795890e-003 4.65541799e-003 -2.45190249e-003
      -3.16509679e-002 4.58223000e-003 2.97619053e-003 -6.66825799e-003
      6.74312003e-004 2.38070427e-003 1.40074166e-002 0.
      -7.74050783e-003 3.30417007e-002 -1.00525774e-001 -8.53153691e-002
      2.10155733e-002 0. -1.58946831e-002 -4.35404712e-003
      4.41096574e-002 -7.02927634e-002 9.45616513e-003 -6.59445720e-003
      8.48531025e-004 0. -2.81690131e-003 0. -2.54774213e-001 0.
      -1.79880159e-003 -7.70699186e-003 1.02051660e-001 2.25733640e-003
      -1.96000263e-002 2.98567908e-003 0. -8.96038208e-003
      2.85973609e-003 0. -1.54455364e+000 -7.43137717e-001 0. 0.
      -8.67636129e-003 4.97456491e-002 -9.38357785e-003 1.21241966e-002
      -6.52919933e-002 -2.60686222e-002 -2.65986659e-002
      -2.47987509e-002 -1.03625810e+000 -3.61314677e-002
      -1.71117336e-002 -2.09205016e-003 0. 9.70789790e-003
      -1.76238408e-003 4.58223000e-003 -3.17927776e-003 -8.58946331e-003
      0. 1.43172238e-002 0. 3.09425481e-002 0. 1.01361535e-002
      -3.27256098e-002 -1.04919933e-002 1.50385592e-002 -1.11343063e-001
      -1.29185151e-002 -1.62544893e-003 4.10998128e-002 2.75087520e-003
      2.39808159e-003 1.68182570e-002 -1.91743625e-003</_>
    <_>
      3.01953745e+000 6.30492151e-001 -2.85688359e-002 -6.27571577e-003
      1.01599032e-002 -1.51171125e-002 -3.72986719e-002 -1.04506664e-001
      -7.22017363e-002 -4.97931289e-003 -3.40669788e-002 5.72956493e-003
      -1.10204630e-002 2.33454660e-001 2.76633967e-002 -8.53743181e-002
      -1.23632997e-001 -6.40431941e-002 8.76029879e-002 -1.01651616e-001
      -8.93955156e-002 -2.11527303e-001 -7.16240657e-003
      -3.59951481e-002 -5.21838926e-002 -5.87708242e-002
      -9.51563716e-001 -1.26729965e-001 -4.79162671e-002
      -4.27130759e-002 -2.15048604e-002 -5.08670844e-002
      -5.53850979e-002 -1.51493950e-002 1.56303555e-001 -1.30804693e-002
      -2.18961276e-002 -1.07256453e-002 -4.87354882e-002
      -5.35195693e-002 -1.28113339e-002 1.21134715e-002 -4.53744736e-003
      -1.60415806e-002 -2.24268846e-002 -1.94841512e-002
      -9.29524899e-002 -2.85691526e-002 -6.66227117e-002
      -7.58214593e-002 -9.60349292e-002 -1.41705228e-002
      -1.90407753e-001 2.91815281e-001 -4.55881245e-002 -3.48778255e-002
      1.22885443e-002 -8.20167549e-003 -7.45302215e-002 -4.84540202e-002
      -1.07325977e-002 -1.98837020e-003 -8.60252827e-002
      -6.14531599e-002 5.30277252e-001 -4.90270369e-002 -2.29060021e-003
      3.74060559e+000 -9.91816726e-003 -7.47919977e-002 -9.99666452e-002
      -5.24512120e-002 -9.31810066e-002 -4.43829969e-002
      -2.12077469e-001 -4.32660989e-002 9.98894423e-002 -4.54558339e-003
      -1.87481921e-002 -7.50688985e-002 -2.53013205e-002
      -5.68364151e-002 2.27849633e-002 -1.07713193e-002 -1.83755383e-002
      -5.77534437e-002 -1.83350425e-002 -3.79607752e-002
      -4.69018221e-002 -1.01476237e-001 -1.05402201e-001 0.
      -3.33483070e-002 -2.69675869e-002 -4.06924188e-002
      -7.13971164e-003 -2.29004417e-002 -2.40867939e-002
      -3.97038236e-002 -6.38763383e-002 4.15927544e-003 -4.50102277e-002
      -8.62294957e-002 -5.20791769e-001 -4.34180349e-002
      -1.17136858e-001 -7.59987324e-006 -5.85251153e-002
      -4.68992582e-003 -4.29495377e-003 -1.75461937e-002
      -1.29728466e-002 -8.34990665e-003 3.33493948e-002 -2.16628630e-002
      -1.27857607e-002 -1.37344822e-001 -2.36137714e-002
      -5.83801419e-002 -1.26703512e-002 -1.30949080e-001 1.01955861e-001
      -2.91313659e-002 -1.64906662e-002 -9.98777375e-002
      -3.74672972e-002 1.08417273e-002 -1.28280729e-001 -1.36756813e-002
      -2.63281446e-003 -3.80907841e-002 -5.72713604e-003 9.48988181e-003
      -2.76395734e-002 -4.37881052e-002 -4.91271690e-002 1.00835085e+000
      -2.55348794e-002 -3.43377888e-002 -1.82023365e-002 2.34654322e-002
      -9.62038785e-002 -6.99903220e-002 -1.61154885e-002
      -1.54270348e-003 -4.54946831e-002 -2.17321683e-002
      -1.82940569e-002 -3.74663584e-002 -6.91708364e-003
      -6.20714314e-002 -2.17781775e-002 -3.11154481e-002
      -3.45868021e-002 -2.18361065e-001 6.36042207e-002 -7.60385171e-002
      7.82895368e-003 2.20160866e+000 -5.92171848e-002 -3.92862409e-002
      -3.79195325e-002 -3.12002689e-001 -1.25268593e-001
      -1.59116983e-001 -1.43863549e-002 1.00324843e-002 -3.31378877e-001
      3.82187665e-002 2.97279298e-001 -2.74825823e-002 -9.75431874e-003
      -1.88921634e-002 -2.31041145e-002 9.75960046e-002 -6.93471283e-002
      -4.40186784e-002 -4.66672778e-002 -4.09869626e-002
      -3.03446427e-002 -2.81634927e-002 7.87137263e-003 -1.14747724e-002
      -5.81337027e-002 -6.18345849e-002 -2.03144876e-003
      -4.64602932e-002 1.41925020e-002 -3.06620207e-002 -4.37217094e-002
      -1.52409831e-002 -6.71750829e-002 -4.12026495e-002 5.59515785e-003
      -3.06466613e-002 -6.58624917e-002 -3.44253927e-002 8.59731063e-002
      -2.27265000e-001 -2.20000930e-002 -8.84625837e-002
      -3.82559337e-002 -2.18490232e-002 -2.65935343e-002
      -7.84912184e-002 -1.80016062e-003 -1.86809823e-002
      -5.40590249e-002 -4.71475013e-002 1.05672784e-001 -2.64057163e-002
      9.05925967e-003 -1.89080779e-002 -3.65340635e-002 -1.39323205e-001
      -8.79311841e-003 -4.27641533e-002 -1.75210252e-001
      -1.61850434e-002 -1.50438240e-002 -1.02995247e-001
      -4.83891135e-003 4.88131680e-002 -1.37499608e-002 -1.37068928e-004
      -1.65228531e-001 -7.82765523e-002 -4.05610353e-002
      -1.67412851e-002 -1.08656311e+000 -8.83983523e-002
      -5.75701818e-002 -4.41364795e-002 -1.15869425e-001 1.32180145e-002
      -5.10290191e-002 -5.13651781e-003 -6.62452132e-002
      -1.82810426e-002 -4.37690690e-002 8.23000260e-003 -1.87147744e-002
      -2.43600681e-002 -1.02592781e-002 7.24179810e-003 -6.46909177e-002
      -4.44576964e-002 2.07192264e-002 -8.37505236e-003 -8.46666098e-002
      -1.94732212e-002 9.49974358e-002 -6.96240067e-002 -2.47229841e-002
      -8.67848471e-003 -2.56220885e-002</_>
    <_>
      -2.90574074e+000 1.70623469e+000 2.29357788e-003 1.58476345e-002
      2.34115683e-002 -3.48432059e-003 -4.16666642e-003 5.94182424e-002
      -3.70770656e-002 0. 8.12048465e-003 8.40336177e-003
      -1.22276228e-003 6.19048655e-001 5.23566902e-002 -2.02244446e-002
      -1.37872159e-001 -6.41334895e-003 1.86338142e-001 -1.25039695e-002
      -5.95238106e-003 -1.37848759e+000 0. -9.46383998e-002
      -5.49450563e-003 5.15788561e-003 -5.29690832e-002 -1.71429534e-002
      0. 9.70663875e-003 0. -1.66849624e-002 2.16564462e-002
      -9.63766128e-003 4.16702420e-001 0. 0. 5.37219085e-003 0.
      -2.29739235e-005 5.69800567e-003 3.16637643e-002 -2.75823977e-002
      2.06185575e-003 0. 0. 5.68106771e-002 0. 9.29754786e-003
      -1.94710400e-002 0. -8.00000038e-003 -1.38268977e-001
      5.59257746e-001 2.84900283e-003 -1.01010101e-002 1.06981117e-002
      2.99793910e-002 0. 1.97933763e-002 -5.95238106e-003
      1.74020249e-002 4.72812820e-003 -5.95238106e-003 -4.31565404e-001
      0. 1.77940000e-002 3.22654080e+000 2.48138956e-003 0.
      2.29357788e-003 4.63647582e-002 -5.15099755e-003 1.18700853e-002
      -1.02332287e-001 2.46913591e-003 2.08720788e-001 1.81513056e-002
      0. 4.51467279e-003 7.68757472e-003 5.41296788e-003 2.65410282e-002
      -1.86850764e-002 2.30946881e-003 2.68191602e-002 -1.10918432e-002
      3.53791285e-004 0. 2.10084044e-003 -5.95238106e-003 0. 0. 0.
      -2.77877420e-001 2.39808159e-003 0. 3.20159867e-002
      -1.06914081e-002 5.07703098e-003 2.04809140e-002 4.79616318e-003
      -4.94908215e-003 1.22003429e-001 -1.12960981e-002 3.87892798e-002
      2.10036412e-002 0. 0. 0. 0. -5.95238106e-003 6.60746917e-002
      1.49188086e-001 -4.33366047e-004 2.64666378e-002 -4.23004804e-003
      5.99091640e-003 -2.01692246e-002 -2.91787200e-002 -9.60050598e-002
      2.87391275e-001 -3.23019805e-003 9.56878066e-003 -1.48256952e-002
      0. 3.74779515e-002 -1.46557838e-001 -9.42389481e-003
      2.58593615e-002 -2.29739235e-005 -6.49132207e-003 1.89768858e-002
      2.29357788e-003 7.53054395e-003 -5.95238106e-003 2.84760213e+000
      2.00400804e-003 8.34838115e-003 0. 2.33332496e-002
      -4.65529505e-003 -1.04630264e-002 -1.59189422e-002 2.30938569e-002
      -9.17431153e-003 8.50095693e-003 -4.18410031e-003 -4.18410031e-003
      1.27388444e-002 -7.61860702e-003 0. -4.59478470e-005
      3.49092893e-002 -4.63988841e-001 1.44303784e-001 -8.23407546e-002
      8.83743018e-002 -3.54348803e+000 -3.89195561e-001 0.
      1.57770179e-002 -8.06584656e-002 -8.42500292e-003 3.31437513e-002
      -3.02878916e-002 1.70104019e-002 -9.81231555e-002 5.87480851e-002
      7.20318854e-001 0. 0. 2.49376567e-003 -5.05050505e-003
      2.32473724e-002 0. 2.42318818e-003 -2.04734807e-003
      -4.18410031e-003 -2.01015826e-002 7.39748031e-003 2.96029802e-002
      7.07599567e-003 -8.58485606e-003 0. -5.94391972e-002
      4.79616318e-003 4.11064439e-002 -1.67237148e-002 8.29309598e-003
      4.43048328e-002 -8.30787867e-002 5.58805419e-003 3.24801281e-002
      2.57731951e-003 9.08076484e-003 0. 1.34033635e-001
      -1.26580787e+000 2.07000766e-002 -2.02114154e-002 5.24679432e-003
      2.43309001e-003 -1.09890113e-002 -5.97535493e-003 4.34803125e-003
      -1.44424383e-002 5.56154409e-004 -3.38824047e-003 2.57348597e-001
      2.25733640e-003 4.69231121e-002 7.37447664e-003 2.29357788e-003
      -1.01776339e-001 9.35053546e-003 -1.18110236e-002 -6.88671023e-002
      -1.09868217e-002 0. -4.92610829e-003 0. 7.27531239e-002 0.
      1.21241966e-002 2.49005593e-002 3.00594494e-002 3.30033014e-003 0.
      -8.86952639e-001 -4.49480191e-002 -1.24703586e-001
      -4.18410031e-003 -6.23144861e-003 2.10525561e-002 2.72479560e-003
      4.58223000e-003 2.01281509e-003 -6.48686429e-004 2.35294108e-003
      2.61362474e-002 0. 4.47562262e-002 -1.62644628e-002
      2.44498290e-002 3.60642485e-002 -4.09836043e-003 4.09074761e-002
      2.24719103e-003 -2.64477618e-002 2.46305414e-003 2.19385251e-001
      2.03320826e-003 -2.01520957e-002 3.80930007e-002 2.84900283e-003</_>
    <_>
      2.17342210e+000 1.85941711e-001 -1.00992443e-002 -1.88339967e-002
      -3.40641767e-004 -1.69285044e-001 -3.83698195e-002 2.24763490e-002
      -4.05452177e-002 -8.73299222e-003 -4.19169478e-002
      -2.55596749e-002 -2.97266264e-002 5.92040643e-003 1.34871993e-002
      -2.08588630e-001 1.47197843e-002 -9.29488838e-002 -1.38917983e-001
      -1.92486905e-002 -3.85624263e-003 -1.48179576e-001
      -3.91913429e-002 -1.98657185e-001 -4.87869885e-003 2.72479560e-003
      -1.33772448e-001 -2.72309547e-003 -2.07857732e-002
      -1.23313144e-002 -2.42464878e-002 -1.32330552e-001
      -6.24847487e-002 -2.97256615e-002 -1.54860705e-001
      -1.67785236e-003 0. -3.91337238e-002 -2.73224036e-003
      -9.50899348e-003 -3.98536287e-002 1.46072367e-002 -2.65841689e-002
      0. -7.11737340e-003 -2.24333955e-003 -8.60088039e-003
      -1.07290326e-002 -4.08563949e-002 -4.87597799e-003
      -6.74129091e-003 -7.36716166e-002 -4.22786474e-001
      -1.39157489e-001 -2.36889930e-003 -4.68695834e-002
      -7.04410544e-004 1.63465831e-002 -1.38528859e-002 1.35397806e-003
      -3.46133206e-003 5.34876902e-003 -4.08678688e-003 -9.75779258e-003
      8.70347559e-001 0. -7.03472942e-002 3.63057160e+000
      -1.42042746e-003 -1.28366975e-002 0. 7.14962464e-003
      -5.50207589e-003 -1.49553651e-002 -2.38663494e-003
      -1.15722604e-002 -4.03916873e-002 -8.99843127e-003
      -2.38663494e-003 -7.48889847e-003 4.65825200e-003 1.07190304e-003
      -3.60325575e-002 -5.53792808e-003 -9.43774357e-005
      -2.12572459e-002 -8.23963899e-003 -1.70895015e-003
      -6.07432239e-003 -1.66816581e-002 0. -4.09655310e-002 0.
      -7.06420653e-003 -1.46563187e-001 -6.92761550e-003
      -1.67785236e-003 -5.82503416e-002 -1.53113808e-002
      -2.48983805e-003 -4.21726890e-003 -1.62574481e-002
      -1.33160558e-002 4.96371351e-002 -3.81875114e-004 -4.93847616e-002
      -2.32561696e-002 -2.47524749e-003 -5.80591755e-003
      -4.52682897e-002 -1.95312500e-003 -1.33692557e-002 5.57258818e-003
      -1.76824540e-001 -1.20844292e-002 -5.84943499e-003
      -1.32034495e-002 -4.57754843e-002 -4.40576952e-003
      -1.11900503e-002 1.83120824e-003 2.76891273e-002 -6.92726672e-003
      5.23133576e-003 -1.16963051e-002 -1.61290320e-003 -5.96754195e-004
      -3.81121278e-001 -6.29718900e-002 -4.20328043e-002
      -1.51034333e-002 -4.32960987e-002 -4.59812721e-003
      -1.08877420e-002 -1.55813794e-003 -2.17863396e-002 6.39019907e-001
      0. 4.44829790e-003 0. 1.14547675e-002 -9.84356739e-003
      3.23624606e-003 -5.31918369e-003 3.13394284e-003 -1.65289256e-003
      7.36734085e-003 -6.47944678e-003 -2.26829923e-003 3.93998390e-003
      -4.77547385e-002 -7.90928863e-003 -1.61290320e-003
      -5.43758320e-003 -5.87327182e-001 1.05148042e-002 -2.64705494e-002
      -3.33266682e-003 2.03391266e+000 -6.29469380e-002 -9.19570774e-003
      2.95771030e-003 -1.72091916e-001 -1.15155932e-002 2.60039400e-002
      -8.67734104e-002 -1.97625589e-002 -5.25767267e-001 2.55468693e-002
      -1.10458992e-001 -1.30806584e-002 -3.09990961e-002
      -3.30209243e-003 -3.98483351e-002 1.07427239e-001 -1.45718595e-002
      -9.33353137e-003 -2.31169797e-002 -9.54745524e-003
      -2.51654023e-003 -6.03286410e-003 1.22984666e-002 2.96932692e-003
      -6.95884274e-003 -1.81373190e-002 -2.83644143e-002
      -1.10276341e-002 -7.93422572e-003 -2.57964402e-001
      -1.06256381e-002 5.24725998e-003 -3.26534547e-002 -1.29256779e-002
      -9.64370498e-004 -5.36377840e-002 -3.33828814e-002
      -9.26063024e-003 -3.60441655e-002 3.47278491e-002 6.01457153e-003
      -2.65092105e-002 -2.62407679e-002 -1.01062946e-001
      -8.06623418e-003 -2.23214296e-003 -2.86036544e-002
      -8.49829316e-002 -1.68209244e-002 0. -1.85809156e-003
      -4.95628715e-002 1.79713834e-002 -1.06714806e-002 -1.00161247e-002
      -8.71158950e-003 -4.88104858e-003 -6.14353223e-003
      -1.14578819e+000 -3.98310237e-002 -3.82241234e-002
      -5.90446929e-004 -3.82920913e-002 1.83370616e-002 -7.47808162e-003
      -8.25245306e-002 -4.11353223e-002 -4.52767648e-002
      -2.64701508e-002 -9.88122523e-002 -4.05686110e-001
      -1.96893979e-002 -2.89188117e-001 -1.09929694e-002
      -2.47524749e-003 -5.19667417e-002 -5.80064440e-003 2.90437764e-003
      -2.92184260e-002 -9.48132426e-002 -8.77782237e-003 2.01523700e-003
      -5.90446929e-004 -1.65033946e-003 -2.11656675e-001
      -9.89713408e-006 2.60777865e-003 -1.43010626e-002 8.07374157e-003
      -1.69901345e-002 -3.17514613e-002 -1.70456991e-002
      -1.30497605e-001 7.82901049e-003 -6.13099486e-002 1.50208129e-002
      -1.28585752e-002</_>
    <_>
      3.83607268e+000 9.98233497e-001 -5.57660544e-003 -2.23247372e-002
      3.05845658e-003 -9.62086581e-003 -1.42808538e-002 3.48548442e-002
      -3.65688466e-003 0. -3.44862118e-002 -1.07750726e+000
      -2.39551393e-003 4.47952569e-001 2.72356141e-002 0.
      -1.32407635e-001 2.86459969e-003 2.88156252e-002 -1.15796335e-001
      -9.04275198e-003 -1.13781758e-001 0. -5.69167128e-003
      -1.27167758e-002 -9.06828977e-003 -3.39273095e-001
      -1.54023841e-002 -2.09616050e-002 -1.98321436e-002
      -1.29198963e-002 -5.40659726e-002 -3.28985527e-002 0.
      8.09477121e-002 -1.53374230e-003 -6.63374737e-003 -4.97786030e-002
      -5.90839377e-003 -8.65446124e-003 -1.38271991e-002 9.24967322e-003
      -2.45690718e-002 -7.78321177e-003 -1.53374230e-003
      -6.14438718e-003 -8.80566463e-002 0. 4.91864281e-003
      -9.60326102e-003 -5.05114160e-003 0. -1.14041707e-002
      1.45411447e-001 -1.06441854e-002 -2.21644193e-002 -5.27627230e-001
      2.17162874e-002 -1.53374230e-003 -4.98001315e-002 -3.06748459e-003
      -2.73762811e-002 -1.94179919e-002 -9.45078582e-003
      -1.21504450e+000 -1.50868092e-002 -2.32200734e-002 3.34495950e+000
      9.47647262e-004 -1.06297322e-002 -4.93923239e-002 -1.37901045e-002
      -6.94285054e-003 -5.20019867e-002 -2.17343830e-002
      -9.21369810e-003 1.21978052e-001 -6.21247385e-003 -7.75753520e-003
      -4.90753585e-003 1.96500868e-003 4.26097307e-004 -1.42709181e-001
      -9.35831200e-003 5.01150498e-004 -5.78178875e-002 -2.36472916e-002
      5.65295923e-004 -1.91938574e-003 -4.40032817e-002 -3.59975323e-002
      -2.40963860e-003 0. -1.12809185e-002 2.72479560e-003
      2.39808159e-003 -1.48186125e-002 -6.36049882e-002 -5.67390816e-004
      -5.60117885e-003 -4.60703857e-002 -8.26948695e-003
      -5.93266450e-003 -1.02197516e+000 -8.10802821e-003
      -3.91037054e-002 -3.92024964e-002 -1.53374230e-003
      -3.10246926e-002 -2.62237668e-001 -5.19062672e-003 0.
      6.71338569e-003 -1.26084313e-001 -7.06504192e-003 -3.54052871e-001
      -2.39234441e-003 -1.87898502e-002 -3.06748459e-003
      -3.47143505e-004 1.15677342e-002 1.06522977e-001 -7.74150714e-004
      5.15673868e-003 -1.53374230e-003 0. 4.25201096e-003
      -5.01672141e-002 -3.80440615e-002 -1.21748127e-001 0.
      -1.58907160e-001 -3.36073935e-002 -6.54995488e-003
      -6.10201806e-003 0. 1.58475745e+000 -4.64592269e-003
      -2.02005729e-002 -9.79732443e-003 -1.92250162e-001
      -1.35499081e-002 -2.59589707e-003 -1.53374230e-003 1.51101518e-002
      -8.09627771e-003 -1.33136392e-001 -8.74930248e-003 0.
      -1.09214477e-001 -1.41334413e-002 -3.06748459e-003 0.
      1.51909404e-002 1.80313960e-002 1.42391929e-002 -2.07545478e-002
      4.05090302e-002 -1.18546754e-001 -3.81432831e-001 -4.86406591e-003
      -2.97015980e-002 -8.89765099e-002 -1.53374230e-003
      -1.30538642e-003 0. -2.12851822e-001 -2.37164870e-001
      2.23308168e-002 3.80208671e-001 -6.35060435e-003 -8.68915021e-003
      -1.79254040e-002 -9.61331464e-003 9.57969502e-002 -2.54398100e-002
      4.19955701e-004 -8.74930248e-003 -7.16532953e-003 -4.85737342e-003
      6.94072666e-003 -2.39373799e-002 7.07599567e-003 -1.17289070e-002
      -2.02616323e-002 7.54066231e-003 -2.13111122e-003 2.37549189e-002
      0. -1.42246690e-002 -5.53801954e-002 -8.41432884e-002
      -1.35632485e-001 1.79764628e-002 -7.91294221e-003 -9.89348069e-002
      -7.99961574e-003 -5.95122039e-001 5.48916049e-002 1.39719192e-002
      -3.38925864e-003 -5.80898067e-003 2.43309001e-003 -2.65957438e-003
      -5.60366549e-003 -2.90213525e-001 0. -6.26362115e-003
      -1.28934463e-003 1.64785579e-001 -1.30892615e-003 2.56933607e-002
      -7.44895358e-003 2.29357788e-003 -1.88379679e-002 5.07703098e-003
      -4.09836043e-003 -5.07843308e-002 -3.85098517e-001
      -3.77589487e-003 -5.11666480e-003 -5.38507551e-002 1.80790592e-002
      -2.12290809e-002 -9.65015441e-002 -4.12678346e-002 1.00481324e-002
      -9.25768539e-002 -2.27494296e-002 -2.10422412e-001
      -1.16335396e-002 1.60692958e-004 0. -1.85362510e-002
      -2.11668476e-001 -6.75655250e-003 1.51474541e-003 1.00165633e-002
      -2.21590269e-002 -2.32870900e-003 3.70893371e-003 -1.53374230e-003
      -2.41560638e-002 -4.33890522e-003 1.76769923e-002 -7.72345532e-003
      -7.11424276e-003 -4.83256504e-002 -2.01131016e-001
      -6.99204672e-003 -4.88638598e-003 4.40995432e-002 1.81010552e-003
      -5.23550622e-003 2.80078799e-002 -4.22120094e-003</_>
    <_>
      2.50550365e+000 3.93464833e-001 -3.89508344e-003 -4.97653894e-002
      4.68872068e-003 -2.81438809e-002 -4.23518196e-002 2.24219318e-002
      -3.70001374e-003 0. -1.38029614e-002 6.39128964e-003
      -8.64245370e-003 1.49038121e-001 1.70880407e-002 -1.97686285e-001
      -4.47743125e-002 -3.87644283e-002 5.39471693e-002 -8.10610428e-002
      -6.00298820e-003 -2.66893327e-001 -4.30194497e-001
      -4.01992649e-002 -1.95244346e-002 -1.65377744e-004
      -3.92116159e-001 -1.09397527e-002 -6.55790092e-003
      -1.26426006e-002 -3.79640199e-002 -3.80074494e-002
      -3.20607796e-002 -1.97884324e-003 2.73591168e-002 -1.92030892e-002
      0. -1.37465075e-002 -2.89017335e-003 -2.17391294e-003
      -1.40327942e-002 1.46072367e-002 -1.20137967e-002 -2.01207236e-003
      -3.68222594e-002 -2.53807101e-003 -1.74533147e-002
      -5.18200547e-003 -1.66438855e-002 -1.14188707e-002 0.
      -6.91149682e-002 -4.06687081e-001 9.34313387e-002 -1.57632437e-002
      -1.56896655e-002 5.47410594e-003 6.07925840e-003 -3.09597515e-003
      -1.71926931e-001 -1.17333187e-002 1.17257778e-002 -1.02614714e-002
      -1.61326490e-002 2.75259614e-001 -4.13071644e-003 -5.62060717e-003
      3.45753765e+000 2.43871473e-005 0. -4.02414473e-003
      -6.97574466e-002 -2.05324288e-003 -2.10736971e-003
      -3.34780402e-002 0. 7.08337426e-002 -1.75884925e-004
      -2.32018554e-003 -2.29555108e-002 8.56946688e-004 -3.82567337e-003
      2.04861127e-002 -1.12349223e-002 2.30946881e-003 -3.74002266e-003
      -6.58424711e-003 6.02276716e-003 -2.89017335e-003 -5.98022807e-003
      -1.10875247e-002 -4.21471521e-003 0. -1.15979910e-002
      -1.21670431e-002 3.86009226e-004 -7.61069134e-002 1.03958203e-002
      -3.08554922e-003 2.64984649e-003 -2.03019716e-002 2.62225023e-003
      -6.23808475e-003 4.95051444e-002 -8.53523985e-003 8.71014409e-003
      5.27398195e-004 -9.80449095e-003 0. -4.13071644e-003
      -2.91545200e-003 -2.11864407e-003 1.98238958e-002 -2.72928774e-001
      -2.42085615e-003 -2.42096819e-002 -7.24432990e-003
      -4.23174491e-003 -2.32018554e-003 -4.38764989e-002
      -2.27859206e-002 7.19677433e-002 -2.80176401e-002 2.57772254e-003
      -1.01499287e-002 -2.42718449e-003 1.64346006e-002 -3.11847150e-001
      -8.82375427e-003 -1.85599059e-001 0. -5.00766337e-002
      -1.02827698e-003 -9.71365441e-003 -1.95786729e-003
      -1.72117038e-003 8.66622627e-001 0. 3.21101723e-003
      -2.68096523e-003 1.04016289e-002 -5.64829726e-003 -1.28066819e-003
      -1.72117038e-003 6.18208759e-003 0. -5.25922235e-003
      -9.63950809e-003 -1.18892062e-002 -1.04488745e-001
      -3.53486240e-002 -1.78009663e-002 -4.60109767e-003 4.10969881e-003
      -3.37139368e-001 -2.13559088e-003 -1.35570886e-002
      -9.03134048e-003 1.85609937e+000 -2.26324290e-001 -1.27311684e-002
      -1.07210971e-001 -1.97895437e-001 -2.68096523e-003 3.31338271e-002
      -1.75105676e-001 0. -7.32285738e-001 2.71335971e-002
      1.50613010e-001 -6.35208562e-003 -2.49986444e-002 -7.56457355e-003
      -9.37887002e-003 8.38819370e-002 -4.63662250e-003 -5.21903625e-003
      -2.68638618e-002 -2.17391294e-003 -5.63478284e-003
      -3.18469340e-003 7.06005748e-003 4.58223000e-003 2.97619053e-003
      -4.23728814e-003 -9.34780203e-003 2.62225023e-003 1.45013137e-002
      -1.92099854e-001 -1.40602393e-002 3.06182597e-002 -5.86480796e-002
      -1.42375976e-001 1.07144034e-002 -9.84803960e-002 -3.89011465e-002
      0. 4.15983573e-002 -5.91332987e-002 2.70573818e-003
      -6.19716197e-003 -2.70562712e-004 -3.08801860e-001
      -2.53807101e-003 -4.13071644e-003 -1.81226842e-002
      -1.00471124e-001 -8.65443517e-003 -8.76991265e-003 7.92923942e-002
      -7.03155808e-003 -1.12577369e-002 3.41760926e-004 0.
      -1.64695811e-002 3.06495861e-003 -1.32098738e-002 -1.61962235e+000
      -3.65273394e-002 -1.47133050e-002 0. -2.41670795e-002
      4.93368283e-002 -3.24675324e-003 4.94146626e-003 -8.00944492e-002
      -4.96650077e-002 -2.79274732e-001 -7.49769807e-002
      -9.77649987e-001 9.00927465e-003 -6.05013035e-002 -2.01207236e-003
      0. 1.35965981e-002 4.38303687e-005 4.58223000e-003
      -5.02189978e-005 -6.16695434e-002 -1.08469604e-002 4.66289790e-003
      -6.86644111e-003 2.88712680e-002 -2.70460192e-002 5.11991233e-003
      -2.48074252e-002 -1.11404173e-002 1.18725700e-002 -2.51608957e-002
      -1.05685061e-002 -1.07103819e-002 6.18807115e-002 5.23903687e-003
      -1.16180010e-001 2.10192222e-002 3.10931820e-004</_>
    <_>
      1.96387863e+000 3.11547160e-001 -1.95516348e-002 0.
      4.56342287e-003 -2.87833307e-002 -8.13194141e-002 2.53823511e-002
      -3.68741490e-002 -7.39181321e-003 -4.90730219e-002 8.40336177e-003
      -3.45573276e-002 1.25155434e-001 1.19022625e-002 -2.22516268e-001
      -2.78093163e-002 -4.75834757e-002 -1.49291370e-003
      -4.98684775e-003 -4.57344903e-003 -7.60126533e-003
      -6.02847189e-002 -2.42729291e-001 -6.80272095e-003 2.72479560e-003
      -1.29306670e-002 1.65925687e-003 -1.60014071e-002 -1.36486180e-002
      -5.71404770e-002 -2.68013954e-001 -6.77691866e-003
      -3.69838960e-002 7.61512890e-002 -4.74466430e-003 -3.38910846e-003
      -1.25579927e-002 -7.73649616e-003 -1.31405033e-002
      -1.74386445e-002 1.22977681e-002 -8.70580077e-002 0.
      -7.31324498e-003 -7.06256833e-003 -1.45206098e-002
      -6.13056635e-003 -1.04290051e-002 -7.67419953e-003
      -3.22358939e-003 -4.09451842e-001 -1.74437374e-001 1.35364279e-001
      -2.34656432e-003 -3.91117066e-001 1.26050431e-002 1.53356520e-002
      -4.06504050e-003 -4.74959090e-002 -4.30076756e-003 7.84834940e-003
      -1.22436024e-002 -2.64606159e-002 9.73384559e-001 0.
      -6.52065920e-003 3.40093946e+000 2.48138956e-003 -3.45021971e-002
      0. 1.26234172e-002 -2.32370086e-002 -1.55882342e-002
      -3.13658938e-002 -1.05065340e-002 4.71468456e-002 -5.06686233e-003
      -3.07692308e-003 -2.43315450e-003 8.38027801e-004 -1.32992351e-002
      -4.32260055e-003 -2.57000700e-002 -1.34731382e-002 7.34328479e-003
      -1.60590280e-003 -8.96008499e-003 -1.21159879e-002
      -2.83865654e-003 -2.90697673e-003 -1.95312500e-003
      -2.77777785e-003 -1.19508198e-002 -9.20004845e-001 2.39808159e-003
      -3.61084104e-001 2.91887019e-003 -1.27899814e-002 -2.30065943e-003
      2.60448083e-003 3.02109314e-004 -8.37681070e-003 5.78648970e-002
      -9.24395118e-003 8.05102289e-003 -3.78904329e-003 -3.46171260e-002
      0. -1.52072795e-002 -1.27107548e-002 -1.32071972e-002
      2.22194698e-002 2.03708392e-002 -9.03645307e-002 -1.22229261e-002
      -1.10502681e-002 -2.20071636e-002 -2.94831507e-002
      -5.19472599e-001 -6.39821915e-003 4.97049056e-002 -6.36459887e-002
      -2.43430701e-003 -7.57990591e-003 -6.36108872e-003 9.58949607e-003
      -1.35905430e-001 -4.40924227e-001 -2.08252128e-002
      -5.83377220e-002 -1.36658922e-001 -3.52306035e-003
      -1.47506511e-002 -5.48841059e-003 -3.03030293e-003 6.36932850e-001
      -4.89642192e-003 6.10119058e-003 0. -7.74880592e-003
      -2.90215714e-004 3.23624606e-003 -9.85991582e-003 6.45901728e-003
      0. -5.39751956e-004 -2.58633178e-002 -1.34001514e-002
      1.19081745e-003 -3.87101844e-002 -5.18857092e-002 -2.03252025e-003
      6.24883082e-003 -4.52767700e-001 -4.33386257e-003 -1.18072525e-001
      -3.72854769e-002 1.96899199e+000 -1.01041235e-001 -2.29890477e-002
      -1.25999793e-001 -1.00382663e-001 -7.54027301e-003 2.69121211e-002
      -3.05670798e-002 -6.96421834e-004 -3.76935691e-001 3.46191451e-002
      1.32986203e-001 -4.34738770e-003 -4.59091246e-001 -3.90625000e-003
      -7.12184459e-002 1.00087836e-001 -5.34223346e-003 -3.15663181e-002
      -2.09226143e-002 -6.37990795e-003 -3.87997888e-002 4.94783837e-003
      5.46854734e-003 1.80445216e-003 -6.73052948e-003 -4.06504050e-003
      -4.43444818e-001 -6.77931169e-003 1.78183187e-002 -1.84852019e-001
      -2.75126025e-002 3.18385586e-002 5.08455299e-002 -3.33934575e-002
      1.82084031e-002 -8.04868154e-003 -4.44985516e-002 -3.22358939e-003
      -1.04699088e-002 4.15525325e-002 -8.75169225e-003 -3.95830236e-002
      -7.02364091e-003 -5.96457869e-002 -4.38621780e-003
      -5.42162871e-003 -2.39079166e-002 -3.34259272e-001
      -2.65704319e-002 0. 5.56577779e-002 1.38692325e-004
      -3.59787308e-002 -7.99407996e-003 -1.17847379e-002
      -1.12659652e-002 5.07703098e-003 -4.53514745e-003 -1.90265641e-001
      -9.89765227e-002 -3.32221761e-002 -7.50868069e-003
      -1.18988845e-002 3.28394845e-002 -2.26757373e-003 6.30501192e-003
      -9.72442031e-002 -3.31167206e-002 -3.29967812e-002
      -2.03450415e-002 6.68694377e-002 2.61776745e-002 -3.26461703e-001
      -5.11657633e-003 -6.03865553e-003 9.77607630e-003 1.45433121e-003
      6.75980002e-004 -8.53026193e-003 -2.77782559e-001 0.
      3.08698835e-003 -1.35981701e-002 3.08833402e-002 -2.70150173e-002
      2.48138956e-003 -6.27529714e-003 0. -1.17435204e-002
      -6.65297657e-002 -7.27112293e-002 -2.03252025e-003 1.06224408e-002
      2.03046529e-003 -3.13628688e-002 1.44161088e-002 0.</_>
    <_>
      2.86735415e+000 8.84783328e-001 -1.91993378e-002 -3.41719568e-001
      -1.03543572e-001 0. -5.68009913e-002 2.77973991e-002
      -3.63751687e-002 0. -3.05852778e-002 -5.71421027e-001
      -6.17563818e-003 3.51912349e-001 3.25179808e-002 0.
      -2.08883166e-001 -2.55810469e-003 3.13531011e-002 -1.18099190e-001
      -3.04878037e-003 -8.70005116e-002 0. 2.25733640e-003
      -7.83479773e-003 3.31965042e-003 -3.54412675e-001 -1.83889084e-003
      -1.10125020e-002 -7.78046176e-002 -1.55360727e-002
      -7.51946568e-002 -3.06728303e-001 -1.49716251e-002 9.85190719e-002
      0. 0. -1.90696701e-001 -1.38937561e-002 -6.35490427e-003
      -1.03319943e-001 -5.55736246e-003 -4.28284630e-002 2.06185575e-003
      -6.73297420e-003 -1.06198909e-002 -1.06131926e-001 0.
      -2.19210908e-002 0. -2.35803016e-002 0. -1.01646502e-002
      1.48396000e-001 -7.17960624e-003 -1.88396312e-002 -5.01736224e-001
      -3.01547791e-003 -1.30780274e-002 -9.86369923e-002
      -1.99278095e-003 5.24003757e-003 -7.30952062e-003 -1.94552529e-003
      3.06028128e-001 -4.28197393e-003 -4.59282249e-002 4.49292517e+000
      2.48138956e-003 0. -5.70862480e-002 -1.35763764e-001
      -1.32725248e-003 -2.70865690e-002 -4.25960589e-003
      -4.72089741e-003 7.67036155e-002 -1.03102379e-001 -6.61018863e-003
      -3.02513670e-002 3.32074193e-003 -7.95534719e-003 -3.24058324e-001
      -1.94552529e-003 -2.48759147e-003 -5.61794639e-002
      -1.15697377e-003 -3.49364057e-002 0. -7.92775210e-003
      -1.03501696e-002 -2.94000842e-002 0. 0. -1.49650732e-003
      -1.19591728e-002 -2.27272720e-003 -3.00009307e-002
      -1.49094416e-002 -3.05179367e-003 -4.94019277e-002
      -2.77650505e-002 -1.20016411e-002 -2.67835438e-001
      -1.06162606e-002 -8.83407965e-002 -3.35751474e-002
      -1.89035921e-003 -4.47265506e-002 -6.51726604e-001
      -2.18818383e-003 0. -3.30046341e-002 1.48150828e-002
      -1.14224302e-002 -3.52913201e-001 -8.16031918e-003
      -5.80568798e-002 -8.03089142e-003 -1.49179634e-003
      -7.70323202e-002 3.73015031e-002 3.08873923e-003 7.74062704e-003
      -1.20193884e-002 -3.88239115e-003 1.84604935e-002 -3.26447561e-002
      -2.63249315e-002 -7.17797577e-002 -4.09729499e-003
      -1.06389932e-001 -4.57595326e-002 4.65424266e-004 -6.33877609e-003
      0. 9.96954799e-001 -6.48163073e-003 -5.47475182e-004
      -1.12130642e-002 -1.26834080e-001 6.62545208e-005 1.24421413e-003
      -2.53164559e-003 -5.35188168e-002 0. -3.43517065e-001
      -1.98807148e-003 -4.48096357e-003 -5.36925979e-002
      -4.68850583e-002 -8.96504056e-003 -1.89035921e-003 7.73964403e-003
      2.05049664e-002 -1.31575614e-002 -1.07280712e-003 1.89239737e-002
      1.93292588e-001 -5.25777563e-002 -2.43106242e-002 -5.36609925e-002
      -3.60375196e-002 -1.24061182e-002 -8.60496163e-002
      -8.13233573e-003 -2.92730302e-001 -4.96620685e-002 1.18065448e-002
      3.12792778e-001 -2.35470459e-002 -1.08729247e-002 -1.64246280e-002
      -5.49034886e-002 2.41703689e-002 -3.92181007e-003 -1.43823307e-002
      -1.89035921e-003 -5.00279246e-003 -1.44340377e-002 4.90805227e-003
      -3.23963650e-002 3.17445444e-003 -9.65641625e-003 -6.69212919e-003
      5.54788113e-003 4.79616318e-003 -2.36906167e-002 -6.13497104e-003
      -1.44647737e-003 -1.33638000e-002 -7.23544955e-002
      -4.81413007e-002 4.25500749e-003 -5.38600236e-002 -4.85876873e-002
      -1.94552529e-003 -2.08824396e-001 -1.15869015e-001
      -2.20985822e-002 -9.71672125e-006 3.28169693e-003 2.43309001e-003
      -2.42130761e-003 -6.12574117e-003 -3.05773020e-001
      -2.00400804e-003 -5.55051118e-002 -3.83455842e-003 1.39181957e-001
      -9.85961594e-003 2.02787723e-002 -7.45042576e-004 -5.15410909e-004
      -2.10526306e-003 5.07703098e-003 -1.94552529e-003 -6.69393167e-002
      -2.41796404e-001 -7.99124502e-003 -1.99203193e-003
      -4.48262095e-001 -1.11540712e-001 -2.35843454e-002
      -1.54014111e-001 -4.26500700e-002 2.70638745e-002 -5.13138175e-002
      -2.92403139e-002 -4.17315453e-001 1.52048664e-002 -6.21182844e-003
      0. -1.13313301e-002 -1.61236554e-001 -1.07027078e-003
      5.56593295e-005 4.07003192e-003 -2.69350293e-003 -2.73556579e-002
      -4.57084924e-002 -6.74654590e-003 2.04183310e-002 -1.82815362e-003
      1.29011553e-002 -7.73719922e-002 -7.14211492e-003 -3.41215767e-002
      -1.93641514e-001 0. -1.24850962e-002 3.73361111e-002
      -2.82785739e-004 2.39808159e-003 1.86111871e-002 -1.63196051e-003</_>
    <_>
      2.16140962e+000 1.53202128e+000 2.29357788e-003 8.75543617e-003
      2.74683931e-003 -1.47090442e-002 -4.11600806e-003 1.30613963e-003
      0. -2.70270277e-003 6.78444747e-004 8.40336177e-003
      1.59537699e-003 5.91271162e-001 4.88105938e-002 0.
      -3.62764567e-001 -1.06903479e-001 2.43844297e-002 -2.94028401e-001
      -2.02048738e-002 -2.61280030e-001 0. -3.92128527e-002
      -2.58940794e-002 -1.69795156e-002 -3.59119564e-001
      -7.51622245e-002 -1.04008652e-002 -3.98690859e-003
      -2.71441564e-002 -1.37456274e-003 9.43157636e-003 -6.93242997e-003
      3.30532700e-001 0. 0. 2.17730296e-003 -2.87356321e-003
      -1.37257390e-002 -1.39419269e-003 2.88066231e-002 -2.54553556e-003
      -2.20716633e-002 -1.61978826e-002 -3.62318847e-003
      -1.52167410e-001 0. 9.29754786e-003 -2.16648132e-002
      -3.84615385e-003 -8.44982918e-003 -1.98836207e-001 2.71048136e-002
      -7.19175674e-003 -3.54609918e-003 1.52435657e-002 1.39647499e-002
      -4.31792401e-002 -5.27691782e-001 -2.87356321e-003
      -2.29196772e-002 -6.01456314e-002 -3.84615385e-003 6.42822862e-001
      -7.86689520e-002 -2.61352509e-002 3.51917219e+000 -1.37970550e-002
      -4.27350448e-003 -2.36074775e-001 -7.33957216e-002
      -8.27334262e-003 -2.64358148e-002 -6.19051643e-002
      -6.17283862e-004 2.18587741e-001 -4.34792414e-003 -2.36966833e-003
      -8.87148902e-002 -5.62689267e-004 -1.05974358e-002 3.13289813e-003
      -2.36966833e-003 -1.23554580e-002 -2.67475098e-001
      -2.46765334e-002 -3.61332484e-003 -6.74953219e-003
      -9.01912674e-002 -1.24990076e-001 0. 0. -1.87920108e-002
      -5.64902127e-002 -4.31793323e-003 -1.71302687e-002 1.56746525e-002
      -1.37353316e-002 -1.47176329e-002 1.26605658e-002 -1.40513889e-002
      -2.22632196e-002 -9.80003178e-002 -2.13122368e-002 4.73335898e-003
      -6.88292226e-003 -5.43478271e-003 -7.01613072e-003 0.
      -1.68219469e-002 -2.36966833e-003 4.91584055e-002 -1.96788479e-002
      -1.95237901e-002 2.70976909e-002 -1.22056203e-002 4.23238892e-003
      -6.32589124e-003 -2.10745744e-002 -1.90931752e-001 1.19159646e-001
      1.51313771e-003 -1.28216604e-002 -4.34467383e-002 0.
      3.14095020e-002 -3.43441695e-001 -1.25252130e-003 -4.63333905e-001
      0. 5.92441810e-003 2.51555741e-002 -2.44575879e-003
      3.22019937e-003 -2.38800999e-002 2.04601741e+000 -8.45680758e-003
      -1.42707704e-002 -3.28947371e-003 3.48308049e-002 -5.32112978e-002
      -4.70968802e-003 -2.68817204e-003 -5.65878078e-002
      -6.84931502e-003 -3.31067704e-002 -2.87356321e-003
      -5.40540554e-003 -2.56065205e-002 -1.16013433e-003
      -1.53547470e-002 0. 6.14006817e-003 -1.58573896e-001
      -4.15856719e-001 -2.25536563e-002 5.63618317e-002 1.55543947e+000
      -1.74309790e-001 -4.52488707e-003 -1.45651698e-001
      -3.46583575e-002 -1.67732090e-002 -6.55476376e-002 0.
      1.34643028e-002 -1.67520806e-001 -5.94196767e-002 5.40949523e-001
      -5.40540554e-003 0. -4.01439220e-002 -2.26244354e-003
      -7.43645430e-001 -2.22141482e-002 2.46913591e-003 -6.44873828e-003
      -1.67573318e-002 -1.04325078e-002 5.96346706e-003 -6.80319071e-002
      -1.07631017e-003 -1.56111466e-002 -8.74277484e-003
      -3.02344412e-002 -1.43810804e-003 1.86389219e-003 0.
      -3.12340129e-002 -1.47178218e-001 -3.91723365e-001
      -7.64782950e-002 -2.75501460e-002 2.57731951e-003 6.54571876e-003
      -1.39741357e-002 -1.46608735e-002 -5.39096415e-001 2.07000766e-002
      -7.66159641e-003 -1.24297533e-002 2.43309001e-003 -1.08108111e-002
      0. 4.34803125e-003 -2.87356321e-003 3.21906176e-003
      -1.10664479e-002 2.68833876e-001 2.25733640e-003 4.42349389e-002
      -7.72364484e-003 2.29357788e-003 -8.18546340e-002 2.61972286e-003
      -2.06560772e-002 -1.14506936e+000 -3.54609918e-003
      -1.51695460e-002 -5.99285681e-003 0. -3.53838839e-002
      -2.66565867e-002 1.21241966e-002 -1.36491908e-002 1.54772829e-002
      -1.21389069e-001 -1.92310791e-002 -2.51875663e+000
      -2.75230408e-003 -4.82996926e-002 -2.68817204e-003
      -1.51560744e-002 -9.20740329e-003 -1.51413698e-002 4.58223000e-003
      5.68575505e-003 -2.29874924e-002 -5.79871237e-001 -2.14779694e-002
      -5.45608811e-003 -1.75530478e-001 -2.15836726e-002 1.88852716e-002
      -1.32787591e-002 -6.80118054e-002 -1.67504065e-002
      -1.21301669e-003 -5.02512557e-003 -2.39648623e-004 2.37447582e-002
      1.00561827e-002 -3.04621179e-004 1.63109391e-003 -2.14473568e-002</_>
    <_>
      2.50178099e+000 3.75072986e-001 -1.94426104e-002 -4.07952815e-002
      -5.82620455e-003 -3.22317630e-002 -6.30556643e-002 1.34644434e-002
      -5.89669570e-002 -2.44981125e-002 -1.05219916e-001
      -2.63774651e-004 -5.58699630e-002 1.18325621e-001 1.55035835e-002
      0. -1.76649958e-001 -6.84589967e-002 6.12221844e-002
      -1.12965778e-001 -5.22326156e-002 -3.06583256e-001 0.
      -2.08979659e-002 -4.36181575e-002 -3.42391208e-002
      -1.77161098e-001 -6.43477812e-002 -5.73615469e-002
      -8.49939063e-002 -3.34360749e-002 -9.80571881e-002
      -1.07178971e-001 -1.36946039e-002 1.20318279e-001 -1.15816323e-002
      -3.12812775e-002 -1.38730844e-002 -6.80941716e-002
      -1.62744503e-002 -1.94989890e-002 7.99945649e-003 -5.06709516e-002
      -3.97244655e-002 -3.10126115e-002 -1.28316088e-002
      -1.10106748e-002 -2.24605110e-002 -5.37434369e-002
      -4.27992195e-002 -5.68774715e-002 -7.44416844e-003
      -3.76734324e-002 1.80208012e-001 -6.99604824e-002 -2.85431296e-002
      -1.77887431e-003 6.96768938e-003 -7.83238634e-002 -9.08619352e-003
      -1.23979319e-002 -2.65714377e-002 -1.14350289e-001
      -6.64647575e-003 4.96477365e-001 -9.15318057e-002 -1.39076263e-002
      3.64079475e+000 -2.48606000e-002 -4.54722866e-002 -1.30338460e-001
      -1.39182642e-001 -2.91035045e-002 -3.68236713e-002
      -3.34626846e-002 -2.85948552e-002 5.80115952e-002 -1.03733931e-002
      -1.21865403e-002 -8.88126045e-002 -9.16665047e-003
      -4.51742373e-002 1.67940184e-002 -1.76155176e-002 -5.76243475e-002
      -8.15546736e-002 -6.19097613e-002 -2.64822673e-002
      -2.68951692e-002 -1.11851394e-001 -8.23145658e-002
      -3.32247443e-003 -7.38881156e-003 -3.13118063e-002
      -4.36873548e-002 -2.03872807e-002 -3.35308257e-003
      -1.25341401e-001 -3.06702554e-002 -5.26491143e-002
      -4.63681668e-002 -6.63761720e-002 -1.23508260e-001 4.33556214e-002
      -1.52950874e-002 -5.34047186e-002 -1.00158527e-001
      -2.92034149e-002 -6.19436940e-003 -2.35437714e-002
      -2.56611891e-002 -1.65869985e-002 -4.41610701e-002 3.26458924e-002
      -2.68032011e-002 -6.13144226e-002 -1.97779778e-002
      -9.60478038e-002 -3.59462313e-002 -3.60763934e-003
      -3.83343920e-002 5.12441769e-002 -8.99235010e-002 -4.22360227e-002
      -5.79527356e-002 -1.30977929e-002 2.75685429e-003 -8.38625506e-002
      -5.16398437e-002 1.29951909e-003 -3.30083482e-002 -8.48362595e-002
      -1.20200897e-002 -5.66866808e-002 -4.48255576e-002
      -5.94853088e-002 7.97632158e-001 -2.85927299e-003 -5.73465182e-003
      -4.99396771e-003 -1.75618508e-003 -6.48782700e-002
      -1.11019509e-002 -2.19669174e-002 9.09753982e-003 -1.37838116e-002
      -7.13524073e-002 -2.68411748e-002 -4.00248319e-002
      -2.42777020e-002 -4.73033823e-002 -3.84971239e-002
      -1.44202448e-002 -3.77120869e-003 -7.13001788e-002 1.16013065e-002
      -2.45944746e-002 -2.23696996e-002 2.36329961e+000 -4.27986771e-001
      -4.19462696e-002 2.38286727e-003 -1.57272384e-001 -3.01002245e-002
      1.75183397e-002 0. 0. -6.95769131e-001 2.87416186e-002
      2.08955079e-001 -4.06656750e-002 -3.25027406e-002 -1.60451420e-002
      -4.05731797e-002 5.76619543e-002 -1.03468575e-001 -7.21100941e-002
      -4.17197347e-002 -1.99060254e-002 -5.44746704e-002
      -2.37132106e-002 -8.70409459e-002 2.59081717e-003 -5.51563054e-002
      -4.40799072e-002 1.74174795e-003 -1.77394245e-002 -1.67241301e-002
      -3.59249208e-003 -5.32371290e-002 -1.11701727e-001
      -1.11270569e-001 -3.41275483e-002 -7.02083930e-002
      -2.85528265e-002 -1.72701120e-001 -2.01819483e-002 2.32440010e-002
      -1.13953367e-001 -4.13788930e-002 -3.06111481e-002
      -7.11063743e-002 -1.12012704e-003 -2.68957689e-002
      -1.81984846e-002 -1.27730183e-002 0. -4.33013290e-002
      -2.07122546e-002 7.53258765e-002 -3.28934193e-002 -1.77060999e-002
      -6.72766939e-002 -2.75291819e-002 -2.68636737e-002
      -5.02357632e-002 -2.50359960e-002 -3.87939692e-001
      -3.73928808e-002 -2.23416165e-002 -3.17437127e-002
      -1.42250042e-002 4.47375029e-002 -2.95642223e-002 -4.11629640e-002
      -2.92620659e-001 -7.05385581e-002 -3.96208744e-003
      -1.82019211e-002 -8.38621706e-002 -2.49213409e-002
      -1.36822201e-002 -2.40258705e-002 -8.08401033e-002
      -2.04065368e-002 -8.81834850e-002 -3.11430544e-003
      -5.71571812e-002 -4.74406406e-002 -7.88935721e-002 5.42807300e-003
      -1.04445880e-002 -1.04305334e-001 -5.10353148e-002
      -3.33491410e-003 -6.67042509e-002 -7.77981579e-002
      -6.92224130e-004 -7.66369551e-002 -5.92208244e-002
      -2.56434996e-002 6.61975667e-002 -1.34855611e-002 -2.89351447e-004
      1.78293809e-002 -3.46521512e-002</_>
    <_>
      2.59577084e+000 4.48532134e-001 -5.66559508e-002 -2.47266535e-002
      -2.90216170e-002 -2.36415751e-002 -5.00198007e-002 8.55907984e-003
      -5.06388322e-002 -7.04515204e-002 -5.84188215e-002
      -2.51023918e-001 -1.91591494e-002 1.84160084e-001 1.35498466e-002
      -9.19427723e-003 -1.01418495e-001 -5.16052358e-002 5.07312901e-002
      -7.16544390e-002 -2.37567350e-002 -2.67151408e-002 0.
      -7.60905258e-003 -5.54050542e-002 -6.51481971e-002
      -1.66619837e-001 -1.73922628e-002 -2.37661507e-002
      -3.24036181e-002 -1.04426488e-001 -7.39966780e-002
      -8.38001817e-002 -3.39174308e-002 1.32772818e-001 -5.25309481e-002
      -1.76607631e-002 -3.49644572e-002 -2.80942135e-002
      -7.32701793e-002 -1.91559587e-002 -8.21592435e-002
      -3.08049340e-002 -8.60846788e-002 -5.60882501e-002
      -3.66805568e-002 -3.64985526e-001 -6.31854013e-002
      -5.53378016e-002 -3.99803184e-002 -3.92057337e-002 0.
      -5.51838391e-002 2.02675447e-001 -2.52829921e-002 -3.28966565e-002
      -5.76116443e-001 -3.88708599e-002 -2.19235178e-002 1.04588103e-002
      -2.59526987e-002 -2.34921277e-003 -1.68990456e-002
      -5.49562313e-002 1.23990905e+000 -6.43488094e-002 -7.26939589e-002
      4.00261354e+000 -8.64938647e-002 -5.30372635e-002 -3.50657664e-002
      -3.63887660e-002 -3.65873985e-002 -3.29320244e-002
      -4.18633595e-002 -8.02603662e-002 8.11823234e-002 -1.17667336e-002
      -1.58876907e-002 -4.48336229e-002 -4.09263223e-002
      -3.47353704e-002 4.25649760e-003 -3.09074093e-002 -3.64589095e-002
      -1.91023815e-002 -4.22929265e-002 -2.76012253e-002
      -8.77179429e-002 -2.20069848e-002 -2.92387027e-002
      -1.47053912e-001 -7.65964612e-002 -1.10703312e-001
      -8.75625014e-003 -5.43492250e-002 0. -8.22546557e-002
      -1.61282383e-002 -5.48902415e-002 -6.40586838e-002
      -3.93021107e-002 -3.52362581e-002 -1.40536651e-001
      -1.59486812e-002 -3.29146892e-001 -3.30871232e-002
      -7.18165264e-002 -9.54426378e-002 -7.99676627e-002
      -3.26204970e-002 -3.87414694e-002 -3.05175800e-002 5.36905304e-002
      -2.63131969e-002 -2.00893790e-001 -9.22712833e-002
      -1.84554141e-002 -6.63538352e-002 -3.87401995e-003
      -6.24588616e-002 -1.02696612e-001 -9.30780694e-002
      -6.13256954e-002 -5.76182529e-002 -7.86501020e-002
      -1.49983421e-001 -6.62996694e-002 -3.65448631e-002 1.19647412e-002
      -9.92693529e-002 -4.59085517e-002 -2.28525624e-002
      -3.74847949e-002 -5.16347401e-002 -3.77937071e-002 7.67228961e-001
      -4.95292358e-002 -6.81309588e-003 -2.96766423e-002
      -3.39239329e-001 -1.00760749e-002 -1.04697850e-002
      -1.45579129e-001 -1.60472039e-002 -1.02845570e-002
      -2.12449774e-001 -3.76214162e-002 -2.95510944e-002
      -1.52387377e-003 -4.90333214e-002 -8.98123533e-003
      -4.25198413e-002 -5.56281768e-003 -1.82570349e-002 4.69332151e-002
      -3.75279263e-002 1.50951641e-002 2.38245583e+000 5.41418605e-003
      -2.73709334e-002 5.56921260e-003 -1.23807348e-001 -7.76970014e-002
      -9.44622755e-002 -3.86303919e-003 -2.76373383e-002
      -1.74371600e-001 -1.28629326e-003 1.97967902e-001 -3.19071636e-002
      -1.54692344e-002 -4.82845381e-002 -6.24290183e-002 9.75154489e-002
      -2.50456259e-002 -5.35067320e-002 -1.93557143e-002
      -5.04989326e-002 -1.96757577e-002 -2.58049998e-003
      -1.91813886e-001 -3.57593074e-002 -3.14307511e-002
      -3.25856134e-002 2.61110137e-004 -5.07455468e-002 -8.19518864e-002
      -4.19075042e-003 -2.13607103e-002 -3.80724948e-003
      -4.70109396e-002 -5.22746304e-005 1.49800582e-002 -3.83668020e-002
      -6.62426576e-002 -3.14092152e-002 8.35493580e-003 -8.50957781e-002
      -1.11681642e-002 -4.47716489e-002 -2.08999626e-002
      -9.24214430e-004 -2.16380935e-002 -6.49405792e-002
      -4.57967259e-002 -1.00502511e-003 -4.86260355e-002
      -1.90806612e-002 5.36421277e-002 -1.53007787e-002 6.04030956e-003
      -2.93692648e-002 -8.05205405e-002 -4.08833139e-002
      -4.80374359e-002 -1.85282845e-002 -1.58831537e-001
      -1.17722079e-001 -3.84368934e-002 -6.26611188e-002
      -7.74809197e-002 4.68461253e-002 -1.67137012e-002 -4.35795970e-002
      -1.09919593e-001 -3.89169641e-002 3.30033014e-003 -5.97067457e-003
      -2.82120794e-001 -1.36428168e-002 -5.09085367e-003
      -4.51850407e-002 -2.57441998e-002 -2.39134952e-001
      -6.97799306e-003 -5.47418483e-002 -5.08205816e-002
      -1.04355596e-001 -4.57062162e-002 -1.32570853e-002
      -6.21278994e-002 -1.89480763e-002 -6.24712929e-003
      -4.23770584e-002 -3.56047824e-002 -1.07947756e-002 1.83484540e-003
      -1.17246918e-001 -5.82638010e-002 -2.20698509e-002 2.88133398e-002
      -5.08901477e-002 -2.09269696e-003 -5.26639260e-002
      -6.81642145e-002</_>
    <_>
      2.79699826e+000 8.30903888e-001 -1.87970996e-002 -2.35890653e-002
      -5.02932817e-004 -5.44652678e-002 -9.88768861e-002
      -1.11169823e-001 -4.53663878e-002 -4.25685430e-003
      -8.91290233e-002 -6.57549277e-002 -3.77950780e-002 3.05579841e-001
      1.72647834e-002 -4.21099272e-003 -2.16465250e-001 -2.09889002e-002
      4.66692783e-002 -1.09488323e-001 -5.38021252e-002 -8.90707374e-002
      0. -1.81224998e-002 -6.59736246e-002 -4.04954553e-002
      -6.73716366e-001 -1.32571578e-001 -7.62026608e-002
      -1.85738727e-001 -2.01329570e-002 -8.92726108e-002
      -9.07410085e-002 -7.17759579e-002 2.01489866e-001 -2.64744321e-003
      -7.48823071e-003 -4.23444733e-002 -3.27000730e-002
      -1.53690623e-002 -2.91249659e-002 9.44237877e-003 -4.83042635e-002
      -1.67122949e-002 -1.08427824e-002 -9.45748482e-003
      -8.59132633e-002 -8.98444746e-003 -6.69569522e-002
      -6.98100254e-002 -3.10869981e-002 0. -1.79588795e-002
      3.24592382e-001 -9.99321565e-002 -3.00067160e-002 -1.70633197e-001
      1.72721259e-002 -1.50648668e-001 2.47060973e-002 -1.24688284e-003
      -5.61101187e-004 -1.78364247e-001 -1.68994423e-002 7.85442114e-001
      -1.57868803e-001 8.73193331e-003 4.74516392e+000 -1.89304017e-002
      -3.56796458e-002 -8.39769468e-002 -2.70292938e-001
      -5.07219136e-002 -3.37778330e-002 -9.17325243e-002
      -1.52346082e-002 1.08723380e-001 -3.50061357e-002 -1.38239898e-002
      -2.72486508e-001 -4.69234213e-003 -3.47959250e-002
      -2.54844874e-002 -1.19148046e-002 -2.25521196e-002
      -2.32944787e-001 -3.12160458e-002 -4.48839515e-002
      -1.49194989e-002 -8.41862485e-002 -1.67186886e-001
      -1.10440766e-002 -1.34087810e-002 -1.89083852e-002
      -7.93950073e-003 -2.87179258e-002 -1.52045051e-002
      -1.08685769e-001 -6.68018609e-002 -7.53374025e-002
      -6.65440559e-002 -5.41543178e-002 -1.01144969e-001
      -3.58946659e-002 -6.14933111e-002 -5.27367182e-002
      -8.63794237e-002 -2.83996165e-002 -5.97907323e-003
      -1.04879700e-001 -1.74820032e-002 -1.46405101e-002 4.78329882e-003
      6.41091540e-002 -4.24136892e-002 -1.09847873e-001 -2.69149300e-002
      -6.86734393e-002 -4.75218482e-002 -1.08342394e-002
      -4.72234786e-002 1.16095200e-001 -2.98475660e-003 -3.63079011e-002
      -4.83485684e-002 -3.38468747e-003 8.55916366e-003 -1.84561033e-003
      -7.23931193e-002 -3.07439081e-002 -1.52602829e-002
      -1.21740125e-001 -2.12585907e-002 -4.52228561e-002
      -5.12253679e-002 -5.36030680e-002 1.50550461e+000 -2.03697532e-002
      -2.91512404e-002 -2.09487360e-002 -6.14057742e-002
      -1.01650149e-001 -1.29592819e-002 -3.03322985e-003
      -2.21587252e-003 -1.47254495e-002 -5.22529781e-001
      -1.58552285e-002 -1.06919417e-002 -5.17201163e-002
      -1.45125642e-001 -6.44186363e-002 -7.70045724e-003 1.70027561e-004
      -4.44605872e-002 9.51131508e-002 -5.48260957e-002 -1.12360410e-001
      1.11975682e+000 -1.00410340e-004 -3.54797840e-002 5.78527339e-003
      -8.65540057e-002 -3.62194367e-002 -7.17055844e-003 0.
      4.50689439e-003 -1.17462717e-001 -4.40491810e-002 3.55786145e-001
      -3.22485194e-002 -5.97500764e-002 -1.83486240e-003
      -7.19025359e-002 2.11050242e-001 -1.31187156e-001 -4.72429171e-002
      -3.16079222e-002 -1.14447484e-002 -5.46097346e-002
      -2.18180064e-002 -2.07205236e-001 -7.83328153e-003
      -8.97051841e-002 -3.24959420e-002 -8.42593145e-005
      -2.48037688e-002 2.19386481e-002 -3.37332394e-003 -1.39577299e-001
      -2.06792668e-001 8.35004263e-003 -5.86804450e-002 -6.68433085e-002
      -2.92763524e-002 -3.67308587e-001 -2.77270563e-002 6.97459355e-002
      -2.07716525e-001 -2.33724639e-002 -6.92689717e-002
      -9.54806209e-002 0. -1.69110056e-002 -1.67322699e-002
      -9.84212533e-002 -5.26577141e-003 -3.74665447e-002
      -2.44700052e-002 1.27169371e-001 -3.13640870e-002 -8.72095823e-002
      -3.76176834e-002 -1.00076129e-003 -5.33161499e-002
      -3.73584367e-002 -1.56037146e-002 -6.06130473e-002
      -1.18264653e-001 -2.62534935e-002 -1.34689258e-002
      -5.43857068e-002 -6.13111071e-002 -1.41356392e-002
      -5.26144616e-002 -1.08350672e-001 -5.77326007e-002 3.30033014e-003
      -3.18621583e-002 -7.48770475e-001 -6.38379604e-002
      -3.41610573e-002 -1.64113659e-002 -1.68839082e-001 7.14284414e-003
      -6.17622919e-002 -1.22429021e-002 -2.05622781e-002 1.75119913e-003
      -2.41197929e-001 -3.72134475e-003 -4.49777395e-003
      -9.86900926e-002 -3.00571043e-002 1.06469318e-002 -1.46868214e-001
      -6.85156435e-002 -2.14266144e-002 -1.35378391e-001
      -5.65641373e-002 -2.11856049e-002 8.64359662e-002 -1.37843322e-002
      -1.67969484e-002 8.05322267e-003 -2.70558596e-002</_>
    <_>
      2.80638480e+000 4.42185193e-001 -3.59580219e-002 -2.70886486e-003
      -5.26077999e-003 -3.49049047e-002 -1.36058137e-001 1.66807752e-002
      -7.08699450e-002 -4.85648699e-002 -1.08608536e-001
      -1.58848286e-001 -4.23852466e-002 1.74273178e-001 1.81978438e-002
      -1.38846878e-002 -1.37370303e-001 -3.25316042e-002 3.40685584e-002
      -1.16338842e-001 -3.72833237e-002 -1.28227081e-002
      -2.79031973e-003 -1.89791061e-002 -8.33464488e-002
      -5.66481985e-002 -3.72548640e-001 -3.61406170e-002
      -5.09264804e-002 -8.26395750e-002 -8.08022544e-002
      -1.21315472e-001 -8.91757160e-002 -5.30884266e-002 1.07667550e-001
      -2.99006160e-002 -4.27161679e-002 -3.41712348e-002
      -2.44334787e-002 -4.53759171e-002 -2.33226866e-002
      -1.09601940e-003 -4.22937386e-002 -1.18052468e-001
      -4.24031727e-002 -5.18586226e-002 -1.72539413e-001
      -4.16764356e-002 -3.62413153e-002 -5.04661873e-002
      -4.35484387e-002 0. -1.54581983e-002 1.65402442e-001
      -5.20711467e-002 -3.74901555e-002 -2.26680622e-001 2.57303845e-003
      -3.91022563e-002 -2.69495193e-002 -1.42572010e-002
      -3.77676599e-002 -3.84945273e-002 -5.49360812e-002 8.50157082e-001
      -4.29981537e-002 -2.58283485e-002 3.73760962e+000 -5.55281527e-002
      -4.82879877e-002 -7.26271123e-002 -4.18532342e-002
      -5.05342409e-002 -5.60920127e-002 -5.12729771e-002
      -4.71802987e-002 6.33767769e-002 -1.97132211e-002 -1.72459893e-002
      -1.29004940e-001 -2.48048194e-002 -3.71763706e-002 1.04294447e-002
      -6.91662133e-002 -6.97659254e-002 -2.53127459e-002
      -6.66164458e-002 -4.43918295e-002 -4.07362767e-002
      -6.14458397e-002 -7.16589764e-002 -1.02468699e-001
      -3.11522521e-002 -1.22305349e-001 -1.44775370e-002
      -2.50643250e-002 -3.71409953e-003 -2.85977684e-002
      -2.54655965e-002 -3.78023200e-002 -5.43461256e-002
      -6.07104711e-002 -3.74321006e-002 -1.19251274e-001
      -2.34427564e-002 -1.33958727e-001 -2.11447570e-002
      -4.05848101e-002 -4.83234599e-002 -1.28626540e-001
      -2.91805621e-002 -3.60743888e-002 1.60936755e-003 1.86953433e-002
      -3.43905166e-002 -1.20569356e-001 -4.59295176e-002
      -6.49624988e-002 -3.22016664e-002 -1.14155570e-002
      -3.46332453e-002 5.38109690e-002 -7.54137039e-002 -3.75020877e-002
      -5.66705652e-002 -2.94699725e-002 -6.66279942e-002
      -3.85847762e-002 -8.70919973e-002 -6.29002787e-003
      -3.30742076e-002 -1.14968970e-001 -3.05008367e-002
      -3.55958939e-002 -4.44557108e-002 -7.02291876e-002 9.62921321e-001
      -1.49406055e-002 -1.05186654e-002 -1.57543141e-002
      -1.36587024e-001 -2.39627641e-002 -2.83190683e-002
      -8.70174617e-002 1.45333330e-003 -2.62252074e-002 -2.10524067e-001
      -7.36434534e-002 -5.72285950e-002 -2.67219339e-002
      -8.37836489e-002 -5.22049032e-002 -3.05202417e-002
      -1.15560489e-002 -6.78852061e-003 4.55429628e-002 -3.37448567e-002
      -3.79412919e-002 2.41152024e+000 -7.53979385e-003 -8.68819878e-002
      -1.49618797e-002 -3.06221753e-001 -4.67671007e-002
      -6.04678355e-002 -3.00592161e-003 -2.84537510e-003
      -2.62169272e-001 2.73295511e-002 2.12811902e-001 -4.03753854e-002
      -3.27315927e-002 -9.80311036e-002 -8.57288316e-002 7.02513009e-002
      -5.05638346e-002 -6.78279474e-002 -4.00547534e-002
      -4.89025079e-002 -3.48757058e-002 -1.78629328e-002
      -1.25874743e-001 -1.18699241e-002 -4.07587513e-002
      -6.39163330e-002 4.36212867e-003 -4.18849625e-002 -2.47655623e-002
      -1.54248914e-002 -4.20652553e-002 -1.29617238e-002
      -6.58986941e-002 -3.45526896e-002 1.10175004e-002 -2.38284785e-002
      -1.26291022e-001 -5.36813736e-002 4.74394411e-002 -1.70608498e-002
      -7.07809022e-003 -5.12088276e-002 -2.62602773e-002
      -4.80364915e-003 -4.24718596e-002 -2.87759006e-002
      -1.28102466e-001 0. -4.42417152e-002 -2.77503971e-002
      7.17944726e-002 -5.37666343e-002 -2.94842720e-002 -4.87915315e-002
      -2.35299785e-002 -4.94599156e-002 -2.92524919e-002
      -3.14224325e-002 -1.27382487e-001 -1.75741896e-001
      -3.39594111e-002 -3.76024172e-002 -4.44810949e-002 4.74642515e-002
      -5.01919314e-002 -5.94079234e-002 -1.51143983e-001
      -1.51085049e-001 -9.90815833e-003 -3.95313948e-002
      -2.46456534e-001 -2.83712242e-002 -4.73657250e-002
      -5.37392460e-002 -3.61549370e-002 6.30508317e-003 -2.56215353e-002
      -2.55553965e-002 -6.24772124e-002 -8.41373876e-002
      -9.23711956e-002 2.12854380e-003 -5.65907657e-002 2.06743963e-002
      -2.51981560e-002 2.31049233e-003 -5.31461909e-002 -4.05862145e-002
      8.51719920e-003 -1.50101006e-001 -6.61241710e-002 -2.56489646e-002
      9.25361924e-003 -5.52526973e-002 -2.56785657e-004 9.95288789e-003
      -6.74995482e-002</_>
    <_>
      2.53967929e+000 4.05316621e-001 -9.72346589e-002 -3.52732614e-002
      -4.48097140e-002 -4.56331149e-002 -1.44980907e-001 1.26186181e-002
      -9.33529362e-002 -7.75397867e-002 -1.82170477e-002
      -3.82889993e-003 -2.68566385e-002 1.53077140e-001 6.47117803e-003
      -5.57374917e-002 -6.24412447e-002 -4.22994196e-002 3.95122776e-003
      -4.05052975e-002 -4.24330272e-002 5.57890646e-002 -7.21500721e-004
      -3.48767191e-002 -8.18675458e-002 -7.79537708e-002
      -1.34084687e-001 -5.81547841e-002 -3.29680853e-002
      -2.49884706e-002 -1.43131837e-001 -8.39977711e-002
      -8.54931585e-003 -1.20727375e-001 1.26553759e-001 -9.70847309e-002
      -5.53372242e-002 -2.61514559e-002 -3.42431143e-002
      -7.62675554e-002 -3.03884745e-002 1.71368127e-003 -9.25382525e-002
      -6.44586533e-002 -7.03170076e-002 -1.25100851e-001
      -1.56757280e-001 -8.58437121e-002 -8.42540488e-002
      -6.25834167e-002 -5.03991619e-002 -1.45835715e-004
      -1.00930735e-001 2.12328598e-001 -4.41168509e-002 -1.07063919e-001
      -4.47704457e-002 6.51719468e-003 -2.52652168e-002 -1.20360414e-002
      -4.33974750e-002 9.05885070e-004 -6.88787922e-002 -1.37609214e-001
      1.23180258e+000 -3.54300588e-002 -3.79325226e-002 3.80603218e+000
      -1.11766525e-001 -5.34075201e-002 -2.28520073e-002 1.51542313e-002
      -3.55513245e-002 -5.38128987e-002 -3.62841710e-002
      -9.59215984e-002 7.33247101e-002 -2.68953815e-002 -2.32521668e-002
      -1.26316682e-001 -6.62032887e-002 -5.28825149e-002 6.03895215e-003
      -6.02464080e-002 -4.30117585e-002 -3.84444855e-002
      -3.06194481e-002 -8.76298919e-002 -8.06306601e-002
      -3.31698172e-002 -3.25533077e-002 -1.14567481e-001
      -5.73773682e-002 -8.04105923e-002 -1.90887973e-002
      -7.83369169e-002 -2.98040640e-003 6.88616652e-003 -3.93174812e-002
      -7.24172890e-002 -5.65555729e-002 -2.01662667e-002
      -2.53901146e-002 -8.30957107e-003 -2.58849394e-002
      -1.59172416e-001 -1.95201486e-002 -2.28532165e-001
      -4.39200439e-002 -1.75639689e-002 -2.20595784e-002
      -1.00104474e-001 -2.44720858e-002 4.06785198e-002 -7.62878358e-002
      -1.52029889e-002 -4.44574393e-002 -2.30874494e-002
      -6.26548454e-002 -7.30013521e-003 -4.95545566e-003 3.68895717e-002
      -3.31101865e-002 -3.49511504e-002 -5.08219972e-002
      -6.82272911e-002 -7.74638876e-002 -1.91957697e-001
      -4.31512557e-002 -6.28102897e-003 -1.09927274e-001
      -7.61670843e-002 -4.34810966e-002 -6.63758293e-002
      -1.06832005e-001 -6.05959147e-002 8.76163900e-001 -2.29192004e-002
      -1.05379969e-002 -2.27717757e-002 -3.80682983e-002
      -3.77578661e-002 -1.98472589e-002 -1.09032005e-001
      -8.31115339e-003 -1.73181500e-002 -5.19997366e-002
      -6.61553368e-002 -5.85367903e-002 -1.41632580e-003
      -1.89259186e-001 -9.20604318e-002 -6.14876784e-002
      -1.27609288e-002 -8.56709667e-003 3.35062072e-002 -6.52707666e-002
      -6.81569427e-002 2.27453756e+000 7.98683763e-002 -2.97331084e-002
      -1.08831916e-002 -1.31130368e-001 -6.37249798e-002
      -5.28429300e-002 -2.63168085e-002 -2.00261492e-002
      -9.02884603e-002 2.08944082e-002 2.20297799e-001 -6.82764947e-002
      -3.68193164e-002 -7.09415749e-002 -4.90064323e-002 1.30639747e-001
      -3.06738298e-002 -4.13985737e-002 -2.69883033e-002
      -8.65811706e-002 -7.28292391e-002 -1.66484863e-002
      -4.66887914e-002 -1.66154429e-002 -8.13570321e-002
      -4.48209941e-002 -1.40040601e-003 -6.75524697e-002
      -1.56908464e-002 -7.67430887e-002 -4.76940982e-002
      -1.42113967e-002 -8.72293022e-003 -1.20430058e-002
      -2.88450141e-002 -7.56082386e-002 -8.24363828e-002
      -1.02240652e-001 2.41222512e-002 3.14386711e-002 -4.44180034e-002
      -6.56085163e-002 -6.27271459e-002 0. -5.53444959e-002
      -6.20562769e-002 -3.37475687e-002 -6.02409651e-004
      -6.48665205e-002 -4.09149863e-002 7.29062706e-002 -7.29643404e-002
      -3.82357836e-002 -6.78392276e-002 -8.27444345e-002
      -4.97493483e-002 -8.02048892e-002 -4.48318385e-002
      -3.58630985e-001 -9.44198221e-002 -8.36679637e-002
      -6.17833547e-002 -3.38716991e-002 3.73781808e-002 -3.88942733e-002
      8.41304660e-003 -2.17853203e-001 -1.62297428e-001 -1.03883715e-002
      -4.81913313e-002 -8.08867961e-002 -1.15897954e-002
      -3.15945446e-002 -7.07000270e-002 -4.17011119e-002 6.78405305e-003
      -4.52468023e-002 -7.30441660e-002 -4.79707345e-002
      -8.57984200e-002 -1.39920767e-002 -1.59815550e-002
      -7.65247419e-002 7.61312200e-003 -5.95218726e-002 -1.66824777e-002
      -1.80888716e-002 -4.15677540e-002 -1.12748472e-002
      -4.06129211e-002 -7.26331919e-002 -5.57602532e-002 1.05745019e-003
      -5.89278452e-002 -2.23852713e-002 1.56433564e-002 -7.02812746e-002</_>
    <_>
      2.73204923e+000 4.73191798e-001 -2.82235909e-002 8.85164598e-004
      4.95272689e-003 -4.47128713e-002 -8.46629292e-002 1.26017174e-002
      -4.57571261e-002 -4.80880477e-002 -4.41234745e-002 8.40336177e-003
      -6.45153672e-002 1.74691126e-001 1.64032839e-002 -3.82968150e-002
      -9.45702642e-002 -6.71470389e-002 5.41466027e-002 -8.37835670e-002
      -3.78751606e-002 -1.41250230e-002 -1.08577637e-003
      -7.71450922e-002 -5.18153757e-002 -7.68224299e-002
      -3.03265005e-001 -6.99044913e-002 -4.02161330e-002
      -1.33534027e-002 -8.73754546e-002 -3.39434072e-002
      -4.43782955e-002 -3.03645898e-002 1.33187011e-001 -3.92340049e-002
      -3.85910384e-002 -8.66233022e-004 -2.59523336e-002
      -6.11126982e-002 2.31651729e-003 1.57429813e-003 -1.91246513e-002
      -6.95151687e-002 -4.69452702e-002 -8.70162174e-002
      -3.33702236e-001 -4.11511771e-002 -3.83277349e-002
      -5.14727943e-002 -2.82007866e-002 -5.90141583e-003
      -1.80393815e-001 2.25145116e-001 -6.40847981e-002 -2.83605307e-002
      1.46237609e-003 -2.80274879e-002 -3.45857367e-002 -8.46584979e-003
      -2.33298708e-002 2.15591514e-004 -7.36924708e-002 -5.75472787e-002
      9.80473816e-001 -1.19601101e-001 -1.27996160e-002 3.69608450e+000
      -3.47216837e-002 -8.20055902e-002 -2.16970295e-001
      -3.08256242e-002 -3.21931057e-002 -4.24033813e-002
      -5.68398461e-002 -4.99686673e-002 8.02771747e-002 -1.97065547e-002
      -1.75974742e-002 -3.70638341e-001 -3.70065570e-002
      -4.62513007e-002 1.18408632e-002 -3.72869372e-002 -5.15909716e-002
      -7.35781863e-002 -7.51111209e-002 -1.02994768e-002
      -5.85963316e-002 -1.02027483e-001 -1.80025488e-001
      -1.24688284e-003 -4.40543257e-002 -7.34911337e-002
      -8.87294337e-002 -8.37290380e-003 -2.53289076e-003 8.92175268e-003
      -4.58675660e-002 -3.19972299e-002 -6.45134598e-004
      -3.04867458e-002 -2.74536684e-002 -2.57033229e-001
      -1.54487547e-002 -2.17957482e-001 -1.95710063e-002
      -4.93404642e-002 -2.19965596e-002 -1.41843967e-003
      -8.61158669e-002 -3.74795347e-002 1.23819886e-002 1.92283206e-002
      -2.31179669e-002 -1.32358102e-002 -3.64598148e-002
      -1.82178039e-002 -1.04968712e-001 -6.51665404e-003
      -4.17158343e-002 4.55973223e-002 -8.82469341e-002 -4.01009656e-002
      -3.82818840e-002 -3.71286944e-002 -3.03009488e-002
      -2.89141089e-001 -4.53517139e-002 -7.53029576e-003
      -7.09254146e-002 -1.72678921e-002 8.25952366e-003 -3.79641764e-002
      -2.93400995e-002 -5.45826033e-002 9.03773963e-001 -1.31329428e-002
      -6.45438861e-003 -1.95502248e-002 1.42042590e-002 -5.92321418e-002
      -1.20952390e-002 -6.03450611e-002 1.93799729e-004 -3.32161635e-002
      -2.04372630e-001 -5.09888604e-002 -4.63928245e-002
      -1.63167750e-003 -9.13907588e-002 -4.79741134e-002
      -2.63642687e-002 -1.20249223e-002 -1.07522584e-001 4.60590683e-002
      -1.97046194e-002 -8.74148682e-002 2.39903855e+000 -1.02737449e-001
      -9.35293287e-002 -1.70278866e-002 -2.30431870e-001
      -6.04279600e-002 -4.12923433e-002 -3.16626858e-003
      -2.01473781e-003 -3.93207848e-001 1.95693057e-002 2.31739700e-001
      -2.40470376e-002 -4.01113406e-002 -3.40837762e-002
      -4.78605554e-002 3.89455166e-003 -6.28039166e-002 -5.37418462e-002
      -2.79162806e-002 -5.68543449e-002 -2.11066604e-002
      -1.71345510e-002 -4.21380438e-002 -1.35360537e-002
      -6.78235218e-002 -5.14065847e-002 -6.54593762e-003
      -3.73193957e-002 8.91991984e-003 -1.89151075e-002 -4.18765694e-002
      -3.50337662e-002 -4.81626950e-002 -2.07405612e-002 3.34096490e-003
      -1.43813668e-002 -7.80022591e-002 -5.48938215e-002 8.70982558e-003
      1.34444050e-002 3.22554260e-003 -3.35474163e-002 -4.13591042e-002
      -4.13943594e-003 -3.41211110e-002 -2.74773147e-002 6.03834400e-004
      -5.21956943e-003 -3.21486369e-002 -2.99609490e-002 6.51288927e-002
      -3.42687182e-002 -2.98728123e-002 -6.71179146e-002
      -4.45018448e-002 -5.68604060e-002 -1.20641375e-002
      -1.83582939e-002 -4.94531274e-001 -3.08219567e-002
      -7.16589540e-002 -3.14600542e-002 -3.53375683e-003 3.82028930e-002
      -3.76974121e-002 9.31879506e-003 -3.94527197e-001 -1.88786283e-001
      -2.06494424e-002 -1.91864632e-002 -1.28872558e-001
      -6.62304275e-003 -7.50745684e-002 -3.92730199e-002
      -4.43030372e-002 9.16102994e-003 -3.10703386e-002 -2.85642128e-002
      -8.39895830e-002 -8.68035927e-002 -2.82963812e-001
      -3.73900193e-003 -3.14209647e-002 -5.26405405e-003
      -2.42919698e-002 1.76355406e-003 -1.65316723e-002 -7.27036968e-002
      -1.09612700e-002 -5.88753410e-002 -6.42033666e-002
      -3.23479846e-002 -2.91997637e-003 -2.64960155e-002
      -1.26791093e-003 1.35466969e-002 -5.47872894e-002</_>
    <_>
      1.37489116e+000 -1.09731936e+000 0. 0. 3.61603126e-003 0.
      2.97619053e-003 4.10552649e-003 0. 0. 5.75154554e-005 0. 0.
      -2.25410604e+000 1.05097359e-002 0. 1.45565830e-002
      7.23052677e-003 4.23550755e-002 1.01496512e-002 0. 2.66924072e-002
      0. 0. 0. 0. 2.92837750e-002 5.69800567e-003 0. 2.97619053e-003 0.
      1.52820710e-003 -1.50209584e-003 0. 7.90129229e-002 0. 0.
      3.12500005e-003 0. 0. 5.69800567e-003 5.69800567e-003
      2.97619053e-003 0. 0. 0. 1.12827737e-002 0. 0. 0. 0. 0. 0.
      7.83061087e-002 2.84900283e-003 0. 0. 7.15183886e-003 0.
      7.44292140e-003 0. 0. 0. 0. 4.44309592e-001 0. 4.23466787e-003
      1.52452421e+000 0. 0. 0. 5.75396838e-003 2.84900283e-003
      2.08782428e-003 0. 0. -1.18984342e+000 6.58691628e-003 0. 0. 0. 0.
      3.12500005e-003 0. 0. 3.12500005e-003 3.12500005e-003
      3.12500005e-003 0. 0. 0. 0. 0. 0. 0. 0. 0. -6.62377626e-002 0.
      2.97619053e-003 7.13459682e-003 0. 0. 1.47227524e-002
      2.84900283e-003 2.57731951e-003 -2.76360428e-004 0. 0. 0. 0. 0.
      1.16547011e-002 2.02280767e-002 0. 2.84900283e-003 0.
      3.12500005e-003 0. 0. 2.50212140e-002 -2.76848108e-001 0.
      2.84900283e-003 0. 0. 1.35059357e-002 2.08782428e-003 0.
      5.75396838e-003 0. 1.52820710e-003 3.12500005e-003 0. 0. 0.
      3.54440510e-001 0. 6.10119058e-003 0. 5.62678091e-003 0.
      1.52820710e-003 0. 0. 0. 0. 0. 0. 0. 0. 0. 0. 1.12515157e-002
      1.54761905e-002 4.55951365e-003 2.84900283e-003 7.62939779e-003
      9.40350890e-001 4.64795046e-002 0. 0. 3.12500005e-003 0.
      8.56011827e-003 0. 0. 0. 1.20465420e-002 1.10574134e-001 0. 0. 0.
      0. -3.45991850e-002 0. 0. 0. 0. 0. 9.09900293e-003 8.54700804e-003
      0. 2.97619053e-003 0. 2.84900283e-003 0. -7.16380868e-003 0.
      5.97400311e-003 6.25000009e-003 2.81098709e-002 3.12500005e-003
      5.95238106e-003 2.57731951e-003 0. 0. -1.51510164e-001
      3.96361537e-002 0. 0. 2.97619053e-003 0. 0. 0. 0. 0. 0. 0.
      -5.89899421e-001 0. 4.37721005e-003 0. 0. 0. 2.97619053e-003 0.
      4.37721005e-003 0. 0. 0. 0. 9.71722230e-003 0. -2.33692136e-002
      2.08782428e-003 9.07738134e-003 0. 0. 8.91715512e-002
      1.32002151e-002 0. 0. 0. -4.42689210e-002 0. 0. 3.12500005e-003 0.
      0. 5.82519360e-003 0. 1.21323457e-002 0. 0. 5.95238106e-003 0.
      5.75396838e-003 0. 0. 0. 4.22841720e-002 5.69800567e-003 0.
      4.66514379e-003 2.84900283e-003</_>
    <_>
      2.40739846e+000 8.64204526e-001 -7.23646209e-003 7.81724136e-003
      1.05962092e-002 -3.67089994e-002 -1.00871893e-002 4.26347330e-002
      0. 0. 8.12048465e-003 -2.75686616e-003 1.35243055e-003
      3.13862979e-001 3.86892222e-002 -9.98361036e-002 -4.02961791e-001
      -2.10883588e-001 9.90282446e-002 -4.87407714e-001 -3.11703384e-002
      -6.42595112e-001 -5.46653010e-002 -3.23102355e-001
      -1.28026288e-002 2.72479560e-003 -4.90170807e-001 -2.20360383e-002
      -1.29796509e-002 8.47733766e-003 -1.00255720e-002 5.71763562e-003
      7.60975899e-003 -3.17086844e-004 2.12418914e-001 0. 0.
      5.93354460e-004 0. -6.01522671e-003 6.28289068e-004
      1.25265401e-002 -5.05283847e-003 -4.38144198e-004 -3.50773684e-003
      -9.25408583e-003 2.07104217e-002 0. 3.79379210e-003
      -1.17665278e-002 -2.91545200e-003 -1.45881221e-001
      -9.06337440e-001 3.81185383e-001 -3.51742725e-003 -5.06329117e-003
      -3.23033109e-002 -5.47534903e-004 -6.71601482e-003
      -5.93821798e-003 0. 1.44865727e-002 -2.10854001e-002
      -3.26797389e-003 4.68821585e-001 0. 5.76293189e-003
      4.09960890e+000 2.48138956e-003 -3.36700329e-003 2.29357788e-003
      3.81860845e-002 2.84900283e-003 -1.42804952e-003 -2.34692208e-002
      -3.93799599e-003 1.11836694e-001 5.17135765e-003 -1.17090829e-002
      -4.51111933e-003 -3.34869325e-003 -5.07743214e-004 2.52787285e-002
      -3.28947371e-003 -1.78120297e-003 1.15734218e-002 -3.60900653e-003
      -7.78480247e-003 -3.34448158e-003 -6.47914689e-003 0.
      -2.23258231e-002 -3.12500005e-003 -3.83821363e-003
      -1.17866516e+000 -3.05544143e-003 -1.39612198e-001 3.20159867e-002
      2.48138956e-003 -5.06547745e-003 1.29005210e-002 4.79616318e-003
      -1.51469819e-002 -3.11648577e-001 -2.10766383e-002
      -1.84072927e-001 -5.78536093e-003 0. -1.58400759e-002 0. 0.
      -3.37837846e-003 2.47038975e-002 1.02193810e-001 -1.30539099e-002
      2.79814675e-002 -3.36700329e-003 6.71750680e-003 -2.87356321e-003
      -1.47849470e-001 -7.43050873e-002 1.39725283e-001 1.50069548e-003
      9.56878066e-003 -6.24218844e-002 0. -4.94861193e-002
      -1.73448563e-001 -6.21874118e-004 1.43257752e-002 0.
      3.62682855e-004 1.39263328e-002 -5.39283268e-004 -8.63092020e-004
      -3.17086844e-004 1.45836115e+000 0. 3.56311956e-003
      -5.37093217e-003 -4.35286537e-002 -5.13302386e-002 3.20794061e-004
      -3.52112669e-003 1.98258832e-002 0. 3.24113225e-003
      -6.87683141e-003 -3.35570471e-003 -2.46433001e-002
      -1.19899437e-002 -5.66572230e-003 -3.36700329e-003 2.24545673e-002
      -1.34418857e+000 1.03962883e-001 -2.30778717e-002 1.55705940e-002
      1.77242005e+000 -4.95360792e-001 -6.67901523e-003 -1.13064595e-001
      -2.26105720e-001 -7.00694602e-003 2.71150786e-002 -1.86337195e-002
      1.00324843e-002 -6.59451008e-001 4.43088822e-002 4.20894891e-001
      -6.06845133e-003 -3.53356893e-003 -1.07561182e-002
      -2.91545200e-003 -1.94540083e-001 -4.35784906e-002
      -6.55864133e-004 -9.68589541e-003 -8.45367741e-003
      -3.92452255e-003 8.29529203e-003 1.97322946e-002 7.07599567e-003
      1.43329380e-004 -1.79583300e-002 -1.75004527e-001 3.84490262e-003
      3.27459760e-002 -7.59805888e-002 -4.72601503e-003 4.43048328e-002
      -6.54599011e-001 -1.13688447e-002 2.91131251e-002 -2.11769845e-002
      7.79604632e-003 -6.48436183e-003 3.67428213e-002 -6.39405986e-003
      6.32568263e-004 -3.04551749e-003 -3.26649961e-003 -6.89222813e-002
      0. -1.25020565e-002 -4.30805143e-004 -1.36105374e-001
      2.25733640e-003 -3.87524441e-003 1.32500648e-001 1.94024958e-003
      2.93284785e-002 -1.91844022e-003 2.29357788e-003 -1.96081139e-002
      -1.02592655e-003 0. -1.66940808e+000 -2.53164559e-003
      -5.07614203e-003 0. 0. 5.97248599e-002 -6.65856898e-003
      1.21241966e-002 -4.78359945e-002 -7.93883446e-005 -5.95045742e-003
      -6.38977624e-003 -8.50101709e-001 2.03009732e-002 -3.99528146e-001
      -3.52112669e-003 -9.89629701e-003 1.86075680e-002 -1.25379721e-002
      1.74936885e-003 -1.01567116e-002 -2.60729231e-002 -5.41545171e-003
      1.86468121e-002 0. 4.39785467e-003 -2.69300193e-002
      1.01361535e-002 1.22357355e-002 0. -6.66148146e-004
      -7.59493653e-003 -2.53164559e-003 -3.36784986e-003 1.31832093e-001
      1.00561827e-002 -7.09455274e-003 3.23585421e-002 -5.86042460e-003</_>
    <_>
      2.37650084e+000 4.31819469e-001 -1.80839151e-002 4.61893762e-003
      -1.37572316e-003 -3.77980173e-002 -3.73981833e-001 3.06722568e-003
      -5.44906296e-002 -2.03252025e-003 -1.20717715e-002
      -2.97714379e-002 -1.82127636e-002 1.52014926e-001 1.80803090e-002
      -1.36745675e-002 -7.33441412e-002 -5.71265742e-002 6.28087893e-002
      -4.26038541e-002 -1.74176637e-002 -3.75196002e-002 0.
      -6.05099685e-002 -7.76357800e-002 -1.98187027e-002
      -3.27809840e-001 -3.51449326e-002 -7.85772130e-003
      -5.31109534e-002 -5.52621558e-002 -1.50614560e-001
      -2.41806777e-003 -5.63958064e-002 1.33959979e-001 -4.67802305e-003
      -6.04337547e-003 -5.86267002e-003 -1.23890219e-002
      -4.16245237e-002 -3.27753089e-002 1.81386434e-003 -4.70204711e-001
      -1.07699409e-002 -2.52374709e-002 -2.18251236e-002
      -1.47120878e-001 -2.56955344e-002 -4.16189246e-002
      -5.82068674e-002 -2.36007348e-002 -4.72450443e-003
      -3.54609918e-003 2.25905657e-001 -7.09343553e-002 -7.30988979e-002
      -6.65717274e-002 -1.83665957e-002 -7.75405951e-003
      -1.87161041e-003 -5.50172897e-003 1.51860644e-003 -4.86337617e-002
      -2.89062038e-002 5.23756027e-001 -2.52676085e-002 2.48138956e-003
      4.15871763e+000 -1.52975926e-002 -1.78806111e-002 -5.62486378e-003
      2.81503703e-002 -1.86927896e-002 -2.92759202e-002 -1.80955127e-001
      -2.63000168e-002 7.18260109e-002 -1.62742827e-002 -1.28018148e-002
      -9.54617932e-002 -2.51111556e-002 -2.55582035e-002 2.04861127e-002
      -4.19281460e-002 -2.23258743e-003 -3.24730277e-002
      -7.27516413e-003 -6.46853969e-002 -7.29463529e-003 2.10084044e-003
      -4.35505062e-002 -1.20541416e-001 -1.95312500e-003
      -5.22745438e-002 -4.40174341e-002 -1.41980611e-002
      -6.81720907e-003 9.26448964e-003 -2.09871791e-002 -9.87809803e-003
      -6.93758503e-002 1.03994238e-003 -1.93917938e-002 -2.30905935e-002
      -3.76682952e-002 -2.15860128e-001 5.49075101e-003 -9.16920975e-002
      0. -1.22996429e-002 -1.47823477e-002 -2.61852518e-002
      2.28254721e-002 3.87831405e-002 -2.87483424e-001 -5.97724244e-002
      -5.71952611e-002 -1.30281867e-002 -4.16487269e-002
      -1.89709477e-002 -1.04966506e-001 6.28809482e-002 -1.76783036e-002
      -2.67115533e-002 -4.91683781e-002 -4.88966331e-003
      -1.33314252e-001 -4.27618176e-002 -1.36915058e-001 2.75294646e-003
      -4.99313958e-002 -3.37618828e-001 -7.12798908e-002
      -1.13195637e-002 -2.30882186e-002 -2.37062760e-002 5.92115939e-001
      -2.31031943e-002 -5.52729284e-003 -7.53516564e-003
      -5.80542862e-001 -2.00065505e-002 -5.67336753e-003
      -2.76405811e-002 -2.10405178e-002 -9.42010805e-003
      -7.36662373e-002 -1.90243274e-002 -4.69622277e-002 4.84397169e-003
      -2.29014248e-001 -8.56738612e-002 -1.40559115e-002 1.98431476e-003
      -3.78391854e-002 5.51906377e-002 -3.03500175e-001 -1.23726204e-001
      1.83853114e+000 -2.47415975e-002 -1.67563986e-002 -1.32335639e-002
      -1.17458023e-001 -5.56935780e-002 -6.96206815e-004
      -1.73422322e-002 -1.35715082e-002 -1.05352312e-001
      -2.97604445e-002 2.36376002e-001 -6.47001294e-003 -1.00362666e-001
      -3.95849459e-002 -4.21431214e-002 6.69853017e-002 -2.69614998e-002
      -3.58196497e-002 -3.09975203e-002 -1.07351467e-002
      -1.09429866e-001 -4.51484276e-003 -3.01641166e-001
      -6.08104467e-003 -4.41534817e-002 -3.98948453e-002
      -1.48136690e-002 -4.34055440e-002 1.89066008e-002 -1.95768233e-002
      -1.51940733e-001 4.45238547e-003 -3.42067741e-002 1.17187505e-003
      1.35129262e-002 -1.69996042e-002 -9.05574933e-002 -3.87222469e-002
      1.58000030e-002 -1.27521068e-001 -4.05294960e-003 -1.61194786e-001
      -1.78162381e-002 0. -6.60944637e-003 -8.36290792e-003
      -5.72480150e-002 -2.05672272e-002 -2.02518702e-002
      -9.67198797e-003 7.97885284e-002 -1.96666196e-002 -1.19543515e-001
      -9.22457781e-004 -5.70348185e-003 -1.79907203e-001
      -1.21876113e-002 -1.83122139e-002 -4.54152636e-002
      -3.18652511e-001 -1.11071824e-003 -8.35603289e-003
      -4.29504551e-003 1.95207857e-002 -9.10748169e-003 -5.00391563e-003
      -1.26771495e-001 -1.17693879e-001 -5.48723014e-003
      -1.95690859e-002 -3.67804676e-001 -1.59493238e-002
      -2.25511696e-002 -8.79061967e-003 -1.19794002e-002 1.35965981e-002
      -4.46276320e-003 -1.08595239e-003 -3.43831219e-002
      -6.25487864e-002 -3.99860442e-002 2.39141681e-003 -6.68860460e-003
      2.33256537e-002 -2.31220387e-002 2.75024376e-003 -8.59582145e-003
      -1.28951976e-002 -4.83393529e-003 -7.61166066e-002
      -1.09796070e-001 -7.06642494e-003 5.67811765e-002 -1.13869831e-002
      -1.92471175e-003 -4.66289883e-003 -5.43669797e-003</_>
    <_>
      2.83200097e+000 9.60639596e-001 2.29357788e-003 -6.07390068e-002
      1.91259459e-002 0. -4.91926121e-003 4.97859940e-002
      -3.65914777e-003 0. 1.26867439e-004 -2.23179722e+000
      7.78419245e-003 5.73946357e-001 1.19556384e-002 -3.49458703e-003
      6.37132898e-002 1.42421294e-002 -1.05004236e-002 2.55948044e-002
      -2.82885996e-003 2.08591446e-001 0. -7.42926029e-004 0.
      5.15788561e-003 -1.05269082e-001 7.95534253e-003 -1.67504186e-003
      -5.01035042e-002 0. -2.43621171e-002 -4.78580818e-002
      -1.53374230e-003 3.79563332e-001 0. -1.90476188e-003
      -1.04674570e-001 0. -1.09289621e-003 -1.56341624e-002
      -2.50427984e-004 -4.40348312e-002 2.06185575e-003 0.
      -6.21264288e-003 -3.47766876e-002 0. 9.29754786e-003
      -1.90476188e-003 -1.90476188e-003 -4.61390056e-003
      -5.10787033e-002 2.00207338e-001 -4.66196332e-004 -2.61750408e-002
      -2.12493658e+000 2.77209934e-002 0. -2.97198109e-002
      -8.06157105e-003 1.01161953e-002 -7.50871561e-003 -3.08907544e-003
      1.17899740e+000 0. -9.11648497e-002 3.58500147e+000
      2.48138956e-003 0. 2.29357788e-003 -1.72973319e-003
      -4.13340633e-004 8.75966530e-003 -5.08441217e-003 1.05270534e-003
      1.93630517e-001 -8.20326060e-003 -1.38696260e-003 1.91727025e-003
      7.68757472e-003 3.82566592e-003 -1.19162060e-001 0.
      2.30946881e-003 8.05867743e-003 3.12500005e-003 -1.42132665e-003
      0. 2.10084044e-003 0. -3.67298834e-002 0. 0. -2.39545759e-003
      -1.06970761e-002 -6.29623793e-003 -3.13660912e-002
      -3.20606050e-004 3.49725224e-003 -3.02298546e-001 4.79616318e-003
      -3.08655202e-003 -8.27781707e-002 -5.54034673e-003
      -1.11035943e-001 -4.06924225e-002 -1.58982514e-003
      -1.10301621e-001 -1.96578190e-001 0. 0. 3.24673466e-002
      1.04167968e-001 -8.08408763e-003 -1.29573032e-001 -5.70293004e-003
      1.16956874e-003 -5.55042550e-003 2.49376567e-003 7.79576972e-002
      -3.05621058e-001 3.13312374e-003 9.56878066e-003 -3.69275874e-003
      -1.41643058e-003 1.75237749e-002 8.44899751e-003 -9.01296642e-003
      -6.97866455e-002 0. -7.09245205e-002 -1.34575412e-001
      -3.79097182e-004 6.43764809e-003 0. 6.46428883e-001
      5.04757627e-004 6.84913108e-003 -3.25241219e-003 -1.44461870e+000
      1.07113156e-003 2.42715818e-004 0. 1.01959398e-002
      -1.90476188e-003 -1.81197170e-002 0. -3.65630724e-003
      6.47059293e-004 -5.86264394e-003 -3.45755694e-003 0.
      3.15514393e-002 3.85367647e-002 -5.46725988e-002 9.44240950e-004
      8.52176249e-002 -6.60032481e-002 6.99441433e-002 -1.58730161e-003
      6.36147754e-003 9.13904794e-003 -3.09147243e-003 1.92860384e-002
      -4.76947520e-003 -7.19074190e-001 6.19353773e-003 1.93655789e-002
      5.01962483e-001 -2.39321846e-003 -9.25320666e-003 -5.58279804e-004
      -1.05457781e-002 8.10764283e-002 0. 2.46913591e-003
      -6.61199447e-004 0. 5.22756716e-003 1.06508061e-002
      -9.13578793e-002 7.07599567e-003 2.97619053e-003 0.
      5.73560828e-003 4.79616318e-003 2.49317773e-002 -6.09198958e-003
      3.75758577e-003 3.75664569e-002 1.11126013e-001 -8.19695415e-004
      3.24801281e-002 1.16489013e-003 1.19210072e-002 0.
      -1.66672051e+000 1.13609329e-001 9.50749405e-003 6.99973293e-003
      3.80563969e-003 1.13438873e-003 0. 0. -3.12395751e-001
      -1.90476188e-003 -3.95051087e-004 2.29357788e-003 2.32748926e-001
      2.25733640e-003 4.03469689e-002 7.00238044e-004 6.18536025e-004
      -4.47977288e-003 9.35053546e-003 0. -6.26368746e-002
      -4.46312398e-001 -1.12739566e-003 -1.09289621e-003
      -2.21112728e-001 5.80592416e-002 -1.55520998e-003 -3.02300081e-002
      -1.42209120e-002 4.45227250e-002 -1.05376430e-002 -1.29870127e-003
      3.22912224e-002 2.44605318e-002 -7.03837024e-003 0.
      2.13675224e-003 -9.47711647e-001 -7.83976400e-004 2.67746812e-003
      3.59870754e-002 3.11361160e-003 -8.31772340e-004 -6.09323243e-003
      0. 3.55948023e-002 0. 5.21488395e-003 1.31052304e-002 0.
      2.36294381e-002 -1.28148258e-001 -1.67504186e-003 2.46305414e-003
      2.31093355e-002 1.00561827e-002 -4.24464699e-003 3.33939083e-002
      1.04394869e-003</_>
    <_>
      4.93295860e+000 2.83392400e-001 -1.97628466e-003 -1.04834959e-001
      -1.83210060e-001 0. -2.20824499e-003 -2.64563113e-002
      -5.43101737e-003 -2.03252025e-003 -4.24470985e-003
      -2.51503102e-003 -4.98483423e-003 -1.67424560e-001
      -1.51311696e-001 0. 4.42725867e-002 1.97237451e-002
      -4.28540446e-002 1.44866854e-002 0. 1.57231584e-001 0.
      2.25733640e-003 0. 3.38797411e-003 1.53820887e-002 2.15886114e-003
      -3.84018617e-003 -5.17545044e-002 -7.08883302e-003
      -1.34972101e-002 -2.29956135e-002 0. 2.05635741e-001 0. 0.
      -5.37797390e-003 0. -2.14592274e-003 3.68997362e-003
      -4.94749323e-002 -7.44456658e-003 1.06936938e-003 0.
      -3.83953378e-003 -1.80197030e-001 0. -4.34618257e-003
      -1.86915894e-003 0. 0. -1.95694715e-003 7.65791014e-002
      -4.51771030e-003 0. -1.39183804e-001 -6.89752698e-002
      -3.62877757e-003 -4.33647707e-002 -5.22215897e-003 3.21992929e-003
      -2.29781284e-003 0. 3.78791660e-001 -9.27339494e-003
      -5.82793057e-002 1.23533690e+000 -7.60101480e-004 -2.00803205e-003
      -1.95462331e-002 -1.36415973e-001 -2.65719788e-003
      -2.31009698e-003 -1.97628466e-003 2.46913591e-003 1.49051296e-002
      -1.86347868e-004 -1.95694715e-003 -4.24611149e-004 5.67954266e-003
      8.93293764e-004 -6.28214031e-002 0. 6.31616451e-004
      -4.01322655e-002 3.12500005e-003 -1.34155375e-003 -3.41607770e-003
      -1.54340817e-002 -1.21889766e-002 -7.76615972e-003
      -2.00803205e-003 -1.80180185e-003 2.72479560e-003 -1.50276214e-001
      0. -5.87136336e-002 -2.45468803e-002 3.10074631e-003
      -2.09592521e-001 -4.06957814e-004 -4.48762774e-002
      -9.58737433e-001 -3.53654311e-003 -2.62724161e-001
      -7.12149516e-002 0. -3.50459218e-002 -7.19246780e-003
      -7.17286719e-003 -3.33333341e-003 8.86205584e-003 -3.73729356e-002
      -2.94714235e-003 -1.43362442e-002 0. -2.47556325e-002
      -3.53582576e-003 2.49376567e-003 2.72587240e-002 -3.63449275e-001
      5.03426418e-003 7.90211372e-003 0. -1.58730161e-003
      -3.63181859e-001 -2.30032718e-003 0. -3.86708938e-002
      -3.76666826e-003 -2.33690883e-003 -6.15000427e-002
      -3.70066077e-003 4.92637744e-003 0. -3.25910115e+000
      -7.40185007e-003 4.26968886e-003 -3.41607770e-003 -1.59018010e-001
      -2.83384416e-003 3.23624606e-003 -3.34451906e-003 -1.13364927e-001
      0. -3.87801565e-002 0. 0. 9.94554814e-003 -1.10347169e-002 0. 0.
      9.19663114e-004 3.27765942e-002 -9.54465196e-002 1.34070718e-003
      6.55621439e-002 2.16589785e+000 -8.59505832e-002 0.
      -2.49978551e-003 1.06788743e-002 -1.76991150e-003 -9.51611847e-002
      0. -1.48044363e-001 -2.89076958e-002 -2.23711982e-001
      3.41350079e-001 -2.03252025e-003 0. -7.93664344e-003
      -6.65187184e-003 4.38770615e-002 -6.12334721e-003 2.46913591e-003
      -2.03252025e-003 -4.00880491e-003 1.19341910e-003 1.33498618e-002
      -2.00776588e-002 -1.65823400e-002 -6.30918751e-003 0.
      5.24708442e-003 2.78813113e-003 1.67013295e-002 0. 3.21554532e-003
      1.79531649e-002 1.10301211e-001 3.12500005e-003 -1.11841939e-001
      -4.29521874e-003 -6.20602630e-002 -3.47318454e-003
      -9.50771689e-001 1.18736669e-001 -1.46799982e-002 2.49376567e-003
      -7.39630125e-003 2.43309001e-003 0. -3.59713403e-003
      -1.49108637e-002 0. -3.05866972e-002 -1.58730161e-003
      5.86464889e-002 -3.21854302e-003 3.16062346e-002 -3.06718657e-003
      0. -1.58730161e-003 -5.08360714e-002 -5.23233879e-003
      2.67250743e-002 -6.39019459e-002 -1.89035921e-003 0.
      -1.47860628e-002 -8.58376026e-002 -5.12448791e-003
      -3.81097943e-002 3.11834808e-003 4.11130041e-002 -9.65326093e-004
      0. 2.34028816e-001 2.30987854e-002 2.72479560e-003 0.
      -1.25237526e-002 -2.36013293e-001 2.72479560e-003 9.85199818e-004
      -2.35380977e-003 -1.40231091e-003 -2.24439539e-002
      -1.18184369e-004 0. -8.06778446e-002 0. -6.60646558e-002
      -1.00091375e-001 -1.79533218e-003 -5.90210184e-002
      -9.45697911e-003 -8.70060734e-003 0. 5.25663197e-002
      8.25438090e-003 2.39808159e-003 -3.84677760e-002 -9.82414698e-004</_>
    <_>
      2.23952317e+000 2.92051047e-001 -2.17720661e-002 -2.05550119e-002
      3.79445567e-003 -2.39448249e-002 -2.30043773e-002 -1.55454306e-002
      -3.21959183e-002 -1.16433809e-002 -5.47247380e-002 3.06714349e-003
      -4.35914323e-002 1.03830837e-001 9.33734793e-003 -1.66048277e-002
      -8.74116868e-002 -4.58581969e-002 3.76290604e-002 -7.55881742e-002
      -6.72343224e-002 -8.71068984e-002 0. -4.67114151e-002
      -2.15335209e-002 -5.07188626e-002 -2.51888633e-001
      -8.77305344e-002 -4.14883271e-002 -2.78413519e-002
      -2.01660721e-003 -7.24161565e-002 -4.19047810e-002
      -9.55571979e-003 8.99202079e-002 -7.74498610e-003 -1.06410328e-002
      -2.37080315e-003 -2.21774895e-002 -3.62841040e-002
      -1.11374585e-002 7.05344044e-003 -3.85919437e-002 -5.66230621e-003
      -3.52384266e-003 -3.95963388e-003 -3.62254642e-002
      -1.69972535e-002 -6.12600297e-002 -5.16438074e-002
      -2.90001743e-002 -8.16046912e-003 -5.49961984e-001 1.33058801e-001
      -4.23359275e-002 -8.16607252e-002 1.25240264e-002 1.44155836e-002
      -6.03073128e-002 -3.00684944e-002 -1.71433408e-002
      -3.16920392e-002 -5.88623025e-002 -2.48702057e-002 9.92776930e-001
      -1.42915426e-002 -4.07970976e-003 3.47219944e+000 -8.03237222e-003
      -2.75214724e-002 -2.52091978e-002 -4.70844144e-003
      -6.00331947e-002 -2.28706785e-002 -6.68971613e-002
      -3.24298814e-002 2.40834113e-002 -2.15640012e-002 -5.76706836e-003
      -9.12602805e-003 -2.76779830e-002 -2.10612938e-002 1.44108078e-002
      -8.91463459e-003 -1.10125206e-002 -1.51591022e-002
      -2.05811057e-002 -2.40278561e-002 -1.78463217e-002
      -5.34401610e-002 -3.56871672e-002 -2.30946881e-003
      -1.14680994e-002 -1.43838134e-002 -6.79771304e-002
      -7.57002179e-003 -2.45368611e-002 -2.53711902e-002
      -3.66621390e-002 -4.95483503e-002 -7.05009094e-004
      -6.64092526e-002 -8.01441967e-002 5.32784350e-002 -5.05497567e-002
      1.31751541e-002 -2.05808971e-002 -2.46497300e-002 -2.27790442e-003
      -5.02975583e-002 -8.45701434e-003 -1.04192337e-002
      -1.05916895e-002 -3.08486186e-002 -5.40080816e-002
      -1.13960318e-002 -3.06683108e-002 -4.66772951e-002
      -2.82780156e-002 -1.56088835e-002 -1.52148707e-002 6.23444729e-002
      -1.73067991e-002 -1.11156041e-002 -3.96115966e-002
      -1.41428215e-002 1.35609759e-002 -7.87788630e-001 -4.85929176e-002
      3.33964080e-003 -1.43191013e-002 -2.32423693e-002 5.83225954e-003
      -5.28779365e-002 -3.20089459e-002 -3.58553305e-002 7.88137913e-001
      -3.09671718e-003 -5.01044206e-002 -4.52249404e-003 1.37386806e-002
      -7.11402074e-002 -1.66710392e-002 -1.52439019e-003 2.26329057e-003
      -6.62181526e-003 -6.89548382e-004 -1.09844571e-002
      -2.17934288e-002 -2.64776666e-002 -2.57027838e-002
      -1.01691643e-002 -3.11984438e-002 -1.92000214e-002
      -9.73029017e-001 2.84460820e-002 -5.12582362e-002 7.76407868e-003
      2.03992438e+000 -2.02601496e-003 -1.99636780e-002 -1.03348596e-002
      -8.34275037e-002 -4.81555089e-002 2.28192210e-002 -3.50484368e-003
      0. -2.78411984e-001 6.75737756e-005 1.45356148e-001
      -3.83068062e-002 -2.10810639e-002 -1.25899799e-002
      -6.15896396e-002 9.55476090e-002 -7.29832500e-002 -2.71708276e-002
      -2.28808559e-002 -4.13594320e-002 -4.44408022e-002
      -1.28364824e-002 7.19948579e-003 -4.43099160e-003 -1.42889973e-002
      -4.37864549e-002 -1.27743296e-002 -1.74221024e-002 9.72116180e-003
      -1.04874065e-002 -4.78607565e-002 5.72269037e-003 -7.72264674e-002
      -6.09151386e-002 -3.59124690e-002 -3.13836262e-002
      -1.28674135e-001 -1.78803075e-002 4.49906513e-002 -6.36748075e-002
      -9.81921423e-003 -3.10633276e-002 -5.40096425e-002 0.
      -1.07149892e-002 -4.43559885e-002 -3.80096249e-002
      -1.63297970e-002 -3.91560160e-002 -1.56188421e-002 5.96304089e-002
      -2.85602883e-002 1.16184819e-002 -2.59771049e-002 -2.89449822e-002
      -2.99273413e-002 -2.90009030e-003 -2.61979382e-002
      -1.10401988e+000 -4.03851829e-002 -8.27832334e-003
      -3.53591777e-002 -9.85345989e-003 9.93358251e-003 -2.93359626e-002
      -4.16725874e-002 -1.19538300e-001 -2.88540516e-002
      -4.75963466e-002 -1.43823382e-002 -7.36753464e-001
      -8.86822864e-002 -8.31398517e-002 -2.25007404e-002
      -7.86652416e-002 5.31162228e-003 -4.38539460e-002 -1.03369262e-002
      -1.37224635e-002 -4.12256606e-002 -2.81690131e-003 2.90290988e-003
      -2.98424414e-003 -1.34526510e-002 -3.69208045e-002 4.44536284e-003
      -5.27968183e-002 -2.83878893e-002 -9.24627949e-003
      -7.63468444e-002 -4.60195541e-002 -2.25929283e-002 4.61122543e-002
      -1.42535651e-002 -5.35138510e-003 1.58943124e-002 -3.05968560e-002</_>
    <_>
      1.64586496e+000 6.91985786e-001 2.29357788e-003 -2.66099013e-002
      1.77407730e-002 -1.47783253e-002 -9.71493404e-003 9.40296799e-003
      -6.57894742e-003 0. -4.45103087e-002 8.40336177e-003
      2.29357788e-003 3.03785259e-006 3.97951454e-002 -1.73384603e-002
      -5.44216633e-001 -1.08660527e-001 4.55415919e-002 -2.93871373e-001
      -9.65023413e-003 -5.58282137e-001 0. -2.76005603e-002 0.
      -7.99525250e-003 -6.65194511e-001 -2.19720369e-003
      -7.57363252e-003 -1.03860021e-001 -9.22587514e-003
      -3.48064639e-002 -1.04893245e-001 -1.46765225e-002 1.72414869e-001
      0. 0. 3.12500005e-003 -4.92610829e-003 0. 1.27322692e-003
      1.91943925e-002 -6.40764982e-002 -8.36820062e-003 0.
      -3.22580640e-003 -2.42237464e-001 0. -2.43920367e-002
      -1.02040814e-002 -7.40990695e-003 -4.18410031e-003
      -1.55637041e-001 2.89843500e-001 -2.08079647e-002 -1.40715986e-002
      1.20023079e-002 1.59427300e-002 -2.77887955e-002 -1.26035571e-001
      0. 8.50536581e-003 -2.07489021e-002 -1.35583784e-002
      7.89324522e-001 -4.79873940e-002 2.65644002e-003 4.52691746e+000
      2.48138956e-003 0. -1.40572622e-001 -5.22846043e-001
      2.84900283e-003 -3.93003924e-004 -5.01824953e-002 -4.42477874e-003
      9.32245404e-002 -5.03533939e-003 -4.32900432e-003 -4.68892790e-002
      -1.00807706e-003 2.72479560e-003 2.20732111e-002 -1.79262646e-002
      2.30946881e-003 -3.76532137e-001 -9.61385388e-003 -8.44069850e-003
      0. -1.11531150e-002 -8.59102681e-002 -3.24125774e-003 0. 0.
      -8.90242606e-002 -2.08970401e-002 -1.31322946e-002
      -8.61633047e-002 -7.44416844e-004 -2.58900551e-003
      -4.96945046e-002 -1.97596624e-002 -3.75590995e-002 3.05654220e-002
      4.82195988e-004 -4.22393251e-003 -3.81565168e-002 -4.34782589e-003
      -4.92610829e-003 -1.34568382e-002 0. 0. 8.81770626e-003
      5.99951781e-002 -4.79994230e-002 -1.38640394e-002 0.
      -1.11695901e-002 0. -2.60225423e-002 -2.90203184e-001
      3.12845483e-002 -6.77763019e-005 6.20586332e-004 -1.28760412e-002
      0. 2.64208876e-002 -1.21161170e-001 2.29357788e-003
      1.69600900e-002 0. -1.07992170e-002 -4.65246092e-004
      -5.73667604e-003 2.48138956e-003 -6.57894742e-003 1.26749885e+000
      0. 1.91709027e-003 -6.57894742e-003 8.77451897e-003
      -7.54058687e-003 -8.68537650e-003 0. 1.59814954e-002
      -5.10204071e-003 -7.47209564e-002 -6.53594779e-003 0.
      -8.51290151e-002 -1.78217404e-002 0. 0. 2.04948317e-002
      -1.52685553e-001 6.76610395e-002 -7.39674792e-002 2.85353959e-002
      1.26924264e+000 -2.32702754e-002 -3.24125774e-003 -2.47427821e-001
      -1.05439320e-001 -4.85436898e-003 2.17268579e-002 -1.14199314e-002
      8.60898010e-003 -6.56005442e-002 2.08244435e-002 3.31756383e-001
      -8.15191492e-003 0. -3.84615385e-003 -1.63902398e-002
      -1.10228106e-001 -3.51303406e-002 -9.30282753e-003 0. 0.
      -3.86460833e-002 9.09900293e-003 -7.73420185e-002 4.58223000e-003
      -1.39062176e-003 -4.32900432e-003 -1.31419236e-002 4.79616318e-003
      1.39804911e-002 -4.18410031e-003 -2.21700147e-002 -1.64309964e-001
      -3.40274096e-001 -9.92693305e-002 -1.08910941e-001
      -5.07326564e-003 -1.14399351e-001 -3.24125774e-003 8.31802636e-002
      -5.71904659e-001 3.54684307e-003 -5.35700750e-003 -1.19559057e-002
      0. -1.01010101e-002 0. -7.50984391e-003 -3.80228134e-003
      -8.62643681e-003 2.29357788e-003 8.87834132e-002 -2.66877189e-003
      2.07362771e-002 1.27763022e-004 2.29357788e-003 -6.51426986e-002
      -7.46964570e-003 -4.32900432e-003 -5.21779358e-001
      -1.09072942e-002 0. 0. 0. 4.82079908e-002 -2.22789496e-002
      4.51963395e-003 -5.29752336e-002 -2.28730887e-002 -5.98581089e-003
      -7.98638165e-003 -2.07381010e+000 2.60086935e-002 -6.68284446e-002
      0. -4.36681230e-003 -2.44773808e-003 -8.91319290e-003
      4.58223000e-003 3.20157446e-002 -1.28854602e-003 -3.64086539e-001
      -7.26206647e-003 0. -4.21199262e-001 -4.87804879e-003
      9.42440238e-003 -9.88488346e-002 -1.21740010e-002 2.10960992e-002
      -1.70798469e-002 -1.41021982e-002 -6.81088027e-003 7.84387961e-002
      1.00561827e-002 -7.53047224e-003 1.92952268e-002 2.84900283e-003</_>
    <_>
      3.03161120e+000 3.81813884e-001 -8.26288573e-003 -5.08729741e-003
      1.57994386e-002 0. -8.74367952e-002 1.90973356e-002
      -1.64976157e-002 0. -1.71955004e-002 -2.60299623e-001
      -2.54452927e-003 1.71713993e-001 2.15595532e-002 -5.14630601e-003
      -1.12548117e-002 -2.17185989e-002 -3.44162881e-002
      -4.69528325e-002 -1.02073764e-002 -3.45597304e-002
      -3.09597515e-003 -8.42441171e-002 -2.73224036e-003
      -5.23397699e-003 -3.22866887e-001 2.50654062e-003 -1.25923930e-002
